-0.025750944	0.021252051	-0.009344226	-0.0065887296	-0.00823518	-0.003639169	-0.0053785634	0.0051572006	-0.010384396	0.054467328	
***0.1***
--------------------------------------------------
-0.034163512	0.04360192	-0.010303264	-0.017287608	-0.016983557	0.008445169	-0.0016959517	0.027571758	-0.024983868	0.037354294	
***0.09000000000000001***
--------------------------------------------------
-0.039553255	0.05852494	-0.012088025	-0.027680168	-0.022714585	0.020451324	0.0010941313	0.045322903	-0.041777357	0.029975524	
***0.08100000000000002***
--------------------------------------------------
-0.042865746	0.07039417	-0.013672004	-0.03713635	-0.026506608	0.03233886	0.0039724396	0.06112388	-0.058095835	0.022002656	
***0.07290000000000002***
--------------------------------------------------
-0.045276623	0.08026379	-0.015212484	-0.045876235	-0.029035605	0.043856263	0.006601469	0.07542717	-0.07398512	0.014792824	
***0.06561000000000002***
--------------------------------------------------
-0.047161505	0.08872886	-0.016724886	-0.053963915	-0.030633545	0.055036448	0.00895446	0.08848465	-0.08940038	0.008235217	
***0.05904900000000002***
--------------------------------------------------
-0.0487177	0.09615526	-0.01819688	-0.06144666	-0.031492922	0.06592584	0.011035161	0.10045584	-0.10432506	0.0021626228	
***0.05314410000000002***
--------------------------------------------------
-0.050061867	0.10278094	-0.019609297	-0.06835933	-0.031743683	0.07655197	0.012848989	0.111447066	-0.1187645	-0.0035346681	
***0.04782969000000002***
--------------------------------------------------
-0.05126109	0.10876668	-0.02094283	-0.07472647	-0.031483836	0.086921774	0.014401279	0.12153056	-0.13272971	-0.008920824	
***0.043046721000000024***
--------------------------------------------------
-0.052350454	0.11422498	-0.022180518	-0.080566265	-0.030791707	0.09702526	0.015697952	0.1307599	-0.14622955	-0.0140339285	
***0.03874204890000002***
--------------------------------------------------
-0.05334489	0.1192355	-0.023308817	-0.08589397	-0.029731406	0.10683917	0.016746987	0.13918066	-0.15926746	-0.018900363	
***0.03486784401000002***
--------------------------------------------------
-0.054248136	0.123855814	-0.024318106	-0.09072487	-0.02835661	0.11633017	0.017560378	0.14683858	-0.1718395	-0.023542203	
***0.03138105960900001***
--------------------------------------------------
-0.05505911	0.1281266	-0.025203204	-0.09507677	-0.026713768	0.12545843	0.018155998	0.15378161	-0.18393598	-0.027978364	
***0.028242953648100012***
--------------------------------------------------
-0.055776745	0.13207649	-0.025963936	-0.09897167	-0.024844823	0.1341811	0.018558629	0.16006152	-0.19554257	-0.03222245	
***0.025418658283290013***
--------------------------------------------------
-0.0564028	0.13572453	-0.026605733	-0.10243641	-0.022789657	0.14245617	0.018799813	0.16573285	-0.20664282	-0.036280416	
***0.022876792454961013***
--------------------------------------------------
