-0.00028925433	0.0002810767	0.00031994155	-0.00024396395	0.0006734034	1.2633701e-05	-0.0014118347	0.0008417385	0.0005904669	0.0002849751	
-0.0012548366	-0.0007083054	0.0009290249	0.0027926022	-0.00061214075	0.00014992578	0.0005573765	0.0005421882	-0.0011495971	0.00068915857	
-0.00010644403	-0.0006840016	0.001856957	-0.00040132873	0.002079609	-0.000827395	-0.00029664772	-0.002314617	-0.0011543096	0.001855554	
-0.0002829121	0.0006978115	0.0009539141	-0.0001607668	-0.0005060108	-0.0022818064	-0.00041405892	-0.0006982202	-0.0010544943	1.0123296e-05	
-0.00079571264	0.0009684116	-0.0011991453	0.0018300558	-0.0012116805	0.0006618291	-0.0006891151	-0.0012715004	-0.0020861293	-0.0004688143	
0.00012455405	0.00024605304	0.00031707864	-0.0001614798	0.0001222301	0.0015048546	-0.00036585343	0.000539869	-0.0002667572	0.0009336444	
-0.00024204762	-0.000906289	0.0010306324	-0.0008610773	-0.00030509348	0.0019772653	0.00011906099	-0.00178658	-0.0020074358	-0.0004251593	
0.0026586344	-0.0010798959	0.00019556726	0.00030422714	-0.000426235	0.0005157414	0.0011855834	-1.5453448e-05	0.0008519249	-0.00015259054	
-0.0003819265	-0.0011909553	-0.0013122949	0.002278902	0.0011326958	-0.001469162	0.00069228205	-0.00037093053	-0.00020222596	0.0003802929	
9.076779e-05	0.000980386	0.00033220326	0.00025454094	0.000470966	-0.00028133322	-0.00022835641	0.0011522175	-0.00029480734	0.0015461202	
0.001102472	-0.0006523436	0.00106085	3.7791255e-05	-0.0008049086	0.000944124	-0.0006134874	0.0014670717	0.000109078224	0.0007590828	
-0.00036516073	-0.0023606638	-0.0010098714	-0.00097449217	0.00015984078	-0.00096680975	0.0004854142	0.00068264245	0.0003598356	0.0006095315	
-0.0009823545	7.005743e-05	0.0010670676	-0.0007215796	-8.003809e-05	-0.00073078624	-0.0017783222	0.00031213372	-0.0030224028	0.0010387395	
-0.0015782713	0.001066576	-4.3270495e-05	0.0012859296	0.00024605737	0.00080687733	-0.00070216815	0.0014973042	1.0610192e-05	-0.00057735696	
0.0013157816	-2.318934e-05	0.00016391373	0.00027145402	-0.001030044	0.00044038024	-0.0009799247	0.0015819605	-0.00021261154	-0.00027415584	
0.0006695035	0.00078491087	-3.1955378e-07	-0.00079645263	-0.001876384	0.00060302654	0.0008115593	9.6400734e-05	0.0018232218	-0.0008547857	
-0.001244072	-0.0014884392	-3.9157774e-05	0.0011340163	0.00024869424	-0.0007365609	0.0011547393	-0.00013710049	0.00087635906	0.00022326932	
-0.0014918061	2.666636e-05	-0.00050758495	0.0008557363	-0.0005186145	0.0008991903	0.00030849074	0.00052955747	-0.0012507038	-0.0010798965	
-0.0021523435	-0.0006322696	0.0010773623	-0.0002986688	0.0007038501	-0.001935913	-0.0014583978	6.2438885e-05	-0.0010613068	-0.00032568866	
0.0017142636	0.000121375764	0.00033789844	0.0015776393	-0.00011045495	-0.00094558706	0.0008945265	0.00031866366	-0.0012691384	0.0004248261	
0.0013243838	0.000100494915	0.0004955597	-0.0025822711	0.00058405753	0.00056435436	0.00071704626	0.0009188955	-0.0001949667	-0.00085322844	
-0.0018741152	-0.00067559426	-0.00092092	0.00031678312	-8.848837e-06	-0.00022160113	-0.00075420894	-0.0008575939	0.0009744559	-0.00054620224	
-0.0011859725	0.0007942204	0.00027914922	6.416504e-05	0.0014242384	-0.00078849785	0.0010208647	-3.5985813e-05	-2.8317836e-06	-0.0019025669	
-0.0012786363	-0.00019361114	0.0005219655	0.0009654736	-0.0005821055	0.00027254515	-0.0011284966	-0.00024093615	-2.989861e-05	-0.00022999173	
8.527191e-05	0.00076518365	6.117719e-05	0.0007674572	0.0011013558	0.0005370943	0.0005646066	0.0012492226	0.001178643	0.0013735356	
0.00040256552	-0.0010502086	0.0008142747	0.0019758283	-0.0009192118	0.0020237076	0.0007795736	-0.0005565158	0.001326185	-0.00049778976	
0.0004048808	0.0013692054	-0.0010076045	0.0016239927	0.00067253417	-0.0006278844	0.0009489298	1.2276927e-06	-8.71502e-05	-0.00038712056	
0.0009387183	-0.00019830899	0.0014383625	5.755663e-05	-0.0006796212	0.00044047635	0.0006167946	-0.0012974303	0.00011335167	0.001853442	
-0.0017607198	0.0017114464	0.00076660415	-0.001022129	-0.0015344215	-0.00062828837	0.0007975895	0.00045101327	0.00020287583	-0.00072676054	
0.0013109465	0.0004962819	-0.00061380386	0.0005622015	-0.00025729946	0.0006122833	-0.0011240814	-0.0017011347	-0.00043826996	0.00036775667	
0.0014816347	0.00029294932	-0.00042030998	-0.0018866099	-0.0014462494	-0.0009462519	-0.0006585964	8.658533e-05	0.0019411423	0.0012938824	
-0.00051085145	0.00043787915	0.0006599585	-0.0002229507	-9.477269e-05	0.00017573661	-0.0016311279	-0.0005348981	0.0005666307	0.00066325715	
-0.0021540478	-1.1929781e-05	-0.00087599776	-0.0020872224	-0.0009571325	0.0023412926	0.0010749627	-0.00014708143	0.0021527377	0.0017555043	
0.00037596043	-0.0009543695	-0.00079015887	0.0013063179	0.00047305424	0.0003686578	0.00019823408	-0.00060502795	-0.00068227085	-0.0018956045	
0.0009163817	0.000510873	0.00041137004	-0.00058923964	-0.0009343009	0.001027605	-0.00042823522	-0.0007395151	0.00101436	-1.5881968e-05	
-0.0017984895	-0.0017098519	-0.00054480945	0.0012903129	0.0012424504	-8.43103e-05	-0.001052297	0.00039900557	-0.0009949786	1.0195907e-05	
0.0003771759	0.0010002299	0.0008544562	0.00084400683	0.0007051266	0.00020074773	5.169755e-05	-4.5818084e-05	0.00094041246	-0.00028979007	
-3.267496e-05	-0.00012884295	-8.941371e-05	0.00045541933	-5.3358282e-05	-8.3703846e-05	-0.000443023	0.0009108571	-0.00078702706	0.0022091886	
-0.0018619942	0.0021206818	2.4297213e-05	0.0012598154	0.0011290129	0.0017229465	-0.0008223632	0.0012624369	-0.0016644065	0.00048202852	
5.3723295e-05	0.0006325287	-0.001696915	0.00026801176	-0.00038761136	0.0009964261	0.0014685519	0.0020403708	-0.0005001505	0.0009169884	
6.393446e-05	0.00091763714	-0.00052515196	-0.00016265371	-0.0016763507	-0.0006104334	0.00034427393	-0.0016081714	0.0007812282	-0.00088935543	
-0.0007171193	-0.00036181792	-0.00014989427	2.471628e-05	0.0012355562	-0.0014058226	0.0030639842	0.0008475362	-0.00022552894	0.00013962045	
0.00014394784	0.0017502501	0.00059446506	0.0008662289	0.00064089074	-0.0006015378	0.002955045	-1.5435658e-06	0.0012360882	-0.0011345526	
-6.10396e-06	-0.0014412329	0.0012831872	0.0009969571	0.00029612778	-0.0016053979	0.0019955016	0.0017851836	-0.0001596795	0.0003714121	
-0.00015799356	-0.0011528095	-3.1390077e-06	0.0013347513	0.0014940747	-0.00085724064	0.0028074908	-0.0010327561	-0.0010582239	-0.0023027502	
-0.0014727722	-0.00015878462	0.0010059146	-0.00055321015	0.0007787053	-0.0021638472	0.0027658693	-0.0008740308	0.0007602932	-0.0008866348	
-0.00021035723	-0.00044673454	-0.0012511302	-0.0010296861	-0.00026080682	-0.001243719	0.0007945163	0.001959411	-0.00061940827	0.0012503142	
-0.0007997334	-0.0018228232	-0.0014145933	-0.00087085174	-0.00059374387	-0.0016743531	0.0023915113	-0.0011182394	-0.0018659714	0.00027382097	
0.00067476265	0.0023583865	0.00015496384	-0.00020586615	0.0010983861	-0.000104967745	0.0008995886	0.0012075519	-0.00081035437	0.00033064192	
-0.0016759179	0.00070957025	-0.00026662677	-7.376514e-05	-0.0007074806	-0.0011901683	-0.0031127504	-0.0018847936	0.0010676315	0.00023591839	
-0.00075268117	0.00042945272	-0.00018278045	-0.001413775	-0.0002886434	0.0010999808	0.00070232624	8.1241116e-05	-0.00022520914	-0.00031717157	
0.00042098033	0.0011224082	-0.00055053603	5.1002102e-05	-0.0007072467	-0.0014271585	0.0010455736	0.00067069626	0.001011765	-0.0013375852	
-0.00037299364	-0.00049061363	0.0010221929	-0.0008860895	1.0027554e-05	-0.00034661085	-0.0015857434	5.347373e-05	0.0005932268	0.0013265659	
8.290436e-05	-2.6981379e-05	0.0007391572	0.00164623	-0.0005582472	0.0014107521	-0.00010328625	-0.0005690753	-0.0013440414	0.00077700947	
0.00044279647	-0.0003997382	-0.0007063872	-0.0004284271	-0.00090837566	-0.0017094461	0.0012077938	0.00024016402	-0.0003979843	-0.0009000114	
0.00018919283	-0.00047719397	0.0002621106	-8.248791e-05	0.0008040541	-0.00033582043	0.0010619547	-0.00042224134	0.0008381908	-0.00050054095	
-0.0003739561	0.0011441965	0.00094810256	0.00024383604	-0.0006630295	0.0003304387	-0.0029178534	0.00071712374	-0.00021149436	0.0008939674	
-0.00039262127	0.0012851253	-0.00042011967	-0.0025656566	-0.00044898505	-0.0023815408	0.00103097	0.0011321126	-0.0026868875	-0.0004193927	
-0.00024178156	0.00010673105	-0.000877916	-0.0010782249	0.00019035798	-0.00040651995	1.51734375e-05	-0.0011102037	-0.0016500267	-0.0002270011	
-0.00032859648	0.00016888333	0.0011800894	9.834146e-05	-0.0021800848	-0.00200131	0.001400257	-3.0479903e-06	-0.0012468738	0.00081806025	
0.0013448664	0.00057033595	4.545395e-05	6.0604132e-05	-0.0019839257	-0.00016212085	4.3650307e-05	-0.0008212341	0.00035827068	-0.00047268282	
-0.00044034337	0.0015012512	-0.00027184936	-7.334875e-05	-0.0015194764	-0.00045639477	0.00048548248	-0.0006867875	0.00031731234	-0.00051711785	
0.001651248	-0.002101929	-0.00052281027	-0.00051927427	-0.0002982762	0.0007822993	0.00036022087	0.00019064137	0.00033537234	0.00048097162	
-0.00053808594	-0.00065147254	-0.0009527017	0.0015938181	0.00047810024	-0.00058533734	-1.421175e-05	0.0013364231	0.0005698341	-0.00060027005	
-0.0009813796	-0.0010113892	0.00051575416	0.0012461942	-0.00024222473	0.0014660477	-0.0001887598	0.00016316872	-0.0010914855	0.00087216886	
0.0007676035	0.0009727119	-0.0020447744	0.0004107575	-0.00073799805	0.0015920791	0.002570447	5.0557595e-05	0.0007868127	0.0012092779	
-0.00055089674	-0.0019155574	0.0001614117	-0.0013039693	0.00037579512	-8.2439954e-05	0.0028870183	0.0011231513	-0.00097617775	-0.0007325767	
-0.0014619575	0.0007314303	0.0008199436	-0.00057813793	-8.777782e-05	-0.0046398616	0.0050696796	-5.677272e-05	0.0016044957	-0.0003107022	
-0.0015755555	-0.0011703491	0.0018624965	-0.0009270616	-0.0038081838	-0.0023826486	0.0051517165	9.159697e-05	-0.0016402311	-0.00081649254	
-0.0018816967	-0.0017532009	0.002994733	-0.0015962451	-0.0028352838	-0.0032802103	0.007471057	-4.6762125e-05	0.0011698512	0.0006812473	
-0.00012548755	-0.0029844956	0.0025433637	0.0005805083	-0.0028771642	-0.006255315	0.011366889	-0.0006668863	-0.00077480386	-0.0016117576	
-0.0010538705	-0.00011723079	-0.0004143617	0.00087100803	-0.0042823823	-0.009141165	0.015708605	-0.0003846826	-0.00016526619	-0.0010067761	
-0.0016215425	0.00021569835	0.00016868973	0.000700498	-0.00081521965	-0.0165742	0.02242531	0.00031744363	-0.00012692233	0.0006118471	
-0.0011948113	-0.0006412633	0.0007407855	-0.00015697151	-0.0009940093	-0.019769244	0.024066575	-0.0008501043	0.0005508853	-0.0004144984	
0.00019158148	0.0002034885	-0.0032563207	-0.0013052324	-0.0027797946	-0.018253662	0.024633693	0.00079791783	0.0003871427	-0.0010281021	
-0.00034075076	-0.00087667786	-0.0014460521	0.0005922911	0.00012990386	-0.015180318	0.019133335	-0.0031994693	0.00012423343	-0.00081202545	
-0.00084754574	-0.00019746533	-0.0014175707	-0.0010992344	-0.0003314798	-0.0076061306	0.008882637	-0.0021759588	0.0016153351	-0.00040958202	
0.0010449054	-0.00044524882	-0.00047810993	0.0007628258	-0.0010827789	-0.003901665	0.004612803	0.00079315744	0.00058630045	-6.9903464e-05	
0.0009601367	0.0010254112	0.0009202776	-0.00016565667	-0.0007206458	-0.0010340624	0.0027420784	-0.00068620424	-0.00027165413	0.00084384735	
-0.0016564208	-0.00045491324	0.0008704241	-0.00048600955	-0.0006941335	0.0006801794	-0.00031368516	0.0014827929	-0.0005038453	0.00033406544	
0.0006426443	0.0008157944	0.0021350016	0.00018667559	7.670897e-06	0.00087147753	0.0010472005	-0.0014604677	0.00038546388	0.0006647392	
-0.0013274694	-0.00021445878	0.0011969171	-0.0004476329	0.00038694227	-0.00059113477	-0.0021720561	0.00023169341	0.00051456597	0.00076829863	
-0.0012592935	8.153773e-05	-0.0007816336	0.0005512951	0.00087181694	-0.00059285853	0.001401025	0.00056792924	-0.0005744744	-0.00093787455	
0.0009018042	0.00014394143	8.689819e-06	0.00036903622	-0.00024362645	-0.00015654766	0.0006090977	0.00069120416	-0.00048702385	-0.0011469643	
0.000579488	-0.00011004513	0.0004231597	0.00061154686	-0.00030544854	0.0001577878	0.0015548931	-0.0013089738	-0.0010724565	0.0010919702	
0.0003350182	-0.0006964877	0.0013890367	0.0021714806	0.000915334	-0.00010913818	0.0016633221	0.0003703779	-0.00040891324	0.00021242334	
0.00062854076	0.0005060036	0.00096153864	0.0007194057	0.00072637136	0.0008742426	0.0003930003	0.00026059707	-0.00018960328	0.00082162884	
-0.00018481308	0.00074037304	-0.0016881953	0.0005478496	-0.0003454202	0.0015844287	0.0019259052	0.0010243565	0.0016721499	0.0014156459	
-0.00046075392	0.0009302072	0.00038474044	-1.5561778e-05	0.0006102101	-0.0004917606	-0.000498714	0.0010664746	-0.00097582693	-0.0019943065	
-0.0010013352	-0.0003050493	-0.0015272768	-0.0008631962	0.0022680138	0.00035100724	-0.0014035644	0.0010862869	0.0012047034	0.00023652136	
-0.0011409778	-0.0009991818	0.000607115	-0.00047409316	3.590527e-05	-0.0003094559	-0.002776796	0.00048189503	-0.0005535235	-0.0017387071	
-0.0016233562	-3.1135438e-05	0.0027003908	-0.0013502196	0.0012494379	-0.0009761839	0.00014645312	-0.00047584058	4.271995e-05	-0.0015618597	
-0.0005661789	-0.003290274	0.0040087476	0.0009850108	-0.0019207739	-0.00030982858	0.0015987494	0.00071401853	-0.0002546916	-0.0009651532	
-0.0018331021	-0.0019297668	0.0038180011	0.0003627663	-0.0019778179	-0.00025114103	0.0042137178	-0.00048419074	0.0022251562	-0.001373238	
-0.0023699051	-0.005768394	0.0073414403	0.00089082285	-0.0034568957	-0.003108836	0.0070118955	-0.00060446456	0.00024190635	-0.0008482923	
-0.0038687973	-0.008101927	0.010441605	0.0018016098	-0.005187573	-0.0062409774	0.007767886	-0.0006343053	0.00039415108	-0.0014260546	
-0.0043347483	-0.011800049	0.013567536	0.000507067	-0.0062357425	-0.005458485	0.013376989	-0.002065988	0.0016876113	-0.00032474904	
-0.0063613765	-0.010727418	0.018143246	-0.0008900295	-0.005123318	-0.008407667	0.017967384	-0.00016838207	-0.0005836899	-0.0010972484	
-0.008141833	-0.010123817	0.018299187	-0.0003688131	-0.0072513353	-0.013314479	0.028015148	-0.002080863	0.00016904107	-0.0023726034	
-0.007772071	-0.011781491	0.016607765	-0.0023845143	-0.0060474067	-0.029761724	0.04108324	-0.0013348854	0.00027955868	-0.0013925934	
-0.0073245964	-0.011643916	0.014367706	-0.002573168	-0.007430365	-0.038378116	0.0550243	-0.002049948	-0.002367414	-0.0025844236	
-0.0063278163	-0.00903784	0.009597249	0.0015485584	-0.00446541	-0.041670293	0.05770127	-0.0027479234	-0.0008260005	-0.0019891437	
-0.0036294737	-0.007308426	0.009204198	-0.0016011762	-0.0029036861	-0.038333736	0.047267605	0.0015482969	-0.0005139327	-0.0013588328	
-0.000693883	-0.003954622	0.0024318844	-0.0015032744	-0.0032191954	-0.031109562	0.041259874	-0.00052149076	-9.172564e-05	-0.0003535686	
-0.0023685268	-0.004521331	0.0029300172	-0.0017989058	-0.0013622376	-0.017488383	0.020618249	-0.0011136339	-0.00027545844	0.0013545493	
-0.0008688967	-0.0031853248	0.0019255871	-0.0019188813	0.002203396	-0.007929129	0.010112938	8.456074e-06	-0.0015133114	-0.0005980911	
-0.0021452846	0.00076046534	0.0012310084	-0.0017743501	-0.00040009894	-0.0022000747	0.003110348	0.0008556228	0.00088164397	-0.0018209247	
0.001852223	0.0002915746	-7.8943085e-05	-0.00020885169	3.591132e-05	-0.0012948479	0.0006543158	-0.0005435157	-0.00023667615	-0.00030388645	
-0.0027374616	0.0010209184	-0.000817415	-0.00011761722	-0.0020946525	-0.0008199774	0.00049670844	-9.738264e-05	-0.0002164117	0.00031600843	
-0.00022628486	-0.0005915791	-0.00065577764	-0.00033178338	-0.0005992541	0.0001295937	-0.00029060934	7.369043e-05	0.0009772272	-0.0005102374	
0.0011156941	0.00051177305	0.0006802247	-0.0012276034	0.00042749543	6.13308e-05	0.0004950244	0.0010570032	0.0018326519	0.001310814	
0.0003967315	-0.000113179325	0.0014730612	-0.0010822499	0.00042010733	-0.0010407196	-0.0008372844	-0.0010248338	0.0012338511	-0.0004355249	
9.49402e-05	0.0012410455	0.0012371232	-0.00047703157	-0.0006421287	0.0007553174	0.0002102805	0.0012583055	-0.0009544856	-0.0016428885	
0.00033804215	-0.00093102606	0.00074112	-0.0013976626	-0.0006297679	0.000114872775	-0.0022308584	0.00032558694	0.00074226724	-0.0015747781	
0.0016153194	-3.0979092e-05	0.0018276523	0.0004988412	0.0012526221	0.0025183756	0.000121873236	0.00011976848	0.00029716975	0.0012962578	
-0.0012720574	-2.889488e-05	0.00078014046	-0.0004134024	-0.00037489485	-0.0014033704	0.00024507457	-0.002921013	0.0015016921	0.0010924239	
-0.0009375912	-0.0005244382	-7.273914e-05	0.000820321	-0.0005219383	6.970833e-06	0.0008468741	0.00088776875	-0.0013366232	-0.0021495458	
0.0006906071	-0.0021024924	0.00059747737	0.0010836475	-0.0009757635	0.0019230322	-0.0010879885	-0.0014768454	0.0011745963	0.0014285592	
-0.00061915355	-0.0016507881	0.002179984	0.0016169975	-0.00076325826	0.00060933444	0.0010917052	0.0004023936	-0.00025452444	-0.0008460276	
-0.0021311038	-0.003772187	0.0025121302	-0.00031120263	-0.0012194264	-0.0003017949	0.0019468532	0.000605	0.001642662	-0.00014699162	
-0.0027599959	-0.0058886623	0.007630071	0.0012557548	-0.00047652694	0.000118071395	0.0026055053	0.00014250832	-0.0008500767	-0.0003211625	
-0.0038299058	-0.010776332	0.012894761	0.0022402867	-0.0034145662	0.0012650214	0.0042582545	-0.003232476	-0.0012122303	-0.0002765382	
-0.005451142	-0.01461612	0.013317635	0.0074287783	-0.0064178263	-0.00021335398	0.009513051	-0.00338593	-0.00031820717	-0.0026069279	
-0.0064476603	-0.019233536	0.019680131	0.010134492	-0.009232486	0.0006455852	0.011900194	-0.0031406754	2.235187e-05	-0.0004203598	
-0.0070711295	-0.016982572	0.021107133	0.013538459	-0.009248134	-0.003343753	0.015950266	-0.0060406025	-1.3323106e-05	-0.002957639	
-0.007842369	-0.018382354	0.024198199	0.0140755735	-0.015831226	-0.011458695	0.022407398	-0.011162134	0.005574082	-0.004373326	
-0.0069805337	-0.013268093	0.02755286	0.01213543	-0.014368681	-0.025097327	0.037214804	-0.014929844	0.008751336	-0.0065568625	
-0.011293865	-0.014748838	0.02650873	0.018803218	-0.01516994	-0.041433915	0.0527576	-0.020563992	0.011718895	-0.0076926798	
-0.011127141	-0.019786632	0.021055931	0.015542864	-0.015295852	-0.046013515	0.065173894	-0.021848805	0.015954109	-0.005166437	
-0.008144967	-0.008566903	0.010397221	0.015671903	-0.014897087	-0.044193443	0.062062707	-0.019323668	0.011723511	-0.0064859693	
-0.010639814	0.0023301905	0.0049605845	0.009831765	-0.011343123	-0.031460933	0.048852734	-0.016512172	0.009894676	-0.0064153057	
-0.0071914922	0.003137171	0.005000799	0.0023282683	-0.0077602877	-0.018205315	0.03359235	-0.012890258	0.008313094	-0.0060641165	
0.0024754223	0.00061417127	0.0028876825	-0.0070068496	-0.0014147833	-0.0016200823	0.01861378	-0.011217	0.007765658	-0.0053947475	
0.0027936494	-0.0010924187	0.0030342443	-0.010100543	-0.0007306898	0.0068267793	0.0058955234	-0.0063661383	0.003938665	-0.0036893606	
0.00041603795	0.0009966744	-0.0011497117	-0.0076247994	-0.00281025	0.0072625703	0.003708052	-0.0016616711	0.0013754051	-0.0026281453	
0.0007466859	-0.00035784926	-0.00051115203	-0.0025896549	0.00067767274	0.0041863164	0.00088224787	-0.0028054083	0.0024573533	-0.001465481	
-0.00038438354	0.00053962646	-0.0008115506	-0.0009358016	-0.0006058937	0.0030689533	-0.0005114555	-0.00012322795	0.00081740855	-0.00011822413	
0.0010706596	3.171586e-05	0.00015867915	-0.00034164244	-0.001261873	-0.00094130205	-0.00030166612	0.0007160215	0.0023582673	0.000629024	
0.0005167216	0.00082630845	-0.0005618585	-0.0011487379	0.0010586744	-0.00090747053	0.00038417775	0.00094201264	0.0016052597	0.0009890726	
0.0003092653	0.00015556694	0.0008434402	0.00012568623	-0.0013521132	0.0005128468	0.00017847803	-0.00085513125	-0.0020079103	0.0012818233	
2.4981793e-05	0.00013255516	0.0016316624	0.00039427791	-0.0006347784	0.00013818816	0.0007023143	-0.0008406425	-0.00013034078	-0.00034387142	
-0.0021243864	0.0010671328	-0.0013366386	0.0027722274	-0.00051356165	0.0019891309	0.0011482103	0.00054584735	-0.0009959713	0.00082289474	
0.00074097974	0.0015828023	-0.00010757325	9.514519e-06	-0.00037251323	0.00076682435	-0.0001676759	0.0001417963	0.0022769698	-0.002044947	
0.0017943608	0.0007058741	-0.001685343	0.0011603071	0.00058142305	0.0005421341	-0.0011140619	-0.0006330889	0.000583773	-0.0003177576	
-0.001435766	-0.0009856625	-0.0020124095	7.798718e-05	-0.0006482028	0.001179039	0.002656251	-0.00015595145	-0.0007901529	-0.0003046504	
-0.0005273307	-0.004132161	0.0013824492	0.0012854756	0.0018533933	-0.0023750348	-0.0012656017	0.0004590576	-0.0010643135	-0.0016859602	
-0.003262189	-0.0035162962	0.003932636	0.0035591817	-0.0007709224	0.0021426585	0.0015707855	-0.0013883623	-0.0005711838	0.0016990185	
-0.003994777	-0.006864549	0.0029779526	0.007166806	0.00086277776	0.0023630112	0.0005472737	-0.00010891557	0.0020496147	-0.003926173	
-0.0075116996	-0.013577595	0.008694233	0.008972417	0.00059929193	0.0052236402	0.0019738995	0.00010744564	0.0024745767	-0.0023079356	
-0.007728965	-0.02322395	0.0118988305	0.013598622	-0.0016783976	0.0056748725	0.0032110305	-0.00052606576	0.0007151221	-0.0026977628	
-0.006459972	-0.03173578	0.011072466	0.021967461	-0.0030232577	0.005346346	0.009154176	-0.0040491517	0.0023486745	-0.0018507494	
-0.0059799496	-0.039422534	0.013544211	0.025943005	-0.010756578	0.007606931	0.010465963	-0.016143007	0.01237642	-0.0013575312	
-0.009364904	-0.032219034	0.009980063	0.035439197	-0.016849654	0.0043620146	0.015701026	-0.023980726	0.018364837	-0.002172868	
-0.008703941	-0.02581025	0.0038058984	0.044282734	-0.025828237	-0.004945959	0.02322933	-0.040054422	0.033474572	-0.004088313	
-0.0028523956	-0.021818	0.0043756613	0.04650433	-0.032148786	-0.016235571	0.035302054	-0.055284835	0.050439965	-0.0041808533	
-0.0017134288	-0.021570055	0.009249395	0.038729183	-0.040657744	-0.023216149	0.048401825	-0.06266961	0.059010625	-0.005707579	
0.0009928995	-0.024280347	0.011222968	0.033933975	-0.039461702	-0.021175263	0.04924784	-0.06823705	0.06105455	-0.006188421	
-0.001949246	-0.013816143	0.010343009	0.020171914	-0.03404935	-0.010880216	0.042956702	-0.066810004	0.06314104	-0.005594158	
-0.0054089115	0.0025233529	-0.0022454052	0.012242327	-0.021750528	0.00083104346	0.028251078	-0.058716103	0.05350409	-0.009023107	
-0.0073265843	0.013795474	-0.0025314724	-0.00078563555	-0.012876409	0.011882126	0.012136828	-0.046354238	0.041091062	-0.007887231	
-0.0055684056	0.003232019	-0.0025877808	-0.008634125	-0.0048817503	0.022931945	6.469373e-05	-0.030440891	0.025668664	-0.0077390233	
-0.0011193946	-0.004192213	0.0009921981	-0.011158607	-0.0020350092	0.030905372	-0.0028552448	-0.018433768	0.015486871	-0.00457702	
0.0016507511	-0.0031476414	0.00018609656	-0.014840871	-6.314048e-05	0.024951056	-0.0018157816	-0.007491267	0.007780611	-0.002478104	
0.00146903	-0.0015002808	-0.0044137263	-0.011855999	0.0032823493	0.017988643	-0.0011511014	-0.0079589095	0.005706337	-0.001481261	
0.0010523135	-0.001558298	-0.00090463593	-0.005787297	-0.00024860265	0.011726119	-0.0007250362	-0.0011771106	0.0006887209	-0.0015075003	
0.0018561168	0.00075752474	-0.0006857371	-0.0022172353	0.0021860756	0.0020998174	8.003485e-05	0.00018853959	-8.523175e-05	0.001464019	
0.00040409339	0.00073626323	-0.00043381285	-0.0021298171	0.0004885804	0.00079907215	0.0021626004	0.0005659482	-0.0009434937	0.0011572725	
0.0009563226	0.00038302518	-0.0012063239	0.00014807197	-0.0013998498	-0.0008267009	-0.00039028484	0.00041814437	-2.3232631e-05	0.00068291527	
-0.0015236186	0.00011647254	0.00010343441	0.0006942051	0.001002096	-0.0012603047	-5.2502205e-06	-0.00057965197	0.00035723613	-0.00197185	
-0.001521232	2.1406611e-05	0.00031658958	0.00053938583	0.0014682998	-0.00021511869	-0.00019327522	-0.0011969926	-0.0013149686	-0.0015535407	
-0.000755852	0.0018967664	-0.0027392274	-0.0009692788	-0.0011919237	0.0011959419	-0.0018267318	-0.0020093769	0.00044657922	9.8409655e-05	
-0.0006921428	-0.0002882706	0.00010605882	0.0015927717	0.0022642978	-5.940133e-05	0.00022040239	0.0008777551	0.00054571166	-0.00043615355	
-0.0007827209	-0.001455223	-0.0030203543	0.0013872647	0.0026217399	-0.0011060047	-0.00015327473	0.00024772758	0.0009826313	-0.0026783568	
-0.0029789298	-0.003733996	0.0018183902	0.004646036	0.0014903663	-0.001405344	-0.00087521225	0.0004876737	0.00054612244	-0.000377656	
-0.00656435	-0.009847936	-0.00014410348	0.011420911	-0.00016595978	0.00017298096	-0.0014322019	0.0035274322	-0.0002469194	-0.0014106584	
-0.006026835	-0.014006282	-0.0003512212	0.016351793	-0.0023187282	0.0036380687	-0.0034862892	0.0030942657	0.0036923168	-0.00038215128	
-0.009669191	-0.02296311	0.002847241	0.021157788	0.000856007	0.0053062914	-0.003069128	0.003473581	0.003852762	-0.00071361905	
-0.0056353994	-0.033909954	-0.002765793	0.025640903	-0.0028730526	0.011418889	0.00086967496	0.00017681767	0.005111908	0.0021805656	
-0.0038257968	-0.04095384	-0.0055825813	0.03237094	-0.0055109174	0.01286031	0.0017350855	-0.013715981	0.016251344	0.0063567283	
-0.006823048	-0.048044156	-0.011573469	0.04064034	-0.011295104	0.016265882	0.004707993	-0.025527785	0.029078655	0.013852933	
-0.005866224	-0.041716114	-0.01342711	0.04508442	-0.025181402	0.013256961	0.0069884355	-0.039426923	0.039612163	0.023005852	
-0.0035199304	-0.031644013	-0.018526211	0.048356608	-0.041489545	0.0025444967	0.017555643	-0.058034662	0.047155745	0.03582927	
-0.0006297886	-0.01830101	-0.017182326	0.04859442	-0.058809433	-0.008335198	0.030813174	-0.0703195	0.039836667	0.053666726	
0.006993378	-0.023257459	-0.015460135	0.05026253	-0.061845694	-0.008087564	0.034608625	-0.07761435	0.030260917	0.06350755	
0.008538954	-0.024031112	-0.009081313	0.037784237	-0.0538298	0.0048133982	0.020522691	-0.075779796	0.02629658	0.06540552	
0.0046159816	-0.012386657	-0.0033855694	0.022848157	-0.04105516	0.015050541	0.008418918	-0.07713511	0.034179848	0.05373277	
0.00026403886	-0.00031728193	-0.01083803	0.012636543	-0.02715608	0.029786404	-0.0052434625	-0.072624326	0.03791009	0.03348838	
-0.0008324065	0.004477045	-0.018740997	0.0045419526	-0.015315248	0.045497034	-0.011414364	-0.06173248	0.038610872	0.0173025	
-0.000800549	-0.0053422893	-0.013383737	6.5859356e-05	-0.005193593	0.04570385	-0.013431766	-0.046277378	0.038850907	0.002301213	
-0.00021171883	-0.012690932	-0.00739589	-0.011618595	-0.0011296645	0.044098657	-0.009490706	-0.03178033	0.030997043	-0.0042289393	
-0.0009636491	-0.008536098	-0.0050837123	-0.012712363	0.0007616941	0.03947591	-0.004130869	-0.017532684	0.017132616	-0.0015301985	
-0.0014228304	-0.004394966	-0.005468323	-0.0141557325	-0.004153087	0.032803472	-0.0019695978	-0.010634136	0.00802131	-0.003019146	
-0.0025078044	-0.0023500393	-0.0022220786	-0.009326755	-0.0055414876	0.024994707	0.0013536277	-0.005062638	0.0030324687	-4.823663e-05	
-0.0018515945	-0.0019750749	-0.0014316275	-0.0022843152	-0.0028133597	0.009402034	0.0010719951	-0.002115348	0.0011062118	-0.00072098966	
-0.0006061509	-0.0012150948	0.00011128571	0.00036134614	-0.00058473874	0.00019998517	2.457861e-05	-0.0019580126	0.0015136849	0.00034543854	
-0.0010100421	-0.0009822884	-0.00047382378	-0.0008551702	0.0004759566	-0.00016239914	0.00040548574	0.00025816483	-0.00048392883	0.0018620547	
-0.0005801161	-0.0007276437	-0.0012916443	0.0011152449	0.00058388873	-0.0022828644	0.00017667955	0.0012877748	0.00062402355	-0.0004839998	
0.0012245344	-0.00065018557	-0.0005884068	0.0014402777	-0.0014979372	0.0017015751	-0.0027160316	0.00047502745	-4.327615e-05	-0.0005295336	
-0.0017747398	0.0004998052	-0.00024741222	-0.0015774468	0.0010827887	9.550791e-05	0.0012748233	0.0011170696	-0.001530243	-0.0030325633	
-0.0018076504	-0.0007614372	-0.0019780195	0.0017896678	0.0002610463	0.0018154911	-0.0006290037	0.0023188884	-0.00010848164	0.00010529647	
-0.00079655467	-0.0010090391	-0.003917814	0.0051049334	0.0033220842	-0.001830187	-0.0012335723	0.0027180351	-0.0008068446	-0.00029237726	
-0.0033440732	-0.006736565	-0.0030483361	0.008869151	0.0055453395	-0.0022202788	-0.005173037	0.007054319	7.775926e-05	-0.0015836883	
-0.006299476	-0.012198786	-0.0027088153	0.015488565	0.00070136396	-0.0012437815	-0.006937235	0.012374676	0.0018125523	-0.0011913034	
-0.0074316137	-0.017048618	-0.0025255422	0.017195364	-0.0013334717	0.0052933926	-0.012609179	0.018610064	0.004579682	-0.0005895896	
-0.003147488	-0.02615561	-0.005738542	0.017481739	-0.006945466	0.010406922	-0.016599024	0.017156646	0.009405819	0.0052346177	
-0.004177945	-0.037271157	-0.012125674	0.016729966	-0.0046379725	0.012595501	-0.016693361	0.015719213	0.010996903	0.010204548	
-0.0023096334	-0.04648908	-0.01650892	0.01897856	-0.008646437	0.014405216	-0.02239774	0.011779665	0.022557598	0.028504316	
0.0008347917	-0.050353274	-0.021786984	0.022025593	-0.017674234	0.009214812	-0.021867996	0.0039536376	0.02752055	0.045020055	
-0.00010587799	-0.03929805	-0.02512297	0.031018622	-0.0378773	0.008498755	-0.01647647	-0.009457159	0.017925588	0.07090543	
0.0016223309	-0.02267482	-0.024106123	0.030450119	-0.059292816	-0.003918391	-0.002819206	-0.015918301	-0.001353874	0.09747774	
0.0034474486	-0.007912038	-0.024728898	0.032392215	-0.07112335	-0.015282373	0.0054129832	-0.018131401	-0.018522847	0.11504569	
0.009105494	-0.01078009	-0.021128466	0.032120418	-0.07350974	-0.008775436	-0.0052612433	-0.018262282	-0.02885975	0.12196846	
0.0040638396	-0.010632864	-0.01869398	0.024652258	-0.062064424	0.012117949	-0.027723236	-0.015316434	-0.0271359	0.116952255	
0.005864535	-0.008459995	-0.014782489	0.018673062	-0.04374732	0.028002592	-0.043466818	-0.012973483	-0.021663008	0.09851616	
0.0027187543	-0.0049470277	-0.018427879	0.00779916	-0.020681111	0.038436998	-0.049567673	-0.02066763	-0.0037334205	0.071223676	
0.006538353	-0.01099461	-0.020325253	-0.0009976225	-0.008794009	0.048065174	-0.04745895	-0.023081657	0.008336867	0.048046257	
0.005960799	-0.024022456	-0.021463225	0.00030346346	-0.0021512439	0.053825043	-0.035659533	-0.028630251	0.02781886	0.02049152	
0.0045747454	-0.026284404	-0.010320642	-0.0052059195	-0.0040493687	0.051203113	-0.021637255	-0.02764865	0.034544554	0.0045331325	
-0.000120704855	-0.016627492	-0.0076719085	-0.0074919807	-0.007016323	0.048576593	-0.010331947	-0.02254036	0.022297995	0.00039425358	
-0.0005688358	-0.009747124	-0.005493585	-0.014203754	-0.013190914	0.04517624	-0.0034959293	-0.013847158	0.015632378	-0.0016999057	
-0.00046881704	-0.0033841657	-0.002258375	-0.0089200195	-0.011090945	0.03413706	-0.00051697524	-0.005737893	0.0046238364	-0.0026573914	
-0.0021689313	-0.0013460931	-0.0018780441	-0.004385716	-0.005978349	0.01740386	-0.00025277308	-0.0040419386	0.002095878	-0.00024009615	
0.00044416278	-0.0017466844	-0.000595133	-0.0006792105	-0.003614437	0.0048963036	-0.0006723116	-0.0052909595	0.0016695216	0.0009578035	
0.0011465023	0.001861173	-0.00057761674	0.00047669746	0.0008125657	0.00055912323	0.00019854146	-0.0010441095	3.0545227e-05	0.00014570761	
0.00053776347	0.0015688791	-0.0009939452	-0.00057109643	-0.00018726986	-0.00063737086	0.0009876495	0.0005111417	0.0013452866	0.002104632	
0.0014096524	-0.00025120671	-0.0018734881	-0.00038209837	-0.0011596815	0.00094332034	0.0007631258	0.0012999044	-0.00024324638	-0.0018117223	
-0.0013686	0.0010086366	3.4577276e-06	0.001064543	-0.001191771	-0.0011942313	-0.0021586302	-0.0010004601	6.665096e-05	-0.00027633153	
-7.982495e-06	-0.00076863915	-0.0037143647	0.0018672347	-0.00041320352	0.00074957265	-0.0030044066	0.0052657383	-0.00011662588	-0.00074080616	
-0.0049035973	-0.004273247	-0.0034100611	0.005049626	0.0035996046	-0.0011411442	-0.0040288502	0.009238	-0.00015135203	-0.00042226183	
-0.003016317	-0.0076938155	-0.003102645	0.006050553	0.005326285	-0.001805989	-0.008052872	0.017010266	-0.00012253874	0.0003800609	
-0.005700673	-0.013744279	0.0007233775	0.008485211	0.0016643511	-0.0011616672	-0.015429771	0.026488772	0.001638781	0.00050433556	
-0.003922587	-0.021636253	-0.0008197577	0.004821876	-0.005848982	0.001964599	-0.025034798	0.034302033	0.008187831	0.0054435055	
-0.0018865677	-0.026274431	-0.008609992	0.0013419455	-0.008850344	0.009376113	-0.029869245	0.040891767	0.009251423	0.014339056	
-0.0007300413	-0.03628357	-0.013037901	-0.0070521724	-0.005932584	0.0075863134	-0.031566165	0.04075017	0.0124177	0.031955138	
0.0054697674	-0.04542884	-0.018157994	-0.00707787	-0.0117997555	0.004069823	-0.035127018	0.039309975	0.0102284495	0.056648698	
0.0072206967	-0.04467753	-0.018793665	-0.010776066	-0.025605226	0.0018569003	-0.03768748	0.035406813	0.0027120262	0.08636603	
0.008319473	-0.033623915	-0.018582763	-0.008008584	-0.04031894	-0.007512195	-0.024306314	0.031175502	-0.010938404	0.10818711	
0.006763862	-0.009378565	-0.01654341	-0.0064814636	-0.058033306	-0.020537362	-0.010486161	0.034715895	-0.02337066	0.106568836	
0.0013157973	0.014285794	-0.015766252	-0.0007731874	-0.07434359	-0.013043125	-0.01687665	0.042750273	-0.036703102	0.101411395	
-0.003627962	0.015559745	-0.016641628	0.014004921	-0.0756544	-0.003914518	-0.040678017	0.05337756	-0.0364225	0.09063737	
-0.009780904	0.009049692	-0.024194637	0.018972762	-0.05125417	0.009445121	-0.0659341	0.061614357	-0.03950439	0.09049116	
-0.009545837	-0.0011228713	-0.018183444	0.016366716	-0.034167558	0.022293858	-0.08606932	0.057055857	-0.03791065	0.09103931	
-0.0055643152	-0.010748729	-0.02008967	0.002826193	-0.013557735	0.03437222	-0.08830378	0.046740916	-0.029206323	0.08430646	
0.010311371	-0.028247027	-0.02343814	-0.004119944	-0.0013706586	0.041984268	-0.07680526	0.02705064	-0.0079061575	0.06372837	
0.018141419	-0.040836103	-0.018698664	-0.0066881566	-0.0011815822	0.04854434	-0.058778565	0.0049786028	0.015501427	0.037243035	
0.01786123	-0.034112923	-0.008207271	-0.008238958	-0.0073634908	0.048533242	-0.040704306	-0.0133122895	0.031816516	0.010719054	
0.007829607	-0.020804834	-0.006090248	-0.009499742	-0.014416793	0.04890283	-0.021145934	-0.017938195	0.030477824	-0.00044277057	
0.0039044945	-0.008673022	-0.007679682	-0.012966688	-0.015055327	0.048284408	-0.007028257	-0.01609494	0.02093623	-0.0021884607	
0.0010467081	-0.0034699496	-0.0039355205	-0.009085624	-0.017493876	0.039548613	-0.0033323683	-0.010025486	0.011447263	-0.0009779698	
-0.001164448	-0.0022265925	-0.0016599897	-0.004579305	-0.01093716	0.025109222	4.7301193e-05	-0.005013056	0.0018168607	-6.2683594e-06	
0.00023331703	0.0016399649	-0.00046106317	-0.00097044784	-0.0020439874	0.0023255849	0.0019534272	0.0013801972	0.0037946336	-0.0007775155	
0.0018305304	0.0006736756	-0.00022603919	0.00038526132	-0.0003111749	-0.001068643	-0.00029117987	0.0011979564	-0.00041038543	-0.00040240955	
-0.00043338328	-0.0009624483	0.0011073963	0.00061761925	0.00029823591	-0.00070801616	0.00048221266	0.000536363	-0.0002048559	-0.0016757861	
1.3525116e-05	-0.0020122572	-0.0005635355	-0.002631951	-0.0016094096	-0.0001493335	-0.0004601212	0.0019507955	0.0006202055	-0.0007300783	
0.0010924127	9.6122705e-05	-0.00057770073	-7.734979e-05	-0.00063008093	0.00050707033	0.0013940507	0.0025105143	0.00060148415	0.001923089	
-0.0001992102	-0.0010013578	-0.0016307251	0.0005977898	-0.00042191308	0.0005847882	-0.0033116245	0.007707413	0.0022779857	-0.0010449423	
-0.0032775782	-0.0027919586	-0.003133387	0.0004987422	0.0031324406	-0.00387462	-0.009207549	0.015698276	0.00028162063	-0.0005801373	
-0.0055673323	-0.008314502	-0.0007075381	0.0011864089	0.0045410674	-0.0039522974	-0.014564401	0.025002282	0.0012330685	0.0010760839	
-0.0015218329	-0.015111998	0.0019291285	-0.002652659	-0.0011286364	-0.0024588548	-0.019755617	0.033251405	0.0031923142	0.0051950053	
2.0417137e-05	-0.017613053	-0.0034258764	-0.006433556	-0.007688198	0.0021017692	-0.028386291	0.04803103	0.0010044869	0.01408531	
0.0045225946	-0.022962917	-0.008443875	-0.020513576	-0.011248841	0.0059972783	-0.03294402	0.05447392	0.0012444331	0.0283827	
0.004292452	-0.03025182	-0.012368458	-0.03403675	-0.0043133106	0.005440427	-0.037679546	0.05255347	0.00237742	0.05358854	
0.012284143	-0.03731562	-0.012829048	-0.038527552	-0.009585795	-0.0028172948	-0.03906436	0.047005586	-0.0047817836	0.08534195	
0.021902887	-0.037324347	-0.01266476	-0.047003664	-0.023076236	-0.001504909	-0.028328164	0.038874026	-0.008194579	0.10113818	
0.015482577	-0.02603602	-0.01270418	-0.042948555	-0.031455386	-0.015200063	-0.0069099506	0.038885057	-0.013984001	0.09692633	
0.010909741	0.008752604	-0.017777847	-0.030076718	-0.04876228	-0.0135085955	-0.000858368	0.04498255	-0.017671948	0.06922278	
-0.006719872	0.0417484	-0.023525566	-0.0077081877	-0.065950535	-0.0036486858	-0.018010076	0.058737043	-0.021253152	0.048404858	
-0.02649831	0.047176562	-0.025067274	0.01879524	-0.059678625	0.0049206894	-0.04894291	0.0744394	-0.020870466	0.03484543	
-0.035763066	0.027797176	-0.027951142	0.024789158	-0.031868976	0.013486509	-0.079363294	0.08633702	-0.019948063	0.042835135	
-0.030361317	-0.0032935922	-0.019779615	0.013876738	-0.013001523	0.020006802	-0.09375556	0.078637	-0.026101435	0.07321158	
-0.013778521	-0.021857977	-0.021551583	0.0019805885	0.0035072938	0.020644877	-0.08891129	0.06485291	-0.02616197	0.08338853	
0.013385631	-0.04303509	-0.021218136	-0.0074343747	0.012565506	0.020005716	-0.08015464	0.037283406	-0.0001955631	0.065302424	
0.024163734	-0.04733391	-0.013430068	-0.008852916	0.0142699685	0.022891272	-0.06367937	0.016666412	0.022673601	0.03736873	
0.027604882	-0.0363372	-0.0057534636	-0.0075933635	0.0003113574	0.025250183	-0.04692075	-0.00063378725	0.035706427	0.0142206205	
0.019822711	-0.021277422	-0.0058332677	-0.009500999	-0.008102727	0.026803283	-0.022967847	-0.017601026	0.037370056	0.0018792383	
0.009919747	-0.008183856	-0.0052119326	-0.00883592	-0.0151393125	0.029862234	-0.0069117625	-0.0172806	0.023309752	-0.0010498066	
0.0031718286	-0.0029418268	-0.002921805	-0.0049158996	-0.015342571	0.026988681	-0.0022045067	-0.008687496	0.010523509	-0.0008290678	
-0.0024641254	-0.0018270008	-0.0029583718	-0.0009087136	-0.0068149557	0.014227839	-0.0012241213	-0.0032260707	0.0032187237	0.0011082358	
-0.0007551781	0.00027161287	-0.0001964935	0.0015249779	-0.00060165446	0.0037312729	-0.0008767377	-0.00060688186	5.9463742e-05	-0.0022888836	
0.00085153646	-0.0018731924	-5.3759217e-05	0.0007320507	0.0017088904	-0.0009287867	1.4877868e-05	0.00083972205	-0.0009573584	5.2840503e-05	
3.3221335e-05	-0.0007663131	0.001851579	-0.0007686357	0.001719222	-0.0012293385	-0.00024618584	-0.0017184292	-0.00023322909	0.00023330735	
-0.00095947745	0.000275738	-0.0009239423	-0.00038983102	0.0004936374	0.00023691363	0.0001262978	0.0012069473	-0.00029963508	-0.00051356654	
0.0014577406	0.00084701314	-0.0010751422	-0.00047205613	-0.0007185414	-0.0001038231	-0.0026423486	0.0018765511	0.00106535	-0.0005035871	
-1.7838634e-05	-0.0003753893	-0.002087721	0.00075782114	-0.0005765774	-0.0011717746	-0.0066720233	0.007119439	0.0017489357	3.9038325e-05	
-0.0033300123	-0.0030786577	-0.00241601	-0.00044998204	0.001012253	-0.002648191	-0.00787454	0.017799715	-0.0017024818	0.0007945648	
-0.0030661223	-0.0057877884	-0.00087534357	-0.006623945	0.0052103433	-0.005049492	-0.015482043	0.025228228	0.0026040785	0.0042566317	
0.0016846926	-0.011784692	-0.0005216567	-0.012902906	0.0029779347	-0.0029304912	-0.021316944	0.03318818	-0.0009194593	0.011750593	
0.007133068	-0.01371739	-0.0046302048	-0.019235311	-0.0007261656	-0.0011048564	-0.024405828	0.042523608	-0.005764788	0.025319377	
0.009337193	-0.01716549	-0.011393855	-0.036528677	0.00079211674	0.004169445	-0.030745156	0.05221502	-0.012811069	0.045109723	
0.015591989	-0.021488344	-0.014561635	-0.05301531	-0.0009930038	0.006894628	-0.027284386	0.039759096	-0.012939335	0.07093597	
0.02407506	-0.027628237	-0.018004157	-0.06673069	-0.0079030115	0.007946424	-0.018086443	0.024206046	-0.01589165	0.096710145	
0.027310219	-0.027552798	-0.022129964	-0.07177234	-0.01605349	0.0047340454	0.008039246	0.010609724	-0.008341385	0.09625145	
0.023319848	-0.014717833	-0.028050786	-0.052775186	-0.030971266	0.007704604	0.02175113	0.005551448	0.0041982373	0.062327094	
0.007352249	0.026205376	-0.035576064	-0.024467573	-0.0528676	0.013296357	0.022097697	0.012342361	0.008874176	0.025443027	
-0.027541522	0.07480219	-0.037857234	0.013215633	-0.061873514	0.018966092	-0.0055161496	0.022292197	0.0008890805	0.003973674	
-0.057466283	0.074207656	-0.036151014	0.03740426	-0.04464028	0.018873204	-0.041716076	0.042139497	-0.00033609694	0.0073264115	
-0.05800864	0.031930473	-0.03218898	0.038280457	-0.014391365	0.0099278465	-0.06559494	0.056229346	-0.0022353719	0.032176334	
-0.04070871	-0.009655351	-0.026454147	0.020124026	0.014354414	-0.0024639606	-0.076544255	0.06222571	-0.014015729	0.07193653	
-0.019473352	-0.03415394	-0.018325169	-0.0019268035	0.027710361	-0.005071321	-0.08021046	0.05530905	-0.01340495	0.08765207	
0.009515196	-0.052641865	-0.00930442	-0.014557798	0.03637258	-0.011812529	-0.07539153	0.032932293	0.0026051383	0.07598869	
0.02981592	-0.05015333	-0.0006760195	-0.017248979	0.024381164	-0.009120136	-0.061763953	0.01640418	0.023512043	0.041478183	
0.034179337	-0.030252725	0.0021979678	-0.011762337	0.0072336798	-0.0052189445	-0.039988555	-0.00010563695	0.027638491	0.0176668	
0.03006925	-0.016973233	-0.0014875479	-0.01098028	-0.002500426	0.005505013	-0.016719675	-0.0139901135	0.024092853	0.001533003	
0.016436992	-0.0045741727	-0.004703742	-0.0033946733	-0.008346873	0.009526341	-0.0055195712	-0.011023595	0.013709896	-0.000343385	
0.0045244987	-0.0027565872	-0.0024544192	-0.003343315	-0.0065301824	0.010185565	-0.0017689819	-0.005956938	0.0048343264	-0.0018032216	
-0.001570709	0.00014225762	0.0007395387	-0.0019275668	-0.0040047793	0.005425328	0.0010469849	-0.00094911846	0.00093385874	-4.7840716e-05	
-0.0002880229	0.00061802554	-0.0005394597	0.0002777758	-0.0020762566	0.0028342614	-0.00050113234	0.0009746719	0.00048339117	-0.00021961745	
0.00037184785	-7.0868464e-06	-0.00011162808	-0.0016215334	0.0014480005	-0.0015125972	-0.00034003804	0.00044666813	-0.000290334	-0.00025438733	
-0.00045742388	-0.002040291	-0.00048610358	-0.00046237852	0.0006545941	0.00063301914	0.00056918024	0.0013628617	0.00025678414	-0.00045229256	
0.0003557418	0.00049150805	0.00122037	-0.00092620467	0.0021556471	0.00016252458	-0.002310842	-0.0010518926	-0.0011624945	0.0008051384	
0.00018850014	-0.00056969275	0.001891672	-0.0012538305	0.00046148157	-0.0012987787	0.0011785583	0.0018685203	-0.0010140712	0.00092805456	
0.00019422983	0.0008767628	-0.0014704356	-0.0012628956	0.0014955874	-0.0011691619	-0.0029375777	0.010191497	0.0003577342	0.00042684612	
-0.0045892205	-0.00069956615	-0.0019447794	-0.0023322827	0.0045497916	-0.0034572643	-0.00844964	0.016696148	-0.0012323449	0.00085265026	
0.00043806317	-0.0027655805	-0.001752154	-0.007837079	0.006947	-0.002953602	-0.010912296	0.018053738	-0.0006368312	0.008848899	
0.0076459195	-0.007872762	-0.0063481815	-0.016706409	0.004025875	-0.0009504203	-0.0146130035	0.021063901	-0.005034913	0.015206698	
0.013179871	-0.010715683	-0.009377878	-0.031619556	0.0050557964	0.00016086767	-0.017933352	0.031037915	-0.0149974385	0.033845633	
0.015654631	-0.011679791	-0.014665995	-0.048987415	0.0067164283	0.0055752937	-0.023083804	0.034678467	-0.025542585	0.058431823	
0.023216285	-0.019815167	-0.022999348	-0.067840226	0.008612314	0.014228619	-0.009905451	0.021244826	-0.03509808	0.08844787	
0.029817408	-0.024426242	-0.031204546	-0.079932086	0.00025306983	0.019955548	0.012227804	0.0008015715	-0.023728782	0.095990896	
0.03137996	-0.024335738	-0.040877275	-0.06635787	-0.014504543	0.024666246	0.031976976	-0.02511968	0.00421226	0.07456872	
0.01929491	-0.014265234	-0.047857225	-0.029039057	-0.03875478	0.02898515	0.041875385	-0.02891647	0.033829745	0.03209318	
-0.012681523	0.0392387	-0.055460554	0.011676841	-0.053269174	0.03048596	0.019925047	-0.018686006	0.03755464	0.0061545474	
-0.05689384	0.09798821	-0.059721753	0.04484796	-0.04943936	0.026880903	-0.0116183115	-0.006436882	0.022217218	-0.0033644564	
-0.07677042	0.08374984	-0.04844805	0.05357436	-0.027036738	0.020470621	-0.036119275	0.0016205211	0.0147810755	0.013541576	
-0.06665012	0.02529594	-0.035688348	0.034214124	0.0068492526	0.002797576	-0.046677817	0.019683396	0.00640436	0.0537417	
-0.04690033	-0.019184945	-0.027418958	0.007848287	0.036845975	-0.0220881	-0.052734047	0.031247849	-0.0016815877	0.09439742	
-0.02162902	-0.041525267	-0.015091104	-0.009328066	0.045878705	-0.034850694	-0.055204462	0.038468912	-0.0071048285	0.10428236	
0.0041094036	-0.05277734	0.0008163794	-0.025063839	0.048003975	-0.040930163	-0.050234642	0.030496314	-0.0022632356	0.08710979	
0.025261002	-0.04258065	0.011063414	-0.020882057	0.027396787	-0.037567854	-0.041329786	0.021421677	0.008776693	0.048504505	
0.040268723	-0.025282271	0.0057120747	-0.015945507	0.008031015	-0.025158014	-0.02012762	0.008770866	0.0058741705	0.01724166	
0.038293775	-0.011217453	-0.0045996034	-0.011470785	-0.0016811464	-0.008956508	-0.005184884	-0.004670451	0.0073844427	1.2289554e-05	
0.022519689	-0.0029348554	-0.0049173855	-0.0037795613	-0.0029498283	-0.0027078537	-0.00022774462	-0.003568776	0.0035669967	-0.0017652519	
0.007877329	-0.0009963014	-0.00080126576	-0.0023759375	-0.0004367913	0.0015612683	0.0013760073	-0.0031026395	0.001454337	-0.0011182878	
-0.00092055724	-0.00066639873	0.0003357244	0.0005773067	-0.0030605525	0.003959805	0.00027536493	-0.0009262148	-0.0009814219	-0.00052659016	
-0.0010068873	-0.0008880646	0.0001473632	-0.00046212593	-0.0009274095	0.00038206673	-0.003494815	0.0005029966	0.0019119893	-0.0010878289	
-0.001275756	0.0019248318	-0.0004933594	-0.00047046528	0.0017637188	0.0007629889	0.0010651078	0.0013923362	-0.0010428401	0.0012453326	
0.00057282497	-0.0006597409	0.0012299707	0.00093924213	0.00040115498	-0.0019469786	0.0019688725	0.0006495533	-0.001564334	0.00077872287	
-0.00045154395	-0.000544092	-0.0009910328	0.00204848	0.0010418717	-0.00064045424	-0.0009776058	-5.4803444e-05	-0.00012374407	0.00059585343	
-0.0017618835	-0.0016384519	0.0012441943	-0.000154366	-0.0014298402	0.00043406241	-0.00011220103	0.00042569364	0.00080029364	-7.018364e-05	
-0.00089950784	-0.0015727782	-0.0026985412	-0.00059554086	0.00060007226	-0.0015326964	-0.0025413628	0.0048138695	-0.00011063193	0.0002880259	
-0.0015684483	-0.00067454576	-0.0028214785	-0.0017724424	0.005116842	-0.002426517	-0.008028364	0.011973924	0.0009632692	0.002666182	
0.003711842	-0.0021439053	-0.0030746874	-0.008891369	0.0058319904	-0.003307561	-0.009187343	0.0132145295	-0.0028995303	0.008648853	
0.013255633	-0.006893591	-0.008151491	-0.022702424	0.006726537	0.000892224	-0.0100191375	0.012979782	-0.011526408	0.01996261	
0.016005293	-0.006936459	-0.013254933	-0.041341253	0.016443498	0.0068225353	-0.011998613	0.023209844	-0.028245024	0.041648123	
0.025935581	-0.012288766	-0.022244971	-0.059207454	0.017962063	0.008444121	-0.009453077	0.025085673	-0.042293616	0.068398155	
0.034344636	-0.023064543	-0.035151646	-0.07570244	0.021607772	0.01760244	0.007493117	0.008287603	-0.047097754	0.08680733	
0.032572474	-0.02938261	-0.04888366	-0.06889184	0.0060875854	0.029772498	0.033786282	-0.015653057	-0.027694738	0.08737777	
0.026779203	-0.031403076	-0.060627926	-0.036156077	-0.01942111	0.041354228	0.05226106	-0.039580632	0.016092902	0.05341252	
0.004359885	-0.018702984	-0.06354876	0.009284549	-0.043523572	0.045430265	0.043999977	-0.050383154	0.05454629	0.021619238	
-0.039517637	0.045850947	-0.06980834	0.044457503	-0.053290293	0.047677778	0.012583432	-0.054925773	0.061635118	0.006871038	
-0.08105333	0.10830187	-0.061677985	0.056388486	-0.0444056	0.03131297	-0.013501592	-0.049407877	0.04384134	0.0096729575	
-0.086727776	0.08300817	-0.048336286	0.048297953	-0.023302758	0.013208511	-0.020641768	-0.039407853	0.03203695	0.040799215	
-0.06998925	0.014361437	-0.035184227	0.01636397	0.013522949	-0.009567241	-0.02297399	-0.011207615	0.0140171535	0.090085305	
-0.04574516	-0.035072908	-0.026030295	-0.008658562	0.038958956	-0.030420687	-0.02750237	0.019963572	-0.0032316134	0.12249764	
-0.02489805	-0.051878963	-0.011297802	-0.023739403	0.047851995	-0.043679558	-0.021729756	0.033433724	-0.016228465	0.11121759	
-0.004327181	-0.04861335	0.011478284	-0.033248246	0.039634477	-0.052811082	-0.018746275	0.040279973	-0.019570345	0.08316014	
0.026360795	-0.035098538	0.011768452	-0.021789106	0.01563954	-0.046359904	-0.004516271	0.026546106	-0.008959097	0.036626015	
0.042160824	-0.021658516	0.0042310385	-0.013878152	0.0033906132	-0.03347274	0.005176488	0.005443277	-4.955543e-06	0.0065222373	
0.04244724	-0.00852908	-0.009317835	-0.010174971	-0.0042557884	-0.01726203	0.0037243788	0.0010976741	0.00095813954	-0.0032497614	
0.025838835	-0.0046346597	-0.005004862	-0.0060038934	-0.0056070923	-0.008826287	0.0033332354	-0.0028330681	0.001734612	-0.0012902687	
0.008255913	-0.0028201053	-0.00013902762	-0.003093267	-0.0019063865	-0.0028692803	0.004190202	0.00016033683	-0.0010570997	-0.0010276684	
-0.00120561	-0.0003081708	-0.00058963493	0.0004042016	-0.0005513447	0.0007376906	0.00019948168	-0.001297272	-0.0016520831	0.0010820333	
-0.00088878785	0.00011193507	0.0005407917	-0.00034429794	0.00094825437	-0.00045231546	-0.0005324501	0.0014649841	0.00047156983	-2.1514767e-05	
-0.0012006256	-0.0006053436	0.0003945082	-0.00048008113	-0.0006646602	-0.00035535646	0.0010503967	-0.0009033912	0.00024588846	0.0005797891	
2.1362348e-05	-0.00040906743	-2.0070314e-05	6.680615e-05	-0.0015754052	-0.00061277085	-0.00083777495	-4.7892117e-05	0.00069088844	0.00047908464	
0.00073977094	-0.00031565572	-0.0008562619	0.0011406611	0.00031782236	0.00083895185	-0.00037523353	0.00054364395	-0.00065718254	-0.0007799255	
-0.001057474	0.00043905072	-0.0006932104	2.6802463e-05	-4.739235e-06	0.0010231152	0.0014113941	0.0015945843	0.00030569706	0.00042027808	
0.000759397	-0.0017675185	-0.0015286873	0.00056880794	-0.00053121935	-0.0010126146	-0.0006389669	0.0020972253	-0.00027435526	0.00093429256	
-0.002530554	-0.00024028076	-0.0019474989	-0.004205357	0.0055891364	-0.0024812187	-0.0033937106	0.0058788834	-0.0016273307	0.004462418	
0.0060423827	-0.003358705	-0.0036810634	-0.013075482	0.008553708	-0.0037588035	-0.0052531688	0.010443866	-0.0055156397	0.010927761	
0.013562993	-0.0074793804	-0.008624095	-0.026764348	0.013622537	0.0030105298	-0.003403596	0.0087796645	-0.013762533	0.020173812	
0.023233864	-0.0116954185	-0.020039426	-0.043843877	0.026372384	0.0055164434	-0.003750794	0.01120089	-0.03162026	0.04451932	
0.033988032	-0.018595172	-0.02620416	-0.06386438	0.034113664	0.006645126	0.00771676	0.006114721	-0.050685164	0.07157209	
0.040221635	-0.029446747	-0.03877411	-0.069429696	0.031727623	0.009983776	0.0363265	-0.0070202416	-0.055451334	0.08452584	
0.030391937	-0.04117064	-0.05545517	-0.051104333	0.010874675	0.024704399	0.06138881	-0.027773257	-0.03432672	0.07963064	
0.014051779	-0.04379069	-0.061233833	-0.012016027	-0.020275863	0.04557552	0.06359097	-0.049044546	0.007535687	0.056689285	
-0.016196063	-0.022082495	-0.064144254	0.024617383	-0.04062483	0.0554649	0.039668333	-0.07097934	0.05458083	0.037906855	
-0.07109558	0.06133273	-0.0611103	0.04622539	-0.045565475	0.05007676	0.00859295	-0.085157245	0.06151184	0.03671309	
-0.098485835	0.109406464	-0.050910804	0.038407702	-0.039348055	0.027976217	2.0304986e-05	-0.08300484	0.045712944	0.052001182	
-0.09572897	0.06622556	-0.042457487	0.024651388	-0.019407777	0.0013279201	0.0032420943	-0.060184214	0.03106469	0.084827036	
-0.07139665	-0.013664086	-0.032978635	-0.0007799226	0.021282611	-0.01838631	0.0005464314	-0.007565174	0.0038949228	0.12298277	
-0.046543293	-0.053496104	-0.028257737	-0.021444296	0.04903459	-0.031349175	-0.005840464	0.030425943	-0.02778649	0.13361154	
-0.022636507	-0.054897424	-0.01217643	-0.03146729	0.048654847	-0.046172414	0.0026715852	0.051351033	-0.042566475	0.10922436	
-0.0046002143	-0.041570116	0.006804623	-0.028851101	0.030357514	-0.051448453	0.01560461	0.048930433	-0.035701115	0.067798235	
0.027564656	-0.029030735	0.0022435943	-0.024711624	0.016805924	-0.05138984	0.025490914	0.025533503	-0.015061432	0.025500994	
0.04853052	-0.014999578	-0.004369961	-0.02017053	0.008364782	-0.038760796	0.024082378	0.004487381	-0.0030785766	0.002789291	
0.041320734	-0.008988916	-0.0069057005	-0.012792022	0.002250567	-0.023107234	0.011033806	0.002339565	-0.00015389865	-0.0045473306	
0.026257455	-0.008285568	-0.005001016	-0.0067582503	-0.0026410513	-0.010298823	0.010096389	-0.0019392808	-0.00043727475	-0.003924149	
0.006712715	-0.0008416375	-0.002474197	-0.0031562613	0.0004979669	-0.0033597744	0.006931684	-0.0032048414	-0.00038546594	0.00028811232	
0.00026198162	-0.0015214975	-0.0012548418	0.00087865593	0.00055220444	-0.0011597428	0.00030930302	-0.0012653993	0.0007173575	0.0006339348	
0.000120790944	-0.00035082598	-0.0002736152	0.0014808197	-0.00031313635	0.00062305125	0.001108117	-0.00050851924	-0.0007467542	-0.0014184176	
0.0012422452	0.0009011195	-0.00015809514	-0.0003060565	-0.00090265693	-0.0002455801	-0.0018246633	7.3429237e-06	-0.0002493659	0.0015236093	
-0.00051656005	0.00084500725	-0.0007541575	-0.0001615818	1.9421901e-05	-0.0018445194	0.00091533083	-0.00077722967	-0.0013665128	0.0014136514	
-0.0015516772	-0.0016484808	4.2604534e-05	-0.00068344275	0.000613494	0.00066554704	0.00019833713	-1.1532637e-05	0.0011696976	0.00023166792	
-0.0016691867	-0.0012095246	0.00013586962	-0.00037551095	-0.00021067358	-0.0015265511	0.0009030012	0.001605252	-0.00048776498	-0.0014053406	
-0.0015956259	-0.002086397	0.0006884871	0.0013375707	0.00012445924	0.0014202342	-0.0011088575	0.00031288643	-0.00055769103	0.00073339307	
-0.00025892947	-0.002699025	-0.0004294113	-0.005968854	0.0069961813	-0.0015320582	-0.0015376811	0.001995892	-0.00084848364	0.004584799	
0.009471948	-0.0027490435	-0.00491095	-0.012949397	0.011515709	-0.0044353334	0.00021434326	0.0008190809	-0.006553787	0.0078842845	
0.020504564	-0.006408994	-0.0126066	-0.031471133	0.025315698	-0.0006345668	-0.00019741159	0.002400331	-0.014601419	0.019123603	
0.029125245	-0.017794782	-0.015717901	-0.05242685	0.043182034	-0.0012842577	0.008961541	0.00020179135	-0.031824436	0.03788641	
0.03700615	-0.029683882	-0.019109372	-0.06594505	0.052356035	-0.0067617004	0.026369857	-0.0053652134	-0.051053233	0.06190087	
0.0358929	-0.04286709	-0.024596697	-0.06359405	0.04384255	-0.007219102	0.05920459	-0.01832067	-0.053922072	0.07616724	
0.018655697	-0.050497565	-0.031502347	-0.045707293	0.023532016	0.0098875435	0.07243006	-0.037420776	-0.043892626	0.082133256	
-0.0059633157	-0.053427298	-0.033623397	-0.012657833	0.007441045	0.024941798	0.061475072	-0.05091206	-0.01504517	0.07917012	
-0.045233753	-0.024454309	-0.03155005	0.006917027	-0.0072937044	0.0480487	0.027350822	-0.082767226	0.029845566	0.077895366	
-0.09454936	0.06263941	-0.027695403	0.014111719	-0.011956506	0.033072524	0.0061006085	-0.09800863	0.036093086	0.07935444	
-0.10650778	0.095904484	-0.02460515	0.004614276	-0.012025195	0.004489816	0.013533292	-0.09037524	0.032644976	0.08298619	
-0.09884105	0.048512794	-0.026161902	-0.006503038	0.0055356435	-0.018502064	0.02046612	-0.044019558	0.018088173	0.104918174	
-0.068674065	-0.042365577	-0.030024836	-0.02098177	0.03864213	-0.022909835	0.010844474	0.018366285	-0.016775947	0.13379233	
-0.049115036	-0.06156617	-0.03234791	-0.031864695	0.0570565	-0.023167271	0.004654091	0.056894116	-0.051829744	0.13164668	
-0.02551976	-0.053244658	-0.025473403	-0.020351967	0.04395401	-0.028102934	0.0075786947	0.060786426	-0.05198227	0.09369894	
0.0010898426	-0.03816997	-0.013290086	-0.026021147	0.030112926	-0.040066667	0.02511519	0.040879056	-0.031407993	0.0481068	
0.028105538	-0.024123155	-0.011507551	-0.024271503	0.018173385	-0.045098633	0.04254103	0.018676158	-0.013269023	0.011067398	
0.044046618	-0.015011249	-0.012339556	-0.022489963	0.007773371	-0.03781683	0.033765003	0.0040341876	-0.005863091	-0.0026760048	
0.03963418	-0.009775782	-0.006936684	-0.012319874	0.0042957678	-0.01959759	0.017734911	0.00042061362	-0.003878669	-0.0016466838	
0.027017629	-0.004768888	-0.0038044385	-0.0073178657	1.9174428e-05	-0.011405111	0.009746479	-0.004015849	-0.0024671014	-0.0020399662	
0.008920934	-0.0020610585	-0.00028491017	-0.002066343	-0.0021318381	-0.002361396	0.0071569565	-0.0024175318	0.0008761068	-0.0027457688	
2.8749184e-05	0.00069775496	-0.0012860551	0.0006691855	4.146564e-05	-0.001186849	0.00042614806	0.0022901057	0.0010012339	-0.00089736	
0.00051161606	-0.00034464416	0.00046178585	-0.0005217536	-0.0014458236	0.000821975	0.0003988127	0.000417467	0.0001135593	-0.0011391863	
-0.000611487	-0.0012705978	-0.0006128322	0.00064751087	-0.0004504839	0.00015600401	-0.0016373409	0.0028956425	0.0003647107	-0.00034952883	
0.0010993808	-0.0010825015	0.00018585706	-0.0014263038	-0.0021798918	0.002673977	0.0013824076	-0.0003652679	-3.3322485e-05	-0.0007731777	
-0.00058908964	-0.0009423935	0.0006863425	0.0010340428	-0.0007854435	0.0011404819	0.0023204456	0.0012882539	7.3287374e-05	0.0003513902	
0.00082957564	0.000576245	-0.00055516086	0.0011242334	-0.0009114564	-0.00023587543	0.0005685038	-0.00011452579	0.0009344362	-0.0018084478	
0.00029641294	0.0004691882	-0.00053259556	-0.0009680885	-0.00061248953	0.0019721258	-0.0001303145	-4.7975373e-06	-0.0010428365	-0.0005100904	
-0.0012632866	-0.0023294564	-0.0017857254	-0.003307882	0.0058174934	0.0016424145	-0.0020580052	0.0012434801	-0.0012168229	0.003970371	
0.014554085	-0.005068208	-0.0052524577	-0.014516876	0.01337586	-0.0019405595	0.0014629448	0.002605774	-0.0062282663	0.005408428	
0.026811993	-0.016338775	-0.003934762	-0.03412336	0.03272178	-0.0055577545	0.0031684216	-0.00020336917	-0.016031705	0.011873489	
0.03409302	-0.032532107	0.001999101	-0.055400535	0.05691179	-0.014502114	0.018009353	-0.0048252046	-0.027063495	0.02474331	
0.03864814	-0.041300938	0.0045763445	-0.07195356	0.064992465	-0.02767743	0.03981249	-0.010779491	-0.04401338	0.04966525	
0.025514925	-0.05038419	0.0031592455	-0.070189804	0.059343103	-0.03690895	0.06929208	-0.022262044	-0.045589622	0.06999663	
0.00029966122	-0.060979705	0.008922261	-0.05937875	0.05101248	-0.016893964	0.070506506	-0.039017167	-0.03471674	0.084421314	
-0.0336751	-0.05997561	0.013335373	-0.045299288	0.04686727	-0.0016597626	0.047682196	-0.05938428	-0.0037977076	0.088996656	
-0.07138311	-0.011214764	0.016801853	-0.035858624	0.04091303	0.0022615094	0.023022631	-0.08060745	0.024948344	0.08532733	
-0.10420432	0.062381808	0.014209629	-0.04110596	0.031182464	-0.009970517	0.012732788	-0.08700117	0.036351237	0.07852604	
-0.114566125	0.086008735	0.009499443	-0.043868437	0.02874712	-0.029677156	0.01892977	-0.06768009	0.03613717	0.07540729	
-0.094795436	0.022731196	-0.0016664453	-0.044366997	0.041106783	-0.046473466	0.01797574	-0.0106377555	0.0076826876	0.10288292	
-0.060207326	-0.056380708	-0.020500308	-0.03911747	0.060287647	-0.033534016	0.005752542	0.040035203	-0.03458927	0.13522424	
-0.04171108	-0.06455632	-0.028930945	-0.029016268	0.054374482	-0.018248087	-0.0026629632	0.06285828	-0.052826963	0.12041877	
-0.02139997	-0.053484257	-0.02781865	-0.019392371	0.03960698	-0.015736314	0.0051663793	0.057492577	-0.040251575	0.07444066	
0.007136116	-0.037942898	-0.024971547	-0.01641707	0.023545027	-0.02551396	0.029288987	0.03521276	-0.019725617	0.028994111	
0.03195724	-0.026612608	-0.017002573	-0.01575844	0.010976678	-0.03598024	0.04227633	0.02018762	-0.012398282	0.0068584583	
0.037327524	-0.016983595	-0.011818878	-0.015811147	0.00010040763	-0.027454797	0.033712324	0.0070555108	-0.0074088196	-0.0029401074	
0.027301809	-0.012456172	-0.00461264	-0.008565448	-0.0020705462	-0.016021706	0.02096023	0.0019384185	-0.0018510415	-0.004171979	
0.021807533	-0.010838462	0.0015337273	-0.00469205	-0.0031773692	-0.006029349	0.010703458	-3.0036947e-05	-0.0026755673	-0.0034242219	
0.008761335	-0.0051739677	-3.6730897e-05	-0.002482915	-0.0012167064	-0.0023038117	0.004802687	-0.00019391831	-0.001133925	6.033588e-05	
-0.00044466814	-0.00071511185	0.0016760634	-0.0014899177	-0.0018459472	-0.0001021111	0.0025814038	0.00075968856	-0.0008949606	-0.0019208988	
-0.0011484168	-0.00012706047	0.0003335138	-0.00097624765	0.0012022668	0.0010753266	0.0011122666	-0.00035200865	0.00017566694	-3.3269906e-05	
-0.0009045102	-0.0017149915	-0.0005162643	-0.0011389515	-0.0011885244	-1.6234193e-05	-0.00025726727	0.000109445726	-0.00020075672	0.00046501734	
0.0010091491	0.0016237972	-0.00054098136	0.0013366931	0.00091178704	-0.0011195551	-0.00050842017	-0.00059055287	-0.00033430627	-0.001118873	
-0.00016055275	0.0005246942	0.00019969777	-0.000130435	-0.00047826287	0.00035829318	-0.0009894503	0.0004954172	-0.0009129351	0.00061645906	
-0.0008051825	-6.865909e-05	0.00020898886	-0.00029012782	-0.00025774125	1.106876e-05	0.00088684243	-0.0015323125	0.0010955747	0.0017015955	
-0.0005289101	0.0009523737	0.00025404186	0.0006581388	0.00032790308	-6.615989e-05	-0.00089463324	-0.00023499523	0.0008539887	5.791531e-05	
0.00064927037	-0.0026675505	-0.0020680819	-0.0012086012	-2.8272676e-05	0.00433929	-0.0007403814	0.0015756636	-0.0010433694	0.00230173	
0.01572625	-0.012127234	0.0043656523	-0.009595985	0.009004541	0.004931734	-0.00025045616	-0.0010653476	-0.004718336	0.0027192845	
0.028919412	-0.02726262	0.011728123	-0.028367573	0.027947541	-0.0052056913	0.003795343	-0.002934951	-0.014879209	0.0075785425	
0.0415926	-0.03995198	0.016687162	-0.04607293	0.050813418	-0.025889002	0.018190682	-0.0074713663	-0.018590795	0.010910604	
0.038076837	-0.053138934	0.023072097	-0.06425127	0.06345781	-0.050843924	0.049580753	-0.012689009	-0.023514008	0.027643116	
0.0172702	-0.060305316	0.032147378	-0.06968149	0.06461505	-0.060627077	0.071998134	-0.02576045	-0.017497985	0.04750919	
-0.010962071	-0.062100347	0.03768855	-0.06939821	0.061502744	-0.049326643	0.06297899	-0.046051394	0.008486967	0.064706735	
-0.047446724	-0.04158433	0.048695628	-0.06901651	0.058366377	-0.03263793	0.039312202	-0.06395108	0.03685179	0.06812023	
-0.08074853	0.0051266453	0.05688344	-0.06709332	0.0521777	-0.0339269	0.024298796	-0.07069419	0.045893755	0.06210357	
-0.102219075	0.06559675	0.046655342	-0.07014752	0.04414929	-0.042377625	0.021007523	-0.05895202	0.038872812	0.05245739	
-0.10427403	0.07586228	0.03028213	-0.07236049	0.04255924	-0.049285144	0.015283464	-0.023944693	0.022365313	0.06633276	
-0.080502965	0.0035661133	0.01787812	-0.06567485	0.053111773	-0.041322816	-0.007745901	0.022761166	-0.008830106	0.10626239	
-0.0510617	-0.05908817	-0.0021420193	-0.047219757	0.05748427	-0.023649894	-0.018751217	0.046813596	-0.030675108	0.12620616	
-0.033878125	-0.06294399	-0.020408195	-0.024469431	0.046409238	-0.0033422972	-0.014908358	0.05016966	-0.040484168	0.10294605	
-0.011133554	-0.053417843	-0.027973441	-0.010368213	0.027933307	-0.010830918	0.018419765	0.037109047	-0.02146134	0.05571538	
0.014394379	-0.04208669	-0.02461736	-0.0028538625	0.006664186	-0.025118146	0.042380843	0.029127596	-0.01286206	0.018661888	
0.02692104	-0.03262031	-0.014811838	-0.004186525	-0.0031147813	-0.029355807	0.05029658	0.010612533	-0.0066407584	0.0023754793	
0.029500535	-0.024123827	-0.0013188936	-0.0074085435	-0.0063794474	-0.018709803	0.031662155	0.0023170577	-0.002158836	-0.0035585347	
0.018615171	-0.019240335	0.004935442	-0.007960938	-0.004474679	-0.0074280244	0.019441402	0.005511085	-0.004198162	-0.002480331	
0.016050445	-0.014083354	0.010139952	-0.003632617	-0.0045680925	-0.0046053403	0.009932077	-0.0011710924	-0.0021081322	-0.002562996	
0.0051210322	-0.009418138	0.0074577294	-0.0016343897	-0.0017588128	-0.0028809933	0.00401437	-0.0021879976	-0.0033146066	-0.002480921	
-0.003457343	-0.0029218404	0.0030070245	-0.0009656801	-0.002016406	0.00014343405	0.00061755284	0.00031254167	0.0008178875	-0.00029411234	
3.7629972e-05	-0.0010105789	-0.0013504127	-0.00010684095	-2.7751015e-05	0.0014450871	0.0008828516	0.0011717078	0.00081415265	-0.0018345057	
-0.0006698941	-0.0003577107	-0.0007314336	0.0011160985	0.00036156684	0.00013725302	0.00087386975	-0.0019135432	0.002294376	-0.0011245307	
0.00073165464	-0.0010400056	-0.0011117739	-0.0004537203	0.0007664588	-0.00051540666	0.00092650397	1.3550335e-05	-0.0012970851	-0.00010566579	
-0.00013924646	0.00056269043	-0.0013658365	0.00044181204	0.00044666126	0.0004992949	-0.00014092051	-0.00028136608	0.00037564072	0.00072616444	
-0.0005505057	-0.00089399324	0.0007155293	-0.0009721007	-0.0006134504	-0.000875263	-0.0017605036	-0.0009224518	0.00032256846	-0.0010674587	
-7.280436e-05	-0.0010552818	-0.00089189527	0.0013751355	0.0018317989	0.00048112212	-0.0013640544	-0.0009860481	-9.593022e-05	0.000921543	
0.0017910877	-0.0055828285	-0.0015444374	0.006465103	-0.004295765	0.004850964	-0.002258512	0.0014950336	-0.0012777556	0.00136356	
0.017031781	-0.023595886	0.009399458	2.4199606e-05	0.0011455703	0.0072385324	-0.0022463782	-0.0018454174	-0.006782513	0.0010884831	
0.028444052	-0.038634006	0.026219008	-0.016790217	0.0074973395	0.008966513	0.0025436992	-0.004374163	-0.01019845	-0.0011870145	
0.038922437	-0.050723363	0.03088297	-0.034192707	0.02250566	-0.014218132	0.024002522	-0.011095144	-0.008204465	0.0031046283	
0.037972454	-0.05826982	0.036475778	-0.04158232	0.02745302	-0.050250128	0.054691747	-0.02099428	0.0077064577	0.004703969	
0.015858907	-0.056913015	0.041341282	-0.042661894	0.03164477	-0.07040174	0.07414523	-0.040907383	0.02761491	0.021826265	
-0.01762571	-0.0459919	0.04946203	-0.04766787	0.03053272	-0.0647922	0.07095023	-0.0656601	0.06437781	0.02859541	
-0.050290745	-0.013764193	0.055935215	-0.05450995	0.033271503	-0.057547428	0.05357758	-0.06911259	0.070244916	0.031051505	
-0.073804036	0.023900405	0.06019782	-0.0602099	0.03671383	-0.061486848	0.038156383	-0.05003411	0.053678058	0.031691734	
-0.095215656	0.065071546	0.056862004	-0.06705511	0.034473553	-0.060585935	0.020971585	-0.0207268	0.021787442	0.04174779	
-0.08981308	0.053442013	0.043853775	-0.075284235	0.035386197	-0.055123143	0.00068384525	0.017281845	-0.0014360275	0.07052483	
-0.066999644	-0.012570421	0.030216578	-0.067135155	0.03971828	-0.02704717	-0.024700684	0.04345899	-0.021169063	0.10689922	
-0.03820735	-0.058477316	0.008522641	-0.04375595	0.032998748	-0.0086743655	-0.016859291	0.03918261	-0.026320556	0.10698264	
-0.020768128	-0.06348079	-0.015302392	-0.012848664	0.017846549	-0.0023980013	0.011883197	0.023527877	-0.020963863	0.080338135	
0.002856047	-0.051200982	-0.031639792	0.009100399	-0.0015872689	-0.015280602	0.043526042	0.012259142	-0.0043617226	0.04036549	
0.02029312	-0.04586468	-0.022907222	0.013299907	-0.012516446	-0.027873114	0.05813244	0.0058765775	-0.0064295656	0.015989088	
0.022429207	-0.04073984	-0.0009407194	-0.00040077968	-0.012503315	-0.020230439	0.05469384	-0.0020627505	-0.0024991424	0.0027533788	
0.018444523	-0.03630651	0.012611128	0.00023297567	-0.013645025	-0.004582124	0.025560413	-0.00049769017	-0.0012383692	-0.0021696663	
0.012845503	-0.029255074	0.017480703	0.0003512024	-0.009686126	0.0022354221	0.015135844	-0.0018445166	-0.0022893734	-0.0048465105	
0.009555764	-0.02429782	0.019962905	-0.0031216398	-0.005269697	-0.00042908543	0.0052241427	-0.00052763015	-0.0023202973	-0.0038772384	
0.004475866	-0.014313046	0.014073282	-0.002650987	0.00014548667	-0.0011838238	0.0031419785	-0.0018349349	-0.0015076351	-0.0008538609	
-0.0014129771	-0.0044697192	0.0088690575	6.710008e-05	-0.0012860274	-0.0019303866	0.0018498825	0.00023632913	-0.0012676048	0.0007439577	
-0.0019362888	0.0010057157	0.0011428919	-0.0005526851	-0.00011733418	-0.0006558819	-0.0013111009	0.00050847634	-0.001379007	-0.0032842995	
-0.0007366742	0.0005754423	-0.00016684234	-0.00028576376	1.3972047e-05	-0.0009985691	-0.0003029722	0.00018601016	0.000119079006	-0.00044856648	
0.0017960106	-0.0009183316	0.00021102214	0.001404478	-4.0972303e-05	0.0026118401	0.00010819919	-0.0002782923	0.00083260896	0.0010309404	
0.0009261761	-0.00030020037	0.00028453607	0.0005529875	-0.0011703508	-0.0010975039	-0.0003069567	-0.0009846975	-3.740211e-05	0.0019541834	
-0.0012362393	-7.764177e-06	-0.00018382019	0.00032996465	-0.0020045682	-0.0008388214	-0.0003677981	0.0007253959	-4.880654e-06	0.001229396	
-0.0010543807	-0.00097104587	-0.0008619408	0.005661591	1.3594756e-05	0.0006382334	-0.00062048226	0.0015966207	-0.001043108	0.0014159455	
0.002382913	-0.009188214	0.00027593193	0.011024048	-0.005163264	0.004508073	-0.0028224923	0.0011109785	-0.0027649843	-0.0020813907	
0.013735677	-0.028969737	0.015951585	0.009202463	-0.009669006	0.015426148	-0.003861247	-0.0022960945	-0.0046461257	-0.003563803	
0.02778111	-0.045578565	0.03572938	-0.0043160403	-0.020971766	0.031551152	-0.0010958973	-0.010774268	-0.004513323	-0.0047655976	
0.043005392	-0.05761508	0.041400682	-0.013757458	-0.019563153	0.009146333	0.023990043	-0.021931004	0.006362211	-0.0035046597	
0.03729121	-0.056916445	0.040198416	-0.021277742	-0.0065385043	-0.034760397	0.053953584	-0.037655465	0.028741766	-0.0014607495	
0.01510259	-0.0494673	0.04418861	-0.023876073	-0.0043615815	-0.06054039	0.07735844	-0.064242154	0.06288355	0.004892956	
-0.020426909	-0.025370248	0.049506035	-0.02403833	-0.0053425515	-0.06839611	0.083832495	-0.0743707	0.078264795	0.010296589	
-0.05060208	0.0022476008	0.05781002	-0.030289263	-0.0015155424	-0.067368165	0.070683435	-0.053587537	0.060703382	0.012210616	
-0.07096939	0.02175274	0.067496724	-0.038726956	0.0020614183	-0.061472192	0.052387297	-0.021885386	0.034153223	0.018347898	
-0.083259895	0.046929743	0.06144647	-0.049977995	0.0058489977	-0.05534821	0.022733161	0.014156235	0.005344066	0.034310494	
-0.07222749	0.028421938	0.045277584	-0.06017464	0.009939247	-0.046167348	0.0027421257	0.03915187	-0.014970056	0.06843399	
-0.04797456	-0.019309256	0.024902701	-0.04819681	0.010314192	-0.026604388	-0.002654569	0.036904316	-0.02312293	0.08971902	
-0.023924086	-0.054320846	0.0021979196	-0.023168404	0.0052850754	-0.009387504	0.014697629	0.018095968	-0.015548573	0.085214086	
-0.0024370546	-0.060207985	-0.018092297	0.0055961283	-0.012948453	-0.008709273	0.044357017	0.0038045484	-0.009634583	0.060744196	
0.01276482	-0.054380514	-0.026475098	0.02272788	-0.028474173	-0.014344859	0.0611921	-0.005088425	0.0023035086	0.028868224	
0.020986933	-0.046533	-0.018347882	0.020694219	-0.02658044	-0.016489452	0.060359377	-0.011184982	0.0012603207	0.012654229	
0.016163811	-0.044052348	0.009476065	0.0062363064	-0.019890131	-0.002587856	0.039573036	-0.0070459764	0.0019729887	0.0039765052	
0.0069459127	-0.039225254	0.021638403	0.0019253152	-0.016054584	0.0053855837	0.019514315	-0.007173667	0.0012508315	-0.0019904594	
0.006172027	-0.03342989	0.025925301	0.0026837995	-0.011488019	0.004781802	0.009154903	-0.004793105	0.00015718653	-0.00042351685	
0.003996984	-0.023677964	0.023414403	-0.00093796477	-0.0053239465	0.0014780569	0.006829095	-0.0019445649	-0.00044498284	-0.0010259947	
0.0016494782	-0.015218299	0.018111125	2.3772063e-05	-0.0011824791	-0.0017783953	-0.00095394085	0.00024337496	0.0007378097	0.00055296853	
0.0004992603	-0.0019520037	0.004173783	0.0012063506	-0.00049020525	5.648747e-05	-0.0003254439	0.00077136414	-0.00076680386	-0.00016962992	
-0.00089530455	0.0014278985	2.832402e-05	0.0011618317	-0.0017879995	0.00034574405	-0.00010258829	0.00013301786	-3.0235885e-06	-0.00050026056	
0.0008062904	-0.0016813733	-0.0004965279	0.0010723178	0.0009318774	-0.0007396839	0.00020980179	0.00022276031	0.0014935076	-0.0014633879	
0.0023463354	-0.0012966886	-7.316878e-05	-0.00024604148	0.001189141	-0.000789693	-0.00058953837	-0.0010038274	-0.0009168993	-0.00029996858	
0.001109222	0.00089163776	-0.001443228	-0.0005770907	0.00018970855	0.00029073513	-0.00061056437	-0.0006113322	-0.0011996644	0.0002654914	
-8.8879715e-05	-0.0015708304	-0.00073184806	-0.0007151824	-0.0017382167	0.0014644482	-0.00059562805	-5.712721e-05	-0.00029883318	-0.0023102076	
-0.0020359964	-0.00498333	-0.00021450456	0.0065264627	0.00038305024	0.001660248	-0.00036587872	0.00072580087	-0.0009593543	0.002109817	
-0.001542445	-0.012799753	-0.00066523056	0.020547537	-0.0021888544	3.9824103e-05	-0.0017225611	-0.002246702	-0.0023870815	0.0009857167	
0.010744861	-0.034517426	0.011908072	0.026475813	-0.01331231	0.0183896	-0.0044897115	-0.0050944774	-0.004054141	-0.0051974854	
0.024751022	-0.057105735	0.029830115	0.013486088	-0.037173577	0.04814928	-0.0026378538	-0.013948227	0.0029468765	-0.007950525	
0.038203374	-0.0632238	0.038308498	4.7461726e-05	-0.045123093	0.03821385	0.0146313375	-0.03227361	0.01992048	-0.0063241995	
0.033126276	-0.05977611	0.040428296	-0.0050784717	-0.04438586	0.0053105457	0.039989598	-0.054429542	0.045959145	-0.0061541125	
0.012061877	-0.042211015	0.046928227	-0.009269514	-0.041212074	-0.027733892	0.06777862	-0.07064637	0.0726792	-0.0028645303	
-0.018263966	-0.01767132	0.0497198	-0.013850387	-0.03478814	-0.051148582	0.079894125	-0.06349228	0.06937332	0.0004889527	
-0.041647326	-0.0015467124	0.058185175	-0.022945127	-0.032575328	-0.059753206	0.0837996	-0.031809065	0.04262012	0.0036077152	
-0.0605429	0.009383958	0.059814364	-0.026891654	-0.025948634	-0.056550313	0.064229175	0.0070563597	0.01469317	0.015729705	
-0.058595795	0.020981781	0.042327207	-0.03713807	-0.015386502	-0.049078703	0.03377786	0.03315482	-0.012700837	0.042285483	
-0.047201164	0.013562044	0.019715158	-0.03889605	-0.008392395	-0.04298656	0.020395225	0.040610835	-0.02271038	0.067258514	
-0.02845298	-0.015883284	0.0031061745	-0.0237757	-0.012459992	-0.026689015	0.024164865	0.025997385	-0.02229185	0.07777144	
-0.008482059	-0.049362987	-0.014195908	-0.000580565	-0.013924191	-0.018587103	0.04883972	0.0005397041	-0.005409551	0.06420887	
0.007421208	-0.06059916	-0.018921623	0.017595988	-0.025878834	-0.015031877	0.06449225	-0.01043187	0.0011126096	0.043698125	
0.012986493	-0.059292328	-0.01473247	0.019439138	-0.03220275	-0.0029533796	0.05888521	-0.016724322	0.010626555	0.019851204	
0.015459202	-0.051634416	-0.00053547235	0.022594012	-0.02968719	0.0012593141	0.04049307	-0.016143873	0.006742296	0.014077789	
0.006595089	-0.04276659	0.014646332	0.011170977	-0.016718145	0.0056189876	0.024593186	-0.010461425	0.0043212697	0.004693008	
0.0056317975	-0.038890194	0.024002925	0.0047129393	-0.012670454	0.007954623	0.013784967	-0.008182771	0.0030274305	-0.0014315677	
0.0003565756	-0.02822222	0.02214928	0.0034108977	-0.008213339	0.0056858053	0.0037254866	-0.0049889265	0.0012516635	-0.0009777736	
0.0028011	-0.018313985	0.017915212	-0.0012812366	-0.0041660555	0.0034661773	0.0038266564	-0.0027707873	-0.00042030466	-0.0010322416	
-0.0010198118	-0.009698567	0.009977933	0.0018126921	-0.0006231655	0.0015550167	-0.0010558827	-0.00053475384	0.0004943054	-0.00042967283	
0.0010737509	-0.0022128678	0.00220804	0.00149091	-0.0022255743	-0.00096592825	0.00068993773	-0.00014612052	0.0007922959	-0.0011698132	
-0.00042259786	-0.00023696607	0.0005797337	0.00016961875	0.0012799461	-0.0012490484	0.0010254437	-0.0015670195	0.00032800742	0.0007726428	
0.0015621493	-0.00054543884	0.00047465303	-0.00035646238	-7.149572e-05	-0.0018390515	-8.0214144e-05	0.0018050161	3.6732243e-05	-0.000401929	
-0.0009253444	-0.0011197607	0.0005940071	-0.00030687606	0.00065193576	0.00066469604	-0.00028255882	0.0010364087	-0.0006528947	0.00039821066	
0.00012191995	-0.001200167	0.00030315848	-0.0011403686	0.00083174603	-0.0013788871	-0.0009266943	-0.00039287165	-0.0013647196	0.0024247784	
0.0015341074	-0.0015514905	-0.0008661672	0.0032090084	-0.0017923487	-8.511342e-05	0.001049502	0.00018342721	-0.0012057059	-0.00091023115	
-0.003761366	-0.004762809	-0.0012922244	0.008253902	-3.249742e-05	0.001651776	0.000175812	0.00063720014	-0.001783252	3.1498785e-05	
-0.0011832603	-0.01528188	-0.002033538	0.024806906	-0.002767801	0.0029330533	-0.0003886908	3.6225329e-06	-0.0025164795	0.00016296821	
0.007089507	-0.031465404	-0.0013769353	0.037461422	-0.016364492	0.017753294	-0.00407077	-0.0063082348	0.0011227503	-0.0033140746	
0.017636899	-0.053376388	0.013597865	0.033191226	-0.03420374	0.04242769	-0.005518676	-0.019242665	0.005828237	-0.0059990697	
0.025795843	-0.056958586	0.022050692	0.01866942	-0.050365515	0.05759507	0.00267678	-0.037311733	0.02962407	-0.005413364	
0.02676598	-0.04839484	0.028660936	0.0071938853	-0.05908967	0.03761125	0.021550432	-0.059525285	0.059832383	-0.008822834	
0.009360455	-0.032374233	0.040656626	-0.0018929549	-0.05983119	0.017844193	0.03734426	-0.067897215	0.06608794	-0.008408783	
-0.0089245625	-0.015434217	0.04309165	-0.010221351	-0.059271816	-0.0117785195	0.05806867	-0.045982454	0.053387944	-0.0044981143	
-0.02373056	-0.0033204805	0.04666727	-0.017740764	-0.05397901	-0.033655446	0.066467434	-0.012697089	0.026338736	0.0035582818	
-0.026609166	0.00050713774	0.028798012	-0.020180149	-0.042730793	-0.045476105	0.05997221	0.020851135	0.00072004355	0.02755313	
-0.025199147	0.007293544	0.0061286455	-0.02343728	-0.036028452	-0.04051225	0.04920326	0.032147747	-0.01582445	0.04853947	
-0.020056918	0.004733067	-0.013955479	-0.015296965	-0.028292859	-0.037024744	0.044283208	0.018630598	-0.017791959	0.06344443	
-0.0057227206	-0.016685301	-0.026323095	0.0016916905	-0.030410718	-0.028153695	0.050626498	0.005762998	-0.0142397825	0.06507611	
0.0033589813	-0.041405115	-0.031121084	0.015568821	-0.029417804	-0.011055633	0.056024924	-0.013407565	0.00054923695	0.04772992	
0.011988729	-0.05040158	-0.022658639	0.01843145	-0.034595963	0.0073004263	0.05042318	-0.019883208	0.0098963855	0.03428533	
0.009989759	-0.05190995	-0.010782644	0.02029625	-0.028058007	0.010788734	0.038360845	-0.025416134	0.019360386	0.017898614	
0.0043733013	-0.04948325	0.010868381	0.015314263	-0.021816328	0.013819596	0.01982497	-0.01815109	0.011665586	0.011314751	
0.0033754034	-0.038311046	0.016425526	0.01013652	-0.011063421	0.010369028	0.009306364	-0.011116227	0.0041361735	0.0062118294	
0.0026064701	-0.028932223	0.018493325	0.0042041563	-0.0057859863	0.006075722	0.0035203714	-0.0067302114	0.0014283283	-0.00048600635	
0.0011268293	-0.023296583	0.01815788	7.551518e-05	-0.0040628035	0.0071760803	0.00078733836	-0.0027680849	0.002028913	-0.00059908355	
0.00044315174	-0.01351934	0.015653167	-0.0008330647	-0.0020851465	0.0035555633	0.0003563	-0.0020131876	0.0016716094	-0.001781399	
-0.0020512193	-0.005520645	0.008351052	-0.00146952	0.0012431784	-0.0028688232	0.0007458077	-0.00016337092	-0.000113887996	0.0018614728	
0.0007180445	-0.0009826657	0.0017140053	-0.0010194071	-0.0010650755	-8.664203e-05	0.0026293858	-0.0006971836	-0.00064792845	-0.0007254031	
0.00029992306	-0.0009557466	-0.0007786058	-0.0011748353	0.0021420221	0.00063521456	0.00066028885	0.00054191845	-0.00050349353	-0.0007488237	
-0.00053635705	0.0003080026	4.4568405e-05	9.749961e-05	-0.00019468892	0.0009185874	-0.0017743877	0.0008562139	-0.00030964758	0.000157405	
-0.0013977383	-0.0003828652	6.121365e-05	-0.0005744405	0.001489406	-0.0005597411	-0.0010598503	-0.0001300534	0.0001713796	-2.4303894e-05	
-0.0008433082	-0.001208091	0.0009568487	0.00041231353	-0.0010637239	4.7008285e-05	0.0009005413	0.0008924702	0.0011609482	-0.0006836079	
-0.0015659144	-0.000894769	-0.0013399294	0.00061746704	-0.0016533593	-0.00055041834	-0.0005850867	-0.0010718409	-0.00075486954	-0.0009147942	
-0.0031970465	-0.0035079448	0.00040234602	0.0106563885	-0.0016057047	0.0022888212	-0.00075428386	-0.00030002624	0.00021630507	-0.0013307169	
-0.0041086897	-0.0104010245	-0.0037880403	0.023503635	-0.002965756	0.0026118092	-0.0007301304	-0.0026607313	-0.0008743494	-0.0014184673	
0.0031421545	-0.025648909	-0.0019338338	0.037488505	-0.010181868	0.013489605	-0.0049329633	-0.0048620035	0.00018918233	-0.0035769562	
0.009973401	-0.037707873	-0.0074660294	0.046875983	-0.027240586	0.03449752	-0.008674404	-0.018046772	0.009226318	-0.0052542924	
0.014902309	-0.04003648	-0.0036778243	0.04169207	-0.045129377	0.05266071	-0.010624937	-0.037907902	0.029156057	-0.0048520705	
0.017103948	-0.027856378	-0.0029269552	0.03208409	-0.05954957	0.05863309	-0.0050319633	-0.059295747	0.056858677	-0.006823743	
0.011617853	-0.014707103	0.002194637	0.027708689	-0.06674784	0.045876194	0.0028168343	-0.055757236	0.0566199	-0.0058724806	
0.004883097	-0.0057157595	-0.00038607058	0.02113528	-0.06887773	0.027810756	0.013198965	-0.035792366	0.042764466	0.00034121962	
0.0015209772	-0.0023161848	-0.0020524752	0.012010598	-0.06177192	0.0052919346	0.016849745	-0.0057645324	0.028058292	0.013571997	
0.00071104884	-0.0062468788	-0.017972361	0.0062257987	-0.052205026	-0.010411893	0.02631556	0.009854183	0.009826763	0.036347553	
0.0012570883	0.0001663329	-0.036655527	0.0022283155	-0.04449402	-0.014533456	0.029634127	0.006926793	0.0006353673	0.05299894	
0.0013864323	0.00879402	-0.048418306	0.004759466	-0.03914765	-0.010837204	0.031049771	-0.00074259896	-0.0018930419	0.055884134	
0.0065039783	-0.0046492857	-0.05657401	0.01358863	-0.035538968	0.0025117954	0.03331832	-0.0106056295	0.0018435043	0.05062012	
0.015798299	-0.024455108	-0.046912815	0.017405134	-0.03812034	0.015505603	0.029384214	-0.017020999	0.011036477	0.036491413	
0.013882062	-0.0359991	-0.026943758	0.01564802	-0.025662197	0.020283118	0.019110234	-0.025748154	0.01749717	0.029154418	
0.007322504	-0.038080797	-0.0023242128	0.00963512	-0.017806564	0.02172918	0.010022461	-0.02675069	0.01970531	0.018419761	
0.003337418	-0.034369145	0.009295268	0.0076451604	-0.012441147	0.016666956	0.0062043136	-0.018727805	0.011254557	0.013036069	
0.0043425383	-0.027446967	0.015556901	0.0014353021	-0.0036459598	0.011622685	0.0007711959	-0.009963067	0.0033457405	0.006256648	
0.0018132033	-0.01926771	0.010962345	-0.0021452315	0.0006158007	0.0060177175	-0.003656033	-0.004543237	0.0009606745	0.0022849492	
0.0012656396	-0.0151723735	0.013652155	-0.0016170358	3.3921006e-05	0.0036212697	-0.0012318406	-0.0029350366	0.00093800866	0.0011340023	
-0.0017139001	-0.01065949	0.009060582	0.00012186869	0.00018271359	0.0018828501	-0.00088284165	-0.0012705675	0.0012351753	0.00026657758	
-0.0013404529	-0.005710102	0.0058864444	0.0012399448	0.00048112817	-0.00053898705	-3.2864802e-05	0.00023768481	-0.00070116913	0.0011749066	
0.0010755117	-0.00095976685	0.0018362305	-4.8462764e-05	4.765329e-05	0.0006519288	-0.0009400814	-0.0011520344	-1.2122848e-05	-0.0014753882	
0.002131241	0.002117839	9.296981e-05	-0.0007535416	0.00060610136	-0.0004676776	7.998861e-05	0.00039582618	-0.00022265303	-0.00026298873	
0.0027090942	-0.00048318444	-0.00044748303	-0.00024580234	-0.0003168031	-0.00034115886	0.0003309729	-0.0006266777	-0.00020706172	0.00025879528	
-0.0020525241	-0.0011781831	0.00021407563	-0.0013609127	-0.00053766154	-0.00011588258	-0.00063431077	-0.0012365252	-0.0015656721	-0.0002955775	
0.00026012314	0.00068404357	-0.0003228653	-0.0012960761	0.0022628997	-0.00014962864	0.00027339693	0.0001883424	0.00037189174	-0.0020054402	
-0.0021923948	-0.0013667182	-0.0011022455	-0.0007782184	-2.7316728e-05	-0.00094814616	0.00044879052	-0.00064712606	-0.00043015592	-0.00092992064	
-0.0010757392	-0.00089452177	-0.0019565811	0.0053023165	-0.0009897146	-0.0016152886	-0.0003714989	-0.00028234432	0.0016594687	-0.00050367863	
-0.00067378365	-0.007119421	-0.003479505	0.015177454	-0.0019473501	-0.0001557597	-0.0012049174	-0.0019331797	-0.00078558974	0.0003514343	
0.0019480407	-0.013622798	-0.005617716	0.025333237	-0.0059210784	0.0036033415	-0.0038073582	-0.003046819	0.00018387122	-0.0021705225	
0.007861151	-0.017413964	-0.015278326	0.037304066	-0.01760787	0.017531596	-0.008216938	-0.012588685	0.010020948	-0.004970306	
0.005756857	-0.019084241	-0.021029323	0.04594713	-0.028301796	0.03238662	-0.013323971	-0.029238444	0.028095186	-0.0035820112	
0.004030123	-0.0014639152	-0.028678613	0.046577297	-0.03980313	0.039613616	-0.022650814	-0.04347029	0.044989187	0.00017814996	
0.0038615065	0.010948263	-0.036869876	0.048751134	-0.051092345	0.051994696	-0.034159195	-0.040197782	0.05069647	0.0013125432	
0.0109984	0.0128394505	-0.044268604	0.04315379	-0.05417268	0.05300472	-0.042471223	-0.0316851	0.057387944	0.0046329903	
0.012926481	0.0025644314	-0.05176402	0.034483984	-0.054315068	0.05073241	-0.05056815	-0.0167624	0.046185445	0.027301006	
0.020486457	-0.004877446	-0.05665508	0.026729558	-0.047505558	0.040171348	-0.042328976	-0.017621487	0.037217204	0.044197407	
0.018105807	0.0058487756	-0.06809478	0.01728546	-0.03730751	0.031411678	-0.028805329	-0.01706488	0.027424423	0.049428143	
0.008253461	0.018848991	-0.06691099	0.0130017875	-0.030891176	0.025189064	-0.021600582	-0.013569811	0.020416519	0.045689575	
0.013688891	0.0067639123	-0.0588136	0.013176886	-0.027697543	0.027337737	-0.015971301	-0.016162401	0.016611267	0.037453234	
0.007959825	-0.006608852	-0.038080957	0.009256408	-0.023209736	0.030249014	-0.012050532	-0.01526173	0.014825243	0.034648217	
0.004418916	-0.018977642	-0.01801119	0.0017623657	-0.010886261	0.027216284	-0.009544826	-0.022803992	0.017441627	0.028646694	
0.00017618224	-0.017366992	-0.002722995	-0.0014369484	-0.005773691	0.02247862	-0.0049938294	-0.023760276	0.018338034	0.018514987	
0.0034563537	-0.013549554	0.003936616	-0.00279462	-0.001748596	0.012798544	-0.005637641	-0.013884675	0.006270248	0.013694284	
-0.00066142704	-0.0126261655	0.0072148284	-0.0021270139	0.0009966197	0.0077439756	-0.003652465	-0.005475261	0.0013456398	0.009301417	
-0.0030303975	-0.010480251	0.007553645	-0.0011544116	0.0022360245	0.0061344174	-0.0032349909	-0.0024314404	-0.00014468921	0.006295736	
-0.0034247232	-0.008376829	0.009205797	-0.0001119177	0.00068512844	0.0030889532	-0.0009642431	-0.0025683213	-0.0006288765	0.0012315573	
-0.0029295443	-0.0043520643	0.0057358807	-0.0015527972	0.0019357996	6.9960566e-05	-0.0001642772	-0.0004238317	-0.00082993536	8.385114e-05	
0.00023303072	-0.0009184912	-0.00054196425	-0.00084414775	0.0015454022	0.000524658	-0.0008262433	0.00055193587	-0.0023515169	0.0014599921	
-0.00034328	0.0006787122	-3.369822e-05	0.0010411175	-0.0011672006	0.0008960585	-6.419487e-05	-0.0014891416	-0.00074287906	-6.495432e-05	
3.166427e-05	-0.0007666866	0.00076227274	-0.00047681716	0.0007416524	-9.618057e-05	0.00044026418	0.00069928647	0.00014909665	-0.00041527304	
-0.000757857	8.160616e-05	0.00036249496	-0.0012939216	0.0005289577	3.8636746e-05	0.001915321	0.001734177	0.0001343105	-0.00042065934	
-0.0002392873	-0.00019442636	0.0019606517	-0.0010172038	0.0006850241	0.00041916812	-7.366585e-05	-0.00046328412	0.00076807727	0.0008748092	
0.0005330202	-0.0007202576	-0.00077653886	-0.00045576075	-0.00018100199	0.00043730857	0.00046676034	0.0017686604	0.00041521853	-0.0018574346	
0.0012839246	-0.00064115605	-0.0002442116	0.00056392094	-0.00045988074	0.00073708885	-0.0005902988	0.0003889752	-0.00060976273	0.0023265162	
-0.00018310266	0.00018961751	-0.00015690265	0.0030771215	-3.3355653e-05	-7.730014e-05	-0.0010858811	-0.001175829	-0.0017345442	-0.0005097918	
-0.0023644478	-0.0010706185	-0.003737746	0.0077519338	0.0013791411	0.0011622775	0.00050984323	0.0005732811	0.0010722263	0.00013571435	
0.0008128008	-0.0050793733	-0.009990259	0.015832664	-0.0032876588	0.0011707975	-0.001735476	0.0013065543	-0.00042088536	0.00020111867	
0.0019695575	-0.0040116105	-0.015449645	0.025115147	-0.0069118175	0.0063056345	-0.0051212516	-0.002952408	0.0035995722	-9.203731e-05	
-0.0005011783	0.0032779628	-0.027556354	0.032429457	-0.014547898	0.015082489	-0.01581207	-0.012406341	0.013580265	0.005519272	
-0.0033841615	0.018209351	-0.041660924	0.037415475	-0.02352244	0.02493859	-0.027589187	-0.020481724	0.030237585	0.006720898	
-0.0043057525	0.028109966	-0.05581005	0.04081919	-0.030154312	0.033019245	-0.042128015	-0.02139948	0.044389684	0.0064743655	
0.0043130526	0.017533455	-0.06630576	0.0423603	-0.032511413	0.04142869	-0.05520311	-0.01749961	0.046779957	0.01773375	
0.01380118	0.008149302	-0.067038305	0.033801414	-0.037100755	0.05058604	-0.06564065	-0.0202044	0.044698846	0.038974654	
0.017135015	-0.0004364156	-0.0667487	0.0249308	-0.032634977	0.051120013	-0.06650404	-0.019495385	0.043312468	0.04725168	
0.011242558	0.0084063	-0.06409987	0.01449725	-0.022436155	0.04495009	-0.052958228	-0.020607086	0.035513386	0.046966657	
0.005612003	0.015903505	-0.05465779	0.0054296125	-0.01791642	0.040941842	-0.049983524	-0.014061523	0.02778321	0.039415747	
0.0005116146	0.011764074	-0.039041445	0.0013134786	-0.016350802	0.03572467	-0.04062108	-0.008996928	0.018394027	0.03648312	
-0.0047124205	0.004470307	-0.023615303	-0.0032983	-0.013466478	0.02946078	-0.030524382	-0.009486748	0.011339156	0.037708748	
-0.0007216426	-0.006432135	-0.010206609	-0.010173451	0.00043351558	0.020941544	-0.018993841	-0.011139216	0.011730818	0.027105184	
-0.0019481272	-0.0064235968	-0.0041141547	-0.0109380195	0.005140946	0.010692823	-0.010743599	-0.010833036	0.0045813513	0.018380007	
-0.0024026197	-0.005671672	0.0011345459	-0.006920768	0.0057087317	0.0050424035	-0.005867697	-0.0064031137	7.7522185e-05	0.014151042	
-0.0026961623	-0.0066650636	0.0005003265	-0.0032535992	0.005862758	0.0029606796	-0.005534565	-0.0024290904	-0.0041019158	0.010488339	
-0.0030543073	-0.006459381	0.0036388075	-0.00244771	0.0035264185	0.0033621031	-0.0023417564	-0.0021368524	-0.0015275643	0.008826508	
-0.0024921596	-0.0031429008	0.0028252811	-0.0019909807	0.0017304859	0.0005583227	-0.00033369203	-0.0010896059	4.850169e-06	0.004190169	
-0.00077530596	-0.0009243253	0.0032911666	-0.001936578	0.0024493702	0.00060048886	-0.00030040566	0.00070380647	-0.0006874044	0.0004058148	
-0.0018031495	0.001022284	0.0008278756	-0.0018330206	-0.0017371264	0.00046441003	0.0010687988	0.00045371777	-0.00060804264	0.0014626584	
2.308598e-05	-8.139777e-05	-0.00046513713	0.0011533272	-0.0010568105	0.0008956539	0.001422002	-0.00061745784	0.00022264416	-0.0010641607	
-0.00012676544	-0.00013330387	0.0009718055	0.0011854467	-5.1256116e-05	-0.0005057124	0.0016144598	-0.0004120445	0.0013424491	0.0023682518	
-0.00088907924	0.0002970016	-0.0011813025	0.0010880079	0.0010112558	-0.0008836812	-0.00021793929	0.00032295036	0.0007098467	0.00014390175	
0.00015531799	-0.0013969827	-0.00035262672	0.00055838295	0.001232764	0.00035812732	-0.0006652501	-0.00020220896	0.0010422167	-0.0015143311	
0.0012441973	-0.0013385831	0.0005791327	-0.0009880223	0.0015235672	-0.00045589695	0.00013584014	0.0009975724	0.00044660698	0.00076208916	
-0.00058341824	0.0011149897	-0.0019019336	-0.000493501	-0.0015692234	2.3544982e-05	-9.5665964e-05	0.0013601158	-0.0013468467	0.00088000175	
-0.00021263564	-2.7647133e-05	-0.0018699613	0.0012062066	0.00032170533	-0.0003945299	-0.0007570959	-0.000900194	-0.00067746284	-0.0017642253	
0.00063949684	-2.4045303e-06	-0.0029249408	0.005546684	-0.00287197	-0.00026623742	-0.00043801073	-0.00063783483	0.0002953802	-0.00018001912	
-0.00069238525	-0.0012056727	-0.0055893613	0.010103123	-0.0005244773	0.00031254312	-0.0014022902	0.0041287863	-0.0029194707	-1.4838319e-05	
-0.0013287897	-0.0021629801	-0.0075982264	0.012421268	0.00079251424	-0.0020154093	-0.004362844	0.00614157	-0.0016954055	0.006107873	
-0.00393589	-0.0006529218	-0.013141257	0.013989659	-0.0037429587	0.0023042364	-0.013337771	0.013219249	-0.0010184268	0.0074722692	
-0.0066948365	0.0004518735	-0.016512796	0.01683026	-0.008207858	0.0063425223	-0.023669984	0.01534295	0.006712154	0.010539158	
-0.009614793	0.0045837387	-0.024702862	0.014212387	-0.009532664	0.008187599	-0.034220286	0.019301096	0.016321652	0.014251293	
-0.010861652	0.0031529285	-0.03011493	0.015348794	-0.011515594	0.011660491	-0.04171394	0.022133349	0.0058277375	0.034652118	
-0.004347052	-0.0032357327	-0.032016963	0.013479534	-0.0110183675	0.017852576	-0.042542003	0.018139716	-0.0041878414	0.050783545	
-0.002005813	-0.0066001606	-0.029721921	0.010465072	-0.013819231	0.0211958	-0.042284172	0.015029167	-0.0011302205	0.050237652	
-0.00033086815	-0.006080502	-0.028130686	0.001321054	-0.0070979977	0.019165257	-0.040327914	0.014781243	0.0060410704	0.039118383	
-0.004611691	-0.0012937607	-0.022234332	-0.005773312	-0.0076625044	0.016982999	-0.038763184	0.016228871	0.0073245196	0.036545437	
-0.0038806673	-0.001215954	-0.017369417	-0.0028083054	-0.007890547	0.011148196	-0.026867462	0.011621784	0.0036051949	0.036445696	
-0.004631257	-0.0018370935	-0.0113151185	-0.0078077284	0.00065106415	0.004911373	-0.023841381	0.008452978	-0.004873307	0.039626043	
-0.0021293568	-0.0023959186	-0.0051573454	-0.0122967595	0.0077077234	0.0025828648	-0.0131392935	0.0030155086	-0.0043995413	0.028549287	
-0.0032594898	-0.0017922815	-0.0038353668	-0.007860006	0.0068506747	0.0011140776	-0.0056816563	-0.00060102536	-0.003963147	0.020439176	
-0.0032805267	-0.0022313627	-0.001102858	-0.00568758	0.0045528417	0.0015400613	-0.0049340394	-0.001487603	-0.0031216086	0.012559497	
-0.002631758	-0.003017718	-0.003019934	0.00070046826	0.0032035608	0.0003985653	-0.0020746128	-0.001716496	-0.0042506685	0.011196446	
-0.0036357301	-0.0011479621	-0.0013833952	0.0014026117	0.0009622334	0.00094574166	-0.0009399209	0.0010635321	-0.0021781572	0.007997049	
-0.00066694437	-0.0006319402	-0.00073622423	-0.00060369115	0.0022486465	0.00022070056	0.0012734663	-0.0009176354	-0.0026172905	0.004401338	
-0.00023809343	-0.0002872715	0.0005238268	-0.0020662744	0.0014737692	0.00074927945	0.000752012	-0.0003955297	-0.002419371	0.0034495806	
-8.071697e-05	1.5204743e-05	0.00020538636	-0.0016308037	-0.00095497764	-0.00092739816	0.0017489381	-0.00023706493	-0.0005864006	0.00016355714	
0.0018007112	0.0012560565	-0.00081528566	-0.0010725044	-0.0007049127	-0.00027043134	0.0014431869	0.00088264135	-0.00017405974	-0.0009459737	
0.00044827323	-0.0007159653	0.00015639263	0.00050924695	0.0001912106	-0.0011454145	-0.0016014266	0.001138535	0.00039126427	-0.0004563284	
-0.00014733152	-0.001478604	0.0006717059	-0.0009452478	-0.0010286318	-0.00021093935	-0.00010611605	0.0007195205	0.0016545142	-0.0008208152	
0.00053062633	-0.0017652448	0.00024917192	0.0015390458	0.0002553862	-0.00041986094	-0.00014368273	-0.0004911663	0.00061487494	-0.0013338261	
-0.0016279072	-0.0010764804	0.00064996985	0.0005150099	0.00012851415	0.0003616812	0.0015742268	0.00082050764	0.0013411804	0.00091954373	
0.0010417396	0.0006605948	0.0008516431	-0.00047916375	0.00069643196	0.00096930104	-0.00040799752	-0.00018212224	-0.0014441641	0.000344217	
0.00014714418	0.0005400182	0.0017000323	-0.0013239915	0.0002795123	-0.00028747736	-0.000887049	-0.00047447652	-2.506865e-05	-0.0008671716	
-0.0016640829	-0.0012888837	-0.001727218	0.0021376524	-0.0012021491	0.00033761084	-0.00026548037	0.0017954896	0.00069183356	0.00024896525	
-0.0012050198	-0.0014884137	0.00010982121	0.0015915069	0.00022094797	-0.0010401978	-0.004359378	0.005160661	-0.0029518418	0.003574976	
-0.001313484	-0.0031654479	-0.00417459	0.0022041406	0.0011393824	-0.00069615326	-0.0068213954	0.010147698	-0.004588964	0.0063459747	
-0.0019113915	-0.0018168235	-0.0037486649	0.003325912	7.9000856e-05	-0.00410271	-0.014060701	0.019977631	-0.007526877	0.009024808	
-0.0025896963	-0.0023774207	-0.005457936	0.004247169	-0.0026760558	-0.0034633183	-0.022879131	0.029728716	-0.008464901	0.0120401755	
-0.0020435448	-0.004331821	-0.006681577	0.0010160143	-0.0044256872	-0.0025255687	-0.027264997	0.040157076	-0.014738441	0.017402276	
-0.0040473766	-0.0038006543	-0.0069804844	0.0028905906	-0.008031659	-0.0039173705	-0.030000012	0.04819166	-0.024680933	0.033289704	
-0.004104669	-0.005475622	-0.0048576468	0.0050485833	-0.008703618	-0.0053237756	-0.025865044	0.04285653	-0.029691422	0.03667594	
-0.0044339015	-0.0029589399	-0.0060007414	0.003413148	-0.007458477	-0.0048569352	-0.023231778	0.039641585	-0.028098006	0.034334823	
-0.0042859623	-0.0036480369	-0.005052196	-0.002106427	-0.0038151213	-0.0047658645	-0.02348337	0.039830938	-0.023650296	0.030618452	
-0.0033554519	-0.002812747	-0.0040443023	-0.005576554	-0.0018758442	-0.0046127453	-0.02168992	0.036304012	-0.015647206	0.028232746	
-0.002927966	-0.002434374	-0.0034316955	-0.004099132	-0.0032875573	-0.004584309	-0.016713968	0.028046947	-0.019393599	0.027282549	
-0.001764748	-0.0014187216	-0.0019209075	-0.002550437	-0.003945186	-0.0045090797	-0.014345989	0.022935096	-0.017276961	0.028465856	
-0.0024194107	0.00045026993	-0.0021254043	-0.0037750334	-0.0022071556	-0.00040409953	-0.008610175	0.011769969	-0.011339911	0.01896469	
-0.003336783	-0.0016610518	-0.0013239456	-0.0005608821	-0.0020558485	-0.00046560564	-0.0028977229	0.0026714432	-0.0042777527	0.014060572	
-0.002724273	-0.00056603504	-0.0014095526	0.00015791888	0.00021126488	-0.003190533	-0.0012512971	0.00014560707	-0.0030490695	0.009132792	
-0.0019955358	-0.0015353054	0.00033318045	-7.64207e-05	-0.00024763466	-0.0009593458	-0.0037398187	-0.0015000852	-0.0016124556	0.00879863	
-9.69019e-05	-0.0011928704	-0.00093714206	0.00039543404	-0.0027574548	-0.00071118627	-0.001475971	0.00039339229	-0.00073919067	0.004865991	
-4.19707e-05	-0.0011806553	-0.0014062034	-0.00076987396	-0.0014847709	-0.0006733522	-0.0012969933	0.00065326196	0.000114808005	0.00084252236	
-0.0026584452	-0.0014865545	-0.0003305245	-0.000267612	0.00011218442	0.00072474516	-0.0016585257	-0.00065096375	-0.0016424562	0.0011870996	
0.001979115	-0.0003737602	-7.169286e-05	0.000285637	0.00038318324	0.0010457621	0.0003455803	-0.0009959117	0.00074680964	-0.00051467377	
-0.00017058507	0.000188907	0.0009391285	-0.0008378479	0.00079554087	-0.00049517857	7.943568e-05	-0.0010370514	0.00041931067	0.00083864207	
0.001199529	-0.00052791904	-0.0006635419	0.0004189828	-0.0025052344	8.2574225e-05	0.001647707	-0.0007205298	0.00045905603	-0.00090411503	
0.0011997465	-0.00023862772	0.0004061597	2.5625233e-05	0.00015473695	-0.00019094186	0.0016145718	0.00041867973	0.0004497804	0.0011032065	
-0.0011584697	0.0005200631	-4.455404e-05	0.00080783834	0.00024459208	-0.0005948596	-0.0009584188	0.0012537168	-0.000611504	-8.418616e-05	
-0.0019742516	-0.00086651416	-0.0005238304	-0.0004924311	-0.00042612778	0.0016785306	0.00069436803	0.0018145149	-0.0012174555	0.00074299256	
0.00052674755	-0.00069781276	-0.00024303602	0.00070616364	0.00023433173	-0.0003867025	0.0005371146	-0.0010958808	0.00057054736	0.0006205326	
-0.0011922808	0.0006073756	-0.00076513225	-0.00028933742	0.0008260675	-0.00052525144	0.0017131177	0.0012390426	-0.0007846146	0.00020199819	
-0.0007018411	0.0010637477	-0.0022460034	-0.001565374	-0.0001236632	0.0009887427	0.00033217805	-0.00041799992	-0.0018852201	0.0021505626	
-0.0009356433	-0.0009524408	0.0020293382	4.0359613e-05	-0.00086651766	-8.3645806e-05	-0.0030588412	0.0023147592	-0.002150931	0.0030092327	
0.00026110437	0.0015832358	-0.0012956304	-0.001672893	-0.00084123417	0.00065055897	-0.0077124676	0.0073861913	-0.002537476	0.0019868924	
-0.00037954174	-0.00017029008	0.0002888097	-0.0020381028	-0.00078009727	-0.0028889007	-0.01034431	0.013563862	-0.0022238654	0.002986595	
-0.0018690742	0.00048183143	0.00067805964	8.648712e-05	-0.000431606	-0.0030882598	-0.011344909	0.018933253	-0.00250441	0.004848142	
-0.0022841394	0.0017056118	-0.00072660967	0.00061179645	-0.0014721652	-0.0049740365	-0.014118672	0.022623248	-0.005728469	0.0041909195	
-0.0017839525	-0.0014570139	-0.0009191481	-0.0024651338	-0.0022767766	-0.0037231776	-0.014665457	0.025882363	-0.0048351516	0.006469538	
-0.002034252	-0.0011827133	-0.000725056	-0.001543364	-0.0032277259	-0.0031599167	-0.011591169	0.020407377	-0.0044997903	0.0047729136	
-0.0024959554	-0.0018173117	-0.0031690472	-0.0014800082	-0.0051658875	-0.00426067	-0.011457737	0.020708153	-0.0036783782	0.0027355673	
-0.00026546433	-0.000741922	-0.0010052833	-0.00078992604	-0.0026838086	-0.0030706997	-0.011225101	0.022187445	-0.0033765507	0.0052011563	
-0.0019443985	-0.0006852461	-0.0015857269	-0.0032726002	-0.003360231	-0.0036750583	-0.010783466	0.021765675	-0.006097015	0.0072148163	
-0.0012897056	0.00035465855	-0.00060779694	-0.0030712688	-0.003070438	-0.0027598885	-0.010039877	0.01999593	-0.0052511655	0.00632464	
-0.0020676376	-0.00051224494	9.4712355e-05	0.00068893546	-0.0009190229	-0.003803304	-0.0071145296	0.014611815	-0.0055744285	0.007457408	
-0.0022195769	-0.0018714414	0.0011906644	-0.0012095314	-0.0032821477	-0.0012567914	-0.0040625236	0.009447775	-0.0036137376	0.0072931736	
-0.0009709112	0.0008224049	-0.0010117022	0.0008540657	-0.003417969	-0.00036630526	-0.0037033348	0.0023921235	-0.0004632506	0.0043498343	
-0.0016942548	0.0013829261	-0.000649515	0.0019653947	-0.0007622234	-0.00031329857	-0.0030523369	0.00022622189	-0.002083474	0.0020269281	
-0.00030022598	0.0003519182	-0.0006582108	0.00010933092	-0.0007178481	-0.0002623447	-0.00014734128	0.00013044442	0.0007418683	0.0026642652	
0.0018187228	-0.0015045005	-0.00062621065	0.00036080103	0.00047666696	0.0007181867	0.001220636	0.0027150477	-0.001211343	0.0005385741	
