-0.035340324	0.015055762	-0.005215725	-0.0070773466	-0.032267146	0.0013137987	0.0005157476	0.01807151	-0.014417562	0.07091671	
***0.1***
--------------------------------------------------
-0.048781045	0.034990273	-0.0070450446	-0.020868564	-0.036163263	0.011397151	0.0033720222	0.03746123	-0.027104009	0.06429674	
***0.09000000000000001***
--------------------------------------------------
-0.054631196	0.05034352	-0.008862037	-0.032178402	-0.03838043	0.02248144	0.007047152	0.055938683	-0.041699603	0.051496368	
***0.08100000000000002***
--------------------------------------------------
-0.058610164	0.06258058	-0.011200365	-0.042423155	-0.039860487	0.033439625	0.010045728	0.07230807	-0.05730051	0.042576235	
***0.07290000000000002***
--------------------------------------------------
-0.06145093	0.07270951	-0.013639748	-0.0518078	-0.040632647	0.04431456	0.012542452	0.08696066	-0.07276582	0.035325363	
***0.06561000000000002***
--------------------------------------------------
-0.06359106	0.08134518	-0.016036637	-0.060419157	-0.040797014	0.05507494	0.014645814	0.10015457	-0.087781474	0.028960364	
***0.05904900000000002***
--------------------------------------------------
-0.065280944	0.088877164	-0.018343007	-0.068300724	-0.040447585	0.06569533	0.016422836	0.11208716	-0.10228464	0.023129875	
***0.05314410000000002***
--------------------------------------------------
-0.06666077	0.09556347	-0.02053475	-0.07549043	-0.039661996	0.07614967	0.017919024	0.12290434	-0.11627838	0.017645234	
***0.04782969000000002***
--------------------------------------------------
-0.06780835	0.101580314	-0.02259151	-0.0820264	-0.03850416	0.08640839	0.019168137	0.1327134	-0.12978105	0.012396743	
***0.043046721000000024***
--------------------------------------------------
-0.06876575	0.10705074	-0.024495203	-0.08794442	-0.037027266	0.096438594	0.020196749	0.14159693	-0.1428118	0.007316942	
***0.03874204890000002***
--------------------------------------------------
-0.06955498	0.112062626	-0.026231077	-0.09327654	-0.03527627	0.10620445	0.021026712	0.14962357	-0.15538476	0.0023619079	
***0.03486784401000002***
--------------------------------------------------
-0.070186734	0.11667982	-0.027788516	-0.09805165	-0.033290703	0.115667656	0.021676712	0.1568547	-0.16750768	-0.0024980686	
***0.03138105960900001***
--------------------------------------------------
-0.07066651	0.12094978	-0.029161274	-0.10229742	-0.031106891	0.12478801	0.022163717	0.16334938	-0.17918186	-0.007281441	
***0.028242953648100012***
--------------------------------------------------
-0.0709981	0.12490873	-0.03034742	-0.10604203	-0.028759923	0.1335246	0.022504171	0.16916488	-0.19040366	-0.011995802	
***0.025418658283290013***
--------------------------------------------------
-0.07118618	0.12858473	-0.03134934	-0.1093156	-0.026284816	0.1418381	0.022714844	0.17435768	-0.20116617	-0.016637804	
***0.022876792454961013***
--------------------------------------------------
