-0.00028925433	0.0002810767	0.00031994155	-0.00024396395	0.0006734034	1.2633701e-05	-0.0014118347	0.0008417385	0.0005904669	0.0002849751	
-0.0012548366	-0.0007083054	0.0009290249	0.0027926022	-0.00061214075	0.00014992578	0.0005573765	0.0005421882	-0.0011495971	0.00068915857	
-0.00010644403	-0.0006840016	0.001856957	-0.00040132873	0.002079609	-0.000827395	-0.00029664772	-0.002314617	-0.0011543096	0.001855554	
-0.0002829121	0.0006978115	0.0009539141	-0.0001607668	-0.0005060108	-0.0022818064	-0.00041405892	-0.0006982202	-0.0010544943	1.0123296e-05	
-0.00079571264	0.0009684116	-0.0011991453	0.0018300558	-0.0012116805	0.0006618291	-0.0006891151	-0.0012715004	-0.0020861293	-0.0004688143	
0.00012455405	0.00024605304	0.00031707864	-0.0001614798	0.0001222301	0.0015048546	-0.00036585343	0.000539869	-0.0002667572	0.0009336444	
-0.00024204762	-0.000906289	0.0010306324	-0.0008610773	-0.00030509348	0.0019772653	0.00011906099	-0.00178658	-0.0020074358	-0.0004251593	
0.0026586344	-0.0010798959	0.00019556726	0.00030422714	-0.000426235	0.0005157414	0.0011855834	-1.5453448e-05	0.0008519249	-0.00015259054	
-0.0003819265	-0.0011909553	-0.0013122949	0.002278902	0.0011326958	-0.001469162	0.00069228205	-0.00037093053	-0.00020222596	0.0003802929	
9.076779e-05	0.000980386	0.00033220326	0.00025454094	0.000470966	-0.00028133322	-0.00022835641	0.0011522175	-0.00029480734	0.0015461202	
0.001102472	-0.0006523436	0.00106085	3.7791255e-05	-0.0008049086	0.000944124	-0.0006134874	0.0014670717	0.000109078224	0.0007590828	
-0.00036516073	-0.0023606638	-0.0010098714	-0.00097449217	0.00015984078	-0.00096680975	0.0004854142	0.00068264245	0.0003598356	0.0006095315	
-0.0009823545	7.005743e-05	0.0010670676	-0.0007215796	-8.003809e-05	-0.00073078624	-0.0017783222	0.00031213372	-0.0030224028	0.0010387395	
-0.0015782713	0.001066576	-4.3270495e-05	0.0012859296	0.00024605737	0.00080687733	-0.00070216815	0.0014973042	1.0610192e-05	-0.00057735696	
0.0013157816	-2.318934e-05	0.00016391373	0.00027145402	-0.001030044	0.00044038024	-0.0009799247	0.0015819605	-0.00021261154	-0.00027415584	
0.0006695035	0.00078491087	-3.1955378e-07	-0.00079645263	-0.001876384	0.00060302654	0.0008115593	9.6400734e-05	0.0018232218	-0.0008547857	
-0.001244072	-0.0014884392	-3.9157774e-05	0.0011340163	0.00024869424	-0.0007365609	0.0011547393	-0.00013710049	0.00087635906	0.00022326932	
-0.0014918061	2.666636e-05	-0.00050758495	0.0008557363	-0.0005186145	0.0008991903	0.00030849074	0.00052955747	-0.0012507038	-0.0010798965	
-0.0021523435	-0.0006322696	0.0010773623	-0.0002986688	0.0007038501	-0.001935913	-0.0014583978	6.2438885e-05	-0.0010613068	-0.00032568866	
0.0017142636	0.000121375764	0.00033789844	0.0015776393	-0.00011045495	-0.00094558706	0.0008945265	0.00031866366	-0.0012691384	0.0004248261	
0.0013243838	0.000100494915	0.0004955597	-0.0025822711	0.00058405753	0.00056435436	0.00071704626	0.0009188955	-0.0001949667	-0.00085322844	
-0.0018741152	-0.00067559426	-0.00092092	0.00031678312	-8.848837e-06	-0.00022160113	-0.00075420894	-0.0008575939	0.0009744559	-0.00054620224	
-0.0011859725	0.0007942204	0.00027914922	6.416504e-05	0.0014242384	-0.00078849785	0.0010208647	-3.5985813e-05	-2.8317836e-06	-0.0019025669	
-0.0012786363	-0.00019361114	0.0005219655	0.0009654736	-0.0005821055	0.00027254515	-0.0011284966	-0.00024093615	-2.989861e-05	-0.00022999173	
8.527191e-05	0.00076518365	6.117719e-05	0.0007674572	0.0011013558	0.0005370943	0.0005646066	0.0012492226	0.001178643	0.0013735356	
0.00040256552	-0.0010502086	0.0008142747	0.0019758283	-0.0009192118	0.0020237076	0.0007795736	-0.0005565158	0.001326185	-0.00049778976	
0.0004048808	0.0013692054	-0.0010076045	0.0016239927	0.00067253417	-0.0006278844	0.0009489298	1.2276927e-06	-8.71502e-05	-0.00038712056	
0.0009387183	-0.00019830899	0.0014383625	5.755663e-05	-0.0006796212	0.00044047635	0.0006167946	-0.0012974303	0.00011335167	0.001853442	
-0.0017607198	0.0017114464	0.00076660415	-0.001022129	-0.0015344215	-0.00062828837	0.0007975895	0.00045101327	0.00020287583	-0.00072676054	
0.0013109465	0.0004962819	-0.00061380386	0.0005622015	-0.00025729946	0.0006122833	-0.0011240814	-0.0017011347	-0.00043826996	0.00036775667	
0.0014816347	0.00029294932	-0.00042030998	-0.0018866099	-0.0014462494	-0.0009462519	-0.0006585964	8.658533e-05	0.0019411423	0.0012938824	
-0.00051085145	0.00043787915	0.0006599585	-0.0002229507	-9.477269e-05	0.00017573661	-0.0016311279	-0.0005348981	0.0005666307	0.00066325715	
-0.0021540478	-1.1929781e-05	-0.00087599776	-0.0020872224	-0.0009571325	0.0023412926	0.0010749627	-0.00014708143	0.0021527377	0.0017555043	
0.00037596043	-0.0009543695	-0.00079015887	0.0013063179	0.00047305424	0.0003686578	0.00019823408	-0.00060502795	-0.00068227085	-0.0018956045	
0.0009163817	0.000510873	0.00041137004	-0.00058923964	-0.0009343009	0.001027605	-0.00042823522	-0.0007395151	0.00101436	-1.5881968e-05	
-0.0018002322	-0.0017157902	-0.00054267974	0.0012883253	0.0012474699	-8.5461026e-05	-0.0010348713	0.0003941353	-0.001000109	6.4409796e-06	
0.00037836347	0.0011989032	0.0008691603	0.000842093	0.0007398381	0.00020932086	-0.00018712973	-5.1654664e-05	0.0009336934	-0.0002943429	
-0.00013797013	0.0009988635	-0.00027092674	0.00039838123	-0.00031322875	-0.00049494556	-0.0001822941	0.0007761503	-0.0009141209	0.0020975121	
-0.0020426824	0.0035948805	-0.00028370044	0.0011410933	0.0015330281	0.0012471161	-0.000949307	0.001022423	-0.0018865471	0.00027615114	
-7.845516e-05	0.00051141036	-0.0019097975	0.0001760846	-0.00069252617	0.00072211865	0.0027663545	0.0018591166	-0.0006721528	0.0011097712	
4.2219235e-05	0.0014386027	-0.0008818622	-0.0002806352	-0.0022016102	-0.0011985877	0.0009482994	-0.0010262865	0.00051844877	-0.0007236303	
2.925784e-05	0.0003955098	-0.0005610569	-0.00011813811	0.00069568073	-0.0017081021	0.002880567	0.0015204786	-0.000545131	-0.00013783548	
0.0006338876	0.0025112645	0.00015111105	0.0007124422	8.9572335e-05	0.00072981557	0.001543673	0.00011071583	0.0013897964	-0.0014229959	
-0.00025137735	-0.0014131952	0.0008850446	0.0012975278	-2.6458292e-05	0.00016689542	-0.00022791806	0.002486583	0.00047662237	0.00012223124	
-0.00042646943	-0.0012382522	-0.0005773097	0.001872805	0.0012792483	0.0010232254	0.0011281001	-0.00023953941	-0.0012846697	-0.0024657352	
-0.0012918073	-0.00022367346	0.0008525026	-1.8694025e-05	0.0007369422	-0.0002997047	0.0003401852	-0.0005922852	0.00065802183	-0.00095998426	
0.0012652937	-0.00052435807	-0.0013305541	-7.105837e-05	-0.00030553323	-0.00017376107	-0.0022475955	0.0018671963	-0.00071044784	0.0011732181	
0.0007540147	-0.0019166863	-0.0015236377	-0.00087558466	-0.00072513905	-0.0009950898	0.0008163577	-0.0012353263	-0.0019651153	0.00017123003	
0.0007653029	0.0023051486	0.000119754535	-0.00023363445	0.0010632614	0.00076066895	0.00026497233	0.0011417647	-0.0008568711	0.00027272513	
-0.0016623416	0.00072098005	-0.00022178133	-6.2598185e-05	-0.00063364586	-0.0010878776	-0.0033920137	-0.0018775136	0.0010750997	0.00024330967	
-0.0007452691	0.00043700324	-0.00015379825	-0.0014074693	-0.00023435043	0.0011268923	0.00055585895	8.622374e-05	-0.00022019102	-0.00031216003	
0.00042213136	0.0011229909	-0.0005465815	5.1427633e-05	-0.0006894624	-0.0014253958	0.00101725	0.00067157956	0.0010126551	-0.0013366956	
-0.00037299364	-0.00049061363	0.0010221929	-0.0008860895	1.0027554e-05	-0.00034661085	-0.0015857434	5.347373e-05	0.0005932268	0.0013265659	
8.290436e-05	-2.6981379e-05	0.0007391572	0.00164623	-0.0005582472	0.0014107521	-0.00010328625	-0.0005690753	-0.0013440414	0.00077700947	
0.00044279647	-0.0003997382	-0.0007063872	-0.0004284271	-0.00090837566	-0.0017094461	0.0012077938	0.00024016402	-0.0003979843	-0.0009000114	
0.00018919283	-0.00047719397	0.0002621106	-8.248791e-05	0.0008040541	-0.00033582043	0.0010619547	-0.00042224134	0.0008381908	-0.00050054095	
-0.0003739561	0.0011441965	0.00094810256	0.00024383604	-0.0006630295	0.0003304387	-0.0029178534	0.00071712374	-0.00021149436	0.0008939674	
-0.00039262127	0.0012851253	-0.00042011967	-0.0025656566	-0.00044898505	-0.0023815408	0.00103097	0.0011321126	-0.0026868875	-0.0004193927	
-0.00024178156	0.00010673105	-0.000877916	-0.0010782249	0.00019035798	-0.00040651995	1.51734375e-05	-0.0011102037	-0.0016500267	-0.0002270011	
-0.00032859648	0.00016888333	0.0011800894	9.834146e-05	-0.0021800848	-0.00200131	0.001400257	-3.0479903e-06	-0.0012468738	0.00081806025	
0.0013449637	0.0005703606	4.5626482e-05	6.06393e-05	-0.0019837169	-0.0001619883	4.2912343e-05	-0.0008212119	0.000358293	-0.00047266035	
-0.0004402172	0.0015012908	-0.0002714183	-7.330861e-05	-0.0015186134	-0.00045605868	0.0004835024	-0.00068673986	0.00031736062	-0.00051706965	
0.0016221679	-0.0021153218	-0.0005999193	-0.00053649326	-0.00033531533	0.0007628929	0.0002935935	0.00016697044	0.0005674035	0.0005324858	
-0.0007238138	-0.0007755867	-0.0011863671	0.0014866253	0.000110258225	-0.00084049226	0.00023913218	0.0011587956	0.0011655262	2.0189716e-06	
-0.0013105209	-0.0008405366	-0.00011466126	0.0010550957	-0.0007607656	0.0006757264	0.000733646	0.0008964874	-0.00040442636	0.0008180499	
5.5911383e-05	0.0019243598	-0.0022051893	1.7377371e-05	-0.0014322079	-0.00037955743	0.004863613	0.001026898	0.001171164	0.000535105	
-0.0009837238	-0.0022668221	0.0019043849	-0.0020451413	0.0011031363	-0.0021859703	0.005278354	0.00057002495	-0.00070025696	-0.0016882281	
-0.0013769183	-0.0021194967	0.0033596447	-0.0015653992	-0.0009354552	-0.0070104487	0.010183993	-0.001050396	0.0019423981	-0.00033758057	
0.00097322324	-0.0019816048	0.0022861825	-0.0016865167	-0.0031574748	-0.004364562	0.006070492	-0.00013019406	-0.0025014763	-0.0007227792	
-0.00012934461	-0.0012974141	0.002396771	-0.003548437	-0.0026360569	-0.0039096167	0.0076104105	0.0015248222	0.0018554826	-0.000943129	
0.0008794011	-0.002111801	0.00018541678	-0.0009968849	-0.0036908712	-0.005526742	0.009882409	0.0008151028	0.0029453556	-0.003186536	
-0.0017785986	0.00021292093	0.0003767516	0.0022022931	-0.0052765044	-0.0087215295	0.012267838	0.00048269238	0.0025743905	-0.0023263756	
-0.0025291129	0.0027312767	-0.00058106973	0.0024502687	-0.0015989639	-0.009275338	0.013277456	0.0013166412	-0.00011222051	-0.00037733125	
-0.0017473509	8.740026e-07	-0.00066245324	0.0027607407	-0.0014461544	-0.007930977	0.01280184	-0.0009377941	-0.00012655671	-0.0013748296	
0.0007207688	0.000110755194	-0.002266375	0.00055830635	-0.0010536708	-0.005256435	0.009553745	-0.00028102036	-0.0006706752	-0.0018246899	
-0.0006463054	0.0008617522	-0.00021690808	0.00036896617	0.002436375	-0.0025415835	-0.00077536295	-0.0028469113	-0.0005286601	0.0020131117	
-0.0008721957	0.0006310875	-0.0014361951	-0.0016407154	-0.00027265598	-0.0021863196	-0.0020851747	-0.0001535996	0.0012621214	0.0031666534	
0.0008752744	-5.1825336e-05	-0.00050959864	0.0005744569	-0.0012736385	-0.0006639665	-0.002069754	0.0023106106	0.0010020763	0.0016286502	
0.00092914543	0.0018666306	0.0008895207	-0.00021140714	-0.00077463785	0.0007479535	-0.0006599525	-0.0006829771	0.000653293	0.00085596	
-0.0015396144	0.00048275327	0.000114564005	-0.00048518632	-0.00069785	0.00085433316	-0.0009927059	0.001477289	-0.0002857518	0.00033062298	
0.0006974478	0.0010314353	0.0017957799	0.0001904831	3.0964366e-06	0.00087256805	0.0011132901	-0.0014606279	0.00038783232	0.00066489505	
-0.00132946	-0.00022192032	0.0011919567	-0.00044982295	0.00037779237	-0.000595711	-0.002130059	0.00022726636	0.0005115905	0.00076403294	
-0.0012592935	8.153773e-05	-0.0007816336	0.0005512951	0.00087181694	-0.00059285853	0.001401025	0.00056792924	-0.0005744744	-0.00093787455	
0.0009018042	0.00014394143	8.689819e-06	0.00036903622	-0.00024362645	-0.00015654766	0.0006090977	0.00069120416	-0.00048702385	-0.0011469643	
0.000579488	-0.00011004513	0.0004231597	0.00061154686	-0.00030544854	0.0001577878	0.0015548931	-0.0013089738	-0.0010724565	0.0010919702	
0.0003350182	-0.0006964877	0.0013890367	0.0021714806	0.000915334	-0.00010913818	0.0016633221	0.0003703779	-0.00040891324	0.00021242334	
0.00062854076	0.0005060036	0.00096153864	0.0007194057	0.00072637136	0.0008742426	0.0003930003	0.00026059707	-0.00018960328	0.00082162884	
-0.00018520314	0.00074002834	-0.0016889035	0.00054759794	-0.0003493677	0.0015922395	0.0019255442	0.001023598	0.0016715402	0.0014152064	
-0.0004634338	0.0009290148	0.00038324436	-3.347668e-06	0.0006093346	-0.0004924745	-0.0004997626	0.0010655558	-0.0009775235	-0.001995899	
-0.0010175833	-0.00030252655	-0.0014895907	-0.0008462529	0.0022680666	0.00034847966	-0.001419203	0.0010789965	0.0011978822	0.00022784327	
-0.0010921223	-0.00089437515	6.0123744e-05	-0.00046589156	-0.00014543957	-0.0004076028	-0.0027185276	0.00039076002	0.00012541845	-0.001720162	
-0.0008128116	4.3846885e-05	0.0010628268	-0.0014644659	0.0006478445	-0.001340461	0.00053287006	-0.00041803753	0.00074508967	-0.00087629585	
0.0011651514	-0.0023528303	0.00081844424	0.00058304454	-0.0029276744	-0.0016078391	0.0022373595	0.0022622482	0.00046379335	-0.0006420717	
0.00062479946	-0.0006420311	0.0018358367	-0.0006932466	-0.003391442	-0.0037345628	0.006825775	0.0009653119	0.0030945677	-0.0021146238	
-2.5619936e-05	-0.005222827	0.0043269033	-0.0015120896	-0.002806266	-0.007138625	0.013043833	-0.0016271321	0.0010748251	-0.0007837216	
0.00093601603	-0.0044876207	0.0025406585	0.0010227321	-0.0056738183	-0.008545781	0.010740414	-0.0013041979	0.0020614394	-0.0023442267	
0.0009857308	-0.0054207104	0.0036141828	0.00041379177	-0.0076543163	-0.0054166466	0.008163398	2.2952376e-05	0.0058737136	-0.0016626514	
0.00040156898	-0.005455071	0.005318904	-0.0033435116	-0.0048293704	-0.005108083	0.010890246	0.0019038484	0.0066747763	-0.0037018077	
-0.004768814	-0.0029312049	0.00549013	-0.0010608239	-0.007969564	-0.009544069	0.018766776	0.00059195206	0.0092319045	-0.0049766586	
-0.00631519	-0.0045609428	0.0034924648	0.00026404625	-0.0074338773	-0.01987946	0.02770228	-8.490966e-05	0.006564357	-0.0022528905	
0.00049269595	-0.005080995	0.0003506359	0.004842432	-0.0076898187	-0.021821445	0.02848399	-0.003272608	-0.0010137156	-0.00025110098	
0.0007137248	-0.0043080817	0.00031895633	0.00878033	-0.003196922	-0.016499178	0.02399609	-0.0057087075	-0.001386018	-0.000927538	
-0.0017345528	-0.0013542142	0.006077249	0.0031101624	-0.0035063955	-0.014666444	0.014062806	0.0009719416	0.00013602694	-0.0007257416	
-0.00040133414	0.0030842193	6.121985e-05	-0.0015053377	-0.0027404942	-0.011065417	0.009124215	0.0013546769	-0.00053514756	0.0048678326	
-0.0013150084	-0.00087489217	0.00033548774	-0.00092354283	-0.0037561655	-0.007832189	0.003432919	0.0026845534	-0.0017122902	0.0059354682	
-0.00019955914	-0.0019430704	-0.000372752	-4.7614067e-06	-9.073685e-06	-0.003336775	0.0039488454	0.0014697287	-0.0026426616	0.0013268191	
-0.0019790346	0.0011035592	-0.0005140646	-0.0013310062	-0.0017280197	-0.0011767588	0.002688843	0.0016114804	0.0010202246	-0.0011968683	
0.002508035	0.0007105005	-0.0012698309	-0.0003967401	-0.00047882824	-0.0035720803	0.002498299	-0.00035959194	0.00045881481	6.872505e-05	
-0.0018592611	0.0008976255	-0.0011130435	-0.00017796105	-0.002180317	-0.0028461027	0.0019533793	-0.00029291285	0.00040220763	0.00014910316	
-0.00024301265	-0.0006217341	-0.0006776374	-0.00035093393	-0.0006329706	4.696015e-05	-6.8184585e-05	4.966232e-05	0.0010033008	-0.00053046463	
0.0011056225	0.00047556416	0.00066080614	-0.0012487444	0.00039149227	1.404907e-05	0.0007242637	0.0010366748	0.0018155092	0.0012891706	
0.0003967315	-0.000113179325	0.0014730612	-0.0010822499	0.00042010733	-0.0010407196	-0.0008372844	-0.0010248338	0.0012338511	-0.0004355249	
9.49402e-05	0.0012410455	0.0012371232	-0.00047703157	-0.0006421287	0.0007553174	0.0002102805	0.0012583055	-0.0009544856	-0.0016428885	
0.00033675207	-0.00093210535	0.0007390484	-0.0015346152	-0.00063092745	0.00011380742	-0.0022319425	0.00032451755	0.0008897552	-0.0015764942	
0.0016137718	-3.2681208e-05	0.0018259466	0.0004964613	0.001249765	0.0025160552	0.00011755815	0.000117409945	0.00031942746	0.0012931866	
-0.0012215256	-2.16518e-05	0.0007868085	-0.00047942201	-0.00037941293	-0.001394106	0.00024529055	-0.002922247	0.0015005798	0.0010913844	
-0.0009385335	-0.0005083723	-7.894615e-05	0.0009260568	-0.0007180365	1.2814864e-05	0.0005939228	0.00088327884	-0.0013476743	-0.0018054519	
0.0006053619	-0.0015485517	0.00034966864	0.00038412568	-0.0009007406	0.0017761771	-0.0012871982	-0.0016759267	0.001702743	0.0018491723	
-0.00026667005	-0.0009859562	-0.00015506841	0.0015338059	2.1947882e-05	0.0002077294	0.0015920001	-0.00036040932	9.818298e-05	8.1101425e-05	
-0.0010330828	-0.004401207	-0.00084504264	-0.0020022888	-0.000853319	-0.0004877762	0.0039583407	0.0008833699	0.0017673913	0.0018375554	
-0.00080806913	-0.007512236	0.0049702516	-0.0008269173	-0.00048887444	-0.002913359	0.0029730725	0.0040287985	0.0014280633	0.0006047589	
-0.002110999	-0.009899593	0.006366174	0.0045558256	-0.0045684143	-0.003133518	0.005344077	0.0006925192	0.0014988912	-0.000828692	
-0.0037544183	-0.01171486	0.0019915928	0.009985006	-0.0084852455	-0.0037247122	0.010436301	-0.0025050924	0.006304468	-0.0012830881	
-0.00728495	-0.012718879	0.0035012963	0.0131204445	-0.008917842	0.003092046	0.003884262	0.00041551123	0.009895674	-0.001079521	
-0.0056819892	-0.011751497	0.0052016634	0.009192422	-0.011043695	0.0025633469	0.0076318067	-0.0006980803	0.010281342	-0.000756613	
-0.0047481596	-0.0062763467	0.0057395194	0.0023782025	-0.015481977	-0.0015656233	0.009866043	-0.005207362	0.01559685	-0.003095978	
-0.005050354	-0.0051693474	0.010651638	0.0064043156	-0.012249714	-0.0076397564	0.019580701	-0.007075789	0.012951709	-0.007950307	
-0.0025167668	-0.012908444	0.009752947	0.011133676	-0.014666981	-0.014920006	0.02577135	-0.010395857	0.013272292	-0.0056370096	
-0.0026997577	-0.010373254	0.006600404	0.007862872	-0.011817765	-0.016087102	0.027901506	-0.012135185	0.009716187	-0.00047948823	
0.0024062127	-0.0022620554	-0.0052276514	0.0075574857	-0.0045862887	-0.017014802	0.018712856	-0.00777234	0.005324386	0.0011055308	
-0.0020296478	0.0101073235	-0.0015093094	0.0025843831	-0.009646427	-0.014636806	0.013140024	-0.0029337774	0.0042963345	0.00012651297	
-0.0055831224	0.013392359	0.0014619888	-0.0008127076	-0.0058894423	-0.013250553	0.012347544	-0.0033015609	0.0022345718	-0.00033884993	
-0.0015319991	0.009087473	-0.0024127378	-0.0019774772	0.004107875	-0.007931854	0.011816386	-0.00410654	-0.00023396559	-0.0011139063	
-0.0007975179	0.0012277386	-0.0034507131	-0.0018522856	0.005458601	-0.0056640347	0.010244188	-0.0029438343	0.00029326475	-0.002005685	
-0.0014506191	0.0025767786	-0.0044474252	-0.002762035	-0.0006826255	-0.003330905	0.011210591	-0.00020557677	-0.0007114045	-0.002312617	
-0.00015159544	0.001698171	-0.0016529915	-0.0015109315	-0.003393439	-0.0007109839	0.007205811	-0.0021167803	0.002131532	-0.00027806056	
0.00033773403	0.0010483762	-0.0015781288	-0.0014760109	-0.0043424573	0.002369454	0.0035262457	-0.0005017671	0.0010343386	0.00051766605	
0.0027570582	-0.0001963561	-0.00026590194	-0.00074489904	-0.0020403948	-0.0010733296	0.0005017824	0.0003112126	0.00258201	0.00028670288	
0.0008282161	0.0006722881	-0.00068187877	-0.00124385	0.00089719944	-0.00076619664	0.00045652455	0.0007867506	0.001894261	0.0008608463	
0.00028510002	0.000116499745	0.0008130836	9.790324e-05	-0.0013905218	0.00046729113	0.00032328724	-0.00088359433	-0.0018868644	0.0012497674	
2.4981793e-05	0.00013255516	0.0016316624	0.00039427791	-0.0006347784	0.00013818816	0.0007023143	-0.0008406425	-0.00013034078	-0.00034387142	
-0.0021243864	0.0010671328	-0.0013366386	0.0027722274	-0.00051356165	0.0019891309	0.0011482103	0.00054584735	-0.0009959713	0.00082289474	
0.0007406013	0.0015623699	-0.00011090433	9.673285e-06	-0.0003802256	0.0006200303	1.5738624e-05	0.00013957231	0.002275071	-0.002045749	
0.0019113962	0.0007309598	-0.0008950544	3.2001804e-05	0.00052028825	0.0005362471	-0.0011211428	-0.0006418607	0.00057320204	-2.8416722e-05	
-0.0012702942	-0.00106121	-0.0006393335	-0.0009586059	-0.0020542073	0.0010878654	0.0025549303	-7.269206e-05	-0.00097223767	0.0009662664	
0.00073888357	-0.002391142	-0.00063974794	0.00034995	0.00018049874	-0.0033756949	-0.00070330035	0.0008403286	-0.00079248945	-0.00027731454	
-0.0006658225	-0.00059281086	-0.0015866077	0.0012290473	0.0007657339	-0.0008314239	0.0012767218	-0.0006524255	0.00012397213	0.0043289424	
-0.0018620447	-0.0064462004	0.0013553008	0.0020834487	0.0016017986	-0.0042579244	0.0021227982	0.0028987448	0.0024887628	0.0010883333	
-0.00435539	-0.013296049	0.0042202673	0.009116195	-0.0011520156	-0.0030204274	0.0021695176	0.0028534366	0.0062005185	0.0019122224	
-0.005961375	-0.022049887	0.008069812	0.0127490945	-0.004568754	-0.0030889085	0.0024597158	0.0018483863	0.009176862	0.0006083802	
-0.008698026	-0.024015807	-0.0007971172	0.019133091	-0.0073568434	0.0044543617	0.0063318084	-0.0018241515	0.013849599	0.0016932837	
-0.011531247	-0.023761733	-0.0052356804	0.020719199	-0.015869254	0.012571578	0.0021057366	-0.006805493	0.018721119	0.0053626974	
-0.008919491	-0.014298862	-0.007407939	0.018898834	-0.021258952	0.0115212295	0.00071560324	-0.013471859	0.02435505	0.0091263	
-0.0113764405	-0.00036667148	-0.005392631	0.015459475	-0.020838816	0.004286519	0.0052790293	-0.027099058	0.028710073	0.006699898	
-0.004564111	-0.002213428	-0.0053826864	0.024680197	-0.017015647	-0.003794746	0.014207519	-0.035416067	0.028873138	0.0047274404	
-0.007574736	-0.013943867	-0.0020730442	0.027530394	-0.022789998	-0.0052149263	0.018270101	-0.033437423	0.032496355	0.006593565	
-0.008638621	-0.01641101	-0.0022476732	0.02812198	-0.018071864	-0.0039236057	0.017420854	-0.02776096	0.027085649	0.0015346787	
-0.000925396	-0.009180206	-0.001230671	0.0049058786	-0.007450561	-0.0005705257	0.008129653	-0.02778471	0.033187013	0.004433159	
-0.00045508234	0.0040944284	-0.004401784	-0.006366319	-0.00677898	-0.0048131156	0.0066374354	-0.020831984	0.02648338	0.0066398596	
0.00057735294	0.0029603469	-0.0016338254	-0.010749788	-0.009014394	-0.00386925	0.007968303	-0.018730441	0.02937537	0.004260262	
-0.0030438008	0.005949137	-0.0052325684	-0.008559145	-0.0005865591	-0.004646495	0.008611846	-0.01793887	0.01512222	0.0023695775	
-0.00019345965	0.006107555	-0.0053309435	-0.0024594911	0.00025810214	0.00026784465	0.011518566	-0.014004419	0.009077797	-0.0022283427	
0.0015935538	0.0035604099	-0.0019181176	-0.0050026895	-0.0035035817	0.002835372	0.006542736	-0.003948896	0.005346276	-0.0007733555	
0.0018281088	0.0019617137	-0.0014181214	-0.006366764	-0.000513895	0.00034267065	0.005958264	-0.0047643804	0.0014331462	0.0016243344	
0.005063526	0.0010825491	-0.00040131662	-0.00184846	-0.004509089	0.0012744806	0.002026685	-0.0006420575	-0.00029534835	-0.00019229235	
0.004508345	0.0017529238	-0.00031583465	-0.001470323	-0.00052787154	-0.00061096845	0.00063692144	-0.000508491	0.00062065903	0.0015585645	
0.0010395289	0.00096420624	-0.0007182176	-0.0023980269	2.9095427e-06	0.0010227313	0.0023878303	-1.0448612e-05	-0.0007436035	0.0012597967	
0.000939426	0.00035299687	-0.0012318296	0.00012001308	-0.0014288696	-0.0008713243	-0.0001523745	0.0003966518	-4.144211e-05	0.00065883965	
-0.0015236186	0.00011647254	0.00010343441	0.0006942051	0.001002096	-0.0012603047	-5.2502205e-06	-0.00057965197	0.00035723613	-0.00197185	
-0.001521232	2.1406611e-05	0.00031658958	0.00053938583	0.0014682998	-0.00021511869	-0.00019327522	-0.0011969926	-0.0013149686	-0.0015535407	
-0.00079955545	0.0019287239	-0.0028507316	-0.0012127834	-0.0012398156	0.0011489431	-0.0019071876	-0.0013967645	0.00040907838	6.539915e-05	
-0.0007262844	-0.0001942685	0.0008755941	0.00040341308	0.0012379219	-0.0001527441	8.497843e-05	0.0016817303	0.0004558495	0.00046483852	
-0.00034109424	-0.0014341465	-0.001756927	0.0015930661	-0.00050349144	-0.0018900778	-8.682877e-05	0.0018206454	0.0003342125	-0.0016919279	
-0.0013268968	-0.0010091894	-0.0021472652	0.0032456052	-0.0014633244	-0.004567797	-0.0005898606	0.0037254004	0.0013864129	0.0023643658	
-0.005817302	-0.008222287	-0.00021892326	0.00035375223	0.0018532572	-0.0064850226	-0.0034268438	0.009414733	0.0024414936	0.00541634	
-0.0046434766	-0.010718775	0.004172982	-0.0006447117	-0.0011463985	-0.0071010315	-0.0035514135	0.009159187	0.008161796	0.006516786	
-0.007372517	-0.021192858	-0.0018742809	0.009511975	0.005117826	-0.003425831	-0.002699575	0.007953585	0.01010072	0.004959582	
-0.009664576	-0.028565979	-0.009317556	0.019755356	4.5543817e-05	0.004669242	-0.0003969824	0.0053759906	0.01477693	0.0035365922	
-0.0040314947	-0.027180225	-0.015459506	0.02027891	-0.0065771313	0.0035018749	0.0046874806	-0.0034710788	0.01702462	0.011211851	
0.00044255488	-0.02471011	-0.015399135	0.029810498	-0.017720066	0.011233628	-0.00067276054	-0.012606937	0.016646385	0.014258189	
0.0020915011	-0.012867739	-0.013167118	0.028980026	-0.026058478	0.009554604	0.00068136846	-0.02324133	0.018034024	0.018323276	
-0.0037195978	-0.0014972712	-0.01565166	0.02681936	-0.028469551	-0.0005280988	0.011443689	-0.031986997	0.012918231	0.02889929	
-0.003969384	0.00038143597	-0.0048726113	0.024216874	-0.026315007	-0.0067541804	0.017419744	-0.037160702	0.00686609	0.029521372	
-0.0011174661	-0.0062873494	-0.0011962126	0.020460818	-0.018291105	-0.007840425	0.017169226	-0.04250667	0.01127272	0.027704237	
0.0011426299	-0.014125334	-0.0003314996	0.020589784	-0.011760882	-0.00396344	0.0037267278	-0.036075797	0.010193164	0.031243991	
0.01154283	-0.015050939	0.003110034	0.0088921925	-0.009802644	0.005169617	-0.0052728625	-0.027873928	0.012719265	0.02145016	
0.012105361	-0.005033896	-0.0023722106	-0.0048223776	-0.014196809	0.009488257	-0.008529259	-0.022433562	0.022455577	0.011245195	
0.0046562604	-0.0045166416	-0.00567706	-0.011368792	-0.008314611	0.008895054	-0.001383584	-0.020154692	0.028930293	0.011327673	
0.0008234078	-0.0069700363	-0.00392386	-0.004819189	-0.00405687	0.012731301	-0.0020450195	-0.01663637	0.020560026	0.006829162	
0.009043248	-0.0028542476	-0.007713048	-0.0061285635	-0.0055393917	0.007622557	0.0044219755	-0.014865472	0.011188758	0.0013731332	
0.006182577	0.0015853875	-0.0049282284	-0.0022863373	-0.0022066543	0.009246523	0.0042749965	-0.008293925	0.0018158813	0.0014904313	
0.0021190166	0.0027173727	-0.002367453	-0.008811942	-0.0011361188	0.0095704505	-0.000101539146	-0.0062051765	0.00030634645	-0.00048400403	
0.0039077397	0.0013585954	-0.0011448567	-0.003757987	-0.0056967754	0.00903391	0.00066511024	-0.0046501537	0.0012554382	0.0013507509	
0.0008951882	-0.00032969192	8.147398e-05	-0.0014014016	-0.0031424453	0.0035161222	0.00046078867	-0.002476204	0.0013574495	-0.00057334476	
-0.00017958164	-0.0008598714	0.00042464226	-0.00012992493	-0.0007282128	0.00065005146	-0.0006325744	-0.0026240074	0.00062984123	0.0016419594	
-0.0009461505	-0.0009811057	8.431531e-05	-0.0008658441	0.00046547418	-0.00031277162	0.0004345315	0.0010107498	-0.0016915447	0.0018363548	
-0.00057830114	-0.000726483	-0.0012903764	0.0011180148	0.0005944827	-0.0022702438	0.00018140112	0.0012502321	0.0006253216	-0.00048270467	
0.0012386221	-0.0006384323	-0.00016296354	0.0012233648	-0.0014656029	0.0017365828	-0.0028576136	0.00031576093	-4.3254142e-05	-0.00053042034	
-0.0017302908	0.00047948945	-0.00034859523	-0.0017622624	0.0010578313	0.00012207631	0.0015147397	0.001266655	-0.0015977378	-0.0030943155	
-0.0018506953	6.260634e-05	-0.001041028	0.0010319157	-0.001053844	0.0016380886	-0.00036298975	0.002657723	-0.00043078267	0.0003548032	
-0.0013391527	0.0016606977	-0.0045198994	0.004332625	-0.0005163073	-0.0025140035	-0.0002265706	0.0033850304	0.0010894954	-9.3255425e-05	
-0.0040589194	-0.0039791423	-0.0077760895	0.008645479	0.0036755349	-0.0049726255	-0.004667696	0.0056643994	0.0057590636	0.0011505829	
-0.00859125	-0.011596052	-0.0031766577	0.008157319	0.004762008	-0.008001108	-0.006438028	0.0117153535	0.0066432096	0.006322971	
-0.010091845	-0.014950644	-0.0034671074	0.007297754	0.007530782	-0.004032579	-0.0061077145	0.014593314	0.005872963	0.0074955705	
-0.0061890357	-0.020496145	-0.009120073	0.013121029	0.0052135834	0.0004408543	-0.008941166	0.009544478	0.010112044	0.0074140495	
-0.0089245085	-0.025543537	-0.0112398965	0.012828447	-0.0036620912	0.002802882	-0.010582373	0.014980117	0.0115058655	0.009175108	
0.0028490296	-0.028682746	-0.004383474	0.01203623	-0.013007565	0.0024633526	-0.008404601	0.0009589468	0.0118950745	0.024149334	
0.009231437	-0.027853016	0.00024700724	0.012507773	-0.023569522	-0.00022865456	-0.0028459008	-0.009926971	0.011266382	0.028058447	
0.006162817	-0.015897471	0.002550096	0.011436389	-0.03340173	0.003511913	0.0017033945	-0.012463259	0.0031081864	0.033300333	
-0.005398676	0.00021980156	-0.0027562315	0.017381905	-0.03468801	-0.007095808	0.0070121796	-0.014060072	-0.00967614	0.04852772	
-0.013311856	-0.0007708951	0.0074168798	0.017844534	-0.027022827	-0.013878016	0.0068297945	-0.018246956	-0.01820878	0.059945546	
-0.019618273	-0.002269326	0.0049532317	0.019057177	-0.017525455	-0.01714194	-0.004770281	-0.014810129	-0.025551653	0.074294	
-0.007644871	-0.010833142	0.004815112	0.011182647	-0.015441986	-0.005982941	-0.018766131	-0.012136865	-0.023295473	0.07432311	
0.010883923	-0.014786172	0.007130978	0.0018286447	-0.013595586	0.0063936533	-0.0216235	-0.0015323844	-0.026938554	0.058202207	
0.016131992	-0.013031717	0.012852743	-0.0026980857	-0.012606622	0.008423225	-0.025758041	-0.008519938	-0.010026348	0.037386604	
0.02064541	-0.012475548	-0.0020209295	-0.010105274	-0.009881515	0.01615034	-0.023126349	-0.0073523885	0.0081131775	0.019387588	
0.01366484	-0.018862262	-0.0012419447	-0.008838484	-0.0073634144	0.020929836	-0.013340377	-0.010413025	0.010232676	0.011705159	
0.012378425	-0.013346306	-0.0045971763	-0.0027551188	-0.0067405943	0.01921148	-0.005835836	-0.012641355	0.0050223866	0.009013394	
0.008348668	-0.0059796665	-0.005954029	-0.0069853324	-0.002619639	0.024331203	-0.0016223418	-0.016093377	0.0030077135	0.0030349237	
0.000679183	-0.003908947	-0.0050349045	-0.0066908463	-0.005470095	0.023519065	-0.0029588991	-0.0065668393	0.0017745561	0.0032191484	
0.002930865	-0.0012013732	-0.0025969592	-0.0036400266	-0.00560242	0.019833174	-0.0013672819	-0.006245418	0.002540858	-0.000925102	
-0.00089545565	7.047507e-05	8.831546e-06	-0.0035898841	-0.0010117728	0.008825084	-0.0010371165	-0.002787372	0.0006435443	-0.0010185373	
0.0011056765	-0.0017889033	0.0005032216	0.00012434946	-0.0016530893	0.0028299664	-0.0013302377	-0.005063793	-9.27477e-05	0.0007346132	
0.0012845035	0.0018454877	-0.00029356463	0.00045671765	0.00081211154	0.00045270304	0.0002111237	-0.00045158228	-0.00081810274	0.00010973199	
0.0005451392	0.001573596	-0.0009887927	-0.00055984023	-0.00014421773	-0.000586083	0.0010068372	0.00035857467	0.0013505615	0.0021098952	
0.0013313306	-0.0003354367	-0.0019138646	-0.0004229176	-0.0012124109	0.0009073765	0.0006454751	0.0019104506	-0.00032507206	-0.0018903719	
-0.00085998536	0.001567454	-0.0003713345	0.0013889115	-0.0014398445	-0.0016454083	-0.0025123153	-0.00044969577	-0.00041622864	-0.00030828937	
0.00036369357	0.00075295265	-0.0044547245	0.0031461054	-0.0022114848	-3.6581205e-05	-0.0037448388	0.006707274	-0.0012335848	-0.00017229412	
-0.0050197085	0.0016168773	-0.007859226	0.005654778	9.171378e-05	-0.0015337425	-0.004190486	0.0063886484	0.0034303688	0.0009774951	
-0.005092394	-0.001946992	-0.009080999	0.008734868	0.004381846	-0.0036268474	-0.0033623304	0.006247203	0.006181922	0.0025367246	
-0.010566984	-0.008312187	0.00016240834	0.0075284606	0.006296445	-0.0067546116	-0.0043235994	0.014794381	0.0011898	0.0034543339	
-0.0049396507	-0.01343121	-0.0053670607	0.005487555	0.0048412015	-0.009106609	-0.009597246	0.01743613	0.0034134423	0.008720911	
-0.004372057	-0.01764669	-0.009638744	0.0076761697	0.0031002657	0.00013000623	-0.013991841	0.015193209	0.0070741633	0.012185236	
-0.0026759729	-0.023950215	0.0030926247	-0.0017799196	-0.008022509	0.00096687785	-0.0133876875	0.016341396	0.009921483	0.017600834	
0.009460824	-0.029825337	0.019507226	-0.005747858	-0.016204217	0.0016495	-0.01181587	-0.002796326	0.009574335	0.024332972	
0.012174947	-0.02519996	0.024916723	-0.0068534026	-0.024466906	-0.0032840217	-0.011503032	0.0008398758	-0.0059818197	0.035380173	
0.00740227	-0.0132879075	0.022692809	-0.0035328423	-0.033198632	-6.964838e-05	-0.012616286	0.0047351266	-0.015335846	0.047601957	
-0.008248563	0.0034787697	0.017367331	-0.0015242177	-0.0331139	-0.015647069	-0.008950662	0.0153052965	-0.022544388	0.057095002	
-0.0287156	0.00934094	0.013903156	0.00076000893	-0.03059307	-0.009483401	-0.011432049	0.022787856	-0.026821442	0.062511	
-0.030488867	0.003241524	0.006879572	0.01360833	-0.026925076	-0.010412	-0.018567238	0.02456287	-0.029890064	0.06463157	
-0.023185642	-0.0049492647	-0.0007709416	0.01681082	-0.022893663	-0.0047828835	-0.024813436	0.032622777	-0.034004502	0.06487156	
-0.0048383493	-0.013653381	0.0006577596	0.014157608	-0.013107614	0.0005233091	-0.033300627	0.024354402	-0.033308376	0.058271307	
0.0005401173	-0.008231984	0.015948258	-0.0050002923	-0.0062743686	0.009513499	-0.042986676	0.009867888	-0.016641857	0.044040702	
0.011145039	-0.013981873	0.0024313761	-0.008323037	-0.0032177332	0.016837087	-0.031425774	0.002092046	0.0020878823	0.023542484	
0.023978714	-0.019027188	-0.0010683995	-0.010993358	-0.0061338698	0.02129499	-0.018809238	-0.006605986	0.0077162264	0.007873905	
0.01634487	-0.01375575	-0.0017579506	-0.0019603444	-0.01016047	0.02541663	-0.015413166	-0.011060493	0.005573437	0.0037640312	
0.01331597	-0.0068513043	0.0004980548	-0.0057181627	-0.009551861	0.026233768	-0.014424021	-0.011127272	0.005854995	-0.0013584333	
0.00706421	-0.0034457152	-0.0030082043	-0.005815175	-0.006877875	0.025494834	-0.00958537	-0.011585256	0.008997215	0.002200099	
0.0006768137	-0.0013471377	-0.0023499744	-0.0053121615	-0.0040849405	0.02325941	-0.005591484	-0.0072989385	0.003927889	0.0018423111	
-0.00035310906	-0.0017982075	-0.0001830896	-0.004377998	-0.0010090304	0.016798705	-0.0017347105	-0.004645318	-0.0001927763	-0.0011179007	
0.0008060491	0.0008046263	0.00019822316	0.00014508706	-0.0006732672	0.0019766607	0.0018959978	0.00066533504	0.0029294186	-0.0016740209	
0.0018047587	0.00063543627	-0.0002710312	0.0003627904	-0.00033657224	-0.0015403476	0.00034920883	0.0011690648	-0.00035247422	-0.0004432421	
-0.00043218618	-0.00096168276	0.0011082325	0.00061944616	0.00030522342	-0.00069969194	0.0004853269	0.0005116008	-0.00020399975	-0.0016749318	
-7.487562e-05	-0.0022011348	-0.0006152656	-0.0027229765	-0.0016997587	-0.00022820082	-0.00035671506	0.002652188	0.0005136896	-0.00083911105	
0.0015005332	-3.7444137e-05	-0.0006125044	0.0003458063	-0.0008592028	-0.00016426037	0.0005800419	0.0044712955	-5.833965e-05	0.0016736857	
0.0001917331	-0.0007758833	-0.0018323458	0.003139531	-0.002060063	0.0007634098	-0.004293313	0.007994045	0.0012576535	-0.00082656223	
-0.0031047126	0.0017733293	-0.0060238587	0.005332043	-0.0011754587	-0.0034200302	-0.0077823782	0.007284574	0.0028840094	0.000978332	
-0.006750104	-0.0014173451	-0.004222774	0.0073481207	0.0025277035	-0.0028868646	-0.00934387	0.010096227	0.0027553958	0.0018263618	
-0.0036984761	-0.004293734	0.0016128676	-0.0004706914	0.00082349067	-0.0031407534	-0.006974466	0.0104317805	-0.0012902407	0.007938482	
0.0027589998	-0.0042384923	-0.0011776206	-0.007170646	0.00070432003	-0.0052282065	-0.012462999	0.013971906	-0.001019422	0.015558197	
0.0012140523	-0.010998418	-0.003374314	-0.015230012	0.0010643718	0.0014213106	-0.010381368	0.018293226	0.0025295347	0.013969294	
0.0025789428	-0.008887963	0.009015755	-0.017414479	-0.013356968	0.009240203	-0.016091026	0.010916042	0.00760638	0.015995577	
0.017515626	-0.014488266	0.022269823	-0.023315981	-0.016038511	-0.00044692284	-0.018242884	0.0040601627	0.0051357932	0.023261394	
0.020609507	-0.014177228	0.021063719	-0.0232866	-0.025151111	-0.0060585546	-0.018547071	0.0122164	-0.0056930026	0.042842444	
0.014290745	-0.0054961713	0.0073467772	-0.019332908	-0.028232438	-0.0056842035	-0.021118117	0.025676338	-0.019625947	0.05423174	
-0.008597441	0.017991532	-0.0010603773	-0.008746968	-0.030951522	-0.013927654	-0.015545708	0.036305517	-0.016625935	0.046370465	
-0.028420882	0.022340916	-0.0085851895	0.0005472154	-0.030220266	0.00066642545	-0.012605109	0.036730073	-0.021085558	0.042706598	
-0.033048037	0.018204013	-0.0060132495	0.014027341	-0.028411647	0.0048132306	-0.020875165	0.037920404	-0.02160896	0.034111798	
-0.025870753	-0.00044651912	-0.009103157	0.023487996	-0.018489065	-7.397201e-05	-0.029768568	0.047297325	-0.026715623	0.040032823	
-0.02113768	-0.02160063	-0.0054927734	0.015773546	-0.0035471844	-0.00072121207	-0.040545482	0.04164858	-0.021417083	0.056479048	
-0.0112881055	-0.012679811	-0.0023599688	0.00030891324	0.0073149125	5.072786e-05	-0.04564465	0.032779533	-0.014328361	0.047959697	
0.0010584651	-0.016926322	-0.0055260733	-0.012223747	0.009795535	0.012844095	-0.035616543	0.02494981	-0.006888527	0.025038237	
0.013325284	-0.012510832	-0.002071343	-0.0079358425	-0.0004167908	0.01482479	-0.022307184	-0.0025479812	0.00857832	0.015799029	
0.026119417	-0.011106567	-0.0013215598	-0.004370989	-0.00962664	0.0156005705	-0.019702874	-0.010813226	0.018741729	0.0023350404	
0.017880972	-0.009375315	0.0009925157	-0.006773287	-0.008509812	0.017824791	-0.018633116	-0.015638487	0.01894586	0.00387788	
0.010880917	-0.007410177	0.0009564348	-0.0066853175	-0.008122238	0.01863526	-0.012044827	-0.010189119	0.013247005	0.0012106257	
0.002083188	-0.0010844639	0.00020273314	-0.0018845436	-0.0053564236	0.01622187	-0.0045809536	-0.00835039	0.003450035	0.0021398051	
-0.0024110908	-0.0013333111	-0.0003578125	0.0005374112	-0.0030293507	0.009561025	-0.0016962481	-0.0037056832	-0.00024692202	0.0018134223	
-0.0011380414	-6.552444e-05	0.0003899831	0.0018619709	0.000617195	0.0030019651	-0.0012295967	-0.00019231887	-0.00019232796	-0.002791807	
0.0008491337	-0.0018892166	-7.265111e-05	0.00071761804	0.0017175704	-0.00082191965	1.9602354e-05	0.00081613736	-0.000980139	3.0686006e-05	
3.3221335e-05	-0.0007663131	0.001851579	-0.0007686357	0.001719222	-0.0012293385	-0.00024618584	-0.0017184292	-0.00023322909	0.00023330735	
-0.000995054	3.8894064e-05	-0.00097080634	-0.00044390716	0.00044035172	0.00018334764	0.00011537867	0.0018786269	-0.00038075153	-0.00061299786	
0.0014457483	0.00026228884	-0.0010385026	-0.0007656059	-0.000715623	-0.0005530826	-0.0035075254	0.0047948794	0.0005784454	-0.000769866	
7.1296265e-05	-0.0016267358	-0.00097489456	0.0025907014	-0.0012787839	-0.0013669045	-0.0057645068	0.0062540323	0.0014070802	-0.0005473759	
-0.0019559416	-0.0016611273	-0.0029920253	0.0057420274	-0.0029752147	-0.0018283165	-0.0054251677	0.008820666	-0.0011517396	0.001533494	
-0.0028176391	-5.402486e-06	-0.0023565975	0.0027437692	0.0011908532	-0.0024936462	-0.011330407	0.011012899	0.000922428	0.003548292	
0.0018477039	-0.0040464024	0.0040435204	-0.0036629657	7.469836e-05	-0.0040365243	-0.01209597	0.009008345	-0.005972984	0.014065841	
0.0058058714	-0.00036389614	0.002976925	-0.014141806	0.0001819576	-0.0042169914	-0.009897282	0.009311691	-0.00296432	0.01869936	
0.0016306821	0.002151588	0.0009960423	-0.021300586	0.0028491623	0.0021076386	-0.0059793554	0.008263301	0.0042373436	0.00802346	
0.016109865	-0.0030965155	0.013552327	-0.024074245	-0.011072688	0.0060537606	-0.011551491	0.001052506	0.0011816205	0.014744487	
0.028218692	-0.0063935616	0.013648064	-0.034025364	-0.015484037	-0.0052100783	-0.0117837535	-0.002700543	-0.0016094347	0.034033556	
0.02902568	-0.009627461	-0.002972261	-0.038011204	-0.023226723	0.00020795217	-0.01589108	0.008092079	-0.011932048	0.0654298	
0.016644865	-0.0029984266	-0.016404875	-0.028887542	-0.015976157	0.002151787	-0.017355874	0.016233694	-0.010358547	0.055288408	
-0.011675477	0.025773488	-0.019373827	-0.0038416442	-0.016954403	-0.009904173	0.0023245595	0.01960986	-0.009860934	0.026602546	
-0.02778091	0.04243787	-0.025115404	0.012708164	-0.025054147	0.008678741	-0.0042262515	0.012031045	-0.0068165804	0.014487904	
-0.03667448	0.039371837	-0.02271907	0.020186806	-0.02533925	0.015041276	-0.018421898	0.016601184	-0.0054374663	0.017032381	
-0.028926995	0.0019759696	-0.019415312	0.027132044	-0.007793488	0.0059051267	-0.0265699	0.023179134	-0.007922781	0.028561298	
-0.018187054	-0.021436278	-0.007286887	0.018494043	0.003136945	2.2099004e-05	-0.03887343	0.026186174	-0.01287449	0.04961741	
-0.01710155	-0.01228702	-0.0034681163	-0.0035113953	0.019582123	-0.00093674037	-0.04270228	0.026512148	-0.006767748	0.038786046	
-0.0071268016	-0.017661758	0.0015523087	-0.013982942	0.019015325	0.0064019253	-0.033150405	0.021457568	-0.007991416	0.02519194	
0.005582122	-0.0106457835	-0.00014032843	-0.011182923	0.0019871455	0.0072173565	-0.021723174	-0.008885266	0.011087685	0.023332216	
0.021697493	-0.003034758	-0.0011259521	-0.01340894	-0.002688633	0.004319374	-0.015647992	-0.013386992	0.015253509	0.009610951	
0.023904402	-0.008085585	0.0036029208	-0.013205125	-0.0077838902	0.011277621	-0.012006538	-0.016742153	0.016273104	0.0013140955	
0.013910386	-0.0046548387	0.0019121539	-0.0042890287	-0.0068120887	0.013606969	-0.009265718	-0.010717196	0.009378019	-0.001301431	
0.0039562895	-0.0033016377	-0.0021744622	-0.0010587119	-0.0035586187	0.014282055	-0.003641538	-0.007519984	0.0002788089	-0.0023314499	
-0.0012454946	-4.4061577e-05	0.00024161344	-0.0017866904	-0.0011230462	0.008275032	-4.2848424e-06	-0.001422332	-0.0023322033	-0.0007705783	
-0.000538931	0.0003581675	-0.00079211255	5.3612875e-06	-0.00095277437	0.0042455	-0.0006833214	0.0014620256	-0.0010203728	-0.00051990524	
0.0003605319	-3.1664407e-05	-0.00012974869	-0.0016323612	0.0014423035	-0.0010885515	-0.00044126192	0.00028900855	-0.0003583184	-0.0002810262	
-0.00045742388	-0.002040291	-0.00048610358	-0.00046237852	0.0006545941	0.00063301914	0.00056918024	0.0013628617	0.00025678414	-0.00045229256	
0.0003416281	0.0004247512	0.0012015895	-0.0007677209	0.0021539968	0.00014550619	-0.002327901	-0.0009679303	-0.0012102245	0.0007458011	
-4.6936275e-05	-0.00091209525	0.0017225789	-0.0014826673	0.00049724587	-0.001516557	6.331041e-05	0.0040199	-0.0013100916	0.0013457255	
0.0004706022	0.0008327976	-0.0016896221	-0.0004937014	0.0015351274	-0.0010959083	-0.0012663635	0.0085368585	-0.00052071264	0.00039350794	
-0.0031779087	-0.0005445849	-0.0031324902	0.0010765892	0.0011815293	-0.0010642094	-0.004279143	0.010327406	-0.0028918777	0.0018981833	
0.00052874954	5.1943807e-05	-0.0009937353	0.0014176775	0.0012247409	-0.0012512552	-0.007870875	0.008963315	-0.0031205197	0.008480121	
0.008448496	-0.0031447732	-0.0017976736	-0.0040363097	-0.0016060718	-0.0037594754	-0.010802549	0.008811547	-0.006963424	0.01126695	
0.0044590747	0.0013230235	-0.0025013557	-0.017645795	0.0007050737	-0.0047754725	-0.0053940434	0.0135884555	-0.0013662283	0.010243474	
0.007232399	0.008679709	-0.0021664314	-0.02294254	0.0031272005	-0.0026237038	-0.0014259284	0.0032475595	-0.0015849425	0.0055537308	
0.024655337	-0.0011087096	0.0042217067	-0.029524177	-0.00350705	0.00091643556	0.0023103901	-0.0097133955	-0.009295321	0.021136435	
0.027048932	-0.006902153	-0.006825571	-0.03371961	-0.0054754093	-0.0029344615	0.0015819132	-0.008600486	-0.013698099	0.049279593	
0.028422017	-0.008393848	-0.017803077	-0.032488376	-0.0064799376	-0.0020277654	0.00063146336	-0.009256221	-0.017042708	0.060047537	
0.0066316924	-0.0065660654	-0.029394453	-0.011577617	-0.008368106	-0.0012006504	0.016032968	-0.0048998166	0.0015609208	0.03502675	
-0.023078406	0.031002719	-0.03317698	0.011135436	-0.014393729	-0.00061957905	0.01999983	-0.006519248	0.0046109236	0.0159775	
-0.04865981	0.0641804	-0.035685062	0.018985787	-0.025001591	0.011583219	-0.0026363062	-0.004041721	0.010784049	0.014950745	
-0.04610524	0.046973377	-0.035317253	0.022261564	-0.011705562	0.012809143	-0.016914109	-0.006354412	0.00988041	0.023835625	
-0.025620565	-0.0039549745	-0.025713826	0.020162484	0.012756938	-0.002475622	-0.022354862	0.005450587	0.0024227288	0.039297167	
-0.011347038	-0.023291878	-0.0035323487	-0.00038533052	0.0255412	-0.014112575	-0.03296726	0.0130818365	-0.007008787	0.054353684	
-0.009503303	-0.013761129	0.00023764	-0.008177204	0.036018938	-0.017780783	-0.03419724	0.018655745	-0.009261247	0.041665126	
-0.011903969	-0.011276048	0.0039099217	-0.012176214	0.022994658	-0.012215715	-0.021549104	0.013417247	-0.006744374	0.03481021	
-0.0026968205	-0.0020555137	0.0053977184	-0.013933001	0.0056402497	-0.0134419715	-0.010927979	0.002065095	0.008345107	0.021670826	
0.016475523	-0.0020108633	0.0034230538	-0.01939708	0.0023915968	-0.010101634	-0.0023418292	-0.0047763605	0.007048682	0.0086740125	
0.023870382	-0.005229321	0.002054213	-0.012051873	-0.0078338105	-0.0006630754	0.0022688464	-0.008496059	0.0047859373	-0.00079557725	
0.022049254	-0.000781731	-0.0012070346	-0.0032893068	-0.0042523933	0.0048422883	-0.0026341837	-0.009356535	0.0003650247	-0.0024999275	
0.008355079	-0.0011746106	-0.0010401818	-0.00093494565	-0.00061472	0.007653593	-0.0016331265	-0.0050258883	-0.001682557	-0.00046492004	
-0.001103605	-0.001429388	-0.00029976096	0.00029288253	-0.0020014127	0.006829259	-7.0116286e-05	-0.0015555728	-0.0018288568	-0.0007669629	
-0.0018317966	-0.00090202305	0.00048371777	-0.00042750768	-0.00025455438	0.0013255492	-0.0036719374	0.00026051418	0.0012024813	-0.0011071584	
-0.001322819	0.0018876144	-2.2954517e-05	-0.0004944568	0.0017201466	0.0011034807	0.0006809469	0.0012421849	-0.0011216736	0.0011994258	
0.00057282497	-0.0006597409	0.0012299707	0.00093924213	0.00040115498	-0.0019469786	0.0019688725	0.0006495533	-0.001564334	0.00077872287	
-0.00036876	-0.00055456033	-0.0009721343	0.0020679205	0.0010547995	-0.000601889	-0.0009404502	-0.00024914002	-0.00012378082	0.0005909236	
-0.0018427399	-0.0017603377	0.0012127757	-0.00024043364	-0.001365835	0.00042247042	-0.00042302234	0.00025306398	0.00068429677	0.0007970787	
-0.0009867584	-0.0012524407	-0.0030154823	-0.00014434922	0.0003436738	-0.0012532554	-0.00038617273	0.0021398065	-0.0004458154	0.0007517014	
-0.0013940406	-0.0011540218	-0.0027245183	0.001696309	0.00036037405	0.00237409	-0.0036219426	0.0057247235	-0.00048103833	0.002648484	
0.0053464975	-0.0009105688	-0.0019041147	-0.0020613458	-0.00059204473	-0.0002845157	-0.0059368988	0.0040470944	-0.0025757493	0.006774478	
0.011149104	-0.0019461125	-0.0053296015	-0.0072466824	0.00045809124	-0.00093186117	-0.0051623266	0.0013552831	-0.0065898094	0.008767664	
0.0030454108	0.008486895	-0.0027471296	-0.020857712	0.011483231	-0.0036324225	0.0008415833	0.008617335	-0.011705618	0.008821437	
0.013351242	0.01031099	-0.0043483954	-0.031430475	0.005801583	-0.0056940634	0.007895746	0.0050655184	-0.014853627	0.014239215	
0.020957904	0.0026129922	-0.009565629	-0.036448654	0.0013231038	-0.004065795	0.0089538265	-0.0031437883	-0.018308658	0.032811202	
0.023585219	-0.0056012357	-0.019780504	-0.029247368	0.0047028954	0.0029666298	0.010481249	-0.020691732	-0.018395064	0.05107063	
0.017155629	-0.013193232	-0.028518105	-0.012766993	-0.0040615867	0.014755119	0.015429816	-0.02612294	0.0033632966	0.03667015	
-0.0034805222	-0.014959202	-0.036724273	0.0051127966	-0.0070297364	0.010118043	0.0272943	-0.023988534	0.030962478	0.015776442	
-0.03438206	0.026436087	-0.03863854	0.02479875	-0.017226573	0.014736946	0.012139136	-0.030358065	0.02681325	0.017214827	
-0.051402204	0.0746036	-0.040046293	0.028070161	-0.025427219	0.009630026	-0.009692461	-0.022681814	0.013257118	0.023160312	
-0.04183463	0.040462863	-0.038447287	0.029836437	-0.004845756	0.0033247944	-0.0065730987	-0.022819076	0.005065166	0.0347649	
-0.024486726	-0.01239234	-0.015215284	0.0143033	0.02031392	-0.008623581	-0.01079292	-0.0054833423	-0.0068196226	0.048625045	
-0.012523563	-0.027373357	-0.006820865	-0.0036144708	0.038670894	-0.019366536	-0.020257697	0.009998142	-0.01019926	0.05624526	
-0.010097369	-0.019360278	-0.002425497	-0.0072370414	0.037631396	-0.027356572	-0.017110517	0.015130952	-0.014589236	0.04446547	
-0.015667709	-0.0044383523	0.0019444718	-0.008273719	0.01335702	-0.031023992	-0.0028731024	0.014027709	-0.00458468	0.03476877	
-0.0062607164	0.002656949	0.0020389145	-0.0103788385	0.004372803	-0.027651217	0.0038251604	0.007297478	0.004045598	0.020271853	
0.008953707	-0.00066828675	0.0061644632	-0.0078498665	-7.486904e-05	-0.022906942	0.0061445376	0.00034057326	0.0027361517	0.0050706533	
0.020874342	-0.0012470343	-0.003964793	-0.0073472243	-0.002519726	-0.015171406	0.0056937532	-0.0012214648	-0.0008600263	0.001201549	
0.020736622	-0.0009957162	-0.004116974	-0.0025953122	-0.0046700616	-0.0071140146	0.0038488777	-0.005003818	-0.0019102594	-0.0014728019	
0.010867179	-0.0042890087	0.0016685064	-0.0011098613	-0.004445722	-0.00021620693	0.0019439887	-2.5154573e-05	-0.005174776	0.0004746735	
-0.00078508613	-0.0013292852	-4.949014e-05	-7.2358916e-06	0.00015785692	0.0013380323	0.00019343974	-0.0008573804	-0.002701426	0.00085986586	
-0.0015791173	8.829481e-05	0.0016582785	-0.00032238956	0.0008075799	-0.00022974313	-0.00077122106	0.0014311919	0.0002470088	-3.1714244e-05	
-0.001258773	-0.0006357696	0.00085580064	-0.0005069617	-0.00071258337	-0.00038463128	0.0009131074	-0.00094818167	0.00020012232	0.0005389946	
2.1362348e-05	-0.00040906743	-2.0070314e-05	6.680615e-05	-0.0015754052	-0.00061277085	-0.00083777495	-4.7892117e-05	0.00069088844	0.00047908464	
0.0009187461	-0.0003350775	-0.00085966877	0.001149547	0.0002268	0.00082991825	-0.00039068604	0.0005303878	-0.0006740982	-0.000799278	
-0.0012439437	0.00047202682	-0.0006652792	7.1182374e-05	7.154793e-05	0.0011329355	0.0015202819	0.0006755754	0.00031083886	0.0011203329	
0.00069074886	-0.0020447806	-0.0019365172	0.0014877834	-0.00059041963	-0.0009829486	0.00038193836	0.0010209599	-0.00068103895	0.0012606364	
-0.0041193347	-0.00017480752	-0.0011874565	0.00027146112	0.00077527843	0.0019455833	-0.00054634555	0.0016262741	-0.0029813393	0.0038951698	
0.008301597	-0.0009491965	-0.0038921086	-0.005132501	2.7205166e-05	0.0042472975	-0.0040864935	-0.0008996581	-0.005124361	0.008833077	
0.0016119832	-0.0009505976	-0.0072820666	-0.007753797	0.006431792	0.0032588807	0.0024492808	0.0011532721	-0.00826147	0.008458305	
0.0029187882	0.0071982713	-0.009605002	-0.023015467	0.019183422	-0.0063548456	0.006043387	0.005985884	-0.019333234	0.016871909	
0.012987346	0.0058435476	-0.007081771	-0.03347388	0.016676432	-0.012754874	0.014328825	0.0026810616	-0.027467083	0.029061904	
0.023665186	0.002428257	-0.00937013	-0.034806762	0.0036719157	-0.0061416244	0.014357411	-0.007532955	-0.026990894	0.043382805	
0.019818604	-0.016508982	-0.017949468	-0.02179561	-9.083061e-05	0.008553187	0.019594582	-0.025937013	-0.011111426	0.042587288	
0.01064994	-0.019649573	-0.03134541	-0.0010626358	-0.010568464	0.016807871	0.0257334	-0.041832857	0.013181029	0.039169047	
-0.010162825	-0.019398674	-0.037942603	0.017000642	-0.012704155	0.021079892	0.019846177	-0.046503074	0.036420565	0.030575393	
-0.044213865	0.03938009	-0.037214305	0.033971194	-0.008693921	0.012695303	-0.00072714	-0.049899418	0.028722148	0.02750408	
-0.050351735	0.0701994	-0.027674317	0.027312513	-0.014326626	-0.00078571955	-0.0054294597	-0.04264027	0.010862626	0.03460879	
-0.044207364	0.026823808	-0.0186666	0.021084085	0.000348002	-0.008129138	-0.008305601	-0.024913525	0.0110018775	0.03852461	
-0.024840524	-0.024679588	-0.009316252	0.0027268375	0.022139525	-0.012557827	-0.0018455326	-0.0011068839	-0.003668197	0.05708438	
-0.011184536	-0.02745522	-0.013250579	-0.005650512	0.0354006	-0.025046758	-0.0028105644	0.001088039	-0.015350035	0.06261401	
-0.011558001	-0.011279109	-0.009996369	-0.0025429735	0.020210372	-0.029205864	-0.00035560562	0.018876703	-0.01819414	0.046030194	
-0.015851716	-0.005204672	-0.0033750024	0.0019258298	0.0022306996	-0.028144516	0.012814481	0.017502112	-0.008709836	0.034137037	
-0.0067729247	0.0035523046	0.0011217616	-0.0054191235	0.00033707597	-0.0298622	0.009164511	0.014427168	-0.008239492	0.024636818	
0.008087824	0.004464183	0.0021760678	-0.0030625209	0.0043630674	-0.029582402	0.009550416	0.0018043692	0.0015370385	0.0075369184	
0.018563664	-1.0060847e-05	-0.0039097434	-0.0050263777	0.0027971335	-0.023820495	0.0100384345	0.0025973953	0.00028704	-0.0010674131	
0.01872987	-0.0033601457	-0.006446021	-0.0020326045	-0.003736812	-0.011646621	0.013490851	0.0013646471	-0.0050617056	-0.004233017	
0.011113977	-0.0024643538	-0.0001693294	-0.002036504	-0.0066699954	-0.003069505	0.009123836	-0.0006308228	-0.0057171243	0.001528119	
0.002095122	-0.0028802315	-0.0007105101	0.001046011	-0.0006210086	-0.0021768257	0.00026416563	0.0008210815	-0.00041693044	0.0007310824	
-0.00015934782	-0.00054961833	-0.00031558692	0.0021435933	-0.0010409057	0.0006059104	0.002197806	-0.0006864491	-0.0008780941	-0.0015957973	
0.0011636134	0.00083681085	-0.00044531858	-0.00035790086	-0.0009800395	-0.00030266275	-0.0010200944	-5.845362e-05	-0.00030775176	0.0014596962	
-0.0005362508	0.0008266036	-0.0007664181	-0.00018767074	0.00044084177	-0.0021128498	0.0009008068	-0.0007987389	-0.0013906024	0.0013971289	
-0.0015472381	-0.0016468058	4.8052007e-05	-0.0006720951	0.0005768543	0.00066792575	0.00020077793	-7.4047093e-06	0.0011721007	0.00023404784	
-0.0016987608	-0.0012339486	0.00012940784	-0.00037856854	-0.00030834795	-0.0015563281	0.00087948015	0.0017290417	-0.0005144898	-0.0012879159	
-0.0012478388	-0.002334326	0.00045817625	0.0023080201	-0.00097102433	0.0015357529	1.998523e-05	-0.0004905628	-0.0009326058	0.00092288194	
-0.002030661	-0.0027497762	0.00015808498	-0.0016440215	0.0024658653	0.0020969294	7.296102e-05	0.00017184048	-0.002895084	0.0046562874	
0.0038629186	-0.0009957231	-0.0043591503	-0.0022546498	0.0018314508	0.0059180087	-0.0010512271	-0.0037696734	-0.0057440144	0.0048689228	
0.0039884197	0.001484963	-0.011092188	-0.011941958	0.013440129	0.0012875136	0.004331605	0.0027596147	-0.011047734	0.008213678	
0.0066745277	0.002947223	-0.011231186	-0.02706622	0.02260315	-0.0049222065	0.010651256	0.0076444177	-0.01767819	0.010686009	
0.009114462	0.0033553569	-0.005583851	-0.0359473	0.025664534	-0.011953207	0.019255677	0.0008438324	-0.02856842	0.0235334	
0.022984784	-0.008058927	0.0026615467	-0.036793552	0.012213653	-0.009866479	0.018653339	-0.0124728065	-0.027399203	0.042665187	
0.0157287	-0.015027316	-0.0014710315	-0.028567458	-0.004138372	0.0037686685	0.024711095	-0.03294576	-0.010083984	0.045643456	
0.002232	-0.0256628	-0.013775156	-0.016095785	0.004943129	0.008027253	0.030739065	-0.04304369	0.0042559933	0.049778953	
-0.016399845	-0.02095018	-0.01616151	-0.0044975257	0.003907346	0.021658275	0.018187994	-0.052678872	0.019443464	0.046249256	
-0.04176252	0.039362866	-0.0061477907	0.0059104622	-0.0029600554	0.0068551446	0.0032918747	-0.05799944	0.019361695	0.033249702	
-0.049123324	0.054985143	0.0038706781	-0.0014666446	-0.0024574755	-0.011430767	0.0050132037	-0.046837892	0.016977288	0.031129375	
-0.04059098	0.020251326	-0.00049998984	-0.017632086	0.008611757	-0.017101292	0.0034145955	-0.009991951	0.0051523256	0.051879697	
-0.026280811	-0.030239772	-0.0011927704	-0.015470952	0.02008859	-0.023638645	0.0054497398	0.0048535047	-0.0058956724	0.07223999	
-0.019522779	-0.021614412	-0.0077662375	-0.007049637	0.02779773	-0.022950036	-0.0046206545	0.013726741	-0.016763024	0.059122857	
-0.01582129	-0.005341757	-0.010896698	0.010227828	0.003027371	-0.026357524	-0.0036208518	0.02728353	-0.013049798	0.035892293	
-0.017245317	-0.0016369179	-0.017185362	0.0021087707	2.2693595e-05	-0.019839669	0.009446172	0.022161623	-0.005837988	0.024353977	
-0.0069853477	0.0035917677	-0.0010942693	-0.003329174	0.0010467408	-0.023026744	0.012984962	0.0070010643	-0.0051144823	0.015219132	
0.0040210695	0.0034212235	9.910067e-05	-0.003145785	0.0050356123	-0.024180168	0.00029594588	-0.00048678034	0.004484795	0.0038774863	
0.015456049	-0.0041945456	-0.0031829497	0.003818343	0.003831401	-0.021904085	0.007653607	0.0019158266	0.0037429372	0.000793617	
0.017883446	-0.003264598	-0.0018328576	-0.0020836794	-0.0017718505	-0.015092357	0.014147081	0.0013568138	-0.006613702	-0.0017642257	
0.01362513	-0.0046476624	0.0026986524	-0.0017007045	-0.0081767775	-0.005893671	0.014482254	-0.0013481872	-0.0049948688	-0.00115901	
0.0022795985	-0.0011128251	0.00090745237	0.0007666325	-0.0024347934	-0.0026428343	0.0017046572	0.002647354	-0.00011325923	-0.00021760528	
0.00020007178	-0.0010524224	0.00022074294	-6.731481e-05	-0.0013926899	0.0013175018	0.0010182647	0.00015785264	-0.00010156595	-0.0010266324	
-0.0006224123	-0.0012829693	-0.00062263675	0.00063867035	-0.00046382612	0.00014629676	-0.0015416588	0.002885333	0.00035581662	-0.00036101625	
0.0010929334	-0.0010885275	0.00018184252	-0.0014348462	-0.0020419047	0.0025861165	0.0013776519	-0.00037231075	-4.1210224e-05	-0.0007785877	
-0.0005888595	-0.00094230234	0.00068661815	0.0010346123	-0.0007872511	0.0011406111	0.0023205753	0.0012883804	7.3415176e-05	0.00035151813	
0.00076380355	0.00050718366	-0.0006468251	0.0013727855	-0.0012027539	-0.0003127223	0.000489378	0.00014882068	0.0008590436	-0.0015711861	
0.0007338044	0.00019272385	-0.00078955735	0.00088856334	-0.0022676706	0.001714886	-2.2302185e-05	-0.0006153795	-0.0015849912	0.00068643846	
-0.0018163885	-0.0020477327	-0.00048013104	0.00024826668	0.0027118428	0.0022938459	-0.0014229632	-0.00013591458	-0.0039021638	0.0052639144	
0.006903652	-0.0020923861	-0.0038033407	-0.006417461	0.006572569	0.0039163884	0.0032169071	-0.001969084	-0.0075783315	0.005651816	
0.008932701	-0.0017974275	-0.006197643	-0.011708036	0.012798363	-0.0008558859	0.006634751	0.00405518	-0.017200625	0.0037245727	
0.01620887	-0.004453953	-0.0023787734	-0.02383939	0.018699061	-0.010998659	0.016414663	0.0024245123	-0.014610965	0.0039677764	
0.013028632	0.0015592788	0.005973899	-0.03208236	0.025246657	-0.02150247	0.02022467	-0.0016619288	-0.018173875	0.009357354	
0.012904172	-0.0050727893	0.006738083	-0.030911578	0.01646437	-0.024703795	0.025015658	-0.009215903	-0.01608615	0.026839323	
0.0025274896	-0.0151032675	0.004589395	-0.031621523	0.012542983	-0.008571683	0.03437006	-0.02088763	-0.007890463	0.034220565	
-0.0111184	-0.026143173	0.012586831	-0.037094384	0.02018869	-0.0045628008	0.03401967	-0.03344976	-0.0026835452	0.041346554	
-0.028726064	-0.010834347	0.017608464	-0.024952477	0.017711315	0.0013339645	0.0211832	-0.0452548	0.00644593	0.03969556	
-0.0463518	0.03464878	0.014655581	-0.020538248	0.008528006	-0.010130676	0.0075787795	-0.044191808	0.012805638	0.036097784	
-0.052560143	0.048236378	0.013750715	-0.017550917	0.010594832	-0.021226663	0.004902675	-0.032868333	0.007220633	0.038438447	
-0.03881536	0.012417728	0.005263082	-0.028568473	0.022182362	-0.024378937	-0.0011104645	-0.0056513213	-0.01026328	0.06336386	
-0.025962582	-0.02621935	0.0024970595	-0.02614923	0.03037264	-0.024206469	-0.0031788808	0.0028907105	-0.008147534	0.07507426	
-0.018168336	-0.01839234	0.00013348367	-0.010401932	0.01767733	-0.02647252	-0.0050451607	0.017762184	-0.010812223	0.05341841	
-0.015048397	-0.0059505994	-0.006975056	0.006203675	-0.0021495388	-0.024985662	0.0026008883	0.024496684	-0.01129075	0.031722233	
-0.012821904	0.0008006734	-0.019067546	0.003511933	-0.008126883	-0.01684953	0.01748247	0.017813165	-0.00096919603	0.01783274	
-0.0061878576	-0.00016829555	-0.006336312	-0.0016882751	-0.003333883	-0.015740592	0.015459878	0.010601485	0.00384002	0.008058011	
0.0018600223	0.0010744323	-0.0033265422	-0.0057189213	0.0029985378	-0.015134915	0.0002619825	0.0022479978	0.008225249	0.00329059	
0.007736745	-0.0062066466	-0.0071344357	0.0040943213	0.0009825603	-0.019897038	0.00903546	0.007293339	0.0057678963	-0.0012212907	
0.015343204	-0.009325904	-0.0017942842	-0.00039917574	3.9942593e-06	-0.0124512855	0.014867211	0.004736421	-0.0071038194	-0.00069868215	
0.010329331	-0.0074035167	0.0023577719	-0.0045549306	0.0005195169	-0.006872557	0.010977274	0.00070559914	-0.005708199	0.0007321057	
0.0011275884	-0.0028175162	0.0028096503	-0.0027301617	0.0002699025	-0.00150723	0.0050640437	-0.0006241787	-0.0016533281	-0.0023352264	
-0.0015305647	-0.0007487961	-0.00091106346	-0.0015003458	0.003588963	0.0012640405	0.0018244033	-0.00075877033	-1.805492e-05	5.2226136e-05	
-0.00096384605	-0.0018090969	-0.0005552635	-0.0011926909	-0.00063414586	-7.425215e-05	-0.00032284338	4.629523e-05	-0.0002524031	0.00039520947	
0.0010091491	0.0016237972	-0.00054098136	0.0013366931	0.00091178704	-0.0011195551	-0.00050842017	-0.00059055287	-0.00033430627	-0.001118873	
-0.00015954442	0.0005261418	0.00020236443	-0.00013819065	-0.00047781965	0.00035873678	-0.0009890181	0.0004958579	-0.0009124957	0.0006168931	
-0.00088825315	-0.00017338074	0.0001002069	0.0006442241	-0.00037408015	-6.4008185e-05	0.0008219334	-0.0016710348	0.0009669121	0.0015875283	
-0.0012955784	0.00029433338	0.00093446317	0.0035268436	-0.0003559745	-7.7905475e-05	-0.0006758293	-0.0012775817	0.00025206484	5.4828663e-05	
-0.0015256648	-0.0015918345	-0.0008076917	0.0027133303	0.0013458759	0.0027915973	0.001169121	-0.0020049815	-0.0038406304	0.0028605766	
0.00954971	-0.0060643833	0.0018773095	-0.004721652	0.01010095	0.0042691724	0.0035956572	-0.0067439363	-0.008231448	0.005358731	
0.014873494	-0.008343642	0.0012232618	-0.0131224375	0.00887356	-0.0014533419	0.007865662	-0.0008071849	-0.015773773	0.007983322	
0.016745158	-0.006322475	0.008870503	-0.01913549	0.011817548	-0.014441215	0.015154752	-0.003055418	-0.011497957	0.0020829723	
0.012935678	-0.004206528	0.013303609	-0.022876984	0.01414729	-0.029619776	0.025391944	-0.010074073	-0.0070191743	0.005411491	
0.006817116	-0.004474089	0.012289032	-0.019731093	0.009521219	-0.03576335	0.038402762	-0.014549714	-0.008194145	0.015349839	
0.0008574341	-0.013060364	0.0128000835	-0.026453655	0.00942125	-0.03176066	0.04549494	-0.023705218	-0.008588566	0.032520115	
-0.018317845	-0.015624201	0.02507647	-0.03444948	0.018883137	-0.018740049	0.03197399	-0.029173262	-0.0014387988	0.038519632	
-0.03222679	-0.00788934	0.032786157	-0.0343131	0.018114367	-0.010521952	0.01706198	-0.034425016	0.003901916	0.0415327	
-0.044681467	0.02766312	0.02431969	-0.027748026	0.014656077	-0.010795055	0.007614177	-0.030359386	0.00019910361	0.034174632	
-0.05128438	0.041322965	0.02301928	-0.030233499	0.014457961	-0.018156433	-0.0077845515	-0.006588623	-0.0026288778	0.04069702	
-0.037753657	-8.719147e-05	0.019825397	-0.03446696	0.01955657	-0.017552154	-0.0046025617	0.0040467763	-0.0097110905	0.060247827	
-0.021451546	-0.0202871	0.006299058	-0.031274833	0.01572956	-0.014159265	0.0037595201	0.010089452	-0.013006139	0.062217385	
-0.015552235	-0.020869514	0.009588811	-0.013385446	0.0051718955	-0.022335447	0.006586953	0.014262932	-0.009560037	0.045182407	
-0.011710303	-0.009828797	-0.0049432293	0.0030898552	-0.010806312	-0.020517835	0.019524125	0.014108916	-0.007835945	0.03291173	
-0.009081227	0.0019049922	-0.016537389	0.006008448	-0.010195565	-0.016585978	0.031060044	0.009459137	-0.008599394	0.016257696	
-0.004762238	0.0032811973	-0.0069411485	-0.0038206927	0.0030425366	-0.011478632	0.01104179	-0.00010323199	0.0040923236	0.0051236586	
-0.0034719359	-0.004978921	-0.0016772969	0.0013395022	0.0044787447	-0.010067672	-0.0006731682	0.002375781	0.008463593	0.004033216	
0.00480123	-0.00971757	-0.003950274	0.0028469095	-0.00017685423	-0.016447268	0.011908419	0.009327783	0.0012136502	0.002914601	
0.009950806	-0.012238746	0.0015460445	0.0011812595	-0.0015862904	-0.01200003	0.018714597	0.002441079	-0.0062284246	0.0016105641	
0.004563009	-0.010200399	0.0064265854	-0.0031350686	-0.00057001406	-0.007243489	0.011632468	0.00021814017	-0.005559683	-0.0032142717	
-0.0034187594	-0.005521831	0.007164764	-0.0021548362	-0.0012797613	-0.0010612376	0.0020219155	0.00043025083	-0.00041451922	-0.0005229261	
-0.0004688105	-0.0019043302	0.00067040214	-0.0006164533	0.00066373585	0.0017309815	0.00066053914	0.0009988927	0.00048634727	-0.0021999648	
-0.0006897648	-0.00037716114	-0.0005637647	0.0011020881	0.00033434562	0.000120824545	0.0008570398	-0.0019326258	0.002278713	-0.0011436432	
0.00073165464	-0.0010400056	-0.0011117739	-0.0004537203	0.0007664588	-0.00051540666	0.00092650397	1.3550335e-05	-0.0012970851	-0.00010566579	
-0.00013896739	0.00056289556	-0.0013653927	0.0004404393	0.00044673556	0.00049937016	-0.00014084719	-0.00028129193	0.0003757147	0.0007262381	
-0.0006575011	-0.000996814	0.0008484015	-0.00020143927	-0.0007418926	-0.0009635453	-0.0018628124	-0.0009765646	0.00034211815	-0.0014075789	
-0.0010123765	-0.0010704787	3.1653904e-05	0.0034212195	0.00071339426	0.001230344	-0.0006674375	-0.0018030633	-0.0005098463	-0.00018982227	
-0.0033399905	-0.0018444292	0.00036164807	0.005237577	0.0014511823	0.0024820634	-0.0014097147	-0.00012067898	-0.0028014039	0.0009901943	
0.011942289	-0.010620818	-0.002193569	0.0006334123	0.008491406	0.0037803727	-0.00010155949	-0.0069828937	-0.009102913	0.005612085	
0.01208637	-0.017322604	-0.00031932708	-0.0074105705	0.0028862632	0.007990278	0.011100843	-0.002946795	-0.013089727	0.009512022	
0.011950157	-0.018263519	-0.00065417844	-0.01135867	0.0005219133	-0.009942537	0.02324754	-0.0050677317	-0.0007425774	0.01129399	
0.010327538	-0.014623166	0.010722272	-0.016618297	0.0012660356	-0.02301512	0.030055245	-0.014765084	0.0056660175	0.008891415	
0.0038469448	-0.0140164755	0.01288217	-0.014057573	0.0031074844	-0.034439858	0.04302586	-0.022871133	0.008315199	0.015754655	
-0.006143637	-0.011403081	0.017904498	-0.016604818	0.005129179	-0.031762935	0.050720457	-0.029981839	0.0055245096	0.018798087	
-0.022570373	-0.008965474	0.0265928	-0.01928133	0.015107323	-0.026718078	0.039605457	-0.035536267	0.0057894806	0.02483223	
-0.027385142	-0.001572905	0.033304248	-0.022622794	0.011126096	-0.020517716	0.022169558	-0.02829403	0.0037130294	0.028882947	
-0.04528559	0.021757994	0.029245816	-0.024974573	0.013899415	-0.014267859	0.010952518	-0.021942904	0.005273145	0.022672502	
-0.0458718	0.027748499	0.021358019	-0.034347698	0.008752189	-0.005277481	-0.009976271	-0.0010350082	0.0024022472	0.035763282	
-0.036921374	-0.0113632865	0.026701324	-0.032455787	0.0071623125	0.0029899613	-0.010793095	0.0070067034	-0.008014528	0.056358755	
-0.020082556	-0.031754848	0.021760065	-0.026236441	0.00364922	-0.0134454155	0.014379295	0.00926247	-0.01118351	0.049043544	
-0.008596547	-0.031312473	0.008630354	-0.0024847423	-0.0024424372	-0.030326096	0.02654396	0.010021523	-0.0060074264	0.033807855	
-0.005289519	-0.012469675	-0.0047779786	0.0009515688	-0.013497381	-0.028740242	0.033780918	0.010236673	-5.8888836e-05	0.02390133	
-0.005129095	2.5472837e-05	-0.01077233	0.0030330736	-0.009802961	-0.019729916	0.026151303	0.0024683191	-0.006720671	0.01847691	
-0.0068731145	0.0012609778	0.0065402444	-0.0039348695	0.001544068	-0.013099448	0.009247957	-0.0040233773	-0.0031500168	0.012987068	
-0.0030732015	-0.012982981	0.0073873173	0.0006647292	-0.0026149307	-0.010817373	0.0072995797	-0.00036380196	0.0025148513	0.010395476	
0.0046398994	-0.017408725	-0.00031008758	0.004317842	-0.0059521003	-0.010680803	0.020788835	0.0034521811	-4.4954548e-05	0.0013249954	
0.0070565725	-0.01715574	0.0040838346	0.001406832	-0.0046987236	-0.009456293	0.01575062	0.0014880772	-0.0040006638	0.00042489558	
0.0012134645	-0.012109017	0.013759344	-0.0031150933	6.866681e-05	-0.003578206	0.007991637	-8.946132e-05	-0.0031896695	-0.0014593338	
-0.0017382934	-0.0062154927	0.012531628	-0.0006947927	-0.0019644564	-0.0023324615	0.00188338	0.0012867596	-0.0022628186	0.00090615463	
-0.0018023516	0.00015849357	0.002097294	-0.00074865326	-0.00011018628	-0.0006958616	-0.0014481784	0.0010065672	-0.0015298945	-0.0035067427	
-0.00076185714	0.00059346564	-7.757719e-05	-0.00029275124	-7.14824e-06	-0.0010075844	-0.00031452405	0.0001747514	0.00011060239	-0.00046226164	
0.0017960106	-0.0009183316	0.00021102214	0.001404478	-4.0972303e-05	0.0026118401	0.00010819919	-0.0002782923	0.00083260896	0.0010309404	
0.0009216658	-0.00030607998	0.00028124705	0.0005906374	-0.0011742036	-0.0011006859	-0.00031039346	-0.0009884204	-4.198308e-05	0.001948988	
-0.0014529192	-0.000156229	8.0976344e-05	0.0015731689	-0.002141655	-0.0009234704	-0.00019591977	0.00017695039	0.00013589786	0.0005440643	
-0.0021252823	-0.0005678679	9.757611e-05	0.0071219704	-0.0019484818	0.0021429178	0.0009799667	0.00096605497	-0.0013727552	-0.00051906996	
-0.0006784874	-0.0032609014	-0.0029101989	0.0065409304	0.0014338219	0.0056102173	-0.0014152349	-9.1206624e-05	-0.003361167	-0.0045861737	
0.01028433	-0.0106291855	-0.0067040124	0.009341511	0.0011495643	0.010194406	-0.00078002026	-0.004577114	-0.0077158194	0.000746179	
0.009439294	-0.016500236	-0.0032489975	0.00066594477	-0.005891669	0.010876522	0.009360287	-0.0024138205	-0.0077720922	0.008530952	
0.011370866	-0.025519587	0.0049201003	-0.006904344	-0.005891466	-1.7541097e-06	0.02493764	-0.0079729995	0.005421031	0.0071737985	
0.011977922	-0.026119968	0.0149624	-0.0065351157	-0.0072536455	-0.009633623	0.024762236	-0.016237808	0.0065505737	0.009102709	
0.0028091124	-0.023565356	0.02055576	-0.0069612386	-0.0036377627	-0.022012567	0.038548946	-0.026587749	0.010747018	0.012042461	
-0.013802827	-0.014673136	0.022099363	-0.006197797	-0.00074335356	-0.028796272	0.04879378	-0.036730245	0.014236925	0.019768666	
-0.016901327	-0.014021429	0.027263813	-0.01161805	0.005671066	-0.03230608	0.0416853	-0.038214825	0.015339082	0.023394927	
-0.019515881	-0.0050092973	0.02582278	-0.01944179	0.010520946	-0.032771792	0.03661228	-0.024908993	0.010096831	0.02174036	
-0.035296734	0.0136499265	0.021861201	-0.020573914	0.00417511	-0.02158802	0.013290345	-0.0006135247	0.0025467067	0.024731962	
-0.036094062	0.01476265	0.021489602	-0.030993136	-0.0067962054	-0.011297533	-0.001058666	0.015423686	-0.0066175256	0.04160839	
-0.032491885	-0.011848614	0.027539425	-0.022113327	-0.010807918	-0.006131905	0.005960758	0.005782324	-0.005383151	0.04347205	
-0.015064862	-0.034373824	0.021180121	-0.0048389933	-0.008317155	-0.021518212	0.03439114	-0.0048337285	-0.004588596	0.037105367	
-0.002549464	-0.034329157	0.009168173	0.008142039	-0.014784899	-0.035661694	0.039316893	0.0020580045	0.0007988693	0.030313477	
0.0039692298	-0.015255659	-0.0023335128	0.009487967	-0.015949547	-0.033263415	0.026456384	0.006438374	0.005547482	0.013996182	
-0.0037215252	-0.0055553494	0.0019621146	0.0033962687	-0.010666824	-0.020903144	0.014254024	0.0044278507	-0.004543573	0.018169532	
-0.008470888	-0.0036349564	0.009864991	-0.002431685	-0.008110169	-0.006055648	0.007621806	-0.0015157025	-0.000259521	0.016814219	
-0.0071936953	-0.014617327	0.008974642	0.0043104226	-0.013689701	-0.01089895	0.020478616	-0.00024715517	-0.0019999975	0.007099546	
0.0023317651	-0.023566406	0.0066798795	0.0062436466	-0.012240318	-0.009496284	0.019198855	0.0044084503	-4.1714782e-05	0.005222627	
0.0039770184	-0.02195089	0.012992534	0.0050596083	-0.007246043	-0.0038498116	0.010448132	0.0006620569	0.00037533147	0.0018951707	
-0.0032962584	-0.016185718	0.016215555	-0.00025617893	-0.0005544788	-0.000787111	0.003319902	0.0015054978	0.0002587533	0.0019654587	
0.0003405139	-0.008053663	0.009857047	0.0012645297	-0.00012467713	-0.0010369559	0.00043096213	0.0007441112	-0.0010145854	0.00059587526	
-0.00037050518	0.0005821496	0.0008697782	0.001024529	-0.0017322486	0.00019999503	0.00016315511	-6.420829e-05	-0.00015350833	-0.0007114967	
0.00073368836	-0.0018423432	5.9325102e-05	0.0010348475	0.00086901896	-0.0007787182	0.00016740288	0.00017859614	0.0014512122	-0.001517447	
0.0023463354	-0.0012966886	-7.316878e-05	-0.00024604148	0.001189141	-0.000789693	-0.00058953837	-0.0010038274	-0.0009168993	-0.00029996858	
0.00106963	0.0008547302	-0.0014804886	-0.00032050363	0.0001580877	0.00025954458	-0.0006414485	-0.00057238515	-0.0012407453	0.0002184937	
-0.0003388113	-0.0015708697	-0.00020278982	0.0013764896	-0.0019306047	0.00051778497	-0.00037145524	-0.0009074203	-0.000603206	-0.0026114227	
-0.0006640546	-0.0025394398	-0.0018307775	0.0051870085	-0.00072450377	0.002480514	0.0015221237	-0.00027977728	-0.0008887611	0.00058398285	
-0.001662101	-0.004535768	-0.007270457	0.008715896	0.0025493065	0.004358187	0.0019406743	-0.0025900197	-0.0007520563	-0.002733204	
0.0061390013	-0.014088367	-0.007322192	0.013909257	0.001477938	0.011556997	-0.00014420373	-9.895934e-05	-0.0074824123	-0.003094274	
0.0093660345	-0.024777275	-0.0016937559	0.0064439448	-0.00867652	0.017469892	0.0033067777	-0.003580831	-0.0013817234	0.0038709028	
0.0067463797	-0.03634211	0.014187638	-0.0045357314	-0.01338709	0.018267153	0.015579042	-0.013643369	0.010417249	0.005091121	
0.013020392	-0.034172386	0.021563143	-0.0030467513	-0.01841176	0.0045753047	0.017304262	-0.016778877	0.0067870175	0.0041494714	
0.003227394	-0.017445864	0.025268478	-0.00095489534	-0.018463878	-0.01533004	0.029380348	-0.021642445	0.013934568	0.007536926	
-0.011387195	-0.012551048	0.019244445	-0.009928831	-0.0044868905	-0.033345044	0.038066015	-0.026690278	0.022475861	0.018864533	
-0.014840392	-0.016944632	0.021642333	-0.02704375	0.0015605801	-0.037656832	0.053888563	-0.02358964	0.018139133	0.022780582	
-0.019874476	-0.016552461	0.027207902	-0.016882692	0.008300092	-0.04116981	0.041418906	-0.009378371	0.011283747	0.01662039	
-0.018510679	-0.0038228973	0.024099598	-0.01744491	0.0007283846	-0.0335802	0.013478312	0.013673082	-0.0015088208	0.022515388	
-0.024385193	0.0073402766	0.021802908	-0.020739542	-0.012533397	-0.029227817	0.0027885805	0.02111988	-0.0012513893	0.036441	
-0.017594816	-0.010423563	0.02074663	-0.011931356	-0.011515177	-0.023209238	0.020909782	0.001050961	-0.00080284977	0.03425667	
-0.0044937506	-0.018216344	0.002472868	0.0073790057	-0.017809652	-0.027529256	0.042564884	-0.013350654	0.00374617	0.028282708	
0.010718273	-0.017712291	-0.013079995	0.013077468	-0.020071631	-0.03197846	0.037429858	-0.0074150325	0.005894958	0.026593706	
0.0072477697	-0.014119175	-0.0064814035	0.010993021	-0.01867496	-0.026265569	0.015516536	0.005043524	0.007994184	0.014629487	
0.0006427767	-0.00927538	0.007601063	0.0038417983	-0.01617713	-0.0039617685	0.010043727	-0.0029482874	-0.009076523	0.021934455	
-0.0066197556	-0.011796134	0.009061291	0.0008193372	-0.014764036	-0.0015822735	0.016220741	-0.004571974	0.0012252651	0.013700251	
0.0026653016	-0.022809919	-0.00020429604	0.006295779	-0.015007164	-0.0023368106	0.01927288	0.00214463	0.0033553853	0.0045639086	
0.0036487118	-0.024819775	0.002868137	0.00838087	-0.009264233	-0.0024887961	0.0070780255	0.0032956032	0.0030351714	0.0024437464	
0.0013227665	-0.020286873	0.013066787	0.0017883865	-0.0030740735	0.00046599895	0.0029198055	0.0017488165	0.0020946073	-2.168704e-05	
-0.0031059172	-0.014507596	0.014676285	9.268225e-05	-0.00035885462	0.0021981786	0.00059264514	0.00011303322	0.0004668009	0.0003108366	
0.0001765123	-0.007755813	0.009613848	0.0010374264	5.253222e-05	-0.0020181097	0.00014414097	-0.0011357598	0.0001442119	-0.0007243623	
-0.00063282094	-0.00086588546	0.0008117413	7.069689e-06	0.0018290548	-0.0014272052	0.0013009177	-0.0017730299	0.0001566495	0.0012732691	
0.001539837	-0.0006540873	0.0007062842	-0.00036725646	-9.3634415e-05	-0.0018499852	-9.1114634e-05	0.0017912947	2.3342083e-05	-0.0004207208	
-0.0009253444	-0.0011197607	0.0005940071	-0.00030687606	0.00065193576	0.00066469604	-0.00028255882	0.0010364087	-0.0006528947	0.00039821066	
6.522776e-05	-0.0012490901	0.00024464348	-0.0007251222	0.0007890941	-0.0014187841	-0.00096998387	-0.00038975276	-0.0014236434	0.002355306	
0.0014486262	-0.0010478571	0.00016819235	0.002662927	-0.002036488	-0.0009367948	0.0008171883	0.00071268727	-0.001432113	-0.0007913794	
-0.00012712067	-0.00013103157	-0.0036703853	0.00025962206	0.0010317138	0.0011063993	0.001857618	0.00028764448	-0.0005578451	-0.0009385777	
-0.0012671273	-0.0063406792	-0.0057826224	0.008325333	0.0032273652	0.0029393146	0.0026259818	0.00035498504	0.0018219013	-0.0021695592	
0.000746625	-0.011777735	-0.008239907	0.010540239	0.002724718	0.009573454	-0.0021535736	0.0011560079	0.00019829214	-0.002241027	
0.0032298649	-0.025959898	0.0018591646	0.0127978595	-0.0036593112	0.0111842975	-0.0008706729	-0.008541146	0.004417173	-0.00011593438	
0.00830169	-0.030760003	0.014130645	0.0056977915	-0.016890291	0.017623913	0.007999323	-0.017480448	0.0141440695	0.0035960076	
0.014130774	-0.025670338	0.016998202	-2.2242604e-05	-0.02113921	0.005103854	0.012504193	-0.02203975	0.01716801	0.008748765	
0.009785545	-0.017136909	0.01976118	0.003547966	-0.023965217	-0.005151627	0.013784918	-0.021328475	0.013263064	0.008328685	
-0.0058573796	-0.016564438	0.018218394	0.0003483549	-0.01395017	-0.025469663	0.026833333	-0.022387542	0.028548311	0.008718056	
-0.008642527	-0.017579593	0.022820132	-0.015294006	-0.0033185545	-0.038928304	0.037297	-0.014191373	0.02844445	0.007301133	
-0.0069255154	-0.018867569	0.016683687	-0.01711408	0.00042195647	-0.045936994	0.037831806	0.0039525176	0.013904546	0.01945513	
-0.008023236	0.00066386507	0.00926278	-0.016441993	-0.011262986	-0.050256718	0.029890368	0.022265075	-0.003186185	0.029400097	
-0.009135163	0.002958767	0.0049101296	-0.011813115	-0.018830227	-0.044861034	0.030524338	0.018996393	-0.0099869	0.035909273	
-0.0018901204	-0.0042548026	0.005349794	-0.0053937105	-0.012548074	-0.040515505	0.03678066	0.00021027052	-0.006031222	0.02991473	
0.00479903	-0.005071068	-0.009950435	0.0026777664	-0.01463769	-0.03174912	0.045262102	-0.014954859	0.00012046116	0.02032853	
0.01026012	-0.0062914616	-0.018179148	0.015283915	-0.018360207	-0.020985112	0.025403995	-0.009965507	0.0052355956	0.022383977	
0.0076591466	-0.01186206	-0.008726337	0.007941384	-0.018890187	-0.002331871	0.01805563	-0.0057851938	0.00029659632	0.014170774	
-0.0011290973	-0.01434691	-0.00058247085	-0.0012432646	-0.017394414	0.011701472	0.013712325	-0.0016591303	-0.0071385256	0.01581018	
-0.00055165193	-0.020169314	-0.0056116036	0.0079944385	-0.0112271225	0.007845254	0.0093863	-0.0010701839	0.0020465467	0.010827494	
0.0023618496	-0.026846806	-0.0024588937	0.010056143	-0.011091958	0.006383617	0.004523809	0.0010448437	0.0059802826	0.004441037	
0.004588907	-0.023427095	2.4481178e-05	0.006501579	-0.006068591	0.0064524035	-0.003001897	0.003451195	0.0069410917	0.0031639263	
0.001064664	-0.014300504	0.0064729173	-0.0007982848	2.944563e-05	0.0018578352	-0.001336521	0.0024644842	0.005137098	0.00085650693	
-0.00077637413	-0.009684816	0.014055087	-0.00325592	0.001396877	-0.004044535	0.00019160441	-0.00067114545	0.00026789968	0.0025353627	
0.00016208281	-0.0043672808	0.0066032126	-0.0015911822	0.0005820557	-0.00065209065	0.0021787388	-0.0019872927	-0.0011650084	7.3894975e-05	
-0.0001807673	-0.0014042194	-0.0013914886	-0.0011639413	0.0030842752	0.00063435483	0.0010424097	0.0005250806	-0.00050047395	-0.0005273679	
-0.00053564116	0.00030894065	4.4722696e-05	9.8389275e-05	-0.0001937733	0.0009139743	-0.0017741388	0.00085646455	-0.0003093967	0.00015765411	
-0.0014010692	-0.00048694265	5.9168313e-05	-0.0005766352	0.0014867828	-0.00043651892	-0.001062412	-0.00013201333	0.00016895476	-2.6308015e-05	
-0.00088213885	-0.0012745073	0.0009191953	0.0007109982	-0.001091979	6.1415005e-05	0.0008720491	0.00086490373	0.0011215808	-0.00073011796	
-0.0017106549	-0.000599824	-0.00015540814	-0.00012398002	-0.001905768	-0.00070363755	-0.00079568604	-0.000526698	-0.001040205	-0.0011516536	
1.6137326e-05	0.0003459477	-1.2479446e-05	0.0031407466	-0.00068168034	0.0022447128	-0.00025751343	-0.00028790234	0.0005102234	-0.0021500557	
-0.0013915517	-0.0038535956	-0.0048682806	0.0045094662	0.0007247433	0.004599079	-0.0008045064	9.969014e-05	0.0032817628	-0.0031285482	
-0.0020606332	-0.010264999	-0.0045732874	0.010203121	0.0023763294	0.011191442	-0.0040796865	0.0019694194	0.002442696	-0.0040314835	
0.00328397	-0.018324055	-0.0015955473	0.017185075	-0.007459695	0.012048809	-0.004496545	-0.004029312	0.0046778335	-0.005107226	
0.0067962534	-0.01736848	0.0077054338	0.014566495	-0.019375242	0.0146091655	-0.006839838	-0.016807089	0.012587838	0.0003080385	
0.008892194	-0.013815438	0.004573491	0.00941502	-0.01788385	0.009173066	-0.0023855774	-0.021273449	0.018503483	0.007996491	
0.012418703	-0.015161977	0.012080239	0.012091065	-0.023983328	0.0052462323	-0.003892498	-0.017616123	0.014219676	0.008347478	
0.00985006	-0.011819279	0.008567903	0.011013198	-0.01976795	-0.015497814	0.003114397	-0.016144034	0.02691883	0.0031265616	
0.0052654264	-0.007208975	0.0004970671	0.0019232719	-0.011167569	-0.023991391	0.009787538	-0.010248415	0.02797466	0.012566837	
0.004766664	-0.009037585	-0.0078464	0.0011736104	-0.018759103	-0.031194763	0.019776843	0.0038307179	0.019027933	0.020706868	
-0.00014417013	-0.00042214053	-0.011954349	-0.0028201595	-0.02516814	-0.027587747	0.024704771	0.0065366398	-0.00066717836	0.035686452	
-0.005097138	0.012410473	-0.011633215	-0.002601334	-0.026809936	-0.023710195	0.030946802	0.00427831	-0.0089910645	0.032042302	
-0.0043475474	0.012878554	-0.018022107	-0.0014998384	-0.017308725	-0.022133669	0.031674944	-0.0057696854	0.0053524375	0.020194147	
0.0058404393	0.014843748	-0.019742139	0.0006410519	-0.025005156	-0.01571274	0.026786251	-0.012266956	0.0025270984	0.021200316	
0.0023069314	0.0055451537	-0.01289257	0.0047077388	-0.013653301	-0.0045144	0.015227143	-0.010713459	-0.0026256212	0.01783427	
-0.00070005853	-0.011518765	-0.0054231137	5.2158604e-05	-0.011197443	0.012841079	0.0052666594	-0.0037975968	0.0007315458	0.015617639	
-0.0071515935	-0.020480111	0.00055978546	0.008401332	-0.0126009	0.015071246	0.0034745054	-0.00371623	-0.0019768712	0.020320479	
4.1218664e-06	-0.019741228	-0.0032976347	0.008344631	-0.004029066	0.011792785	-0.0034617453	-0.002434914	0.005704001	0.009394069	
-0.0008343194	-0.019714907	-0.0035093727	0.008489099	-0.0005480496	0.003871659	-0.0059017623	-0.0008790865	0.0071778954	0.0048913173	
-0.000436515	-0.013526293	0.005374601	0.0018052611	0.0012941427	-0.0013881853	-0.0031997005	-0.0009999634	0.0057755923	0.0049897665	
-0.0011893184	-0.009731283	0.0027662443	0.00015171836	0.0027400157	-0.0013119269	-0.0014244475	0.0011631533	0.0032107832	0.0018480237	
-0.00031742983	-0.007836283	0.0069101215	0.0014307031	0.0014299938	-0.001117785	-0.00030588417	-0.0005955797	-0.00016606221	0.0012647377	
0.001535199	-0.0024270534	0.004007092	-0.00011936279	0.00038737853	0.0005528552	-0.0013125916	-0.0021351054	0.000413701	-0.001878645	
0.0018618535	0.0015486822	0.00014897979	-0.00066723814	0.00087097636	-0.0003877406	0.00020469446	0.0004673044	-0.00014021307	-0.00019019474	
0.0027090942	-0.00048318444	-0.00044748303	-0.00024580234	-0.0003168031	-0.00034115886	0.0003309729	-0.0006266777	-0.00020706172	0.00025879528	
-0.002055751	-0.0012790081	0.00021209421	-0.0013630388	-0.0005402028	3.4888872e-06	-0.00063679245	-0.0012384239	-0.0015680211	-0.000297519	
0.00025301255	0.00064524036	-0.000328047	-0.0012511922	0.0022579413	-0.00011482731	0.00026845507	0.00018374593	0.00036519463	-0.002012836	
-0.002392839	-0.0015654869	-0.0011088214	0.00023636351	-0.0002382232	-0.0011046878	0.0002747312	-0.0005117761	-0.0003891628	-0.0011735487	
0.00038293796	0.0004062916	-0.0006172384	0.00085291127	-0.0011953062	-0.0016512445	-0.00031595703	4.7706715e-05	0.0026969442	-0.0013346288	
-0.0018361409	-0.004577387	-0.0009082884	0.0026610517	-0.00062111596	0.0020742486	-0.0007952044	0.001837973	0.0004491967	-5.495161e-05	
-0.003238239	-0.0063917898	-0.0019594857	0.0046808394	0.000447158	0.004878585	-0.0051471656	0.004102898	0.003651758	-0.0041423463	
0.0011074976	-0.008645398	-0.0044321036	0.011559675	-0.0035114763	0.008267967	-0.0074866544	0.001029627	0.0060565774	-0.0073040333	
0.004289013	-0.008904529	-0.0056042415	0.01632091	-0.010211025	0.013723771	-0.010904763	-0.008392766	0.010111961	-0.0028023082	
0.009259994	-0.0050726454	-0.010559416	0.02218616	-0.015319874	0.008051859	-0.013595909	-0.013713238	0.01269303	0.005391687	
0.013616423	-0.003269041	-0.013567667	0.024765506	-0.018563693	0.0098976875	-0.012676692	-0.015785683	0.011525527	0.00930302	
0.029893316	-0.0036179975	-0.021369565	0.017469238	-0.020575615	0.008708564	-0.012172699	-0.012404584	0.021441873	0.0020471392	
0.027753094	-0.010682856	-0.021763118	0.015813975	-0.02539383	0.015464585	-0.017772103	-0.014784026	0.02339871	0.008749688	
0.01979522	-0.012530239	-0.018757563	0.012140477	-0.03670273	0.02180236	-0.023325294	-0.0137034645	0.026302738	0.024791947	
0.012288696	-0.001093179	-0.020848144	0.013382762	-0.03703071	0.022296185	-0.020338135	-0.016435804	0.015901437	0.03010868	
-0.0034876387	0.016407086	-0.016625756	0.013179331	-0.028574102	0.013170929	-0.017913	-0.017429357	0.008799408	0.030899921	
-0.0017093744	0.023950221	-0.015636181	0.010325753	-0.028500527	0.0134309195	-0.011419835	-0.0253355	0.012668399	0.01861318	
-0.0035387871	0.026395043	-0.01372048	0.001887282	-0.021909539	0.014103655	-0.0069095036	-0.022441555	0.004034676	0.023826078	
-0.010558853	0.00915384	-0.0100596445	0.00014694431	-0.013795782	0.019086307	-0.006315279	-0.007931953	0.00020458191	0.01933183	
-0.01498349	-0.005984426	-0.0065578762	0.008464093	-0.009776984	0.02046529	-0.010188875	-0.0019687535	0.006085077	0.017899044	
-0.0056607234	-0.010922729	-0.010716816	0.009699289	-0.0046440987	0.014101459	-0.009119963	-0.0038908157	0.0056822593	0.018013105	
-0.0040579275	-0.014212308	-0.00471204	0.0056546405	0.00067651534	0.00689075	-0.0057499898	-0.0043050847	0.011694776	0.010180829	
-0.0042542997	-0.010125677	0.0013145889	0.001961823	0.006800214	0.0036153125	-0.0070469663	-0.0037713042	0.0058485377	0.007401406	
-0.0043904996	-0.0045814477	0.0023473722	0.0011427918	0.0032147954	-0.00033712125	-0.004525161	-0.0014805745	0.001862078	0.004884288	
-0.0021653457	-0.003321032	-0.0001463843	-0.0014783478	0.0026331735	-0.00062320987	-0.0010174053	-3.6091933e-06	0.00073066127	0.0029645434	
0.00023778972	-0.0028485712	-0.0012377271	0.00016613085	0.0023238496	0.0005441201	-0.0010895608	0.0001718608	-0.0017829372	0.002347699	
-0.0006923831	-0.00014078058	0.00092999346	0.0014313948	-0.0011659907	0.0010229037	-0.00047455385	-0.0019868754	7.1734685e-05	-0.00028490383	
-0.00046794108	-0.0007116559	0.00080739876	-0.00042058903	0.00079399213	-4.1689094e-05	0.0005156471	0.00075235666	0.00020291751	-0.00036115787	
-0.000757857	8.160616e-05	0.00036249496	-0.0012939216	0.0005289577	3.8636746e-05	0.001915321	0.001734177	0.0001343105	-0.00042065934	
-0.0002392873	-0.00019442636	0.0019606517	-0.0010172038	0.0006850241	0.00041916812	-7.366585e-05	-0.00046328412	0.00076807727	0.0008748092	
0.0005330202	-0.0007202576	-0.00077653886	-0.00045576075	-0.00018100199	0.00043730857	0.00046676034	0.0017686604	0.00041521853	-0.0018574346	
0.001243666	-0.00068506453	-0.00031779305	0.00053207437	-0.00050641736	0.00073956867	-0.0006282336	0.00035145294	-0.00024394291	0.0022698054	
-6.356693e-05	0.0005511511	0.0005825514	0.0015712883	-0.00021199728	-2.222167e-05	-0.0009991636	-0.0012360973	-0.0010362568	-0.000825656	
-0.0025772261	-0.0013062346	0.00094935816	-0.0004449912	0.0021016756	0.0018865181	0.0005869789	0.0020679105	0.0007643926	0.0013832242	
-0.0023671172	-0.0041336785	-0.0033689423	0.0032278688	-0.0015483864	0.003033939	-0.0010105467	0.0059170215	-0.0010780911	0.00013821518	
-0.00041481684	-0.0027030532	-0.004115888	0.002922607	-0.0018503314	0.0034409992	-0.0027424162	0.006003786	0.0035053494	-0.0015950928	
-0.00092365243	0.0025782583	-0.008605919	0.0012764649	-0.002998831	0.006751943	-0.008212092	-0.0022106257	0.0074857557	0.0039243116	
0.0029892703	0.0006192139	-0.011478788	0.003003456	-0.006034603	0.012162168	-0.01273306	-0.010264405	0.01805003	0.0045701787	
0.0056301197	0.005630081	-0.016405191	0.011814431	-0.015051091	0.016347378	-0.020011185	-0.0130447885	0.019559864	0.0045453184	
0.012984221	0.0037363186	-0.016454216	0.017876334	-0.0231097	0.025736442	-0.02553488	-0.017100494	0.017802473	0.002692823	
0.027005622	-0.002072194	-0.021748973	0.02112554	-0.03432369	0.03676611	-0.03117757	-0.020400407	0.016274529	0.008578298	
0.018739613	-0.010902621	-0.021456944	0.018865783	-0.03884486	0.041986108	-0.031939935	-0.017370528	0.019654976	0.019198887	
0.007503512	0.0005758868	-0.018977344	0.014519731	-0.03376072	0.034435153	-0.025650896	-0.02176398	0.019658558	0.024934994	
-0.009077164	0.01652594	-0.012692894	0.00972458	-0.022701018	0.02322196	-0.026924025	-0.021664165	0.016781041	0.025272425	
-0.013647982	0.024576828	-0.011847661	0.0056237043	-0.01605887	0.020401359	-0.017425532	-0.02155223	0.0101064565	0.019004704	
-0.015426449	0.021830134	-0.010892757	0.0009569662	-0.012773783	0.016996218	-0.014016476	-0.014838619	0.005963281	0.020076849	
-0.009802119	0.0067327796	-0.011016098	0.007514803	-0.008520773	0.014232515	-0.01391095	-0.001796465	0.00029658622	0.01881389	
-0.009748474	-0.0023494472	-0.009921904	0.0087997755	-0.007367621	0.012152386	-0.013167511	0.00061995996	0.004078994	0.010698433	
-0.004314073	-0.0053639063	-0.0052542393	0.005583144	-0.00036712852	0.009808887	-0.00707269	-0.008326233	0.004961648	0.009192968	
0.00030108713	-0.00648455	-0.0065522706	0.0005595566	0.004557109	0.006448039	-0.006436036	-0.008354073	0.0031328793	0.007959961	
-0.0013227233	-0.0036856786	0.00039483258	-0.0024330555	0.0044290503	0.006631588	-0.0037943074	-0.0070540253	0.002337853	0.0058827307	
-0.0025937434	-0.0008861895	2.9570583e-05	-0.0021994945	0.002046853	0.0017206586	-0.0015345362	-0.0021867724	0.002215048	0.0036483756	
-0.00018317581	-0.00014997611	-0.00055531046	-0.0011360032	0.0014352741	0.0010761725	-3.3749402e-05	0.001069564	0.000346156	0.0009576746	
-0.0021858653	-0.00040397953	-0.00035119982	-0.0009953678	-0.001587965	3.0270921e-06	0.001593174	0.0014117627	0.0003238949	0.0015109243	
-0.0001853636	-0.00040687123	0.0003123737	0.0013452759	-0.0011507077	0.0010194085	0.0013219877	-0.0007882228	0.00013642541	-0.0011725563	
-0.00011822888	-0.00013241373	0.0009589186	0.0011859438	-5.076384e-05	-0.0005052193	0.0016149589	-0.00041155439	0.0013429412	0.0023687482	
-0.00088907924	0.0002970016	-0.0011813025	0.0010880079	0.0010112558	-0.0008836812	-0.00021793929	0.00032295036	0.0007098467	0.00014390175	
0.00015531799	-0.0013969827	-0.00035262672	0.00055838295	0.001232764	0.00035812732	-0.0006652501	-0.00020220896	0.0010422167	-0.0015143311	
0.0012441973	-0.0013385831	0.0005791327	-0.0009880223	0.0015235672	-0.00045589695	0.00013584014	0.0009975724	0.00044660698	0.00076208916	
-0.00062537595	0.0010856763	-0.0019457748	-0.0006032572	-0.0015994679	0.00040186304	-0.00015383435	0.0011645693	-0.001178534	0.0008421987	
-0.00014601642	0.000116371426	-0.00080750464	-0.00081809564	0.00019928826	4.8304497e-05	-0.00089331437	-0.0007481086	-0.00014239307	-0.0018843716	
0.0008591035	0.0004145451	0.00061140984	-0.0005624631	-0.002546841	-6.967412e-05	-0.0003179014	-0.00073251745	0.0005108994	0.0009935845	
0.0006334744	-0.0014872719	0.0014816422	-0.0009370715	0.00032979998	-3.375778e-05	-0.00019925808	0.0036039867	-0.0022651542	0.0010695638	
0.0018907709	-0.0044142157	0.0010312434	-0.0023194996	-0.00065744366	-0.00104036	-8.401803e-05	0.0071602724	0.0002209351	0.004511883	
-0.0030713591	-0.00040898094	-0.0006828876	-0.007974624	-0.0014324691	0.0033115621	-0.001534173	0.007336303	0.0010624549	0.004550359	
-0.0029874407	-0.00075654977	-0.0018033907	-0.005788666	-0.002867657	0.004576643	-0.009876937	0.0039708284	0.006849677	0.009816936	
-0.0004620792	-0.0019576775	-0.006916199	-0.0022722366	-0.009626674	0.006995824	-0.014798261	0.0071911043	0.011133978	0.009499361	
0.0045430874	0.0019166304	-0.0085816225	0.0063799815	-0.021090817	0.008618383	-0.02025919	0.0021594414	0.010270942	0.014612475	
0.005715638	-0.0042504827	-0.011101596	0.014045492	-0.023636285	0.020497983	-0.02013644	-0.0035177793	0.0026209003	0.022670029	
0.0032534073	-0.01227404	-0.006977584	0.017061995	-0.02453011	0.020759922	-0.024756374	0.003923677	0.0050246147	0.019880682	
-0.0017594682	-0.011000162	-0.0043718726	0.015653003	-0.010674428	0.013211735	-0.021816712	-0.0018409333	0.0033493824	0.017708478	
-0.010005454	-0.004693316	-0.0023091338	0.0069221174	-0.004556833	0.0067529734	-0.01647165	-0.007214364	0.006531988	0.021786729	
-0.008297788	0.0006761871	-0.0041243164	0.004731733	-0.0036262656	0.004934273	-0.0075581586	-0.0017471918	0.0037464371	0.014053629	
-0.006076183	0.003376318	-0.005097975	0.0031809541	-0.0019572582	0.0023861101	-0.010452468	0.002816367	-0.0044613667	0.015621079	
-0.0035150475	0.004289472	-0.0062022195	0.0068030576	-0.008432403	0.0013960017	-0.00829925	0.0081651835	-0.008334065	0.01646645	
-0.0027516754	0.0031685126	-0.0032538744	0.004396857	-0.0072981385	0.0020702253	-0.00395524	0.004777523	-0.0040748394	0.008331604	
-0.00019938269	0.0018205186	-0.002563886	-0.0012575543	-0.00086948555	0.003592285	-0.003931484	-0.0018888335	-0.0041034915	0.006208132	
-0.0008561052	-0.0022691584	-0.0005130437	0.0003788264	0.0028590257	0.0034631381	-0.0014678166	-0.0055673528	-0.0043394547	0.0070997905	
-0.0033436262	0.00023295323	-0.00044220182	0.00085702445	0.00036321062	0.005562313	-0.0009155195	-0.0018688807	4.5936256e-05	0.0025947918	
-0.00052202534	0.0017315608	-0.0010424698	-0.0015309767	0.0005776214	0.0026072236	0.0008788	-0.00022652767	-0.0003347039	-0.00016807462	
-0.0003764635	0.0004899796	0.00033819626	-0.0021200173	0.00024649405	0.0011311702	0.00088269706	0.00032310188	-0.001976629	0.002603398	
-0.00024089483	-1.33968715e-05	0.00050260074	-0.001635288	-0.0013210464	-0.0017688402	0.0017372859	0.00071357755	5.0017872e-05	-0.00030829103	
0.0017374102	0.0009379728	-0.0006191919	-0.0010972833	-0.00075254845	-0.00029820704	0.0014111059	0.0008504858	0.0002089681	-0.0009792838	
0.00044494736	-0.00076776335	0.00015458498	0.00050736114	0.00018899183	-0.0011473142	-0.0016035322	0.0011368009	0.00045978493	-0.0004580735	
-0.00014733152	-0.001478604	0.0006717059	-0.0009452478	-0.0010286318	-0.00021093935	-0.00010611605	0.0007195205	0.0016545142	-0.0008208152	
0.00053062633	-0.0017652448	0.00024917192	0.0015390458	0.0002553862	-0.00041986094	-0.00014368273	-0.0004911663	0.00061487494	-0.0013338261	
-0.0016279072	-0.0010764804	0.00064996985	0.0005150099	0.00012851415	0.0003616812	0.0015742268	0.00082050764	0.0013411804	0.00091954373	
0.0010406569	0.00065977575	0.0008501226	-0.0004715321	0.0006956472	0.00096866203	-0.0004086759	-0.00018270063	-0.0014449361	0.00034346018	
0.00012494094	0.0005095698	0.0017368088	-0.0014187774	0.00020802298	-0.00033394463	-0.00095354917	-9.357474e-05	-6.4593325e-05	-0.000913431	
-0.0016564194	-0.0012346356	-0.00063943106	0.00084182975	-0.0013576937	0.00070536556	-8.437487e-05	0.0017730268	0.0009110428	-0.00019497315	
-0.0012292514	-0.001599092	0.0015076807	-0.00010450529	0.00014622384	-0.00070636347	-0.002590138	0.0039374568	-0.00032777427	0.00057882455	
-0.0018498386	-0.0030486663	-0.0013627827	-0.0014175142	0.0017874088	0.0007413903	-0.0016673176	0.0042724865	-0.0007909018	0.0024128936	
-0.0025993397	-0.0004289818	0.0015894229	-0.0021115078	0.0017389954	-0.0032306202	-0.0026268268	0.0054074	-0.0031577307	0.0046593733	
-0.0016164236	-0.00020356575	0.0014463661	0.0007037289	-0.002004858	-0.0027349335	-0.008747165	0.010435735	-0.004435696	0.005264416	
0.0036393765	0.00056637183	0.0010225447	-0.003055823	-0.005136574	-0.001910301	-0.011340031	0.013700902	-0.007839303	0.006916554	
0.0037159477	0.002992414	-0.0017752815	-0.0031729606	-0.009795976	-0.0011422858	-0.015672468	0.020039802	-0.008333775	0.016058046	
0.0016657365	-0.00012232564	0.0002558888	0.005111689	-0.007975751	0.0010879989	-0.012092851	0.010314997	-0.0077317236	0.010045599	
-0.00049588864	-0.0044926335	0.003460902	0.009741207	-0.008048133	0.00043219773	-0.019982126	0.021115016	-0.008304718	0.0069249477	
-0.0059440006	-0.0049104015	0.003537998	0.005108634	-0.0036413737	-0.0028464857	-0.01939077	0.021876555	-0.009690568	0.015542525	
-0.0074074664	-0.0040261676	0.0002519076	0.004369223	0.0013933282	-0.0069944565	-0.0118886605	0.019703433	-0.008647076	0.018167926	
-0.0056770323	-0.0028865593	-0.001531968	0.0027149012	0.005343475	-0.0042182705	-0.0037651297	0.0097837895	-0.010869774	0.009563475	
-0.0042035636	0.00013626312	-0.0016012101	0.0011832778	0.0011439676	-0.0027598331	-0.0027839157	0.013582721	-0.010020352	0.008991565	
-0.0052677114	-0.00048697647	-0.0029712408	0.0023968033	-0.004606713	0.0006834249	-0.004350138	0.016890353	-0.010377319	0.008393248	
-0.0017598342	-0.0013020263	-0.0007468561	0.0023337328	-0.0051019546	0.0018865311	-0.0015813723	0.0066599697	-0.0043897233	0.004153958	
0.00041076684	-0.00051831227	-0.00011277269	0.0019585132	-0.0020764943	-0.0010019669	-0.0005961	-0.0008495168	-0.0039713327	0.0042140395	
-0.0002373266	-0.0029010524	0.0023934613	0.00055286934	-0.0019095482	0.000879904	-0.0032032398	-0.003707935	0.0010479395	0.0045501343	
-0.0003094175	-0.0019867835	-0.00069160043	0.000643397	-0.003289349	0.0015687658	-0.00068024104	-0.0010746168	0.0017072682	0.0018566763	
-0.00011923197	-0.0013788415	-0.0014665324	-0.0017153645	-0.001851934	0.00022783874	-0.001190796	0.0012295365	0.0017024362	-0.00068033824	
-0.0026940894	-0.0014851643	-0.00041226877	-0.00040813605	0.00016953694	0.00027293112	-0.0016885609	0.00027047042	-0.001173643	0.000477871	
0.00194546	-0.0003865206	-9.476089e-05	0.00028130232	0.00025157726	0.00025881972	0.00017998468	-3.0759293e-07	0.0014184865	-0.0010239924	
-0.00017058507	0.000188907	0.0009391285	-0.0008378479	0.00079554087	-0.00049517857	7.943568e-05	-0.0010370514	0.00041931067	0.00083864207	
0.001199529	-0.00052791904	-0.0006635419	0.0004189828	-0.0025052344	8.2574225e-05	0.001647707	-0.0007205298	0.00045905603	-0.00090411503	
0.0011997465	-0.00023862772	0.0004061597	2.5625233e-05	0.00015473695	-0.00019094186	0.0016145718	0.00041867973	0.0004497804	0.0011032065	
-0.0011584697	0.0005200631	-4.455404e-05	0.00080783834	0.00024459208	-0.0005948596	-0.0009584188	0.0012537168	-0.000611504	-8.418616e-05	
-0.0019742516	-0.00086651416	-0.0005238304	-0.0004924311	-0.00042612778	0.0016785306	0.00069436803	0.0018145149	-0.0012174555	0.00074299256	
0.00052674755	-0.00069781276	-0.00024303602	0.00070616364	0.00023433173	-0.0003867025	0.0005371146	-0.0010958808	0.00057054736	0.0006205326	
-0.0011913028	0.00061107415	-0.00076279056	-0.0002872437	0.00082902494	-0.00052085146	0.0017183998	0.0012434574	-0.0006657981	5.701546e-05	
-0.0007101204	0.0010853239	-0.0022478988	-0.0015583195	-0.00013379718	0.0010388773	0.0005118934	-0.00038506417	-0.0008377414	0.0008319763	
-0.0009649254	-0.0009555409	0.0019856533	9.072776e-06	-0.0009175332	0.00013650612	-0.0020369566	0.0011777596	-0.0010803558	0.0019919893	
0.00024486336	0.0025114105	-0.0012886099	-0.0016808327	-0.00071489095	0.0015766849	-0.0020449043	-0.0011601025	-0.0007655375	0.0011301987	
-0.0007218401	0.0010817609	0.0015103181	-0.0022718455	-0.0009212524	-0.0017713703	-0.0018919948	0.0015843651	0.0010052569	0.0004107579	
-0.0010084803	0.0021211074	0.003717057	0.0002154822	-0.00040574343	-0.0014920215	-0.0020610571	0.004496571	0.0016374028	-0.0014308007	
0.0012599846	0.0024736268	0.0010267663	0.0017909331	-0.0032511882	-0.004328332	-0.0048065684	0.006216307	-0.0025182706	0.0019642261	
0.0026679945	-0.00071041414	-0.0027920518	-0.0011434547	-0.0050624264	-0.0026416648	-0.007859661	0.00844969	-0.0017567977	0.011074878	
8.5044434e-05	0.00040541438	-0.0012053588	0.0021611976	-0.006275316	-5.7250712e-05	-0.010265374	0.008644974	-0.001070787	0.004793767	
-0.0018898336	-0.0021097139	0.000466207	0.0037744911	-0.0074450485	-0.001532881	-0.011358923	0.0154119395	-0.0028437027	-0.002553804	
-0.0020779597	-0.0016005149	0.0030420301	0.0044545745	-0.0022397086	-0.0021078866	-0.007721975	0.01507903	-0.0044680107	0.0018702791	
-0.005876594	-0.00070991536	-0.0009658618	0.0007583306	0.0009772973	-0.001035774	-0.0063581923	0.009549215	-0.0057160803	0.006954324	
-0.0030191413	0.0027539446	-0.0019875364	0.0003030556	0.0012838423	-0.0004527517	-0.00443909	0.004090864	-0.0030769953	0.005128895	
-0.0028940998	0.00096238486	-0.00055415323	0.0047288416	0.0018332099	-0.0025757877	-0.0033453773	0.0059311856	-0.0017450398	0.0005205391	
