-0.039163917	0.024038266	-0.028896092	-0.01520586	-0.021945788	-0.00080729625	-0.0021896781	0.010688669	-0.006911205	0.09194821	
***0.1***
--------------------------------------------------
-0.05413024	0.0436787	-0.031510912	-0.026465246	-0.027651446	0.011372572	-0.0039132424	0.033215575	-0.017132623	0.084092274	
***0.09000000000000001***
--------------------------------------------------
-0.061975855	0.058131058	-0.032597892	-0.036995087	-0.030991517	0.02318697	-0.0009084711	0.05311958	-0.031353172	0.07193985	
***0.08100000000000002***
--------------------------------------------------
-0.06706033	0.069495425	-0.03387596	-0.04682858	-0.033337586	0.034740254	0.0020967226	0.07033535	-0.04697391	0.06296417	
***0.07290000000000002***
--------------------------------------------------
-0.07057469	0.078786604	-0.035141077	-0.055916354	-0.03481654	0.046125785	0.004774623	0.08554866	-0.062739626	0.055508018	
***0.06561000000000002***
--------------------------------------------------
-0.07310262	0.08661678	-0.036300715	-0.06428058	-0.035577986	0.05729839	0.0071532163	0.09918754	-0.07822226	0.04878372	
***0.05904900000000002***
--------------------------------------------------
-0.07496842	0.09338616	-0.037324555	-0.07195983	-0.035749577	0.06823079	0.009278292	0.11150312	-0.093278006	0.04243749	
***0.05314410000000002***
--------------------------------------------------
-0.07636434	0.09936266	-0.03820789	-0.07898976	-0.035431143	0.07890469	0.011181283	0.1226476	-0.10785347	0.036305856	
***0.04782969000000002***
--------------------------------------------------
-0.07740777	0.104729384	-0.03895526	-0.08539794	-0.0346991	0.08930077	0.012881608	0.13272336	-0.12192986	0.030310316	
***0.043046721000000024***
--------------------------------------------------
-0.07817035	0.10961499	-0.039573867	-0.09120445	-0.033612356	0.09939658	0.014391598	0.14181042	-0.1355066	0.024409622	
***0.03874204890000002***
--------------------------------------------------
-0.078695275	0.11411092	-0.04007086	-0.09642584	-0.032218345	0.10916689	0.015719423	0.14998025	-0.14859119	0.01857968	
***0.03486784401000002***
--------------------------------------------------
-0.07900866	0.11828282	-0.040452015	-0.10107936	-0.030558472	0.11858351	0.01687105	0.15730174	-0.16119263	0.012807565	
***0.03138105960900001***
--------------------------------------------------
-0.07912734	0.12217763	-0.040721316	-0.10518638	-0.028672015	0.12761678	0.017851975	0.16384193	-0.17331621	0.007090463	
***0.028242953648100012***
--------------------------------------------------
-0.07906376	0.12582828	-0.04088133	-0.108773805	-0.02659821	0.13623558	0.018668648	0.16966663	-0.18496205	0.001435495	
***0.025418658283290013***
--------------------------------------------------
-0.07882939	0.12925786	-0.040934417	-0.11187391	-0.024376888	0.14440931	0.019329699	0.17483942	-0.19612536	-0.0041407794	
***0.022876792454961013***
--------------------------------------------------
