-0.00028925433	0.0002810767	0.00031994155	-0.00024396395	0.0006734034	1.2633701e-05	-0.0014118347	0.0008417385	0.0005904669	0.0002849751	
-0.0012548366	-0.0007083054	0.0009290249	0.0027926022	-0.00061214075	0.00014992578	0.0005573765	0.0005421882	-0.0011495971	0.00068915857	
-0.00010644403	-0.0006840016	0.001856957	-0.00040132873	0.002079609	-0.000827395	-0.00029664772	-0.002314617	-0.0011543096	0.001855554	
-0.0002829121	0.0006978115	0.0009539141	-0.0001607668	-0.0005060108	-0.0022818064	-0.00041405892	-0.0006982202	-0.0010544943	1.0123296e-05	
-0.00079571264	0.0009684116	-0.0011991453	0.0018300558	-0.0012116805	0.0006618291	-0.0006891151	-0.0012715004	-0.0020861293	-0.0004688143	
0.00012455405	0.00024605304	0.00031707864	-0.0001614798	0.0001222301	0.0015048546	-0.00036585343	0.000539869	-0.0002667572	0.0009336444	
-0.00024204762	-0.000906289	0.0010306324	-0.0008610773	-0.00030509348	0.0019772653	0.00011906099	-0.00178658	-0.0020074358	-0.0004251593	
0.0026586344	-0.0010798959	0.00019556726	0.00030422714	-0.000426235	0.0005157414	0.0011855834	-1.5453448e-05	0.0008519249	-0.00015259054	
-0.0003819265	-0.0011909553	-0.0013122949	0.002278902	0.0011326958	-0.001469162	0.00069228205	-0.00037093053	-0.00020222596	0.0003802929	
9.076779e-05	0.000980386	0.00033220326	0.00025454094	0.000470966	-0.00028133322	-0.00022835641	0.0011522175	-0.00029480734	0.0015461202	
0.001102472	-0.0006523436	0.00106085	3.7791255e-05	-0.0008049086	0.000944124	-0.0006134874	0.0014670717	0.000109078224	0.0007590828	
-0.00036516073	-0.0023606638	-0.0010098714	-0.00097449217	0.00015984078	-0.00096680975	0.0004854142	0.00068264245	0.0003598356	0.0006095315	
-0.0009823545	7.005743e-05	0.0010670676	-0.0007215796	-8.003809e-05	-0.00073078624	-0.0017783222	0.00031213372	-0.0030224028	0.0010387395	
-0.0015782713	0.001066576	-4.3270495e-05	0.0012859296	0.00024605737	0.00080687733	-0.00070216815	0.0014973042	1.0610192e-05	-0.00057735696	
0.0013157816	-2.318934e-05	0.00016391373	0.00027145402	-0.001030044	0.00044038024	-0.0009799247	0.0015819605	-0.00021261154	-0.00027415584	
0.0006695035	0.00078491087	-3.1955378e-07	-0.00079645263	-0.001876384	0.00060302654	0.0008115593	9.6400734e-05	0.0018232218	-0.0008547857	
-0.001244072	-0.0014884392	-3.9157774e-05	0.0011340163	0.00024869424	-0.0007365609	0.0011547393	-0.00013710049	0.00087635906	0.00022326932	
-0.0014918061	2.666636e-05	-0.00050758495	0.0008557363	-0.0005186145	0.0008991903	0.00030849074	0.00052955747	-0.0012507038	-0.0010798965	
-0.0021523435	-0.0006322696	0.0010773623	-0.0002986688	0.0007038501	-0.001935913	-0.0014583978	6.2438885e-05	-0.0010613068	-0.00032568866	
0.0017142636	0.000121375764	0.00033789844	0.0015776393	-0.00011045495	-0.00094558706	0.0008945265	0.00031866366	-0.0012691384	0.0004248261	
0.0013243838	0.000100494915	0.0004955597	-0.0025822711	0.00058405753	0.00056435436	0.00071704626	0.0009188955	-0.0001949667	-0.00085322844	
-0.0018741152	-0.00067559426	-0.00092092	0.00031678312	-8.848837e-06	-0.00022160113	-0.00075420894	-0.0008575939	0.0009744559	-0.00054620224	
-0.0011859725	0.0007942204	0.00027914922	6.416504e-05	0.0014242384	-0.00078849785	0.0010208647	-3.5985813e-05	-2.8317836e-06	-0.0019025669	
-0.0012786363	-0.00019361114	0.0005219655	0.0009654736	-0.0005821055	0.00027254515	-0.0011284966	-0.00024093615	-2.989861e-05	-0.00022999173	
8.527191e-05	0.00076518365	6.117719e-05	0.0007674572	0.0011013558	0.0005370943	0.0005646066	0.0012492226	0.001178643	0.0013735356	
0.00040256552	-0.0010502086	0.0008142747	0.0019758283	-0.0009192118	0.0020237076	0.0007795736	-0.0005565158	0.001326185	-0.00049778976	
0.0004048808	0.0013692054	-0.0010076045	0.0016239927	0.00067253417	-0.0006278844	0.0009489298	1.2276927e-06	-8.71502e-05	-0.00038712056	
0.0009387183	-0.00019830899	0.0014383625	5.755663e-05	-0.0006796212	0.00044047635	0.0006167946	-0.0012974303	0.00011335167	0.001853442	
-0.0017607198	0.0017114464	0.00076660415	-0.001022129	-0.0015344215	-0.00062828837	0.0007975895	0.00045101327	0.00020287583	-0.00072676054	
0.0013109465	0.0004962819	-0.00061380386	0.0005622015	-0.00025729946	0.0006122833	-0.0011240814	-0.0017011347	-0.00043826996	0.00036775667	
0.0014816347	0.00029294932	-0.00042030998	-0.0018866099	-0.0014462494	-0.0009462519	-0.0006585964	8.658533e-05	0.0019411423	0.0012938824	
-0.00051085145	0.00043787915	0.0006599585	-0.0002229507	-9.477269e-05	0.00017573661	-0.0016311279	-0.0005348981	0.0005666307	0.00066325715	
-0.0021540478	-1.1929781e-05	-0.00087599776	-0.0020872224	-0.0009571325	0.0023412926	0.0010749627	-0.00014708143	0.0021527377	0.0017555043	
0.00037596043	-0.0009543695	-0.00079015887	0.0013063179	0.00047305424	0.0003686578	0.00019823408	-0.00060502795	-0.00068227085	-0.0018956045	
0.0009162507	0.00051069347	0.00041097787	-0.00058942207	-0.00093528524	0.0010227753	-0.00042070347	-0.000739818	0.0010140422	-1.6093833e-05	
-0.001799666	-0.0017139628	-0.00053389027	0.0012871891	0.0012421773	-0.00015437749	-0.0009709343	0.00039415612	-0.0010002176	6.7539213e-06	
0.00032864785	0.0009013827	0.001271013	0.00078940357	0.00063601317	-0.00010104223	0.00041137295	-0.000114082235	0.000863028	-0.00034749156	
-8.057215e-05	-0.00021008874	0.0002209763	0.00040389033	-0.00010898618	-0.00013353626	-0.00026917487	0.00084230717	-0.0008624107	0.0021550162	
-0.0019842999	0.0019642503	-2.2796361e-05	0.0011252513	0.00072486635	0.0014084093	0.0009099054	0.0010733628	-0.0018778504	0.00033135666	
0.00016233909	0.00038026078	-0.0021355934	2.4802212e-06	-0.0011148842	0.000677296	0.004441019	0.0016724308	-0.00090365077	0.0006102268	
0.0005776775	0.0007125768	-0.00089770945	-0.00039841895	-0.0022235408	-0.00087014894	0.0023752837	-0.0019245484	0.00044967543	-0.0011658891	
-0.00059660187	-0.00054734165	-0.0003351761	-0.0001703561	0.0008815527	-0.001308825	0.0045643263	0.00056407694	-0.00051130226	-8.91221e-05	
-3.6603295e-05	0.0015924916	0.0012551354	0.00068893644	0.00038111454	0.00028040883	0.0028722864	-0.0002510445	0.0009952998	-0.001328743	
-0.00020332918	-0.0015916163	0.001506635	0.0008549375	0.00018006748	-0.00025242392	0.00082910695	0.0015630567	9.508217e-05	0.00053443905	
-0.00058311963	-0.0013765424	-0.0010134694	0.0018228672	0.0010867747	0.0003259797	0.0021022577	-0.00143052	-0.0005520567	-0.0013107685	
-0.0017349727	-0.00032161124	0.00069687027	0.00031807792	0.00059173006	-0.0012931003	0.0020391229	-0.0011336786	0.00056027266	-0.0005212081	
-0.00023893411	-0.00046250183	-0.0012420946	-0.0007079826	-0.00017213475	-0.0007323544	-9.445503e-06	0.0019243519	-0.000645368	0.0012288636	
-0.00079049024	-0.0018172155	-0.0013893215	-0.0008644794	-0.0005444196	-0.00091620063	0.0015245047	-0.0011138988	-0.0018616247	0.00027816836	
0.0006937123	0.0023661377	0.00019139911	-0.0001932765	0.0011664083	0.00080445234	-0.00017480506	0.0012146077	-0.0008032739	0.00033773106	
-0.0016618723	0.00072137313	-0.00022118376	-6.23867e-05	-0.0006328583	-0.0010875647	-0.0033961697	-0.0018769837	0.0010754915	0.00024377214	
-0.0007452691	0.00043700324	-0.00015379825	-0.0014074693	-0.00023435043	0.0011268923	0.00055585895	8.622374e-05	-0.00022019102	-0.00031216003	
0.00042213136	0.0011229909	-0.0005465815	5.1427633e-05	-0.0006894624	-0.0014253958	0.00101725	0.00067157956	0.0010126551	-0.0013366956	
-0.00037299364	-0.00049061363	0.0010221929	-0.0008860895	1.0027554e-05	-0.00034661085	-0.0015857434	5.347373e-05	0.0005932268	0.0013265659	
8.290436e-05	-2.6981379e-05	0.0007391572	0.00164623	-0.0005582472	0.0014107521	-0.00010328625	-0.0005690753	-0.0013440414	0.00077700947	
0.00044279647	-0.0003997382	-0.0007063872	-0.0004284271	-0.00090837566	-0.0017094461	0.0012077938	0.00024016402	-0.0003979843	-0.0009000114	
0.00018919283	-0.00047719397	0.0002621106	-8.248791e-05	0.0008040541	-0.00033582043	0.0010619547	-0.00042224134	0.0008381908	-0.00050054095	
-0.0003739561	0.0011441965	0.00094810256	0.00024383604	-0.0006630295	0.0003304387	-0.0029178534	0.00071712374	-0.00021149436	0.0008939674	
-0.00039262127	0.0012851253	-0.00042011967	-0.0025656566	-0.00044898505	-0.0023815408	0.00103097	0.0011321126	-0.0026868875	-0.0004193927	
-0.0002461754	0.00010226629	-0.0006298411	-0.0010806673	0.00018459378	-0.00041105683	-0.00019924463	-0.0011147441	-0.0016543042	-0.00023023784	
-0.0003814264	0.00016334491	0.0011703874	9.235336e-05	-0.00207497	-0.0020070823	0.0013949126	-1.0274457e-05	-0.0012530127	0.00081148586	
0.0013012578	0.00054751424	8.441908e-06	3.3818174e-05	-0.002017313	-8.242825e-05	0.00023532144	-0.00085807784	0.0003158981	-0.0005012147	
-0.0004529709	0.0014870506	-0.0002202242	-8.5365195e-05	-0.0015392894	-0.00036030382	0.0004411583	-0.00070246693	0.00030064877	-0.0005295091	
0.0017688305	-0.0021756198	-0.00023067341	-0.0005758771	-0.00039608256	0.0004968633	0.0006810848	0.0001145404	0.00025653912	0.0004188588	
-0.000612086	-0.0006078931	-0.00044052166	0.0014743005	0.00023904412	-0.0013119571	0.0010403267	0.0011759487	0.00040131412	-0.0007223799	
-0.0013049112	-0.0013951248	0.0005657366	0.0009484871	-0.00055278954	0.00052415894	0.0026203762	-0.00023982563	-0.0009808161	0.0005628027	
0.0004602188	0.0010425533	-0.0028309375	-0.00021031381	-0.0006752022	0.001335842	0.0052210586	-0.00048552774	0.0006411128	0.0010786711	
-0.0011379399	-0.0022575238	-0.0019623714	-0.0020138936	0.0024881058	0.0011333504	0.004603913	0.0003905962	-0.001909934	-0.00034854497	
-0.0011916525	-0.0005696397	-0.00087389315	-0.00037841176	0.0014861115	-0.003086881	0.00527484	-0.0013219955	-0.000514031	0.0022658943	
-0.001223989	-0.0009998231	0.0011560352	-0.0007219045	-0.0022778467	-0.0038149427	0.0060132993	-0.0011799615	-0.004065875	0.0019002976	
-0.0029434806	-0.0009764396	0.0020884268	-0.003025654	0.00091956265	-0.0045040674	0.00973598	-0.0007086048	-0.0014115801	0.001749347	
-0.0018295202	-0.0036636791	0.0008404922	-0.0016789496	0.0023370015	-0.003730184	0.009655906	-0.00095200446	-0.0016327077	-0.00015150038	
-0.0023659738	0.0008373683	-0.0008808366	0.0001484351	2.8184062e-05	-0.003765855	0.0049761664	-0.00014551196	0.0018733018	-0.00069139665	
-0.00011581584	0.0039644297	-0.00066177134	0.0005258641	0.0010699898	-0.0052870517	0.002759697	0.0006156387	0.0020476093	0.00038301307	
-0.00037917768	0.0023499518	0.0018016344	-0.0011765957	0.0011621279	-0.0050940374	0.0013077322	-0.00023245165	0.0017288071	-0.00013064817	
0.00045109354	0.001188125	-0.0025581869	-0.00031882792	0.00013926136	-0.0013988302	-0.0019491545	0.0047245775	1.9570405e-05	-0.0007069177	
0.0008731741	-0.0007969158	-0.0009908641	0.0020102912	0.0017608532	-0.004587431	-0.00048071204	0.0007497666	-0.00025044868	-0.00016323933	
-0.0005901301	0.0009183165	-0.00013226178	-0.0012711228	-0.0008173662	-0.004886248	0.0027517949	-0.0014780065	0.002696854	-0.0007788241	
0.0009786721	0.00075923005	-5.1738636e-05	6.4952e-06	-0.001257839	-0.0013837542	0.0008080424	0.001193029	0.0016593345	-0.0008891864	
0.0007930143	0.002085667	0.000633194	-0.00047639862	-0.000101304264	3.671953e-05	0.0014862975	-0.0008671891	-0.0004935134	0.00051704183	
-0.0016650097	0.00016977469	-7.334091e-05	-0.0006146513	-0.0005962566	0.0008522492	0.00025915657	0.0013434495	-0.00063163677	0.00021471942	
0.0005786574	0.0019331109	0.0010476589	0.00010657758	-8.59842e-05	0.000763229	0.0016444332	-0.001557004	0.00028522365	0.00058029796	
-0.0013707239	0.0003944124	0.0007423866	-0.00047264362	0.0003593391	-0.00061748666	-0.0021178436	0.00020381386	0.0004814959	0.00074291514	
-0.0012592935	8.153773e-05	-0.0007816336	0.0005512951	0.00087181694	-0.00059285853	0.001401025	0.00056792924	-0.0005744744	-0.00093787455	
0.0009018042	0.00014394143	8.689819e-06	0.00036903622	-0.00024362645	-0.00015654766	0.0006090977	0.00069120416	-0.00048702385	-0.0011469643	
0.000579488	-0.00011004513	0.0004231597	0.00061154686	-0.00030544854	0.0001577878	0.0015548931	-0.0013089738	-0.0010724565	0.0010919702	
0.0003350182	-0.0006964877	0.0013890367	0.0021714806	0.000915334	-0.00010913818	0.0016633221	0.0003703779	-0.00040891324	0.00021242334	
0.00061813917	0.00049553975	0.0015136001	0.0007135317	0.0007130488	0.0008637411	-8.000637e-05	0.00024992737	-0.00019976406	0.0008139679	
-0.00033831818	0.0007238424	-0.0016891644	0.0005302376	-4.1579726e-05	0.0015672123	0.0018869729	0.001002928	0.0016539004	0.0013962489	
-0.00054963434	0.0008986697	0.00040336992	-5.334626e-05	0.00065077044	-0.00044811936	-0.00029512108	0.0010136393	-0.001028597	-0.0020369228	
-0.0015948218	-0.0005414469	-0.0015112819	-0.0010283372	0.0023633272	0.0003020146	-2.8599503e-05	0.0009417794	0.0010339966	0.00010948077	
-0.0014528129	-0.0013996012	0.0008165882	-0.0003236556	-0.00029904634	-0.001057028	-0.00056869333	0.00021556388	-0.0008424691	-0.0019566645	
-0.0013250534	-0.0007394555	0.0016176176	-0.000657481	0.00083520147	-0.0025781628	0.0042416127	-0.0011523347	-0.0006959212	-0.001425617	
0.0012694524	-0.0028082584	-0.001471276	0.0011106791	-0.0024296467	0.0003490178	0.006694578	-0.0005545488	-0.0011090396	-0.0010513313	
5.7352954e-05	-0.0015656607	-0.0036197822	-5.0489525e-05	-0.0007401741	0.003127184	0.00854827	-0.0020204734	0.00123908	-0.0022049248	
-0.0007736372	-0.0058053364	0.0005682195	-0.001162409	-0.00012905098	0.00055064226	0.01121254	-0.00085572706	-0.0025353567	-0.0017406039	
-0.0028423807	-0.0058504543	0.0057425266	0.0025259014	-0.0024366605	-0.0066156173	0.010003767	-0.0014819467	-0.004555586	0.00045607498	
-0.004556449	-0.009646567	0.010770868	0.0034001742	-0.0020836706	-0.008632562	0.016130038	-0.0028611266	-0.0041194623	0.0005182061	
-0.00715329	-0.0050131194	0.014185741	0.0031567249	0.00026453502	-0.008579436	0.013706748	-0.0017130589	-0.0046080523	-0.0014953008	
-0.0066682394	-0.0033042887	0.012672211	0.0037287879	-0.0003589565	-0.005846774	0.007683042	-0.004194436	0.00016832637	-0.0010500429	
-0.0046210126	-0.003818383	0.007155438	0.004965271	-8.745676e-05	-0.013072952	0.0071844766	-0.002197951	0.0025511452	-0.0005627065	
-0.00593628	-0.0033129258	0.0061546694	0.0036482275	-0.002222453	-0.017411012	0.011707098	0.0023291255	0.0021326789	-0.0020490652	
-0.002101035	-0.0015022163	0.0016813955	0.0026120464	0.0023279511	-0.01733116	0.012468675	0.0008461721	0.0032816178	-0.00050078705	
-0.002118691	-0.0011572075	-0.0028034043	0.0045525674	-0.0006124803	-0.016833011	0.014417301	0.005673454	-0.00039444814	0.001646747	
0.0015599319	0.0023880415	-0.009629266	0.006350443	-0.0025287047	-0.016019084	0.016251324	0.0022752774	0.0009983458	0.0005981269	
0.0009120962	0.0018471335	-0.0071977335	0.0047068917	-0.0025646233	-0.011400136	0.006696094	0.0003490951	0.002686851	-6.133254e-05	
0.0010798882	-0.0010953258	-0.004382929	0.0016228615	0.0010542287	-0.008991495	0.009380481	0.00039354136	0.00132724	-0.0021517538	
-0.0025567168	0.00370583	-0.002108449	-0.0018440554	-0.0011142746	-0.0061130486	0.0075779837	0.0015865602	0.0018241269	-0.0024596024	
0.001417518	0.0031424733	-0.0018542261	-0.0008092985	-0.00066684897	-0.005795244	0.0050429697	0.00060541334	-0.00042175569	-0.0004936977	
-0.0026358839	0.0038752493	-0.0021175472	-0.00049365975	-0.0024590034	-0.0034215795	0.0023140553	-0.00011535286	-0.00066618156	0.00065261946	
-0.00022826859	-0.00010326055	-0.001291039	-0.00049779774	-0.00042141305	0.00048400144	-7.00012e-05	-6.854616e-05	0.0008385422	-0.0006672318	
0.0011102187	0.00050710794	0.0006731523	-0.0012338564	0.00042271972	0.00010784034	0.00048953	0.001052266	0.0018292285	0.001306201	
0.0003967315	-0.000113179325	0.0014730612	-0.0010822499	0.00042010733	-0.0010407196	-0.0008372844	-0.0010248338	0.0012338511	-0.0004355249	
9.49402e-05	0.0012410455	0.0012371232	-0.00047703157	-0.0006421287	0.0007553174	0.0002102805	0.0012583055	-0.0009544856	-0.0016428885	
0.00033804215	-0.00093102606	0.00074112	-0.0013976626	-0.0006297679	0.000114872775	-0.0022308584	0.00032558694	0.00074226724	-0.0015747781	
0.0016125649	-3.3374763e-05	0.0018487346	0.0004969586	0.0012502423	0.0025164427	0.00011951811	0.00011722364	0.00029435652	0.0012942344	
-0.0012938888	-3.7287788e-05	0.0007652592	-0.0003905745	-0.00039079247	-0.0014271043	0.00015243521	-0.0029425565	0.0016931982	0.0010770101	
-0.0009854034	-0.00062533555	-0.00068654586	0.0009846915	8.961952e-05	-0.000109190165	0.0012203852	0.00079844805	-0.0014421955	-0.0022254153	
0.000114173235	-0.0022783864	0.00026619175	0.0019358565	-0.0010912075	0.0016095458	0.00040088446	-0.002075757	0.0012531802	0.0011203485	
-0.0005502579	-0.0020855556	0.00070348504	0.0033804933	-0.0017540754	0.00081813656	0.003136524	-0.00077545084	-9.484461e-05	-0.0010117913	
-0.00039890868	-0.0051721474	0.0012448999	0.0011271898	-0.0037847783	0.0011529954	0.0063416925	-0.0013798615	0.00017684797	-0.00048398983	
-0.002735223	-0.007438819	0.0047047506	0.0063200467	-0.00047686597	0.0023461326	0.0035002467	-0.00066117005	-0.0034053572	-0.0006982477	
-0.00506446	-0.012372816	0.0069197016	0.010940703	-0.0013198691	0.004110775	0.0034871532	-0.0023143254	-0.0044586314	-0.0020119548	
-0.0056422423	-0.01724991	0.011562946	0.01625926	-0.00068829244	-0.0030745927	0.006799765	-0.0044698347	-0.004526635	-0.0017205062	
-0.0055852123	-0.020438405	0.011316807	0.02045016	-0.0005970183	-0.007435184	0.0061453804	-0.0036609308	-0.0031831465	0.006895601	
-0.010134328	-0.015617165	0.00655373	0.019856371	0.0019774402	-0.006733673	0.011391042	-0.005415873	-0.0010055684	0.00406674	
-0.005590307	-0.014477636	0.0041651484	0.016580958	-0.00012531331	-0.008453301	0.0049293777	-0.007364174	0.003631083	0.003909316	
-0.0053708493	-0.0027526487	0.005705481	0.00787787	-0.00418486	-0.004109081	0.0020426183	-0.0044273124	0.010730274	-0.0010583965	
-0.00854826	-0.0070219375	0.008708388	0.00822534	-0.0101491315	-0.011786618	0.006801029	-0.0042245286	0.015166974	0.0017139425	
-0.0070289816	-0.008415271	0.003918403	0.00048492668	-0.0067613292	-0.01659348	0.011389135	-0.0017971512	0.018032588	0.005259593	
-0.005347294	0.0025321336	-0.0017347654	0.0013836352	-0.0018980664	-0.020391036	0.017349308	-0.00173834	0.009563343	-0.0014755796	
-0.008444496	0.0032849351	-0.00076712825	0.005390922	0.00069064053	-0.014964231	0.014831502	-0.0026583348	0.008500068	-0.0063652666	
-0.011738992	0.004073748	0.0016810603	0.004561258	-0.0012493377	-0.01686048	0.016938074	-0.00089456735	0.007889236	-0.0041397805	
-0.007294981	0.013784456	0.00064301316	0.0010134106	-0.0009657413	-0.014641385	0.013183264	-0.0038104537	0.0048681856	-0.0010765247	
-0.0006441876	0.0064727664	0.0029105144	-0.0012868921	-0.0015290906	-0.012176316	0.011680441	-0.0048266775	-0.0019189196	0.001828075	
-0.0025434424	0.005827037	-0.0010929771	-0.002348313	-0.0060608084	-0.0072222147	0.009435922	0.001763796	-0.0016602883	0.0017854536	
-0.0013141532	0.004718317	6.8868685e-05	-0.00093748805	-0.0008702792	-0.0071591404	0.005950068	0.002700133	-0.0014426323	-0.00049296016	
0.00010419276	0.004828882	-0.0017746595	-0.0018831906	-0.0007374183	-0.0017849156	0.0024620062	0.0010704827	-0.0006201701	-0.00072975835	
0.0010796749	0.0007618113	-0.0004452993	-0.00024806347	-0.00044565738	-0.0022975358	0.00011707922	0.00045899893	0.0020287882	0.0011080876	
0.00044567953	0.000778181	-0.0006375032	-0.000676627	0.00096741243	-0.0016072411	0.00031832146	0.0008738058	0.0015540696	0.0016880622	
0.0003092653	0.00015556694	0.0008434402	0.00012568623	-0.0013521132	0.0005128468	0.00017847803	-0.00085513125	-0.0020079103	0.0012818233	
2.4981793e-05	0.00013255516	0.0016316624	0.00039427791	-0.0006347784	0.00013818816	0.0007023143	-0.0008406425	-0.00013034078	-0.00034387142	
-0.0021243864	0.0010671328	-0.0013366386	0.0027722274	-0.00051356165	0.0019891309	0.0011482103	0.00054584735	-0.0009959713	0.00082289474	
0.0007159798	0.0019020953	-4.7600854e-05	-1.25773895e-05	-0.000392064	0.00074828905	-0.00076846743	0.000117355085	0.0022566938	-0.0016935252	
0.0017445101	0.0006528228	-0.0010817356	0.00092337694	0.0006091092	0.0005092083	-0.0010628568	-0.00073995895	0.00047738303	-0.00041423843	
-0.0014699841	-0.00073328457	-0.0027489425	0.0009099036	-0.0008486452	0.0012966774	0.0032901135	-0.0003517945	-0.0010088542	-0.00075470743	
-0.0010131453	-0.0019571763	-0.0026482053	0.0028555116	0.00062483223	-0.001998172	0.0010082438	-2.3710136e-05	-0.00027571936	-0.0026424867	
-0.0027033973	-0.0015409437	-0.0015561357	0.005378561	-0.003092094	0.0042218254	0.0049450793	-0.002625073	-0.00075645006	0.0011239533	
-0.0035247826	-0.0048059905	-0.0013280557	0.009988174	-0.00087067345	0.0038432528	0.0044005336	-0.00230597	-0.001154905	-0.0031685634	
-0.00880776	-0.010332066	0.0062342957	0.017146943	-0.00032132506	0.006893441	-0.0015989913	-0.0013941679	-0.0010780323	-0.0020940583	
-0.008506553	-0.020038255	0.011184652	0.014946577	-0.00013663385	0.0077180974	-0.0018883517	-0.0007356288	0.0015795948	-0.0048801657	
-0.0125904055	-0.024244567	0.01823475	0.019249206	-0.0013436629	0.0018122054	-0.0007675057	-0.005228741	0.009438426	-0.0017894944	
-0.013487613	-0.025824482	0.01425694	0.013055634	-0.002471865	-0.0015847353	0.006113181	-0.014662966	0.019462299	0.0014205347	
-0.015121581	-0.019337779	0.012770414	0.01706582	-0.003679412	-0.0038989808	0.010406596	-0.022856204	0.020568097	0.0033429556	
-0.006124646	-0.009185826	0.0087607205	0.01704466	-0.0098904045	0.00281553	-0.0039750137	-0.032259982	0.023168541	0.005007812	
0.0045022657	-0.0026714175	-0.0009371815	0.008473806	-0.009105944	0.0011891145	-0.00063876016	-0.03371969	0.030093452	0.0069159274	
0.005071265	-0.008878807	0.002303301	0.0053588827	-0.009959315	-0.00831589	0.0054746657	-0.024689475	0.02929235	0.004199462	
0.003940933	-0.016112046	0.00021561405	0.009659965	-0.0087352665	-0.009557438	0.006220701	-0.02678312	0.03163206	0.006628072	
0.0042484514	-0.004599938	0.0009638976	0.0009275684	-0.0036992873	-0.007660542	0.008233447	-0.023818282	0.032366835	-0.0034484982	
-0.00278764	0.012132427	-0.002211622	-0.0009405061	0.0018498085	-0.0039631445	0.004616664	-0.022220109	0.028085304	-0.014353344	
-0.005255807	0.0151478285	0.004266694	-0.014858484	-0.0032370056	-0.0058348645	0.008795151	-0.013108582	0.021079274	-0.00585027	
-0.013834247	0.009552807	0.0032087022	-0.0155489	-0.00027672027	-0.008764051	0.0048722476	-0.004543497	0.01215765	0.005221362	
-0.005722207	0.002017245	0.010417034	-0.0047505116	-0.002457444	-0.009466316	0.0056809965	-0.0093426965	0.0073700706	0.00926703	
0.003388957	0.0037234288	0.005071531	-0.0063884524	-0.0062433975	-0.002820437	0.0005202507	-0.0024874383	0.005995353	0.003971912	
0.0036622898	0.0052039223	-0.0017482492	-0.0073672147	0.0009825878	-0.0031125634	0.00062445196	-0.000884004	0.0013726556	0.0013511995	
0.004379573	0.0016445412	-0.002094358	-0.0028172918	0.0010493605	-0.0030047114	0.0010722972	0.0020619775	-0.0003401317	-0.0003925796	
0.002247974	0.0013398372	-0.0012871168	-0.0008372456	0.0031284057	-0.00024232612	-0.00011450676	0.000206128	-0.00053645583	0.0017392309	
0.000290926	0.00035749978	-0.0006520487	-0.0014512814	0.0006933593	0.0016428634	0.0019223493	0.00063293305	-0.0016567964	0.0010269021	
0.00095695676	0.00038318126	-0.0012062229	0.00014851325	-0.001398389	-0.0008299501	-0.00039017072	0.00041825857	-2.3119414e-05	0.0006830296	
-0.0015236186	0.00011647254	0.00010343441	0.0006942051	0.001002096	-0.0012603047	-5.2502205e-06	-0.00057965197	0.00035723613	-0.00197185	
-0.001521232	2.1406611e-05	0.00031658958	0.00053938583	0.0014682998	-0.00021511869	-0.00019327522	-0.0011969926	-0.0013149686	-0.0015535407	
-0.00079016265	0.0019563464	-0.0027392467	-0.0010848028	-0.001066803	0.0011733671	-0.002096443	-0.0019555602	0.0004188504	0.00032976043	
-0.0004845521	-0.00057583116	-1.4298573e-05	0.0022884312	0.0018309377	0.00022639368	0.00050990866	0.0006606698	0.0004931462	-0.0008037762	
-0.00056262745	-0.0013209567	-0.0022142478	0.0007658739	0.0028173407	-8.70808e-05	0.0015025417	-0.00059572764	-0.00024557396	-0.0040161135	
-0.002978026	0.0023640955	0.002356684	0.003177695	-0.0021280956	0.00065609644	0.0017622823	-0.0023500589	-0.00056741	-0.0026758127	
-0.006516692	-0.003105738	0.00047307846	0.0092198895	-0.002876125	0.00057008065	0.0036499242	-0.0021897217	-0.0009763246	-0.0029391688	
-0.008319437	-0.0072476068	-0.0037809743	0.0161088	-0.0011447099	0.0025638554	0.0025661385	-0.004855429	0.004928123	-0.0006138209	
-0.009547297	-0.014734273	0.005941184	0.015546832	-0.0003506684	0.004758157	-0.003529602	-0.0029263657	0.00813319	-0.0022125207	
-0.009801957	-0.020362733	0.0028228106	0.009389709	0.0015900129	0.008188097	-0.005467742	0.00087611744	0.009569935	0.0034103156	
-0.011708824	-0.02008011	0.00297842	0.008894651	0.0046203453	0.005337487	-0.0053915526	-0.0075386344	0.009418761	0.013454779	
-0.014597976	-0.026101846	0.0020430866	0.005895223	-0.0033117225	0.0025754834	0.0070958403	-0.01376315	0.020394415	0.021052904	
-0.0068922457	-0.020768804	0.0034015377	0.006346128	-0.020819545	0.006435037	0.00091202394	-0.01987564	0.026738644	0.026852999	
0.0044276942	-0.009415298	0.004583835	0.009917483	-0.02790353	0.00600272	-0.015756393	-0.029431585	0.025210718	0.030591747	
0.0068227183	-0.005228325	0.0037643076	0.01294359	-0.024795806	-0.0050828503	-0.010459829	-0.0294604	0.01678859	0.034041677	
0.012245415	-0.011360609	-0.0030858205	0.016216332	-0.018832624	-0.006957302	-0.0014820932	-0.03431482	0.006750031	0.040189307	
0.0080902055	-0.017133778	-0.0037920824	0.015828978	-0.011741047	-0.006809812	-0.008985728	-0.0348038	0.015993448	0.04399295	
0.008169689	-0.007322639	-0.0016900816	0.0071636382	-0.003570537	-0.0106559275	-0.011719197	-0.025492864	0.018137395	0.031864226	
0.0039584776	0.008386	0.006137094	-0.0016077991	-0.0020481683	-0.0075827474	-0.011510357	-0.020413222	0.012082468	0.0105045475	
0.0029437158	0.006059877	0.00085254066	-0.014467885	-0.0009980233	0.0043493863	-0.0040625604	-0.010896963	0.009875595	0.008738197	
0.0027867814	0.0014089746	0.0011189308	-0.019449359	0.00028458764	0.011600709	-0.0043389327	-0.011975327	0.009965345	0.011090813	
-0.0015449355	-0.005506826	0.0071087684	-0.015838271	-4.600369e-05	0.011304094	-0.005236433	-0.010275487	0.0072078346	0.009376185	
-0.00060314336	-0.0016611188	0.005455181	-0.0060518417	0.0014361942	0.0096718855	-0.0074585713	-0.0057276515	0.0041246368	0.0076950733	
0.0006746643	0.0005754265	0.0010467225	-0.008856174	-0.004599251	0.00636247	-0.0030427442	-0.0019028465	0.0024204433	0.0029282428	
0.0011545004	0.0007812121	-0.00060409727	-0.0027243914	-0.0039612106	0.0061597135	0.00040223642	-0.00027695743	-0.002729742	0.0041205073	
-0.0023090392	-0.0019829792	-0.0005125205	0.0006027945	-0.0024230394	0.0066190464	-0.0010042189	-0.0017236063	-0.0010507717	0.0021722696	
-0.0008039951	-0.0017655272	-0.00031946323	0.0014538718	-0.0011021654	0.0018446866	-4.86142e-05	-0.0017148968	0.00025790225	0.000390524	
-0.00093656435	-0.00094926875	-0.00044630314	-0.00085071207	0.0005408947	-0.0010297968	0.0014498369	0.0010432252	-0.0016531836	0.0018658813	
-0.00057830114	-0.000726483	-0.0012903764	0.0011180148	0.0005944827	-0.0022702438	0.00018140112	0.0012502321	0.0006253216	-0.00048270467	
0.0012097835	-0.0006553612	-0.00019676065	0.0011174373	-0.0014842158	0.0017284814	-0.0027261828	0.0004383537	-6.1469604e-05	-0.000554022	
-0.0019783324	0.00039958602	-0.00064707146	-0.0013431159	0.0011453273	-0.00017756247	0.0009888016	0.0026351	-0.0018243092	-0.0032908341	
-0.0022872607	-0.0016599377	-0.0014420033	0.0018694302	0.00024510897	0.0018248585	-0.0006076131	0.0040883697	-0.0007573339	-0.00026782174	
-0.0011828269	0.00053227943	-9.3427494e-05	0.0032959764	0.0022534276	-0.00017723466	0.0004307352	-0.00067604677	-0.003921273	0.0007970529	
-0.0022580405	0.0008193378	0.0016076975	0.008833757	-0.0019743908	-0.000571422	-0.0036167514	0.00020615738	-0.0031652853	-0.00044046674	
-0.0049164155	-0.0035361522	0.0025381523	0.011077141	-0.0013251534	-0.0019734371	-0.0019063342	0.0007281881	-0.0011692594	0.00028103762	
-0.009512887	-0.006765531	0.0024149613	0.012433522	0.001400564	0.002380457	-0.0046528447	-0.0016482667	0.0073412363	0.00074929115	
-0.0014847262	-0.013571932	0.005066903	0.011528935	-0.006528714	0.0029895524	-0.014694606	0.00035672425	0.009308646	0.008128814	
-0.0028931485	-0.017733686	-0.0071023153	0.002899235	-0.0040024943	0.004421817	-0.01771653	0.004636418	0.009206004	0.019624723	
-0.0053902655	-0.018602347	0.0006854242	-0.00081962335	-0.0028238916	0.002339226	-0.005885712	-0.0050973594	0.0041100895	0.031358033	
0.00096864556	-0.016299253	0.002829725	-0.00018453278	-0.016682016	-0.006835703	-0.0030226696	-0.0051643993	0.0010609694	0.040216193	
0.016134774	-0.007593056	0.00054639595	0.00509338	-0.03133267	-0.0022004992	-0.0131970905	-0.002237861	-0.012491261	0.047288556	
0.025375688	0.00056087715	-0.0053466903	0.016829314	-0.036062256	-0.00842552	-0.024350801	-0.010425761	-0.016505472	0.057817303	
0.021133345	0.005254134	-0.0013517193	0.022882748	-0.03762503	-0.015094009	-0.022047685	-0.0127423415	-0.02025893	0.06044694	
0.023986101	-0.0025529594	-0.0053661764	0.023618316	-0.038108107	-0.018461477	-0.015778385	-0.012714637	-0.02077481	0.0627695	
0.016627446	-0.0037489214	-0.010783449	0.01771647	-0.02386546	-0.0039979713	-0.034116052	-0.0067135682	-0.012543112	0.057644058	
0.010342157	-0.0008119046	-0.010736145	0.010365877	-0.007895585	0.0022338147	-0.028467126	-0.0073511517	-0.009399975	0.04768326	
0.009335935	0.0056036953	-0.0006856306	-0.0032127958	-0.006763435	-0.0026447298	-0.017523978	-0.008735378	-0.0035017289	0.03028189	
0.009727821	-0.0017102921	0.003707253	-0.011055222	-0.0028591554	0.011945329	-0.014154464	-0.005496579	-0.007313296	0.016543137	
0.008225769	-0.00836395	0.0031445595	-0.013918272	0.008322876	0.020602228	-0.0135429045	-0.010878892	-0.006061718	0.008943338	
0.0032520944	-0.018112058	0.006644187	-0.014542969	0.0075520836	0.02475595	-0.0110919885	-0.012107111	0.0004946724	0.012864407	
-0.0009352241	-0.008759815	0.0030127396	-0.007963865	0.0044518514	0.023354536	-0.010679074	-0.01149388	-0.0002538803	0.008734737	
-0.004604567	-0.004523464	0.0010376698	-0.007995965	-0.01146782	0.022452056	-0.0056216153	9.90547e-06	0.0030065654	0.0062686633	
-0.00027620685	-0.0016051325	-0.0008860687	-0.004892731	-0.012146046	0.02171238	-0.0018410417	-0.0018254061	0.0024146773	0.003071896	
-0.0012186302	-0.000918439	-0.0024636134	-0.0026836144	-0.0044292174	0.014370665	-0.0007418968	-0.0017284652	-0.0029839214	0.0020049305	
0.0007990375	-0.0017259872	-0.00058498525	-0.00040526938	-0.0018708202	0.0028578404	-0.0003881307	-0.0041865767	-0.0007420933	0.00161604	
0.0011614297	0.0017900652	-0.0002318663	0.0004032944	0.00077507994	-0.00017788606	0.0005553762	-0.00048548623	-0.00074339093	0.00056251383	
0.0005451392	0.001573596	-0.0009887927	-0.00055984023	-0.00014421773	-0.000586083	0.0010068372	0.00035857467	0.0013505615	0.0021098952	
0.0013947957	-0.0002734928	-0.0018919015	-0.00039677252	-0.0011433905	0.000986666	0.000639382	0.001483991	-0.00026948136	-0.0018352369	
-0.0017835962	0.00056185655	-0.00041266016	0.0009825925	-0.0014017939	0.00046950742	-0.0028532094	0.0003294089	-0.00035405092	-0.0005847913	
-0.00040536345	-0.0027416549	-0.0019269696	0.0004933124	0.0005844683	0.0030029274	-0.0021451393	0.004304488	-0.0019238772	-0.0001256748	
-0.0041572857	-0.0009396507	-0.0023924632	0.0013349996	-0.0006700608	0.0033207168	-0.0031532699	0.005519556	-0.0021966386	0.0028908188	
0.0042209085	0.000876014	-0.003089922	0.003941189	-0.002588227	0.00020255226	-0.0033998038	0.00629825	-0.0035078037	0.0020198447	
-0.0018504554	-0.0030745405	0.0021533815	0.0065624625	-0.0043901405	-0.0011460539	-0.004289554	0.006859439	0.0010370781	0.0016068353	
0.0027175494	-0.007743681	0.005404183	0.004778622	-0.006170981	-0.0038580864	-0.01134924	0.0010455396	0.0056112413	0.007022327	
0.0076795453	-0.012110594	-0.0016221656	0.0025341148	-0.0037229185	0.002823413	-0.01767441	0.0027835967	0.002030005	0.016989147	
0.0064848564	-0.018367046	-0.0044914824	-0.0048150676	-0.0064403564	0.0012911086	-0.015375694	0.008731305	0.009054624	0.022034688	
0.010466447	-0.0151922265	0.0070138643	-0.012461382	-0.012341599	-0.011116281	-0.010719047	0.008119785	-0.0014338742	0.035799537	
0.018184412	-0.0063592508	0.011254458	-0.0147864735	-0.022136673	-0.011648792	-0.015416379	0.013942537	-0.022070296	0.045059003	
0.027938971	-0.0026992522	0.0063268584	-0.006230414	-0.031088531	-0.0012868011	-0.026772792	0.010629562	-0.02677623	0.05434961	
0.03002729	0.008717271	0.00080142287	0.007851416	-0.03598329	-0.011221817	-0.0256446	0.006302556	-0.02127364	0.043640982	
0.0151964	0.01996835	-0.001606613	0.021369416	-0.040249247	-0.018445045	-0.015492419	0.0074151075	-0.024851047	0.038952462	
0.013371193	0.005468895	-0.009801354	0.031387147	-0.037095044	-0.016170474	-0.02598836	0.012953929	-0.016842695	0.039357364	
0.0049380558	-4.318892e-05	-0.01205274	0.023381233	-0.019897176	-0.003969336	-0.03398236	0.01210501	-0.013333234	0.041758593	
-0.00080178585	0.0030047963	-0.014740736	0.015002618	-0.012393751	0.0054130554	-0.03325924	0.005933761	-0.009591015	0.041188363	
0.0076762154	-0.010396447	-0.008946621	-0.0012875762	-0.0068265083	0.0070652715	-0.019875845	0.00456717	-0.008059203	0.036858797	
0.009899512	-0.009516675	-0.0026962813	-0.00788229	0.0005191802	0.011306913	-0.016253093	-0.00041516992	-0.0054653236	0.021690743	
0.01571704	-0.01223693	-0.0025981814	-0.015862895	0.005618587	0.022948815	-0.023395738	0.0020628616	-0.0067383717	0.012710585	
0.011049392	-0.011453555	-0.0027600434	-0.010784488	0.0058985846	0.03784667	-0.020179763	-0.0075995317	-0.008873882	0.003847385	
0.0034039347	-0.009331017	-0.0031333875	-0.0015492584	-0.0018187161	0.040722854	-0.011184927	-0.009262143	-0.010586395	-0.0003891972	
-0.0023128225	-0.0016409267	-0.0020973282	-0.004091233	-0.011934004	0.035135217	-0.007989526	-0.00047949655	-0.0030256875	0.0018745615	
7.065022e-05	0.0015875461	-0.0014374887	-0.00661406	-0.010838372	0.020714408	-0.0032832415	0.0008919089	-0.0005655151	0.0031959498	
-0.00037548319	0.00093266176	-0.0021170445	-0.0039609284	-0.004547437	0.014373713	0.00039742043	-0.000812763	-0.0037685265	0.0012649483	
-0.00015975666	0.0026808144	-0.0009918639	-0.0013582382	-0.00072618003	0.0005700493	0.0013726982	0.001846631	0.0038307835	9.172696e-06	
0.0017440593	0.0012497535	-0.00020425254	0.00029644722	-0.00032626363	-0.0013563524	-0.00036417303	0.0011420731	-0.00066857703	-0.00013512262	
-0.00043218618	-0.00096168276	0.0011082325	0.00061944616	0.00030522342	-0.00069969194	0.0004853269	0.0005116008	-0.00020399975	-0.0016749318	
1.3132728e-05	-0.0020980285	-0.0005751838	-0.0026454167	-0.0016179925	-0.00016163616	-0.00045249524	0.0021278658	0.000590448	-0.00075285445	
0.0004699789	-0.0005094122	0.00018518981	-0.0007747391	-0.0010110319	0.002122788	0.00085234497	0.0027603828	0.00052279385	0.0022213173	
-0.00071447785	-0.0026931013	0.0012520542	-0.0013614153	-0.0012489636	0.0030215753	-0.0026802293	0.005775359	0.0016716685	0.00053573726	
-0.0010054876	-0.002168478	-0.00082817575	-0.004166682	-0.0034347682	0.0003619494	-0.0048370105	0.010340477	-0.0008611661	0.0033451905	
-0.0007008948	-0.0010861179	0.0019447025	-0.00358298	-0.001400423	0.0010063356	-0.007895946	0.013936077	-0.0037374634	0.0014495559	
0.004130415	-0.0021489346	0.003236501	-0.004151417	-0.0071384306	-0.0017516811	-0.0058755726	0.0121673085	-0.0013966914	0.0038667556	
0.010466964	-0.004553197	-0.0014770958	-0.002639003	-0.005781506	0.0013109025	-0.0073323855	0.007685409	-0.0034906222	0.0075065726	
0.009666938	-0.006701404	-0.0069810534	-0.007936854	-0.0051677898	0.002752849	-0.007755202	0.006633048	-0.0010093602	0.015006497	
0.007227691	-0.009111347	-0.0050478294	-0.016388973	-0.0056524314	0.0035125942	-0.006396032	0.008637709	5.4102216e-05	0.02276699	
0.017330771	-0.012062967	0.009654163	-0.017443696	-0.006270285	-0.006811442	-0.014825412	0.01170804	-0.01498721	0.03341827	
0.024133544	-0.008700949	0.004276489	-0.019501114	-0.016101075	0.0028178645	-0.022886178	0.013202857	-0.020679398	0.04725647	
0.027352754	-0.0040216395	-0.0052369563	-0.013016991	-0.023091322	0.003277292	-0.026086863	0.01654019	-0.019327197	0.04566653	
0.015843192	0.015795352	-0.0067852256	0.0064690346	-0.029130595	-0.008335156	-0.009752996	0.013391803	-0.016230281	0.023946766	
-0.00376013	0.031518865	-0.012794302	0.014348592	-0.027141077	-0.010517202	-0.0060661794	0.0077777794	-0.008675351	0.017383177	
-0.013973811	0.025921382	-0.012302028	0.027183479	-0.027389659	-0.0024646989	-0.023909777	0.012911726	-0.005905061	0.019048218	
-0.013153702	-0.0003832627	-0.0074697486	0.016917929	-0.0073692948	0.0057858676	-0.031879306	0.017125899	-0.004591391	0.02536746	
-0.010013564	-0.01773293	-0.01036803	-0.0030214738	-0.0039894283	0.01859925	-0.024946894	0.016363384	-0.010025737	0.044574525	
0.0058060056	-0.024375537	-0.0073469514	-0.008076891	0.0022857734	0.017504236	-0.025894944	0.017519535	-0.01563728	0.040328972	
0.013614511	-0.02365028	-0.011455713	-0.008367006	0.0069520674	0.017860567	-0.023666544	0.010056812	-0.0071813767	0.022341898	
0.016887242	-0.014009142	-0.0023569805	-0.015501712	0.0076512014	0.023866488	-0.024812348	0.0037185983	-0.006662361	0.015956504	
0.019067746	-0.0095542045	-0.0049512275	-0.0035372265	-0.004545619	0.031369727	-0.020543244	-0.0016618549	-0.008318127	0.008528917	
0.0110345315	-0.007876683	-0.007807501	0.0029218285	-0.012152593	0.038937926	-0.008566015	-0.011240918	-0.0060173264	0.0013587796	
0.0018863827	-0.0029336223	-0.0013129157	-0.0034052846	-0.017111396	0.035609964	-0.003297802	-0.005184986	-0.0029915853	-0.00078018755	
0.0016129152	0.0002450109	0.0004202486	-0.003593565	-0.014279777	0.021607397	-0.00012317435	-0.00022264718	-0.0044402014	0.0016146367	
-0.0037435598	-0.001512267	-0.0019514931	-0.0002413194	-0.0074042147	0.012571325	0.00022375221	-0.0014608761	0.0003934609	0.0022566258	
-0.0013833664	0.00034680165	-0.00066667964	0.001067822	-0.0002859166	0.0026007188	-0.0011004466	-0.00033800356	0.0014534047	-0.0014328358	
0.00075831544	-0.0015371224	-0.00013567723	0.00065935845	0.0016601307	-0.0012991133	-9.8581746e-05	0.00074292696	-0.00080913334	0.00044571757	
3.3221335e-05	-0.0007663131	0.001851579	-0.0007686357	0.001719222	-0.0012293385	-0.00024618584	-0.0017184292	-0.00023322909	0.00023330735	
-0.0008845729	0.00016636486	-0.0009052049	-0.000355543	0.0005430564	0.0002839183	0.00011125018	0.0010778729	-0.0002875854	-0.0004964744	
0.00094484433	0.00040043684	-0.00013984834	-0.0012893201	-0.0010536066	0.00038657113	-0.0025939771	0.0023513401	0.000942465	-0.00021774867	
-0.0009462506	-0.0014949911	2.9138664e-05	-0.0013770715	-0.0014758578	-0.00056016084	-0.0047426173	0.0057529965	0.0018411563	0.0017375665	
-0.0017587701	-0.0042906464	-0.001107523	-0.0012358963	-0.0035283864	0.00090336695	-0.0028566844	0.011911326	-0.0031277835	0.0031976537	
0.0018000692	-0.0031338632	0.00049848063	-0.0056020943	0.0005736225	0.00076582306	-0.0069303755	0.011816595	-0.00066135323	0.0012876347	
0.0085129775	-7.722342e-05	0.008213015	-0.010497706	-0.004275127	-0.0030685605	-0.0052178074	0.008461646	-0.008172113	0.005346159	
0.012528931	0.0019486261	0.003906681	-0.0091698505	-0.00582304	0.00018295975	-0.0014506876	0.0013915261	-0.010834804	0.012711169	
-0.00019282172	-0.0002041373	0.003201031	-0.018540082	0.0017310475	0.0007210017	0.0010176254	-0.002870859	0.004358188	0.013758303	
0.007707509	0.0021889168	0.009256955	-0.021312285	-0.00096510584	-0.0021344316	-0.006789224	-0.0012967123	-0.0035569218	0.019800935	
0.018663779	-0.0062850066	0.0055442797	-0.021472456	-0.008961907	0.0006615056	-0.011596528	0.005231575	-0.014568388	0.03147666	
0.02502751	-0.013045235	-0.0019193687	-0.022701714	-0.017460456	0.012134425	-0.025069822	0.0154330535	-0.012835923	0.04153228	
0.019852875	-0.00818038	-0.012907017	-0.013573558	-0.01768545	0.01244661	-0.008916521	0.011161002	-0.013167615	0.029307358	
0.008979319	0.023445234	-0.010127645	0.009449037	-0.027161086	-0.012568954	0.014602102	0.004172183	-0.010245574	0.0021553952	
-0.015087244	0.04881941	-0.0072123418	0.024833322	-0.024410844	-0.010572029	-0.008607548	-0.005476849	-0.0013744475	0.0004389611	
-0.028547892	0.04155601	-0.011262251	0.016909609	-0.015852697	0.003813446	-0.01957588	0.0027505003	-0.003636924	0.013487402	
-0.0291051	-0.00664945	-0.0044882484	0.0030302207	-0.0039205477	0.017229248	-0.024519328	0.021371333	-0.00020357373	0.023380589	
-0.017996447	-0.024050869	-0.007912294	-0.009984197	0.0057315957	0.016038038	-0.01805348	0.01722586	-0.012742006	0.05054235	
-0.0011544037	-0.028302958	-0.0054656724	-0.012064509	0.0046037068	0.011740884	-0.029602846	0.019456701	-0.0054497393	0.04434432	
0.0122105535	-0.016179226	-0.011066664	-0.007612267	0.014899863	0.0053327093	-0.029536726	0.017551655	-0.0028560073	0.010961875	
0.030138254	-0.009405981	-0.007140448	-0.0031465525	0.0063517373	0.0062119933	-0.025577253	-0.0048961206	-0.0067634503	0.010856911	
0.022085546	-0.005260598	-0.0024576122	0.0004889548	-0.0046481923	0.016415166	-0.014123854	-0.009449957	-0.0064080018	0.004946612	
0.01029332	-0.01037488	-0.0043307887	0.00017113681	-0.01148577	0.026146833	-0.00049931655	-0.012214187	0.0033437416	-0.0025012214	
0.008932418	-0.0062134247	-0.0015338012	-0.0021481325	-0.014087206	0.029188998	0.0014815993	-0.008889496	-0.0019154126	-0.003048303	
0.0017407603	-0.0032312465	-6.266879e-05	-0.0030305453	-0.010991511	0.019006256	0.0015113635	-0.006038677	-0.0030399454	-0.0009330437	
-0.0021996242	-0.00047096537	-0.00012784383	-0.0013881205	-0.0051120743	0.0062524877	0.0021665602	-0.00078603614	0.0008194629	0.00063410535	
-0.00023135482	-0.00025324896	-0.0011930921	0.00013309956	-0.0024474803	0.003415322	0.0004471752	0.0009802175	0.00012511158	0.00058788864	
0.0003405379	-0.00017708981	-0.00013661021	-0.0016422565	0.0014458988	-0.0015091246	-0.00037976488	0.00041853802	-0.00052590005	0.00029468318	
-0.00045742388	-0.002040291	-0.00048610358	-0.00046237852	0.0006545941	0.00063301914	0.00056918024	0.0013628617	0.00025678414	-0.00045229256	
0.00042855696	0.00051023747	0.0012540617	-0.0008880116	0.0022396683	0.0002457823	-0.0022185578	-0.0015328416	-0.0011337238	0.00083432416	
-0.00022714437	-0.0009329351	0.0023236815	-0.0015114605	0.00010093111	-0.00150242	0.0011954024	0.0032665515	-0.0013964624	0.00106427	
-0.00072596286	-0.00037533563	0.00011157202	-0.002164715	0.00046506582	-0.0014954308	-0.00027968723	0.008963023	0.000115580886	0.0020884746	
-0.003916074	-0.0030515117	4.69483e-05	-0.0009432172	0.000929088	-0.0010727765	-0.0030205052	0.01149271	-0.0034828829	0.0024117164	
0.004837766	-0.00387083	-0.00015493736	-0.0041003786	0.0035489395	0.000520272	-0.0059823487	0.008876055	-0.0019008246	0.0056564496	
0.013098771	-0.0025825754	0.0023783834	-0.008274218	-0.004925704	-0.0043518147	-0.004499087	0.009956513	-0.007937651	0.0035540892	
0.012931083	0.0017792343	0.0041261883	-0.014949412	-0.0074068606	-0.0046031587	0.006960575	-0.0047381036	-0.0061776536	0.010714304	
0.012395091	0.003516389	0.009000826	-0.018133607	0.0034723978	-0.012503325	0.0008822456	-0.018073661	0.0018906922	0.01465	
0.014138468	0.0075355903	0.01220374	-0.022944868	0.0028034355	-0.0018824716	-0.005986321	-0.02225588	-0.00021888624	0.016698882	
0.022733025	-0.0046254518	0.009379825	-0.03047029	-0.008585926	0.009853143	-0.008904089	-0.009154195	-0.017635744	0.03716433	
0.024214841	-0.012499362	-0.003236372	-0.019328078	-0.015414224	0.020310896	-0.0061119557	-0.0060993275	-0.01558955	0.029362146	
0.015875503	-0.013337061	-0.017326899	0.0076978793	-0.02055522	0.016574584	0.014370549	-0.011872274	0.00064474915	0.005173795	
0.00010000853	0.01631966	-0.017193537	0.029985711	-0.022987414	0.00559382	0.0118968	-0.014525802	4.0784013e-05	-0.0042915517	
-0.024357347	0.053990863	-0.0111396145	0.029217431	-0.018924072	0.0039808373	-0.015374883	-0.006717325	-0.002162842	-0.004053304	
-0.040105153	0.03375917	-0.0065535144	0.015237396	-0.011031573	0.017843083	-0.020313129	0.0003557956	-0.009277398	0.019448873	
-0.035361037	-0.017727718	-0.0025710536	0.0008984753	-0.0003434338	0.023223715	-0.009618074	0.011393248	-0.01016755	0.040243495	
-0.017006332	-0.027655449	-0.006004572	-0.019176751	0.01771731	0.0076425206	-0.010974893	0.007857123	-0.010705581	0.05863816	
-0.0014928668	-0.021309936	-0.0026992464	-0.015488535	0.022170842	0.00058566686	-0.022140112	0.015919259	-0.009253346	0.037604824	
0.0040880786	-0.008990786	-0.0013714123	-0.008569147	0.028185666	-0.013327794	-0.026536604	0.011800267	-0.00428003	0.018268367	
0.024316065	-0.0027782617	-0.0039564655	0.0053835865	0.010010209	-0.013016404	-0.016193803	-0.004912567	-0.00901005	0.010221413	
0.025784882	-0.012412183	0.00043905003	0.0052841264	0.0014130217	0.0016349349	-0.0068368865	-0.008456223	-0.0075945123	0.0001289053	
0.016251527	-0.010713773	0.0031982025	-0.00501395	-0.0048370985	0.005664457	0.005276477	-0.007218377	-0.00038143655	-0.00431635	
0.014606769	-0.0065056775	-0.0024903393	-0.00255008	-0.003972275	0.008817458	0.004389428	-0.008600634	0.0037279956	-0.004187213	
0.005123844	-0.0022711696	-0.0015887404	-0.0007280447	-0.0005907042	0.007447407	0.0027495867	-0.006552107	0.00042907475	-0.0005814216	
-0.0029441419	-0.001082623	0.0002081594	0.00068215193	-0.0022855634	0.0038966213	0.0005866566	-0.0015565562	0.00059624005	-3.4478886e-05	
-0.0018540353	-0.0014053335	0.00013073308	-0.0004541655	-0.00085818773	0.0006291671	-0.0032701553	0.00043841946	0.002847848	-0.0011270053	
-0.001271212	0.0018950542	-0.0004905539	-0.00046951495	0.0017773359	0.0007681421	0.0010666844	0.0013936372	-0.0010439339	0.0012462564	
0.00057282497	-0.0006597409	0.0012299707	0.00093924213	0.00040115498	-0.0019469786	0.0019688725	0.0006495533	-0.001564334	0.00077872287	
-0.00048702865	-0.0006088098	-0.0010275848	0.00198094	0.00092504575	-0.00071855413	-0.0011013158	0.0005796834	-0.00018494154	0.00054549443	
-0.0021158326	-0.0019299309	0.0010709137	-0.0005385378	-0.0018335945	0.00011197549	-0.0004819293	0.0027045715	0.0004640288	0.00028565328	
-0.0017188662	-0.002771843	-0.0024730063	-0.0017252967	0.00032989393	-0.0017468804	-0.0013143098	0.00653435	-0.00088100164	0.0015178669	
-0.0012186662	-0.0028663806	-0.0028614658	0.0030743205	0.0008037304	0.00035067645	-0.003008153	0.0064433436	-0.0020439106	0.004754927	
0.0064126207	-0.0050813328	-0.0011919618	0.0010097357	-0.001872061	0.0016312269	-0.0071897907	0.0040056487	-0.0031490894	0.007327823	
0.009686785	-0.0002831634	-0.0018072762	-0.0041052485	-0.0052233725	-0.0025285413	-0.0021258956	0.0027211627	-0.005236686	0.0034259837	
0.012521644	0.0037067516	-0.0013985673	-0.009456368	-0.0053385952	-0.0041459203	0.009884685	-0.008485476	-0.0022281215	0.0072929747	
0.016534057	0.009091366	0.005440599	-0.01467282	0.0006759297	-0.015705708	0.002220812	-0.012088208	0.0018661929	0.00697553	
0.020848786	0.0048276614	0.00013379048	-0.022117801	0.0024572136	-0.006088239	-0.0023387116	-0.020488923	-0.007709423	0.025602175	
0.029203523	-0.0044107633	-0.007983025	-0.023101982	-0.004929724	0.016467312	-0.0011955202	-0.017618423	-0.022571161	0.035230484	
0.027082236	-0.013533805	-0.020281743	-0.0038785045	-0.01005943	0.028509105	0.016375482	-0.024457315	-0.011145419	0.014100516	
0.012863901	-0.013305116	-0.029546805	0.020170396	-0.012750723	0.021180449	0.027276762	-0.032602537	0.0104368795	-0.00064141443	
-0.010541459	0.021756148	-0.022190616	0.033880305	-0.022357145	0.016026376	-0.00027121196	-0.023030834	0.008117247	0.00014494336	
-0.04346491	0.0552202	-0.0107315285	0.02514381	-0.02071443	0.009295945	-0.014436516	-0.019874891	0.0021502497	0.016883293	
-0.0472258	0.024510115	-0.0044289473	0.024219908	-0.017198402	0.006523458	-0.0058271876	-0.015960524	-0.003840361	0.03816207	
-0.025519773	-0.013755253	-0.020841777	0.0074167643	0.009845737	0.0069861477	0.0021848688	-0.012673463	-0.010140104	0.05592531	
-0.011077583	-0.03242802	-0.016259974	-0.007913388	0.026677217	-0.00048995274	-0.0021128948	0.00088629127	-0.00916443	0.0566413	
-0.008531192	-0.023986772	-0.0044484558	-0.012104487	0.026219154	-0.0047115386	-0.0079844985	0.009676445	-0.01359997	0.03852265	
-0.0045613814	-0.006437315	4.7536334e-05	-0.001556359	0.026401872	-0.019621061	-0.01688832	0.0066235913	-0.017736904	0.030964756	
0.018822392	-0.0070576444	-0.0021740193	0.009393771	0.011092068	-0.014621977	-0.010667384	0.0013809454	-0.0201689	0.014218748	
0.024511602	-0.011641687	0.0023207462	0.011010186	-0.0042008716	-0.0056552864	-0.0005917652	-0.0028976672	-0.011996476	-0.0029486555	
0.018423384	-0.007870273	0.0013764146	-0.0020041475	-0.0055874847	-0.0066250977	0.004574848	-0.004667626	0.00015433469	-0.002336365	
0.013609713	-0.006753854	-0.005948413	-0.001767346	-0.0047037634	-0.004409621	0.0070630494	-0.0018963456	0.004579234	-0.0030661065	
0.009697353	-0.0040526777	-0.0015467557	-0.0010433737	-0.0028662668	0.0023061736	0.003303729	-0.0010429638	-0.003097148	-0.0019644496	
-0.002455118	8.068384e-05	-0.0011249128	0.00056206493	-0.0013384797	0.0005969817	0.0012501458	-0.0005777182	-0.0016229353	0.0014485802	
-0.0014710325	0.00024829982	0.00047709252	-0.00025477514	0.0010499517	-0.00043975195	-0.000346543	0.0015550774	0.00041683775	6.3012354e-05	
-0.0012003711	-0.0006050591	0.00039483508	-0.00047951832	-0.0006636271	-0.00035415197	0.0010525828	-0.00090239255	0.0002388425	0.00057998416	
2.1362348e-05	-0.00040906743	-2.0070314e-05	6.680615e-05	-0.0015754052	-0.00061277085	-0.00083777495	-4.7892117e-05	0.00069088844	0.00047908464	
0.0006517308	-0.00039826252	-0.0009126155	0.0010386908	7.9700265e-05	0.00067943585	-0.00063785276	0.001695039	-0.0007436294	-0.0008556455	
-0.0015247175	0.0002725965	-0.0008724333	-0.00023609414	-0.00036522865	0.0007718115	0.0010653047	0.00391034	8.369895e-05	0.00036022032	
0.0004174321	-0.0026945923	-0.0018726017	-0.00023080334	0.0005611999	-0.0015425921	-0.0014019578	0.005200787	-0.0007506477	0.00092013757	
-0.002112752	-0.0016233842	-0.0017214506	0.00016514305	0.0013045351	0.0008020477	-0.00078609545	0.00029694696	-0.0021399662	0.0053194584	
0.008217233	-0.005632309	-0.0026637632	0.0004732546	-0.0002043278	0.0031194384	-0.0047549666	-0.0027157743	-0.0037261802	0.009212246	
0.0060571935	-0.0021126023	-0.0022833727	-0.0012420301	-0.003910888	0.0013271845	0.0040895017	-0.005305077	-0.0046563186	0.0071519963	
0.011263247	0.0011820861	-0.0052388404	-0.0035112367	0.0016101181	-0.0039539104	0.0058412105	-0.0071090297	-0.005429658	0.005239146	
0.014467115	0.012079779	0.00080305716	-0.0111276535	0.0021058554	-0.009946011	-0.00075232994	-0.008906797	-0.0041317847	0.006210327	
0.029051548	0.0061687245	-0.01305236	-0.016987134	0.008234153	0.002382462	-0.006372714	-0.018926442	-0.015025572	0.027190574	
0.027934454	-0.0064753173	-0.026615603	-0.014096653	0.00032420456	0.013483029	0.012119922	-0.025744284	-0.018702768	0.034933303	
0.024394648	-0.02022937	-0.031786792	0.0065969257	-0.009955935	0.016648628	0.03151995	-0.033842467	-0.009046613	0.026783327	
0.0028011939	-0.026624855	-0.028489556	0.018526923	-0.017369881	0.019322246	0.026682671	-0.03566408	0.022393411	0.016633265	
-0.028579162	0.02050581	-0.011652743	0.019309362	-0.014741802	0.013868908	-0.0026589008	-0.036856283	0.02203776	0.020291232	
-0.04416526	0.05342685	-0.0004995441	0.0059037292	-0.017270422	-0.0037077614	-0.009938341	-0.031846467	0.013598798	0.03627357	
-0.031899035	0.021156821	-0.016833361	0.004534678	-0.0045164004	-0.010927023	-0.00092001935	-0.02310886	0.017721906	0.038351513	
-0.011141876	-0.020521691	-0.026586726	-0.0039965515	0.02272766	-0.011156353	0.0025197824	-0.008785217	0.0072444286	0.05363257	
-0.0057518473	-0.024814146	-0.017213318	-0.0072452496	0.032192413	-0.013369324	-0.009362754	0.004502582	-0.010066615	0.04948278	
-0.0019672741	-0.01290915	-0.009460134	-0.0028123236	0.031284526	-0.022108901	-0.023445936	0.013455603	-0.012783675	0.042732514	
-0.00065718335	-0.0063222405	-0.0013219633	0.0013886349	0.027695352	-0.020636765	-0.014751772	0.010394396	-0.02247308	0.034009073	
0.0066005443	-0.0022633085	7.1143244e-05	0.003995917	0.018345399	-0.013126126	-0.010847423	0.0074596703	-0.021586131	0.014296227	
0.02243005	0.0018466366	-0.0028735755	0.0036282327	0.005545799	-0.014103991	8.413491e-05	-0.00048910594	-0.011007624	0.0018143903	
0.015351161	-0.0026786702	-0.0029446273	-0.0046936255	-0.003507986	-0.010206029	0.010535873	0.00087535556	0.0024022986	-0.0046841716	
0.010801675	-0.008933169	-0.004434905	-0.0017857598	-0.0031301186	-0.0026339702	0.008265755	0.0031325845	0.0017252326	-0.0059388904	
0.011290931	-0.0020383664	-0.0039443644	-0.0023269972	-0.0036130634	0.0010336232	0.0045904056	-0.0011551849	-0.0025515857	-0.0002770955	
-0.00018730023	-0.0007341936	-0.0021503174	0.0010071538	-0.0012213149	-0.00071576954	0.001346406	-0.00013683643	0.00020028766	0.00074384036	
-0.00013709303	-0.00047614455	0.00061310123	0.0013622921	-0.0008379483	0.0005090361	0.0016139023	-0.00064096035	-0.0007414685	-0.0015432065	
0.0012422452	0.0009011195	-0.00015809514	-0.0003060565	-0.00090265693	-0.0002455801	-0.0018246633	7.3429237e-06	-0.0002493659	0.0015236093	
-0.00051656005	0.00084500725	-0.0007541575	-0.0001615818	1.9421901e-05	-0.0018445194	0.00091533083	-0.00077722967	-0.0013665128	0.0014136514	
-0.0016115559	-0.00170044	-4.319768e-06	-0.0006316054	0.00047006848	0.00055734545	9.491388e-06	0.00064553047	0.0011124212	0.00017927877	
-0.0018867421	-0.0013590779	3.6595717e-05	-0.0006095295	-0.0005607721	-0.0017935892	0.0005320428	0.003596139	-0.0006570283	-0.0015384682	
-0.0016256204	-0.0026784341	0.002248872	0.00094546174	0.00020672966	0.0015141743	-0.0015380175	0.00087893644	-0.001011414	0.00032777042	
-4.8510974e-05	-0.003542658	0.00012308842	-0.0015428516	0.0025850618	8.286391e-05	-0.0014058433	-0.0028339836	-2.62014e-05	0.0069114603	
0.007449715	-0.0042802496	-0.0034100646	-0.0003960717	-0.0022499193	0.002845082	-0.001259325	-0.0049921917	-0.0018673157	0.0064672027	
0.007889817	-0.0013051577	-0.005409936	-0.003859975	0.0027302997	-0.002199592	-0.0013674163	-0.0045137214	-0.0031416803	0.012601422	
-0.00021817861	0.005553065	-0.0067339214	-0.007871077	0.010494171	0.00028400143	0.0058305045	-0.0038484288	-0.009285732	0.00610439	
0.013650646	0.016663425	-0.0070342133	-0.012043216	0.014448722	-0.0022945926	-0.000879864	-0.012998456	-0.011228209	0.0014302784	
0.022964312	0.0043791435	-0.01947471	-0.018791396	0.021932466	-0.0032032535	0.006525615	-0.021027405	-0.018669853	0.029952627	
0.016772376	-0.008314349	-0.026754944	-0.016312256	0.009941556	0.004322562	0.018552259	-0.02583431	-0.01938492	0.04462997	
0.008805202	-0.02738305	-0.02810799	-0.0059211906	0.0044756983	0.0116103	0.02957262	-0.029241413	-0.0060143108	0.043603074	
-0.013142342	-0.036696006	-0.014773848	0.00294849	0.0062941434	0.015237357	0.020010836	-0.03999539	0.023994695	0.03488052	
-0.039846063	0.02127101	-0.0031698185	-0.0026582796	-0.009758519	0.005170863	0.013888687	-0.050255053	0.034670938	0.029848138	
-0.035913784	0.049638618	-0.006026871	-0.009436133	-0.014967459	-0.014081595	0.015300252	-0.03710879	0.024111254	0.029144106	
-0.016658947	0.018914625	-0.015604932	-0.021054326	0.0058163353	-0.022346234	0.020129783	-0.016686486	0.013772961	0.03721065	
-0.012537923	-0.024817964	-0.022006845	-0.022362422	0.023514504	-0.028468167	0.011602683	0.00945846	0.004023867	0.06150703	
-0.011761126	-0.016859178	-0.01736752	-0.012602493	0.02785602	-0.023771	-0.0064710365	0.025846694	-0.020328034	0.055818193	
-0.008038562	-0.00805407	-0.013656993	-0.0021605345	0.026274204	-0.026718386	-0.010494189	0.020868812	-0.024482684	0.0478055	
-8.91895e-05	-0.006902564	-0.006770433	0.0032622921	0.024330085	-0.024628723	-0.00803161	0.010602154	-0.02246422	0.027040204	
0.008179616	0.00065829745	-0.0015909493	-0.0001603287	0.021357527	-0.021845346	-0.0041325404	0.004071478	-0.016614625	0.010370521	
0.017970446	0.0031866163	-0.002810167	-0.002883381	0.006466665	-0.019434132	-0.0020047852	0.0022996457	-0.009957842	0.0005894507	
0.0135444105	-0.0006665224	-0.0021610172	-0.004315721	0.000585199	-0.0074556014	0.013321651	0.0024783025	-0.0044157966	-0.0029847003	
0.010369833	-0.0061062714	-0.0010736395	-0.004208998	0.0013087068	-0.004583189	0.013685975	0.0010002677	-0.0050422107	-0.0043864	
0.007370706	-0.0017875772	-0.0014145423	-0.0020840727	-0.0018976944	0.0006265769	0.0074389214	-0.00067045557	-6.847861e-05	-0.004628233	
0.0010664518	0.001264144	-0.001219216	0.0003397159	-0.00037415663	-0.0011949713	0.0019923148	0.000878072	0.001127787	-0.0020957636	
0.00018726308	-0.00056214794	0.0013729405	-0.000722697	-0.0018862723	0.0013893507	0.000541832	0.00019738202	8.881877e-05	-0.0013326616	
-0.000611487	-0.0012705978	-0.0006128322	0.00064751087	-0.0004504839	0.00015600401	-0.0016373409	0.0028956425	0.0003647107	-0.00034952883	
0.0010993808	-0.0010825015	0.00018585706	-0.0014263038	-0.0021798918	0.002673977	0.0013824076	-0.0003652679	-3.3322485e-05	-0.0007731777	
-0.0005888595	-0.00094230234	0.00068661815	0.0010346123	-0.0007872511	0.0011406111	0.0023205753	0.0012883804	7.3415176e-05	0.00035151813	
0.0010776665	0.00048648025	-0.00037396926	0.00072015467	-0.0011107441	-7.3245516e-05	0.00037725965	0.0003812636	0.000835938	-0.0019132758	
0.00021539908	-0.00019068547	0.0014768251	-0.0014803462	-0.00087382767	0.0023901614	-0.0011374307	0.0006344991	-0.0012412651	-0.0008568151	
-0.0010185133	-0.00466823	7.784962e-05	3.1165662e-05	0.0028908807	0.0019275914	-0.0019445287	-0.0018196376	-0.0003260299	0.00556203	
0.0049354807	-0.0040409327	-0.005657915	-0.003200242	0.0015277498	0.004766526	0.0002714608	0.0008086015	-0.0020694754	0.007059462	
1.6215152e-05	-0.0043624663	-0.008304682	-0.004388486	0.007361055	0.003419517	-0.0023479394	0.0010666319	-0.0063988804	0.012325003	
0.00067391084	0.003921166	-0.009681833	-0.007851027	0.02212979	0.0002669545	-0.0031184433	-0.0060240533	-0.011806961	0.0129236225	
0.0126370005	0.015006113	-0.009871082	-0.017251799	0.022270162	-0.005207242	-0.003964479	-0.0076015927	-0.010618877	0.006571708	
0.012543038	0.006108914	-0.019973341	-0.025469484	0.026914028	-0.0086672185	0.0071887644	-0.011806424	-0.011309635	0.02644273	
0.008491676	-0.0121659525	-0.02716989	-0.027270582	0.022583485	-0.0005477555	0.024434809	-0.008347702	-0.008795581	0.0329634	
-0.007058142	-0.02941686	-0.02203457	-0.020342186	0.011916606	0.014444175	0.023842733	-0.021315835	0.007642083	0.03541174	
-0.022820804	-0.017803527	-0.005368546	-0.016172638	0.00915902	0.02115544	0.016395586	-0.040750112	0.01857957	0.031836733	
-0.04607187	0.02832499	0.0033505964	-0.01954627	-0.00094197504	0.008184193	0.018613636	-0.049217552	0.019236514	0.031169746	
-0.03990451	0.04598597	0.00043955597	-0.01936096	0.0037030994	-0.011024801	0.018051468	-0.041413136	0.013109795	0.029351221	
-0.025073485	0.007877587	-0.011109796	-0.028164763	0.022868609	-0.022790253	0.011538807	-0.010298902	0.00345539	0.04613605	
-0.020625811	-0.02230774	-0.012681475	-0.031039722	0.022593485	-0.02387603	0.0017783106	0.01729345	-0.007001859	0.072838046	
-0.011961298	-0.008598985	-0.01155135	-0.011580647	0.0047346223	-0.026590046	-0.006872937	0.028400086	-0.019381063	0.06310059	
-0.0056265546	-0.009091932	-0.0050431783	-0.0006946719	0.002306608	-0.028246928	-0.0074568256	0.024050396	-0.018440457	0.04686701	
0.006961078	-0.005571517	-0.006448222	0.0011877688	0.0059705186	-0.022843977	-0.0019464546	0.011517675	-0.012393473	0.023172524	
0.01633806	-0.0013495107	-0.0062872255	0.010432761	0.0045178733	-0.028360961	0.0023188647	0.013208965	-0.009994347	0.0036796909	
0.019663462	0.0007410927	-0.0006329566	-0.0007560656	-0.0038435606	-0.018981898	0.0007214128	0.0052067363	-0.0075401645	0.0012003861	
0.011821143	-0.00044486191	-0.000278027	-0.0071942136	-0.0060297395	-0.0056006713	0.012321779	0.002166792	-0.0017287589	-0.0045825196	
0.010677444	-0.007703173	0.0029792944	-0.0046110274	-0.001873556	0.0033464618	0.012264638	-0.0014918637	-0.0051978594	-0.0052126744	
0.0040261406	-0.0033218954	0.001128608	-0.0029247787	-0.0010254316	0.0015280888	0.0054828236	4.910613e-05	-0.0029275438	-0.000932728	
0.0016207052	-0.00070559606	0.001822168	-0.0016984721	-0.0015080502	8.653587e-06	0.003454476	-0.0008346014	-0.0011741233	-0.0033816188	
-0.0012641631	0.0002458205	-0.00017365057	-0.0010402307	0.0010755473	0.0019481827	0.0008691276	-0.0005258251	0.00046240308	-0.00033517406	
-0.0009044483	-0.0017149405	-0.0005161374	-0.001138853	-0.001189	-1.6206623e-05	-0.00025723974	0.00010947309	-0.00020072912	0.0004650446	
0.0010091491	0.0016237972	-0.00054098136	0.0013366931	0.00091178704	-0.0011195551	-0.00050842017	-0.00059055287	-0.00033430627	-0.001118873	
-0.00015954442	0.0005261418	0.00020236443	-0.00013819065	-0.00047781965	0.00035873678	-0.0009890181	0.0004958579	-0.0009124957	0.0006168931	
-3.373346e-05	-0.00017725852	0.0004682096	-0.00096212234	-0.00039872952	0.00043484624	0.0007398174	-0.0016604961	0.00097354024	0.001565974	
-0.0002967642	0.0003276305	0.0006267789	0.00030856472	0.0010638261	0.0001242305	-0.0020149215	-0.0001294979	0.0019863483	-0.0006165319	
0.0009910059	-0.0031667987	-0.0003544369	0.0012134552	-0.00081011176	0.0025832015	0.0010777512	-0.0003393023	0.00057482574	-0.00065989216	
0.0051876386	-0.00686845	-0.0020412002	0.002497414	0.0009217015	0.0061692907	0.0001321754	0.00020130292	-0.0019273685	0.0047176117	
0.0060690166	-0.0052329283	-0.0060012112	-0.008820264	0.01148445	-0.0014187483	-0.0044429624	0.0039110743	-0.0047702994	0.010540796	
0.00074534176	0.0024994477	-0.0030838973	-0.0068457304	0.014806311	-0.005885832	-0.005937836	-0.0010018384	-0.007418009	0.012340394	
0.010065995	0.0020948877	-0.00833387	-0.009004989	0.024760654	-0.01241996	-0.0073225144	-0.008943292	-0.0011756888	0.007672213	
0.012768214	-0.0024637855	-0.011724695	-0.010880823	0.023417998	-0.021747442	0.009391989	-0.00873625	-0.00811124	0.017753629	
0.0016096884	-0.017013192	-0.011499975	-0.020394532	0.028490368	-0.019409971	0.03000921	-0.013491215	-0.008743378	0.027968317	
-0.016495476	-0.023216892	0.0001362444	-0.02496036	0.026071664	-0.008054656	0.025123635	-0.019611873	0.005777551	0.03193971	
-0.037713926	-0.0014077078	0.017261416	-0.02219751	0.00959621	0.0055442667	0.011931053	-0.036210407	0.016849864	0.030367648	
-0.047936264	0.04201238	0.015224744	-0.021853019	0.005634195	0.0010876629	0.004497826	-0.044594366	0.017738301	0.023231387	
-0.034201123	0.045314208	0.0034258054	-0.023835523	0.019063545	-0.018767286	-0.0023464633	-0.029684061	0.012412117	0.031439655	
-0.022460278	-0.0036494562	0.00056321546	-0.024737313	0.03452625	-0.012472893	-0.010103875	-0.0020176575	-0.007952883	0.04780787	
-0.018807072	-0.019113045	0.0060394895	-0.02499086	0.013064392	-0.008230298	-0.008930942	0.011974764	-0.020890398	0.06780009	
-0.015838683	-0.016686171	0.013689219	-0.0035512312	-0.01013976	-0.0097440025	-0.012671823	0.016271425	-0.01861212	0.056373432	
-0.0034125645	-0.0116186235	-0.003354375	0.01144979	-0.004794921	-0.013455784	-0.008013835	0.0060906224	-0.006353409	0.037455324	
0.0069942027	0.00012177418	-0.0069186483	0.010312797	-0.0024594842	-0.023240676	0.00064974243	0.0008900792	0.0016368935	0.015704082	
0.012084438	-0.0007182829	-0.003667211	0.013523598	-0.0027929596	-0.02651762	0.0062762653	0.0028702135	0.0023107226	-0.003893565	
0.008879902	-0.0044241105	0.006079251	0.00526472	-0.008153056	-0.012856327	0.0011123341	0.0016924957	0.0045873225	-0.0023606932	
0.0049148505	-0.0043238997	0.008004247	-0.007217614	-0.0067046173	-0.00042775922	0.007953986	0.0037180046	-0.002143199	-0.0010533758	
0.008667773	-0.003438493	0.010059906	-0.0047145127	-0.0076102014	0.0041300394	0.0071424088	-0.0025078827	-0.0024997543	-0.0058384244	
0.0008930084	-0.0028694712	0.005720056	-0.0032846972	-0.00408288	-0.0011183937	0.002518443	0.0015935382	-0.0019351279	-0.004517203	
-0.0016652275	-0.0021081262	0.002709265	-0.0011643525	-0.0015099321	-0.00024964332	-0.0007912496	0.0005098778	0.0011586585	-0.001646212	
-0.00015751999	-0.0008870235	-0.0019266896	-0.00030294977	0.00021641095	0.0019883197	0.00086445163	0.00093349564	0.0013536104	-0.0020607659	
-0.0006405278	-0.0003607054	-0.0007351055	0.0011129897	0.0003574342	0.00013419769	0.00087057654	-0.0019165045	0.0022913108	-0.0011276143	
0.00073165464	-0.0010400056	-0.0011117739	-0.0004537203	0.0007664588	-0.00051540666	0.00092650397	1.3550335e-05	-0.0012970851	-0.00010566579	
-0.00013896739	0.00056289556	-0.0013653927	0.0004404393	0.00044673556	0.00049937016	-0.00014084719	-0.00028129193	0.0003757147	0.0007262381	
0.00022153278	-0.0010518088	0.0010625036	-0.0018968842	-0.00039274548	-0.00043172107	-0.002039718	-0.0011338289	0.00052980526	-0.0014847642	
0.00028780365	-0.0005055779	0.0009842477	0.0009698749	0.0027687417	-0.0003311311	-0.0029842453	-0.0020564438	0.0015272148	-0.0005168989	
-0.004123103	-0.003411866	0.002273605	0.004593906	-0.002335988	0.002470486	0.0014513739	3.4909615e-05	-0.00029218028	0.00034530746	
0.003698225	-0.010745421	-0.0026702422	-0.00014495291	-0.00021146346	0.0071802945	0.0050634556	-0.00027341073	-0.0037720867	0.0033334298	
0.010755175	-0.0079787625	-0.0033604214	-0.014222853	0.004378694	0.011378423	-0.00266112	0.0030721843	-0.0038733738	0.004998823	
0.009139168	-0.006362826	-0.011063699	-0.015031559	0.011637002	-0.002244955	0.001312604	0.0007774178	0.0014531856	0.011368035	
0.007975571	-0.013116381	-0.0065659047	-0.0049181944	0.018823199	-0.019548722	0.007371836	-0.008040671	0.00992005	0.006006063	
0.0009395181	-0.010419924	-0.002001179	0.0026094024	0.02313351	-0.033593193	0.02216992	-0.014156321	-0.0010721418	0.013937684	
-0.0075199655	-0.022299731	0.0063830703	-0.004108867	0.024509354	-0.035747614	0.038759198	-0.027423184	0.008381363	0.0212468	
-0.026848767	-0.015361043	0.016030785	-0.007860975	0.01301556	-0.028347263	0.04176954	-0.03346281	0.01760727	0.022313476	
-0.042770937	0.011693506	0.017874518	-0.006835986	0.003283689	-0.016025128	0.019331384	-0.029860746	0.021692775	0.020420253	
-0.046221588	0.040256936	0.001991729	-0.016952325	0.005964558	-0.009612455	0.0033554414	-0.0259795	0.02464606	0.019881584	
-0.02829028	0.037654184	-0.0049703033	-0.028277671	0.019490317	-0.016874488	-0.006450494	-0.01415709	0.009378724	0.03201303	
-0.01086952	-0.008153422	-0.0020641652	-0.02143984	0.018659638	-0.005936738	-0.008737221	0.0076605594	-0.014121815	0.045673482	
-0.008290984	-0.023684302	0.01122924	-0.0033166122	-0.0060421666	0.0015749931	-0.008761598	0.013911088	-0.034579396	0.053351544	
-0.0068904627	-0.023903763	0.01478277	0.0060070176	-0.01259461	0.00050114084	-0.011494138	0.008213731	-0.02691501	0.0501273	
-0.0011496192	-0.014778101	0.0014418296	0.010619679	-0.011969458	-0.008053585	0.006610321	-0.0042926157	-0.004233006	0.029841322	
0.0023659116	-0.003000547	-0.00519241	0.015110131	-0.0066987565	-0.02389145	0.0073762652	-0.007512115	0.003108929	0.01633417	
0.007263251	-0.0023348555	-0.004046361	0.009758849	-0.003499911	-0.018690014	0.009390551	0.0026463382	0.0026339367	-0.0026222917	
-0.0020501816	-0.013229152	0.006972166	0.0066027725	-0.0028912707	-0.01005104	0.0073381844	0.002694051	0.0051360647	-0.0021119316	
-0.003860714	-0.008093781	0.008034319	5.2849733e-05	-0.006485306	0.0011566842	0.0115211215	0.0016522296	0.0018670794	-0.0057173893	
0.002757495	-0.0056536035	0.0063955737	-0.0014326405	-0.007973333	0.0033048345	0.0072238813	-0.0002576807	-0.0020314741	-0.0074336585	
0.0025695718	-0.0040812986	0.0067534307	-0.0041295015	-0.00035431742	0.0011741366	0.0010458534	-0.0017927533	0.0007125718	-0.0024053673	
-0.00047059322	-0.0022991938	0.0069841184	0.0005440148	-0.00040294876	-0.002240303	0.0004748312	0.0005957175	-0.0014430785	-0.00034295782	
-0.0013769394	0.0011601938	0.0009918686	-0.0006888843	-0.00010905149	-0.0005163037	-0.0013239122	0.00013720062	-0.0014105623	-0.0034431235	
-0.0004653819	0.00059126783	-0.00037184497	-0.00029821682	7.676954e-07	-0.0010096534	-0.00031606283	0.00017592817	0.00010805088	-0.0004597391	
0.0017960106	-0.0009183316	0.00021102214	0.001404478	-4.0972303e-05	0.0026118401	0.00010819919	-0.0002782923	0.00083260896	0.0010309404	
0.00092623295	-0.0003001683	0.00028461183	0.00055274635	-0.0011703381	-0.001097491	-0.00030694407	-0.0009846848	-3.7389407e-05	0.0019541963	
-0.001396219	-1.4213585e-05	0.00028033447	-0.0016089884	-0.000296738	-0.00014186812	-0.00050575216	-0.00015824717	0.0010758985	0.0004066579	
-0.0002835252	0.0005256381	0.0039212783	0.00051141786	0.0009994708	-0.00028372853	-0.0019627556	0.00015983499	-0.00045491286	0.0016423087	
-0.0039924425	-0.0021429397	-0.00030499895	0.0003859459	-0.0040973607	0.00813552	0.0016540276	0.0007590922	-0.0012786833	-0.00183656	
0.0065233414	-0.007373298	-0.004243134	-0.0020543323	-0.0030588587	0.016085079	0.0012815003	0.00072590326	-0.0045908527	-0.0019854973	
0.0069992053	-0.006894314	-0.0042939787	-0.013666557	-0.0064226408	0.020768093	-0.0017557858	0.0025765963	0.000644066	0.0050915102	
0.016172444	-0.013660936	-0.005523505	-0.008343899	-0.007655355	0.006736495	0.001183831	0.00028337713	0.010314655	0.008026161	
0.00763368	-0.019449435	0.0007680496	-0.0018407505	0.006425909	-0.005319809	0.003103098	-0.0073133344	0.009199786	0.008368514	
-0.0010037168	-0.015940687	0.007036024	0.004413491	0.015170126	-0.02835443	0.024945034	-0.024316778	0.0036290667	0.016360486	
-0.002697274	-0.0181094	0.017141206	0.00095402217	0.013192761	-0.039991055	0.043406554	-0.03834371	0.014304202	0.014097741	
-0.024610175	-0.011009589	0.017238561	0.0012200963	0.0051606963	-0.02980552	0.047434974	-0.03798111	0.02182852	0.010816023	
-0.0327743	0.003035844	0.0075099696	-0.000103943516	-0.0052669453	-0.01882311	0.028114675	-0.022087466	0.0251082	0.018432505	
-0.030800702	0.020764345	-0.0013249395	-0.01265203	-0.001391914	-0.011616539	0.0053790314	-0.01137043	0.017683651	0.027512522	
-0.011061626	0.021594077	0.0010221538	-0.020784521	0.0031329032	-0.01538146	-0.001520938	-0.0010860995	-0.0036067143	0.028119467	
0.0017145504	-0.008758567	0.0024928823	-0.008839452	-0.0060790004	-0.007995515	0.0028941915	0.01187615	-0.02018765	0.026860159	
0.0064438777	-0.025391877	0.006989102	-0.0024716565	-0.0074524814	-0.0039222282	0.011523466	0.0039565847	-0.034625173	0.044091605	
0.008789726	-0.02583205	0.0044493442	0.004278324	-0.0046066963	-0.0119758155	0.00832624	0.0014048156	-0.026482243	0.04412061	
-9.4638e-05	-0.021514762	-0.0051206057	0.015278444	-0.008757838	-0.019525247	0.020958494	-0.0073078196	-0.0036104182	0.028787848	
-0.0012301554	-0.006032098	-0.011092335	0.006779384	-0.0021556492	-0.022462493	0.022364039	-0.00821058	0.0022594992	0.01659974	
-0.0013453626	-0.0006959757	-0.01111103	0.004390035	-0.0010664337	-0.0061267493	0.011623108	0.0003126457	0.007016589	0.0008256211	
-0.014025465	-0.009986519	0.0005647933	0.0074669025	-0.0058170496	-0.00047056493	0.0090486165	-0.0010991652	0.009783281	-0.0032484238	
-0.006306296	-0.01186238	0.0059972764	0.0026528696	-0.010477518	0.004030707	0.010982436	0.0030325144	0.005381312	-0.004690401	
0.0018000387	-0.011674584	0.011746943	0.0012208276	-0.006750131	0.005457811	0.0066193007	-0.0028477001	0.0033358356	-0.0065452214	
0.00061003474	-0.009333684	0.014769249	-0.0006743859	-0.0003314503	0.000334586	-0.0022805447	-0.00033687	0.0015043998	-0.0020759183	
-0.00047515013	-0.0026376855	0.0048589786	0.002180655	-0.00068090437	-0.00024081438	-0.00015475995	0.0010984158	-0.0009117612	-3.3813572e-05	
-0.0008536232	0.0011563158	-0.00038228297	0.000959695	-0.0019322688	0.00049464067	0.0004928382	0.00043260038	-0.00032803122	-0.00023224438	
0.0008412128	-0.0017915769	-0.0005539801	0.001091427	0.0009506203	-0.00072067743	0.00022870343	0.00024173628	0.001512606	-0.0014444889	
0.0023463354	-0.0012966886	-7.316878e-05	-0.00024604148	0.001189141	-0.000789693	-0.00058953837	-0.0010038274	-0.0009168993	-0.00029996858	
0.001109222	0.00089163776	-0.001443228	-0.0005770907	0.00018970855	0.00029073513	-0.00061056437	-0.0006113322	-0.0011996644	0.0002654914	
-0.0003024137	8.001458e-05	-0.00073204027	-0.0023769503	-0.00012243722	0.0010113661	-0.00066703063	-0.0011714251	0.0003408817	-0.0027022704	
0.00025598388	-0.0012065069	0.0020576536	-0.0029503023	0.0034126586	0.00042956488	0.00043942465	-0.00056177925	-0.0009154917	0.0018851095	
-0.008590064	-0.0028647506	1.9898333e-05	0.00063467544	-0.0013107387	0.006337002	0.0024556604	-0.00070318865	0.0007463529	0.001295611	
-0.0032472746	-0.005729578	-0.0014635102	0.00091449375	-0.0049758554	0.015890185	-0.0011198678	0.0013862039	-0.0024913242	0.0016893118	
0.003775803	-0.018152624	0.0019212413	-0.00980069	-0.014278561	0.021319907	-0.0047839493	0.0035057138	0.0077355225	0.009105074	
0.015023236	-0.026717925	0.008766856	-0.007655348	-0.013918144	0.015718022	-0.0020251884	-0.0019981791	0.005891281	0.009295699	
0.012460431	-0.0316506	0.0141634755	0.0006642213	-0.006393484	0.013200276	0.00081265974	-0.012260683	-3.6304416e-05	0.0040298193	
0.0072795493	-0.018906087	0.016977757	0.0023869285	0.0005474232	-0.012549051	0.016820282	-0.023209969	0.0053432877	0.010820459	
0.0014295905	-0.015882684	0.015021225	0.0027232664	0.0028970512	-0.033016227	0.035705015	-0.029824806	0.0138632795	0.0073457975	
-0.01328856	-0.008338383	0.017259121	0.00012314515	-0.009488926	-0.03144089	0.039512023	-0.0235871	0.022895422	0.004290052	
-0.020201959	-0.0067424513	0.011633165	0.010826309	-0.017620651	-0.021673143	0.02492773	-0.014266752	0.023473676	0.010617249	
-0.0070355614	0.0070200306	0.0007241014	-0.0037310182	-0.0027399804	-0.015726535	0.0038697969	-0.0077556255	0.00847563	0.016526416	
0.008902645	0.006694878	-0.001697772	-0.0025895748	-0.008454933	-0.015226437	0.0019499009	0.0070699705	-0.016226823	0.020933375	
0.009674185	-0.007674785	0.0015997116	-0.0008586338	-0.014135049	-0.006714723	0.028105844	0.0035491681	-0.030515198	0.01845652	
0.007944337	-0.024862956	-0.0005828537	0.004903379	-0.0079453215	-0.014896202	0.033202793	-0.0006503387	-0.025910199	0.031843293	
0.008863249	-0.02473871	-0.011080518	0.0127643235	-0.0020391494	-0.024563117	0.02767679	0.0016239947	-0.021068545	0.036018535	
0.0006159751	-0.02393808	-0.013407907	0.010302117	-0.0057043	-0.018404856	0.023662537	-0.0013792648	-0.005945189	0.030082379	
0.00034233413	-0.015996553	-0.014260754	0.0059660347	0.0025837782	-0.00824601	0.010556616	-0.0034082502	0.006557684	0.018529842	
-0.012219639	-0.010091187	-0.008124118	0.010056995	0.0018748622	0.004567173	0.0059239627	-0.0029182723	0.012275762	0.00034717668	
-0.011205451	-0.01791151	0.0044907583	0.011425785	-0.008309981	0.00590389	0.013884434	-0.0037231583	0.010506724	-0.0071217804	
-0.005572624	-0.015207039	0.0058445293	0.0059693726	-0.009704613	0.005250077	0.0081892125	-0.0031682977	0.006859232	-0.004282388	
0.0013687769	-0.011754991	0.010990018	0.0026524027	-0.005504243	0.0070592347	-0.00083208596	-0.004871664	0.0051860735	-0.004268985	
-0.0007462994	-0.009697282	0.011104776	0.0050775027	-0.0017925487	0.0050910343	-0.004757078	-0.0034609255	0.0021433618	-0.0024844517	
0.0011467215	-0.0035450028	0.0009942771	0.003986357	-0.0031103077	0.00081273296	0.00022485152	-0.001055981	0.00071488647	-0.00063390384	
-0.00064088736	-0.0006009694	0.0005389502	0.00017615217	0.0010737668	-0.001085114	0.0017616153	-0.0017607519	6.992611e-05	0.0011470726	
0.0015796118	-0.00063573086	0.0004837636	-0.00034731577	-6.23469e-05	-0.0018299096	-7.116505e-05	0.0018140747	4.5890563e-05	-0.00039291335	
-0.0009253444	-0.0011197607	0.0005940071	-0.00030687606	0.00065193576	0.00066469604	-0.00028255882	0.0010364087	-0.0006528947	0.00039821066	
0.00012225096	-0.0011999574	0.0003034588	-0.0011418518	0.0008318525	-0.0013787783	-0.0009265875	-0.00039276594	-0.0013646123	0.0024248855	
0.0021356824	0.00081447087	-0.00087482244	0.0013537403	-0.0011804852	-0.00093731727	0.0010124762	-0.00014036996	-0.0014885678	-0.0011298188	
0.0015742142	0.00024167303	-0.004080478	-0.0034652557	0.0060794996	-0.00092104636	0.002848793	-0.0007122742	-0.0024846625	3.7572838e-05	
-0.007892057	-0.0041138544	-0.00022175278	-0.0022411547	0.0033305213	0.0051025026	0.00415049	0.0031176647	0.0007743663	0.0017281633	
-0.00907132	-0.004011291	-0.0054749595	-0.00041878317	-0.005233455	0.011871329	6.0700222e-05	0.0021944845	0.0074774027	0.0031329945	
-0.010291564	-0.01699471	0.0054331105	-0.0021321888	-0.018796558	0.014536373	0.00012429836	0.0075024473	0.0067580785	0.00820212	
0.0036977387	-0.023170372	0.012309533	-0.002441264	-0.021083746	0.023785507	0.0011729668	0.0009492216	0.0028298097	0.0083132945	
0.010757394	-0.023495119	0.020920346	0.00012438634	-0.01927378	0.015380298	0.0016750484	-0.009351584	-0.003995642	0.013040892	
0.008748323	-0.012219264	0.008422193	0.008791568	-0.017342491	-0.004377011	0.012197743	-0.017686283	0.0053104023	0.009043894	
0.0010752947	-0.0047427993	0.009679943	0.00077166164	-0.017656406	-0.017466588	0.028112277	-0.021964762	0.015048862	0.0055797272	
-0.0047977692	-0.0043080486	0.011865367	0.0041505587	-0.024159912	-0.024499064	0.031443734	-0.021641528	0.023608334	0.0062467153	
-0.009731316	-0.006143539	0.00791099	0.010823342	-0.016218886	-0.031642612	0.02566345	-0.014062178	0.018815195	0.017990991	
-0.00410692	-0.00013271265	0.0030753762	0.0036835375	-0.006842814	-0.03046576	0.012529691	0.0013740762	0.006125213	0.017071435	
0.00037848856	0.0024820766	0.0026568058	-0.0017006001	-0.013693174	-0.022838768	0.022520868	0.006740983	-0.01325367	0.015379384	
0.0017443215	-0.0071140463	0.004531321	0.0013896421	-0.014846441	-0.016097534	0.034353927	0.0060134875	-0.018306045	0.009953391	
0.0008800168	-0.021120265	-0.006352411	0.006659934	-0.008404139	-0.022112843	0.037265245	-0.0030798756	-0.00920894	0.022297984	
-0.0026558642	-0.013875506	-0.008863885	0.0067075402	-0.007815299	-0.017204212	0.024754176	0.0065061916	-0.012749873	0.029982887	
-0.0021642488	-0.026487129	-0.011409515	0.0039794133	-0.0015369933	-0.0060178833	0.022010677	-0.0011764509	-0.0045112385	0.027841205	
-0.009023056	-0.023834558	-0.005401925	0.005591969	0.006071057	-0.0025153523	0.0030999614	-0.00042764877	0.010290669	0.013879068	
-0.013623146	-0.01787247	-0.008357221	0.01868066	0.00074170536	0.0052712476	0.0055168616	-0.0035886252	0.014895001	-0.0021938398	
-0.0041276566	-0.017144449	-4.7642792e-05	0.013689671	-0.0086480295	0.009380443	0.0057089715	-0.009242887	0.009263259	-0.0044377367	
-0.0021455742	-0.010531018	0.0052032634	0.004745221	-0.008076686	0.013040676	-0.0015364275	-0.0070333164	0.0068382304	-0.0018783646	
0.0017485883	-0.0007391739	0.0012142865	0.0033250141	-0.005344897	0.0061328993	-0.003168058	-0.005451776	0.005801437	-0.0020706698	
0.00045714318	-0.0011456648	-0.0008420952	0.0035937845	3.737351e-05	-0.0007545992	-0.0016538597	-0.002120773	0.0013852335	0.0010575016	
0.002351946	-0.0012617554	-0.0020405545	0.00022109578	-0.0012911283	0.0018857346	0.0010407472	-0.0013887596	-0.00024407197	0.0005638761	
-0.00032995717	-0.001610146	-0.00017563422	-0.000818467	0.001985758	0.0017156375	0.0005946748	0.00038086277	-0.0007077438	-0.00091712334	
-0.00053564116	0.00030894065	4.4722696e-05	9.8389275e-05	-0.0001937733	0.0009139743	-0.0017741388	0.00085646455	-0.0003093967	0.00015765411	
-0.0013977383	-0.0003828652	6.121365e-05	-0.0005744405	0.001489406	-0.0005597411	-0.0010598503	-0.0001300534	0.0001713796	-2.4303894e-05	
-0.0008426971	-0.0012077042	0.0009574031	0.0004095754	-0.0010635274	4.7209298e-05	0.00090073847	0.0008926653	0.0011611463	-0.0006834101	
-0.0012954584	0.00028932418	-0.00076585275	-0.0022407123	-0.00166435	-0.00093330396	0.0008356006	-0.0013990994	-0.0010667735	-0.00047288963	
0.0026450115	-0.0004094678	-0.0041018897	0.0014656354	0.002356959	0.0007875393	0.0030896196	-0.0010434119	-0.0013625388	-0.00055932155	
-0.0045846337	-0.002328935	-0.0023683272	-0.005619013	0.0040932265	0.0011749736	0.00738294	-0.0014164256	0.0026114217	0.00022303236	
-0.011897309	-0.003389903	-0.0047705113	-0.003160573	0.0016230583	0.00013206396	0.0052169925	0.004098317	0.010759679	0.004561106	
-0.007374761	-0.012055261	-0.006724988	-0.0027082223	-0.010841813	0.011427962	0.0028723553	0.009141174	0.0073828516	0.0050640074	
-0.0031996253	-0.022428427	0.005459859	-0.0005991547	-0.013340442	0.019349577	-0.0025269147	0.0037919208	0.0019583923	0.0077173836	
-0.005831993	-0.02156636	0.009120791	-0.0031992178	-0.018028418	0.023289036	-0.0029604614	-0.0031900848	0.010843577	0.014718609	
0.0034829148	-0.015880251	0.010164378	0.003085397	-0.03129562	0.0044660824	-0.00040619122	-0.00437298	0.018858943	0.015646785	
0.009934305	-0.0014004055	0.008795865	0.0017500843	-0.039055873	-0.00619636	0.009729274	-0.012760656	0.014395439	0.014170215	
0.011885525	0.0051488737	0.005469719	0.013731386	-0.031599022	-0.019907588	0.012047071	-0.02420303	0.021956328	0.010869201	
0.00071283756	-0.0047578677	0.0036876244	0.009084669	-0.01462273	-0.030420648	0.018832803	-0.0056391764	0.008155215	0.017412065	
0.0031151688	0.0019759694	-0.0004232155	0.0016540408	-0.014339945	-0.027708953	0.01467555	0.00092408876	0.0004354131	0.017855877	
0.00886653	0.01231744	0.0030632599	-0.001973335	-0.014011704	-0.014060133	0.016889542	-0.004067552	-0.012982049	0.0067930203	
0.0077836784	-0.0024136438	-0.004580132	-0.0014008203	-0.012783374	-0.009735111	0.023879254	-0.0037256852	-0.0058501516	0.009844481	
0.008148668	-0.011627115	-0.0072468924	-0.0037317853	-0.008590013	-0.007512086	0.017681556	-0.01207559	0.004855468	0.01920968	
-0.0042063603	-0.009293255	-0.0014241213	-0.0057959463	-0.006004371	-0.007974849	0.01143042	0.0023569467	-0.0021750443	0.024308417	
-0.003779809	-0.018370628	-0.0019112858	-0.002744268	-0.0010543091	-0.003089756	0.0036632144	-0.0010287946	0.005030559	0.02515718	
-0.0028960577	-0.020836767	-0.0021514902	0.0117058605	0.0067452895	0.003582506	-0.0034626462	-0.008224858	0.008229716	0.0092100995	
0.00023921706	-0.01600832	-0.008789273	0.018786557	0.004345071	0.010080407	-0.0050606094	-0.009930826	0.012236462	-0.003623663	
-0.003984645	-0.01160398	-0.0027933544	0.008352783	-0.00042889855	0.008209626	-0.0059173	-0.0073538763	0.008853963	-0.00029182318	
-0.0014157422	-0.004552667	-0.0029262442	0.0013699086	-0.002550896	0.008270543	-0.0027701335	-0.004787498	0.0061535593	0.00289788	
-0.00027651346	0.00012254209	-0.0112218335	0.0030538714	-0.00344514	0.0038405962	7.3182644e-05	-0.0025258346	0.0040791	0.0045229965	
-0.0011357409	-0.00023008898	-0.0070205624	0.004960008	0.00050723413	0.00043001145	-0.0001819058	0.000609308	-0.00048520108	0.0032434687	
0.0004951952	-0.0013819184	0.00018105644	1.6302538e-05	-6.4573287e-06	0.0027605053	-0.0016946767	-0.0017387698	0.00092644617	-0.0005342164	
0.001270249	0.0012029068	0.0010825791	-0.0008227295	0.00057814206	0.0005577661	3.1162206e-05	0.00037469884	-0.0002707348	-0.00028693568	
0.0027090942	-0.00048318444	-0.00044748303	-0.00024580234	-0.0003168031	-0.00034115886	0.0003309729	-0.0006266777	-0.00020706172	0.00025879528	
-0.0020525241	-0.0011781831	0.00021407563	-0.0013609127	-0.00053766154	-0.00011588258	-0.00063431077	-0.0012365252	-0.0015656721	-0.0002955775	
0.00026012314	0.00068404357	-0.0003228653	-0.0012960761	0.0022628997	-0.00014962864	0.00027339693	0.0001883424	0.00037189174	-0.0020054402	
-0.001621063	-0.0013443	-0.0016862485	-0.00094794645	-0.00034300724	-0.0013287707	0.0019940094	-0.0009808909	-0.0007245007	-0.0009907339	
0.0032111206	-0.00027113673	-0.0025975974	0.00018389324	0.0005426306	-0.0019021813	0.0020506028	-0.0011730314	0.00038280955	-0.0011546918	
0.00095764396	-0.006428727	-0.0020148677	-0.003861707	0.0034394895	-0.0007181675	0.005983885	-0.00052370754	0.0010626679	0.00033287087	
-0.0074404436	-0.0052341656	-0.007060493	-0.0063120234	0.003656493	-0.00029017223	0.008566011	0.0037488532	0.007900426	-0.00065227464	
-0.0038640208	-0.007125231	-0.0103741195	-0.00701283	-0.002614839	0.0065816985	0.0043843766	0.0077315085	0.011882967	-0.0029478292	
-0.0043780566	-0.015502408	-0.0003700836	-0.0020851444	-0.005558845	0.014967742	-8.7396125e-05	0.006549308	0.00081765774	0.0032732438	
-0.005370935	-0.016685916	0.006808724	0.0028972912	-0.011625466	0.017107693	-0.00862209	-0.0007189095	0.0060050907	0.009526165	
-0.0005719118	-0.010726734	0.012513863	0.0058391774	-0.017553622	0.015534264	-0.013984949	-0.004214486	0.012684184	0.0057256008	
0.0064135827	0.0046073245	0.011232357	0.012132372	-0.029453682	0.017748892	-0.01562892	-0.020975323	0.011734411	0.01160863	
0.005932021	-0.0037705489	0.0027058122	0.022597602	-0.036235817	0.015226738	-0.014618501	-0.022191316	0.015833579	0.015304568	
0.009635778	0.002945035	-0.0007957047	0.022827951	-0.027465176	0.007010946	-0.018138591	-0.025097966	0.009508976	0.01938222	
0.01922137	0.005377957	-0.0045569167	0.01386421	-0.029312948	0.012261908	-0.013720008	-0.025817208	0.0065890653	0.014324353	
0.017147712	0.014085696	-0.0071993666	0.0051674773	-0.024130698	0.014549024	-0.00075219414	-0.020459533	0.0011737655	-0.0011550224	
0.016849535	0.0020959852	-0.014210334	-0.002378848	-0.01547289	0.0070435135	-0.0031223127	-0.019735858	0.015555325	0.009762961	
-0.0045765857	0.003093514	-0.0022487207	-0.006625454	-0.0067332825	0.0022608598	-0.004174958	-0.012846325	0.011014872	0.022562971	
-0.005441373	-0.0034443554	0.010621648	-0.009191618	-0.0054618963	0.0032918188	-0.007820378	-0.007667693	0.0020179374	0.022357905	
-0.0026967064	-0.010888167	0.0068439115	0.0003738237	-0.0066772886	0.006940995	-0.006999955	-0.01335908	0.007516018	0.02239954	
0.0031586192	-0.013445233	-0.0058622872	0.010896257	0.0016574314	0.006010253	-0.006783192	-0.01250557	0.010900615	0.008514068	
-0.0007402951	-0.010985623	-0.008226815	0.009865322	0.0052802446	0.006388338	-0.004242412	-0.007433239	0.009751608	0.0024030264	
-0.0052365377	-0.0067363703	-0.002917291	0.0059101116	0.00039214193	0.005980139	-0.0049698795	-0.0021145884	0.008605512	0.0028303987	
-0.0021544786	-0.0032597703	-0.001694256	0.00067020475	-0.0046131792	0.0043804278	-0.0017908055	-0.0037353965	0.0038875223	0.006446255	
0.00036203142	0.00031456864	-0.0061176657	-0.0009303972	-0.003596778	0.0004496394	-0.00050655834	-0.002066701	0.0025494085	0.007115497	
0.00071512297	0.00030814068	-0.0076290024	0.0014552041	0.00051769556	0.0009204598	-0.00012412232	0.0007892491	-0.0020472978	0.003927205	
-0.0006213975	0.00035204296	-0.0013691375	0.0009104564	-0.0009251201	0.0016802764	-0.00022389067	-0.0016223937	0.0002867456	0.00024295687	
-0.0005309462	-0.0006260065	0.00069709687	-0.00043924327	0.00077618216	0.00017968508	0.00047411717	0.0007345256	0.00018479643	-0.0003809283	
-0.000757857	8.160616e-05	0.00036249496	-0.0012939216	0.0005289577	3.8636746e-05	0.001915321	0.001734177	0.0001343105	-0.00042065934	
-0.0002392873	-0.00019442636	0.0019606517	-0.0010172038	0.0006850241	0.00041916812	-7.366585e-05	-0.00046328412	0.00076807727	0.0008748092	
0.0005330202	-0.0007202576	-0.00077653886	-0.00045576075	-0.00018100199	0.00043730857	0.00046676034	0.0017686604	0.00041521853	-0.0018574346	
0.001997149	-0.0007573605	-0.0006289445	0.0005713948	-0.00061057427	0.0005929882	-0.00019775398	0.00030678525	-0.00071361545	0.002195047	
0.002668963	0.00068037753	0.0002003693	-0.00016835677	-0.00041404838	-0.00017253276	-0.0002220343	-0.0008495732	-0.002296402	-0.0011167302	
0.0012779443	-0.00016371523	0.00022665513	-0.0040898197	0.0026566088	0.0009806531	0.002585001	0.0015837478	0.0013351989	-0.0009806689	
0.0031430726	-0.0059727635	-0.004679276	-0.0037991619	0.0010896588	0.0014763945	0.0034176551	0.0042943023	0.0023155892	-0.0024751965	
0.0013405833	-0.003865477	-0.0024535647	-0.0047219167	0.003993419	0.007029412	0.001208806	0.0018813553	0.004160796	-0.006122267	
0.0007099515	-0.005296852	-0.00498036	-0.001200295	0.0076537356	0.012368683	-0.009704289	0.0008025578	-0.00017204242	-0.0011154733	
0.0018678616	-0.009182854	-0.002438345	0.0022047907	0.0022401323	0.016390825	-0.01712861	-0.0015913085	0.0074735126	0.0010474622	
0.009716644	-0.006674711	0.0018619426	0.008610919	-0.009990401	0.019197766	-0.025901208	-0.0048235254	0.0055189524	0.0014985515	
0.0143630495	0.00076897704	-0.0015287264	0.020269552	-0.010934075	0.01908175	-0.035587467	-0.017919492	0.0070837103	0.0030320338	
0.016212132	-0.0017784553	-0.0018262771	0.028301427	-0.019527419	0.019491605	-0.04156314	-0.026474036	0.012461143	0.014730303	
0.01326775	0.0028021466	-0.00441394	0.025021624	-0.021091875	0.021147067	-0.04245921	-0.034203574	0.0131830145	0.024677461	
0.01845199	0.0081985	-0.00871814	0.01943017	-0.019831123	0.027588028	-0.038639937	-0.03417864	0.017161772	0.012012333	
0.015733793	0.009606345	-0.01056489	0.011436128	-0.0120801525	0.021364534	-0.03351523	-0.03010408	0.012937834	0.013652376	
0.0025729937	0.013108229	-0.008291341	-0.003154082	-0.0043343827	0.008509488	-0.029291753	-0.01586643	0.011275876	0.024652157	
-0.0058530057	0.018275457	0.0058435416	-0.008157535	-0.0037064056	0.007814612	-0.028675716	-0.010290907	0.0014800195	0.021145295	
-0.0026037116	0.0060876277	0.008954991	-0.006905795	-0.002729497	0.0048576286	-0.014969326	-0.007873024	-0.0023822132	0.020107485	
-0.0044678976	-0.005609596	0.003850681	-0.0008657011	-0.005505182	0.001669963	-0.0072630653	-0.009920405	0.00024948077	0.021656323	
-0.0012739082	-0.0065831505	0.0018123416	0.0025063648	0.0024743602	0.001001813	-0.0052020354	-0.008736036	0.0010474869	0.011801141	
0.00041752236	-0.007860855	-0.0015357934	0.0057376437	0.001884456	0.0010111588	-0.0071656546	-0.005053916	0.0021727176	0.0055244286	
-0.00027269777	-0.006771468	0.00033787414	-0.0008406609	0.001983544	0.0015545187	-0.0024958306	-0.0018621305	0.006295872	0.0034572438	
-0.0015604005	-0.0016732701	0.00073701376	-0.0014394178	-0.0016133825	0.0009648504	-0.0011167976	-0.0023313952	0.002431606	0.005860966	
-0.00074622367	0.0012136697	-8.909355e-05	-0.0012539404	-0.0025432156	0.0020308888	-0.0009898398	-0.001129401	-0.00014781307	0.0064815953	
-0.0026560125	0.0009293318	-0.00021577842	-0.0011677664	-0.0025390969	0.0011277403	0.00075403915	9.622272e-05	-0.0007885074	0.0037782341	
-0.00016323844	-2.136736e-05	-0.0005801911	0.0011043102	-0.000727619	0.0008461209	0.0013705243	-0.0006638711	0.0001756266	-0.0009085458	
-0.00013750394	-4.565256e-05	0.0009501478	0.001177729	-5.868681e-05	-0.00051222555	0.0016066858	-0.0004197649	0.0013344177	0.0023581842	
-0.00088907924	0.0002970016	-0.0011813025	0.0010880079	0.0010112558	-0.0008836812	-0.00021793929	0.00032295036	0.0007098467	0.00014390175	
0.00015531799	-0.0013969827	-0.00035262672	0.00055838295	0.001232764	0.00035812732	-0.0006652501	-0.00020220896	0.0010422167	-0.0015143311	
0.0012441973	-0.0013385831	0.0005791327	-0.0009880223	0.0015235672	-0.00045589695	0.00013584014	0.0009975724	0.00044660698	0.00076208916	
-0.00045504753	0.0010962414	-0.0019255787	-0.0006858373	-0.0015912413	2.1848336e-06	-0.00012005908	0.0015741228	-0.0013684141	0.00086169224	
0.00018673643	7.072542e-05	-0.000840764	-0.0008689064	7.171189e-05	-0.0008426979	-0.0009820416	0.000906622	-0.0008545724	-0.0019226534	
0.0021781544	0.00017411498	0.0006801071	-0.00088430947	-0.0028557205	-0.00065511465	-0.0003703108	0.001297198	0.00037310162	-0.0007770753	
0.0033310005	-0.0031374868	-0.00037273415	-0.0020052865	0.00082371867	0.0014687788	0.00082239934	0.0044125193	-0.00072702783	-0.0024199267	
0.0058450396	-0.00392827	-0.0006251476	0.00019424061	0.0056475555	-0.002971654	-0.0005051762	0.00084327545	0.0022120187	-0.00041231525	
0.006185196	-0.0022863157	-0.0027778398	0.0020103154	0.008736389	-0.0013174391	-0.007318968	-7.464142e-05	0.0027352686	-0.004735775	
0.005933372	-0.0035254094	-0.007744178	0.0046884874	0.011022724	0.0029792464	-0.016176151	-0.0007778112	0.0049276883	-0.00019452034	
0.0099123595	-0.0050433604	-0.01490679	0.014412306	0.004140772	0.0052483613	-0.024410898	0.0023180398	0.0063560246	0.0007603105	
0.009907409	-0.00066612405	-0.013529885	0.025938775	-0.0059018238	0.007648352	-0.029753892	-0.000723346	0.00050990947	0.0051399413	
0.01411488	-0.004563853	-0.0054691276	0.028938025	-0.0052680224	0.0053909053	-0.030819194	-0.011741018	-0.0056327623	0.017957618	
0.011662731	0.003184193	0.0031337948	0.020496966	-0.0071706083	0.003979245	-0.032705102	-0.016242731	-0.0049494496	0.019977141	
0.0129623	0.0011390669	0.0021491605	0.014488336	-0.00966525	0.0112299295	-0.025238529	-0.0143727455	-0.001370846	0.0071376017	
0.0053319456	0.006742128	-0.0004740461	0.006464255	-0.011354556	0.010773503	-0.022623224	-0.0058813756	-0.0040736087	0.011838043	
-0.00032569363	0.0065552895	0.0016309475	-0.004479969	-0.0048943777	0.0032894504	-0.015781071	0.0030526149	-0.0045273276	0.01826868	
-0.0011179744	0.0013376874	0.0036287587	-0.005652493	0.0004550774	0.00025100785	-0.017291522	0.004859992	-0.0031537802	0.016018812	
0.0016338823	-0.003311799	-0.0009786075	-0.0025854125	-0.0033935155	0.00013716891	-0.006035803	0.0009894596	-0.0045287483	0.020410547	
-0.001328724	-0.005352088	-0.0011770673	0.0005219701	-0.004397757	-0.0026770928	-0.0014228299	-0.0049364404	1.4713907e-05	0.022166273	
-0.0019803857	-0.004404404	0.0012039628	0.00050075783	-0.002285881	0.00019418253	-0.0027810712	-0.004242224	-0.00025514382	0.010857025	
-0.0016518055	-0.0037018484	0.0005741436	0.0036933303	-0.00043329195	-0.0024453693	-0.0018685621	-0.0032647413	0.0022548786	0.0056311185	
-0.0033269613	-0.00027880393	-0.0010426305	0.001278947	-0.0007903015	0.00041438788	-0.00019517365	0.0023448938	0.0026620661	0.0020195781	
-0.0007734318	0.00053530454	-0.00027699445	0.00020478503	-0.0004134553	0.0011115976	0.0009834811	0.0006398463	-0.0015528472	0.0015121402	
-0.0008104323	0.00047154786	0.00073249126	-0.0007520773	-0.001346466	0.0017836771	0.00026193337	-0.00069972017	-0.0025469032	0.004447877	
-0.00033810918	-0.00010559127	2.1850548e-05	-0.0013827367	-0.0017283007	-0.00034473816	0.0015577425	-0.00046622055	-0.00053546805	0.0010372967	
0.0017815222	0.0012546562	-0.00085188885	-0.0010889632	-0.0005452889	-0.00028873628	0.0014241248	0.00086614257	-0.00019151082	-0.0009606294	
0.00044827323	-0.0007159653	0.00015639263	0.00050924695	0.0001912106	-0.0011454145	-0.0016014266	0.001138535	0.00039126427	-0.0004563284	
-0.00014733152	-0.001478604	0.0006717059	-0.0009452478	-0.0010286318	-0.00021093935	-0.00010611605	0.0007195205	0.0016545142	-0.0008208152	
0.00053062633	-0.0017652448	0.00024917192	0.0015390458	0.0002553862	-0.00041986094	-0.00014368273	-0.0004911663	0.00061487494	-0.0013338261	
-0.0016279072	-0.0010764804	0.00064996985	0.0005150099	0.00012851415	0.0003616812	0.0015742268	0.00082050764	0.0013411804	0.00091954373	
0.0010417396	0.0006605948	0.0008516431	-0.00047916375	0.00069643196	0.00096930104	-0.00040799752	-0.00018212224	-0.0014441641	0.000344217	
8.8156274e-05	0.0005210336	0.0017725142	-0.0015496962	0.00018371645	-0.0006755314	-0.0009147987	0.00033800188	-5.9520695e-05	-0.0009024031	
-0.0017919065	-0.0013976264	-0.00074277073	0.00036516116	-0.000665341	-0.000104144834	-0.00022045508	0.0028957024	0.00074602844	-2.0910229e-05	
-0.00035946557	-0.0017877687	0.0012059314	-0.0012454964	0.00094528234	-0.0010306395	-0.0031905537	0.004589313	-0.00046905066	0.00095551024	
0.0008606088	-0.004162701	-0.002098934	0.00011837126	0.0041224714	-0.0008332756	-0.0032099446	0.0037737594	-0.0010281549	0.001534958	
0.004151082	-8.522057e-05	-0.000573917	0.0010995343	0.006014077	-0.0032614516	-0.005498889	0.0026140106	-0.0041369763	-0.001082063	
0.00091350375	0.0017510552	-0.0028761586	0.005469376	0.004573035	-0.0035246431	-0.012012335	0.0065472354	-0.0049584648	0.0022249972	
0.0026284687	-8.147277e-05	-0.0045108893	0.008125121	0.0026184302	-0.004798691	-0.014401743	0.01180835	-0.0060648844	0.0012410337	
0.0042302776	0.0016531397	-0.00392413	0.009145774	-0.0013550769	-0.008922617	-0.016349709	0.012471682	-0.008562317	0.0145264445	
0.0058002444	0.00088550826	0.00397918	0.014196396	-0.0017553748	-0.0097728195	-0.017486101	0.00941663	-0.014163146	0.009458746	
0.0033748802	0.0001483842	0.0017401418	0.012681627	-0.004159673	-0.003546568	-0.017537972	0.010230888	-0.014882829	0.012301909	
0.0047421064	-0.0048019174	-0.00029776816	0.004668554	-0.002222531	0.0016523603	-0.010744461	0.013375666	-0.011265739	0.004535828	
0.0033664557	-0.0076828008	-8.753035e-05	-0.0015960238	-0.006080877	0.0015716534	-0.009308455	0.024281712	-0.0100018345	0.0104596885	
-0.00082227937	-0.0062159044	-0.002195004	-0.003127412	-0.00844254	-0.002522499	-0.010561186	0.026485406	-0.012895325	0.018753638	
-0.0043694307	-0.004254689	-0.001666328	0.0027490873	-0.007020525	-0.0028890872	-0.009584252	0.021158695	-0.0078823045	0.017427752	
-0.004168427	-0.0026071223	8.924819e-05	0.001139345	-0.008106738	-0.0010633208	-0.004648652	0.013171938	-0.009034219	0.015531683	
-0.0045763645	-0.003609302	0.0024751988	0.0010249099	-0.0072450433	-4.9523325e-05	0.0022496611	-0.00068771996	-0.0041072345	0.014677843	
-0.0033732092	-0.0015419457	0.0010037778	0.0023389447	-0.0029993309	-0.0021054437	0.0010662575	-0.0030650836	-0.0022145726	0.008347429	
-0.0023784868	-0.0019311312	0.0017556759	0.0010331953	-2.3165876e-05	4.434191e-05	-0.0037231885	-0.0028264392	0.00032581078	0.005188594	
-0.00030370915	-0.0011731278	0.0012215021	-0.00034512454	-0.0025062782	0.0004736873	-0.0006595269	-7.765733e-05	-0.0006124981	0.0017268315	
-0.00058260525	-0.0007233388	0.00035144118	-0.0014831425	-0.0015379274	0.0007224036	-0.0016275268	0.00055942516	0.00017763737	-0.0010995939	
-0.002960532	-0.0013980244	3.6892496e-05	-0.00039311807	-0.00041801418	0.00069114537	-0.0018202144	-0.00093553524	-0.0013194056	0.0018457534	
0.0019340286	-0.00039461273	-8.8230416e-05	0.00026114917	0.00027922975	0.00081180764	0.0003216224	-0.000995144	0.0010533902	-0.00035319183	
-0.00017058507	0.000188907	0.0009391285	-0.0008378479	0.00079554087	-0.00049517857	7.943568e-05	-0.0010370514	0.00041931067	0.00083864207	
0.001199529	-0.00052791904	-0.0006635419	0.0004189828	-0.0025052344	8.2574225e-05	0.001647707	-0.0007205298	0.00045905603	-0.00090411503	
0.0011997465	-0.00023862772	0.0004061597	2.5625233e-05	0.00015473695	-0.00019094186	0.0016145718	0.00041867973	0.0004497804	0.0011032065	
-0.0011584697	0.0005200631	-4.455404e-05	0.00080783834	0.00024459208	-0.0005948596	-0.0009584188	0.0012537168	-0.000611504	-8.418616e-05	
-0.0019742516	-0.00086651416	-0.0005238304	-0.0004924311	-0.00042612778	0.0016785306	0.00069436803	0.0018145149	-0.0012174555	0.00074299256	
0.00052674755	-0.00069781276	-0.00024303602	0.00070616364	0.00023433173	-0.0003867025	0.0005371146	-0.0010958808	0.00057054736	0.0006205326	
-0.0011913028	0.00061107415	-0.00076279056	-0.0002872437	0.00082902494	-0.00052085146	0.0017183998	0.0012434574	-0.0006657981	5.701546e-05	
-0.0007594927	0.0010234338	-0.0022891127	-0.0016658207	-9.7059165e-05	0.00095104857	0.00046220145	-0.00026976888	-0.00091113953	0.0011508391	
-0.0010310636	-0.0010729386	0.0018771567	-0.00029391286	-0.00062363845	0.00028751564	-0.002231478	0.0015781965	-0.001194697	0.0020505292	
0.0002833295	0.001531918	-0.0013126751	-0.0018926142	0.000999116	0.0017093184	-0.0030819254	0.0006839644	-0.00086158956	-0.00025056137	
0.00082988816	0.0007860057	0.0002911281	-0.0019007426	0.0033024137	0.00017971484	-0.0037176525	-0.00016235656	0.0001239671	-0.001718209	
-0.00038819978	0.0011669924	-0.0004519808	0.004933241	0.0045425887	0.00053845695	-0.0038086637	-0.000367991	0.0011582599	-0.001533187	
-0.0009995267	0.0030441468	-0.0023355952	0.007349611	0.0018261842	-0.0020174256	-0.0029301306	-0.0024048453	0.0018486724	-0.003553608	
0.0017757117	0.003616578	-0.00025342114	0.0025319762	0.00059981865	-0.0029296612	-0.003176971	-0.0014505897	-0.0020431306	0.0015557822	
0.0025320265	0.005921498	0.0010854292	0.0036105777	0.0028519235	-0.0001029857	-0.0061301617	-0.010139842	-0.0041634017	0.0017512427	
0.0017269519	0.0037159305	-0.0027381643	9.068567e-05	-0.0010286625	-0.0010808879	-0.00689626	0.0012516633	-0.002911294	-0.002211235	
0.0016098074	0.00031996032	-9.6062395e-05	-0.00042308558	-0.0024039703	-0.0017245836	-0.0040461556	0.013775424	-0.0028745627	9.307894e-05	
0.0014655476	-0.0030489904	-0.0018249492	-0.0070272307	-0.004551827	-0.0026742641	-0.0034474663	0.019407237	-0.0054526143	0.0047313073	
