-0.00028925433	0.0002810767	0.00031994155	-0.00024396395	0.0006734034	1.2633701e-05	-0.0014118347	0.0008417385	0.0005904669	0.0002849751	
-0.0012548366	-0.0007083054	0.0009290249	0.0027926022	-0.00061214075	0.00014992578	0.0005573765	0.0005421882	-0.0011495971	0.00068915857	
-0.00010644403	-0.0006840016	0.001856957	-0.00040132873	0.002079609	-0.000827395	-0.00029664772	-0.002314617	-0.0011543096	0.001855554	
-0.0002829121	0.0006978115	0.0009539141	-0.0001607668	-0.0005060108	-0.0022818064	-0.00041405892	-0.0006982202	-0.0010544943	1.0123296e-05	
-0.00079571264	0.0009684116	-0.0011991453	0.0018300558	-0.0012116805	0.0006618291	-0.0006891151	-0.0012715004	-0.0020861293	-0.0004688143	
0.00012455405	0.00024605304	0.00031707864	-0.0001614798	0.0001222301	0.0015048546	-0.00036585343	0.000539869	-0.0002667572	0.0009336444	
-0.00024204762	-0.000906289	0.0010306324	-0.0008610773	-0.00030509348	0.0019772653	0.00011906099	-0.00178658	-0.0020074358	-0.0004251593	
0.0026586344	-0.0010798959	0.00019556726	0.00030422714	-0.000426235	0.0005157414	0.0011855834	-1.5453448e-05	0.0008519249	-0.00015259054	
-0.0003819265	-0.0011909553	-0.0013122949	0.002278902	0.0011326958	-0.001469162	0.00069228205	-0.00037093053	-0.00020222596	0.0003802929	
9.076779e-05	0.000980386	0.00033220326	0.00025454094	0.000470966	-0.00028133322	-0.00022835641	0.0011522175	-0.00029480734	0.0015461202	
0.001102472	-0.0006523436	0.00106085	3.7791255e-05	-0.0008049086	0.000944124	-0.0006134874	0.0014670717	0.000109078224	0.0007590828	
-0.00036516073	-0.0023606638	-0.0010098714	-0.00097449217	0.00015984078	-0.00096680975	0.0004854142	0.00068264245	0.0003598356	0.0006095315	
-0.0009986137	4.8208094e-05	0.0010809992	-0.00073529436	-0.00013475533	-0.0007476017	-0.001624217	0.00029809264	-0.0030383645	0.0010240615	
-0.0017550645	0.0007788833	0.0006468174	0.0012170284	8.731174e-05	0.00073153595	-0.00039994903	0.0014271702	-7.0170754e-05	-0.0006512748	
0.0011586628	-0.00029009674	0.0008979032	0.0002281985	-0.0010733699	0.00039751324	-0.0010191157	0.0015381282	-0.00026361196	-0.00032064697	
0.0006629569	0.0007737897	3.026334e-05	-0.000798255	-0.0018781893	0.00060124043	0.00080992637	9.457439e-05	0.0018210968	-0.0008567229	
-0.001244072	-0.0014884392	-3.9157774e-05	0.0011340163	0.00024869424	-0.0007365609	0.0011547393	-0.00013710049	0.00087635906	0.00022326932	
-0.0014918061	2.666636e-05	-0.00050758495	0.0008557363	-0.0005186145	0.0008991903	0.00030849074	0.00052955747	-0.0012507038	-0.0010798965	
-0.0021523435	-0.0006322696	0.0010773623	-0.0002986688	0.0007038501	-0.001935913	-0.0014583978	6.2438885e-05	-0.0010613068	-0.00032568866	
0.0017142636	0.000121375764	0.00033789844	0.0015776393	-0.00011045495	-0.00094558706	0.0008945265	0.00031866366	-0.0012691384	0.0004248261	
0.0013243838	0.000100494915	0.0004955597	-0.0025822711	0.00058405753	0.00056435436	0.00071704626	0.0009188955	-0.0001949667	-0.00085322844	
-0.0018741152	-0.00067559426	-0.00092092	0.00031678312	-8.848837e-06	-0.00022160113	-0.00075420894	-0.0008575939	0.0009744559	-0.00054620224	
-0.0011859725	0.0007942204	0.00027914922	6.416504e-05	0.0014242384	-0.00078849785	0.0010208647	-3.5985813e-05	-2.8317836e-06	-0.0019025669	
-0.0012786363	-0.00019361114	0.0005219655	0.0009654736	-0.0005821055	0.00027254515	-0.0011284966	-0.00024093615	-2.989861e-05	-0.00022999173	
8.527191e-05	0.00076518365	6.117719e-05	0.0007674572	0.0011013558	0.0005370943	0.0005646066	0.0012492226	0.001178643	0.0013735356	
0.00040256552	-0.0010502086	0.0008142747	0.0019758283	-0.0009192118	0.0020237076	0.0007795736	-0.0005565158	0.001326185	-0.00049778976	
0.0004048808	0.0013692054	-0.0010076045	0.0016239927	0.00067253417	-0.0006278844	0.0009489298	1.2276927e-06	-8.71502e-05	-0.00038712056	
0.0009387183	-0.00019830899	0.0014383625	5.755663e-05	-0.0006796212	0.00044047635	0.0006167946	-0.0012974303	0.00011335167	0.001853442	
-0.0017607198	0.0017114464	0.00076660415	-0.001022129	-0.0015344215	-0.00062828837	0.0007975895	0.00045101327	0.00020287583	-0.00072676054	
0.0013109465	0.0004962819	-0.00061380386	0.0005622015	-0.00025729946	0.0006122833	-0.0011240814	-0.0017011347	-0.00043826996	0.00036775667	
0.0014816347	0.00029294932	-0.00042030998	-0.0018866099	-0.0014462494	-0.0009462519	-0.0006585964	8.658533e-05	0.0019411423	0.0012938824	
-0.00051085145	0.00043787915	0.0006599585	-0.0002229507	-9.477269e-05	0.00017573661	-0.0016311279	-0.0005348981	0.0005666307	0.00066325715	
-0.0021540478	-1.1929781e-05	-0.00087599776	-0.0020872224	-0.0009571325	0.0023412926	0.0010749627	-0.00014708143	0.0021527377	0.0017555043	
0.0003753735	-0.0009545242	-0.0007914725	0.0013060018	0.00046871603	0.00036833945	0.00020678346	-0.0006054827	-0.000682853	-0.0018960891	
0.00087118434	0.0004973221	0.00058106054	-0.00061835867	-0.001227573	0.0009970532	-6.0260092e-05	-0.00077782065	0.0009666526	-5.5843546e-05	
-0.0018906042	-0.0017367591	0.0002711979	0.0012316493	0.0006520115	-0.00014500784	-0.0007853148	0.0003219054	-0.0010913302	-7.052016e-05	
0.00028092216	0.0009669815	0.0007987392	0.0007781589	0.00027422348	0.00013166234	0.0010669086	-0.00012605399	0.00084247557	-0.0003757729	
-8.84359e-05	-0.00015135846	-0.00017634622	0.00040892413	-0.00023524293	7.69749e-05	-4.424079e-05	0.0008615126	-0.0008479644	0.0021535982	
-0.0018848021	0.00211527	-5.810313e-05	0.001237346	0.0009555244	0.0022848067	-0.0009918532	0.0012383901	-0.0016979926	0.00045386917	
1.6707982e-05	0.0006300915	-0.0015036932	0.00037448958	-0.0005341613	0.0018216448	0.0006416654	0.0020088311	-0.0005435182	0.00087986625	
-2.824821e-05	0.00087171764	2.7245549e-05	0.0006292654	-0.0019386787	-0.00057423173	-0.00035677978	-0.0016937896	0.00068180513	-0.0009833482	
-0.0009516621	-0.0008256538	0.0006342015	-8.773337e-05	0.0010261275	-0.0011969445	0.0035011668	0.0007209769	-0.00037532003	6.07152e-06	
-0.00037947102	0.0006812195	0.0027727035	0.00067352137	0.00031237715	0.0003148764	0.0021294996	-0.00021229185	0.0009867274	-0.00082987966	
-0.00035730805	-0.0021151055	0.002324385	0.0008933064	0.00027609506	4.217454e-05	-0.00024285837	0.0017304287	-0.00029095288	0.0012557904	
-0.0004029152	-0.0017170958	0.00030381145	0.0013028125	0.0014508183	0.00035587492	0.00076601084	-0.00012385528	-0.0010998939	-0.0017641642	
-0.001543319	-0.00016257868	0.0011799213	-0.0005899658	0.0007706642	-0.0012189586	0.0015651229	-0.00061293977	0.0007276292	-0.0009140724	
-0.00022136758	0.0004244732	-0.0012943625	-0.0010735122	-0.00031555962	-0.0010734599	1.6561127e-05	0.00192198	-0.0006597127	0.00121736	
-0.00083332876	-0.0013695986	-0.001526334	-0.00092671794	-0.0007673261	-0.0015429842	0.002348899	-0.0011729479	-0.0019263269	0.00022168843	
0.0006689916	0.0023347181	0.0001212107	-0.00022650429	0.0010597879	0.00066499296	0.00032596724	0.001183058	-0.0008370487	0.00030791952	
-0.0016693932	0.00069942547	-0.00025733668	-7.9697405e-05	-0.00069254736	-0.0011118341	-0.003185446	-0.0018914166	0.0010596699	0.00023019346	
-0.0007458934	0.0004351815	-0.00015679908	-0.0014089062	-0.00023930486	0.0011248778	0.0005733499	8.502575e-05	-0.00022150429	-0.0003132871	
0.00042213136	0.0011229909	-0.0005465815	5.1427633e-05	-0.0006894624	-0.0014253958	0.00101725	0.00067157956	0.0010126551	-0.0013366956	
-0.00037299364	-0.00049061363	0.0010221929	-0.0008860895	1.0027554e-05	-0.00034661085	-0.0015857434	5.347373e-05	0.0005932268	0.0013265659	
8.290436e-05	-2.6981379e-05	0.0007391572	0.00164623	-0.0005582472	0.0014107521	-0.00010328625	-0.0005690753	-0.0013440414	0.00077700947	
0.00044279647	-0.0003997382	-0.0007063872	-0.0004284271	-0.00090837566	-0.0017094461	0.0012077938	0.00024016402	-0.0003979843	-0.0009000114	
0.00018919283	-0.00047719397	0.0002621106	-8.248791e-05	0.0008040541	-0.00033582043	0.0010619547	-0.00042224134	0.0008381908	-0.00050054095	
-0.0003739561	0.0011441965	0.00094810256	0.00024383604	-0.0006630295	0.0003304387	-0.0029178534	0.00071712374	-0.00021149436	0.0008939674	
-0.00039262127	0.0012851253	-0.00042011967	-0.0025656566	-0.00044898505	-0.0023815408	0.00103097	0.0011321126	-0.0026868875	-0.0004193927	
-0.00024178156	0.00010673105	-0.000877916	-0.0010782249	0.00019035798	-0.00040651995	1.51734375e-05	-0.0011102037	-0.0016500267	-0.0002270011	
-0.00032859648	0.00016888333	0.0011800894	9.834146e-05	-0.0021800848	-0.00200131	0.001400257	-3.0479903e-06	-0.0012468738	0.00081806025	
0.0013449637	0.0005703606	4.5626482e-05	6.06393e-05	-0.0019837169	-0.0001619883	4.2912343e-05	-0.0008212119	0.000358293	-0.00047266035	
-0.0004426961	0.0015004539	-0.00027658595	-7.46995e-05	-0.001535425	-0.00045781833	0.00051847746	-0.00068869133	0.00031490804	-0.00051919516	
0.001583238	-0.0021339636	-9.6369105e-05	-0.0005655611	-0.0006911468	0.0004952173	0.0007468596	0.0003397534	0.00026312686	0.0004173092	
5.5542034e-05	-0.00081160193	0.00029981893	0.0013761597	-0.00059521967	-0.00081907865	-0.00040592585	0.0020961745	0.00029321603	-0.00085298903	
-0.00020639008	-0.0014976993	0.002229817	0.0009702076	-0.0012383477	0.001204283	0.000116666335	-1.3686491e-05	-0.0014325429	0.0006157874	
0.0010638537	6.5765154e-05	-0.00061564986	0.00014266008	-0.0012383858	0.0013090244	0.0035588634	-9.182087e-05	0.00044832568	0.0009348389	
-0.0010881257	-0.0026843688	0.0009052093	-0.0014799375	-4.930057e-05	-6.739291e-05	0.0041600713	0.001790389	-0.0014255039	-0.0010752811	
-0.0025158012	-7.4886484e-05	0.002726033	4.1914936e-06	-0.0006683436	-0.0024344595	0.0013371839	0.0020041883	0.00091915904	-0.00020692206	
-0.0024042018	0.0005352233	0.00091502036	-0.0004794664	-0.004253034	0.00210735	-0.0016422824	0.0011453349	-0.001510131	0.0003714778	
-0.0020913486	0.00026146116	0.0007863751	-0.0020278692	-0.0029842246	-0.0011362844	0.002700908	0.00081386743	0.0022412085	0.0023593977	
0.0017436324	-0.0016149756	0.0031767464	0.00062505563	-0.0032632113	-0.0039697783	0.005035082	-0.0010749064	9.887153e-05	-0.0015616599	
0.0030734343	-0.0015927727	0.0046294993	0.001726293	-0.006287262	-0.0078018857	0.0051218653	0.0008241121	0.0014988006	-0.0011782028	
0.00089056214	0.00019896649	0.0048078173	0.0023804237	-0.00414566	-0.010713142	0.006946035	0.0017881823	0.001854596	0.0012938234	
-0.0019684762	0.00010446146	0.004536484	0.0004322924	-0.0027341237	-0.015269332	0.014704072	-6.930973e-05	0.0012660348	0.000335239	
-0.00022107462	0.00014845812	5.2614487e-06	-0.0016204005	-0.0032969937	-0.017431255	0.019197594	0.0018379089	0.00021274821	0.0007584683	
-0.00022430863	-0.00050578016	-0.0004140279	0.0003767061	0.0019460171	-0.014892187	0.014058604	-0.0028541326	-0.0003761738	0.0010097537	
-0.001252932	0.00033214845	-0.00045456158	-0.0015709433	0.0018925471	-0.009849224	0.007824281	-0.0016933801	0.001216526	-3.1450356e-05	
0.00086387456	0.00016771295	-0.00073768175	0.00044353658	0.00042615036	-0.0023682304	0.002509366	0.00053988566	0.00030324416	-0.00032557148	
0.00081407605	0.0009836908	0.0006153441	-0.0003823966	0.00033999124	0.0006430461	0.0012191277	-0.0008476415	-0.00045284932	0.0006811406	
-0.0015891658	-5.0647272e-06	9.838288e-06	-0.0005328823	-0.0005879562	0.00081132964	-3.457999e-05	0.001442325	-0.0005503226	0.00029493286	
0.0006808972	0.0010209535	0.0017571184	0.00017033982	-4.6730245e-05	0.000852639	0.0013132074	-0.0014740543	0.000369486	0.0006523436	
-0.0013276355	-0.00021477991	0.0011962927	-0.00044800283	0.00038626688	-0.00059139996	-0.0021688782	0.0002314238	0.0005142936	0.0007680849	
-0.0012592935	8.153773e-05	-0.0007816336	0.0005512951	0.00087181694	-0.00059285853	0.001401025	0.00056792924	-0.0005744744	-0.00093787455	
0.0009018042	0.00014394143	8.689819e-06	0.00036903622	-0.00024362645	-0.00015654766	0.0006090977	0.00069120416	-0.00048702385	-0.0011469643	
0.000579488	-0.00011004513	0.0004231597	0.00061154686	-0.00030544854	0.0001577878	0.0015548931	-0.0013089738	-0.0010724565	0.0010919702	
0.0003350182	-0.0006964877	0.0013890367	0.0021714806	0.000915334	-0.00010913818	0.0016633221	0.0003703779	-0.00040891324	0.00021242334	
0.00062854076	0.0005060036	0.00096153864	0.0007194057	0.00072637136	0.0008742426	0.0003930003	0.00026059707	-0.00018960328	0.00082162884	
-0.00018620584	0.0007391183	-0.0016910895	0.0005462004	-0.00035102968	0.0015822719	0.0019450024	0.0010230201	0.0016706598	0.0014143325	
-0.00046462842	0.00092691596	0.00037979454	-3.9403385e-06	0.00060080533	-0.0006852989	-0.00028560648	0.0010634366	-0.0009791647	-0.001997605	
-0.0010709433	-0.00034897256	-0.0016330443	-0.000469285	0.0021601194	0.0003028512	-0.0012665977	0.0010366951	0.0011545068	0.00018078128	
-0.0012253125	-0.00097021274	0.0010291062	-0.00020401369	-0.00058917643	-0.0006436901	-0.0025922847	0.0009921365	-0.00074381824	-0.0019205534	
-0.00060073705	0.00014099429	0.0036268786	-0.001341465	-0.000429648	-0.0019716853	0.0011851842	6.545591e-05	-0.00049053744	-0.0020640343	
0.00015144303	-0.0017177693	0.0046518925	0.0006625636	-0.003572865	-0.0016203576	0.002132198	0.0006528816	-0.00071670883	-0.00062365254	
-0.0010139929	-0.0009237389	0.0043439646	0.00023563633	-0.0037596466	-0.0012763779	0.0045973975	-0.00014647946	0.0023874189	-0.0016737978	
-0.0015898846	-0.0051331883	0.004208524	0.00053354545	-0.0042542247	-0.0017788211	0.0055986065	0.0013930437	0.00070678734	-0.00035510765	
-0.002556133	-0.005954439	0.0034554075	0.004929652	-0.0052081216	-0.0033515852	0.0020270755	0.0017317447	-0.00039396848	0.00026599006	
-0.0005193378	-0.011969623	0.006464515	0.0053016115	-0.0050254944	-0.002805064	0.005732304	-0.0010588752	0.00076288846	0.0020365238	
0.0012478597	-0.010675233	0.011997648	0.004087874	-0.004162298	-0.011246658	0.015396468	-0.00078332727	-0.0023919216	-0.0007189127	
0.0012139011	-0.010683183	0.014540968	0.008498113	-0.008061357	-0.015350527	0.01892688	-0.0019069399	-0.00078513706	-0.00356309	
9.0068854e-05	-0.014289842	0.011922012	0.009309201	-0.0076505984	-0.02374964	0.023202855	0.0006803127	0.0013534324	-0.003371929	
-0.0011340012	-0.01346367	0.009976375	0.006980654	-0.008815904	-0.028335722	0.033090465	-0.0013458171	0.00022589558	-0.0021382056	
-0.0034905775	-0.009508738	0.002005143	0.0068431417	-0.0050352262	-0.030763106	0.043647043	-0.0020981033	0.0009422849	-0.000759214	
-0.002564383	-0.0026369467	-0.0006698243	-0.0006218891	-0.001135065	-0.031022824	0.036652967	0.0025596325	-0.00022964881	0.0020388113	
-0.00095370406	0.0023106155	-0.0042601107	-0.003799354	0.0005684607	-0.020042855	0.024553416	0.0006177224	0.0008179857	0.0024322588	
-0.0023411047	0.0011348053	-0.00043356282	-0.0029258358	4.6928344e-05	-0.011376953	0.007990046	0.00020010048	0.0010452471	0.0026346701	
0.0005100362	-0.00021000308	0.0021623627	-0.0012282179	0.0012052763	-0.0009373262	-0.002249198	0.0005006995	-0.001111133	-0.00040575638	
-0.0013875768	0.0013400796	0.00094669993	-0.0011430179	-0.001110945	0.00013204345	-0.0011373516	0.0013018454	0.00073124847	-0.0011746703	
0.001843016	0.000686019	-0.0011353809	-0.00052911614	0.00014110669	-0.0018277062	0.0015199684	-0.00067897857	-0.00018114859	0.00032952309	
-0.0027333298	0.0010497526	-0.0009920034	-0.00010099957	-0.0021079227	-0.0010507392	0.0009361263	-0.0001391685	-0.00023290822	0.0003039097	
-0.00023247566	-0.00059975096	-0.00066567166	-0.0003418721	-0.00060885854	0.00011413078	-0.00021113441	6.702023e-05	0.00097004755	-0.0005164497	
0.0011156941	0.00051177305	0.0006802247	-0.0012276034	0.00042749543	6.13308e-05	0.0004950244	0.0010570032	0.0018326519	0.001310814	
0.0003967315	-0.000113179325	0.0014730612	-0.0010822499	0.00042010733	-0.0010407196	-0.0008372844	-0.0010248338	0.0012338511	-0.0004355249	
9.49402e-05	0.0012410455	0.0012371232	-0.00047703157	-0.0006421287	0.0007553174	0.0002102805	0.0012583055	-0.0009544856	-0.0016428885	
0.00033804215	-0.00093102606	0.00074112	-0.0013976626	-0.0006297679	0.000114872775	-0.0022308584	0.00032558694	0.00074226724	-0.0015747781	
0.0016153194	-3.0979092e-05	0.0018276523	0.0004988412	0.0012526221	0.0025183756	0.000121873236	0.00011976848	0.00029716975	0.0012962578	
-0.0012748351	-3.690124e-05	0.0007573651	-0.00034182423	-0.0003862154	-0.0014111035	0.0002535794	-0.002929912	0.0014921349	0.0010834099	
-0.0010211621	-0.0006122254	-0.00041997558	0.0015170849	-0.0007305045	-4.1591513e-05	0.00091861037	0.0010182179	-0.0014011419	-0.0022082536	
0.0012856548	-0.0014552528	-0.0011535925	0.0026516663	-0.001560633	0.0017018189	-0.0012254415	-0.0011702885	0.0009556373	0.0012252613	
-0.00074326294	-0.0005514374	0.0011190802	0.0031084316	-0.0014821497	-0.00025506935	0.0013222554	0.0015364446	-0.0008547285	-0.0014329026	
-0.0022441181	-0.0029818157	0.0038089436	0.0016395018	-0.0045298208	-0.0019974625	0.0031532447	0.00171834	0.001571825	-0.0013147017	
-0.0029043355	-0.0043138545	0.008674063	0.0031653713	-0.0032880162	-0.00157043	0.0021361362	0.0010168961	-0.00017602887	-0.0012843177	
-0.003576487	-0.007900692	0.008109662	0.0060750176	-0.004034939	0.00061886286	0.002981156	-0.0027506615	-0.00075323734	-0.0008524051	
-0.0035971582	-0.012707144	0.008063565	0.009531102	-0.007518644	0.00013303095	0.004827599	-0.0014784414	0.0019430742	-0.0019470223	
-0.001665496	-0.019357478	0.009209325	0.010448872	-0.0060179643	0.0031427562	0.0019036938	-0.0014093298	0.0042029843	0.0034506742	
0.00090367685	-0.01946622	0.008335008	0.013147192	-0.0046521025	-0.002612544	0.007407819	-0.00545163	0.0046996297	0.0026278743	
0.0046685524	-0.016449137	0.008102955	0.016265448	-0.012553739	-0.011559729	0.012910863	-0.01433518	0.009410749	0.0007443812	
0.0073901378	-0.017488098	0.011782878	0.017919969	-0.013612167	-0.013133188	0.017136665	-0.015881553	0.015817596	-0.0054791444	
0.0019735827	-0.018810423	0.009662499	0.027511738	-0.0139350705	-0.024496188	0.029095894	-0.020488087	0.015737979	-0.007366713	
-0.0051456937	-0.022988936	0.013785339	0.022817563	-0.014500489	-0.031099694	0.042220533	-0.019272596	0.018599963	-0.0059275664	
-0.0051237685	-0.012180435	0.010735865	0.0142564345	-0.013490307	-0.035044856	0.043824926	-0.014195135	0.011632994	-0.0021723965	
-0.0072259875	0.004506162	0.0034940296	0.005128127	-0.005581192	-0.029851973	0.0319399	-0.010511893	0.006901919	0.00069951074	
-0.00843397	0.009273554	-0.00070946506	-0.0014173166	-0.00048158425	-0.012472942	0.0136833	-0.0072870906	0.00581442	0.0022913234	
-0.004775714	0.0056562554	-0.0006217501	-0.0036193603	0.0017529579	0.0014828016	0.0021342782	-0.005169967	0.008242062	0.0006216935	
-0.0010740177	0.0035573964	0.0009472839	-0.0047420487	-0.0021417567	0.0058202506	-0.004187022	-0.0024393268	0.006190051	-0.0014210897	
-0.0013401071	0.001157569	-0.0014725043	-0.0025740168	-0.0038790612	0.0028313054	0.0014128769	0.00017010042	0.0018085571	-0.00023055945	
-0.0019167498	0.0009123962	0.00032041798	-0.0009899653	-0.0013243859	0.003791778	0.0013627922	-0.0022027616	0.0017731009	-0.00050589076	
-0.00072923786	0.000832425	-0.0001337885	-0.0010642257	-0.0018240697	0.0034372495	-0.00035141772	0.00024032228	0.0003831942	0.00014500019	
0.0010585377	0.00014463889	7.363934e-05	-0.0007743503	-0.00071483373	-0.000994693	-0.00031915403	0.00067982904	0.0023882578	0.0005760126	
0.0004995069	0.0008124951	-0.00059321435	-0.0011647503	0.0011995564	-0.0009175096	0.00037254192	0.00093059294	0.0015907933	0.00097414793	
0.0003092653	0.00015556694	0.0008434402	0.00012568623	-0.0013521132	0.0005128468	0.00017847803	-0.00085513125	-0.0020079103	0.0012818233	
2.4981793e-05	0.00013255516	0.0016316624	0.00039427791	-0.0006347784	0.00013818816	0.0007023143	-0.0008406425	-0.00013034078	-0.00034387142	
-0.0021243864	0.0010671328	-0.0013366386	0.0027722274	-0.00051356165	0.0019891309	0.0011482103	0.00054584735	-0.0009959713	0.00082289474	
0.00071564835	0.0015345847	-0.00015541598	0.0002258927	-0.0003870839	0.00075263495	-0.00018331429	0.0001251496	0.002259548	-0.0020614665	
0.0017237301	0.00020981513	-0.00028898777	0.0007834177	0.00047866016	0.0004788791	-0.0011810346	-0.0007060793	0.00050915504	-0.0003899352	
-0.0011589052	-0.0011475114	-0.0014409269	0.0003764578	-0.0017022149	0.0009374782	0.0026349486	0.00077057135	-0.0010913769	-0.0005980398	
0.00046466684	-0.0010186107	-0.0008009402	0.001533129	0.00058513705	-0.0021064458	-0.0019744562	0.0012822865	-0.0015647489	-0.0024700467	
-0.0010866227	0.00041495537	0.0022188907	0.0029355711	-0.001467898	-0.00033484702	0.0014706482	-0.00020844709	-0.0017874863	0.0012405566	
-0.0022423533	-0.0033403253	0.0021858197	0.0064424737	-0.0021263652	0.00010028936	0.002099823	0.0011636913	0.0014455579	-0.00465559	
-0.005825848	-0.0068449206	0.0007766034	0.011985204	-0.0023084339	0.003443569	0.0036069762	0.0021643697	0.0007392708	-0.0030885304	
-0.005574456	-0.018622492	0.0036982114	0.014431796	-0.003513539	0.0021334707	0.003299514	0.0005036291	0.003680747	-0.00079354004	
-0.002250443	-0.023990063	0.0019609805	0.016677447	-0.008888445	0.0067485487	0.002194364	-0.0019146507	0.007333181	0.0048992923	
0.0025288435	-0.027900696	0.0003325122	0.018411497	-0.012370915	0.006348307	-0.0013860126	-0.009762241	0.015813129	0.0042625014	
0.0015766185	-0.032009054	-0.0012626549	0.029879326	-0.013041428	0.0048538717	0.005922205	-0.019907674	0.021103479	0.0021452412	
0.0007556553	-0.025060615	-0.0010159848	0.029700857	-0.013464051	-0.00023235528	0.0067685707	-0.033442147	0.029787458	0.0015639443	
0.0047650896	-0.01700877	-0.0035857267	0.031849165	-0.014321514	-0.0044509447	0.0124432435	-0.039115638	0.03237491	0.0011517323	
-0.0006342284	-0.01498674	0.0039246245	0.023429096	-0.01688545	-0.014988537	0.031846926	-0.05123344	0.03810842	0.0012757571	
-0.0023903428	-0.0239651	0.005897088	0.025125578	-0.02094637	-0.022329465	0.04183317	-0.05250393	0.04245525	0.0039335443	
-0.0040494795	-0.0097334795	0.006471575	0.0148897525	-0.01350354	-0.019985484	0.03104681	-0.048113532	0.04295371	0.0035372814	
-0.010699043	0.0058986237	0.0043531917	0.005684223	-0.0007994949	-0.005896627	0.01061998	-0.039562665	0.029847939	0.00076167	
-0.014391632	0.012278489	0.00638291	-0.005473268	3.0145287e-05	0.0064160055	-0.005687849	-0.031170068	0.028500104	0.0042590983	
-0.0147731025	0.0115434835	-0.002082714	-0.00890687	-0.0028956179	0.012399344	-0.00841945	-0.019797502	0.024678249	0.00029953523	
-0.0088646645	0.0056087244	-0.0007827365	-0.004132233	-0.009870764	0.019760134	-0.0034591337	-0.010775448	0.014780048	0.0007492874	
0.0002536	0.005126393	-0.0042644315	-0.006890736	-0.011836226	0.019514317	0.00023939315	-0.0070743333	0.009061146	0.0006025893	
-0.0013950551	0.004146615	-0.0016147792	-0.0060213604	-0.007443623	0.014569217	0.0007134382	-0.0064218966	0.0034771133	7.5407355e-05	
0.0022174108	0.001105719	-0.0014915605	-0.0017336042	-0.0056644785	0.010753255	-0.00037430172	-0.0005331879	-0.0013457608	-0.0013748171	
0.0023874326	0.0015884155	-0.0016096598	-0.001575324	0.0017161499	0.002895696	-4.1143e-05	0.00011527894	-0.0008496694	0.0010167474	
0.0004029772	0.00037523382	-0.00054962473	-0.001764907	0.0002357554	0.0021482317	0.0020121222	0.00043511967	-0.0015368547	0.0010486528	
0.0009460321	0.00036735352	-0.0012142424	0.00032156636	-0.0014099742	-0.00075586233	-0.00040073707	0.00041013496	-0.00019636512	0.0006741815	
-0.0015236186	0.00011647254	0.00010343441	0.0006942051	0.001002096	-0.0012603047	-5.2502205e-06	-0.00057965197	0.00035723613	-0.00197185	
-0.0015212751	2.1338547e-05	0.0003165438	0.0005398165	0.0014682558	-0.00021516842	-0.00019331448	-0.001197035	-0.0013150059	-0.0015536016	
-0.000741506	0.0019829404	-0.0026829252	-0.0012826233	-0.0011696968	0.0012195313	-0.0018125714	-0.0019524018	0.00046666057	0.000117898766	
-0.0007852493	-0.001206542	0.0022106746	0.0016085354	0.0013108038	-0.00013238163	0.00032693706	0.0008515576	0.00046677294	-0.00052007945	
-0.00067682366	-0.0012725745	-0.0014816168	0.001246779	0.0007848918	-0.0015343248	0.000729525	0.0009908837	0.00055434543	-0.0032976563	
-0.00090233685	0.0013882604	0.0005269461	0.001933478	-0.002355119	-0.00058203004	-2.6300877e-05	0.000768947	0.0004932559	-0.0016276501	
-0.005038469	-0.006175147	-0.0026217503	0.009055624	-0.00015730558	-0.0016951861	0.00095601316	0.004814028	-0.0018929635	-0.0019356532	
-0.0017944899	-0.009055714	-0.006333109	0.013020581	-0.0024156133	0.0031447127	0.00044102513	0.0040328805	0.0014282692	-0.002263607	
-0.005233513	-0.017121948	-0.0005965198	0.012383559	-0.00047424322	0.0072388467	0.0011688177	0.0011810396	0.0037435992	-0.0012110177	
-0.0038847583	-0.026921986	-0.0069192788	0.009192339	-0.0016460952	0.012177978	0.003952829	0.00037789845	0.009626055	0.004259575	
0.0031100435	-0.028849646	-0.010368109	0.016115312	-0.01141332	0.01601774	-0.005794013	-0.00663996	0.015843168	0.011964081	
0.003443502	-0.038654912	-0.0074835117	0.025849573	-0.017029742	0.0154515235	-0.0066607497	-0.018850846	0.024793291	0.02042412	
0.0050802496	-0.03912522	-0.0063215895	0.029631745	-0.021677256	0.0059999633	-0.0035914474	-0.02820489	0.03528239	0.025256166	
0.0035270238	-0.031207498	-0.015181167	0.036050588	-0.0268297	-0.00050447066	-9.0504764e-05	-0.0426532	0.036877804	0.038238496	
0.00088186824	-0.016001873	-0.015579306	0.034297705	-0.030751506	-0.009258803	0.014465935	-0.057403576	0.030611282	0.048071947	
0.0027347386	-0.018382672	-0.010738267	0.030915882	-0.032158427	-0.016792435	0.034232188	-0.060775008	0.026661854	0.0436699	
0.0027678125	-0.023700697	-0.0002065269	0.02312259	-0.027158823	-0.007960431	0.019081365	-0.055335507	0.022586938	0.047442593	
-0.0020185933	-0.011966606	0.0011986726	0.0148724355	-0.012287949	0.0041402783	0.0017421489	-0.048684604	0.019714667	0.038173273	
-0.0073714554	0.00023930428	-0.00095903757	0.008426932	-0.005684707	0.017998952	-0.013009734	-0.042847592	0.015960194	0.025153428	
-0.01232985	0.007030722	0.0015964637	-0.0047548143	-0.0007115357	0.023077367	-0.014914223	-0.02911866	0.02231536	0.010203064	
-0.011974595	0.0026064957	-0.0021808841	-0.010237105	-0.005351138	0.024815572	-0.010464806	-0.020713858	0.028382257	0.007610574	
-0.009751451	0.004461429	-0.0089686485	-0.011633888	-0.011041782	0.022856845	-0.0017517272	-0.013815335	0.022309896	0.0038836084	
-0.0016749213	0.007960321	-0.008972347	-0.008863738	-0.011449847	0.02432685	0.0009869469	-0.011222295	0.014004583	0.0017851039	
-0.0010324446	0.003978895	-0.006212985	-0.0122882435	-0.0103460215	0.025463546	0.0012724238	-0.010053139	0.008102354	-0.0032774182	
0.00101063	0.001267935	-0.0033841124	-0.0060353405	-0.010759052	0.021174304	0.0026443917	-0.00513329	0.0020351156	-0.0004988133	
0.00027415715	-0.0009885354	-0.0011891412	-0.0025719756	-0.004705309	0.008955872	0.0025499957	-0.0029678964	0.00017512415	-0.0011443557	
-0.0008375393	-0.0011675757	-6.4048894e-05	-0.00043452063	-0.0009722787	0.0020817884	0.0004773188	-0.0013777977	0.00038815	9.882642e-05	
-0.0010159523	-0.00097589905	-0.00045988418	-0.00086591585	0.0005202827	0.00017044687	0.0004476139	0.0010350036	-0.0016731374	0.0018514509	
-0.00057830114	-0.000726483	-0.0012903764	0.0011180148	0.0005944827	-0.0022702438	0.00018140112	0.0012502321	0.0006253216	-0.00048270467	
0.0012372825	-0.0006326562	-0.0001668523	0.001054341	-0.0014564092	0.001752267	-0.002696582	0.00029580505	-4.1333195e-05	-0.0005298187	
-0.0016372497	0.00067416014	-0.00030722172	-0.0015346498	0.0011683608	0.000225067	0.0016578779	7.574636e-05	-0.0015090725	-0.0029054284	
-0.0016702501	-0.0010903853	-0.00016664478	0.0009545968	-0.0007295822	0.001841511	0.0009533939	0.0008025772	-0.00026703574	0.00037761798	
-0.0003618458	-0.0003775415	-0.0007726333	0.0031462943	0.00028748563	-0.0021864842	0.0019463345	0.0014502818	-0.0008665426	-0.0010066882	
-0.001538618	-0.00081427785	-0.0049115596	0.0039868727	0.0026921302	-0.0025208816	-0.0024360726	0.0073760333	0.00039208555	-0.0027851237	
-0.004475078	-0.003827701	-0.007869844	0.0058726002	0.0023380267	-0.0042321016	-0.0022242467	0.013634947	0.0010773959	-0.0004962315	
-0.0071049724	-0.008149322	-0.008689637	0.004398331	0.0019407009	0.0063155033	-0.0034094611	0.013497225	0.0035081704	0.0018339531	
-0.007681311	-0.020190528	-0.007694494	0.005072235	-0.0014856348	0.0068404176	-0.008225845	0.013710471	0.012308675	0.008445622	
-0.0031181984	-0.027786054	-0.013821831	0.009551133	-0.0035374912	0.009389413	-0.012905013	0.007483421	0.012203809	0.013880831	
0.009015794	-0.033441067	-0.011588546	0.011628929	-0.015779182	0.011897131	-0.02321557	-0.0015719961	0.020313684	0.032614384	
0.010949946	-0.04181207	-0.00351955	0.012576228	-0.027055297	0.0054969536	-0.017688174	-0.013572905	0.025151482	0.04636037	
0.008770828	-0.034908697	-0.005400632	0.014633177	-0.027929293	-0.0029271431	-0.015112299	-0.018071003	0.014740536	0.06621519	
-0.0002659652	-0.023626084	-0.008587804	0.017683027	-0.033499707	-0.0111636855	-0.010286977	-0.019962799	0.008293952	0.0808827	
-0.0032690677	-0.005350472	-0.015212045	0.018448733	-0.046674415	-0.013799016	0.0075669363	-0.02094439	-0.001926509	0.08175763	
-0.012382333	-0.0040869317	-0.017386924	0.02857688	-0.04771744	-0.016277561	0.009332327	-0.016645925	-0.007608919	0.080814205	
-0.013838638	-0.009234666	-0.015682261	0.023307089	-0.037768822	-0.00042504136	-0.009036654	-0.013638568	-0.0009792243	0.07351625	
-0.0108996425	-0.011227115	0.0018781498	0.013310514	-0.021054342	0.013636414	-0.026436154	-0.013863249	0.007234376	0.053384203	
-0.0005514441	-0.010735652	-6.184247e-05	0.0058358707	-0.0028528373	0.024275852	-0.031209236	-0.021441987	0.009707515	0.029187603	
0.0036523538	-0.010070776	0.0024177828	-0.0062027746	-0.0029125265	0.024767514	-0.02680505	-0.016708419	0.013964268	0.017232172	
-0.001949149	-0.009074511	-0.0045950986	-0.0031782433	-0.008197097	0.021375814	-0.017793214	-0.016064666	0.024265852	0.011683316	
-0.002065917	-0.0007700069	-0.010344051	-0.009073752	-0.012215763	0.02211875	-0.009618239	-0.015946787	0.024550617	0.013074442	
-0.0016301087	0.004736199	-0.010223972	-0.010323668	-0.0110592665	0.024665281	-0.0048582037	-0.019764088	0.022264238	0.0056617116	
0.002665108	0.0010189544	-0.006253935	-0.01488554	-0.014159073	0.028268585	-0.0039668963	-0.013275681	0.020733958	-0.0015840479	
0.003055867	0.00079004077	-0.0017818321	-0.0074083847	-0.012891408	0.02697475	-0.0015582443	-0.008411338	0.0076717273	-0.0027148565	
-0.00036610223	-9.776215e-05	-0.0016870614	-0.0047474215	-0.002551356	0.01357777	0.00077239313	-0.0044638095	-0.00067625457	-0.00055259565	
0.00028211408	-0.0017640357	-0.0006641993	-0.00089187926	-0.00065886835	0.0027951023	-0.00032499616	-0.0032924628	-0.00080316985	0.0006914508	
0.0011390604	0.0018566597	-0.00057341845	0.00046339195	0.00083674025	0.0008464376	0.00023694146	-0.00042558642	-0.00090483454	0.0001337379	
0.0005451392	0.001573596	-0.0009887927	-0.00055984023	-0.00014421773	-0.000586083	0.0010068372	0.00035857467	0.0013505615	0.0021098952	
0.0014016655	-0.00026826316	-0.0018880537	-0.00026413766	-0.0011326561	0.0009764003	0.0007559891	0.0012097675	-0.00025952086	-0.0018366313	
-0.00041895322	0.0014850834	-0.00016806135	0.0011245676	-0.0012608327	-0.001278112	-0.0020272774	-0.0022966359	-8.696285e-05	-0.00011955135	
0.00058211613	4.0116185e-05	-0.0015265271	0.0007175086	-0.0017769586	0.0005451942	-0.0011848597	0.0024837367	-0.00051530136	-0.00024850733	
-0.003809134	0.00055064406	-0.0039155697	0.005155595	-5.8473237e-05	-0.0017905663	0.00022000301	0.004462491	-0.0001936389	-0.001064629	
-0.0014566534	0.0032727944	-0.009151209	0.0045416323	0.0041969838	-0.0030461769	-0.0022368242	0.008304238	-0.00032799464	0.00087620964	
-0.005699723	-0.0008564745	-0.009724391	0.0058779907	0.0023961733	-0.0037325257	-0.010092061	0.020349702	0.00018209731	0.004767659	
-0.008644282	-0.007814562	-0.011395394	-0.00013939163	-0.00058732537	-0.0008248928	-0.011586535	0.020617831	0.007829954	0.010002072	
-0.010668331	-0.017264998	-0.0048465645	-6.0718812e-05	0.00020728177	0.0016197992	-0.017063709	0.02285301	0.007894489	0.01703946	
0.005522842	-0.027062846	-0.00829762	0.0042017116	-0.00858822	0.00092788483	-0.025904382	0.018679585	0.014753632	0.023874335	
0.011246849	-0.034741387	-0.0032738266	0.0016665184	-0.02098948	0.007434451	-0.027719358	0.009157529	0.012321051	0.043032862	
0.00984884	-0.03647044	0.0035924045	-0.01430389	-0.022802645	0.0037424164	-0.023844352	0.0009773435	0.009563768	0.06571909	
0.010456687	-0.030828504	-0.0002545778	-0.01107878	-0.028349437	-0.008546713	-0.015929166	0.00964387	0.0038238848	0.075453736	
-0.000639256	-0.0072378	-0.0052530146	-0.0041564307	-0.04000526	-0.024776481	-0.009035287	0.021983054	-0.007988642	0.080326684	
-0.013451208	0.01786721	-0.0094253635	0.0017229017	-0.050497316	-0.02466869	-0.011760584	0.03411279	-0.017207205	0.07556488	
-0.018705137	0.016857952	-0.013625599	0.013740897	-0.050782822	-0.01485258	-0.026031284	0.037421063	-0.018541286	0.071159385	
-0.016936991	0.001910822	-0.017093992	0.02544786	-0.036089998	-0.004040458	-0.03698089	0.033023816	-0.018974636	0.068639286	
-0.011539869	-0.010111977	-0.007263269	0.01745729	-0.014309869	0.010915771	-0.04579956	0.012901508	-0.009548477	0.057054486	
-0.0034014995	-0.009464838	-0.004179801	-0.00016558578	-0.0010572252	0.017424094	-0.043089334	-0.0014270546	0.0013509914	0.044785496	
0.007383581	-0.01561295	-0.0036533277	-0.0029336873	-0.0046337345	0.018468952	-0.03665337	-0.0007344473	0.008655799	0.030900681	
0.017508361	-0.013285498	-0.0057091443	-0.005198401	-0.01259254	0.019502334	-0.023942016	-0.009728789	0.014945062	0.016726395	
0.015880382	-0.0041329977	-0.009465482	-0.010002686	-0.009328857	0.025371611	-0.020511147	-0.017880112	0.019282626	0.007777437	
0.0038077969	0.0005549866	-0.010563921	-0.011604758	-0.005446194	0.025109855	-0.013037609	-0.019109275	0.025991982	0.0011688792	
0.002072929	0.0035064288	-0.007111246	-0.01184941	-0.0070336037	0.02988315	-0.0076034586	-0.021768438	0.024683947	-0.0013415436	
0.0012762162	0.0012268543	-0.0025011618	-0.007862507	-0.009539644	0.029122554	-0.0044378373	-0.014717304	0.010006167	0.0011484527	
0.000112131376	-0.001592227	-0.0014988086	-0.005118457	-0.0033680692	0.017990202	7.58281e-05	-0.0059658033	-4.8570496e-06	0.00075662567	
0.00012003447	0.001507506	-0.000479082	-0.0010662267	-0.0006329765	0.0010005876	0.0019247422	0.0019229667	0.0037343646	-0.0009578066	
0.0018615994	0.0007029534	-0.00019924063	0.00039911957	-0.00021969299	-0.0012772534	-0.00024928604	0.0012266878	-0.00047801703	-0.00038927843	
-0.00043218618	-0.00096168276	0.0011082325	0.00061944616	0.00030522342	-0.00069969194	0.0004853269	0.0005116008	-0.00020399975	-0.0016749318	
-1.6754691e-05	-0.0021194187	-0.00060685514	-0.002533167	-0.0016380154	-0.00018171257	-0.00025831678	0.001932043	0.0005720448	-0.0007220083	
0.0018644353	-3.277736e-05	-0.000303168	-0.00068976404	-0.0007858887	0.0003993426	0.0015788599	0.002206398	0.00037782028	0.0022243548	
0.0006688756	-0.00067791744	-0.00047314988	0.0019512578	-0.002485895	0.00044928858	-0.0017385684	0.0033645835	0.0021330307	0.00036669904	
-0.0021045296	0.0013520966	-0.00393951	0.005301989	0.0004796787	-0.0042171758	-0.0032976323	0.0032614158	0.0004912576	-0.00058174354	
-0.005122543	2.5952306e-05	-0.006512527	0.0064770277	0.0030538484	-0.0024067336	-0.0077630254	0.010276451	-0.00064851344	0.0025529065	
-0.006802842	-0.004849928	-0.008062261	0.0048400457	-0.0017637593	-0.001517202	-0.012273487	0.019263608	0.0029162471	0.0091878325	
-0.00924564	-0.011334081	-0.0042954823	-0.0014593762	-0.0019518693	-0.0027789036	-0.0137007	0.028422356	0.0022868244	0.015752904	
-8.186187e-05	-0.01776833	0.0013055467	-0.008380725	-0.0070499578	-0.0029993202	-0.018827967	0.02486641	0.0040758774	0.023368025	
0.009613838	-0.027160697	0.0041480535	-0.013810473	-0.012051435	0.0021195004	-0.023243897	0.018215911	0.0062778173	0.035493836	
0.021791918	-0.03245693	0.0022884314	-0.02372125	-0.016642839	0.007429159	-0.028935287	0.0059557147	0.0049721883	0.05902907	
0.024353271	-0.034407865	0.002553109	-0.034525882	-0.022548947	0.002740119	-0.016776849	0.011159315	0.0036800439	0.067592226	
0.013487828	-0.02481307	0.0001125728	-0.024619844	-0.02919544	-0.015602377	-0.013282746	0.029824222	-0.0007368581	0.066881515	
-0.0006310211	0.012739209	-0.010021677	-0.00810252	-0.041170225	-0.027800428	-0.008839619	0.038690474	-0.004155017	0.054502726	
-0.021905562	0.034902964	-0.018310737	0.009578097	-0.04833898	-0.008091637	-0.022173943	0.04982512	-0.014119466	0.040708303	
-0.035379916	0.04314613	-0.022514787	0.02328279	-0.049379837	0.0049973046	-0.033745795	0.056734335	-0.029089363	0.04106888	
-0.029725457	0.0090991305	-0.020575093	0.031818204	-0.027670905	0.0073582595	-0.045807615	0.047673978	-0.023436511	0.05161645	
-0.019757653	-0.009758395	-0.010396536	0.008111004	0.004550683	0.009638392	-0.045606628	0.025851466	-0.01574727	0.05255409	
-0.0038538855	-0.022987094	-0.0022199112	-0.002415447	0.0075627957	0.012156301	-0.041351747	0.011380549	-0.007825204	0.051666565	
0.009549056	-0.0245754	-0.0034449587	-0.0031625517	-0.005475227	0.013434743	-0.039233934	0.013216326	-0.0029633383	0.03916021	
0.02073939	-0.01860554	-0.0030558682	-0.010034664	-0.007168093	0.021584414	-0.029563276	0.0014194825	0.010656359	0.018765219	
0.025788954	-0.01218861	-0.007705062	-0.0073698354	-0.0028936665	0.022514476	-0.020940902	-0.013971015	0.018396525	0.004224024	
0.013752405	-0.006131259	-0.010825575	-0.0066804374	-0.004291356	0.026789347	-0.010654664	-0.024866292	0.02287257	0.0006272838	
0.003637864	0.00037576476	-0.00769899	-0.005420616	-0.01186422	0.030330455	-0.0061139134	-0.023360306	0.019015232	0.0015772919	
-0.0005218702	0.001210118	-0.003420929	-0.0028370542	-0.013636764	0.027808232	-0.0026501678	-0.013289243	0.007598311	0.0025802243	
-0.0025647348	-0.002143629	-0.0037370112	-0.0012574086	-0.006927767	0.016544195	-0.0016990702	-0.0057644597	0.003891119	0.0027902022	
-0.0011397367	-0.00013549122	-0.0004331116	0.001168901	-0.001227813	0.0054204087	-0.0012760126	-0.0012009514	0.0012071776	-0.002121872	
0.0008442739	-0.0019244925	-8.1878155e-05	0.0007073161	0.0017288984	-0.0011224031	-0.000110901696	0.0012505273	-0.0009240171	1.9498064e-05	
3.3021777e-05	-0.0007664501	0.001851399	-0.00076881784	0.0017189231	-0.0012296492	-0.00024641	-0.0017165183	-0.00023341506	0.00023311502	
-0.0009479462	0.00012804655	-0.0009585672	-0.00034271015	0.00045913493	0.00020024851	0.00019343835	0.0004511518	-0.00033708732	0.0004073728	
0.0015376874	0.0006916595	-0.0008915346	-0.0010203852	-0.0008446224	0.00071117695	-0.0021220816	0.0004926959	0.0008323924	0.00034416773	
0.00029183892	-0.0009455111	-0.0015536177	0.0032428042	-0.0024730505	-0.00033913093	-0.003995728	0.0019713528	0.0015112631	0.0010536859	
-0.0029054082	-0.0019574256	-0.0037013576	0.006776149	-0.0015038345	-0.0018717136	-0.0022574102	0.0067346743	0.000850874	-0.0020578913	
-0.004040217	-0.0018423838	-0.0021517363	0.0014522505	0.0014823601	-0.0025842267	-0.009448221	0.0106945485	0.0023274077	0.00452476	
-0.0066907546	-0.008499429	-0.0033530842	-0.0006678316	-0.00023805167	0.00023720093	-0.012902504	0.019568129	-0.0019599632	0.013731567	
-0.0034146179	-0.012103375	-0.0005986689	-0.007851244	-0.0015073902	-0.0007886511	-0.009318126	0.0297861	-0.005761793	0.016949281	
0.00691193	-0.015792185	-0.0024072607	-0.014513908	-0.0074678315	-0.0037302868	-0.011351078	0.0237411	-0.0025126669	0.03010145	
0.0207311	-0.018778075	-0.001738853	-0.02542653	-0.014302192	0.008743433	-0.020306751	0.014160246	-0.0044863387	0.044303566	
0.031329185	-0.024978533	-0.0021564146	-0.037677016	-0.0193201	0.006725017	-0.014548376	0.008435017	-0.007214121	0.058098868	
0.02841044	-0.024552135	-0.005842001	-0.035266206	-0.017234942	-0.00027269515	-0.011270876	0.0044664955	-0.0031244308	0.065781064	
0.013721914	-0.014045588	-0.010531811	-0.02506843	-0.017712688	-0.008383487	-0.0037205953	0.010285985	0.010630656	0.043161336	
-0.012161734	0.022592166	-0.022664329	-0.0022429833	-0.028594716	-0.0069325645	0.00024744726	0.019143844	0.0077713705	0.025541529	
-0.036502972	0.05017901	-0.028614255	0.025479157	-0.043034155	0.020623406	-0.015098571	0.028336244	-0.013360575	0.013343142	
-0.050156556	0.054071188	-0.03590651	0.035413295	-0.036714412	0.025268994	-0.02730714	0.032966334	-0.021923268	0.023929402	
-0.034212243	0.012951233	-0.030155933	0.024841443	-0.012225311	0.017843904	-0.040207654	0.0300865	-0.01423104	0.041434236	
-0.02372137	-0.019149143	-0.017006753	0.00609164	0.018943122	0.0073800134	-0.04469011	0.026468098	-0.01754323	0.062026326	
-0.019238243	-0.03696369	0.00049548247	-0.0031573805	0.024366789	0.0061426954	-0.04376192	0.017420497	-0.007269102	0.06007038	
0.0032714545	-0.031699818	0.0029648528	-0.010904978	0.0119159045	0.0042121904	-0.042372417	0.015342475	-0.0068804487	0.04785648	
0.024362428	-0.025205152	-0.000117494346	-0.016131978	0.0053015673	0.006012748	-0.032171417	0.007017535	0.008640535	0.018920273	
0.029221434	-0.01578939	-0.005205243	-0.011626971	0.0061572846	0.00863656	-0.016252236	-0.01144658	0.017022744	0.0008704816	
0.02279546	-0.008517906	-0.0075188694	-0.007062848	-0.0040343767	0.014748387	-0.0053749476	-0.021992803	0.018357402	-0.0028506392	
0.007218325	0.0008967028	-0.0066566058	-0.0011335489	-0.010207334	0.015761755	-0.0028370623	-0.013033628	0.0075674583	0.0041911635	
0.00016789709	8.260463e-05	-0.004301975	-0.0029573517	-0.009277175	0.015116279	-0.0021748801	-0.007903739	0.003723248	0.0024558385	
-0.0025033026	1.6797458e-07	-0.00048211068	-0.0021351068	-0.0064823586	0.008773161	0.0006590266	-0.0012471257	0.0015536423	0.0016519614	
-0.00066762004	0.00024301991	-0.00088681845	1.5276642e-05	-0.0029080773	0.004130819	-0.0007788143	0.0010934727	0.0012556808	6.669884e-05	
0.00036154705	-2.7723967e-05	-0.00013055852	-0.0016363909	0.0014467589	-0.0014973511	-0.00038294535	0.0005503598	-0.00028262706	-0.00027215717	
-0.00048296733	-0.0020578185	-0.00050915824	-0.00048569162	0.00061632146	0.0005932517	0.0005404873	0.0016074567	0.00023297932	-0.0004769109	
0.00035778913	0.0004744039	0.001191934	-0.0009008066	0.0021387606	0.00012881408	-0.0022996836	-0.0014191149	-0.0011989949	0.0012663942	
0.0006864065	-0.0006525306	0.0018196822	-0.0013829507	0.00041002934	-0.00092038536	0.0015907554	0.0005638783	-0.0011535315	0.0014190602	
0.0012300687	0.0005449995	-0.0016896259	0.00169039	0.0010076405	-0.0005944991	0.00020612558	0.0039416985	0.0006696166	-0.0003038295	
-0.0035859407	-0.0015846549	-0.0018499031	0.0031945426	0.0018851259	-0.0034904734	-0.0020929945	0.008828912	0.0007169213	-0.0026280407	
-0.004344104	-0.0026960021	-3.5776055e-05	0.0009930935	0.0036666698	-0.003375901	-0.0075243744	0.013440078	9.215204e-06	0.0072972653	
-0.0034842212	-0.008252255	-0.0024860979	-0.00644295	-0.0017993023	0.0006418671	-0.008636632	0.01645386	-0.0023139215	0.012736373	
0.0043889876	-0.010112886	-0.0042993156	-0.01649047	-0.0038802421	0.0024526133	-0.0024123832	0.020946417	-0.010145495	0.01818896	
0.019685557	-0.0059386967	-0.00852908	-0.023399262	-0.010035857	0.0026427486	-0.009692046	0.015148672	-0.020805405	0.03802043	
0.024487207	-0.01479039	-0.0138729345	-0.037267838	-0.0054067173	0.018029593	-0.006258681	0.007127613	-0.017045597	0.04508942	
0.03136289	-0.021833923	-0.015000148	-0.041984826	-0.002453257	0.012057357	-0.008345063	-0.0020702363	-0.01195095	0.05997276	
0.024671523	-0.018855283	-0.017769342	-0.02790253	-0.009570192	0.0069588264	0.00080011017	-0.013994217	0.001587177	0.049682934	
0.0042557516	-0.008123943	-0.026947837	-0.010798636	-0.008115437	0.0030818768	0.013999357	-0.016971074	0.022496173	0.02436937	
-0.020847198	0.025978414	-0.03771509	0.016182512	-0.023056407	0.019245638	0.0068440125	-0.013157979	0.024014363	0.0074502085	
-0.04582306	0.06539669	-0.037617993	0.03099374	-0.03006592	0.02490761	-0.008754906	-0.0046215607	0.008608232	0.0014368785	
-0.04954875	0.060814314	-0.03799613	0.038915094	-0.02008519	0.018546836	-0.024271483	-0.0014615319	-0.0057941647	0.02024453	
-0.030854765	0.0065398635	-0.031635016	0.019444888	0.013128611	0.011069088	-0.031174568	0.0007526762	-0.00717363	0.049872886	
-0.024003727	-0.028494865	-0.018460762	0.006190615	0.035332378	-0.0031271523	-0.039324675	0.008563454	-0.010215669	0.073871985	
-0.017025104	-0.03933942	0.0038443825	-0.005514827	0.03606676	-0.0057408614	-0.040442996	0.015690178	-0.016078496	0.0724369	
0.0007852997	-0.029500974	0.0057274615	-0.017436398	0.026062435	-0.009493492	-0.032255325	0.016583778	-0.009525793	0.048319593	
0.016577456	-0.02191142	0.005655837	-0.01519312	0.011680804	-0.009148501	-0.023112552	0.004864776	0.010682916	0.019967552	
0.028571242	-0.013968584	-0.006251711	-0.012115341	0.008309568	-0.0071085305	-0.008390987	-0.005041205	0.012021908	0.0033587348	
0.025073064	-0.0059679477	-0.0053646243	-0.0051223026	-0.0059681106	-0.0025554844	0.004658529	-0.013971557	0.0057566306	0.0013714795	
0.011950056	-0.00025899886	-0.004336701	-0.0029268332	-0.0038749427	-0.00032266372	0.0035583058	-0.010680906	0.0077423085	0.0023858075	
0.004678844	0.0010194711	-0.002486864	-0.0018758686	-0.0031528415	0.0031776137	0.0027510475	-0.008326362	0.004525276	0.003127407	
-0.0013624495	-0.0012895725	-0.00030220358	0.00034657886	-0.005149618	0.005738296	0.00060374534	-0.0017328393	0.0005456355	0.0006688908	
-0.0018958156	-0.0008951216	0.00013684608	-0.00048324128	-0.0016811646	0.0005959912	-0.00345856	0.0014149391	0.002185835	-0.0008424234	
-0.0012707772	0.0019272346	-0.000490286	-0.00046922592	0.0017775969	0.0007330858	0.0010747237	0.0013939064	-0.0010509633	0.0012466003	
0.00057282497	-0.0006597409	0.0012299707	0.00093924213	0.00040115498	-0.0019469786	0.0019688725	0.0006495533	-0.001564334	0.00077872287	
-0.00043478023	-0.00055485795	-0.0009847998	0.002056507	0.0009822254	-0.00067106524	-0.0009942023	7.313661e-05	-0.00014158417	0.00057234964	
-0.0012774989	-0.0016837666	0.0012040858	-0.0002299951	-0.0015164684	0.00029983913	-0.00012619933	0.00057550124	0.0006979959	-0.0002061761	
-2.3087961e-05	-0.0018165378	-0.0028025112	0.00063979666	-0.0001940596	-0.0016448288	2.2907418e-05	0.001955223	0.0004686545	-0.000854648	
-0.0010909863	-0.0021515128	-0.0019901993	0.002240898	0.002632704	-0.0034716309	-0.0019238128	0.007972839	0.0019049041	-0.00069478434	
-0.0030599816	-0.0033747056	-0.0006709571	-0.0011195454	0.0034971419	-0.0030602098	-0.004984544	0.009120452	-0.0019151112	0.0074702855	
-0.0007717895	-0.008246715	-0.0045193397	-0.010730974	0.0012300503	0.0011945576	-8.951423e-05	0.0052676266	-0.0023252747	0.013515107	
0.014899408	-0.0050423513	-0.00902174	-0.021530526	-0.00081570353	0.0071085193	-5.4091943e-05	0.00806563	-0.017848095	0.026591955	
0.023758769	-0.0029187137	-0.014327763	-0.03582013	-0.003870392	0.015361591	-0.00048911566	0.006154664	-0.026659874	0.039148703	
0.027087787	-0.012394628	-0.02339875	-0.04094912	0.0014085274	0.01929807	0.0015315902	0.00011261139	-0.029963303	0.05239374	
0.022596566	-0.017737174	-0.02734224	-0.039505627	0.0018384906	0.022028234	0.0015170748	-0.0065752086	-0.01625293	0.05852355	
0.016639818	-0.019948607	-0.035791114	-0.01712626	-0.0026955865	0.022942588	0.017669177	-0.024976125	0.0018795202	0.04411771	
-0.0049293735	-0.007022228	-0.037198044	0.008532572	-0.008651869	0.022617998	0.020324862	-0.04004327	0.031111656	0.018339489	
-0.035350297	0.034633227	-0.04514048	0.028461495	-0.025325399	0.028941656	0.007573696	-0.04601678	0.039223142	0.014533442	
-0.05245206	0.08423308	-0.049018927	0.03287909	-0.024337599	0.023517314	-0.007999678	-0.044432346	0.019741667	0.017340625	
-0.047312602	0.061101135	-0.03769546	0.031101692	-0.014355138	0.0103018675	-0.015013623	-0.035992842	0.0074400464	0.039359182	
-0.030840425	-0.0020690463	-0.024125025	0.010981796	0.02318984	-0.008894036	-0.020510752	-0.012866052	-0.0009030828	0.06546523	
-0.022151366	-0.036391042	-0.013135962	-0.003829293	0.045931894	-0.020356853	-0.02571541	0.008983071	-0.008753305	0.080176815	
-0.013040292	-0.04428985	0.0013569683	-0.009124065	0.037573483	-0.023969697	-0.021403104	0.021764446	-0.015284395	0.065467805	
0.0033076997	-0.029801447	0.009930212	-0.013823215	0.018624056	-0.02245792	-0.02302112	0.022307478	-0.008582004	0.04075269	
0.011157547	-0.018424338	0.003835305	-0.011763266	0.007243502	-0.0086598825	-0.016522804	0.010311835	0.004224609	0.018815452	
0.026259782	-0.012384663	-0.00196537	-0.008150302	-9.9195095e-06	-0.010289641	-0.004730589	-0.00072009227	0.0028148561	0.007086065	
0.027557045	-0.0040350608	-0.004919152	-0.0063787196	-0.008345729	-0.010607561	0.0027387145	-0.0065817954	0.0029572172	0.0030530214	
0.016778853	-0.002814275	-0.005147954	-0.0052930815	-0.007068527	-0.010081137	0.009524754	-0.0067726253	0.0050110393	0.0025694943	
0.008124649	-0.0017331712	-0.0007794707	-0.0027304478	-0.003215989	-0.00325209	0.005527912	-0.0027656758	-0.0014195105	0.0019374155	
-0.0011240127	-0.0010785607	-0.00025816957	0.00040236706	-0.0011493266	0.0010121127	0.0008326876	-0.0020450167	-0.0015439462	0.0017711569	
-0.0015498236	-0.00029786417	0.0003306742	-0.0003365667	0.0009951709	-0.00019975062	0.00038959857	0.0015105838	-0.0003086405	0.00076478696	
-0.001202299	-0.0006070603	0.00039256047	-0.00048191808	-0.0006663581	-0.0003558952	0.0014374171	-0.0009032873	-0.00012875296	0.0005767178	
2.1362348e-05	-0.00040906743	-2.0070314e-05	6.680615e-05	-0.0015754052	-0.00061277085	-0.00083777495	-4.7892117e-05	0.00069088844	0.00047908464	
0.0007361142	-0.0003234169	-0.00085402647	0.0011501977	0.00020947486	0.000811591	-0.00039847847	0.00072595925	-0.00066819857	-0.00079262577	
-0.0009151946	0.0004724113	-0.0007002782	4.3932992e-05	-6.76906e-05	0.0010125184	0.0014652546	0.0014989816	0.00027701602	0.00037854718	
0.0011638803	-0.0020139464	-0.0017543082	0.001452134	-0.0009171274	-0.0012997108	9.0744375e-05	0.0020711191	0.00030031218	-0.0004867345	
-0.0035960495	-0.0015176191	-0.001503008	-0.0021088	0.0052063335	-0.0028822753	-0.00051773083	0.0053610676	0.00014545745	0.00091710873	
-0.0008670138	-0.004345448	-0.0016960953	-0.0050931936	0.0040566986	-0.0016977953	-0.0029343737	0.008117871	-0.0016201606	0.0074043665	
-0.0003054112	-0.006893129	-0.003262491	-0.014218767	0.0008229249	0.0035019312	0.0042986907	0.006076931	-0.0070912307	0.016186133	
0.018573228	-0.003204308	-0.011784092	-0.026452491	0.0034753373	0.008200624	-2.7550617e-05	-0.0006210287	-0.020072931	0.03180634	
0.024918346	-0.0028708861	-0.013046473	-0.04413473	0.008495951	0.0115869045	0.0029308395	-0.0003442042	-0.031163992	0.044429783	
0.025816008	-0.010385476	-0.025503898	-0.041650627	0.004100275	0.018783076	0.019782823	-0.0035888206	-0.035170395	0.0504802	
0.019765405	-0.022855153	-0.032760426	-0.03548837	0.0042199427	0.01943004	0.022144798	-0.016756224	-0.016756576	0.05621685	
0.004647792	-0.027218051	-0.038252525	-0.0132316435	-0.0018550757	0.034176555	0.028597776	-0.04225367	0.00308989	0.05338125	
-0.01641251	-0.009563525	-0.041417904	0.010346394	-0.015249455	0.0380497	0.025501449	-0.061167244	0.025177402	0.042947013	
-0.047914818	0.046291433	-0.04279726	0.024533406	-0.02360547	0.02858092	0.014395981	-0.07210049	0.036362443	0.03777802	
-0.05701444	0.08881919	-0.037161503	0.016536012	-0.022334306	0.008978341	0.007859956	-0.0683524	0.026091568	0.038352758	
-0.048589338	0.047141984	-0.032774698	0.014669215	-0.0053857565	-0.015610776	0.0024159309	-0.045021374	0.020391896	0.056323107	
-0.025633918	-0.021168413	-0.016728345	-0.0015660073	0.028031169	-0.030259062	0.006258393	-0.01211529	-0.0012126174	0.07833002	
-0.019485505	-0.04208686	-0.014367975	-0.008279039	0.043624416	-0.03842888	0.0016875868	0.01122978	-0.02090073	0.08536167	
-0.008884015	-0.037947517	-0.00798928	-0.01023633	0.026767751	-0.038454406	0.0005869776	0.030369174	-0.020932218	0.06870503	
0.0007080486	-0.023172323	0.0019257659	-0.010557992	0.008586489	-0.0324571	0.0034348161	0.03457005	-0.01274824	0.037034884	
0.010249553	-0.015302276	0.0037578233	-0.0074926605	-0.0003494621	-0.025434611	-0.00095417304	0.020800978	-0.0019203088	0.019591037	
0.030808078	-0.0071461345	-0.0033622067	-0.004687286	-0.008916985	-0.015743842	0.00031116663	0.0040890733	-0.0020674737	0.013590556	
0.027534103	-0.0044726133	-0.002360232	-0.0065841572	-0.010247057	-0.011516066	-0.0016460479	0.0028331454	0.0032659334	0.0036425616	
0.02078285	-0.007503037	-0.0048627853	-0.0063241343	-0.009653583	-0.0088829	0.010141876	-0.00066669873	0.0028065913	0.0012302679	
0.010120293	-0.0015374293	-0.0033999924	-0.0026341667	-0.004034543	-0.0032802173	0.009960028	-0.005516881	-0.0038001176	0.0051313313	
0.000329219	-0.002593747	-0.0014152573	0.0015026906	0.0013789394	-0.00048376588	-0.00016549166	-0.0010958585	-0.00073992286	0.0014351506	
1.27590565e-05	-0.00053573924	-0.00041178672	0.001410936	-0.00017844398	0.0006822955	0.0017455947	-0.00051370985	-0.0013611217	-0.0011292734	
0.001241262	0.0009000989	-0.00015925519	-0.00030728037	-0.0009040497	-0.00024646914	-0.0016283977	6.8865993e-06	-0.0004368396	0.0015219435	
-0.00051656005	0.00084500725	-0.0007541575	-0.0001615818	1.9421901e-05	-0.0018445194	0.00091533083	-0.00077722967	-0.0013665128	0.0014136514	
-0.0015666165	-0.0016539781	2.3339708e-05	-0.00058503076	0.00056448096	0.00065543456	0.0001896212	1.7516417e-05	0.0011604091	0.00022103808	
-0.0017167982	-0.0012260021	9.7340126e-05	-0.00031795033	-0.0003137311	-0.0015824552	0.0008820809	0.0019066286	-0.00052447687	-0.0014450655	
-0.0017444149	-0.0022377223	0.0005201209	0.00196533	0.0004665694	0.0013709194	-0.0007789573	0.00015371297	0.00016486106	-0.00061196025	
-0.0017552895	-0.0037298482	0.00024138263	-0.005264031	0.008701453	-0.0015774034	-0.0017998881	0.0035069825	0.00043198548	0.0015470816	
-0.0015307418	-0.0033266037	-0.0018243043	-0.004942561	0.0037515175	-0.0027961151	-0.00015470525	0.0054518194	-0.0009954246	0.004673982	
0.004929232	-0.0032411343	-0.0037209438	-0.017740553	0.01142607	-0.0004440775	-0.00031748397	0.0049204268	-0.012862801	0.018475331	
0.01941226	-0.003158968	-0.009344612	-0.03150231	0.012040956	0.004521249	0.0014597622	0.0011579662	-0.025419429	0.031141916	
0.020810805	-0.005601597	-0.01669654	-0.04477561	0.019014277	0.0041194214	0.011458354	-0.004141292	-0.031838782	0.047365442	
0.025806721	-0.015456353	-0.021295026	-0.04463666	0.00924466	0.009598853	0.037165787	-0.015111176	-0.027427444	0.046698138	
0.015709559	-0.025915498	-0.020570826	-0.040371474	0.010817631	0.016695023	0.038647737	-0.028480904	-0.019293267	0.050379917	
-0.0037681093	-0.026525488	-0.021992892	-0.0280665	0.007164664	0.025087493	0.041878983	-0.05083515	0.0038207017	0.054635245	
-0.021060063	-0.014170793	-0.021850742	-0.017998047	-0.00075904775	0.0292334	0.034208212	-0.07040665	0.027840825	0.053721316	
-0.05114609	0.04859082	-0.021191282	-0.0071148584	-0.0062944666	0.0122092385	0.023879364	-0.076887466	0.034527175	0.04258944	
-0.059216917	0.07704155	-0.019994805	-0.0010006439	-0.0059104357	-0.010944723	0.016376223	-0.064298846	0.027757624	0.04085053	
-0.05168511	0.030221315	-0.014732374	8.959952e-05	0.010114025	-0.031421978	0.013481249	-0.032163072	0.016901748	0.06268799	
-0.027564157	-0.036769502	-0.008306612	-0.006554475	0.026499294	-0.039868973	0.012243925	3.1744712e-05	-0.009212185	0.089414164	
-0.01751278	-0.04150484	-0.014547547	-0.011291317	0.03487176	-0.045406483	0.01067586	0.025188161	-0.02512249	0.0850102	
-0.011813182	-0.029328154	-0.012897663	-0.007695948	0.024582516	-0.043135338	0.013227884	0.03639423	-0.027766306	0.05977508	
-0.0008012041	-0.019965481	-0.0055177477	-0.0076861624	0.0068030786	-0.036164973	0.0153166335	0.028852427	-0.013034611	0.028546019	
0.011947564	-0.013248276	-0.003719634	-0.00018435673	-0.010153216	-0.031542227	0.021442808	0.011914222	0.00042203395	0.013414722	
0.026748786	-0.011453161	-0.0072869593	0.0011386957	-0.0151273385	-0.022304686	0.009276635	0.0016603434	0.0036649737	0.007105188	
0.029226039	-0.008299038	-0.002268095	-0.005064608	-0.010517463	-0.009780317	0.0023776167	0.0009641937	0.0027094563	0.008582417	
0.024249673	-0.005531126	-0.0013465418	-0.00792703	-0.008855815	-0.008767103	0.007479941	-0.0040627597	0.00035201	0.0053728214	
0.011217046	-0.003773005	0.00076324394	-0.0029874037	-0.004717193	-0.0013263703	0.008402528	-0.0040931976	-0.0038813513	0.0032808543	
-7.6216114e-05	0.00050627044	-0.000878934	0.00069709803	0.00091044547	-0.0012728159	0.00096753804	0.001544458	0.00034880883	-0.0009622732	
0.00048748366	0.0004901585	-0.000263318	-0.0005328716	-0.001445055	0.00083216635	0.0003496608	0.0004061536	0.000107731656	-0.0011583015	
-0.000611487	-0.0012705978	-0.0006128322	0.00064751087	-0.0004504839	0.00015600401	-0.0016373409	0.0028956425	0.0003647107	-0.00034952883	
0.001098709	-0.0010829794	0.0001854771	-0.0014267969	-0.002180563	0.0026728369	0.0013816665	-0.0003595658	-3.3828634e-05	-0.00077379827	
-0.00062396657	-0.0009531233	0.00063800527	0.0012410019	-0.00080475945	0.0011236366	0.0023024317	0.0012697233	5.4553162e-05	0.0003298149	
0.00081602926	0.00056793354	-0.0005549292	0.0012168129	-0.0009158869	-0.00024742927	0.0005560124	-0.0001267678	0.0009205574	-0.0018248046	
0.00011423095	0.00026953997	-0.00017598357	-0.00027498044	0.000103247716	0.0013930475	-0.00029866365	-0.00031748408	-0.0006580278	-0.0012184125	
-0.0013347132	-0.0035867835	0.00036721586	-0.0025348305	0.0068394695	0.00087377056	-0.002205499	0.0011572815	0.00039027105	0.00074639457	
0.0021761681	-0.0041358103	-0.00081949896	-0.0110703325	0.011886576	-0.0027777713	0.0019757866	0.0036513065	-0.00033227337	0.0038465676	
0.010702261	-0.0067914734	-0.003236412	-0.016007423	0.014126668	-0.0020042018	0.00043999747	0.0012002755	-0.0145719955	0.014528279	
0.022503518	-0.0098918965	-0.008245214	-0.023731476	0.016039994	-0.005166158	0.0031572543	-0.002358528	-0.021986432	0.03111207	
0.022698265	-0.01222627	-0.0056408034	-0.0322381	0.019480504	-0.013263747	0.014713905	-0.010319406	-0.0223664	0.041131925	
0.023342615	-0.020950455	-0.008965624	-0.03934757	0.022626279	-0.012850805	0.03472717	-0.016815137	-0.024120603	0.044325467	
0.008367119	-0.02912009	-0.008009977	-0.033752758	0.023516051	-0.004550128	0.048398595	-0.028452724	-0.016872345	0.04465219	
-0.010357348	-0.031839475	-0.007480465	-0.02930346	0.016675903	0.0015148404	0.04899306	-0.04215624	0.005429307	0.041613586	
-0.029602032	-0.01061025	0.0018185278	-0.026113108	0.011279449	-5.070938e-05	0.04286093	-0.05758007	0.020151472	0.04205652	
-0.05554155	0.03892326	0.0014786865	-0.023179557	0.009906453	-0.0116249025	0.026968725	-0.05899088	0.02764659	0.03751515	
-0.06366712	0.05266063	0.0022733293	-0.008480862	0.008855693	-0.023265855	0.0049386257	-0.04622688	0.023169648	0.048680436	
-0.05263461	0.0038372	0.0017549181	-0.0048912093	0.012064315	-0.033296145	-0.00061547646	-0.010084055	0.004580716	0.073723555	
-0.025075343	-0.047303874	-0.010276627	-0.007853221	0.033466123	-0.028774198	0.0035350109	0.0091005685	-0.016790658	0.08694276	
-0.016181942	-0.044832233	-0.014896017	-0.0143801235	0.03791942	-0.033067234	0.0089274645	0.024560766	-0.022157012	0.07380584	
-0.012090185	-0.027323976	-0.013448653	-0.015808402	0.02364683	-0.026570788	0.010053207	0.028534472	-0.018318588	0.049949545	
0.0011442105	-0.018063432	-0.0056698136	-0.0030116567	-0.0025046405	-0.0219405	0.017795393	0.018065372	-0.009693275	0.023484237	
0.0092615	-0.0142256385	-0.005288728	0.00794228	-0.0111065395	-0.027565341	0.020360516	0.011309802	0.0018476846	0.011968622	
0.023895424	-0.016867042	-0.0061571817	0.003963555	-0.018960522	-0.024598757	0.01632147	0.0022897215	0.007730415	0.008161345	
0.019720647	-0.0103116995	-0.001715511	-0.0046418267	-0.014121592	-0.009854997	0.007867477	-0.00053204625	0.008575011	0.0054654554	
0.020511907	-0.008921411	0.0006857492	-0.007164869	-0.0085988445	-0.0039111297	0.008483865	-0.0031885984	0.0012845618	0.0039964514	
0.009449299	-0.004751895	0.0011798884	-0.0049421005	-0.0019278467	-0.0012615432	0.006544865	-0.0020017778	-0.005088513	0.003882012	
-0.0002362399	-0.000311665	0.0019289894	-0.0023389796	-0.00046726785	-4.169609e-05	0.0037176711	-0.0006129235	-0.0016686083	-0.00236574	
-0.0010815643	0.0014024405	-0.0010297258	-0.0010210788	0.0012079318	0.0010965836	0.0010268603	-0.00038214048	0.00028129184	-0.0002385615	
-0.00090780103	-0.0017243599	-0.0004856246	-0.0011412577	-0.0011915612	-1.854085e-05	-0.00025925544	0.000107140375	-0.00020388508	0.00046210844	
0.0010053099	0.0016210662	-0.00054315256	0.0013338752	0.00090795156	-0.0011260703	-0.0005126553	-0.0005579696	-0.00033719855	-0.0011224189	
-0.00017710771	0.00052615715	0.00017884998	-4.0956416e-05	-0.0004866345	0.00035015383	-0.0009980723	0.00048648697	-0.00092201406	0.00060606253	
-0.0008363228	-9.302778e-05	0.0003763909	-0.00018281615	-0.00028835336	-1.5317732e-05	0.0008867859	-0.0016174489	0.001060026	0.001660131	
-0.00042638506	0.0007085397	0.0013290341	0.0006477342	0.00084203697	-0.0007630253	-0.0009138611	-0.0006393585	0.00081803993	-0.0002230915	
0.0014963718	-0.0024309563	0.00029796222	-0.0004121497	0.00033660565	6.1908846e-05	0.0010283216	-0.00089869456	0.0016839664	-5.3637516e-05	
0.0047543887	-0.00781514	0.005170232	-0.007991392	0.011022687	0.00018974017	0.001951338	-0.004587759	0.0016505504	0.004645459	
0.013270055	-0.009660972	0.00048952096	-0.014380879	0.009855253	-0.0016001335	0.0036970524	-0.0027068274	-0.011628308	0.013984158	
0.02621238	-0.015103028	9.275458e-05	-0.015937058	0.007857275	-0.014300323	0.009038833	-0.0065799155	-0.012384077	0.021321524	
0.028582271	-0.021530125	-0.0017461055	-0.028066516	0.017041324	-0.02389163	0.02376257	-0.009920969	-0.018817618	0.03198026	
0.018107323	-0.028417826	0.0054473914	-0.025599148	0.021899112	-0.030707166	0.03651221	-0.019596094	-0.017056104	0.03907784	
0.0015400508	-0.034069665	0.010478474	-0.022638595	0.017920732	-0.035524547	0.045744266	-0.031058144	0.005349044	0.039783705	
-0.017427891	-0.026573349	0.012973871	-0.02634767	0.019423112	-0.027879529	0.04155802	-0.03716433	0.018834585	0.03931278	
-0.03899479	-0.0042397957	0.026275693	-0.028535979	0.015521001	-0.022334723	0.03237633	-0.04567676	0.024580088	0.03504986	
-0.057154015	0.038717385	0.024476351	-0.024859527	0.007406609	-0.025474546	0.013468996	-0.03810938	0.019419776	0.037151195	
-0.058136404	0.041371595	0.020807775	-0.024058828	0.006054407	-0.023679024	-0.008339155	-0.01726276	0.006719448	0.05934379	
-0.04100867	-0.01677068	0.015469436	-0.017196495	0.021486815	-0.018144732	-0.013347411	0.0030003132	-0.010076078	0.0760904	
-0.018220814	-0.04804395	-0.002713283	-0.0042636525	0.031966165	-0.0174708	-0.0060537593	0.019150967	-0.022752566	0.06631777	
-0.013009849	-0.03943006	-0.009775979	-0.0079915095	0.033230588	-0.021756224	0.00039606914	0.026592229	-0.020290742	0.05112579	
-0.010978074	-0.0293238	-0.005950624	-0.011886577	0.013212897	-0.0153393345	0.015617968	0.024114596	-0.015149897	0.039675064	
-0.0034464886	-0.02078681	-0.005343605	0.001134809	-0.006238309	-0.012623636	0.020031761	0.021799989	-0.0083749555	0.017538013	
0.002976651	-0.015924072	-0.008771471	0.0060919775	-0.0136540495	-0.019093407	0.022944972	0.010881543	0.006725314	0.0072981287	
0.01923028	-0.016440213	-0.0070510316	0.0030571264	-0.016753033	-0.01780126	0.0150895445	0.005177512	0.010953673	0.004359248	
0.014150801	-0.013246426	0.0008705355	-0.002713301	-0.013906488	-0.006616953	0.012138092	0.0047351765	0.005489	0.0018201831	
0.012052612	-0.0084979655	0.0059176004	-0.005006598	-0.00963389	-0.0023834521	0.008531442	-0.0015611604	0.0019597933	0.0020124651	
0.0043712235	-0.00592537	0.0036375327	-0.0030673973	-0.0047095446	-0.0013333694	0.007622392	-0.0028485141	-0.004509429	-0.0003202488	
-0.003091288	-0.0025676615	0.0009522956	-0.0014242706	-0.0023316126	0.00078013766	0.0019793028	0.0009532154	2.9071078e-05	-3.613104e-05	
-7.476966e-05	-0.00079037884	-0.0015884563	-7.444372e-05	-0.00017205196	0.0015825867	0.0013140079	0.0010516379	0.0006757227	-0.0019025151	
-0.00067781704	-0.0003761373	-0.00065293413	0.0011085217	0.00035387534	0.00013047164	0.0008673627	-0.0019206412	0.002285867	-0.0011325174	
0.00073165464	-0.0010400056	-0.0011117739	-0.0004537203	0.0007664588	-0.00051540666	0.00092650397	1.3550335e-05	-0.0012970851	-0.00010566579	
-0.0001589766	0.00063893653	-0.0013809019	0.00046694235	0.00043591167	0.00048831786	-0.00015084617	-0.00029248866	0.00036372105	0.0007142781	
-0.00062246097	-0.000913023	0.0010119199	-0.000769463	-0.0006687134	-0.00093086826	-0.0018131066	-0.0009675952	0.0004066978	-0.0013510165	
0.0005715905	-0.00093339215	0.000120114004	0.00076154975	0.0017288884	-0.00048891106	-0.00038749407	-0.0014237323	-0.00018533505	0.00038030828	
-0.00066444173	-0.003704128	0.0016322254	0.0026477906	-0.0003525067	-0.0024676681	0.0016821697	-0.0022398462	0.003467542	0.0010053113	
0.0013403478	-0.011557164	0.004822832	-0.0045988136	0.002660395	0.0021624921	0.002268119	-0.00664304	0.002321378	0.008681277	
0.010407143	-0.014512544	0.0039285016	-0.009712076	-0.0011857601	0.005553515	0.005465601	-0.0042370455	-0.0031455595	0.00992499	
0.025295539	-0.02403127	0.004416821	-0.010747093	-0.0017578857	-0.008916812	0.012173417	-0.007715243	-0.007884315	0.020151248	
0.0323073	-0.027183654	0.0053402907	-0.013944704	-0.00019956981	-0.027524175	0.026618743	-0.012844807	-0.006794264	0.022131708	
0.015021424	-0.028011816	0.014081745	-0.016895926	0.009188327	-0.044178225	0.04438841	-0.03082717	0.0037580119	0.035022505	
-0.0059056184	-0.029266177	0.019387905	-0.011035494	0.0053713988	-0.048396416	0.052677717	-0.037545867	0.019783704	0.037109267	
-0.027011055	-0.016686369	0.025924388	-0.014391304	0.0045173904	-0.041611478	0.045570385	-0.04111264	0.02624125	0.037415244	
-0.036449876	0.00058723567	0.038452618	-0.015544808	-0.0015769275	-0.035475552	0.02616619	-0.031323973	0.018505184	0.035463277	
-0.05396189	0.029129483	0.03279912	-0.022943232	0.0013164559	-0.03132552	0.0018163471	-0.011863711	0.0058696214	0.046493765	
-0.047578823	0.021915562	0.021337803	-0.032413706	0.010334288	-0.017937148	-0.018268382	0.0036234073	0.0002469333	0.058256034	
-0.034672108	-0.022577792	0.016703123	-0.022736005	0.021782849	-0.008636889	-0.017853677	0.017774459	-0.017788842	0.068675764	
-0.018201124	-0.04199243	0.0040224707	0.00060524454	0.022586575	-0.013511463	-0.008597477	0.019324495	-0.022566127	0.053721685	
-0.011045006	-0.038251016	-0.0070923325	0.008506572	0.015295546	-0.019442925	0.0043161847	0.018544901	-0.021406313	0.048408322	
-0.011275919	-0.02951831	-0.0031188214	0.007566457	-0.002712104	-0.022033684	0.014676577	0.019315088	-0.004761342	0.035898857	
-0.0019777054	-0.023179878	-0.007885455	0.010524449	-0.013899481	-0.01772036	0.019510804	0.014409096	-0.00025272416	0.01847133	
0.0036144322	-0.016639505	-0.0034598433	0.0056864526	-0.017459169	-0.013171928	0.01539735	0.007932205	0.011929031	0.0066704634	
0.011231646	-0.017844915	-0.00019454908	0.004216594	-0.021602418	-0.013153213	0.013807299	0.0063228263	0.012468386	0.0031580077	
0.015062811	-0.01320888	-0.00073543674	-0.0015359829	-0.016468246	-0.0019581267	0.016735949	0.0006721128	0.0025334891	-0.0009705868	
0.0065789144	-0.009208673	0.0031734055	-0.0011981451	-0.013417359	-0.00062466104	0.008182248	0.0005540264	-0.00046256842	0.0013222164	
0.0029136376	-0.005497994	0.0019618177	-0.0024075003	-0.0056993715	0.0024374798	0.0073982757	-0.0021121046	-0.0015704382	0.0020685275	
-0.0009367215	-0.0009398383	0.0015151319	0.0008370454	-0.0021008009	-0.0013592589	0.0032742994	0.0013727304	-0.0017889817	0.0015260037	
-0.001697705	0.0009976758	-0.0005390519	0.00040725264	-0.00015787726	-0.0003704503	-0.0009275644	0.00025222532	-0.0014352987	-0.0031087196	
-0.0007297594	0.00059763464	-0.00022647122	-0.00028245305	1.9043255e-05	-0.0009933693	-0.00029790323	0.00019060296	0.00012236217	-0.00044457137	
0.0017920381	-0.0009305566	0.00020757833	0.0013970766	-5.2075196e-05	0.0025994307	0.0001016706	-0.00028914993	0.0007447014	0.0011867891	
0.00092461845	-0.00029135932	0.00028375705	0.0005519215	-0.001171239	-0.0010984276	-0.00030773977	-0.0009856066	-3.8397593e-05	0.0019532444	
-0.0012667857	-4.3146458e-05	-0.00014450752	0.00039231067	-0.0019795564	-0.00083546154	-8.0817044e-05	0.00028190974	0.0003007876	0.0010161313	
0.00064483244	-9.858943e-05	-0.00091074215	0.0035100349	-0.00021031151	-0.0001064168	0.00042597108	0.0007796421	-0.000830882	0.0015714895	
-0.002841479	-0.003899114	-0.00018793969	0.0043556443	-0.00086994737	-0.0013807716	0.0026734092	-0.0032591785	0.0033576214	-0.00066664815	
-0.0021034156	-0.01166712	0.007181208	0.00017421201	-0.00023908849	0.00047696455	0.0028965042	-0.006965624	0.005806386	0.005749813	
0.010033696	-0.016991258	0.009603434	-0.0017444919	-0.009775475	0.0043047788	0.003064856	-0.0082398895	0.004432857	0.008357667	
0.026388315	-0.028704554	0.014762859	-0.0011323128	-0.013107195	-0.0011678383	0.006841207	-0.013551836	0.0028031215	0.014401516	
0.033394575	-0.034440003	0.015873516	-0.005236252	-0.009855377	-0.018110003	0.0212113	-0.026719088	0.007972184	0.0174849	
0.017643502	-0.03179196	0.023205787	-0.0062791607	-0.009442808	-0.037348263	0.04373337	-0.036246892	0.016778992	0.021686094	
-0.00681107	-0.031510398	0.03424421	-0.0017336933	-0.009444524	-0.048063003	0.056368627	-0.03672819	0.024355767	0.02327732	
-0.028324548	-0.0100286985	0.041196756	-0.0071591046	-0.010381816	-0.04583031	0.04596944	-0.033606485	0.026547551	0.02190969	
-0.0390262	-0.0016927827	0.04130298	-0.011705805	-0.0041410634	-0.03647896	0.02476103	-0.010412469	0.013458342	0.027080406	
-0.044053957	0.022282332	0.028947806	-0.020512793	-0.0032026402	-0.02424909	-0.0049248375	0.0152092585	-0.0031206633	0.035807554	
-0.0395193	0.013631686	0.013373046	-0.02770672	0.004734107	-0.016793154	-0.016078478	0.021911668	-0.006605968	0.05348033	
-0.024845371	-0.015963245	0.007192921	-0.014463886	0.0076076323	-0.01649798	-0.005926566	0.021589192	-0.014156806	0.049441848	
-0.009451052	-0.0324596	-0.002044112	0.010020999	0.003976684	-0.015549757	0.005697707	0.014934642	-0.019905936	0.04392164	
-0.0009395565	-0.03701282	-0.003632066	0.021296903	-0.006412271	-0.023069542	0.012074267	0.0071721505	-0.017301578	0.05029675	
-0.0020360802	-0.03778388	-0.005902648	0.022798283	-0.019969804	-0.020276727	0.019258648	0.007612481	0.005408978	0.02998424	
0.0021281312	-0.024605377	-0.018070519	0.01842879	-0.020936314	-0.015889788	0.024849795	0.0016099131	0.008910427	0.020394277	
0.008722274	-0.015717447	-0.0109319715	0.010353921	-0.02038222	-0.009264203	0.015345952	-0.00032587425	0.012585706	0.013436293	
0.0074272393	-0.0156017095	0.002743037	0.00550305	-0.023291387	-0.005528682	0.00971694	-0.0041260934	0.011660099	0.0037139119	
0.009007928	-0.014604283	0.006512757	0.002582468	-0.017908748	0.00096342294	0.009735805	-0.0033382745	0.0022286358	0.0035607961	
0.0011776196	-0.011530584	0.0055860677	0.0015250478	-0.010423241	0.0009937576	0.012653422	-0.0010387045	-0.00045901086	0.0038787497	
-0.00037716154	-0.004707916	0.004706408	-0.00038604884	-0.0054254783	0.0013355957	0.0019017642	0.0006276679	0.0016123212	0.002898259	
0.00013911726	0.00085469126	-0.0011565345	0.0018090813	-0.00084784103	0.00023226434	0.0009889774	0.0018879572	-0.001006692	0.00010213884	
-0.00093659095	0.0013894986	-0.00096608227	0.0021181395	-0.0018198441	0.00016156858	-0.00011192657	3.199305e-05	-4.2246236e-05	-1.6869511e-05	
0.0008412128	-0.0017915769	-0.0005539801	0.001091427	0.0009506203	-0.00072067743	0.00022870343	0.00024173628	0.001512606	-0.0014444889	
0.0023463354	-0.0012966886	-7.316878e-05	-0.00024604148	0.001189141	-0.000789693	-0.00058953837	-0.0010038274	-0.0009168993	-0.00029996858	
0.001108462	0.00088886847	-0.0014445424	-0.0005791971	0.00018810171	0.00028876658	-0.00061222963	-0.00059601595	-0.0012010146	0.00026371604	
-3.9774044e-05	-0.001410221	-0.00060983456	-0.0006277381	-0.0016898772	0.000637665	-0.0002663008	-0.0005412509	-0.00020196602	-0.0018930068	
0.001816534	-0.00229027	-0.002124674	0.0020973757	0.00059800333	0.00057593064	-0.00074722554	-0.0009995985	0.00043425747	0.0034859837	
-0.0066010165	-0.006224065	-0.0023465436	0.008670389	-0.001169837	-0.0014386371	0.0020755234	-0.003350837	0.004565903	0.0038395731	
-0.003547958	-0.018246874	0.005121549	0.011132124	-0.0023484137	0.0018584207	0.0016603125	-0.00691142	0.008638045	0.0034969938	
0.005956205	-0.027754068	0.0044525247	0.012776868	-0.012461464	0.012171407	-0.0022228868	-0.011136072	0.011857356	0.0067075626	
0.01819972	-0.036695406	0.013699967	0.013307496	-0.01905014	0.010825787	0.00089374854	-0.021436904	0.016670402	0.0059656254	
0.022689233	-0.040915467	0.024939172	0.007833343	-0.021997357	-0.0019404376	0.015218247	-0.03630307	0.020491624	0.0049744807	
0.010950527	-0.035219092	0.03189264	0.007776026	-0.019820523	-0.03392022	0.041933842	-0.03882772	0.029120844	0.011624223	
-0.004878187	-0.022692904	0.02996138	0.009134529	-0.022536447	-0.048532844	0.05314193	-0.036875665	0.033985678	0.00955404	
-0.017636357	-0.008122665	0.027237715	0.0020569672	-0.023780819	-0.04505983	0.050998803	-0.022505013	0.026081035	0.008666005	
-0.031512752	0.00075698487	0.021624746	-0.0009037589	-0.015530765	-0.039027385	0.021998817	0.007495481	0.016839061	0.019232748	
-0.028338978	0.018131677	0.008368142	-0.0113947475	-0.0067405705	-0.036826618	0.0039949343	0.023131186	-0.0012823204	0.030584512	
-0.019424899	0.017698793	-0.0039948532	-0.01367561	-0.0026801263	-0.0392122	0.0045229215	0.030995239	-0.013516267	0.04064225	
-0.0035913975	-0.00439661	-0.0075646653	-0.0023467657	-0.0093600005	-0.032827113	0.0030814842	0.025488256	-0.01171121	0.044715073	
0.004624333	-0.023061166	-0.014785588	0.012713644	-0.0074930866	-0.02499816	0.016014267	0.004513832	-0.011933732	0.04745161	
0.003907087	-0.032935772	-0.009281248	0.025621356	-0.020606818	-0.029286124	0.024148036	-0.0051665176	-0.0012259665	0.0482828	
-0.0017105277	-0.039698213	-0.007936678	0.021578401	-0.027119175	-0.01651571	0.029071897	-0.0034430863	0.010492531	0.031163959	
0.00839762	-0.03154518	-0.0059259743	0.020951172	-0.023282304	-0.012515358	0.020124987	-0.0040720534	0.010350173	0.02014163	
0.00801336	-0.027044455	0.0012436667	0.010638641	-0.016118363	-0.0051554614	0.015447034	-0.0074523473	0.011073408	0.011047221	
0.005021584	-0.021712203	0.004022044	0.009462617	-0.016754022	0.0012128564	0.010453854	-0.005878361	0.008768077	0.0033432513	
-0.002521582	-0.017908754	0.007312116	0.0073354095	-0.015135976	0.0038650548	0.010567639	-0.0039533623	0.0034260554	0.0011908638	
-0.0018860449	-0.011929438	0.008068118	0.0030611611	-0.0083938325	0.0013087239	0.009159518	-0.0005083732	-0.0003048257	0.0014495318	
-0.0023682902	-0.006708287	0.007912767	0.0008892936	-0.003707713	0.0030838656	0.0007316201	-0.0007234719	0.0010048163	0.0003634982	
0.0007129875	-0.0015862043	0.0005658431	0.0020337878	-0.0024321715	-0.001254992	0.0012934697	0.0006116325	0.0007195661	-0.001129289	
-0.0005433395	-0.00031406805	0.0008239644	0.00042056968	0.0012097091	-0.0018240365	0.00097110297	-0.0016282955	0.0002548571	0.001309297	
0.0015796118	-0.00063573086	0.0004837636	-0.00034731577	-6.23469e-05	-0.0018299096	-7.116505e-05	0.0018140747	4.5890563e-05	-0.00039291335	
-0.0009253444	-0.0011197607	0.0005940071	-0.00030687606	0.00065193576	0.00066469604	-0.00028255882	0.0010364087	-0.0006528947	0.00039821066	
0.000100105026	-0.0012117177	0.0003474555	-0.001143762	0.0008300292	-0.0013805433	-0.0009282116	-0.00039135237	-0.0013668229	0.0024227148	
0.001426778	-0.00103527	0.00014579017	0.0013835208	-0.0017997002	-0.0004435607	0.00097542553	0.00014003731	-0.00075889303	-0.00046913867	
0.0005584993	-0.0027003342	-0.0012063431	-0.00074103137	0.0009411965	0.0010012756	-0.00047229993	-0.0006589077	0.0006135773	0.0017824058	
-0.0077089127	-0.009504427	0.00010908325	0.008522592	0.0008248097	0.0022013509	0.002171787	0.00019556687	0.0034209013	0.0035021398	
-0.007058469	-0.017842151	0.0051041464	0.013420367	-0.0075785597	0.008512684	-0.0012757038	-0.0070262034	0.011129623	0.0031413636	
0.00022355242	-0.029900715	0.0066787293	0.018922172	-0.016189126	0.01564757	-0.0020511716	-0.02048577	0.016132338	0.0053638173	
0.008912511	-0.03291533	0.009748305	0.019677084	-0.021975357	0.02621117	-0.0021594241	-0.028208349	0.020995209	0.0060768356	
0.016864855	-0.030887399	0.015451059	0.01725615	-0.029082576	0.01377656	0.007917208	-0.04210182	0.030511761	0.006076443	
0.009589736	-0.02823981	0.025032688	0.015747234	-0.027242744	-0.015542206	0.02458156	-0.041581977	0.03442249	0.0041221017	
0.0023501546	-0.008917951	0.015594102	0.01329063	-0.036576085	-0.029699072	0.04022801	-0.034836523	0.037342597	-0.00033865753	
-0.0032698466	-0.0037555266	0.013517526	0.0023712113	-0.03331331	-0.034534022	0.04447901	-0.018766345	0.028136585	0.0030430253	
-0.0071218014	0.0055020987	-0.00195656	-0.007104069	-0.019565988	-0.036264013	0.029237952	0.013099585	0.0127827125	0.014795527	
-0.008749405	0.021116037	-0.0135853775	-0.008446054	-0.00953038	-0.047577627	0.023053572	0.028246876	-0.0011246274	0.018908015	
-0.005391742	0.018194554	-0.020302057	0.0005144911	-0.014988861	-0.0501591	0.023528432	0.02148395	-0.007708356	0.033501126	
0.0072554434	0.0003258172	-0.022459913	0.008725963	-0.02863388	-0.045080107	0.03204796	0.011644393	-0.009364396	0.047160663	
0.003802831	-0.019860614	-0.022289611	0.0154366465	-0.02171457	-0.026399484	0.02945422	-0.008361835	-0.0010361606	0.04779325	
-0.0004864714	-0.028732385	-0.014825747	0.022416854	-0.027351776	-0.016099269	0.029179903	-0.011621071	0.006243556	0.046062525	
-0.0036108242	-0.04181626	-0.0028527395	0.024359649	-0.024689166	-0.0043139798	0.029586103	-0.012583747	0.008010048	0.028438754	
0.0016460659	-0.0413192	0.009402796	0.014030083	-0.014523949	0.002283222	0.015348448	-0.012909804	0.00868824	0.0150842685	
0.004742308	-0.03187684	0.0076597445	0.009402009	-0.008802118	0.007206647	0.0073347767	-0.0118591525	0.0051421467	0.010520664	
0.0022585902	-0.025507089	0.0077050147	0.010105051	-0.0114832	0.009176639	0.0031345128	-0.00800938	0.0053720893	0.0016417183	
-0.0067044506	-0.018605234	0.008069378	0.0066700126	-0.011571111	0.010674906	0.0062498497	-0.0028699313	0.006385931	0.00032664475	
-0.002157336	-0.008940923	0.008673641	0.0040161335	-0.0058022793	0.0023532512	0.002903748	-0.0015786238	0.0025171551	-0.00053710805	
-0.0012970199	-0.0046734475	0.0067800004	-0.0015913991	-0.00027333584	-0.003315737	0.001589599	0.00023754392	-0.00028673274	0.0028445723	
0.0003266692	-0.0015873273	0.0018502733	-0.00090300245	-0.0012630814	-0.00031492603	0.0035597382	-0.0007492795	-0.0003401413	-0.00074179313	
-0.00023203695	-0.0009362845	-0.00053227507	-0.0011496649	0.0021587946	0.00014439796	0.0006911518	0.00057105883	-0.00048049152	-0.0001167882	
-0.00053564116	0.00030894065	4.4722696e-05	9.8389275e-05	-0.0001937733	0.0009139743	-0.0017741388	0.00085646455	-0.0003093967	0.00015765411	
-0.0013977383	-0.0003828652	6.121365e-05	-0.0005744405	0.001489406	-0.0005597411	-0.0010598503	-0.0001300534	0.0001713796	-2.4303894e-05	
-0.0011571124	-0.0013696619	0.0015859215	0.0004000165	-0.0010862979	2.622606e-05	0.0008810007	0.00086977077	0.0011322763	-0.0007107404	
-0.0018992043	-0.00068399194	0.00024767345	-0.0019524822	-0.001726676	6.201805e-06	-0.0006516474	-0.0011529328	-0.00032608057	-0.0005743756	
-0.0004966171	-0.0019676515	0.002939407	0.00058197236	-0.00058259576	0.0021858064	-0.0010570044	-0.0008568117	0.0018168592	0.00030477205	
-0.009160731	-0.0055784457	0.0031449567	0.0021608798	0.00045809147	0.002132521	0.0017525635	-0.0016186318	0.0038415082	0.0020355445	
-0.008555686	-0.01443848	0.006286927	0.013673899	-0.0060599255	0.0075138677	-0.0031170265	-0.005909884	0.011796447	0.0019827741	
-0.0032380957	-0.020206735	0.0011790517	0.020192748	-0.017707163	0.019378386	-0.0037631015	-0.021886036	0.018522795	0.0037114604	
0.0028233905	-0.02309603	-0.004429284	0.02489342	-0.028115302	0.038397934	-0.009914698	-0.03304913	0.021328188	0.007344103	
0.008072907	-0.024969924	-0.001010009	0.026761387	-0.031494956	0.035882	-0.0069794366	-0.040800553	0.030525815	0.0072082183	
0.0089713745	-0.01834213	0.00633065	0.025881123	-0.033674154	0.01789386	-0.0016633905	-0.036446746	0.032757826	0.0020410337	
0.013424825	-0.0034177892	-0.0009517172	0.018928146	-0.03744724	-0.0022428518	0.010173177	-0.033072416	0.036782753	-0.0028150962	
0.019208038	-0.001146529	-0.006558681	0.0054055294	-0.03184858	-0.015863154	0.016164273	-0.020724392	0.03337612	0.0073858	
0.01058742	0.0015585268	-0.016465101	0.0017255481	-0.021112243	-0.027431626	0.028249089	-0.00085267005	0.01730329	0.008882548	
0.003941677	0.006848062	-0.025441147	0.0032326363	-0.018463008	-0.03031072	0.029605152	0.0016055782	0.0106372135	0.016508497	
0.0027655154	0.014175208	-0.02763409	0.0061695282	-0.024679674	-0.03073532	0.024052998	-0.003562667	0.00823936	0.03204413	
-0.00064578594	0.0002817114	-0.033524867	0.013228206	-0.029226035	-0.012775786	0.0222376	-0.009376989	0.0072196964	0.043600734	
0.0036937958	-0.01448997	-0.025607811	0.007463507	-0.025047954	0.002873673	0.019214774	-0.021598453	0.011317271	0.041293	
-0.0017711362	-0.025790403	-0.008318459	0.010741479	-0.019888867	0.0065566488	0.017262202	-0.013768053	0.002373592	0.033824846	
-0.0010096651	-0.033555795	0.004611189	0.01443644	-0.012487107	0.01705246	0.006581396	-0.017151402	0.004128973	0.01926558	
-0.00088856963	-0.03434997	0.017019445	0.0030061842	-0.003978194	0.020399079	0.0033390662	-0.01576071	0.0055646095	0.0075507006	
0.004425738	-0.027352216	0.019297156	0.0033647902	-0.003032196	0.014150822	-0.0041781473	-0.014632081	0.0035881659	0.006642995	
-0.0019159446	-0.021843832	0.008443668	0.0046125394	-0.0062407716	0.008323	-0.0013336645	-0.0064820256	0.00676169	0.0027178433	
-0.003039656	-0.013811089	0.0077051343	0.0043346807	-0.005003162	0.0022439156	0.0030964257	-0.0031927158	0.005028661	0.0023265213	
-0.0008441857	-0.009498475	0.0034767648	0.003788735	-0.0024070835	-0.0007172466	0.0008934269	-0.00035745735	0.0028066712	0.0010818118	
-0.0006939488	-0.006280416	0.0057926383	0.0018499073	-0.00033399594	-0.001559356	0.00059720397	0.00029269906	-0.00094146666	0.0019732674	
0.00075300725	-0.0024451285	0.0033872002	-8.302529e-05	-6.0881364e-05	0.00051830406	-0.0009441229	-0.0011966926	0.00048619506	-0.0013913886	
0.0018913379	0.0016330788	0.0003621309	-0.0007004227	0.00065187446	-0.0008685794	0.0001372598	0.00045259125	-0.00016962408	0.00032745753	
0.0027136311	-0.00048373736	-0.0004479706	-0.0002462939	-0.00031749424	-0.00034153613	0.00033054128	-0.00062713306	-0.00020765378	0.0002583379	
-0.0020525241	-0.0011781831	0.00021407563	-0.0013609127	-0.00053766154	-0.00011588258	-0.00063431077	-0.0012365252	-0.0015656721	-0.0002955775	
0.00026012314	0.00068404357	-0.0003228653	-0.0012960761	0.0022628997	-0.00014962864	0.00027339693	0.0001883424	0.00037189174	-0.0020054402	
-0.0022531187	-0.0015622888	-0.00142335	1.8133984e-05	-0.00010296085	-0.0010252962	0.0005784616	-0.0007319094	-0.00044843304	-0.0010226902	
-0.00040475503	-0.0018667113	-1.2086352e-05	0.0010523576	-0.00033311907	-0.0016150986	0.00026038897	-0.0006807385	0.0029600172	-8.783859e-05	
-0.00454721	-0.006148812	0.0047655227	-0.0010119018	0.0009467285	0.00023335186	0.0013869077	-0.0016018994	0.001583534	0.0026231601	
-0.008680445	-0.0070532616	0.007250978	0.0025982421	-0.0033662259	0.0018041324	-0.0020039713	-0.004693126	0.007271434	0.0037544486	
-0.0037637209	-0.0071411123	-0.0027180773	0.015228316	-0.009251024	0.0074715186	-0.003184092	-0.018713918	0.015629465	0.0030843318	
-0.0014755005	-0.015012639	-0.007590146	0.0225869	-0.022740157	0.029135207	-0.008612032	-0.027693849	0.021683594	0.0073446357	
0.0024834718	-0.016118849	-0.009038855	0.02669931	-0.029966151	0.03456119	-0.017890962	-0.029223764	0.02797954	0.009836731	
0.0063926163	-0.0116637675	-0.008866737	0.03157089	-0.033324566	0.038255785	-0.024020439	-0.031080568	0.03166202	0.0063201794	
0.010692337	0.0012754061	-0.01608525	0.021117624	-0.03276575	0.036196403	-0.029269353	-0.028333176	0.041217964	0.005373486	
0.011504858	-0.0032119954	-0.022379098	0.0128404265	-0.027244233	0.03344398	-0.032381143	-0.023814425	0.037945498	0.014080259	
0.013535824	-0.0061355317	-0.027566139	0.007891521	-0.020764858	0.032008983	-0.02612176	-0.022991419	0.033144332	0.016812451	
0.004663869	0.005780446	-0.032791644	0.008997429	-0.026252199	0.027107252	-0.020175017	-0.01760755	0.029094033	0.01941517	
-0.00556437	0.0064425245	-0.030637959	0.015394112	-0.031679593	0.020009557	-0.018544268	-0.013467321	0.024502197	0.031971954	
-0.004152145	-0.00043685062	-0.027084472	0.0020943047	-0.027721576	0.029793425	-0.01388854	-0.02499254	0.025438946	0.03733646	
-0.0025507146	-0.0066931774	-0.016368011	-0.002473309	-0.019616988	0.02889089	-0.007709865	-0.02046896	0.016462315	0.032254692	
-0.0002810024	-0.017493948	-0.0033745023	0.0004482877	-0.012622896	0.02168793	-0.007789408	-0.013909468	0.010804648	0.021792352	
0.00033349614	-0.019554181	0.006326793	-0.003772363	0.0001928046	0.022443296	-0.0064117303	-0.019093677	0.011700382	0.011288279	
-0.00036694834	-0.01640304	0.011711122	-0.001632061	0.0023219327	0.013922715	-0.0047978344	-0.016741771	0.006472749	0.008054106	
-0.0034972776	-0.017702827	0.01391301	0.0030937595	0.00091970054	0.004975759	-0.0026399882	-0.012774702	0.0064226845	0.009350047	
-0.0038475585	-0.01283651	0.0072280923	0.002971494	0.00027581028	0.002946934	-0.0004063048	-0.006137309	0.0060588503	0.005490127	
-0.0019874459	-0.008044897	0.0038455792	0.0042834464	-0.00066980644	0.00035299835	0.0013725264	-0.0038959635	0.0023233243	0.00055675895	
-0.00028488605	-0.0041917204	0.0012869206	0.0013732769	0.0008397244	-0.0008044956	0.00023374458	-0.0007082	0.00030825502	-0.00047957606	
0.00089170015	-0.002274929	-0.0018316624	0.00043083893	0.0015603293	3.796181e-05	-0.00031744668	0.00031094285	-0.001826112	0.001851032	
-0.0004669483	-0.00021957136	0.0002137953	0.0010436323	-0.0012690927	0.00089144486	-0.00010371188	-0.0014915183	-1.7657445e-05	0.00013016659	
-0.00043150695	-0.00071473635	0.00080630166	-0.00042246882	0.00079260714	-7.076873e-05	0.00049100805	0.00075037696	0.00020078082	-0.0003323145	
-0.00074948126	8.058539e-05	0.0003615948	-0.0012948292	0.0005276818	3.794022e-05	0.0019145241	0.0017333364	0.00013321746	-0.0004215037	
-0.0002392873	-0.00019442636	0.0019606517	-0.0010172038	0.0006850241	0.00041916812	-7.366585e-05	-0.00046328412	0.00076807727	0.0008748092	
0.0005330202	-0.0007202576	-0.00077653886	-0.00045576075	-0.00018100199	0.00043730857	0.00046676034	0.0017686604	0.00041521853	-0.0018574346	
0.001240857	-0.00070602656	-0.00031888223	0.0009273601	-0.0004960474	0.00070120004	-0.0005798114	0.00035039117	-0.0006475636	0.002283639	
-0.0008356673	-0.00060265476	0.0009492324	0.0019722187	0.00027923027	-0.00027664215	-0.00055368984	-0.0012856809	-0.00091491756	-0.0004213961	
-0.0049288967	-0.0014344179	0.003085233	-0.0010553516	0.0033923504	0.00061569223	0.0019856694	0.0005908246	0.0019357943	0.001224705	
-0.0063313623	-0.004716837	0.0042391727	0.0013867804	-0.0014467265	-0.0015224802	0.0009932137	-0.0015208255	0.00359871	0.0041306354	
-0.0067073214	-0.00078069215	0.005212324	0.003785733	-0.0020960155	-0.00056052435	1.2372907e-05	-0.010662244	0.0098360125	0.0044114892	
-0.003131688	0.0012901718	-0.0018380609	0.0074031386	-0.010106881	0.008574342	-0.0052792355	-0.01832318	0.013140899	0.0073361103	
0.0001787382	0.000865718	-0.010429799	0.014933375	-0.01896924	0.024079097	-0.012516538	-0.025170203	0.022800272	0.0051120534	
-0.0045419373	0.0066371826	-0.017609287	0.023048185	-0.028682198	0.03161111	-0.02078208	-0.024826493	0.026018864	0.008141575	
0.00062928436	0.0021972186	-0.027196385	0.020645807	-0.025880136	0.038124993	-0.034804277	-0.018290656	0.025707126	0.017496355	
0.009658795	0.0025888868	-0.03070262	0.012356772	-0.024450485	0.041426994	-0.04041699	-0.020943271	0.026179519	0.024329655	
0.0033659923	0.0048038843	-0.03337271	0.0071035493	-0.019451179	0.04349725	-0.042048372	-0.01790633	0.032968335	0.018970026	
-0.0037401447	0.010079146	-0.03219723	0.010882455	-0.027771171	0.042293604	-0.040155936	-0.010497624	0.029293623	0.023288203	
-0.0046732053	0.011125842	-0.028895792	0.009766852	-0.030062124	0.032136247	-0.041132342	-0.0092463875	0.028959949	0.030487627	
-0.0061871973	0.006789934	-0.02278145	-0.00014521656	-0.025375841	0.03288995	-0.032704785	-0.014194665	0.022885764	0.038004275	
-0.0026498288	0.00046034454	-0.01516222	-0.0074501946	-0.012527925	0.024759186	-0.0192497	-0.004184043	0.008262441	0.025617298	
-0.000588719	-0.0042286026	-0.0101658795	-0.001143927	-0.009270919	0.021100512	-0.012757122	-0.002596844	0.005628925	0.016566755	
-0.0053616366	-0.0066854283	-0.005252486	-0.0008707258	0.004218937	0.01261762	-0.0098605165	-0.009667051	0.0028357692	0.011820115	
-0.005283124	-0.005906208	0.004082179	0.0020925954	0.0016955937	0.00377968	-0.005152566	-0.008256566	4.5593697e-05	0.011751195	
-0.0037430013	-0.008481286	0.0049709096	0.0036077022	0.006538559	-0.001538765	-0.00525192	-0.009281971	-0.002578062	0.010889535	
-0.0018707182	-0.006673378	0.0040255142	-0.001001517	0.0036341923	0.0013471575	-0.0010870332	-0.0050671687	0.00057834276	0.0075008725	
-0.0013668942	-0.0025535238	-0.00036811645	-0.0026118865	0.0012784178	0.0006348384	0.0011506311	-0.0008680535	0.0014180874	0.0035462687	
0.000664846	0.00013627797	-0.00026530525	-0.00076905283	0.0023326462	0.00016458012	-0.00038548352	0.0005616367	0.00018258058	0.0002038999	
-0.0021463525	0.0007180604	0.00075050927	-0.0010850452	-0.0015128038	0.0003105134	0.0009422414	0.00031749363	-0.00035120596	0.001374995	
-0.00021489672	-7.934295e-05	-0.00040764868	0.0011049737	-0.0010358613	0.00088091264	0.0013958013	-0.0006324856	0.00043362964	-0.0010133324	
-0.00012238703	-0.00013685279	0.0009553107	0.0012166807	-5.3677963e-05	-0.0005081302	0.0016119266	-0.0004148429	0.0013397528	0.0023655505	
-0.00088907924	0.0002970016	-0.0011813025	0.0010880079	0.0010112558	-0.0008836812	-0.00021793929	0.00032295036	0.0007098467	0.00014390175	
0.00015531799	-0.0013969827	-0.00035262672	0.00055838295	0.001232764	0.00035812732	-0.0006652501	-0.00020220896	0.0010422167	-0.0015143311	
0.0012441973	-0.0013385831	0.0005791327	-0.0009880223	0.0015235672	-0.00045589695	0.00013584014	0.0009975724	0.00044660698	0.00076208916	
-0.00058591994	0.0011125989	-0.0019050037	-0.00047447867	-0.0015710916	2.1601914e-05	-9.733041e-05	0.0013582616	-0.0013485759	0.00087800133	
-8.766671e-05	0.00020412829	-0.00095272774	-0.00029328887	0.00054797676	-0.00043662553	-0.0007909568	-0.0007696776	-0.00070138014	-0.0017956216	
0.00015569206	0.0008193602	0.00032083	0.00010289846	-0.0013313667	-0.001000542	-0.00047719153	0.00011846215	-0.00022723145	0.000679234	
-0.001165526	0.00044450833	0.0010947523	0.0005493051	0.00089917326	-0.0014236124	0.00097831	0.0015596583	-0.0020854794	0.0013448659	
-0.0018206474	0.002322995	0.00084737776	-0.00046564452	0.00055821217	-0.0051371413	0.00033435115	-0.00029280345	0.0040415805	0.0059112874	
-0.0049290084	0.00468312	-0.0007467046	0.00016006583	-0.003034807	2.2487304e-05	-0.0026213014	-0.0008322782	0.0064284373	0.0020261777	
-0.0028142028	0.0047650253	-0.0016831675	0.0024583521	-0.0019138376	0.0015745055	-0.0076329103	-0.00971847	0.014307634	0.0017905174	
-0.0034058494	0.0025382375	-0.0075581046	0.004325032	-0.007409313	0.0070670918	-0.014937668	-0.004209083	0.014563276	0.0078135105	
-0.00171673	0.0004516702	-0.013989039	0.0061174524	-0.006629303	0.012170722	-0.025104284	0.00561899	0.00543105	0.01621878	
0.0017686951	-0.0042068623	-0.011055446	0.0025968053	-0.00040676625	0.016438425	-0.02710648	0.0038120071	-8.013449e-05	0.021147184	
0.001631614	-0.0041245376	-0.008023915	-0.0019373919	-0.007075816	0.02034278	-0.027831363	0.008128069	0.00503298	0.015223756	
-0.00034693355	-0.0030611893	-0.010898915	0.0024711192	-0.016927663	0.017214315	-0.025625275	0.01191056	0.0052491263	0.018473893	
-0.004985086	-0.0010085644	-0.012088428	-0.00016744388	-0.017589852	0.013909771	-0.025168791	0.010546562	0.0040669353	0.029227953	
-0.0011585412	-0.00086175714	-0.016450303	0.0022791573	-0.014529194	0.009744695	-0.016592879	0.011004319	-0.001371441	0.030724451	
-0.00027521723	-0.003392642	-0.015026478	-0.00023131457	-0.0046033463	0.007095079	-0.011071574	0.006799147	-0.006515989	0.026557913	
-0.00030887622	-0.0011081217	-0.011329989	-0.001240302	-0.001971078	0.0073230276	-0.0063396906	0.0052193226	-0.008790949	0.020883828	
-0.0038751937	-0.0027895367	-0.007306854	0.00059902575	0.0025224988	-0.0017928699	-0.00070331886	-0.00020747283	-0.0041598035	0.019124478	
-0.003259012	-0.0014547504	-0.0019915819	-0.0025533454	0.002708656	-0.0024861572	-0.0023304569	-0.0012429819	-0.00391652	0.013332967	
-0.0011711041	-0.0036181808	-0.00016455076	0.0004121238	0.005240313	-0.0018286059	8.12944e-05	-0.005307878	-0.006784358	0.011928798	
-0.0020829963	-0.0010544584	0.00034653844	-0.0007001995	0.0025015548	0.0006013317	-0.000111920155	-0.0004174403	-0.0029058787	0.006909468	
-1.0687749e-05	-0.00028633946	-0.0013316111	-0.0016252211	0.002214101	0.00040917986	0.0018121448	-0.0006398073	-0.002802768	0.0042314357	
-5.46427e-05	0.00012827107	0.00010990115	-0.0015943431	0.00026135563	0.00073445967	0.000775205	-0.00023413263	-0.0020565803	0.003472434	
-0.000309093	5.740807e-05	0.00021197392	-0.0013134225	-0.0011285507	-0.00093430857	0.0017334665	-0.00018329843	-9.606998e-05	-0.00032238074	
0.0015082153	0.0012415985	-0.00071195496	-0.0012743714	-0.0004957409	-0.00028444227	0.0014286607	0.0008674487	8.314199e-05	-0.00096312736	
0.0004387432	-0.0007241975	0.00021826614	0.0005020008	0.0001855635	-0.001150915	-0.0016072328	0.0011324224	0.00038427036	-0.00046313318	
-0.00014733152	-0.001478604	0.0006717059	-0.0009452478	-0.0010286318	-0.00021093935	-0.00010611605	0.0007195205	0.0016545142	-0.0008208152	
0.00053062633	-0.0017652448	0.00024917192	0.0015390458	0.0002553862	-0.00041986094	-0.00014368273	-0.0004911663	0.00061487494	-0.0013338261	
-0.0016279072	-0.0010764804	0.00064996985	0.0005150099	0.00012851415	0.0003616812	0.0015742268	0.00082050764	0.0013411804	0.00091954373	
0.0010417396	0.0006605948	0.0008516431	-0.00047916375	0.00069643196	0.00096930104	-0.00040799752	-0.00018212224	-0.0014441641	0.000344217	
0.00015280835	0.0005447955	0.001782412	-0.0014646571	0.00027364035	-0.0002913584	-0.00089151436	-0.00038954287	-3.519164e-05	-0.00087991945	
-0.0016668419	-0.0012884868	-0.00071587594	0.0005188098	-0.0011748844	0.0002881211	-0.00014992096	0.0021526834	0.00031204263	0.0007880903	
-0.0008253536	-0.00058575935	0.0014807032	-0.00087205606	0.0010907921	-0.000844631	-0.0024425916	0.0025336936	-0.00093378226	0.0010120473	
7.535905e-05	-0.0010560903	-0.0017672807	-0.0014258971	0.0025299892	-0.00025725708	-0.00076104386	0.00062071974	-0.0018776195	0.0029962817	
-0.00058680476	0.00022087959	-0.0012741645	0.001631844	0.00054667855	-0.0022213731	-0.002866114	0.0031031272	-0.0017281307	0.0024142447	
-0.0026311243	-0.00012464439	-0.003157819	0.0042042546	-0.0028945797	-0.002986168	-0.0078081135	0.009677756	0.00027263054	0.0035554122	
-0.0024309177	-0.001649659	-0.0023770295	-5.5797296e-05	-0.0032854083	-0.0033872635	-0.009982553	0.011178866	-0.00096033333	0.009513812	
-0.0012047357	-0.0002245015	-0.0039240597	-0.0023189078	-0.002998951	-0.006330285	-0.017058585	0.021710403	-0.0031715026	0.018434588	
-0.00014525876	-0.0032034132	-0.0005419557	0.0020958276	0.000272154	-0.0067790407	-0.018294083	0.020175908	-0.0069436585	0.013922774	
-0.0034072248	-0.0029612393	-0.0017119682	0.002622025	-0.0027458405	-0.0057430146	-0.01653709	0.03052091	-0.011774112	0.012088336	
-0.0057348157	-0.007670167	-0.001943828	0.0011422613	-0.00783344	-0.002982492	-0.013114854	0.03455672	-0.015233663	0.018456372	
-0.0054635596	-0.006142829	-0.003562121	0.001813696	-0.0065457793	-0.0023569148	-0.011595946	0.024714962	-0.013264903	0.027325386	
-0.004056386	-0.0046561426	-0.004710371	0.0006901667	-0.0053747124	-0.0006679387	-0.010459556	0.018261395	-0.010371119	0.019801555	
-0.0007244631	-0.002217006	-0.0048582675	0.0042013354	-0.007247707	0.0010803903	-0.0059381956	0.009822416	-0.008222893	0.01777331	
-0.002547455	-0.00038033267	-0.0046316083	0.0006598845	-0.004838054	0.0010327782	-0.0027050474	0.008343592	-0.009349756	0.014719733	
-0.0048236204	-0.0024160608	-0.0030464309	0.0010975825	-0.0019396476	-0.002231804	0.00034009432	0.003352306	-0.0065587866	0.01637879	
-0.0033620356	-0.00035332155	-0.001014136	0.002194345	-0.003376316	-0.0030508495	-0.0006972966	0.0025563668	-0.006974422	0.011534488	
-0.0001519876	-0.0016625593	0.0021447178	0.0018567166	-0.002182963	-0.0005704205	-0.003930682	-0.0020579451	-0.0030605386	0.0070808707	
0.0017138778	-0.0014322416	-0.0002416812	0.00052915583	-0.0026800272	-0.0010983692	-0.0017113471	-7.857005e-05	-0.0019210764	0.0046643787	
0.00024708192	-0.0013201637	-0.0012910486	-0.001709319	-0.0013170791	-0.0008959624	-0.0015668437	0.0014712007	-0.0003307973	0.0014697041	
-0.0026841376	-0.0014495964	-0.00033222084	-0.00027809583	6.8587484e-05	0.0007191414	-0.0016656099	-0.0003896901	-0.0011560692	0.00049663836	
0.0019682245	-0.00036686368	-6.8756875e-05	0.00028509632	0.0003445946	0.0010431675	0.00033670696	-0.00096655695	0.0010677672	-0.0008133312	
-0.0001790454	0.00018159882	0.000994057	-0.0008442807	0.0007905276	-0.00050006167	7.428119e-05	-0.001042478	0.0004131018	0.0008326011	
0.0011894156	-0.00053665525	-0.0005978802	0.00041129297	-0.0025112273	7.673698e-05	0.0016415452	-0.0007270167	0.00045163394	-0.00091133645	
0.0011997465	-0.00023862772	0.0004061597	2.5625233e-05	0.00015473695	-0.00019094186	0.0016145718	0.00041867973	0.0004497804	0.0011032065	
-0.0011584697	0.0005200631	-4.455404e-05	0.00080783834	0.00024459208	-0.0005948596	-0.0009584188	0.0012537168	-0.000611504	-8.418616e-05	
-0.0019742516	-0.00086651416	-0.0005238304	-0.0004924311	-0.00042612778	0.0016785306	0.00069436803	0.0018145149	-0.0012174555	0.00074299256	
0.00052674755	-0.00069781276	-0.00024303602	0.00070616364	0.00023433173	-0.0003867025	0.0005371146	-0.0010958808	0.00057054736	0.0006205326	
-0.0011913028	0.00061107415	-0.00076279056	-0.0002872437	0.00082902494	-0.00052085146	0.0017183998	0.0012434574	-0.0006657981	5.701546e-05	
-0.00071069447	0.0010890908	-0.0022454548	-0.0015604589	-9.984513e-05	0.0010509228	0.0005341916	-0.00048605615	-0.00088456157	0.0009079949	
-0.0008405021	-0.00092994084	0.001982313	1.5026143e-07	-0.00081401743	0.00016412891	-0.0018375351	0.0011466761	-0.0011189518	0.0015933492	
0.0008758608	0.0015770486	-0.00142957	-0.0016616489	-0.00063992414	0.0015073197	-0.0011880795	-0.00044118633	-0.0016920725	0.00090053247	
-0.0002613289	0.00018758673	6.392639e-05	0.00020520753	-0.00044583174	-0.0016194792	-0.0014192986	0.0009424052	-0.00056553405	0.0009265029	
-0.0015026815	0.0015443716	0.0009042847	0.0027489553	-0.0011493727	-0.0017077315	-0.001847981	0.00407275	0.0016559873	0.0010709353	
-0.001205186	0.0019936303	-0.001125315	0.0022878596	-0.0024851507	-0.003995119	-0.0033829166	0.0062573757	0.001314396	0.00016790963	
1.9283701e-05	-0.0007891187	-0.00078979624	-0.002817591	-0.0019137259	-0.0031104484	-0.0047424147	0.010970532	0.000830797	0.0025685718	
-0.0008635497	-0.00037883277	-0.0008759857	-0.00037898112	-0.0035054272	-0.002956289	-0.0059878733	0.011374234	0.0013534275	-0.0005644127	
-0.0018302815	-0.0021577864	-0.0032739746	0.00012094753	-0.007543662	-0.0037055383	-0.007110474	0.01850931	-0.0003820862	-0.0027077254	
-0.001561383	-0.001444307	-0.0012892422	-0.0012944896	-0.0052105617	-0.0037023316	-0.007906297	0.02481985	-0.003588884	0.0054074917	
-0.003585137	-0.00019086851	-0.0020860117	-0.0043959795	-0.00431132	-0.0034051347	-0.007587057	0.017739367	-0.0057418672	0.011140753	
-0.002327363	0.001475487	-0.0019432378	-0.004526456	-0.0015094395	-0.0017572758	-0.004396215	0.011316641	-0.004474774	0.008727719	
-0.0020119585	0.00037977268	-0.00083924684	-0.00024307011	0.00015034738	-0.0026782642	-0.0014612062	0.0038006178	-0.0034136253	0.009178338	
-0.0021713125	-0.0017494789	0.0012164175	-0.0018396524	-0.0036198245	-0.0015202799	0.0005231722	0.0060309838	-0.0027543604	0.0063002	
-0.001586099	5.366761e-05	-0.00021984891	0.00020063054	-0.0047860737	-0.00047412346	-0.0041542994	0.0048553697	-0.0009873259	0.0055830567	
