-0.00028925433	0.0002810767	0.00031994155	-0.00024396395	0.0006734034	1.2633701e-05	-0.0014118347	0.0008417385	0.0005904669	0.0002849751	
-0.0012548366	-0.0007083054	0.0009290249	0.0027926022	-0.00061214075	0.00014992578	0.0005573765	0.0005421882	-0.0011495971	0.00068915857	
-0.00010644403	-0.0006840016	0.001856957	-0.00040132873	0.002079609	-0.000827395	-0.00029664772	-0.002314617	-0.0011543096	0.001855554	
-0.0002829121	0.0006978115	0.0009539141	-0.0001607668	-0.0005060108	-0.0022818064	-0.00041405892	-0.0006982202	-0.0010544943	1.0123296e-05	
-0.00079571264	0.0009684116	-0.0011991453	0.0018300558	-0.0012116805	0.0006618291	-0.0006891151	-0.0012715004	-0.0020861293	-0.0004688143	
0.00012455405	0.00024605304	0.00031707864	-0.0001614798	0.0001222301	0.0015048546	-0.00036585343	0.000539869	-0.0002667572	0.0009336444	
-0.00024204762	-0.000906289	0.0010306324	-0.0008610773	-0.00030509348	0.0019772653	0.00011906099	-0.00178658	-0.0020074358	-0.0004251593	
0.0026586344	-0.0010798959	0.00019556726	0.00030422714	-0.000426235	0.0005157414	0.0011855834	-1.5453448e-05	0.0008519249	-0.00015259054	
-0.0003819265	-0.0011909553	-0.0013122949	0.002278902	0.0011326958	-0.001469162	0.00069228205	-0.00037093053	-0.00020222596	0.0003802929	
9.076779e-05	0.000980386	0.00033220326	0.00025454094	0.000470966	-0.00028133322	-0.00022835641	0.0011522175	-0.00029480734	0.0015461202	
0.001102472	-0.0006523436	0.00106085	3.7791255e-05	-0.0008049086	0.000944124	-0.0006134874	0.0014670717	0.000109078224	0.0007590828	
-0.00036516073	-0.0023606638	-0.0010098714	-0.00097449217	0.00015984078	-0.00096680975	0.0004854142	0.00068264245	0.0003598356	0.0006095315	
-0.0009823545	7.005743e-05	0.0010670676	-0.0007215796	-8.003809e-05	-0.00073078624	-0.0017783222	0.00031213372	-0.0030224028	0.0010387395	
-0.0015782713	0.001066576	-4.3270495e-05	0.0012859296	0.00024605737	0.00080687733	-0.00070216815	0.0014973042	1.0610192e-05	-0.00057735696	
0.0013157816	-2.318934e-05	0.00016391373	0.00027145402	-0.001030044	0.00044038024	-0.0009799247	0.0015819605	-0.00021261154	-0.00027415584	
0.0006695035	0.00078491087	-3.1955378e-07	-0.00079645263	-0.001876384	0.00060302654	0.0008115593	9.6400734e-05	0.0018232218	-0.0008547857	
-0.001244072	-0.0014884392	-3.9157774e-05	0.0011340163	0.00024869424	-0.0007365609	0.0011547393	-0.00013710049	0.00087635906	0.00022326932	
-0.0014918061	2.666636e-05	-0.00050758495	0.0008557363	-0.0005186145	0.0008991903	0.00030849074	0.00052955747	-0.0012507038	-0.0010798965	
-0.0021523435	-0.0006322696	0.0010773623	-0.0002986688	0.0007038501	-0.001935913	-0.0014583978	6.2438885e-05	-0.0010613068	-0.00032568866	
0.0017142636	0.000121375764	0.00033789844	0.0015776393	-0.00011045495	-0.00094558706	0.0008945265	0.00031866366	-0.0012691384	0.0004248261	
0.0013243838	0.000100494915	0.0004955597	-0.0025822711	0.00058405753	0.00056435436	0.00071704626	0.0009188955	-0.0001949667	-0.00085322844	
-0.0018741152	-0.00067559426	-0.00092092	0.00031678312	-8.848837e-06	-0.00022160113	-0.00075420894	-0.0008575939	0.0009744559	-0.00054620224	
-0.0011859725	0.0007942204	0.00027914922	6.416504e-05	0.0014242384	-0.00078849785	0.0010208647	-3.5985813e-05	-2.8317836e-06	-0.0019025669	
-0.0012786363	-0.00019361114	0.0005219655	0.0009654736	-0.0005821055	0.00027254515	-0.0011284966	-0.00024093615	-2.989861e-05	-0.00022999173	
8.527191e-05	0.00076518365	6.117719e-05	0.0007674572	0.0011013558	0.0005370943	0.0005646066	0.0012492226	0.001178643	0.0013735356	
0.00040256552	-0.0010502086	0.0008142747	0.0019758283	-0.0009192118	0.0020237076	0.0007795736	-0.0005565158	0.001326185	-0.00049778976	
0.0004048808	0.0013692054	-0.0010076045	0.0016239927	0.00067253417	-0.0006278844	0.0009489298	1.2276927e-06	-8.71502e-05	-0.00038712056	
0.0009387183	-0.00019830899	0.0014383625	5.755663e-05	-0.0006796212	0.00044047635	0.0006167946	-0.0012974303	0.00011335167	0.001853442	
-0.0017607198	0.0017114464	0.00076660415	-0.001022129	-0.0015344215	-0.00062828837	0.0007975895	0.00045101327	0.00020287583	-0.00072676054	
0.0013109465	0.0004962819	-0.00061380386	0.0005622015	-0.00025729946	0.0006122833	-0.0011240814	-0.0017011347	-0.00043826996	0.00036775667	
0.0014816347	0.00029294932	-0.00042030998	-0.0018866099	-0.0014462494	-0.0009462519	-0.0006585964	8.658533e-05	0.0019411423	0.0012938824	
-0.00051085145	0.00043787915	0.0006599585	-0.0002229507	-9.477269e-05	0.00017573661	-0.0016311279	-0.0005348981	0.0005666307	0.00066325715	
-0.0021565747	-1.4757059e-05	-0.0008836656	-0.002089244	-0.0009637444	0.0023131468	0.0011340273	-0.00014990535	0.00214929	0.0017525128	
0.00036853788	-0.0009626746	-0.000812683	0.001300379	0.0004536318	0.00028597942	0.0003717363	-0.0006133232	-0.00069239875	-0.0019043921	
0.0009163817	0.000510873	0.00041137004	-0.00058923964	-0.0009343009	0.001027605	-0.00042823522	-0.0007395151	0.00101436	-1.5881968e-05	
-0.0017969203	-0.0017095256	-0.00053670804	0.0012907463	0.0012578418	-8.113272e-05	-0.0010829718	0.00039956006	-0.0009944239	1.0762116e-05	
0.0003839221	0.0010012209	0.0008807034	0.00084542856	0.0007631985	0.00021310696	-6.010967e-05	-4.383991e-05	0.0009423911	-0.00028777687	
0.00010868575	-0.00015883902	-0.00014938152	0.00057757256	-4.4783734e-05	-0.000120545024	-0.0004955882	0.0008628433	-0.0007824631	0.00215992	
-0.0012446932	0.0019241075	-0.00044134312	0.00241485	0.0007205509	0.0014311118	-0.0018469195	0.0015900665	-0.0010627045	0.0001674286	
0.0005697451	0.0003527227	-0.0021598598	0.002010566	-0.0006044808	0.00074767676	0.0006746098	0.0024372071	-0.0007321142	0.00049585185	
5.0793424e-05	0.00065203116	-0.001064828	0.00018593081	-0.0011276944	-0.0012638152	0.0020380116	-0.001965551	0.00040957093	-0.0012794916	
-0.0009855656	-0.000585683	-9.345903e-05	-0.00011250252	0.0017438467	-0.0010927309	0.0034971798	0.00058842584	-0.00038387164	-0.0001244093	
-0.00023955379	0.0017189535	0.0010149665	0.0014774371	0.00079212815	0.00047209032	0.0011052144	-0.000349781	0.0017210962	-0.0012632693	
-0.0004947739	-0.0004184408	0.0023834663	0.0010714699	-4.084259e-05	-0.00046548006	-0.0013360127	0.0013951295	0.00043331116	0.0009881281	
-0.00033986743	-0.0006462596	0.0013220974	0.0009240849	0.0008446115	0.0008290423	0.001744811	-0.0015505321	-0.0013004935	-0.002756091	
-0.0011718064	-0.00027955807	0.0013098904	-0.0008656775	0.0002698566	-0.0012794617	0.0033193957	-0.0011830464	0.00035718933	-0.0012752789	
-0.0005026384	-0.0006666663	-0.0007102338	-0.0012223962	-0.00049654924	-0.001432649	0.0013287114	0.0025000218	-0.00085924607	0.001004045	
-0.00093303976	-0.001930903	-0.0016374985	-0.000966804	-0.00073679123	-0.0016294013	0.0027766742	-0.00072120817	-0.0019841986	0.00026819325	
0.0005512786	0.0022669365	-9.0199785e-05	-0.00032042526	0.0009024676	3.708022e-05	0.0010035534	0.0010673509	-0.0009569155	0.0011419666	
-0.0017164501	0.0012383888	-0.00034862553	-0.000109780616	-0.00074406166	-0.0011775903	-0.0037323036	-0.0019369142	0.0010121202	0.00061683456	
-0.00077109213	0.0011289803	-0.00022547127	-0.001428504	-0.000293608	0.0010884681	0.00016651143	5.7851845e-05	-0.00024959972	-0.00034079654	
0.00042002622	0.001179402	-0.0005524244	4.9712846e-05	-0.0006942932	-0.0014285282	0.0009855097	0.0006692666	0.0010102576	-0.0013390301	
-0.00037299364	-0.00049061363	0.0010221929	-0.0008860895	1.0027554e-05	-0.00034661085	-0.0015857434	5.347373e-05	0.0005932268	0.0013265659	
8.290436e-05	-2.6981379e-05	0.0007391572	0.00164623	-0.0005582472	0.0014107521	-0.00010328625	-0.0005690753	-0.0013440414	0.00077700947	
0.00044279647	-0.0003997382	-0.0007063872	-0.0004284271	-0.00090837566	-0.0017094461	0.0012077938	0.00024016402	-0.0003979843	-0.0009000114	
0.00018919283	-0.00047719397	0.0002621106	-8.248791e-05	0.0008040541	-0.00033582043	0.0010619547	-0.00042224134	0.0008381908	-0.00050054095	
-0.0003739561	0.0011441965	0.00094810256	0.00024383604	-0.0006630295	0.0003304387	-0.0029178534	0.00071712374	-0.00021149436	0.0008939674	
-0.00039262127	0.0012851253	-0.00042011967	-0.0025656566	-0.00044898505	-0.0023815408	0.00103097	0.0011321126	-0.0026868875	-0.0004193927	
-0.00024178156	0.00010673105	-0.000877916	-0.0010782249	0.00019035798	-0.00040651995	1.51734375e-05	-0.0011102037	-0.0016500267	-0.0002270011	
-0.00032859648	0.00016888333	0.0011800894	9.834146e-05	-0.0021800848	-0.00200131	0.001400257	-3.0479903e-06	-0.0012468738	0.00081806025	
0.0018378836	0.00056200026	2.6615122e-05	5.2546806e-05	-0.0020051158	-0.00020007671	-0.00032367365	-0.0008321499	0.00034743478	-0.00048224695	
-0.00045534532	0.0014887799	-0.00030531205	-8.730984e-05	-0.0015491503	-0.000687763	0.0008709471	-0.0006998906	0.00029750797	-0.0005337357	
0.0015690336	-0.0021491677	-0.00069637364	-0.0005723669	-0.00044776895	0.00033000432	0.0012814974	0.00040585082	0.0002470708	0.00039068417	
-0.0007905764	-0.0008402893	-0.0011615299	0.001421552	8.5180094e-05	-0.0011936708	0.0013116116	0.0018608134	0.00079832145	-0.00085531606	
-0.00142706	-0.0014561826	0.0009017064	0.0009478698	0.00035669343	0.000802802	0.00072552264	0.00023483875	-0.00085581664	0.0005177208	
0.0010900946	3.8299477e-06	0.00018529473	0.0003886541	-0.00037390672	0.00040600693	0.0013925752	-0.0007411935	0.0007439597	0.00248216	
0.0021193898	-0.003580924	0.0019480927	-0.000121988356	-0.0005400411	-0.0013848668	-0.00052986806	0.001553396	-0.0013264949	0.0008490628	
0.0016511688	0.0014445029	-4.4839806e-05	0.0007617709	-0.0012626001	-0.004044567	0.0015204297	0.00033761055	0.0009789567	-0.00025209208	
0.0004124461	0.0027315065	-0.0027817935	-0.00035875675	-0.003176245	-0.003858422	0.00960611	-0.0011483376	-0.0031743501	-0.0034668674	
0.0019101079	0.0006805101	-0.0015072413	-0.0015731992	-0.001471469	-0.0053402786	0.0065188855	0.0018073198	0.001216671	-0.0013178169	
0.002922794	-0.0011502495	0.003952589	-0.00071843027	-0.0024210322	-0.0018568555	0.00034547644	0.0018862812	0.00041422906	-0.004179952	
0.0010134975	0.0022732096	0.004208241	6.0111517e-05	-0.0040037567	-0.00057481584	-0.0020507546	-0.00021772797	0.002197342	-0.0028914677	
0.0008305251	0.002773435	0.0012492079	0.0013700391	0.0012493683	0.0009366845	-0.0041769417	-0.0007164267	0.00232737	-0.0005416571	
-0.0005713792	-0.00026503822	-5.666574e-05	0.001762777	0.0030121258	-0.0016386993	-0.0003567699	0.00083145965	-0.0001633375	-0.0012171344	
-0.0014588854	-0.0008689449	-0.00050717045	-0.00011796769	-0.0017452529	-0.006313095	0.006336672	0.0047046	-0.00075698044	0.00031773697	
-0.00031330858	-0.00066022517	0.0003107824	0.0010821028	-0.0011020501	-0.00781373	0.005360017	-0.00018733981	2.4416295e-06	0.001445783	
-0.0016715622	2.618559e-06	-0.0010898146	-0.0006993277	-0.00017071418	-0.0060452563	0.006017948	-0.0016713267	0.00037798955	0.0013624531	
0.00065229787	-0.0009515562	-0.00095347984	0.00042904413	-0.0008449387	-0.004311245	0.00728547	0.00021963638	-0.0004371417	0.0007341978	
0.001017521	0.0013315743	0.0016407759	-0.0007514889	-3.388578e-05	-0.0022391381	0.0043205507	-0.0013495984	-0.00087928254	0.00055649964	
-0.001804323	0.00013159656	0.0005239599	-0.0007207247	6.3425396e-05	-0.0010767081	0.0015443335	0.0012285087	-0.0007248963	9.328194e-05	
0.00067604764	0.0010127616	0.002614579	0.00016323612	-4.4224747e-05	0.00059274805	0.000750928	-0.0014818389	0.00036556632	0.00064639706	
-0.0013308582	-0.00021872376	0.0018374671	-0.00044994862	0.0003788961	-0.0006017557	-0.002773332	0.00022758906	0.00051129516	0.00076503644	
-0.0012592935	8.153773e-05	-0.0007816336	0.0005512951	0.00087181694	-0.00059285853	0.001401025	0.00056792924	-0.0005744744	-0.00093787455	
0.0009018042	0.00014394143	8.689819e-06	0.00036903622	-0.00024362645	-0.00015654766	0.0006090977	0.00069120416	-0.00048702385	-0.0011469643	
0.000579488	-0.00011004513	0.0004231597	0.00061154686	-0.00030544854	0.0001577878	0.0015548931	-0.0013089738	-0.0010724565	0.0010919702	
0.0003350182	-0.0006964877	0.0013890367	0.0021714806	0.000915334	-0.00010913818	0.0016633221	0.0003703779	-0.00040891324	0.00021242334	
0.00062854076	0.0005060036	0.00096153864	0.0007194057	0.00072637136	0.0008742426	0.0003930003	0.00026059707	-0.00018960328	0.00082162884	
-0.00018577813	0.0007398052	-0.0016892474	0.0005470684	-0.00033137514	0.0015769089	0.0019250789	0.0010236437	0.0016712769	0.001414899	
-0.00047689027	0.00092108466	0.0003658141	-2.8383225e-05	0.0008104054	-0.0006052024	-0.00048807648	0.0010539733	-0.0009910692	-0.0020069473	
-0.0010979123	-0.0003644174	-0.0013704178	-0.00077360676	0.00239571	0.0001696229	-0.0012646612	0.0010488981	0.0011387178	0.00016417778	
-0.0016121324	-0.0012111964	0.00040649864	3.7472564e-05	0.00016141783	-0.0011666152	-0.0016059348	0.0011860833	-0.00085152	-0.002211893	
-0.002191159	0.0012052831	0.0010483436	-0.0010006645	0.00084787543	-0.0022165272	0.0020910513	0.00066789356	0.00016369252	-0.0024953815	
-0.00034158106	-0.0012693661	0.002445396	0.0010554149	-0.0013407702	-0.0017986372	0.0020960397	0.0017591066	-0.0010479116	-0.0015580647	
-0.0011746136	-0.0014397474	0.0048863366	-0.0013736858	-0.0014232486	-0.0012708827	0.002280562	0.0009529851	0.0010473162	0.00028536186	
0.0001316772	-0.0063672597	0.008913966	0.00058423943	-0.0041313083	-0.0011999364	0.0005245409	0.0018706066	-0.001473965	0.00047672365	
0.0027368783	-0.0027974318	0.0067130364	0.0037642163	-0.0069234	0.0005379904	-0.0013353734	-0.00014126927	-0.0059406324	-0.001668393	
0.00065499183	-0.004489255	0.008672104	0.0013757603	-0.004708389	0.0008273873	0.0069267554	-0.0024829376	-0.0058245417	-0.0020324313	
-0.00074478914	-0.0025705341	0.014223104	0.0014523441	-0.0022276454	-0.002318334	0.008067584	-0.0006258997	-0.0068596955	-0.0056446316	
0.00015690485	-0.0033100762	0.016231826	0.0022582533	-0.0048865797	-0.002143862	0.004291296	-0.0036150531	-0.002104277	-0.0040488066	
-0.0019596315	-0.0016099084	0.0102983285	6.175525e-05	-0.0014957397	-0.008210222	0.0059904982	-0.0024297289	0.0008408057	-0.003990284	
-0.0065620076	0.00047398958	0.00043865206	0.0013683469	-0.00074057496	-0.0043329326	0.009516203	0.0007135554	-0.0025387213	-0.0032964435	
-0.0064323638	0.0011919519	-0.0015564305	0.0073234006	0.00041284246	-0.008159627	0.008263397	0.005738757	-0.0025632125	-0.002436061	
-0.000756534	-0.0005812628	0.00372994	0.0005682595	0.0006995933	-0.017449768	0.0079574175	0.010316487	-0.0044467365	0.0023334366	
0.0049552573	-0.0015050201	0.0008977266	-0.0002906796	-0.00501263	-0.016623223	0.0153468475	0.001806984	-0.0016991096	0.0043682796	
0.0007071176	-0.004023598	0.0009988328	-0.003925156	-0.0018076123	-0.012440037	0.013814443	-0.00042493333	-0.0017506079	0.0048258915	
-0.00025579767	-0.0029301213	-0.0016962608	-0.0032026484	0.004047579	-0.008444347	0.011483054	0.00044856095	-0.001228682	1.5404923e-05	
-0.0016966778	0.0013127384	-0.0004446092	-0.0018490383	0.0012716809	-0.005290332	0.006192785	0.00047334636	0.00062465307	-0.0020961913	
0.002171016	0.00047752282	-0.0011726059	-0.00020609713	0.0025469144	-0.004931289	0.004751466	-0.0011635297	-0.0012478507	-0.0010582444	
-0.0014162151	0.00081916386	-0.000297974	-5.169895e-05	-0.0022875	-0.0020028409	0.0011442569	-0.00036574126	-0.000676886	6.8153066e-05	
-3.320605e-05	-0.0006385284	4.487708e-05	-0.00037988627	-0.00065674476	-0.00011585206	-0.0006144648	3.0804877e-05	0.0008891447	-0.00055115885	
0.0011156941	0.00051177305	0.0006802247	-0.0012276034	0.00042749543	6.13308e-05	0.0004950244	0.0010570032	0.0018326519	0.001310814	
0.0003967315	-0.000113179325	0.0014730612	-0.0010822499	0.00042010733	-0.0010407196	-0.0008372844	-0.0010248338	0.0012338511	-0.0004355249	
9.49402e-05	0.0012410455	0.0012371232	-0.00047703157	-0.0006421287	0.0007553174	0.0002102805	0.0012583055	-0.0009544856	-0.0016428885	
0.00033804215	-0.00093102606	0.00074112	-0.0013976626	-0.0006297679	0.000114872775	-0.0022308584	0.00032558694	0.00074226724	-0.0015747781	
0.0015988988	-4.653597e-05	0.0017617055	0.00040658395	0.0012342512	0.002590489	0.000105903324	0.00010210554	0.0002826316	0.0014808679	
-0.0012780147	-2.5647547e-05	0.0007416596	-0.0005243377	-0.0003564307	-0.0013492941	0.00023926055	-0.0029272635	0.0014966264	0.0011891398	
-0.0010371091	-0.0005357835	0.00010315479	0.00032538167	-0.0005457347	-5.5585275e-05	0.0016732451	0.0007886637	-0.0014414215	-0.0022557531	
5.8688576e-05	-0.0014433505	0.001047411	0.0002443011	-0.00030743296	0.0023710057	-0.00010375452	-0.0018344605	0.0005089393	0.0007134828	
-0.0019093091	0.0005856839	0.0014157877	0.0020157516	0.000175992	-0.00020160685	0.0021873417	0.000101337355	-0.0011016931	-0.0015026231	
-0.004950384	-4.2012463e-05	0.0017688104	-0.00055345753	0.0005091114	0.00023927615	0.0014064296	0.0013212068	-2.1964981e-05	-0.0008530762	
-0.0016739703	-0.0020383124	0.007699521	-0.00070783106	0.0010197691	3.6491023e-05	-0.0011402316	0.0011427611	-0.0034973836	0.00061467063	
0.0013892526	-0.006413135	0.011027668	0.0034496528	-0.0021303713	0.001824335	-0.0044267676	-0.004109228	-0.0047440366	0.0020488957	
0.0012965165	-0.0066087497	0.011042243	0.0075577577	-0.007879795	0.0029963374	-0.0055168597	-0.0017753281	-0.0038080763	-5.4091346e-05	
0.0069883685	-0.0045038546	0.008608037	0.007265016	-0.0071850787	0.0016050468	-4.1442895e-06	-0.0015353543	-0.007669608	0.00033962668	
0.0026767382	0.0007633088	0.008332644	0.0073534795	-0.0021145171	0.0012008242	0.0080853775	-0.0036268835	-0.009319333	-0.008412925	
-0.0022840204	0.0045028	0.008314033	0.010210233	-0.011325386	0.0009128537	0.006693675	-0.0111592645	-0.00043675688	-0.0082230065	
0.0013401401	8.981395e-05	0.005307854	0.016900668	-0.0076706572	-0.00049006415	-0.0006554354	-0.012383362	0.012511564	-0.01049743	
-0.005310872	0.0025498995	0.001530981	0.018401805	2.3106146e-05	-0.01537226	0.004434127	-0.014390104	0.019074006	-0.012055501	
-0.011944071	0.003435403	-0.0004445307	0.0068699447	-0.004316033	-0.0141219795	0.013436113	-0.0067755324	0.015968157	-0.003619037	
-0.011704941	0.008595305	-0.0024823812	0.0055010463	-0.0038989324	-0.018838493	0.00926392	0.004365883	0.006910588	0.0005313357	
-0.0051789456	0.007576756	0.00026571707	0.00045809973	0.00064000604	-0.02263672	0.0137383165	0.006437533	-0.0002499665	-0.001552204	
-0.0022174702	0.0014465861	0.0015620386	0.0048219003	-0.005008002	-0.020346694	0.01978507	0.0051340302	-0.00393211	-0.0009851386	
-0.006944073	-0.0013848483	-0.0039110337	0.0024116312	0.00027642766	-0.013659594	0.024372548	0.00054758904	0.0046409396	-0.00064633624	
0.00095245626	-0.0003664774	-0.0025490734	-0.0017523628	-0.0011445031	-0.012859765	0.017000008	-0.001726217	0.00482751	-0.0018718583	
-0.00032054307	0.0047397595	-0.005436924	0.00047794165	-0.0019695887	-0.009810905	0.013104946	0.00019052245	0.00031244452	-0.0034034934	
0.003699794	0.002973415	-0.0048646457	-0.00047766572	0.00035849266	-0.008382448	0.007432094	3.725913e-05	0.0014689276	-0.0010244921	
0.0037820053	0.0018715925	-0.0012082702	-0.0012912871	-0.0031968702	-0.0027012604	0.0032121595	0.0014535179	-0.0011562435	0.00017010822	
0.0018144535	-0.00029565697	-0.00032536537	-0.00028172042	-0.0013398633	-0.0018112045	0.00067166286	0.0007109244	0.0024162517	0.0005584025	
0.0006043185	0.00076619524	-0.000602215	-0.001039091	0.0010219332	-0.0010849038	0.00030849775	0.0007132419	0.002067062	0.0009491213	
0.0003092653	0.00015556694	0.0008434402	0.00012568623	-0.0013521132	0.0005128468	0.00017847803	-0.00085513125	-0.0020079103	0.0012818233	
2.4981793e-05	0.00013255516	0.0016316624	0.00039427791	-0.0006347784	0.00013818816	0.0007023143	-0.0008406425	-0.00013034078	-0.00034387142	
-0.0021243864	0.0010671328	-0.0013366386	0.0027722274	-0.00051356165	0.0019891309	0.0011482103	0.00054584735	-0.0009959713	0.00082289474	
0.00093677803	0.0015568223	-0.0002584867	-2.4281915e-05	-0.00038306997	0.00075852755	-0.00017534346	0.00013298696	0.002268883	-0.0019866377	
0.0017576377	0.000705035	-0.0009334616	0.0005994003	0.0006707106	0.00038744602	-0.0011832161	-0.00069699006	0.00053008855	-0.00021902997	
-0.00090684654	0.00023413428	-0.00019957418	-0.0011808142	-0.0013823872	0.0014619945	0.0024282685	-0.0007263732	-0.0012201716	-0.00092774985	
-0.00038734963	0.0011030185	0.0013954686	-0.0005783667	0.0013135256	-0.0016803842	-0.0022791063	-0.00026198622	-0.0024040581	-0.00229079	
-0.003315216	0.0031969727	0.0068864855	-0.0012983354	-0.00059811655	0.0039605564	-0.0026582703	-0.0014625494	-0.001131715	-0.00018448799	
-0.00459829	-0.0004599464	0.008750196	0.0016311604	0.0008406987	0.0035942998	-0.0054623345	-0.0002792672	0.0015246673	-0.0044681593	
-0.0035532413	-0.0044449	0.0019208787	0.008629826	-0.00202977	0.0057981755	-0.0006989048	-0.0014390749	0.0032835891	-0.0028183023	
0.004864337	-0.009419132	0.0015528314	0.011296763	-0.0025954014	0.00089132553	-0.0060070003	-0.005129498	0.0045618857	-0.00077277445	
0.0015896893	-0.0067820996	0.003818822	0.012983798	-0.0022858076	0.0019462414	-0.0061070016	-0.006933605	-4.0470888e-05	0.004580645	
-0.0027198845	-0.0053385743	0.0013766936	0.014074334	-0.0019993319	0.0004982139	-0.00037283302	-0.012560428	0.00023352368	0.0030852314	
-0.0067721717	-0.0017885591	0.00069991243	0.02047734	-0.008940941	0.0036213265	0.0012143033	-0.015797814	0.008621913	-0.0020753806	
-0.004021807	-0.0035949566	0.0017867727	0.02457732	-0.016199782	0.0038432446	-0.00925264	-0.023866456	0.02776412	-0.005674428	
-0.014347715	-0.01005223	0.003995274	0.029788839	-0.0069376184	0.0038444477	-0.007106278	-0.028305618	0.039558392	-0.0063359216	
-0.020080836	0.00569283	0.0028235891	0.01784839	-0.0077056712	0.009508971	-0.0040638824	-0.030916266	0.0357062	-0.008956905	
-0.00815539	0.007819089	0.0018544006	0.010683365	-0.009138918	0.0007045789	-0.00021880672	-0.02635624	0.025905013	-0.005987648	
0.001083668	0.014965043	-0.0036243312	-0.0019635514	-0.014754378	-0.005393578	0.006383671	-0.010289432	0.013088406	0.004018119	
0.0042109205	0.0049933414	-6.360881e-05	-0.010305947	-0.013572446	-0.010903587	0.019543273	0.0004666477	0.003169232	0.0026700085	
0.010666342	-0.002038746	-0.0003251464	-0.0064044097	-0.016616883	-0.0015823963	0.013780538	-0.0065981494	0.0063731405	0.0038896326	
-0.00508511	0.0047338265	-0.011551364	-0.0048376	-0.0060486896	-0.0015937747	0.012606415	-0.007161363	0.008229858	0.0027531418	
-0.0075406046	4.7032278e-05	-0.0063827545	0.005732353	-0.012624575	0.002899321	0.012426576	-0.007248375	0.01168812	0.004016118	
0.0047765565	0.005111609	-0.0054143243	0.004807972	-0.01319218	0.0009129438	0.00890479	-0.001977892	0.0005098008	0.0002924297	
0.004582218	0.0046834964	-0.0050646593	-0.00064534164	-0.005160702	0.00018064692	0.002692806	-0.002071334	-6.240429e-06	0.0008941807	
0.004600414	0.0011991808	-0.00203477	0.00096286455	-0.002416494	-0.0013578563	0.001913817	0.0014045072	-0.0017416357	-0.00097135146	
0.0024870355	0.0020436794	-0.0026322333	0.0007231504	0.00074549596	0.00018506609	0.00019497483	0.0004879593	-0.001408932	0.0028177286	
0.0002355181	0.0010869919	-0.00081789	-0.0010997052	-0.00015458603	0.001806617	0.0022478192	0.00052450673	-0.0019021331	0.000879567	
0.00094369653	0.00036789404	-0.0012175994	0.00013651971	-0.0014117818	-0.00071728707	-0.00040318898	0.0004058285	-3.4646637e-05	0.0006726524	
-0.0015236186	0.00011647254	0.00010343441	0.0006942051	0.001002096	-0.0012603047	-5.2502205e-06	-0.00057965197	0.00035723613	-0.00197185	
-0.0015227669	1.9062216e-05	0.00031394907	0.0005562295	0.0014659264	-0.00021651357	-0.00019492133	-0.0011986365	-0.0013166749	-0.0015551	
-0.0008024379	0.0019126983	-0.0026352452	-0.0013126167	-0.0012155853	0.0012489745	-0.001947649	-0.0015763829	0.00041551463	5.8036032e-05	
-0.0011558793	-0.00021097843	0.0017314597	0.0015563853	0.0010795421	-0.00019304463	-0.000100933314	0.0015295282	0.00057013234	-0.00067518273	
-0.0009953376	0.0010304954	0.0030534174	-0.001456266	-0.0012081244	3.1987285e-05	-0.0022198795	0.0012169059	3.804046e-05	-0.0034478097	
-0.0022963542	0.0040427432	0.008565498	-0.0020717739	-0.0055177147	-0.00078574324	-0.004753108	0.004008334	-0.00053852965	-0.0010359045	
-0.007735579	-0.0008278368	0.010134034	-0.0019041101	-0.0021282425	0.0023377994	-0.0076332428	0.006563245	-0.0005224791	-0.0029743928	
-0.008861982	-0.0029219424	0.0022417372	0.007668589	-0.0017280638	0.0030117924	-0.0033198828	0.0036036912	0.00080767955	-0.00029668256	
-0.0022687702	-0.0061864606	-0.0014332285	0.009604553	0.00030111615	0.0017364043	-0.0038651002	0.0050646807	-0.0018911664	1.6601589e-05	
0.008176387	-0.013048146	-0.011637692	0.018723838	-0.0037553622	-0.0010603581	-0.00917849	0.0041257497	0.002593239	0.005275403	
0.0057983194	-0.0013488975	-0.015067863	0.028262867	-0.010094975	-0.0039164317	-0.007102178	-0.005411172	-0.003012394	0.011878037	
0.0039770673	-0.004327077	-0.018344115	0.035706088	-0.012635078	0.0011747696	-0.0047895554	-0.013345985	0.00067124335	0.013194921	
-0.0048325043	-0.01007797	-0.008631739	0.03024918	-0.018002387	0.0031843479	-0.01443515	-0.017547615	0.017886339	0.02453758	
-0.012901196	-0.013214357	-0.005920767	0.02577641	-0.023928992	0.0030863238	-0.017461754	-0.01948299	0.031129282	0.031145424	
-0.004469523	-0.009987548	-0.007424745	0.018810838	-0.021621661	0.00088791497	-0.02123313	-0.021081567	0.022133214	0.043319877	
-0.009967251	-0.0023478812	-0.008115196	0.01891049	-0.013477123	-0.0027683657	-0.0073132473	-0.026387105	0.012103605	0.03872981	
-0.006985152	-0.000109833614	-0.0038404185	0.0041575637	-0.010431094	0.0027103035	-0.0013902733	-0.024625817	0.0063661328	0.034787886	
1.1768425e-05	0.014941746	-0.008329029	-0.0026008706	-0.0227521	0.009963299	0.0008624042	-0.02504665	0.0080828685	0.02975025	
0.013422681	0.008979337	-0.012216933	-0.0062876567	-0.016992494	9.69198e-05	0.0058894036	-0.017320378	0.0014345124	0.020900905	
0.010005994	-0.0019011085	-0.0047768275	-0.002607962	-0.013926724	0.009381348	0.010763461	-0.016340174	-0.003266877	0.015062761	
0.0001866917	0.0072683515	-0.0102844825	-0.008659628	-0.011600013	0.015317324	0.0051105567	-0.0104578985	0.0030049875	0.012606625	
-0.007042536	0.0024892692	-0.012186617	-0.0015934516	-0.014946271	0.021219824	0.00917463	-0.01059081	0.006565972	0.0034589283	
0.0033296838	0.006224318	-0.0029223112	0.0058341464	-0.019354925	0.017162668	0.0014076655	-0.0046521667	-0.0016297618	0.0014813256	
0.0026733675	0.0012149436	-0.004450166	0.0033290405	-0.0099558085	0.009383676	-0.0017027713	-0.0035483348	0.0003925816	-0.0017295796	
-0.001482499	-0.0007710117	0.00029524826	0.0031326374	-0.0011544423	-0.001672589	-0.001480929	0.0025712135	0.0028461132	3.8029393e-05	
-0.0018901571	-0.0025695004	-0.0018523657	0.0027387878	-0.0030568768	0.0018951015	-0.001047747	0.002147178	0.0020840345	-6.051935e-05	
-0.0005614616	-0.0013594058	-0.00030746724	0.0008977958	-0.0017875931	0.0027040737	-0.0010814981	-0.0010796208	3.6828453e-05	0.00073067076	
-0.0007389379	-0.0009529535	-0.00044886515	-0.0008493856	0.00053587306	-0.00039418272	0.00044388228	0.0011703955	-0.0015918001	0.0018599832	
-0.00057830114	-0.000726483	-0.0012903764	0.0011180148	0.0005944827	-0.0022702438	0.00018140112	0.0012502321	0.0006253216	-0.00048270467	
0.0012172053	-0.0006716394	-0.00020995908	0.0013289814	-0.0014945312	0.0017341952	-0.0027212538	0.00025223792	-6.7921836e-05	-0.0005512711	
-0.0016529569	0.0003377612	0.0001254219	-0.0017054048	0.0010016869	8.186866e-05	0.0017396281	0.00047747447	-0.0014705678	-0.0030273218	
-0.0021876616	-0.0005904677	0.0008691134	-0.0009217197	3.121419e-05	0.002174537	0.0016346658	-0.0017879184	0.00051183306	0.0012722007	
-0.0007738345	0.00057598954	0.0036870735	-0.00023727736	-6.226734e-05	-0.00011193008	-0.0019496084	-0.00090616086	-0.0017768414	0.002813516	
-0.003186929	-0.0012128961	0.0049162726	-0.0047770385	-0.0013322326	0.0010804961	-0.0058009	0.010536343	-0.0024339661	0.0016514454	
-0.006682245	-0.00282339	0.006339469	-0.0035775292	0.0004645548	-0.0006160786	-0.0070323832	0.012273718	-0.00065894396	0.0021106	
-0.0039008274	-0.006859724	0.0013353542	0.0022725123	0.0073303194	-0.0034893833	-0.006296877	0.013418264	-0.0023476824	0.0026785333	
0.008794578	-0.013155345	-0.016871046	0.009467124	0.004890514	-0.0103365155	-0.008410733	0.016184699	0.0035538569	0.006982483	
0.004626226	-0.007982712	-0.022409825	0.021173974	-0.00444671	-0.016005075	-0.0036901543	0.010813849	-0.0014717012	0.010732141	
0.0054687397	-0.0020767683	-0.0179155	0.027809056	-0.012567843	-0.014722798	-0.0067754365	-0.0044739246	-0.00029999565	0.025428059	
0.008729367	-0.0056938385	-0.00953647	0.00999816	-0.019365909	-0.012566574	-0.008451097	-0.008997263	0.011681413	0.031089198	
-0.004396977	-0.010358124	-0.0018801496	0.005299573	-0.02279525	-0.0016919004	-0.02119188	-0.007388992	0.024454018	0.03996031	
-0.006347591	-0.007041203	-0.0034166765	0.008980437	-0.019618021	-0.0101093715	-0.017883709	-0.01015835	0.007263447	0.057797685	
-0.010918734	-0.00073769124	-0.011732444	0.014434805	-0.016083218	-0.020192228	-0.015523619	0.00075853546	-0.009362916	0.06995492	
-0.009413028	-0.0016615865	-0.009471776	0.0061292583	-0.012300369	-0.020101644	-0.013380863	0.0068993918	-0.021464558	0.0713825	
-0.00854071	0.0018502944	-0.015621374	-0.0014816092	-0.0046637338	-0.006056576	-0.00861327	-0.0019779773	-0.03213077	0.07345514	
0.00011726888	0.007890192	-0.013406429	0.0024604443	-0.012070664	0.0035285663	-0.0112696495	-0.014971191	-0.0087570185	0.05244165	
0.019395435	0.0026044736	-0.010597846	-0.004451921	-0.0117308	0.008887172	-0.010335597	-0.019204184	-0.009479021	0.037066102	
0.016899047	0.0019819136	-0.00040467037	-0.008652119	-0.0096578915	0.013560583	-0.016403077	-0.015735483	-0.008858252	0.026604462	
-0.0010406211	0.0032817924	-0.00025529906	-0.013352499	-0.0026786572	0.019036913	-0.006566354	-0.0155692715	-0.004923915	0.018540937	
-0.002019479	-0.004381708	-0.00843084	-0.0032386559	-0.011028531	0.029994622	0.0021431055	-0.014439255	-0.0011007006	0.012210721	
-0.0074594403	-0.0062981914	0.0022100639	0.0029987	-0.016989091	0.025322406	-0.0013672306	-0.006279759	0.0021210846	0.005209592	
0.00011491754	-0.0061514913	-0.002627085	-0.0028268567	-0.006275031	0.0177418	-0.00072318554	-0.0029868288	0.004656305	-0.0023611225	
-0.0008816093	-0.004428461	0.0017330947	0.0002489965	-0.00015028902	0.0059638596	0.0004326833	0.001671281	0.0023355617	-0.0031987934	
-0.0008408831	-0.0026524763	-0.000459701	-0.00075334776	-0.0033240865	0.005777034	-0.0005256959	0.00091913005	0.0015093995	-0.0004415768	
0.0010816557	-0.0011420758	-0.000585708	-0.0011935098	-0.002899075	0.0035588183	-0.0018440597	-0.0031773555	0.00040463806	0.0011657283	
0.0011601845	0.001865582	-0.0005808754	0.00046400315	0.00083446584	-0.0001856227	0.00021235025	0.0005323911	-0.00081912416	0.00012577513	
0.0005451392	0.001573596	-0.0009887927	-0.00055984023	-0.00014421773	-0.000586083	0.0010068372	0.00035857467	0.0013505615	0.0021098952	
0.0014343497	-0.00024579663	-0.001855074	-0.0003188438	-0.001082204	0.0010347087	0.00080516376	0.00095585716	-0.00023226181	-0.0018013397	
-0.00083952013	0.0005275448	-8.252788e-06	0.0008542616	-0.0012808515	-0.0008566065	-0.0014885244	-0.0023479848	0.0005686383	-0.00017544122	
-0.00024731568	-0.0019424717	-0.0016425165	-0.0007446402	-3.4240966e-06	0.0031221888	0.0014185522	-0.0015013913	-0.0004764901	0.001134025	
-0.004633779	-0.0006377064	0.0012407504	-0.0014321309	0.0023450335	0.0018916999	-0.0006187273	0.00022792838	-0.00073673896	0.001910392	
-0.0063837175	-0.00024329322	6.421076e-05	-0.0057373783	0.003551906	0.003607552	-0.0033824376	0.009709279	-0.0005498569	0.004336734	
-0.010376213	-0.0016204377	-0.0017286546	-0.00087063207	0.006158375	0.0027684118	-0.0065242997	0.015523488	-0.0030231406	0.003161542	
-0.0034508435	-0.010959168	-0.007813211	0.0015110034	0.009108609	-0.00275421	-0.006774045	0.01049576	-0.002184933	0.010278499	
0.0068055405	-0.012083714	-0.018374488	0.006732165	0.009030859	-0.014004569	-0.0035918348	0.010226036	-0.0057479907	0.020717718	
0.009249212	-0.008617706	-0.02006243	0.0010266199	-0.0022759489	-0.013560075	-0.0048682415	0.010043606	-0.009207394	0.036379255	
0.009118486	-0.005838521	-0.010148507	-0.006569447	-0.020502722	-0.00987212	-0.010528858	0.011559427	-0.0069918744	0.04790935	
0.004917929	-0.010634411	-0.0004891183	-0.01677313	-0.02165853	-0.0073581412	-0.011746496	0.015076242	0.0011358688	0.043552328	
-0.0026913742	-0.019518144	-0.0033888351	-0.003559267	-0.010416843	-0.0067992127	-0.019390026	0.012820243	0.01052251	0.04681188	
-0.0067336103	-0.0069592255	-0.0005885391	-4.455913e-05	-0.0062126466	-0.025443839	-0.015653957	0.023333823	-0.006423181	0.04794329	
-0.012370128	0.0041732737	0.00069566775	-0.0025961422	-0.017436622	-0.023803849	-0.010092527	0.034849804	-0.02067952	0.04951738	
-0.0129320985	0.0015104137	0.0050648795	-0.0004678939	-0.017944675	-0.016572716	-0.019219508	0.035788868	-0.024480568	0.045893867	
-0.011564933	-0.0039120303	-0.004835096	-0.00021305913	-0.010742464	-0.00699636	-0.020933267	0.021852704	-0.013698699	0.04994806	
0.005388995	-0.0008662599	-0.01277863	0.002255548	-0.0067305854	0.0038091668	-0.027021391	-0.00025669346	-0.0069287964	0.04288465	
0.014572284	-0.0063368133	0.00050214224	-0.005016413	0.0014335066	0.009336244	-0.032747872	-0.013556066	-0.008874882	0.0414631	
-0.0068435855	-0.001663811	0.0038192617	-0.01113708	0.0017480053	0.014972707	-0.027110774	-0.014412995	0.003256132	0.038559627	
-0.0031509441	0.0010314684	-0.0012653248	-0.016817207	-0.0008649896	0.022079434	-0.011125518	-0.013363723	0.0018679006	0.019834679	
-0.0045889644	-0.003658415	-0.0060328124	-0.014886123	-0.0112178195	0.025917826	-0.008241727	-0.0062347087	0.0029894607	0.022944085	
-0.010961974	-0.0064469753	-0.0002243787	-0.0023849532	-0.017443959	0.020520115	-0.0046491763	0.0024608162	0.0077919555	0.008210268	
-0.0033220705	-0.003962029	0.00056159886	-0.0049296627	-0.0046905866	0.017675124	-0.002810194	-0.0007096358	0.0072871726	-0.0016609622	
-0.0014966908	-0.0034939486	0.0006985512	-0.0048545823	-0.0034865425	0.017007386	-0.001772344	-0.00039686426	0.0026852163	-0.001168394	
-0.0007383282	-0.0017585894	0.001822931	-0.002996437	-0.0033579073	0.012824436	0.00028186088	-0.0010794173	-0.003922334	0.00031034902	
0.00089305354	0.0022101726	-0.00013919217	-0.0012028929	-0.0025507435	0.0053886552	0.0007677692	0.0017951078	0.0010302612	-0.0011180815	
0.0018475596	0.0006918062	-0.000211967	0.00038756646	-0.00023803658	-0.0016865542	-0.0002651242	0.001757153	-0.0005042867	-0.0004005248	
-0.00045522064	-0.0009772627	0.0010845391	0.000601972	0.00027828963	-0.00041453118	0.00046152345	0.00040413003	-0.00022487814	-0.0017012241	
1.0758986e-06	-0.0021003482	-0.00018538363	-0.002413964	-0.0015888269	0.00043252093	-0.00022923487	0.0007055581	0.00058969326	-0.00078325137	
0.00039654845	-0.00052746304	0.0004669057	0.00085729896	-0.000194328	0.0008445368	0.0020286122	0.00075268734	0.0005026563	0.0017121566	
-0.001684698	-0.0015983084	0.0013205487	0.0016574105	-0.0010031939	0.0039500357	4.5277455e-05	-0.00073433266	0.0009775884	0.0006278763	
-0.004239549	-0.0002955903	-0.0022580505	0.00066982553	0.0015972966	0.0022230004	-0.0043676347	0.0038742747	0.0002020578	-0.00065978046	
-0.0129250875	-0.00086071185	-0.0011107977	0.001414043	0.0042488435	0.004831013	-0.0055221966	0.009401328	-0.0005063774	0.0009627839	
-0.011775976	-0.003011936	-0.001614302	-0.0012304852	0.00507266	0.0065151188	-0.010865094	0.013624217	-0.000808698	0.005032761	
-0.0015188698	-0.006458837	-0.008270732	-0.0061530457	0.014619962	-0.0030899178	-0.008240992	0.010885747	-0.0059075076	0.015830224	
0.009276802	-0.010924585	-0.009291733	-0.014561987	0.0013430808	-0.016174413	0.0008554198	0.014323944	-0.008887615	0.03254875	
0.003734568	-0.007819365	-0.004972891	-0.017559035	-0.011483567	-0.007223189	0.0011751197	0.012514917	-0.016367186	0.047603045	
0.0015587197	-0.0057416772	0.0059402916	-0.020880219	-0.019977579	-0.0059391637	-0.0028975415	0.016640358	-0.017518114	0.04852511	
0.002524693	-0.0053671356	0.0068455795	-0.017505037	-0.014876788	-0.0061451285	-0.013390649	0.013438098	0.00040031993	0.03789455	
-0.0011154485	-0.014303928	0.0092094485	-0.014298253	-0.010206733	-0.010821656	-0.016232345	0.019363184	0.00089525525	0.03956627	
-0.0046394933	-0.0039135516	0.006490753	-0.007997232	-0.0056302636	-0.022505667	-0.0079858415	0.037153687	-0.010494726	0.024734182	
-0.010171931	0.010604053	-0.00028950963	-0.002297529	-0.019904483	-0.015321318	-0.0056437617	0.03818329	-0.008584831	0.015500188	
-0.01873418	0.0021596772	0.008098844	0.0035533158	-0.019169316	-0.0035935992	-0.015312012	0.025168624	0.008612037	0.008336345	
-0.013470309	-0.012278487	-0.006317133	0.00430532	-0.008229216	0.0076192636	-0.014986785	0.018355511	0.006539509	0.01881278	
-0.0065983254	-0.011955088	-0.011404381	0.011325809	-0.0034140374	0.009079708	-0.025428189	0.004824429	0.001069308	0.03193986	
0.0024327852	-0.010008127	0.0003058815	-0.0004995144	0.009825643	0.013632396	-0.040569756	-0.0045477645	-0.00026086706	0.031802207	
-0.008711837	-0.010629465	0.0030097303	-0.015774306	0.002442819	0.015193302	-0.029235255	-0.00073776685	0.0041880365	0.036759637	
-0.011161216	-0.00038252212	-0.002274937	-0.009647235	0.0020867097	0.021970741	-0.017319169	-0.012501896	0.008482752	0.025484191	
-0.0069235354	-0.0029688326	-0.0042542387	-0.0060957894	-0.009763066	0.023231573	-0.01260299	-0.0024126228	0.008204684	0.019439705	
-0.0088771535	-0.0019085984	0.0034077847	-0.0006639643	-0.012215031	0.010873565	-0.0077666454	0.0040225787	0.0032026619	0.010516815	
0.0018326797	-0.0005278159	0.0026819573	-0.0019506314	-0.006734469	0.0075203553	-0.0042475886	0.0029013727	-0.0029325513	0.0019352457	
-0.0012317348	-0.0012724211	0.0036078412	0.00037100882	-0.007006147	0.009949525	-0.000982153	-0.0014289509	-0.0026644806	0.003498362	
-0.001099234	-0.0004006699	0.00056610565	0.0020382556	-0.0022176297	0.0021459165	-0.0017376618	-0.0029820558	0.00011571307	0.0027026962	
-0.00011577667	0.00049439765	-0.00033706846	0.0014601198	-0.0003754417	0.005216491	-0.0015349825	-0.0013009756	-0.00048248735	-0.002762779	
0.00086636917	-0.0018621718	-5.117057e-05	0.00073677977	0.0017798457	-0.0011659915	1.8487408e-06	0.00083367655	-0.0008032926	5.0927843e-05	
-2.2121229e-05	-0.0008037456	0.0017946532	-0.0008106191	0.001654511	-0.000544212	-0.0003033759	-0.001976638	-0.00028339148	0.00017013751	
-0.0010421526	7.2377916e-05	-0.0004656314	-0.00043986292	0.00042918776	0.0012052029	0.00012247964	0.000429056	-0.0003945483	-0.00066302734	
0.0010639335	0.00013389162	-0.0003933558	0.0019283787	-0.00037058187	0.0011643934	-0.0025351162	-0.0023295074	0.00079707726	0.00027204267	
0.00033259057	-0.0009206383	-0.00073586905	0.0027392132	-0.0019324728	0.0018740109	-0.0031838713	0.00084003166	0.00018918648	-0.00043827246	
-0.0036918286	-0.0023948033	-0.0020676805	0.0043329066	0.0020674167	0.002085313	-0.0022190544	0.0053360406	-0.0034260184	-0.0019156343	
-0.009566691	0.00046163044	-0.0007749428	-0.0010507713	0.0057747765	0.0015590505	-0.0050017005	0.0090991985	0.0012867453	-0.001372754	
-0.0037918324	-0.0036595399	-0.0008171169	-0.008927404	0.0068500303	0.00057233335	-0.013150622	0.010185293	0.00022262317	0.011741501	
0.0062905955	-0.0055806306	-0.007997002	-0.013068817	0.0133103	-0.012062993	-0.010073176	0.012772827	-0.0027390732	0.024539486	
0.0078441	-0.010204522	-0.003960781	-0.020284453	-0.00043948292	-0.011274086	0.0013417997	0.016429532	-0.0131695	0.036696643	
0.0025541282	0.006350507	-0.0028702167	-0.01632043	-0.020276	-0.015298841	0.0001508412	0.008594567	-0.010809804	0.050824836	
-0.0043869643	0.008396379	-0.0013173119	-0.00829929	-0.024646223	-0.010822444	-0.00619719	0.009337545	-0.0046685543	0.041297514	
-0.00088796346	0.0053827628	0.0015136575	-0.0060360665	-0.018115995	-0.0058971853	-0.015830463	0.004226328	-0.004694836	0.041434493	
0.0026533923	-0.012145525	0.0064738034	-0.012021525	-0.01416086	-0.0035790312	-0.0052991887	0.0057542576	0.0033410224	0.027320951	
-0.0026929728	0.0007269102	-0.0080986675	-0.00295223	-0.011853716	0.0063196113	0.0046609677	0.013838256	-0.0010579672	0.003809812	
-0.01583733	0.018522216	-0.009012448	0.01280304	-0.016962444	0.0040005124	-0.00572617	0.013124222	6.230068e-06	0.00043257454	
-0.020847542	0.00724859	-0.010543787	0.012009087	-0.012458435	-0.00095996144	-0.013571267	0.013140257	0.015667047	0.009957321	
-0.021737073	-0.0037401204	-0.021316603	0.012158696	-0.0021758243	0.0011634743	-0.020544227	0.013520039	0.014361832	0.024434898	
-0.0063538877	-0.005208693	-0.0126507105	0.013530789	0.0041922736	-0.008866105	-0.035561077	0.0078108795	0.017484128	0.024420911	
0.0015032811	-0.0109446505	0.0011564316	-0.0038351642	0.01669333	-0.0011799571	-0.03024073	-0.003947842	0.0025765798	0.026324186	
0.0038211832	-0.013866675	-0.00089061254	-0.009768069	0.010468914	9.164265e-05	-0.021117222	-0.007521508	0.00047175435	0.032016303	
-0.004908983	-0.0038764013	-0.00075301493	-0.0010318826	-0.0053160964	0.008408881	-0.01723119	-0.0147032365	0.010428641	0.025612317	
-0.0090824105	0.004461117	0.0046314355	-0.0059502684	-0.006141346	0.011449341	-0.006627246	-0.0081598405	0.00035732816	0.016649948	
-0.0007764968	0.0019273079	0.001794535	-0.006783118	-0.005018837	0.0042814645	-0.0022752723	0.00048345185	-0.003244858	0.008160684	
0.004769713	0.000770972	-0.00407466	0.00031722029	-0.0013914682	-0.002083102	-0.0012275971	0.003060046	-0.0058268234	0.0074529294	
0.001728632	-0.0047723264	-0.0031513474	0.0014658178	-0.00037494246	0.001149573	0.0007039138	-0.0013479582	-0.004811362	0.004340743	
-0.001092238	-0.0009271883	0.0023138938	0.0005659194	0.00032404167	-0.0007536525	0.0010403278	-0.0012353722	-0.00087915116	0.0004313748	
-0.00042949134	0.0007485702	0.00021012372	0.00043441955	-0.0021900516	0.0024986195	-0.0007013589	0.0015437203	-9.2778806e-05	-0.00045813486	
0.00035398867	-3.766834e-05	-0.00015231111	-0.0016381942	0.0014531609	-0.001617233	-0.0003953079	0.00040743392	3.869983e-05	-0.00028365693	
-0.0004998648	-0.0020678448	-0.00052691216	-0.0004990093	0.0006024641	0.00080757303	0.0005246154	0.0015147186	0.00022256958	-0.00050036	
0.00018918364	0.00035301712	0.0010621824	-0.0010648307	0.0020920944	0.00047323172	-0.0026264586	-8.4411295e-06	-0.0013123355	0.00058185286	
-7.428299e-05	-0.00036382314	0.0014226249	0.000553591	0.00073807605	-6.960129e-05	0.0005381632	-0.0010648761	-0.0007527515	0.0014532937	
0.0007784147	0.0007694361	-0.0010535796	0.001833619	0.0008490653	0.00059918483	-0.000888144	0.0030069738	-0.00017456648	0.0009821823	
-0.0033943742	-0.0005298652	-0.00037451478	0.002666932	0.0028505453	-0.00081592024	-0.0032156885	0.0055262693	-0.0031965452	-0.00012334638	
-0.004381271	0.0015861825	-8.858438e-05	0.00015049157	0.004263071	0.0021517258	-0.005026968	0.002623546	0.0009182448	0.0052337227	
0.0030786665	-0.0021312695	-0.0032588975	-0.008664585	0.0036296598	-0.0017688476	-0.011747951	0.0017726913	-0.00047319883	0.015980437	
0.009748962	-0.007400432	-0.006545037	-0.020275086	0.0040380694	-0.009406055	-0.0067716017	0.0090606315	-0.0039422265	0.030128969	
0.0097991815	-0.005212958	-0.00040807994	-0.02094302	-0.00983413	-0.011486104	0.00031316455	0.008127879	-0.00804743	0.034788564	
-0.007283696	0.015809987	-0.002519121	-0.008244468	-0.02011397	-0.0066266074	-0.0023538405	-0.0024651305	-0.0066293795	0.04051788	
-0.00045230542	0.015684605	-0.0031623167	-0.0050952723	-0.033536747	-0.00072779204	-0.0071533313	-0.0037973144	-0.0003571664	0.038352285	
0.0005983105	0.007653027	-0.0064305896	-0.009316181	-0.026188497	0.010698101	0.0005221046	-0.017767524	0.0037163522	0.03212395	
0.008166727	-0.0021343983	-0.01595196	-0.0032908758	-0.012660584	0.009660913	0.017430006	-0.012752709	0.0028885545	0.0058899354	
-0.0019384678	0.006157151	-0.021769142	0.012092888	-0.010796317	0.017791811	0.0062747244	-0.004738626	0.0073347995	-0.0054703676	
-0.017945549	0.032897957	-0.029734569	0.009877298	-0.007723071	0.00764493	-0.007539442	-0.001986979	0.018245528	0.0007236125	
-0.02154067	0.023191607	-0.02544906	0.019866945	-0.0033840067	-0.00045334778	-0.019587923	-0.006218627	0.0157307	0.017207904	
-0.013823332	0.0024971573	-0.02625518	0.011086813	0.001124899	-0.0022383337	-0.021799771	0.010435583	0.011389024	0.027553204	
-0.010222467	-0.0029922405	-0.004471034	-0.00012002303	0.016026787	-0.004048877	-0.027485901	0.005411785	-0.005139419	0.033372857	
0.00078207976	-0.0145180365	0.010930665	-0.01130089	0.022493176	-0.0033372429	-0.022343323	-0.0019653547	-0.0139742745	0.03712971	
0.0017924614	-0.010461496	-0.0037367684	-0.0070219696	0.007259768	-0.0077676564	-0.016821044	0.0027124174	-0.003028445	0.036339305	
0.0037706597	0.004976933	0.0019112433	-0.00063100574	-0.006416809	-0.006248427	-0.017589757	-0.005174617	-0.0005586832	0.026024183	
-0.0036520322	0.009136872	-0.0013168384	-0.0066778953	-0.0031254676	0.004692993	-0.004380557	-0.0061021447	-0.0004102441	0.011220418	
-0.002598881	0.0072742756	-0.0023432893	-0.007602981	-0.0030597507	0.0014324131	0.00061852013	-0.0022454152	-0.004597089	0.011031877	
0.007522805	-0.0008210444	-0.0029057288	-0.0041132723	0.0019642946	-0.002645733	0.0007621966	0.00056128163	-0.0010372818	0.003947922	
0.006404808	-0.0023579216	-0.004160688	-0.0010220072	0.0034898377	-0.0015281577	0.0013311636	-0.0007209513	-0.0013474227	0.0033490597	
-0.00060745777	-0.0014168922	0.0010058751	0.0021566947	-0.0019720595	0.0017178691	0.00013766637	0.0005109738	-0.0023975994	-0.0010686044	
-0.0019531065	-0.0009851345	0.0014627947	0.00047775055	-0.0008665067	-0.0007344109	-0.0034656462	0.0014104788	0.00091890764	-0.0011878421	
-0.0012876783	0.0020084018	-0.0005074209	-0.00048417342	0.001760156	0.00071778864	0.0010457027	0.0014423614	-0.0010482831	0.0012250403	
0.00052172074	-0.0006927945	0.0011843473	0.00089813373	0.00034509407	-0.0019999114	0.0018625534	0.0011323718	-0.0016028892	0.0007206622	
-0.00051142793	-0.0006043657	-0.0010585218	0.0020063778	0.0012524682	-0.000682962	-0.0012358259	0.00044335172	-0.00018878355	0.00048261802	
-0.0020285198	-0.0010133217	0.0008643278	-0.0002251223	-0.000650359	0.00020660418	-0.0008859178	0.00023858552	0.0007202213	0.000510819	
-0.0013213957	-0.0010253587	-0.0032762997	0.0019253631	-0.0005673867	-0.001348251	-0.0006340684	-0.0005912905	0.00042396932	0.002165626	
-0.0010442267	8.642433e-05	0.00012359931	0.0045519955	0.0016946561	-0.005107889	-0.0032554374	0.0016534984	0.0014375017	0.0032882967	
2.138567e-05	0.00015022233	-0.0030722949	-0.002328369	0.0028592346	-0.0024939186	-0.0048021358	0.0011157457	0.0033619702	0.007090985	
0.008166296	-0.0029854428	-0.00504115	-0.0126625495	0.01056706	-0.006438861	-0.010017965	-0.0011438234	-0.0025157281	0.01659591	
0.011492518	-0.00476426	-0.007129263	-0.01906469	0.004154944	-0.003252494	0.0027820966	0.0017988777	-0.015149724	0.031485006	
0.010966411	-8.484803e-05	-0.0022213324	-0.013432683	-0.01709783	-0.0035047655	0.0038459687	-0.0026388115	-0.01118683	0.03569247	
0.007188375	0.0148090795	-0.0027922392	-0.012044744	-0.030581858	-0.0021088535	-0.003734744	-0.0059241587	-0.005382876	0.035698503	
0.0037779766	0.013373096	-0.00922956	-0.0106490655	-0.027378175	0.005156344	-0.0026245778	-0.008135382	-0.0027380355	0.03753808	
0.007937648	-0.005653256	-0.011797332	-0.0115415575	-0.023255352	0.016149713	0.01932111	-0.018929526	0.005804962	0.024674725	
0.004986116	-0.012530577	-0.025789877	0.014677246	-0.012122017	0.0163744	0.015980002	-0.022837117	0.020416152	0.0039274297	
-0.009244358	0.0044718077	-0.028952885	0.025087548	-0.012588061	0.0143808415	0.0023191196	-0.027858652	0.026544303	0.007374035	
-0.021994354	0.046432033	-0.030515146	0.02267331	-0.016197251	0.00025020406	-0.016002707	-0.027177956	0.028291628	0.013711436	
-0.02462194	0.029683776	-0.023465585	0.014613112	-0.00565572	-0.004074959	-0.029068261	-0.003837095	0.018754339	0.026606675	
-0.0037426255	0.0014491475	-0.014187198	0.000286513	0.00184313	-0.0071730316	-0.03111625	0.014097708	0.0033524947	0.034618564	
-0.0010977266	-0.006771261	0.00676877	-0.009519845	0.017996516	-0.009275935	-0.034869887	0.0025500408	-0.004691091	0.043668937	
-0.0008231164	-0.008436648	0.010648657	-0.009211589	0.013987453	-0.011144426	-0.015157468	-0.0073587177	-0.013775444	0.040322572	
0.0010536078	-0.0018223447	0.005165356	-0.0052417046	-0.0024155483	-0.015580083	-0.014034183	0.0067396895	-0.010011439	0.03338303	
0.010759157	0.00956276	0.000750687	-0.0032549596	-0.0100956885	-0.013020007	-0.019004017	0.0001107751	0.0013561255	0.023053149	
-0.0019710592	0.009595431	-0.00093221146	-0.003758567	-0.006381588	-0.009647253	-0.0032502986	-0.005527402	0.00956034	0.010222726	
-0.004040523	0.010308633	-0.0043049846	-0.005634966	-0.0026810493	-0.0053671794	0.0036372729	-0.004641745	0.0018559138	0.0063066185	
0.0014073972	0.0012630526	-0.005045304	-0.0052809883	-0.001965378	-0.0075348504	0.0058110235	0.0016811177	0.000465072	0.005905406	
0.010408605	-0.0017946025	-0.003581493	-0.00025743962	-0.00023926268	-0.00430924	-0.00024079857	0.0012256681	-0.005830226	0.0043124044	
-0.0016449001	0.0001515467	-4.972404e-05	0.0008457673	0.0009548569	-1.767284e-05	0.00035617052	4.0744508e-06	-0.004152626	0.00037179963	
-0.0017836875	0.00026703905	0.00069115363	0.00010672072	0.001329135	-0.0009908291	0.00024918074	0.0021238816	-0.00053681294	-0.00015761224	
-0.0012448506	-0.00052833057	0.00043632046	-0.00051952904	-0.00070953975	-0.00039490877	0.0009928594	-0.00070268154	0.00020067446	0.0005311103	
3.3971664e-06	-0.0004231956	-3.1268395e-05	5.5446108e-05	-0.0015872251	-0.00062484026	-0.0008495449	-5.9297417e-05	0.0006784034	0.00059328566	
0.0007425547	-0.00032011888	-0.0008546358	0.0011590793	0.000239401	0.0008398976	-0.00040923912	0.0006501412	-0.00066071097	-0.0007897781	
-0.0012319946	0.0008536781	-0.0007764371	-8.5433596e-05	0.0009395037	0.0009176003	0.0013852165	0.00083474885	0.00016330997	0.00046530616	
0.0005991368	-0.0010001089	-0.0022669304	0.001151475	-0.00052559	-0.0014101152	0.0012536913	-0.0006503087	-0.00010362533	0.0015587372	
-0.0026968622	0.000516345	-0.00042781013	0.0011766625	0.0009344439	-0.0044225696	0.00020466355	-0.001800014	0.00017470711	0.005844915	
-9.661395e-05	-0.0034385263	-0.0016745509	-0.006793137	0.0043370803	-0.004399817	-0.002946306	0.0029646093	0.0032062691	0.010165842	
0.006502872	-0.0040605427	-0.006102958	-0.007547304	0.007586259	-0.0066926475	-0.00584062	0.0058012176	-0.0061668577	0.015636178	
0.008043147	-0.0026198276	-0.008638059	-0.012421948	0.0012038255	-0.0014054842	-0.0039191903	0.00031297829	-0.011795156	0.03113283	
0.009723431	0.0071571586	0.0011998112	-0.017045813	-0.014476241	-0.0040085767	0.0013716433	-0.0037390569	-0.008389494	0.02900865	
0.016782802	0.012615205	-0.0070292167	-0.010573778	-0.028449517	0.005005357	1.4930498e-05	-0.013415526	-0.0022096143	0.029922549	
0.005245178	-0.00066795386	-0.016815685	-0.015286624	-0.022043511	-0.00027160638	0.022505367	-0.014546657	0.0026400897	0.03640171	
0.00061396614	-0.01159302	-0.01121106	-0.00790836	-0.017610367	0.01099574	0.030680731	-0.022913536	0.0068047056	0.023223469	
-0.008888969	-0.012062744	-0.01837576	0.013928382	-0.015013671	0.021022148	0.016883643	-0.03859629	0.022994693	0.016319878	
-0.012601802	0.012194459	-0.020331493	0.02914979	-0.018352844	0.008678353	6.186083e-05	-0.04735659	0.03469712	0.015385326	
-0.02689263	0.05398124	-0.02245969	0.025744468	-0.024915887	-0.0005661556	-0.017313767	-0.036983553	0.024029953	0.027151216	
-0.022512406	0.034694575	-0.017390056	0.0076671	-0.01607582	-0.0029147258	-0.02828984	-0.0064425394	0.013390375	0.031433515	
-0.009635743	0.00016102742	-0.0009930867	-0.005316966	-0.0034138476	-0.007979606	-0.030809365	0.007072479	0.0030186505	0.05183238	
-0.009422123	-0.014607651	0.01585339	-0.010664064	0.01699691	-0.017221788	-0.025261939	-0.0026590307	-0.016207375	0.061548173	
0.009109742	-0.0061940355	0.015545961	-0.020048793	0.0062435293	-0.026330082	-0.0077380496	0.0022122774	-0.01251233	0.041696995	
-0.0012286964	-0.0021468364	0.0070384294	-0.002238119	-0.005282512	-0.021388663	-0.0008952249	0.008745197	-0.003140476	0.02786133	
0.005900684	0.0079241805	0.0049339714	-0.004697735	-0.0075680465	-0.015246281	-0.017833935	0.0058161533	0.0013967052	0.022320181	
0.00021256134	0.013890621	-0.0020878178	-0.0038825208	-0.004235073	-0.0077725025	-0.002437382	-2.2202148e-06	0.0035113099	0.009677972	
-0.0072413115	0.010248128	-0.004701231	-0.0053594983	-0.0030674827	-0.003841184	0.00822296	0.0014964807	0.0022710706	0.0024216573	
0.0016587682	0.0010351691	-0.00582997	-0.0041594044	-0.007402842	-0.0022112634	0.008033865	0.0030461436	-0.00034167976	0.0032396498	
0.0068935417	-0.00049580296	-0.006594522	-0.00043507398	-0.00060934393	-0.0021390528	0.0026780965	-0.0031462135	-0.0021163845	0.0069730603	
0.0015233227	-0.002236126	-0.0020810952	0.0012187059	0.0018001206	-6.044592e-05	-0.0009978444	-0.00065092166	-0.00065282633	0.00028906664	
-0.00015251187	-0.00036863965	-0.0005954641	0.0018683131	-0.00050881365	0.00040685237	0.0012443098	-0.00031149093	-0.0009567227	-0.0009043219	
0.0013996429	0.0007689048	0.0004612641	-0.00038905878	-0.0009981585	-0.00034182155	-0.0019323387	-7.5929296e-05	-0.0003353816	0.0014307757	
-0.00051656005	0.00084500725	-0.0007541575	-0.0001615818	1.9421901e-05	-0.0018445194	0.00091533083	-0.00077722967	-0.0013665128	0.0014136514	
-0.001547036	-0.0016466423	4.816378e-05	-0.0006719569	0.0005770411	0.0006681538	0.00020095173	-8.983242e-06	0.0011722749	0.00023424787	
-0.001231962	-0.0009441845	6.156556e-05	-0.0004260158	0.0007350216	-0.00159647	0.0011925251	0.00058397406	-0.0005662644	-0.0020486196	
-0.0004232447	-0.0017034044	0.00016787145	0.0027581607	-0.00045453056	0.00089322956	0.00022564853	-0.0027731222	-0.00010408939	0.0006819401	
-0.0013608937	-0.0020332166	0.0010982777	0.0001461732	-0.00037413192	-0.002604355	0.0015205351	-0.0023059724	-0.001087911	0.00730392	
0.006374724	-0.005722693	-0.00035936598	-0.0064337472	0.0010618633	-0.007248413	-0.00240188	0.00022043602	0.0048824097	0.007933527	
0.0026972983	-0.0015435796	-0.0050069676	-0.009511756	0.0040886817	-0.005419562	-0.007824284	0.007411961	-0.0015475112	0.018079784	
0.00083865237	0.0016995295	-0.0026971137	-0.010045928	0.0026786665	-0.0052948873	-0.008333717	0.0032235691	-0.0055219675	0.023761991	
0.01399476	0.011533236	0.006878638	-0.017115064	-0.0027814328	-0.011166795	-0.0090908455	-0.0013991443	-0.011471814	0.020332947	
0.015681354	0.0067852987	-0.004295258	-0.009016753	-0.009573859	-0.0101529425	0.010514248	-0.011261678	-0.008577118	0.024484228	
0.0033174653	-0.007829929	-0.0003022048	-0.011191523	-0.0115955565	-0.004884187	0.033917297	-0.025086576	-0.00341699	0.024690181	
-0.0042126128	-0.012162639	0.0053131073	-0.011962898	-0.0062598805	0.003736459	0.037835587	-0.034499396	0.00038388337	0.023227317	
-0.010715688	-0.012805368	0.0037885194	0.005585634	-0.0128694335	0.015315564	0.013585188	-0.04025052	0.011520958	0.025603566	
-0.02532709	0.020623157	0.0028366453	0.01663336	-0.016366752	0.0044955527	-0.0027550147	-0.046668105	0.024850596	0.020839531	
-0.022081768	0.05268639	-0.005419397	0.01420819	-0.02012624	-0.0061407057	-0.01623491	-0.030916456	0.012886105	0.021798432	
-0.01667654	0.022957062	0.0030490728	0.0038823038	-0.009239416	-0.012964641	-0.025513018	-0.0022193703	0.007065691	0.033152264	
-0.015433598	-0.018539442	0.00702518	-0.009018654	0.018620428	-0.0139995	-0.028578073	0.009799459	-0.0058701276	0.055907518	
-0.019747278	-0.019501079	0.014624024	-0.013924899	0.032020368	-0.014395362	-0.013425346	-0.0006547421	-0.022435222	0.05780001	
-3.0437484e-05	-0.0067619095	0.013368215	-0.015265214	0.020229856	-0.02805334	-0.0013894265	0.0026543657	-0.0075441888	0.024135154	
-0.000637814	-0.007877624	0.009257676	-0.0039785467	-0.009279732	-0.023596853	0.010932627	0.004583237	0.0027974367	0.014147567	
-0.0025093833	0.0056002587	0.0036872667	0.000353275	-0.0047395164	-0.017927928	0.0026186297	0.0033978478	-0.0028880576	0.012701237	
-0.002866714	0.0097098285	0.0008801623	-0.0055413395	-0.011865307	-0.005741478	0.0030598852	0.0029726867	-0.002564632	0.00537942	
9.652158e-05	0.010545799	-0.0021388046	-0.0014601672	-0.012187115	-0.003941174	0.0032582385	0.006536152	-0.00048185777	0.0077026337	
0.0060094288	0.004050785	-0.0047690263	-0.0035436554	-0.00552766	-0.004073102	0.005308221	-0.0030494027	0.0019928429	0.004565647	
0.008696967	-0.0009079749	-0.005407988	-0.0014814516	-0.0020846133	-0.0012711396	0.005546625	-0.005888171	0.002035626	0.003647281	
0.0020939733	-0.00042601945	-0.0004374929	0.0013470956	0.0003323171	-0.0010670035	0.0009762232	0.00044364447	0.0008014486	-0.002279808	
0.00095943705	-3.8146634e-05	-4.6423862e-05	0.00062346004	-0.0016663303	0.00059254747	0.00013904947	0.00020844741	-0.000108652195	-0.0013895802	
-0.00042526948	-0.0012925966	-0.0006756415	0.00063461513	-0.00046601426	0.00014040017	-0.0016543142	0.0028830485	0.00035255423	-0.00036518445	
0.0010993808	-0.0010825015	0.00018585706	-0.0014263038	-0.0021798918	0.002673977	0.0013824076	-0.0003652679	-3.3322485e-05	-0.0007731777	
-0.0005888595	-0.00094230234	0.00068661815	0.0010346123	-0.0007872511	0.0011406111	0.0023205753	0.0012883804	7.3415176e-05	0.00035151813	
0.0015278052	0.00039315908	-0.0006452526	0.001125985	-1.9114479e-05	-0.00032391353	0.00047145368	-0.00088960794	0.00085409	-0.0020870771	
0.0007170751	-0.0002848789	-0.0017151202	0.0021096347	-0.0010578927	0.0017473613	0.0011137209	-0.001396939	-0.0011504743	-0.0011459728	
0.0009132883	-0.003542226	0.0006042153	0.0021187172	-0.003078865	-0.001487191	-8.032979e-05	0.0018264148	-0.00057185034	0.004010404	
0.0059910147	-0.0066978396	0.0020035596	-0.009495096	-0.00022514182	-0.005871236	-0.0016507956	0.0066575715	0.0038710888	0.009817597	
0.004284745	-0.0007626325	-0.0039079073	-0.013045999	0.0018094084	-0.0057374965	-0.0009077508	0.0061228694	-0.00019847573	0.010729204	
0.0064943475	0.00045332697	0.0027991417	-0.012300139	0.0054430356	-0.0051687094	-0.0069897445	0.004351497	-0.0048810644	0.011231425	
0.018951675	0.006308276	0.0058622053	-0.011979922	-0.00081129104	-0.014907604	-0.006438227	0.0010866935	-0.01395722	0.01785529	
0.012949099	-6.7915185e-05	-0.0010394482	-0.013292046	0.007711426	-0.021439603	0.012493339	-0.0069619473	-0.014048744	0.02566716	
-0.001488839	-0.010052493	0.00894824	-0.02058189	0.0065730945	-0.0029988056	0.03516614	-0.02546784	-0.012621893	0.02670022	
-0.008694928	-0.008652662	0.001113108	-0.022089064	0.012100891	0.0020531418	0.034576006	-0.036846843	-0.008091933	0.027621944	
-0.016813548	-0.008735833	-0.006840573	-0.0051601073	0.013198408	0.0005201191	0.014222058	-0.032068413	0.013670046	0.02221855	
-0.026949378	0.021624364	-0.0021317522	-0.0013314325	0.0030678774	0.0009913446	-0.0015887156	-0.032107007	0.012331197	0.019195527	
-0.02757681	0.038105324	0.006337938	-0.004353747	-0.0031793518	-0.007201014	-0.015522711	-0.012545271	0.0044317525	0.020441564	
-0.027312873	0.002943361	0.0028435956	-0.0056452607	0.017611345	-0.019824872	-0.01761502	0.005640888	-0.004378235	0.04017627	
-0.022580909	-0.028847342	0.0024181115	-0.01047872	0.03334564	-0.012705002	-0.01216896	-0.0018899655	-0.013007917	0.06288568	
-0.009821504	-0.027369125	0.018696647	-0.011557613	0.030112514	-0.016959984	-0.00085406174	-0.009835176	-0.021951672	0.04923884	
-0.0036506034	-0.019142317	0.010838351	-0.007715299	0.013001147	-0.0119191315	0.0053726956	-0.0044652405	0.0021429653	0.014160848	
-0.0057028583	-0.0048668375	3.3211603e-05	0.0017658216	-0.006033328	-0.014521841	0.017390016	-0.008253986	0.004068966	0.015726741	
-0.0022029986	0.0057415105	-0.003627343	0.0069047105	-0.009074235	-0.015254483	0.015036561	-0.0026879422	-0.0029015653	0.012569948	
-0.002429301	0.009818844	0.0010338223	-0.00040145993	-0.01512398	-0.007561656	0.0061779907	0.005067304	-0.0066563655	0.005853249	
0.0027026613	0.011252092	-0.002833273	-0.002095626	-0.015261236	-0.0071138376	0.006090776	0.0074815294	-0.0029020077	0.003129839	
0.010845913	0.0012967583	-0.0016128353	-0.0022631628	-0.00494072	-0.0030140926	0.0032252688	-0.00089349516	-0.0010561576	0.0015902009	
0.007879425	-0.001094677	-0.00018560789	-0.004222372	-0.0024830082	-0.0010473874	0.0015363116	-0.0024044185	-0.0006887523	0.003792878	
0.0013808932	-0.0012179465	0.0030125724	-0.00079098257	-0.002640339	-0.00055295863	0.0031930206	-0.0008127681	-0.0006792487	-0.0032887033	
-0.00045379347	0.00024120961	7.7173034e-05	-0.0006825655	0.00094817695	0.00083566713	0.0008630704	-0.00020809297	8.902103e-05	-0.000447829	
-0.0009306458	-0.0017293179	-0.00056486944	-0.0011565404	-0.0012064078	-3.4613302e-05	-6.57738e-05	9.412213e-05	-0.0002171558	0.00044816505	
0.0010091491	0.0016237972	-0.00054098136	0.0013366931	0.00091178704	-0.0011195551	-0.00050842017	-0.00059055287	-0.00033430627	-0.001118873	
-0.00018325984	0.0005134838	0.00019188535	-0.00014890339	-0.00048882177	0.000346922	-0.0010001869	0.0006108043	-0.0009250067	0.0006060086	
-0.00038861632	-0.00029219582	-1.5696027e-05	0.0005183775	4.8797257e-05	-0.00013876388	0.0007870316	-0.0020151539	0.0009513	0.0014949667	
-0.00049546617	-0.000573609	-0.00019901115	0.0039857063	0.00030553518	-0.0003424852	0.00091425533	-0.0007756174	-0.0006452007	-0.0007944441	
0.0016426867	-0.0038031607	0.0029289462	0.0025783842	-0.0032203505	-0.002076273	0.000616786	0.003213803	-0.0009494092	0.0001782847	
0.0062778685	-0.006021763	0.010003121	-0.00964911	-0.00014846779	0.0011424347	-0.00090755976	-0.0004176065	0.0015833637	0.0071278415	
0.0045813797	-0.0012818838	0.002422091	-0.017568473	0.002536627	2.440036e-05	0.003223439	0.002122332	-0.0011694483	0.0064284345	
0.012541047	-0.00074615545	0.007022867	-0.013021303	-0.0016393361	-0.008515928	-0.0032637457	0.0014116677	-0.0009584123	0.0073876586	
0.026218237	-0.013741992	-0.00016659964	-0.013909082	0.009867216	-0.021325815	0.0011578635	0.0032897298	-0.010888182	0.016892089	
0.019728146	-0.016575746	0.0007177503	-0.022072902	0.016451817	-0.012858589	0.009701856	-0.0036680007	-0.013978643	0.022221863	
0.0028584502	-0.018049516	0.0023029845	-0.029518558	0.014717131	-0.021792756	0.033593148	-0.023678124	0.00048024452	0.036612276	
-0.010554184	-0.010175034	-0.00097292295	-0.025823819	0.016040746	-0.01933014	0.038881533	-0.024732154	0.013286252	0.020089284	
-0.021205463	-0.0018367246	0.0016182775	-0.016223857	0.008537934	-0.005651284	0.02021494	-0.02562801	0.018373355	0.01582171	
-0.022636529	0.021532027	0.013453155	-0.014305729	0.00063364615	-0.013186685	0.005386578	-0.017457634	0.002872082	0.0187519	
-0.023381628	0.022690557	0.008182225	-0.015917236	0.001278096	-0.011738505	-0.004447344	0.0008495662	-0.008516014	0.03382113	
-0.03215562	-0.014890019	0.00025408063	-0.014698688	0.02613785	-0.0012878123	-0.0027363242	0.0024885146	-0.01128283	0.04767377	
-0.017918926	-0.037166562	0.0036182757	-0.013448697	0.029997565	0.0029739838	0.004751551	-0.0049324473	-0.02512913	0.055170495	
-0.012158711	-0.026062964	0.013776973	-0.0018854181	0.022115853	-0.0013385919	-1.2842414e-05	-0.010184465	-0.019182185	0.034022637	
-0.009208366	-0.020891981	0.01217226	0.0015661176	-0.0018670337	-0.0015771745	0.008194903	-0.008985338	0.006994295	0.017594516	
-0.0021110664	-0.014633912	-0.004731641	0.012234733	-0.015805937	-0.010292663	0.022726959	-0.014194853	0.012504859	0.01799429	
0.0016736146	0.0010876368	-0.009876443	0.0113057	-0.014850407	-0.010919635	0.013862057	-0.0059816795	0.005363477	0.007811258	
-0.0017874527	0.010762977	0.0032381385	0.0026379707	-0.0050528566	-0.010951866	0.00597819	0.0020155015	-0.008346553	0.0013277902	
0.0005934135	0.00935417	0.005301618	-0.006225043	-0.0042043375	-0.008357033	0.0044150767	0.007106697	-0.009709048	0.0044451086	
0.008207778	0.0016567493	0.0036288914	-0.0021384063	-0.0016722544	-0.0018570852	0.0008450366	-0.0022352196	-0.0027196887	-0.00032495626	
0.00096736266	-0.00035318063	0.0072300667	-0.0050616832	-0.004465932	0.0009237309	-0.00070689723	-0.002925654	-0.0023959505	-0.00029459107	
-0.0034912643	-0.0033550258	0.005421374	-0.0020546033	-0.004712379	0.0016762578	0.0024063599	-0.00034146273	0.00078768807	-0.0010938849	
0.0005396642	-0.0012210682	-0.00075160793	-0.00050108036	-0.00051679404	0.0015696781	0.0013986926	0.001372268	0.00040251602	-0.0022709281	
-0.00074511283	-0.00040738043	-0.00081549876	0.0010645842	0.00031047998	8.337564e-05	0.0013817417	-0.0019582757	0.0022462904	-0.0011741526	
0.00073165464	-0.0010400056	-0.0011117739	-0.0004537203	0.0007664588	-0.00051540666	0.00092650397	1.3550335e-05	-0.0012970851	-0.00010566579	
-0.00018524098	0.0005317704	-0.0014121565	0.00061371946	0.00040368855	0.00046688426	-0.0001791823	-0.00014432054	0.00034084843	0.0006888835	
-0.00013874972	-0.001192205	0.0009432918	0.0001832781	-0.0008041128	-0.0011840728	-0.00215469	-0.0012244226	0.0001653371	-0.001211283	
0.00014600366	-0.0019668476	0.0009888639	0.0036522986	0.0011454821	-0.000791913	-0.0008015944	-0.0010250321	-0.0008432358	-0.00036043947	
-0.0032651022	-0.0043395334	0.00539038	0.0033702797	-0.001218128	0.00068528065	0.0010754126	0.002225482	-0.0020699257	-0.0008476915	
0.0020449364	-0.010206699	0.009694104	-0.00058381195	0.0006907426	-4.2722677e-06	-0.000650542	-0.0012282126	-0.0010897543	0.0027913325	
0.007934961	-0.004039013	0.0066910726	-0.014298339	-0.0025706743	0.0012270707	0.0076135625	0.00059784745	-0.0007963218	0.00012658848	
0.013915745	-0.005525503	0.004190831	-0.018042386	-0.00259082	-0.0060740155	0.008760967	0.0049306415	-0.0013589188	0.0027778517	
0.024668045	-0.018721519	0.0074554696	-0.01514365	0.0062247096	-0.019736746	0.00781951	-0.00050674344	-0.0066131954	0.012460994	
0.017649807	-0.01744188	0.010016703	-0.01840302	0.012089833	-0.01835972	0.009762918	-0.006727898	-0.0120016085	0.024962196	
-0.0006429006	-0.015362899	0.0045864615	-0.016332084	0.0075726537	-0.02583932	0.0353262	-0.025354289	0.012222441	0.02600415	
-0.00948337	-0.005879432	0.009525193	-0.017928313	0.0029878072	-0.022844216	0.038717113	-0.032829538	0.014562541	0.022028	
-0.01928538	0.010026971	0.019866034	-0.010519688	-0.0029462234	-0.014909314	0.008631708	-0.026393892	0.011582454	0.022750642	
-0.019165916	0.010591804	0.022605127	-0.008369543	-0.0033930144	-0.01749976	-0.0072939117	-0.011034955	-0.0054275477	0.036318164	
-0.019355362	0.0055208574	0.009234765	-0.02431142	0.005935064	-0.009558906	-0.00696155	0.0059442353	-0.008954948	0.042023182	
-0.020168714	-0.023918042	0.00087604293	-0.017375749	0.01796316	0.0069873095	-0.014424586	0.009305307	-0.007706971	0.04913317	
-0.0029720964	-0.028727952	0.003485174	-0.0014009932	0.011393273	0.012019143	-0.015844235	-0.007573357	-0.011054382	0.036067225	
-0.005452039	-0.02455484	0.013160536	0.00569342	0.005200775	0.0041571003	-0.009442351	-0.003376188	-0.008409413	0.020856904	
-0.0021843447	-0.018946009	0.008693083	-0.0042714328	-0.009640689	-0.001970538	0.015429482	-0.0101584075	0.004661462	0.022424178	
0.005435071	-0.02466973	0.0017878574	0.00047772357	-0.016747478	-0.014977511	0.027013248	-0.012133193	0.017640388	0.014173705	
-0.00077478326	-0.003367703	0.0019407328	0.008102169	-0.013894303	-0.013035522	0.011806005	-0.00375318	0.0060240775	0.0074520037	
-0.00026940677	0.005507597	0.007875691	0.0076670204	-0.010450401	-0.010370637	0.0018681273	-0.0004859139	-0.005117272	0.002184851	
0.0014878012	0.0006749095	0.0059172306	-0.0057350625	-0.0021943408	0.00041217316	0.006056918	-0.00012047105	-0.0072348793	0.0008628097	
-0.0024643796	7.283679e-05	0.007523703	-0.003366984	-0.00063748163	0.00071781466	0.001875432	-0.0043824636	-0.0007661545	-0.0036729136	
-0.001063542	-0.00288989	0.01135953	-0.0051318128	-0.002458344	0.0014294375	0.001445685	-0.0028410885	-0.00057995546	0.0002223058	
-0.002316354	-0.0020588925	0.0092848	-0.0013823332	-0.003924897	0.00086744555	0.0038909528	-0.000926708	-0.001405398	-0.0006290043	
-0.0015232031	0.0016602301	-0.0009222886	-0.0008443677	-0.00047851756	-0.00015392667	-0.00081763254	0.0004316182	-0.0010170222	-0.002914403	
-0.0007279592	0.00060088554	-0.00026281076	-0.00027676814	2.3187598e-05	-0.0009903518	-0.0002954337	0.00019601166	0.00012826627	-0.00043991194	
0.0017960106	-0.0009183316	0.00021102214	0.001404478	-4.0972303e-05	0.0026118401	0.00010819919	-0.0002782923	0.00083260896	0.0010309404	
0.00089193386	-0.00032903344	0.00023321396	0.0008272417	-0.0012123274	-0.0011266585	-0.0003438187	-0.00096737186	-7.021835e-05	0.0019178104	
-0.001211042	-0.00029805404	0.0002527728	0.0010655073	-0.0021909634	-0.0010856739	-0.00043157468	6.0510356e-05	3.5026016e-05	0.0014443563	
0.0008877915	-0.0020730738	0.0033974235	0.007113392	-0.00018492619	-0.00026160834	-0.0014882763	0.0006110106	-0.0022585823	-0.00096812344	
-0.0024350353	-0.00439811	0.0028672914	0.0055977297	-0.0014019124	0.004658993	3.9179606e-05	0.0007780008	-0.0023145997	-0.0061099343	
-0.0004910595	-0.0044371365	0.0044978606	0.0015209048	0.0023047396	-0.00065126136	-0.0006256472	0.0006181799	-0.0013341886	-9.25443e-05	
0.006161004	-0.003829646	0.0070967977	-0.009422147	-6.267159e-05	-0.0011364259	0.0025084266	-0.0009140059	0.0021283475	0.000516496	
0.018672023	-0.0111958785	0.010701805	-0.018273745	-0.010622732	0.0035718037	0.007957194	0.0039217854	-0.0028919638	0.0056929933	
0.017837493	-0.014988952	0.0136689255	-0.00691113	-0.0012249304	-0.00984808	0.005345023	-0.008438715	-0.0074860575	0.013622129	
0.015055058	-0.013517828	0.01002992	-0.0030677777	-0.001536122	-0.0132763125	0.0022082613	-0.0180811	0.004252484	0.019872058	
0.008676231	-0.011520887	-0.004347039	-0.0007393715	-0.005790102	-0.016923614	0.038208295	-0.033243574	0.01755139	0.012083733	
-0.0060200877	-0.005851726	0.007100641	-0.0044682333	-0.009877127	-0.014025038	0.040339623	-0.029645018	0.014569587	0.008169871	
-0.00904986	0.00093590596	0.019231675	-0.0010621543	-0.005720459	-0.014103621	0.011455569	-0.020637836	0.0074366666	0.014659537	
-0.009961408	0.0027218664	0.013040857	-0.0047456855	-0.0014793585	-0.0132838385	-0.00015505159	7.778902e-05	-0.013364824	0.029332668	
-0.014340568	-0.0005162279	-0.0002674703	-0.014616642	0.0049161064	-0.0001928315	-0.014251332	0.011572232	-0.006772342	0.03489633	
0.0021511693	-0.021314414	0.0034349791	-0.020071574	0.017379684	0.0039779595	-0.013474078	0.00033607776	-0.01179125	0.033349186	
0.013625452	-0.027181512	0.010904618	-0.0038662008	0.0098327985	0.0034216852	-0.015149897	-0.003796918	-0.013421307	0.024772491	
0.013683179	-0.028844489	0.005892665	0.009320189	-0.009536282	-0.0045411587	-0.0018999795	-0.0051625995	4.3487875e-05	0.023517225	
0.010910842	-0.026701156	0.006894282	-0.00076346815	-0.011763098	-0.010691281	0.021516709	-0.014458177	0.0056672427	0.01848156	
0.0021708922	-0.022541625	0.0017500732	0.004500964	-0.017226785	-0.011397959	0.023297809	-0.011406425	0.012112348	0.015560057	
0.0001538049	-0.006072021	0.004549999	0.012747429	-0.019998794	-0.008335979	0.0067430064	-0.006340846	0.008020433	0.012355393	
0.0022509126	-0.005971077	0.005447576	0.0076671815	-0.012244984	-0.0041326988	0.005324857	-0.0077180853	-0.0042975717	0.0058902907	
-0.0029688529	-0.0062781903	0.009302466	-0.0019631688	-0.0067818267	0.0034348564	0.010291124	-0.0067210235	8.890482e-05	0.00033623085	
-0.00377931	-0.0044024535	0.012449471	-0.00078132737	-0.0033626002	-0.001495333	0.0112719145	-0.0070285606	0.0009988211	-0.0015075104	
-0.0023409417	-0.006597588	0.015518057	-0.0028380284	-0.0029769677	-0.0007985769	0.0038705445	-0.0012108404	0.00028135872	-0.00072160206	
-0.00013824234	-0.00029674778	0.006674768	0.00061433547	-0.001347226	0.0012612421	-0.0004818272	0.00050101156	-0.001598827	-0.002185327	
-0.0005894859	0.001200283	0.00041830496	0.0009767519	-0.002107888	0.0005842023	0.00017511792	-0.00011000238	-0.00014336221	-0.00059628166	
0.00078631344	-0.0018401404	-0.00022944997	0.0010634873	0.0009153336	-0.00075683737	0.00019380901	0.00021455316	0.0014871169	-0.0014786031	
0.0023463354	-0.0012966886	-7.316878e-05	-0.00024604148	0.001189141	-0.000789693	-0.00058953837	-0.0010038274	-0.0009168993	-0.00029996858	
0.001006089	0.00085696526	-0.001493978	-0.00035640073	0.00014777543	0.00025745557	-0.0004452828	-0.00066002173	-0.0012354974	0.00022781054	
-0.00049537414	-0.0014232683	-0.0008753987	0.0013741904	-0.0021172233	0.0004434005	-0.0004010584	-0.0010948759	-0.0007001335	-0.0013525638	
-5.9678887e-06	-0.0040097567	0.0029635634	0.0047328	0.00011668294	0.00031217383	-0.0006400265	-0.0006795505	-0.0018725932	0.001928988	
-0.0041117636	-0.0034577546	-0.0027319351	0.005554252	-0.003886349	0.0066784127	0.004282917	-0.0022276011	0.000102811355	-0.002182532	
-0.0035417385	-0.0022896803	0.0005149417	0.003914292	-0.00067565445	0.010606961	-0.0019151006	-0.00022331791	0.0010983403	-0.006636266	
0.0014358914	-0.012331425	0.0053268736	0.0017187131	-0.0014810304	0.009381786	-0.0023048546	0.00017945135	0.0011269267	-0.0027048776	
0.01464197	-0.011969069	0.007398655	-0.007384858	-0.008563299	0.009657088	0.0034579164	-0.000791439	-0.0067638806	0.0026971952	
0.018788217	-0.01555961	0.0011332008	-0.005534505	-0.00662701	0.0048925877	0.007816618	-0.008813067	-0.009583387	0.008476729	
0.017845754	-0.011169692	0.0027778328	-0.003040956	-0.00116079	-0.0021668244	0.0008117451	-0.019066906	0.012224688	0.008455725	
0.011223897	-0.008563134	-0.00038824632	-0.008166982	-0.008009691	-0.01162013	0.031011963	-0.030896781	0.023686597	0.001984052	
0.008143618	-0.0037904964	0.010672344	-0.011097255	-0.01334888	-0.020840064	0.04173662	-0.028007846	0.012946707	0.0015210826	
-0.0027965568	-0.0012942066	0.011718715	0.00090888725	-0.010859484	-0.02291417	0.028189434	-0.008248504	0.0014376603	0.004831401	
-0.0064347223	0.0057220147	0.0003033681	-0.0044010207	-0.0030065512	-0.01770701	0.004284744	0.009047267	-0.010940793	0.022759961	
0.003316097	-0.00025101937	-0.004302874	-0.012513447	0.0039715096	-0.0055653476	-0.01023645	0.0098037915	-0.008056025	0.025188992	
0.0132382335	-0.027974954	0.0122201415	-0.01132822	0.0065303664	-0.004013321	-0.00894385	-0.001318589	-0.009667023	0.03274425	
0.009518114	-0.02697119	0.0064266743	0.0004418625	-0.0052143536	-0.0133318445	0.004034324	0.0018487684	-0.008022493	0.034316067	
0.016141307	-0.020837585	-0.0034719862	0.0055891485	-0.027507141	-0.020421902	0.02218692	-0.0038961752	0.00534498	0.03032929	
0.013694132	-0.023438731	-0.008236355	-0.00068604556	-0.011302176	-0.013302971	0.023164373	-0.009637938	0.0064074	0.019221675	
0.00014447336	-0.012496763	0.0031208931	0.0060270517	-0.016026814	-0.008980251	0.02174701	-0.009089938	0.003393829	0.014785204	
0.004009424	-0.0060297465	0.008326866	0.01117566	-0.016392533	-0.006236285	0.0059123198	-0.00782576	-0.0036433868	0.012396134	
0.0015175515	-0.011716291	0.007113931	0.008223218	-0.00784543	-0.0014723095	0.0101415515	-0.007967191	-0.0036512169	0.003595912	
-0.0055740825	-0.0057494384	0.0028537503	0.0036704727	-0.009582042	-0.0029992883	0.012832414	-0.0011821815	0.0022763263	-0.0023684804	
-0.0018474694	-0.0069791204	0.004140193	0.00030375103	-0.00079112296	0.00055378926	0.0109230215	-0.0037872132	0.00036610264	-0.002857395	
-0.003894014	-0.0063089766	0.0044404706	0.0006550056	-0.0012547036	0.0051694163	0.0018360346	-0.0015284219	0.00096881815	0.00039446668	
0.0014899027	-0.0014937712	0.0015252623	0.0015741459	-0.0025730864	0.0021940398	-5.9362625e-05	-0.00092932413	0.00052190525	-0.0027150814	
-0.00061818503	-0.00032110818	0.0022628817	-0.00015436823	0.00091207307	-0.00082089956	0.0005839455	-0.0018559308	2.4305582e-05	0.000667047	
0.0015361947	-0.0006741373	0.00074041815	-0.00036941195	-9.025334e-05	-0.0018585067	-9.876129e-05	0.001792577	2.5732481e-05	-0.0004198926	
-0.0009253444	-0.0011197607	0.0005940071	-0.00030687606	0.00065193576	0.00066469604	-0.00028255882	0.0010364087	-0.0006528947	0.00039821066	
0.00058830634	-0.0012857934	0.0002049339	-0.0014074622	0.0007380877	-0.0014587098	-0.0005048106	-0.00048555413	-0.0014489075	0.0023378045	
0.001988399	-0.00035208094	-0.00057178934	0.0033823107	-0.0025662668	-0.00022514287	0.00082433294	-0.0003742347	-0.0017247093	-0.00081583054	
-0.0008984974	-0.0020124833	-0.0021932574	0.005643644	-0.0011264957	-0.0009256686	0.0013118604	-0.0012078604	-0.0020599116	0.0025867082	
-0.008667298	-0.0010203426	-0.0018017327	0.011476241	-0.0056111463	0.0037079926	0.005699707	-0.00047619522	-0.00012562938	0.00055329455	
-0.0017208171	0.0014065175	-0.0032626614	0.0032478604	-0.011999563	0.0104024755	0.0016189405	-0.0016194563	0.0070481882	-0.004594401	
-0.0064402027	-0.0072650197	0.0057448107	0.0015361278	-0.0034298422	0.010830577	-0.0006162495	-0.0008425233	-0.0001418513	-0.005034413	
0.012537262	-0.0044740904	-0.001016549	-0.0021124675	-0.013915107	0.018468183	0.0033693851	-0.00011323042	-0.0065018022	0.00012109641	
0.010784732	-0.008567926	-0.0025370547	-0.008528147	-0.015836515	0.021996861	0.0036563727	-0.0021951746	-0.0044318023	0.011440892	
-7.051839e-05	-0.010786597	-0.0029633672	-0.0080057215	-0.0075802496	0.016687764	-0.0036042621	-0.012254575	0.01676887	0.012697727	
0.0022522283	-0.0081250435	0.004138245	-0.008234549	-0.019117722	-0.005141846	0.020448647	-0.021142714	0.02234785	0.011012136	
0.003371093	-0.0071605355	0.010809946	-0.0017165529	-0.02073565	-0.017346414	0.0342906	-0.017035827	0.0052695516	0.008162152	
-0.003789751	0.006132447	-0.0034021998	0.0025314323	-0.016557524	-0.029565278	0.025464628	-0.0002484299	0.003793673	0.019046478	
-0.0071474873	0.007695997	-0.008030532	-0.0018971553	-0.011504017	-0.015976919	0.021897385	0.0077793603	-0.0106121795	0.020106614	
-0.00624488	-0.0029923688	-0.007832302	-0.013113318	-0.0036051364	-0.014603408	0.018688345	0.0063696085	-0.00463557	0.02664146	
-0.00035147904	-0.012666554	0.0010423221	-0.008874422	-0.008297451	-0.022194546	0.020916041	0.0020901908	-0.003962642	0.033920504	
-0.0077377497	-0.008110754	-0.0035379848	-0.003473641	-0.0211028	-0.021403542	0.024705147	0.0056735063	-0.0077538574	0.039566368	
0.0076617924	-0.0041760975	-0.008144543	0.0073623676	-0.029868418	-0.024048546	0.02461662	-0.00943208	0.006804206	0.034010846	
-0.0015133489	-0.013416808	-0.005735562	0.014331114	-0.011395961	-0.0076913107	0.016069617	-0.01173499	0.00542981	0.016185295	
-0.005862649	-0.0064360527	0.0077204467	0.012156411	-0.0132112475	-0.0045049833	0.0149208885	-0.012109566	-0.0025526357	0.0076095583	
-0.0010552409	-0.003975242	0.0067136837	0.010790249	-0.007883005	-0.0063844635	0.0041772015	-0.009675496	-0.0016331169	0.008395605	
0.0014056348	-0.01146065	0.008754238	0.00718931	-0.008473941	-0.003161786	0.005548844	-0.0025693155	-0.0031280695	0.00028968995	
-0.0011698428	-0.006850155	0.0011738924	0.004320714	-0.007049273	-0.0015558884	0.004664205	-0.00081500784	0.0053929132	0.0005144343	
-0.0023631514	-0.0066415016	0.002995818	-0.00015776206	-0.0011164448	0.00047856302	0.002014783	0.0009782148	0.007875427	-0.0026162954	
-0.0009798463	-0.0052027283	0.001833822	-0.0014427921	0.0012804768	-0.0019542356	0.0021569633	0.00033247034	0.0024680719	0.0015218401	
0.0014840997	-0.0010101259	-0.0006644989	-0.00017457866	-0.0016226986	0.0018328521	0.0018972296	-0.001631974	0.0006953085	-0.0009684833	
-0.0006432667	-0.0012237435	-0.0004569685	-0.0014556817	0.0026283516	0.0008244178	0.0003004076	0.00030499997	0.00013909221	-0.00029974643	
-0.00053564116	0.00030894065	4.4722696e-05	9.8389275e-05	-0.0001937733	0.0009139743	-0.0017741388	0.00085646455	-0.0003093967	0.00015765411	
-0.0013977383	-0.0003828652	6.121365e-05	-0.0005744405	0.001489406	-0.0005597411	-0.0010598503	-0.0001300534	0.0001713796	-2.4303894e-05	
-0.00034087244	-0.0012390732	0.0009178836	0.00017421876	-0.0010988533	2.0040912e-05	0.00086660363	0.00085920445	0.0011288888	-0.000716642	
4.522547e-05	0.00021078526	-0.000513003	-0.0015784388	-0.0023561697	-6.2261766e-05	-0.0010781363	-0.0015505251	-0.0012161034	-0.0006148881	
-0.00073295704	-0.0005113386	-0.0022634764	0.008151625	-0.0031990258	0.0007654479	0.0007943666	-0.0025199777	-0.0006797558	0.0030632287	
-0.007477048	0.0021994896	-0.002490975	0.010873095	-0.007179368	3.771369e-05	0.002550659	-0.0028993003	0.0019088282	0.0016451586	
-0.0068332283	0.0025572611	0.0036215186	0.010062508	-0.011155886	-0.0009089048	0.0007785933	0.0012718331	0.004350989	-0.00057177583	
-0.004821274	-0.0049682437	0.00042709286	0.006773096	-0.010826959	0.004573608	0.0012630575	0.0041371225	0.0010754063	-0.0014496092	
-0.0026774425	0.00096634874	0.0015019245	0.0006426255	-0.017383242	0.011980581	0.00016363304	0.0002836686	-0.001996122	0.0027006133	
-0.0010199067	0.0031105888	0.004786056	-0.0012522906	-0.022842035	0.022511521	-0.0071874107	-0.0054874974	0.00710007	0.0034763564	
-0.018790284	0.0026874726	-0.0012048432	0.0015641704	-0.021054436	0.012705813	-0.004745172	-0.0036119362	0.030332487	0.00586616	
-0.0111222295	-0.0043332307	-0.0072496072	0.008362428	-0.022297058	0.001040632	-0.0013801566	-0.0019048732	0.029158002	0.009087924	
-0.003202142	-0.002253584	-0.016759567	0.0057015754	-0.017636824	-0.008239123	0.01031308	-0.0056466246	0.025763908	0.01735771	
-0.0011851548	0.008268855	-0.023399612	0.0052885343	-0.021864306	-0.012024021	0.011989559	0.0052289553	0.01203512	0.018106826	
-0.00323878	0.007995427	-0.018234119	-0.0008655743	-0.017816586	-0.016734984	0.010749535	0.007877351	0.006171716	0.022259941	
-0.006371227	-0.0020299742	-0.007631311	-0.008627204	-0.009078797	-0.022524718	0.016268978	0.0017801726	0.0075105964	0.031538516	
-0.015185052	-0.0040262328	-0.001690848	-0.0065250765	-0.011989288	-0.021183874	0.022354152	0.0058269203	-0.006791543	0.040229317	
-0.0114175035	-0.0008640832	-0.009804056	0.00714235	-0.019802984	-0.011676926	0.015830686	-0.0014034198	-0.0070352457	0.03814303	
-0.0023776307	0.0030416586	-0.015884839	0.020694965	-0.012314109	-0.009775519	0.007070722	-0.010044493	0.00037501953	0.020436067	
-0.0047241217	-0.0052346317	-0.00236968	0.020241475	-0.013469895	0.0015684435	0.00831525	-0.014004427	0.0024095462	0.009140148	
-0.0022322945	-0.0030282221	0.005382172	0.012456046	-0.011691407	-0.0029087048	0.004715115	-0.009131558	-0.0012634549	0.009603954	
-0.0019745803	-0.0025482571	0.0068899044	0.008067796	-0.003953188	-0.0030397684	-0.0024982337	-0.0037689167	-0.0019159019	0.00701618	
0.0037628612	-0.004447093	0.0030716516	0.0021856092	-0.00595219	-0.0040478157	-0.0013469801	-0.0019443668	-0.0023219273	0.0040827435	
0.0022526137	-0.003165433	0.0026441733	0.002248717	-0.0031424446	-0.004789792	0.0003796433	-0.002841814	0.0034993533	0.002603697	
0.0033661094	-0.008269626	-0.0022637185	-0.00056367123	-0.00027835654	-0.0015930267	0.0013103025	0.001342002	0.002492015	0.0026809275	
0.002190471	-0.0069155875	0.004381842	0.00045179052	0.00019836095	-0.0016128521	0.0007057714	0.00062096433	-0.0015390626	0.002214831	
0.0037347584	-0.0029111353	0.0011045501	0.0011427725	-0.0003338838	0.0017273481	-0.0014934839	-0.0015902712	-0.00052670203	-0.0018304848	
0.001989816	0.0015769621	-0.00022404661	-0.0007407844	0.0011983168	-0.00047645593	8.391989e-05	0.0004300254	-0.00012233682	1.6884737e-06	
0.0027090942	-0.00048318444	-0.00044748303	-0.00024580234	-0.0003168031	-0.00034115886	0.0003309729	-0.0006266777	-0.00020706172	0.00025879528	
-0.0020525241	-0.0011781831	0.00021407563	-0.0013609127	-0.00053766154	-0.00011588258	-0.00063431077	-0.0012365252	-0.0015656721	-0.0002955775	
0.0002866279	0.0006829149	-0.00032431193	-0.001313169	0.0022616088	-0.00015054508	0.00027229465	0.00018722047	0.00037065693	-0.0020066104	
-0.0018955998	-0.0014912677	-0.0009378634	-0.0013170341	-0.00039704746	-0.0007929998	0.00011723791	-0.0009770516	-0.0007478179	0.0004659922	
-0.0005699039	-0.00014288325	-0.0027262706	0.005161252	-0.0026265315	-0.0017972407	-0.00038004483	-0.001757507	0.0006028356	0.0035087105	
-0.0038601155	-0.0016323752	-0.0041159824	0.010031421	-0.0051963036	0.0013133807	-0.00089805416	-0.0014908763	-0.0008210428	0.0048993314	
-0.01045871	0.002746134	-0.0008940056	0.017805327	-0.011006482	-0.004170586	-0.0006768796	0.00058644527	0.0007021532	0.0022488087	
-0.0052172346	0.002034314	-0.0016217652	0.015217738	-0.011681064	-0.004446612	-0.006337319	0.0050053713	0.0033629995	0.00032525396	
-0.0043002465	-0.00025036305	0.0015363223	0.006517916	-0.017024163	0.0016217656	-0.011329688	0.008456158	0.007353442	0.0050448696	
-0.0033054159	-7.9488855e-05	0.0016938756	0.0011857185	-0.015103135	0.003670117	-0.0066654533	0.0057514664	0.008316808	0.0038571663	
-0.006992997	0.0019583004	-0.0008712534	0.009512591	-0.017971953	0.0018547837	-0.016624574	0.0024180838	0.026606511	0.0053559067	
-0.0020716218	0.005145205	-0.0137988655	0.011636632	-0.02153407	-0.0011351437	-0.0070479736	-0.001650497	0.025299069	0.014576898	
-0.0006564794	0.013697093	-0.03206669	0.010792827	-0.02818345	0.007278083	0.0023996062	-0.0054009897	0.01653359	0.016390502	
-0.0025197957	0.022336656	-0.030861396	0.008494785	-0.026052957	0.006049653	0.0013721446	-0.0077177556	0.013175658	0.015536386	
-0.0015868874	0.008141151	-0.022213701	0.011650046	-0.026237672	0.008303267	0.0015826379	-0.014818053	0.018617855	0.014793094	
-0.0046293614	-0.0023559364	-0.0056888214	-0.0012119834	-0.012758959	0.0018675356	-0.0017916362	-0.011704999	0.013098394	0.02360257	
-0.010524895	0.002398539	-0.009939685	0.005285956	-0.019025857	0.009822248	-0.0014837647	-0.0055891722	-0.0033059465	0.028749626	
-0.007994946	0.009166534	-0.019860342	0.019661788	-0.018013218	0.009808557	-0.0075835735	-0.0074101156	0.0017954133	0.022156768	
-0.0052006585	0.01636459	-0.021239467	0.022531498	-0.009828323	0.0067493934	-0.01246211	-0.014052235	0.0047208085	0.0116785085	
0.0017174982	0.003900853	-0.0080271065	0.0152582275	-0.007487455	0.0030118062	-0.00959907	-0.012120847	0.0071638147	0.009635372	
0.0005923953	-0.0020548697	-0.0059228316	0.0059283962	0.0011758098	-0.0045800107	-0.0059331455	-0.002840571	0.0005528187	0.015622964	
-0.00037969096	3.220923e-05	0.00037115026	0.00016638814	0.0022217142	-0.0041495976	-0.0038319181	-0.0005962241	7.8220684e-05	0.008147905	
0.0028577782	-0.00055232656	-0.004870294	-0.0016540539	0.0019054022	-0.0004133794	-0.0012169506	-0.00059736276	0.003769816	0.0025150003	
-8.684336e-06	-0.003612285	0.0025784639	-0.001762474	-0.0007516857	-0.00120813	0.0043470575	-0.00068547647	-0.0011833141	0.00042304868	
0.0025989441	-0.0043407753	0.0028918309	-0.0008981773	-0.0010559192	-0.0010148687	0.0011468324	0.00053532113	-0.0023128772	2.2733344e-05	
0.0028240636	-0.0018678588	0.00022462019	-0.00051860063	0.0006305684	0.00033464032	-0.0005004094	0.0013838205	-0.003362624	-0.00031556646	
0.0013562284	-0.0003414329	0.00081128767	0.0009766107	-0.0014336554	0.0016566437	-0.00049643655	-0.0016830766	-0.0010729838	-0.0010626464	
3.6057918e-06	-0.0007577719	0.0008491095	-0.000472111	0.0008270048	-0.00026684432	0.00042985452	0.000710883	0.00015545913	-0.00040991016	
-0.000757857	8.160616e-05	0.00036249496	-0.0012939216	0.0005289577	3.8636746e-05	0.001915321	0.001734177	0.0001343105	-0.00042065934	
-0.0002392873	-0.00019442636	0.0019606517	-0.0010172038	0.0006850241	0.00041916812	-7.366585e-05	-0.00046328412	0.00076807727	0.0008748092	
0.0005330202	-0.0007202576	-0.00077653886	-0.00045576075	-0.00018100199	0.00043730857	0.00046676034	0.0017686604	0.00041521853	-0.0018574346	
0.0011253454	-0.0007994143	-0.00038009326	0.00084261067	-0.0006271331	0.0011554625	-0.00074750185	0.00022431677	-0.0007654726	0.0027269959	
-0.0005007191	0.00032970932	0.00071793934	0.0022019139	-0.0008253595	0.0009643006	-0.0013064102	-0.0019820924	-0.0022865161	0.0009972658	
-0.002641434	0.0004560266	-0.0012029249	0.003199995	0.00027481222	0.0031608427	-0.0013833937	0.00060036336	0.0006162395	0.0023310753	
-0.0015912553	0.00089608936	-0.0055822115	0.01074994	-0.005662241	0.0007697743	-0.003158358	0.00023719449	-0.0016725742	0.0038239197	
-0.0072337766	0.0028164485	-0.0004552669	0.014385618	-0.009070243	-0.0011481404	-0.005458934	-0.0032412582	0.0059803175	0.005876378	
-0.0068841027	-0.0007483488	-0.0037952305	0.017252961	-0.012017563	-0.00090125407	-0.00893023	0.0018967873	0.0052838656	0.007908735	
-0.0032052814	-0.0017665667	-0.0067627854	0.0038654865	-0.0068773334	0.0026337067	-0.004965655	0.009190508	0.006295313	0.00247609	
0.000797524	0.00034722238	-0.006721753	0.00089147047	-0.007875159	-0.0062775044	-0.012551111	0.010799906	0.011819905	0.0077844365	
0.0019645067	0.012250401	-0.017937005	0.0059084017	-0.015335344	-0.00038293295	-0.014194808	-0.006029857	0.01412659	0.01825935	
0.00051919394	0.022230664	-0.031291075	0.0064756125	-0.026400166	0.014648001	-0.0071872785	-0.0095219705	0.018658059	0.01189623	
-0.005582214	0.018010886	-0.030037573	0.0035364158	-0.020476026	0.01826145	-0.020225225	-0.006751987	0.025560202	0.015634531	
-0.0005939961	0.008745792	-0.013625639	0.0014056291	-0.017510904	0.02210791	-0.019842556	-0.022621373	0.02474855	0.01866148	
-0.0070826975	0.00024372211	-0.0036501377	-0.009676697	-0.0049689733	0.026652928	-0.026445158	-0.015953263	0.020194234	0.019152703	
-0.013064399	0.0071598305	-0.0026977346	0.0032482974	-0.009130674	0.025696075	-0.027585218	-0.019238472	0.013148147	0.021644898	
-0.006230906	0.011418546	-0.009162845	0.0109165255	-0.0061745485	0.014861683	-0.019099396	-0.0072979424	-0.0021233344	0.010767591	
0.0013286973	0.012449911	-0.012830738	0.0064236373	0.0008732504	0.004436567	-0.018074991	-0.0033850214	0.0043792347	0.0069436193	
-0.0011003467	0.003924957	-0.008091522	-0.00021468615	-0.0016605535	-0.0048916414	-0.013724414	-0.0022591203	0.0036678961	0.018144026	
-0.0061532883	-0.0002821319	-0.0016298603	-0.0079093175	0.0026007148	-0.0014206993	-0.0040009334	-6.0261693e-05	0.0039722	0.013731951	
-0.0030368213	0.0026255385	-0.005984989	-0.0051755705	0.008687088	-0.0011922072	-0.005256248	0.0018853315	-0.0033009134	0.0058804993	
0.0027547714	-0.0017137161	-0.0032956237	-0.0065186876	0.0069210543	0.00078218285	-0.00025019844	-0.0013003016	0.0007447484	0.0032620362	
0.0025333716	-0.0017111207	-0.0012447427	-0.0026091386	0.0014999908	-0.0004059499	0.0016858806	-0.0004995189	9.38373e-06	0.0010016136	
0.0041973605	-7.957304e-05	0.0016213425	0.00094062986	-0.0013187353	-0.00054512994	0.00033766264	0.0008520613	-0.0026008354	-0.00057815714	
-0.0015466128	0.0008431618	0.002731928	-0.0017380985	-0.0026130318	-9.027983e-05	0.0014184482	0.00067126483	-0.0010081715	0.00064979756	
-0.00012043622	-0.00014401184	0.0005197559	0.0010497334	-0.0010276918	0.0012732502	0.0012989125	-0.00071389653	0.00011269685	-0.0018165628	
-0.00015382227	-4.5173743e-05	0.0011433102	0.0011543015	1.4343568e-05	-0.00064231147	0.0015777929	-0.00044100563	0.001313283	0.0023326124	
-0.00088907924	0.0002970016	-0.0011813025	0.0010880079	0.0010112558	-0.0008836812	-0.00021793929	0.00032295036	0.0007098467	0.00014390175	
0.00015531799	-0.0013969827	-0.00035262672	0.00055838295	0.001232764	0.00035812732	-0.0006652501	-0.00020220896	0.0010422167	-0.0015143311	
0.0012441973	-0.0013385831	0.0005791327	-0.0009880223	0.0015235672	-0.00045589695	0.00013584014	0.0009975724	0.00044660698	0.00076208916	
-0.00067197764	0.0010395116	-0.0020102665	0.00012812004	-0.0016446287	-5.1794483e-05	-0.00017714892	0.0012803319	-0.0012966405	0.00079255656	
0.00016625473	-2.2640917e-05	-0.00022255554	-0.0012618256	0.00046047603	-0.0006098304	-0.0006448407	-0.0014398231	0.0005863005	-0.002087355	
0.0016029838	0.0012729743	0.0016402843	-0.0012555462	-0.0021194029	-0.0005801086	-0.0005386054	-0.0019402009	0.0010121902	6.557653e-05	
0.002213244	0.00033296	0.0011155973	0.0011008511	-0.00083592633	0.0015367727	-0.0003553905	0.002064013	-0.0034129217	-0.0015632454	
0.0027484037	-0.0018451822	0.0029926267	0.0060203723	-0.0040069716	-0.00084064004	-8.258878e-05	-0.00035428378	-0.00014863301	0.0018164609	
-0.0032570993	-0.0036753358	0.005488819	0.0066628386	-0.0065509565	0.005314106	-0.0042828647	-0.0014829624	0.0028742051	6.544212e-05	
-0.00397362	-0.0033142613	0.0041885986	0.0054513477	-0.0047384254	0.0015430971	-0.007925706	0.003555365	0.0025333615	0.003813693	
0.00037941197	-0.0008773126	0.00071854016	0.0021871184	-0.008526307	-0.0025226334	-0.010610379	0.006726723	-0.0036581925	0.014970166	
0.0006106692	0.005963927	-0.0010418849	-0.00058907986	-0.010473826	0.0013817917	-0.016288655	-0.0012342655	-0.008340337	0.028580977	
0.0019416427	0.008291375	-0.009958726	-0.0030904918	-0.008883699	0.009323279	-0.014847243	0.0011720955	-0.007006784	0.025965989	
-0.0045355232	0.0057552215	-0.009482646	-0.00019860826	-0.010845184	0.008659182	-0.016873758	0.007528914	0.0016114116	0.019747166	
0.0008006103	0.004603005	0.0029644985	-0.003077001	-0.0007568116	0.004767087	-0.021214781	-0.008766196	0.0015937255	0.017544871	
-0.0046146675	-0.009728335	0.011996688	-0.005885328	0.005143334	0.006954957	-0.023471272	-0.009074342	0.0027493981	0.022672601	
-0.006345952	-0.0069149737	-8.845137e-05	0.0012721159	0.0016996451	0.006289065	-0.014029923	-0.0045411573	0.0028388165	0.02260933	
-0.0052861283	-0.001500224	-0.0060463217	0.00039081078	-0.0005296606	0.005548097	-0.013214293	0.0025798576	0.00378145	0.013611979	
-0.005364171	0.0038526338	-0.0022266908	-0.00793988	0.0006709056	-0.0013540514	-0.0103997085	0.010759518	0.00097569096	0.01336292	
-0.006997743	0.0040373732	0.0006588025	-0.0095757125	-0.0053786417	-0.00038087348	-0.0041968473	0.0077606165	-0.0013921878	0.016876161	
-0.0068353196	-0.00082564226	-0.00013598887	-0.0109408	0.0012613932	0.00055092433	-0.0026528845	0.0055272887	0.00035801163	0.010499833	
-0.0028855111	0.0015660664	-0.0055282433	-0.0015497961	0.006070024	-0.0012041705	-0.0015354254	0.0014905788	-0.0034313947	0.0057957205	
-0.0031409455	0.00078002666	-0.00340889	0.00019582779	0.0060551115	0.0005275251	-0.00038102092	0.00044772378	-0.0015144802	0.003525122	
0.001737351	-0.00014278437	-0.0020918476	-0.00027462552	0.00209662	0.00067480135	0.0014733279	0.0005800217	-0.0028452817	0.0007628446	
0.0014031223	-0.00029855047	0.0010553951	-0.00028315856	-0.0014556935	0.00082959566	0.0012523537	-0.0001958395	-0.0034478852	0.0026825883	
-0.00036434818	-0.00022729047	0.00088492874	-0.0017260163	-0.0014477894	-0.00079135987	0.0024051205	-0.00032239172	-0.00061194354	-8.3185296e-05	
0.0017101712	0.0011866586	-0.00045095445	-0.0011348048	-0.00078505685	0.00060192955	0.0013709989	0.0008165632	-0.00024468327	-0.0016713938	
0.00044827323	-0.0007159653	0.00015639263	0.00050924695	0.0001912106	-0.0011454145	-0.0016014266	0.001138535	0.00039126427	-0.0004563284	
-0.00014733152	-0.001478604	0.0006717059	-0.0009452478	-0.0010286318	-0.00021093935	-0.00010611605	0.0007195205	0.0016545142	-0.0008208152	
0.00053062633	-0.0017652448	0.00024917192	0.0015390458	0.0002553862	-0.00041986094	-0.00014368273	-0.0004911663	0.00061487494	-0.0013338261	
-0.0016279072	-0.0010764804	0.00064996985	0.0005150099	0.00012851415	0.0003616812	0.0015742268	0.00082050764	0.0013411804	0.00091954373	
0.0010252042	0.00064743607	0.0009737267	-0.0003820897	0.00068307755	0.0009538229	-0.0004220874	-0.00019679972	-0.0014604409	0.00022863036	
0.0001577957	0.00055389566	0.0018051893	-0.0013723628	0.00028833066	-0.00027268013	-0.00087004673	-0.0006001456	-2.2678654e-05	-0.0008658251	
-0.0014703906	-0.0009286852	-0.0006320337	0.0006828	-0.0012195953	0.00038711645	5.9211625e-06	0.0014406802	0.0009050164	-0.00010709169	
-0.0009157804	1.00741745e-05	0.00118725	-0.0013503198	-0.00012919653	-0.0006756737	-0.0015863662	0.004138459	-0.0009397873	-0.00012559642	
-0.0021732682	-0.002300335	-0.0013197868	-0.0012954741	0.00019430097	-0.000109648056	-0.00062990555	0.00460713	-0.00028199176	0.0023861374	
-0.0032127483	0.0001957889	0.0028935026	7.85396e-05	0.0022742217	-0.00334012	-0.005538662	0.0032020295	0.0009170228	0.0017706123	
-0.0021467758	0.0012686652	0.002625703	0.0039881696	-0.00013135598	-0.008890298	-0.010257138	0.0023728681	0.0011134348	0.008164326	
2.4518697e-05	0.00022098201	0.0023526559	0.0020584362	-0.0028906758	-0.009761953	-0.006748085	0.0028416007	-0.0035545619	0.012020805	
-0.0027027763	0.0011333313	-0.0015849259	0.0036209382	0.0010570373	-0.0077210423	-0.0053476747	0.0018114742	-0.0011756808	0.0138227865	
-0.0064597605	-0.001447588	-0.005931119	0.011537144	0.0043780482	-0.009964868	-0.0071224673	0.009860931	0.0017325904	0.003976344	
-0.00728526	-0.0049161995	-0.0038582962	0.011555939	0.0033196544	-0.010741111	-0.0035833048	0.016565312	-0.0069681075	0.0062621515	
-0.0024438333	-0.0042483783	0.0032388782	-0.00083765364	0.002457844	-0.005222106	-0.0060587768	0.011325056	-0.017104989	0.018536057	
-0.0017250543	-0.0020505595	0.0068750805	-0.0035754037	0.0028281703	0.0035788293	-0.008650111	0.0061173593	-0.012658052	0.014181722	
0.0005878486	0.0017492874	0.00023414943	0.0017115204	-0.003621354	0.007873713	-0.009134949	0.004466335	-0.014330523	0.008920869	
0.002420305	0.00063770765	-0.0018280535	0.0029715835	-0.0023612375	0.0028913796	-0.008033703	0.007840459	-0.009202743	0.008333218	
-0.00040040782	-0.0003389754	-0.0027011796	-0.0030379277	0.002052023	0.0011683449	-0.008716953	0.011043463	-0.0076582185	0.008893563	
-0.0025570982	-0.0022305234	0.00080490916	-0.002064149	-0.0059085283	0.00027526138	-0.00386028	0.0068532494	-0.0016125741	0.010452153	
-0.003112187	5.1644165e-06	-0.0014592933	-0.0016103922	-0.0043151276	-0.0045775212	-0.0011660409	0.0027017994	6.1493425e-05	0.010928928	
-0.0029510476	-0.0003350756	-0.00042718597	-0.0005558935	-0.00037743518	-0.0027833236	-0.002196333	-0.0012281567	0.0008341577	0.0074855005	
0.00026325663	-0.0015814303	-0.0016325364	0.0012140402	-0.002235921	-0.0008056565	-0.0005252756	-0.0004380686	-8.689523e-06	0.0034943805	
0.00019325688	-0.0011558888	-0.0014486577	-0.0008228393	-0.0019248661	-0.0003151369	-0.00044809649	0.0015930769	0.000409301	-0.0013233768	
-0.0019692061	-0.0010751537	-0.000549203	-0.0003320208	-0.00079726824	0.0013275795	-0.001740096	-0.0006988463	-0.001771672	0.0009348339	
0.0018556638	-0.00047075682	-0.00018117961	0.00019058885	0.00017431447	0.0012984514	0.00024900807	-0.00093922816	0.00097434485	-0.000321158	
-0.00019030218	0.00017735631	0.0009214706	-0.0008522882	0.0007768252	-1.2144184e-05	7.1073526e-05	-0.0010530881	0.00040107986	0.00048031914	
0.001199529	-0.00052791904	-0.0006635419	0.0004189828	-0.0025052344	8.2574225e-05	0.001647707	-0.0007205298	0.00045905603	-0.00090411503	
0.0011997465	-0.00023862772	0.0004061597	2.5625233e-05	0.00015473695	-0.00019094186	0.0016145718	0.00041867973	0.0004497804	0.0011032065	
-0.0011584697	0.0005200631	-4.455404e-05	0.00080783834	0.00024459208	-0.0005948596	-0.0009584188	0.0012537168	-0.000611504	-8.418616e-05	
-0.0019742516	-0.00086651416	-0.0005238304	-0.0004924311	-0.00042612778	0.0016785306	0.00069436803	0.0018145149	-0.0012174555	0.00074299256	
0.00052674755	-0.00069781276	-0.00024303602	0.00070616364	0.00023433173	-0.0003867025	0.0005371146	-0.0010958808	0.00057054736	0.0006205326	
-0.0011913028	0.00061107415	-0.00076279056	-0.0002872437	0.00082902494	-0.00052085146	0.0017183998	0.0012434574	-0.0006657981	5.701546e-05	
-0.0008190789	0.0019474304	-0.0017569179	-0.0016765649	-0.00014846167	0.0009187055	0.00046509854	-0.00067881454	-0.000985732	0.0003294652	
-0.0014099255	-4.245201e-06	0.0024249891	-0.00040155655	-0.0002507519	-0.00026815862	-0.0023288867	0.0019847956	-0.0015316961	0.0011311057	
-0.00031911075	0.0023029703	-0.0011053684	-0.0027239367	-0.00028271638	0.00054057786	-0.003051339	0.003767678	-0.0019138276	0.0005933534	
-0.00036389095	0.0017208148	0.0016077135	-0.0032987597	-0.00012139584	-0.003217534	-0.003939764	0.0050025377	-0.0004091142	0.0010335514	
-0.0008441918	0.0026373696	0.0019039625	-0.00025674072	0.0006198341	-0.0041672727	-0.0022408417	0.0025731823	0.002578231	0.002985985	
-0.0015546639	0.0041634305	-0.0009711165	0.00012401163	0.0024706833	-0.0040603145	-0.00041324872	-0.002032187	0.0023394711	-0.00023858319	
-0.0040154476	-0.0023882529	-0.0014538328	-0.0010062415	0.00556781	-0.0020719462	0.002206181	-0.00084817153	0.0021582432	0.0020777527	
-0.0076273885	-0.0042415382	-0.0049617705	0.0024726093	0.005640147	-0.0020957987	0.0013239413	0.0047249915	0.0016183855	0.0003627293	
-0.007831838	-0.0018460387	-0.004152204	0.0008495293	0.0014777372	-0.002402828	-0.0015469862	0.007924183	-0.0007428457	-0.001809983	
