-0.07099767	0.026139423	-0.031695344	-0.0477043	-0.018414631	0.008132901	-0.010956628	0.036090177	-0.013215419	0.13417706	
***0.1***
--------------------------------------------------
-0.081430025	0.043086678	-0.036295604	-0.055111613	-0.0241888	0.016530797	-0.0073624104	0.055989746	-0.016649304	0.116986044	
***0.09000000000000001***
--------------------------------------------------
-0.08607717	0.056280974	-0.03790756	-0.06259684	-0.028373841	0.027830532	-0.0029793936	0.07305318	-0.027706286	0.10003188	
***0.08100000000000002***
--------------------------------------------------
-0.089199625	0.066690035	-0.039016206	-0.07005694	-0.031279054	0.03949677	0.00068679603	0.08801575	-0.041941244	0.08815914	
***0.07290000000000002***
--------------------------------------------------
-0.09105485	0.07527811	-0.040027596	-0.07709834	-0.03319131	0.05098872	0.00389716	0.10127366	-0.056812465	0.0783024	
***0.06561000000000002***
--------------------------------------------------
-0.09208228	0.08263988	-0.04093086	-0.08360849	-0.03430115	0.062204156	0.0067297355	0.113156	-0.07168331	0.06943189	
***0.05904900000000002***
--------------------------------------------------
-0.09256513	0.089133844	-0.04170771	-0.089578845	-0.03475238	0.07311941	0.009242165	0.12390006	-0.08633739	0.061101373	
***0.05314410000000002***
--------------------------------------------------
-0.09267436	0.09498177	-0.04235849	-0.095023006	-0.03465703	0.0837306	0.011474491	0.13365802	-0.10067611	0.0530996	
***0.04782969000000002***
--------------------------------------------------
-0.09251395	0.10032653	-0.04289199	-0.099955715	-0.03410414	0.0940364	0.013451144	0.14252593	-0.114648685	0.04533019	
***0.043046721000000024***
--------------------------------------------------
-0.09214683	0.10526459	-0.04331559	-0.10439009	-0.033165127	0.10402838	0.01518762	0.15056999	-0.12823041	0.03775286	
***0.03874204890000002***
--------------------------------------------------
-0.091610685	0.109864734	-0.043631963	-0.108339295	-0.03189933	0.113687955	0.016696518	0.15784422	-0.14141019	0.03035357	
***0.03486784401000002***
--------------------------------------------------
-0.090928465	0.11417682	-0.04384023	-0.11181903	-0.030358618	0.122987576	0.017990282	0.1643983	-0.15418173	0.023130659	
***0.03138105960900001***
--------------------------------------------------
-0.09011497	0.1182372	-0.043938257	-0.11484834	-0.028590467	0.13189463	0.019081777	0.17028156	-0.16653714	0.016089551	
***0.028242953648100012***
--------------------------------------------------
-0.08918088	0.12207244	-0.04392513	-0.117450096	-0.026639644	0.14037547	0.019984193	0.17554311	-0.17846511	0.009241126	
***0.025418658283290013***
--------------------------------------------------
-0.08813556	0.12570138	-0.04380242	-0.11965145	-0.024548758	0.14839807	0.020711219	0.18023175	-0.18994994	0.002601206	
***0.022876792454961013***
--------------------------------------------------
