-0.021089813	0.01252731	-0.009323135	-0.009318043	-0.012728745	-0.0038064644	-0.0012540198	-0.0017433229	-0.014788749	0.07308043	
***0.1***
--------------------------------------------------
-0.03367296	0.03484758	-0.011325776	-0.019686006	-0.022082208	0.011702778	0.002403104	0.020455722	-0.027569726	0.05648295	
***0.09000000000000001***
--------------------------------------------------
-0.041574534	0.05067666	-0.014287306	-0.029956955	-0.027789827	0.025188604	0.0038646776	0.0390274	-0.043674793	0.050081518	
***0.08100000000000002***
--------------------------------------------------
-0.046052713	0.063324176	-0.016806496	-0.039470345	-0.031318508	0.037799783	0.0056820884	0.055842023	-0.059461784	0.042017188	
***0.07290000000000002***
--------------------------------------------------
-0.049231764	0.07385389	-0.019020185	-0.048330642	-0.033548854	0.049717005	0.007463744	0.07113766	-0.07483878	0.034353487	
***0.06561000000000002***
--------------------------------------------------
-0.051709447	0.08286906	-0.020987188	-0.05655384	-0.03485908	0.06110803	0.009129008	0.08510135	-0.089746825	0.027204443	
***0.05904900000000002***
--------------------------------------------------
-0.053736206	0.09074425	-0.02274737	-0.06416807	-0.035452466	0.072077505	0.010645394	0.09788054	-0.10417745	0.020489477	
***0.05314410000000002***
--------------------------------------------------
-0.055450097	0.09772852	-0.024327813	-0.07120307	-0.035458446	0.08268496	0.011994283	0.10958615	-0.11814215	0.014143126	
***0.04782969000000002***
--------------------------------------------------
-0.05693348	0.103994705	-0.025746731	-0.07768442	-0.034970615	0.09295885	0.013167594	0.12029986	-0.13165301	0.0081227105	
***0.043046721000000024***
--------------------------------------------------
-0.05823469	0.10966563	-0.0270165	-0.08363215	-0.034062244	0.102905035	0.014165822	0.13008508	-0.14471808	0.0023976718	
***0.03874204890000002***
--------------------------------------------------
-0.0593794	0.11483094	-0.028145818	-0.08906108	-0.032793675	0.11251249	0.014996102	0.13899672	-0.15734148	-0.003059295	
***0.03486784401000002***
--------------------------------------------------
-0.060378868	0.11955766	-0.029141061	-0.09398309	-0.031216785	0.12175888	0.015670458	0.14708692	-0.16952291	-0.00827575	
***0.03138105960900001***
--------------------------------------------------
-0.061236177	0.1238968	-0.030007495	-0.09840999	-0.029378252	0.13061404	0.016204478	0.15440878	-0.18125835	-0.01327842	
***0.028242953648100012***
--------------------------------------------------
-0.0619517	0.12788822	-0.030750372	-0.10235666	-0.027321951	0.13904499	0.016616523	0.1610166	-0.19254072	-0.018089443	
***0.025418658283290013***
--------------------------------------------------
-0.06252656	0.13156343	-0.03137601	-0.10584327	-0.025090529	0.14701925	0.016927127	0.16696563	-0.2033604	-0.02272316	
***0.022876792454961013***
--------------------------------------------------
