0.01192386	0.016292568	-0.00041309503	0.02204115	0.0013959024	0.0034464158	0.020786058	0.0043005445	0.014372327	0.0020801604	
0.005295185	-0.0077295853	-0.005812468	-0.013280921	-0.0006331048	0.008261801	-0.008896788	-0.0054348563	-0.018247746	-0.0021832676	
-0.00193725	0.0042630676	0.0020041817	-0.00635911	0.007942029	-8.619227e-05	0.008799273	0.001708486	0.0039980975	-0.012038251	
0.014806914	0.005802973	0.0057152463	0.014889993	-0.003475285	0.0024208752	-0.0010690084	0.0013625831	0.0014517641	0.004614159	
0.014767194	-0.00866946	0.020141782	-0.00069587934	0.0011009321	0.00025964162	-0.007181828	0.009652284	0.0020845742	0.012766213	
-0.0077707455	0.021457188	-0.0019500982	0.0016726963	-0.00065899116	0.0042649535	-0.00013412263	0.013718448	-0.0063012308	-0.002450589	
-0.014696692	-0.008729859	-0.018015504	-0.006387176	0.014377832	-0.006389377	0.0022184793	-0.009066927	-0.01168807	-0.0051544793	
-0.015242942	-0.013923148	0.0044891243	0.013709231	-0.0041238847	0.0060516587	0.01183949	0.0020966812	0.0038528724	0.001414963	
-0.011496312	0.002410788	0.0026890887	0.005340742	-0.0033746045	-0.005082034	0.008722387	0.0067258105	-0.012136316	0.0016528658	
0.0043145977	0.0008285603	0.011985348	0.009100496	0.012393113	0.0024263326	-0.0019212237	0.0019143516	0.015619119	0.011829034	
0.002033972	-0.0016720229	0.005433028	0.0021799938	0.010467392	0.0014692977	-0.016683264	0.0038247153	-0.005415245	-0.01155514	
-0.00016424144	0.0028837011	-0.0115362555	0.0032840073	0.011720186	0.00089046784	0.0047731707	-3.8838316e-05	-0.01646306	0.00049728446	
0.004037064	-0.008913565	-0.002947418	-2.9965136e-05	0.0092325965	-0.002220837	-0.0015739473	0.0016077841	0.0047067073	0.0022152788	
-0.003639134	0.0146538615	-0.0048985477	-0.008228381	0.0138673335	0.011620252	-0.0075519066	-0.0046511875	-0.010159328	-0.0018856656	
-0.008325754	0.002621509	-0.010306918	0.0034722409	-0.008237206	0.014837386	-0.03191856	0.013507454	0.009608497	0.01441288	
0.016416844	0.008888629	0.012840224	0.008298311	0.00086028426	-0.0010156094	0.010948892	-0.0037150844	0.0061190915	0.004833487	
-0.002679572	0.012381327	-0.003032808	-0.001781297	0.00067790726	0.006130456	0.008912063	-0.0027170416	0.01394102	-0.0048309006	
0.001739922	0.01333106	-0.0036964258	0.0070365835	-0.0013531405	0.0048580095	-0.004467359	0.012166761	-0.0037673132	0.00545857	
-0.012703753	0.013958981	-0.00578597	0.002654479	-0.010319026	0.0072178124	0.018834842	-0.010267155	-0.0013546532	-0.0006630163	
0.011324426	-0.0041644843	-0.0020274837	-0.002492409	0.007003013	-0.018694602	0.024451843	-0.03381757	-0.018086804	-0.0022358533	
-0.014902532	-0.011454978	0.01186492	0.018733243	-0.0019539301	0.013872016	-0.0006920322	0.002039763	-0.017146314	0.0037608608	
-0.01671882	0.008813621	0.0013060517	0.008987124	0.003633806	-0.023319582	0.017484538	0.003922286	-0.010689455	0.005373577	
-0.0044910708	0.0063250326	-0.0060182745	-0.0016863343	0.016865984	-0.0042540394	0.0068988157	-0.010931219	-0.0037918289	-0.0059072906	
0.0019574957	-0.0058820625	0.0047410233	0.008449131	-0.015955351	-0.0031481292	-0.014739714	-0.0062200315	-0.0019791794	-0.0053767506	
0.008921887	0.0011257371	-0.0058991318	-0.004703796	-0.0038181022	0.011576557	-0.0062710564	-0.002960524	0.0062938724	0.0011619591	
0.0065047448	-0.00853134	0.0064464575	0.015649835	-0.009673756	0.022528766	0.009553511	0.008684934	0.001736182	-0.0007710545	
-0.00762782	-0.0028834967	-0.008886077	-0.00027269823	0.01668186	-0.013936497	-0.0024509535	-0.008724541	-0.008571699	0.015670866	
0.002179818	-0.0053487127	0.02539716	0.0020053454	0.01758212	-0.002233503	0.001131251	0.017548842	-0.018762179	0.009262869	
-0.0076093236	0.010761035	-0.009384314	0.0018980476	-0.010125463	-0.0050354856	-0.012350725	-0.013415471	0.022268903	-0.0041170274	
-0.0062852157	0.015755696	0.00076822925	0.009033579	0.0054052416	-0.0019797157	-0.0021633585	-0.0048889443	-0.020619681	-0.013214255	
0.024213033	-0.005449884	-0.0002584704	-0.006307236	0.013438254	-0.02045839	-0.006532547	0.0005083779	0.004253764	-0.0018920425	
0.015676152	0.0075856587	-0.004030241	-0.022220915	0.011761124	0.0005150466	0.0069868993	0.026687978	0.00088854594	-0.009357987	
-0.0044229934	-0.02305566	0.021971751	0.014967101	0.020012565	-0.013200634	-0.0061462866	-0.014541234	6.0798135e-05	-0.000732462	
-0.008007445	-0.0026789526	-0.0048766746	0.02093403	0.005536501	0.006733557	-0.0024741804	0.0072402544	-0.019239945	-0.010524067	
-0.006365494	0.0031144405	0.008648916	-0.01199888	0.017124886	0.005630555	0.0031843977	0.0060429284	-0.002355039	0.0062697646	
0.010345888	0.0028466284	-0.0033840253	-0.00470931	0.004332764	0.011987177	-0.0088235	-0.001953539	0.0033492025	0.00264629	
0.020196252	0.013388363	0.014901609	0.0014870246	0.003832576	0.0037075323	-0.0046752305	0.0026919472	0.008778309	0.01298152	
0.0134550305	-0.011559765	0.001239974	-0.009098521	0.008420034	-0.0016619911	-0.0020338253	0.013679015	0.0010472462	-0.0016949646	
0.007195278	0.0029642887	-0.011226345	0.014451112	0.021255491	0.032141343	-0.015531543	-0.0020067976	0.012713331	-0.013028305	
0.010723119	0.0073993746	-0.0063105123	0.007797687	0.0073479014	0.0051943823	-0.006801283	0.0161309	-0.00065867085	-0.009965441	
-0.011523654	0.0064009507	0.011938592	-0.003461063	-0.004368075	-0.0099919	-0.0028811481	-0.0035426996	-0.0064481753	-0.010935058	
-0.014053408	0.010105215	0.004736965	-0.009916327	-0.0050442605	0.0035843828	0.0054698265	0.015303172	0.016268909	0.007980818	
0.008390999	-0.013515895	-0.0075463774	-0.0028225332	-0.0057457443	-0.00228854	-0.02131931	0.0027903528	-0.013573479	-0.0056772665	
-0.0010725928	0.0064428085	-0.0072751287	-0.000659484	-0.0012162315	-0.0055653024	0.0072492165	0.000799221	-0.002143592	0.009147829	
-0.00590231	-0.01652329	-0.0016755764	0.004124638	0.0047014393	-0.0041198344	0.007126178	-0.0036904248	0.013670719	-0.0002636439	
-0.028751396	0.014479725	-0.009920738	0.00042403876	-0.004011211	-0.0007255023	0.0071072606	-0.024406422	0.012995783	0.009638247	
-0.0119483685	-0.0009402666	-0.019008959	0.013658274	-0.0027171767	-0.010012742	0.0045010117	-0.005177638	0.0040424354	-0.0025961562	
0.005740966	-0.0046004844	-0.0061769383	0.008421572	-0.00962752	-0.008793124	0.00042793396	-0.013171948	0.0063361675	-0.012501983	
0.006353143	0.00861243	0.012164531	-0.0128374025	0.010495058	-0.0018744168	0.0058883894	-0.013292928	-0.00514601	-0.0022119049	
0.0027527774	0.0038587777	0.00802896	-0.0010244303	0.0069219987	-0.011196153	0.0015357725	0.006545591	0.013888216	0.0067246174	
-0.0013488864	-0.0008433349	-0.00029834177	0.021211326	0.007299642	-0.0036215042	-0.016139356	0.0036526558	0.014686793	-0.021579992	
0.013148733	-0.00019728368	-0.017657368	0.014252993	-0.0034082907	0.007355751	0.0003363497	-0.016896361	-0.02857123	0.0040718783	
-0.012018127	0.0021378358	0.007892919	0.009960859	0.015396785	0.006889801	-0.01472624	-0.0056044254	0.01883812	0.015266303	
-0.011604359	-0.0029021055	0.004534709	-0.009314674	-0.0257202	0.015909502	-0.00420098	-0.011304847	0.00900612	-0.01623395	
0.0075931237	-0.016946217	0.0048385356	-0.015466622	-0.019719658	-0.0031522783	-0.023313688	-0.015269536	0.006370604	0.0023189534	
0.017846273	0.0063424017	0.005453058	-0.0093647465	0.005778637	-0.0073199845	-0.0029424655	-0.0041855685	0.013949162	-0.0016919824	
0.009761309	-0.003542188	0.009909982	0.0058314465	0.0085057495	-0.01312028	-0.0035558187	-0.0022856037	-0.008171664	0.001826701	
0.0105501665	0.0031928918	-0.007738532	0.009348585	0.0050674244	-0.0068165106	0.008444539	0.005956726	-0.0012708415	0.016660435	
0.008920017	0.0054618595	0.0017921694	-0.009379788	-0.0074548167	-0.006311098	0.01780476	-0.0052611264	0.0039630667	0.007065258	
0.0023999512	0.0023426178	0.0120766945	-0.020489443	-0.00093509245	-0.001026748	-0.013465757	0.007736559	-0.017346783	-0.0084654465	
0.0038095317	0.0019725696	-0.00093687215	0.007090824	0.009968743	-0.00090243557	-0.004295271	0.006030062	0.01281262	0.0062742084	
-0.0004990635	0.015069857	0.0107294	-0.0007162942	0.0010235964	-0.0035940595	-0.001350722	0.0012117253	-0.0053100917	0.00061543024	
-0.0020361086	0.020345785	0.0037426786	0.0039563314	-0.0018025959	0.008472822	0.007172587	-0.008237815	-0.0071049854	-0.010806163	
-0.007269987	0.00025794384	0.014769087	0.005189831	0.01489102	0.0012830958	-0.016525926	0.005046218	-0.0042034844	-0.010593076	
-0.012637663	0.00015541313	-0.0105132405	0.019066967	-0.023070509	-0.0051289727	-0.0028158743	-0.010300665	0.0026040217	-0.0052824565	
0.0030656522	0.010540037	-0.00022105403	-0.009834325	-0.0025281822	-0.00023446298	0.006575878	0.016754407	-0.0018499666	0.0039546452	
-0.004777457	-0.0017752552	0.003004412	-0.010033815	-0.015154975	-0.0065347888	-0.0033975346	-0.0064902715	-0.0071827737	-0.0058312016	
0.019821545	0.0019087174	0.0017095857	-0.0091571845	0.0069498788	-0.004010893	-0.00021401589	0.00617207	-0.00036318376	0.009833024	
0.019086571	0.006210841	-0.0011842764	-0.014833934	0.0051704952	-0.0011962742	0.005370932	0.008753724	-0.013913023	0.0018296631	
0.0037382056	0.00092592987	0.0096018715	0.0034536084	0.003537884	-0.00597084	0.004775664	0.010023666	-0.0031995422	0.009669759	
-0.0063498593	0.003270759	-0.014259992	-0.013881279	0.011017975	-0.0127622	0.005750656	-0.013123036	-0.0011678555	0.0022347227	
-0.007401416	-0.00020737396	0.0048454385	-0.0039117597	-0.011764202	-0.014303197	0.020000188	0.0071018822	-0.0053339927	-0.0026933916	
-0.0027683845	-0.016667498	-0.008096079	0.0061926623	-0.0062862085	-0.003640656	0.027384914	0.003419379	0.007244013	0.0015607005	
-0.016172962	-0.005125696	-0.0072723944	0.005445009	0.003650712	-0.0023228363	0.01901154	0.0057071242	0.0011105594	-0.014293614	
-0.0054494576	0.010509104	-0.018317372	0.010821736	-0.011172466	-0.022990333	0.011231085	0.0030178279	-0.013957834	0.012528891	
-0.0045142076	0.0020073315	0.00622796	0.012874203	-0.023800425	-0.008412628	0.015348792	0.0092054345	-0.0030636005	0.0030382443	
-0.011192173	0.0037946666	-0.008494584	0.00026511375	-0.022886064	0.015786584	0.006840326	0.002013701	-0.0070633865	-0.011162243	
0.0004702314	-0.003935892	0.003519528	-0.0067541674	0.0015661863	-0.00251178	-0.011362817	-0.019884812	-0.015075704	-0.004113082	
0.0035230906	0.0034188353	-0.0056695454	-0.019413419	0.0026314112	0.000104461695	0.017701196	-0.016212698	-0.004965928	0.00097284594	
0.011341906	0.0036634395	0.005428238	0.0077562598	0.0024673569	0.010626607	0.011282719	0.019356195	0.016263455	-0.0020394332	
0.008149372	0.004139423	0.0013091495	-0.0043347795	-0.0030933798	-0.001052831	-0.0009458972	0.0057021696	-0.001324005	-0.009080183	
0.0011069734	-0.013724052	-0.014949925	-0.0035646355	0.00090471853	-0.010009679	0.0014931335	-0.002538846	-0.0017665211	0.013524799	
0.0053663775	0.0106229065	-0.006120663	0.00060899515	-0.011891305	-0.010268235	0.012858906	0.0077454112	-0.0037672222	0.0039201463	
-0.020851493	-0.012905488	0.02353019	-0.014300957	0.0012084638	0.00031940424	0.00088375475	0.01532217	0.008091049	0.014568095	
-0.007822594	-0.004678331	-0.00852805	0.008739905	-0.0037779987	0.0066157817	0.0040905834	0.01481702	-0.008953465	-0.011342717	
0.010443536	0.002455724	-0.0099993	0.00034010527	0.0035072784	-0.0063568233	0.0051473514	0.019699063	0.013231519	0.019093987	
-0.013898818	0.006162706	0.006234653	-0.0133273145	0.0028401748	-0.013346147	-0.018625569	-0.0093548065	0.0013553066	0.0072330204	
0.0041416553	0.0020468151	-0.010025806	0.0031294224	-0.00050833233	-0.00775335	-0.00061856396	-0.010482599	0.004674148	-0.0015984501	
-0.0017869278	0.003734062	0.023058617	-0.018062532	-0.002221366	0.014837527	0.005315679	0.008975144	-0.0019072227	0.0031974264	
0.017923908	0.00079141406	0.002756494	-0.00034650785	-0.010717684	0.004567761	0.013857495	-0.012456937	-0.0016935358	-0.023905044	
0.012268643	0.004997521	-0.01674852	0.003372021	-0.00859531	0.00018766419	0.0015326628	-0.014022279	-0.0073366975	-0.0077640386	
0.0028644064	-0.004696509	-0.01846348	-0.0009240539	0.004239723	-0.007559567	-0.018177224	0.011915931	0.015254064	0.0012761384	
-0.0072997035	-0.0023283805	0.008121293	0.0007112974	-0.009398962	-0.0005689677	4.5458943e-05	-0.0026222914	0.00725508	0.0066423835	
-0.0017766868	0.012775119	0.0040504006	0.004849893	0.00036454728	0.011084982	-0.0053116973	-0.0002364263	0.00051180355	0.007826923	
-0.009678855	0.0003183473	0.0049735787	-0.0066732746	0.007046627	-0.002830399	0.030982297	-0.0041115093	-0.00016660274	0.0043366146	
0.004282519	-0.011697338	-0.010757241	-0.017934281	-0.007635839	-0.0053448947	-0.0024655552	-0.00053050567	0.010998659	0.011270074	
-0.004690054	-0.003596489	0.020688772	-0.00783403	-0.018819705	-0.016130084	-0.009464012	-0.010154012	-0.0058463663	-0.0019565485	
0.0032137472	-0.013765673	0.0013051082	0.026150137	-0.0009974245	0.013311314	0.015183056	0.0026147363	-0.012901505	-0.008019089	
-0.0036123863	0.0009884271	0.00084583025	0.008994459	0.007105213	-0.028775886	0.034315493	-0.010159855	0.014090374	0.01360232	
-0.010756725	-0.017704373	0.014637671	0.0038512463	0.002187952	-0.029196747	0.03470164	-0.0013854743	0.005622841	-0.0059643276	
-0.016334942	-0.027081538	-0.008488459	0.002835926	-0.009674618	-0.020047415	0.039356034	-0.008116623	0.0028522809	0.0077162297	
-0.009854235	-0.008857805	-0.0028259964	0.012676998	0.0032023161	-0.03146422	0.059581697	-0.00294147	-0.012047348	0.0042860513	
-0.0052238926	-0.01763931	0.011543224	0.007559414	-0.0141887	-0.039464407	0.029458322	0.0036667266	0.0030369365	-0.014692063	
0.013442997	-0.0032809384	0.0037729857	-0.019823939	-0.0019126884	-0.023066044	0.033288497	0.0008322361	-0.012246714	0.004559763	
-0.0076512787	-0.006701615	0.005048329	-0.01859639	-0.0030440637	-0.028636837	0.014365951	0.0083056195	0.026652383	0.011137145	
-0.0029868756	-0.0109601375	-0.004876689	0.01878179	-0.00092595984	-0.00016734703	0.0045072325	0.0033706762	0.0023721678	0.011919391	
0.009368243	-0.0066465265	-0.018510967	-0.008786579	0.00794322	-0.006545181	-0.0024750384	0.0029215252	0.0046092574	-0.0011503405	
-0.01695193	0.012279788	-0.008964051	-0.01134145	-0.022054827	0.0049772686	-0.0007885937	-0.002300255	-0.0019484087	0.0062963744	
-0.009759798	-0.016867744	0.0068549695	-0.008598774	-0.005910047	0.0015187643	0.015946457	-0.012689558	0.008827005	0.0038869472	
0.00913166	0.0071776533	0.0026513147	-0.0018328765	-0.006226437	0.000502292	-0.005612845	-0.008534531	-0.002991057	0.006424929	
0.005247828	0.004478268	0.005194594	0.016263086	-0.007647202	0.004632185	0.005312148	0.01346226	-0.011134713	-0.016085656	
0.0046083047	-0.002549882	-0.0034406274	-0.0017254379	0.0012893269	0.0016546492	0.0016506094	-0.024837313	-0.00053883175	0.013436651	
-0.008458358	-0.010125769	0.0022673798	-0.015004367	-0.02229385	0.0036834017	0.0041685523	-0.000984872	-0.0040707137	-0.0044790083	
0.015551402	-0.0062240018	0.013521406	0.029137803	-0.004405187	-0.0055636326	-0.01150956	0.011705404	0.010868988	-0.0053222063	
-0.016390538	-0.008160678	0.0068276227	-0.0040781675	-0.0011202323	0.0003975494	-0.0042004506	-0.0060782847	-0.002769042	-0.0012035215	
-0.005374734	-0.008722046	-0.015189396	0.0049464055	0.004308401	-0.0060752113	-0.005526008	0.0017210876	-0.0009603624	-0.0033718233	
-0.001605455	0.012532017	0.010862256	-0.0032619135	-0.009173221	-0.008352417	-0.008323832	-0.010491792	0.012347173	0.013453025	
0.0076350584	-0.014442431	-0.0050240792	-0.010498473	-0.023924114	0.0065519414	-0.005147089	0.011816873	-0.0018795043	0.0017652621	
0.0050573824	-0.005425573	-0.0062592947	0.004750512	-0.0036665506	0.0077712764	-0.0014651876	0.0038737503	0.017181648	-0.0018632141	
-0.010512247	0.019171584	0.0058444566	0.010850292	0.014229497	-0.0019234249	0.006680491	-0.013267221	0.009429213	0.00073682197	
-0.0005407479	0.012402969	-0.008235161	0.0002664159	0.0006020474	0.010217429	0.0062348978	0.0027829057	-0.003579252	0.0070523513	
0.0025027764	0.0053763697	0.012481207	0.007675549	-0.0075188903	-0.0065120463	-0.0045435093	-0.0011890545	0.0033945993	0.0054066097	
-0.009258655	-0.015197868	0.012374208	0.01233432	-0.0041082385	0.015907178	0.012588517	-0.012401256	-0.005075123	-0.016522948	
-0.022083987	-0.01336551	0.009680144	0.014990615	-0.011644095	0.021470204	0.004115496	-0.010491546	-0.008217856	0.019139089	
-0.01106651	-0.030932778	0.023387754	0.0202034	0.016202977	-0.015160037	-0.004525805	0.0014808623	0.013715631	-0.00706812	
-0.016768772	-0.009783123	0.01603183	0.018958194	-0.03230983	-0.022844959	0.017092064	-0.018346174	0.006217998	-0.009526441	
-0.029048156	-0.007710518	0.00977794	0.011240881	-0.019225443	-0.023721905	0.02492006	-0.0049571553	0.0007617746	-0.0030719796	
-0.010000695	0.0065498445	0.027958304	0.031856798	-0.016328096	-0.026423028	0.03413319	-0.022915464	0.019425213	-0.023700101	
-0.0031169804	-0.013719197	0.02065006	0.028508909	-0.02332022	-0.040121384	0.035557542	-0.015072029	0.025233798	-0.0018831132	
-0.0111241825	-0.030944806	0.010092475	0.019410118	-0.025990414	-0.03277155	0.052477665	-0.015331796	0.019796431	0.010053315	
-0.007058891	-0.01306462	0.012043426	-0.007681864	-0.012215126	-0.002299997	0.03178719	-0.006534675	-0.0014935681	-0.01688646	
-0.0035363336	0.026498264	0.014635687	-0.00048635088	-0.01521809	-0.004246365	0.029319752	-0.013123522	0.01731813	-0.0016691786	
-0.022890817	0.0010961348	-0.008933479	-0.0043335976	-0.0047915354	-0.0088437	0.016263168	-0.0044823596	0.021948386	-0.013695845	
-0.015214214	0.003934307	0.010645143	-0.00719587	-0.0009154516	0.0005648732	-0.0022029416	-0.0066727893	-0.0009113083	-0.010831294	
-0.006144882	-0.012708756	-0.004013606	-0.0076343445	0.0038189532	0.02495982	0.012601093	-0.01756729	-0.0052286545	0.0155377975	
-0.030947702	-0.0040691574	0.010775603	0.00014884902	-0.020799136	-0.004372734	0.009732262	-0.010707302	-0.011759867	0.0021286753	
0.006124394	0.0038969945	0.0037624154	0.006271181	-0.005045669	0.005344141	-0.01623259	0.010456518	0.026619747	-0.015996287	
0.0017898786	-0.019783514	-0.003356148	-0.0054249046	0.0005235043	-0.006151386	0.007622622	0.009149423	-0.0066170064	-0.017890148	
0.008534858	-0.01127843	-0.0022034487	-0.0143531	0.012093543	0.0065178988	-0.0017397727	0.0049626483	0.007505746	-0.009870356	
-0.0123413885	0.0010487703	0.009686401	0.014933388	0.01861614	0.0023849676	0.013953657	0.0024249584	-0.0073165763	0.0033367735	
6.8911986e-06	0.0060445485	0.016964553	0.00746014	0.012366555	-0.0027416719	0.00088104577	-0.007515427	0.010684063	0.006819388	
-0.00975531	-0.0011218719	0.0011734794	0.005120528	-0.009744391	-0.0031484696	-0.014794207	0.020870538	0.023044543	0.022712773	
-0.002059544	-0.00507265	0.015306553	-0.0095328195	0.0028084978	-0.006574449	0.00047888522	0.0019068939	-0.008184665	-0.0060299602	
0.001890249	0.01196292	-0.008116385	0.0018554162	-0.015829192	0.01194216	0.007484615	0.016241854	0.010275329	-0.018736837	
-0.0021388358	-0.016874887	0.0032391874	0.014416169	-0.007972465	-0.011755137	0.0024909035	-0.015470015	0.008086129	-0.013439524	
-0.0037017248	0.011108196	-0.011037201	-0.0034834717	-0.0027685005	0.0063852826	-0.0010094303	0.013283671	0.00287676	-0.001357123	
0.004894525	-0.0026156495	0.019907407	0.007400618	0.009832907	0.014326038	0.006373246	0.002463023	-0.0032249794	0.0025953182	
-0.014649813	-0.00081011886	-0.0039219256	-0.012822809	0.013633558	0.0026035332	-0.016451659	-0.0048597152	0.00533887	-0.016173055	
0.0023933977	-0.022100728	0.013667852	0.012428488	-0.004693615	-0.015353404	0.009627942	0.0029124531	-0.0018553503	-0.00770453	
-0.013763085	-0.011456132	0.008212298	0.017593514	-0.002433072	0.006155385	0.0041394117	-0.005850332	0.00926823	0.013538812	
-0.033465087	-0.019977318	0.006435548	0.04949463	0.011846824	0.018342111	0.011964434	-0.0038621079	0.012952079	-0.006297097	
-0.005726299	-0.028030846	0.0042607216	0.0331467	-0.007929388	-0.0058458005	0.01928271	-0.016700959	0.01684718	-0.020607825	
-0.032047834	-0.028441455	0.0018917075	0.037560865	0.0012974928	0.009913929	0.01756009	-0.018876908	0.04190384	0.011983787	
-0.016105838	-0.026437951	-0.0012443102	0.030466141	-0.01854239	-0.020646304	0.016985951	-0.010732375	0.04520443	-0.006584373	
-0.023785047	-0.009244525	-0.00080669345	0.047608543	-0.03443719	-0.037022296	0.045472596	-0.045798395	0.05216303	0.0042064064	
-0.003928165	-0.007432999	-0.007919514	0.035207354	-0.028994292	-0.0179653	0.021077134	-0.038077947	0.073208086	-0.014501057	
-0.0076703783	-0.0153761385	0.012293681	0.023106435	-0.014631846	-0.02260777	0.037995	-0.061119378	0.056099046	-0.012140152	
0.017056657	-0.01897335	-0.0008848188	-0.0013790344	-0.0156278	-0.026406297	0.01991182	-0.06698531	0.065545976	-0.010208206	
-0.0061345384	-0.0069072675	0.0061062113	0.000114600465	-0.042028435	0.002535676	0.014470241	-0.048780482	0.053618148	0.0030945262	
0.0055391854	0.0054151663	0.014226891	-0.012539236	-0.0038857055	-0.0013321687	-0.01516934	-0.032347098	0.04437751	0.0065209283	
0.019875428	0.0078115286	0.013762757	-0.0038703254	0.012048447	0.037926625	-0.026173206	-0.012721371	0.028996468	-0.023904605	
-0.000468263	0.010479805	-0.00829356	-0.030798597	-0.008159739	0.049163282	-0.0029579543	-0.012915422	0.005896754	0.0020544713	
-0.012118209	0.0028387972	-0.030624298	-8.879593e-06	-0.0029841166	0.028295824	0.007316946	-0.0056439866	0.019227114	-0.019149037	
0.0002732068	0.022822946	-0.012507809	-0.011562797	0.0013209098	0.024230927	0.0011972885	0.010715916	-0.0040446473	-0.0019157686	
0.0006502608	0.00078934507	-0.0028856995	-0.024421765	-0.0065949913	0.029692806	-0.008972227	-0.017738549	0.009395102	-0.0065037296	
0.0067093745	-0.004942889	-0.0011354848	-0.000558124	0.008143761	0.0075298985	-0.014524507	0.018503033	0.0049997335	0.0065528215	
-0.009355914	-0.0029000982	-0.009002819	-0.024565212	0.012823843	0.0020558462	0.0038685603	-0.010480756	0.021428684	-0.002755558	
-0.0077739474	0.008441896	0.0041525774	-0.011277044	-0.017754704	0.024397487	-0.00490644	-0.0037528793	-0.013482652	0.0083374735	
-0.0013666451	0.001991263	-0.004490486	0.0028686353	0.012248069	-0.0075635235	-0.0038345875	-0.0064373137	-0.004102796	-0.025061583	
0.010290813	0.010279082	0.010714411	-0.0072059366	-0.002863548	-0.009700096	0.0072922246	-0.0007191302	0.0021104428	0.0082761645	
-0.0031380954	0.004949782	0.013708105	0.0035691971	0.0068454677	-0.023896933	-0.015309237	-0.0039804997	-0.0011135583	0.006660073	
-0.0011523954	0.009949706	-0.0140339555	-0.0016457343	0.0016265946	-0.010876658	0.0015401742	-0.0125273075	0.012045493	0.003910877	
-0.009966315	0.0013455688	0.012851799	-0.0020329228	0.0068090768	-0.01299644	-0.0026613867	0.009530027	-0.006615343	0.0012793026	
-0.0018483754	-0.002046193	0.0039108563	0.0009933172	0.0034112127	-0.016613377	0.0011211309	0.0025224702	0.0068739112	0.0048478767	
0.0005439455	-0.022109749	-0.011247422	0.0129573215	-0.0020685664	-0.01617677	-0.028634699	0.007576065	-0.008882142	-0.0070995	
0.00612324	-0.023136342	-0.016247816	0.04202907	-0.002483955	-0.010079134	0.006940428	0.019711634	0.007469112	-0.0018759992	
0.017975338	-0.010975455	-0.014082596	0.023526372	0.00079325255	-0.027539626	-0.004243574	0.016955147	0.0020362157	-0.001604541	
-0.0049030767	-0.017207716	-0.04229927	0.037142556	0.006727809	-0.0014805885	-0.03325766	0.0021592183	0.017602816	0.018845515	
-0.021849534	-0.02313733	-0.015466837	0.047714356	0.021789627	-0.002846425	0.0023252538	0.0025836488	0.040149532	0.016068757	
-0.017398247	-0.02156574	-0.01668276	0.031033248	-0.014679857	0.00026913342	0.0036980116	-0.041927017	0.049858034	0.012643999	
-0.011304765	-0.022173112	-0.02415649	0.024045173	-0.036584057	-0.01380141	0.0026979567	-0.033953648	0.06729815	0.042692155	
-0.022350425	-0.026899245	-0.015084051	0.015195554	-0.022380592	-0.0075946203	0.018530935	-0.06201135	0.055547442	0.054090824	
-0.011909444	-0.019886697	0.004169641	0.05543895	-0.0346537	-0.028620044	0.039378736	-0.054000948	0.04269231	0.05305245	
-0.012716887	-0.00068541075	-0.015755404	0.024080569	-0.05277098	-0.018069934	0.019134576	-0.06193866	0.05919783	0.06426865	
-0.0071310783	-0.022829011	-0.002611453	0.030453263	-0.039915964	0.010332086	-0.005951328	-0.060870077	0.047274444	0.069836654	
-0.0013779993	-0.026004523	0.0038130833	0.0044449926	-0.024894409	-0.007670726	-0.02295615	-0.068287894	0.042726867	0.05344837	
-0.004349904	-0.015084473	-0.018327653	0.0066446187	-0.014827957	0.008071537	-0.018659612	-0.059172608	0.036869645	0.025768762	
0.0070224497	-0.010686915	-0.022259133	-0.0027327023	-0.025613362	0.029206263	-0.022194624	-0.042029116	0.036757033	0.016107626	
0.022911675	-0.013525358	-0.01031628	-0.03092431	-0.008714493	0.027340805	-0.012389066	-0.016274733	0.033449583	0.015458997	
0.0033298798	-0.014968612	-0.004860116	-0.006207903	-0.010766278	0.035070673	-0.016352553	-0.032706838	0.028129546	0.008567187	
-0.008209423	-0.022083016	-0.0045522847	-0.03000323	-0.007707351	0.03786755	-0.0062234676	-0.027738122	0.026447766	0.0025704924	
0.0024956865	0.007929161	-0.012067441	-0.01600147	-0.0004261616	0.04352029	0.0035343422	-0.023583964	0.0068397964	0.0014866579	
0.01478509	0.0034955468	-0.0020894958	-0.011328751	-0.01606174	0.010021212	0.011766714	0.0020787946	0.010670718	-0.0025305015	
0.00011977317	0.0011348608	0.01722269	-0.005185439	-0.0027084125	0.0031807036	-0.009989628	-0.0004329714	-0.0026244924	-0.0051643457	
-0.005288071	-0.004388175	-0.0023819224	-0.0006968555	0.0022055297	0.017950553	0.0001739403	0.011549655	-0.011327414	0.0012902634	
-0.0010110693	0.002841631	-0.01929796	-0.011030349	0.0053875437	-0.022426473	-0.002657078	0.007317691	-0.014379691	0.0019007588	
-0.016526524	0.005660328	0.019850371	-0.003073776	-0.0013173815	-0.006863151	0.007916521	0.006867145	0.016478159	-0.008773697	
0.012244832	0.023293504	0.010090305	0.010417161	-0.014843732	0.0032101863	-0.009519545	-0.015766408	0.010239461	-0.0006958597	
-0.005448962	-0.0036885254	-0.009073824	-0.017939625	-0.011470581	-0.00799788	-0.0005918871	-4.3551478e-05	0.017609725	-0.003902243	
0.010739535	0.0029680387	-0.008370429	-0.0130237555	-0.006517084	0.005306655	-0.0053328094	0.0052736606	0.0008291791	-0.003044095	
-0.0023599043	0.0007648455	-0.0009557924	-0.0062626475	0.008687954	0.0049807434	-0.003050331	0.016664332	-0.0026292272	0.011771935	
-0.007987777	-0.005509571	-0.013398617	0.011242156	0.010067092	-0.011618549	0.00094253407	0.009238583	0.0053345766	-0.0017271241	
-0.015385624	-0.006415635	0.00035881906	0.011640252	0.02118827	-0.015007364	-0.009177943	0.021175556	0.009958882	-0.011069121	
-0.008567112	-0.028669555	-0.0153499795	0.012423642	0.010992005	-0.01691963	-0.02538963	0.029354315	-0.0044869576	0.017932555	
-0.0032933566	-0.0072643477	-0.019626506	0.029727919	0.014478306	-0.006177585	-0.022766028	0.021079466	-0.01661865	0.01719726	
-0.003383766	-0.018423986	-0.017985055	0.019467803	0.0037103407	-0.007579823	-0.02035166	0.0266499	0.030307332	0.036392126	
-0.0073182588	-0.017553393	-0.020152502	-0.006928752	-0.0073038386	0.0007881621	-0.024964118	-0.0061985725	0.013870611	0.042670563	
-0.019643707	-0.029120892	-0.028733121	0.0041645495	-0.02834801	0.0087881945	-0.015876282	-0.014668964	0.03838707	0.08070681	
0.006354025	-0.034525707	-0.020800313	-0.008292145	-0.026494421	-0.009385419	-0.017875891	-0.009645315	0.014686733	0.08668892	
0.01033684	-0.037887346	-0.012906923	-0.0036435022	-0.048713252	-0.01798352	-0.010051282	-0.013221675	0.028956538	0.12167161	
-0.015000267	-0.007056648	-0.0033385183	0.0032883848	-0.057331815	-0.013946029	0.0033535021	-0.01894687	-0.02913966	0.14212392	
-0.00039666516	0.00903534	-0.015490737	0.016944109	-0.043975938	-0.0017374941	-0.013664273	-0.028140297	-0.0032102738	0.11959251	
0.0017795962	-0.025519656	-0.027013963	0.02126102	-0.053069513	-0.009682636	-0.0046901703	-0.024710031	-0.022784552	0.1269743	
0.0154344905	-0.03242688	-0.016900051	0.022495069	-0.03313266	0.007838075	-0.05454703	-0.033273045	0.0066491636	0.09516595	
-0.008410428	-0.015542245	-0.01118435	-0.011654332	-0.02712855	0.01543668	-0.063653074	-0.041792866	0.007199184	0.08258195	
0.0037604591	-0.012474446	0.011239292	-0.022695992	-0.015873559	0.04483089	-0.037672743	-0.0241551	0.01800234	0.05272086	
0.024193924	-0.010795586	-0.012859834	-0.014351234	-0.015640475	0.04929896	-0.021546025	-0.019101858	0.032109983	0.05707695	
0.021808432	-0.0073087853	-0.012717222	-0.02043807	-0.0092841005	0.043685287	-0.00429242	-0.035221346	0.027447289	0.013895182	
0.016333776	-0.009085569	-0.022048997	-0.016269542	-0.015662111	0.05304853	-0.015705012	-0.022201827	0.017725699	0.02089006	
-0.0022752874	-0.008086604	0.0066325106	-0.01320544	-0.0026429675	0.040193323	-0.0120337065	-0.03160339	0.022794237	-0.002353886	
-0.0052714655	0.0015493865	0.003590825	-0.012388952	-0.027993169	0.032527003	-0.0008697716	0.0014175422	0.02059667	-0.013278977	
0.0024396859	0.014684491	-0.002229906	-0.0048782434	-0.01105698	0.01487435	-0.0052687223	0.016354801	-0.0017644624	-0.0013107462	
0.0041847792	-0.005581293	-0.0071098264	0.0032014863	-0.02384998	-0.004015199	-1.3923213e-05	-0.012543296	-0.00014444256	0.017234012	
-0.0015715519	0.005430641	-0.0030208637	0.0061856974	0.003360158	0.016638877	0.005645887	-0.017512785	0.0016171193	-5.176999e-05	
-0.005718851	0.0036254595	-0.0051293373	0.0065086195	0.005113484	0.015200841	-0.0035738754	0.009263479	-0.0010331325	-0.009397328	
0.0015443367	0.004762789	-0.011214266	-0.017593076	0.0035315054	0.0039346833	-0.00029390736	-0.0036952307	-0.0070126858	-0.02152982	
-0.011026233	-0.0031794277	0.014029109	0.011174389	0.014032165	-0.0015695629	-0.019343413	0.0070296167	-0.00060409436	-0.0013286396	
-0.012000338	-0.0018743705	-0.0017565658	-0.0063376026	0.016956253	-0.008230221	0.0004961633	-0.0017298926	-0.003642041	0.01195479	
-0.024363266	0.0090082	-0.022399724	0.0019354364	-0.003653292	-0.0006876153	-0.008164381	0.00024972536	0.00033872007	0.0077926866	
0.01070125	-0.008690781	0.0067057437	0.013000664	-0.0025630025	0.008760656	0.01957098	0.009852139	-0.019306261	-0.025780007	
-0.018566258	-0.01645957	-0.016364036	0.020906953	-0.0069629904	-0.017316686	-0.028002596	0.036803134	0.0032572888	0.008574761	
0.003945342	-0.005234287	-0.028393883	0.02345143	-0.00033982948	-0.022829587	-0.030070825	0.018654948	0.00961154	-0.0023515706	
-0.0107452525	-0.019536652	-0.010792839	0.0016995452	0.004222265	-0.009238454	-0.035770606	0.025596296	-0.002102706	0.027820818	
-0.01003982	-0.025424473	-0.014633929	-0.035483964	-0.00055684254	0.008498793	-0.049380615	0.03426648	0.025248935	0.042071212	
0.02737414	-0.03190352	-0.010500033	-0.025525073	-0.015848698	-0.012759097	-0.029391646	0.03793042	0.022435555	0.073400065	
0.025460005	-0.05079711	-0.010348282	-0.01674179	-0.0185483	-0.008917875	-0.0028168352	0.024885679	0.0022586554	0.10741031	
0.017114734	-0.034560036	-0.031422872	-0.025714029	-0.028059052	-0.018262884	-0.01650747	0.032429066	-0.006392283	0.120483615	
0.01764935	-0.023686042	-0.009440846	-0.013523974	-0.043962725	-0.02460666	-0.0072228336	0.031706985	-0.029930139	0.12597542	
-0.019338466	0.027062323	-0.022617389	-0.029558536	-0.056523155	-0.019807117	-0.02610817	0.033612967	-0.038189624	0.1319547	
-0.013181347	0.014118431	-0.025790589	0.0039625596	-0.051710915	-0.01782236	-0.034488328	0.033167206	-0.043918177	0.10881822	
-0.020121742	0.017697763	-0.017455488	0.007147956	-0.042552207	0.023027556	-0.055921286	0.044105936	-0.053938646	0.12365191	
-0.015934361	-0.025227332	-0.017653344	0.009214887	-0.03126821	0.034794055	-0.038538605	0.03555697	-0.012025528	0.09812589	
-0.017436463	-0.03153505	-0.0017191115	0.02557741	-0.010579693	0.022728024	-0.048316814	0.008621968	-0.0032822555	0.07994731	
0.007918013	-0.030110316	-0.013036201	-0.026837638	0.0015938405	0.029367747	-0.051151942	-0.016120737	0.0137672005	0.07780964	
0.00424798	-0.010117537	0.008271428	-0.034139853	-0.0058170194	0.029499263	-0.04631805	-0.011460528	0.025683554	0.04972476	
0.031371024	-0.016246341	-0.014583217	-0.007298369	-0.0056081587	0.05821462	-0.029903123	-0.03187041	0.04297673	0.015897946	
0.020016557	-0.0066955215	-0.010001886	-0.01631338	-0.017142821	0.03865381	-0.021534184	-0.03578918	0.020130426	0.002476533	
-0.00051392306	-0.011062222	-0.008384951	0.0073801423	-0.0113621075	0.016323986	-0.0057124533	-0.03411663	0.015988328	-0.00922956	
-0.020112256	0.00731174	0.003747395	0.0012585722	-0.0042408314	0.014069869	0.002541156	-0.010797517	0.026287077	0.016055388	
-0.006453547	-0.013669582	0.007834505	-0.006790312	-0.006692703	0.009826948	0.0017684363	0.0039236993	0.015909173	0.015671909	
0.020867001	-0.009114376	-0.011807194	-0.010137449	-0.0018117535	0.0195348	0.011189863	-0.022993155	-0.0028164517	-0.0048478246	
-0.006112019	0.0031607887	-0.025171634	-0.017396662	-0.0062009916	0.013339129	-0.0047536967	0.005808332	0.014163202	0.0070057656	
0.00544546	-0.010965085	-0.002051802	-0.008633871	0.0020442184	0.012539891	-0.004552351	-0.021232821	0.0068365475	0.009296197	
-0.012321199	-0.0067380117	-0.008481363	0.0022710664	0.00857345	0.007907921	-0.013486452	0.016799428	-0.014409938	-0.0028733646	
0.00037928685	-0.008928998	-0.0013338787	-0.011554745	-0.0050037694	0.0014598111	-0.009934237	-0.015684303	-0.013942847	-0.0018555709	
-0.0060276156	0.012003311	0.0063052983	0.018745057	-0.012098721	-0.008518472	0.026400635	0.0059596123	0.016887557	-0.019788535	
0.008587393	-0.02005737	-0.0015337733	0.0033277394	0.014480163	0.006464564	-0.007099462	-0.0023387575	-0.0030762586	0.003077023	
0.0072115506	0.00013267026	0.02096092	0.0040945527	-0.010905021	-0.010535625	-0.00061536895	0.016052261	0.0006076035	0.0054699117	
-0.014015946	-0.02102454	-0.0027183467	0.01265243	0.0116487965	-0.000673359	-0.011572953	0.022294832	-0.0025047816	0.01565592	
0.014608214	-0.0073707015	-0.0031046309	-0.01233721	-0.0017993948	-0.005695616	-0.034294393	0.03200657	-0.0122024845	0.040500525	
0.022936486	-0.028193194	-0.004962258	-0.03192513	-0.0025965907	0.012968932	-0.037620585	0.04352848	-0.00026029994	0.06625976	
0.028016055	-0.02932347	-0.0095926365	-0.028392827	-0.009891132	-0.004159511	-0.0199995	0.04699552	0.0051576607	0.0712195	
0.019694753	-0.02885543	0.010898188	-0.056110878	-0.02578053	-0.025929658	-0.027035553	0.03639692	0.023312982	0.107436374	
0.017679343	-0.042300995	0.0046119685	-0.03841319	-0.032051716	-0.0034494665	-0.059055485	0.035796303	-0.010208792	0.115303755	
0.04344872	-0.024867289	-0.02037523	-0.045400154	-0.037822124	-0.0146697145	0.0024957655	0.024967594	-0.023123357	0.112922594	
-0.0006760249	0.017081968	-0.020882856	-0.027194576	-0.031049054	-0.008489702	0.01070226	0.0531801	-0.03032919	0.09173895	
-0.011324277	0.018269544	-0.0050451607	-0.015573452	-0.05350156	0.0044699116	-0.015646093	0.065394856	-0.038067225	0.0820417	
-0.015962448	0.040309716	-0.018639488	0.0044550668	-0.044187617	0.013094622	-0.044223048	0.050488874	-0.036887486	0.07970992	
-0.022206236	0.013276762	-0.0302167	-0.0011737952	-0.056107584	0.013586629	-0.060773946	0.04100012	-0.027898258	0.062044397	
-0.015200469	-0.017882144	-0.02262394	0.014641358	-0.01546048	0.0031955526	-0.08012223	0.06285697	-0.035237473	0.11407911	
-0.01568398	-0.025614217	-0.0025198483	-0.011911117	-0.010775581	0.0037449487	-0.07600607	0.02575598	0.008435447	0.09688447	
0.015610633	-0.027368532	0.0031725212	-0.03164653	0.0012492476	0.013681225	-0.061743278	0.0088514695	0.012641706	0.051457454	
0.040157825	-0.021065569	-0.009797305	-0.023349863	0.012228716	0.033364553	-0.02731358	-0.021885648	0.031982876	0.044175092	
0.0423579	-0.025336612	-0.016750177	-0.03220778	-0.0065208874	0.0151881445	-0.050360683	-0.055194125	0.037048694	0.011238324	
0.02525499	0.0024297936	-0.005588646	-0.016022136	-0.0037444097	0.013607296	-0.017915305	-0.008549835	0.033210892	-0.0012835837	
0.018285228	-0.016127715	-0.013904664	-0.014966459	-0.017320206	0.019198218	-0.018780582	-0.03074129	0.017904578	0.0063970503	
0.00022906199	-0.010007367	-0.00032805227	-0.0010899653	-0.009062716	0.026330562	-0.0061607296	-0.013786686	0.028786855	0.0043735825	
-0.011548837	-0.012471024	0.01905259	-0.008485037	-0.026254442	-0.0007406161	-0.016841931	0.0070021194	0.011173155	-0.0013461587	
-0.005392927	0.0046982784	-0.004300479	0.011614484	-0.007312757	0.017196372	0.0058563952	0.00801752	-0.011145937	0.017376471	
0.029859941	0.0040260484	0.0049930215	0.0023825942	0.005898371	0.006637222	-0.020124681	0.0052483296	0.010230482	0.0026670145	
-0.01646936	-0.009867721	-0.01313698	0.0005287661	0.010727714	-0.014325405	0.0026436495	-0.004443411	0.0034351568	-0.009129824	
0.016451336	-0.023817495	0.0099347625	0.009055504	0.0027965836	0.0039814212	-0.011343471	0.007429214	-0.015658977	0.0028791588	
-0.012220199	-0.017237268	0.008346978	0.014223221	0.001936383	-0.005117398	0.0059089065	-0.0014194701	-0.015032034	-0.0103920875	
0.00286761	0.021443384	0.01149952	-0.0032762648	-0.000472737	-0.015013859	0.003425587	0.009284799	-0.0028193009	0.0014996177	
-0.008692641	0.01442333	0.0040677283	0.011830486	-0.01898788	0.0011215603	0.011880672	0.030706469	0.004634621	0.015407127	
-0.017822552	-0.0042807055	0.0049942527	-0.006143322	0.0065556006	0.00010352429	-0.0036959136	0.019730473	-0.0034426255	0.017664196	
0.013922012	-0.0027158405	-0.005702777	-0.010319877	-0.0005821772	0.0074312766	-0.027841536	0.0041240924	-0.02808715	0.024256613	
0.0014399765	-0.04079119	0.013974325	-0.016022308	0.012950655	-0.016615182	-0.018651096	0.022020025	-0.009903973	0.042193912	
-0.00083003734	-0.02357023	0.010035153	-0.018464608	0.00819179	0.0061205463	-0.019079635	0.029585442	-0.015692078	0.05514117	
0.028730335	-0.02229042	-0.014404733	-0.042251643	-0.0011350104	-0.0048511936	-0.023152452	0.0069106217	-0.0042528473	0.08443836	
0.0064524827	-0.025670031	-0.00048286628	-0.055766128	-0.008204406	-0.014504055	-0.0055729956	0.0057729897	-0.014201266	0.102925554	
0.0043830294	-0.036752082	-0.014275965	-0.05501848	-0.025336634	0.015921887	-0.0050730505	0.005175455	0.0042422325	0.08758492	
0.016778568	-0.027109167	-0.019476447	-0.03129703	-0.026080094	-0.009336589	0.011830234	-0.0021076833	0.0028090521	0.0678799	
-0.01729207	0.019597923	-0.040725783	-0.00025424975	-0.04737388	0.0064503187	-0.0041242433	0.018389104	0.008626733	0.04692364	
-0.03123176	0.038789086	-0.039549388	0.03294423	-0.053061046	0.012435392	-0.01711409	0.020730346	-0.009045988	0.012150017	
-0.038495746	0.052662652	-0.03965786	0.0116666	-0.034332477	-0.0017606069	-0.024608366	0.017630273	-0.011385312	0.018972004	
-0.050081488	0.024961142	-0.044930723	0.014574326	-0.015099485	0.013393674	-0.088389315	0.032918658	0.010960941	0.064992905	
-0.018439334	-0.015209464	-0.03401854	0.01876324	0.014258767	-0.006745155	-0.0740131	0.038861886	-0.009844925	0.09146786	
-0.0054590707	-0.051933326	-0.0032585165	-0.024039978	0.03511912	-0.014445425	-0.071383595	0.024152255	-0.00818651	0.1123647	
-0.0016392237	-0.04431488	0.0075800656	-0.021578815	0.029742109	-0.028882496	-0.04803216	-0.007964074	0.014140624	0.08336022	
0.021137916	-0.03604229	0.009789874	-0.01534677	0.0073089735	-0.019854872	-0.042613667	-0.014773306	0.016308498	0.05083374	
0.03367417	-0.009790863	0.0018737509	-0.022292463	0.0072557065	-0.022376243	-0.03669634	0.0023846026	0.027957419	0.019764116	
0.028599001	-0.029586112	-0.023644866	-0.0067932806	-0.012971451	0.0059325146	-0.031054769	-0.01678346	0.043548744	0.018352205	
0.026733782	0.011391025	0.008532538	0.0030380357	-8.834785e-05	0.008565171	-1.838084e-05	-0.00877081	0.0019165281	0.012197493	
-0.018991036	0.004933992	-0.007714985	-0.014073822	0.0012717631	0.005464463	-0.0010584866	0.0018862374	0.0072503956	0.0059278635	
0.0061163083	2.6881987e-06	-0.0005670946	-0.00014540595	0.010483178	0.0068307226	-0.008261591	0.0067381943	0.009663668	0.00055118854	
-0.007437001	-0.010366681	0.008722126	0.0042272843	-0.0011530678	-0.0035915065	0.003955528	-0.005251114	-0.0020137767	0.005976097	
0.01865329	-0.004176835	0.004156513	-0.019650156	0.011596736	0.0057877623	0.0132638775	0.023180593	0.0010468612	-0.0008076582	
0.0027264373	0.026932541	-0.0032167286	0.018825462	-0.0075884196	-0.0071318094	0.0061572315	-0.006815288	-0.011187454	0.00021115298	
-0.0133338915	-0.010072013	-0.008328105	-0.00054114655	0.00050653	-0.008392355	0.0069768406	-0.0015078323	-0.0007080375	-0.006666095	
-0.006986972	0.0033602722	0.0065261577	0.008083952	0.02137982	0.002054454	0.010490055	0.020335551	-0.004253489	0.0016945618	
0.0025344873	0.0023106965	-0.00090927933	-0.009731539	0.016506435	0.0042364644	0.002840915	0.005648137	0.006811235	-0.0056743403	
0.0052896766	0.008788284	0.0084052095	-0.019868964	-0.01834368	-0.0004880725	-0.014418383	0.024934191	0.0069212774	0.008742962	
0.0038077817	0.0060347538	0.01727507	-0.003975317	0.022226434	-0.0076738927	0.00075585104	0.0056217024	-0.0062956666	0.027142169	
0.0012310714	-0.005777322	0.008317119	-0.014135454	0.012980837	-0.016646044	-0.0049175336	-3.3771666e-05	-0.008759451	0.040600117	
0.011918344	-0.0035701622	-0.0053290795	-0.024205187	0.0075641563	-0.02603666	0.0015577667	0.016839234	-0.028124481	0.04772934	
0.046888527	0.0020010187	-0.016438372	-0.047074683	-0.0051006074	-0.013569873	-0.012243547	0.004360901	-0.0309884	0.06622977	
0.012859029	-0.04486077	-0.0066087265	-0.059407674	0.011914412	0.00048802746	0.00041584962	-0.01264731	-0.034442894	0.1099757	
0.021258408	-0.024933122	-0.026100978	-0.04694549	-0.010769355	0.003740293	0.02892111	0.010061157	-0.016086157	0.09969113	
0.002154213	-0.036732752	-0.031197663	-0.05340398	-0.019492332	0.02760608	0.026977679	-0.021363208	0.0008592541	0.08850387	
-0.0011033516	-0.028445363	-0.04280902	-0.022227658	-0.014795265	0.02772779	0.050764833	-0.047077183	0.054095842	0.044174954	
-0.011483223	0.015201413	-0.074812286	0.013507805	-0.019155338	0.01016641	0.013725441	-0.03219738	0.03459402	0.0065268814	
-0.04708614	0.05541787	-0.056652777	0.051814284	-0.052530117	0.011212638	-0.00063663226	-0.016071875	0.0098064635	0.02915901	
-0.0700451	0.07834172	-0.048178323	0.047418088	-0.020916972	0.008165062	-0.023746805	-0.016318504	0.020726915	0.04818084	
-0.03937736	0.043596633	-0.016692443	0.023947047	-0.009599201	0.009350527	-0.06880983	0.01744359	0.021653166	0.09101166	
-0.03978678	-0.01790118	-0.021370705	-0.011619945	0.02026229	-0.010645346	-0.06290716	0.035243187	0.009884822	0.13190354	
-0.030215595	-0.039260972	0.025840469	-0.013296548	0.024623668	-0.025895186	-0.041877165	0.002018174	0.0028516208	0.107219234	
-0.017443761	-0.0250525	0.008838101	-0.008289929	0.018852165	-0.05101277	-0.027016766	0.015019292	-0.0013372278	0.09761577	
0.017852392	-0.028866462	-0.01966516	-0.038088825	0.015037306	-0.018359995	-0.018338678	0.0012389945	0.018762693	0.041632038	
0.03167768	-0.02404653	0.0007358909	-0.006023557	0.0005569536	-0.017267192	-0.03026907	-0.008662326	0.017305687	0.011065328	
0.039120805	0.005478052	-0.0003272522	-0.0049944133	0.00037329888	-0.0074504134	-0.015821628	-0.022843232	0.007849112	0.0075458875	
0.025766646	0.0063190768	-0.002058261	-0.0068085114	3.86326e-05	-0.0028939797	-0.016842877	-0.009089939	0.01218086	-0.0042536007	
-0.0007721331	-0.0071618827	0.013459438	0.0013263499	-0.005774434	-0.003475101	0.010185269	0.010020924	0.016112607	-0.002564922	
0.016646804	0.019861989	0.0064831693	0.005211196	-0.0023045302	-0.0035902977	0.0177292	-0.00999041	0.006255162	-0.013662948	
-0.01639959	-0.005795356	-0.0010963915	0.015986415	-0.020693485	-0.00046542054	0.021930559	-0.00760393	0.0067683775	0.01663711	
-0.017089058	-0.0056149126	0.011598371	0.000910516	0.0056854934	-0.015986416	-0.0031333014	0.0030179045	0.016038865	-0.015627284	
-0.010553192	-0.01148182	0.0013951637	-1.0806558e-05	-0.0056151687	0.0022254505	-0.013802745	-0.02165133	0.009775236	-0.004631647	
0.0016883529	-0.005139845	-0.006165266	0.009371058	-0.0042366344	-0.01860032	-0.016758986	-0.0026255785	0.0027433925	-0.009983388	
0.022092946	0.002755987	0.009871818	-0.009900579	-0.009343608	-0.010759323	0.011043459	-0.01734895	0.009667086	-0.011558907	
-0.0031444237	-0.008032251	0.0066638147	-0.0018117783	0.00074084266	0.0166825	-0.020393085	-0.015339006	-0.0037238568	0.016884387	
-0.018529087	0.013554742	-0.0049206726	0.0020538257	0.0016005258	0.009851495	0.0074659064	-0.0009548461	-0.01991852	0.006194093	
0.0012588354	0.010736146	-0.01603747	-0.0034001032	-0.0034825068	0.0039738775	0.0066078557	0.0028487397	-0.021087153	0.028416188	
0.0012923607	-0.00752952	2.6340264e-05	-0.033572696	0.005160613	0.005180466	0.000504509	0.00782131	-0.021253102	0.060449447	
0.013774665	-0.029387003	-0.014161965	-0.041516498	0.021252273	-0.0036800758	-0.027184073	-0.0010883901	-0.043368407	0.058655806	
0.024889566	-0.04385804	-0.014877119	-0.044428833	0.038043275	0.010024716	-0.0030809834	0.007827466	-0.028014157	0.06527346	
0.02456203	-0.013326159	-0.019059395	-0.039284464	0.00043242352	0.016900474	0.0061401073	-0.0065617333	-0.026977142	0.103125565	
0.035237744	-0.025827607	-0.03837021	-0.05478496	0.00012308663	0.040996082	0.020076025	-0.020526767	-0.034186147	0.09694368	
0.001713971	-0.03212227	-0.054195687	-0.020912565	-0.03676549	0.018760577	0.019149149	-0.047411036	0.01524747	0.06256057	
-0.015226015	-0.019786336	-0.05364069	-8.405393e-05	-0.043461457	0.025319628	0.030669814	-0.04962141	0.050571684	0.03449608	
-0.038128115	0.02205928	-0.056023315	0.03599896	-0.02870212	0.03673535	0.01546393	-0.039812732	0.06343227	0.029650223	
-0.086697586	0.071974985	-0.048813354	0.048834246	-0.023360386	-0.00086878607	-0.015731031	-0.0535709	0.060158826	0.047253244	
-0.07131647	0.076074965	-0.07033141	0.02490991	-0.027505554	-0.0057713822	-0.01939211	-0.034498084	0.015259365	0.07937533	
-0.08375945	0.004128174	-0.03576434	0.011911572	0.0053826543	-0.002219217	-0.05272754	-0.0050055617	0.009082288	0.09822456	
-0.050463278	-0.0598512	-0.0043665813	-0.020143056	0.030950775	-0.024751991	-0.023919962	0.029731795	-0.0009394787	0.15428421	
-0.039416593	-0.058493774	-0.0068082693	-0.011897679	0.032290272	-0.04400527	-0.0323173	0.009061276	-0.024529058	0.12219316	
-1.503029e-05	-0.03802188	0.014363083	-0.026303494	0.018291814	-0.015291262	-0.014102785	0.0114856865	-0.011700106	0.061035912	
0.016010387	-0.015797492	-0.008962937	-0.0049908846	0.006978356	-0.01851825	0.016474916	0.019634558	0.008983451	0.047708616	
0.046607215	-0.00088243326	-0.014236756	-0.0030949414	-0.016085282	-0.031052392	0.004342739	0.009965683	0.008272755	0.0032005657	
0.02854011	-0.011883125	-0.011468436	-0.01080553	-0.0042211195	-0.001759896	0.00393511	-0.0021276944	0.00458182	0.017451309	
0.04011013	-0.01874148	-0.036145467	0.012647175	-0.02065029	-0.012817296	-0.007504347	-0.0065850173	0.0070368303	-0.00075955305	
0.029765017	0.00884939	-0.017538577	0.002089947	0.00162509	0.016785668	0.018310925	0.01744539	0.012050215	0.007877014	
-0.01224471	0.0024412458	0.006507925	-0.008127581	-0.0062821056	0.009339914	0.0058328626	0.012422542	0.00068717636	-0.010195495	
-0.008906804	0.008753782	0.014730498	0.008043411	-0.02379807	-0.013926274	0.004039923	0.019206664	0.005492253	-0.006004679	
-0.0069103064	0.021766307	-0.00949499	-0.0016022787	0.017199732	0.0047719013	-0.009993206	0.0064354553	-0.0037978492	0.00456583	
-0.01738213	0.009126857	-0.008065363	0.009038193	0.0046927994	-0.008525963	0.0009936532	-0.0014731358	-0.0023899986	-0.0074965106	
-0.016219696	-0.0006195833	-0.0060373396	-0.0076643256	-0.008959441	-0.01443887	-0.014294621	0.0030756711	-0.0030779706	0.0012823398	
0.0016264463	0.011998801	0.0012178267	0.0018629351	0.0059476206	-0.007571956	0.0067587267	0.0026777822	-0.02116817	0.0014754492	
-0.0027565905	-0.006336759	-0.0132149495	0.0015415427	0.01708489	-0.0018345589	0.007744983	0.0066990503	0.004476804	-0.0067318217	
-0.008191149	0.00095393986	0.009554051	0.0075514396	0.0029891385	-0.0005994768	-0.019771162	0.005086244	-0.017414257	0.010363798	
-0.0051734205	-0.00060359505	-0.009862891	-0.0050026667	-0.00017721576	-0.0052081784	-0.017377103	0.0014817144	0.010743025	-0.010038868	
0.016682213	-0.01330677	0.0063324077	-0.023092436	-0.0040566497	-0.01437027	-0.001976071	0.01428917	-0.027215103	0.03955975	
0.011175345	-0.007622323	-0.008782198	-0.020636395	0.016516754	0.017133621	-0.009508699	0.008765518	-0.03512368	0.05523851	
0.02707137	-0.007130567	-0.05342128	-0.0599826	0.010485649	0.032147396	0.009956852	-0.0005908734	-0.039526496	0.0789027	
0.028032525	-0.027991273	-0.04090543	-0.04274556	-0.0029563787	0.027632736	0.044235066	-0.026491355	-0.05147215	0.092530325	
0.025018549	-0.032760624	-0.04876557	-0.035889193	-0.009395913	0.04230076	0.035714496	-0.016102422	-0.037564546	0.08850322	
0.00989243	-0.036217432	-0.07020457	0.0046763453	-0.039866563	0.016080478	0.040914156	-0.03417695	0.01373769	0.055289622	
-0.01595255	-0.020357344	-0.064232856	0.03811241	-0.018116578	0.02304902	0.017697627	-0.08691504	0.06185742	0.05694752	
-0.055866413	0.047292963	-0.043043684	0.029797727	-0.049597032	0.007994887	0.014165833	-0.070826784	0.06023945	0.08783138	
-0.0876862	0.07327978	-0.04211282	0.039863084	-0.014103305	0.013188135	-0.01000642	-0.06138172	0.032617398	0.06705788	
-0.08048987	0.051201757	-0.038284894	0.024433777	-0.008079595	-0.010822941	-0.0066416487	-0.045002636	0.033727363	0.10105488	
-0.074523926	-0.013130819	-0.042519815	-0.0034394292	0.025797661	-0.0042150468	-0.013639961	-0.006464133	5.4194643e-05	0.13760678	
-0.04803355	-0.06172672	-0.026754089	-0.018344833	0.008518185	-0.02108202	-0.012173545	0.016889373	-0.05755366	0.15056622	
-0.0445801	-0.05518235	0.007442128	-0.029984418	0.027903216	-0.04276022	-0.009718908	0.041482277	-0.031161968	0.117613494	
-0.027584242	-0.018432649	0.004785018	-0.018372206	-0.00082391966	-0.0383826	0.022547456	0.020971626	-0.02699431	0.06985419	
0.019873738	-0.011426102	-0.010750934	-0.022615865	0.0024975995	-0.024875224	0.027250875	-0.0005115913	-0.0012689667	0.02905411	
0.043777306	-0.02551934	-0.004569716	-0.0122736255	0.015864339	-0.022350805	0.016821211	-0.0038166447	-0.001336476	0.030410962	
0.053705934	-0.0040532215	-0.010769769	-0.0017382455	-0.016465789	-0.017649159	0.008926494	-0.0027638606	-0.008433623	-0.004280407	
0.031889316	0.0094420705	-0.008557135	-0.0049328236	-0.009212447	-0.0056041554	0.011731698	0.002186974	0.00856131	0.005741208	
0.01347632	-0.0091356095	-0.007975475	-0.00826551	-0.016197976	-0.0075435773	0.0012275542	-0.0073712342	-0.019083956	-0.0060648005	
0.0077658705	0.003866066	0.00510876	0.020370807	-0.011218339	0.0005362987	0.014000028	-0.010774663	0.0026632724	0.006118116	
0.0052368846	-0.0018160499	0.02170714	0.0064858533	-0.011880561	0.0021900223	0.021185225	0.010323224	-0.0034225234	-0.012850354	
0.0067756153	-0.011770747	-0.006850947	-0.0045285868	0.0006624638	0.0030295795	-0.0064140246	0.0052595744	0.012623766	-0.0221152	
0.031146975	0.016102586	0.014311775	-0.007925269	-0.00038431791	-0.014093573	-0.009051585	0.008951606	0.0075402306	-0.02059149	
-0.0047289208	0.015557806	0.004265959	0.008875495	-0.015829632	-0.008193235	0.017947363	0.01448242	-0.011099064	-0.0061355424	
0.009878244	-0.001061744	-0.01250096	-0.009511097	-0.008171247	0.008331267	0.017023725	0.0031262347	-0.008517609	-0.0061763865	
-0.0025638356	0.003570445	-0.012920133	-0.0055271457	0.010854584	-0.0032623538	-0.006645973	0.0068489853	0.010289951	0.013489701	
0.010411484	0.0011949004	-0.010930885	0.0046865586	0.002478332	0.0022234668	-0.009865205	-0.005004943	-0.028442007	0.008263371	
0.015623263	-0.0002621283	0.0010149254	-0.01757631	0.008184928	0.0089511555	-0.0031447269	0.006791408	-0.006588823	7.8686644e-05	
0.040675048	-0.01395301	-0.012244611	-0.008056644	0.0072996938	-0.0060698967	0.023785062	0.0038016953	-0.034706216	0.030278897	
0.027524434	-0.015470525	-0.01836238	-0.03268761	0.008242805	-0.0066386564	-0.010179691	-0.0077962237	-0.03591365	0.058367427	
0.046055637	-0.013640539	-0.04434566	-0.05233274	0.03875729	-0.007678839	0.026494758	-0.0045499476	-0.054281298	0.0844236	
0.014846515	-0.023652652	-0.047113933	-0.04379028	0.02894637	0.00566931	0.047677737	-0.011168126	-0.045294262	0.08978544	
0.005486013	-0.016737565	-0.04629358	-0.031142095	0.0068557123	0.031299938	0.039154235	-0.059284784	-0.019620053	0.1011887	
-0.026986111	-0.020142583	-0.02274176	-0.027389634	-0.019516757	0.015112747	0.03320287	-0.056468878	0.023351422	0.07507797	
-0.026479859	-0.008146212	-0.0112373745	0.0035662786	-0.004474711	-0.00445698	0.012968494	-0.06350111	0.047375064	0.09087716	
-0.09003532	0.051388178	-0.015230876	0.004917725	-0.005358715	-0.018160868	0.0030363365	-0.063809425	0.0638904	0.0728335	
-0.08569956	0.08218573	-0.04742149	-0.015249535	-0.028574236	-0.012465604	0.0065922528	-0.07749555	0.059339117	0.09687436	
-0.0697032	0.024576634	-0.034713697	-0.021726266	0.02467954	-0.03834002	-0.009899328	-0.036962215	0.043835156	0.13751984	
-0.053032465	-0.04198479	-0.02275138	-0.02600334	0.053633545	-0.040314343	0.016351439	0.02763256	-0.03007264	0.14746349	
-0.051645465	-0.064702064	-0.01832166	-0.021596447	0.04323882	-0.017588455	-0.026809173	0.027435616	-0.05879079	0.15149102	
-0.026226176	-0.041753422	-0.03364942	-0.01778017	0.00911426	-0.023222666	0.0092697805	0.03539583	-0.044569958	0.119442776	
0.0040367176	-0.026660582	-0.025344688	-0.02718944	0.011573386	0.0017986214	0.014618717	0.011835056	-0.024750106	0.041914437	
0.006729637	-0.027020553	0.009552698	-0.00381535	0.010518448	-0.030616447	0.010952892	0.00948975	-0.00056473515	0.033877224	
0.022797855	-0.010643235	-0.0041312925	-0.015102249	0.021538885	-0.028579263	0.051941365	-0.009581629	-0.005262934	0.006818963	
0.036287073	0.0006389536	-0.018166998	-0.0041473163	-0.026948962	-0.010994444	0.02137869	-0.01099851	-0.019642605	-0.0011753779	
0.027573897	0.005710142	-0.004374974	-0.0023108146	0.0038051738	-0.0041113314	0.0018018127	-0.02900346	-0.009607264	-0.0076732654	
0.021997428	-0.007653828	-0.0024569675	-0.0070536626	-0.007815749	0.0057615377	0.019324291	-0.0015885168	0.0004111727	-0.009006086	
-0.0252138	-0.0018457246	0.009081555	-0.017802294	0.000685958	0.004786465	-0.008824261	0.0032850557	0.0010504139	-0.020028774	
0.0065406393	-0.015441243	-0.009975302	-0.0067822468	-0.0075171953	-0.022366589	-0.0061546233	-0.0010792686	-0.008836215	0.020287214	
-0.012219865	-0.009802772	-0.021267753	0.010273808	0.010172433	0.036618553	-0.007179819	0.011605008	0.008423647	-0.00709365	
-0.0043662786	-0.004198115	-0.017374989	0.012291771	-0.0014090074	0.009227312	0.022484299	-0.0058047813	0.0010158172	-0.0023616932	
-0.013552851	-0.01046691	0.00816246	0.0063793724	0.011540778	0.0020796123	0.013099983	-0.015342254	-0.00466141	-0.0037404688	
0.009955496	-0.010519781	-0.006754737	-0.008577047	0.0047228867	-1.1010378e-05	0.014525336	0.0043089623	0.017064285	-0.012154879	
-0.0048645604	-0.0058116405	0.01426087	0.018717216	0.017647618	-0.0021561712	-0.01068101	-0.009433045	-0.0020371205	-0.009176095	
0.019902475	-0.01441028	-0.0015927249	-0.0027555171	0.00269595	-0.006033662	0.011257941	0.0007179631	-0.008750465	0.023261325	
0.02663802	-0.00972879	0.0025046107	-0.011104718	0.032227337	0.003076659	0.0047130873	0.017380735	0.017574223	0.0006049527	
0.026986152	-0.018833164	-0.016363518	-0.024044082	0.029290209	-0.025378766	0.00097596995	0.00041581108	-0.01992116	0.034662	
0.03954501	-0.01514341	-0.006694618	-0.047882207	0.0071207387	-0.014123967	0.014542633	-0.01609736	-0.044193767	0.053601943	
0.018486883	-0.00802316	-0.024515871	-0.050575886	0.044301547	-0.0011825955	0.019684635	-0.02348923	-0.04440725	0.07317002	
0.0072189663	-0.034897197	-0.0108924685	-0.039669674	0.028844364	-0.0041584806	0.038459312	-0.027447838	-0.04862277	0.08450474	
-0.014776502	-0.052212656	-0.009317863	-0.0334406	0.024880886	-0.017650187	0.044864696	-0.04671366	-0.023745786	0.09504258	
-0.02492233	-0.039048254	-0.010957256	-0.031949483	0.032557704	-0.025466355	0.023834828	-0.053946506	-0.00039476415	0.110840395	
-0.071056865	-0.03367358	-0.0061542047	-0.03135048	0.029083034	-0.018481992	0.02141368	-0.05876978	0.050142955	0.08195727	
-0.1074433	0.048329733	0.02226396	-0.037553083	0.009372397	-0.020963065	0.0072620134	-0.06320941	0.052270096	0.07698048	
-0.07708567	0.06904607	0.026839007	-0.042896256	0.00837687	-0.028474702	0.0022561953	-0.044258825	0.040341984	0.1026309	
-0.100075185	0.012202438	-0.017270291	-0.05537493	0.034081288	-0.026139455	-0.007735827	-0.003477806	0.01742641	0.1442011	
-0.07963345	-0.065330826	0.017122934	-0.03929717	0.04859385	-0.015784264	-0.026874732	0.008286068	-0.020273304	0.16385324	
-0.04833905	-0.054209337	-0.02317059	-0.014904084	0.026235009	-0.0073448224	-0.02127995	0.047249172	-0.044835523	0.14067233	
-0.024829566	-0.03792528	-0.034825806	-0.00939253	0.007880869	-0.004522798	-0.010623616	0.045029577	-0.06289892	0.100675136	
0.019250017	-0.027875308	-0.022061799	-0.019287394	0.005567118	-0.012096904	0.012840683	0.01657782	-0.019264078	0.05120458	
0.037709657	-0.014218471	-0.02717314	-0.0061775944	-0.0076689296	-0.018403513	0.014445251	0.017218497	-0.01729099	0.03568969	
0.034524612	-0.007593791	-0.01306005	-0.01057107	0.0024943186	-0.021614954	0.03373428	-0.0127838105	0.0021610952	-0.0075182263	
0.02847392	-0.008909456	-0.016233377	0.00047248043	-0.001509053	-0.0232182	0.032238405	-0.0064192074	0.0019189153	-0.005059415	
0.029529842	-0.006216725	0.004757968	0.0026778309	-0.013209168	-0.025011873	0.0032506478	0.003596988	0.009239501	-0.003116432	
-0.00017276745	0.011091958	-0.000118389755	-0.007866903	-0.012886897	0.009950293	0.0036678854	-0.0039196955	-0.025355492	0.012150389	
-0.013526679	0.0067895874	-0.005497937	-0.017090732	-0.011195249	0.0067535015	0.017355101	0.0011708335	-0.0043232623	-0.0027109194	
-0.012508395	-0.008118692	-0.00934206	0.0064241057	-0.0017825586	-0.0029653732	-0.012871198	0.014848856	-0.01997087	0.008618132	
0.0051207882	0.0208329	-0.000477824	0.0020225358	-0.001587351	0.021496844	-0.004667479	-0.0071716686	-0.011799617	0.006890887	
-0.015507969	-0.011422292	0.010856367	-0.0019020052	3.5131066e-05	0.0029426438	-0.0076700076	0.006936534	-0.017596321	-0.0012980173	
-0.0012970022	0.0020651117	0.006447696	0.0019686925	-0.009083629	0.00547006	0.00014207797	0.0068598026	0.004251828	-0.011763473	
-0.0027955277	-0.019188957	0.011088511	0.011548493	-0.00459353	0.008846767	0.00021938	-0.0020395257	-0.004720499	0.011078454	
-0.014374	0.026920984	0.0143678095	-0.00605577	0.009137273	-0.0039003638	-0.02178782	0.0034259143	0.002579286	0.0006224454	
0.01444955	-0.011941499	0.0018272821	0.008560009	0.012576001	0.008998271	-9.825113e-05	0.008899024	0.009948024	0.003456815	
0.018077742	-0.012588557	0.012206631	-0.016780486	0.010759767	-0.00875739	0.0014348287	-0.0062544197	0.0075770034	0.0010853708	
0.02800872	-0.025165634	0.027895523	-0.019015513	0.013630013	-0.015745616	0.002349762	0.0029466026	-0.007253847	0.013003873	
0.047442563	-0.035799213	0.0011186925	-0.03119762	0.014130028	-0.023617394	0.0022922736	-0.013080789	-0.013901912	0.011991472	
0.015014881	-0.034524377	0.01730951	-0.03479761	0.014822814	-0.0130228475	0.039853126	-0.024337389	-0.015746146	0.032884043	
-0.0010628179	-0.035766575	0.028653275	-0.048709434	0.025659788	-0.020854754	0.038843784	-0.026845424	-0.026753535	0.06639826	
-0.0015589274	-0.033003982	0.026963625	-0.060201045	0.043732025	-0.041229032	0.04580557	-0.050231785	0.0015887567	0.09822941	
-0.023151493	-0.030024856	0.04130111	-0.04360515	0.04038913	-0.026520438	0.053595837	-0.038169045	0.046021495	0.07567852	
-0.069226585	-0.004587836	0.034053057	-0.05317631	0.027806258	-0.042302534	0.0030325311	-0.06511978	0.058360107	0.08002325	
-0.09686145	0.051146645	0.031359073	-0.047736593	0.026280053	-0.042386543	0.0032146075	-0.028528767	0.05053917	0.09414166	
-0.096093215	0.035727005	0.03500098	-0.06302995	0.03178391	-0.023192488	-0.0021606234	-0.01750001	0.011380678	0.107704945	
-0.076117024	0.0016892152	0.012741823	-0.048183464	0.049262412	-0.03187585	0.0053468174	-0.008857815	-0.011271375	0.13995516	
-0.07147591	-0.042076603	0.019973079	-0.04501033	0.057943195	-0.027732793	-0.021513915	0.023966743	-0.04200511	0.14831448	
-0.035039205	-0.051589098	-0.0009542142	-0.026394702	0.021681208	0.003447571	-0.028179372	0.0474411	-0.026110074	0.11598805	
-0.0018402119	-0.044068504	-0.04520529	-0.013631577	0.015763478	0.003725066	0.015664378	0.032987114	-0.029942028	0.079358496	
0.015346422	-0.028496377	-0.03189331	0.01682244	0.0050139804	-0.00582121	0.008541825	0.011894898	-0.01690464	0.015745888	
0.044775534	-0.027163677	-0.03274848	-0.0037295213	0.0005390772	-0.0064957677	0.039086703	-0.0015067842	-0.016796574	0.021226615	
0.020647705	-0.017043946	-0.0034636913	-0.0040022014	0.01745733	-0.013938383	0.019750467	-0.011356157	-0.011703352	0.015780436	
0.031361632	-0.029191945	-0.004183067	-0.006606262	-0.009973715	-0.015560362	0.016891591	-0.0073323995	-0.011633686	-0.0049544265	
0.014735892	-0.001215234	-0.0009632216	0.00866116	-0.003883581	-0.021977764	0.017596124	0.021560827	0.009309788	-0.010438636	
-0.0042994083	-0.011330362	-0.0070597106	-0.012477022	0.0057223067	-0.0070705786	0.0056237634	-0.003021718	-0.0059105493	0.018564772	
-0.010435086	-0.014518904	0.012098211	0.0046018614	0.005612801	0.008015386	-0.001097266	0.012204852	0.011176908	-0.009391319	
0.0022432434	-0.0017498278	0.0015553676	-0.0147503745	-0.0051967152	0.007687941	0.0077664196	-0.008098095	-0.0010177812	-0.016026178	
0.0064168815	-0.0036490986	-0.0060864105	0.010786228	-0.0073289713	0.0033225794	0.010725778	-0.013541773	0.0017024194	0.0064462367	
-0.0054067452	0.00013782112	0.008444759	0.012157502	0.004780357	-0.008125178	-0.0025619112	0.013952794	-0.0007733632	0.00208084	
0.012263133	-0.01571406	0.0048888195	-0.003384426	0.00274958	-0.008285678	-0.0054739765	0.006258633	0.012901752	-0.0128401015	
0.0024697534	-0.0013366982	0.0032958013	0.01986845	0.016181555	0.009277813	0.00042799188	-0.0133479815	-0.001379634	-0.011254346	
0.007960298	0.0041394527	0.006082777	0.0031713352	0.012289141	0.0016311797	-0.017670559	0.0121745765	-0.012478922	-0.008148363	
-0.015983889	-0.011389075	0.0072028455	0.005739877	0.020918429	-0.018502112	-0.005773168	-0.008831776	0.014104716	-0.01048074	
0.013126533	-0.016299017	0.0050880243	-0.012116793	-0.011648767	-0.01737466	0.0016513305	-0.0060386127	-0.014621006	0.0090650385	
0.026687317	-0.013066434	0.01952146	-0.022350216	0.020716196	-0.009347065	0.01861483	0.0025767994	-0.014221397	0.017183898	
0.02986828	-0.03600761	0.016816245	-0.02234898	0.018097667	-0.016917014	0.01842816	-0.006031817	-0.0002585163	0.01822639	
0.011705256	-0.040237468	0.031523068	-0.0233213	0.016922249	-0.025710985	0.020336185	-0.024944665	-0.013008541	0.03845454	
-0.008837522	-0.04785011	0.030988982	-0.025502348	0.0026579122	-0.04760069	0.04243502	-0.039712846	0.012670642	0.05987067	
-0.014015093	-0.038116798	0.022682054	-0.023347493	0.0128437085	-0.05632586	0.0531616	-0.055918913	0.040938653	0.06281198	
-0.05499983	-0.023316659	0.040035307	-0.05932901	0.010076953	-0.057047326	0.048090003	-0.04691107	0.061455395	0.05771249	
-0.070199445	0.017370123	0.049059186	-0.034963366	0.00090751774	-0.049122296	0.018160708	-0.045168135	0.05334405	0.060815703	
-0.074402936	0.032893617	0.022489928	-0.04548338	0.0013339621	-0.054859772	0.0010185934	-0.0143388705	0.020765029	0.07031652	
-0.08508661	0.04517003	0.019083487	-0.045146797	0.011962352	-0.03395077	-0.007600199	-0.0016372508	-0.018073563	0.0997803	
-0.06260276	-0.006761022	0.04191635	-0.056442574	0.028141908	-0.020223359	-0.037757024	0.022880856	-0.04750677	0.12435212	
-0.031994484	-0.02394384	0.023017753	-0.051505376	0.025883151	0.014874877	-0.026485546	0.029100146	-0.032917183	0.12080738	
-0.018031556	-0.031896524	0.0022619606	-0.030604253	0.011468936	0.009735198	-0.020676088	0.009879869	-0.02696613	0.09907175	
0.002803121	-0.03833106	-0.011825	-0.001312016	-0.004456198	0.015394192	0.0055208444	0.021272464	-0.01756533	0.057235	
0.016705608	-0.01624836	-0.052215822	0.02762329	-0.011055002	-0.025714668	0.033654865	-0.015082779	-0.001553832	0.044856783	
0.035197284	-0.022841228	-0.011236109	0.023166716	-0.014172182	-0.020984905	0.040914506	-0.014045918	-0.0111474665	0.0004759977	
0.022936458	-0.019026665	-0.035176918	-0.0015026323	-0.014877135	-0.034145277	0.027865618	0.009019307	0.02146957	-0.0039536334	
0.010983143	0.00010891828	0.013408213	-0.0046802177	-0.004972935	0.003176905	0.022296753	-0.013408738	-0.020454468	-0.012062389	
-0.009556642	-0.001380087	0.013313883	0.0034408125	-0.0005354353	-0.014336343	0.017702041	-0.00657351	-0.0019714583	-0.016512074	
0.015990816	-0.00046791686	0.004444138	0.0050546746	-0.019286195	-0.007759339	0.0035014164	-0.0004770568	-0.0057243295	-0.019225052	
0.003048014	0.0016054502	-0.024153555	0.0069217426	-0.0071718176	-0.020572742	-2.063283e-05	0.002438314	-0.011217151	-0.0042575616	
-0.011284938	-0.007815901	0.00795056	0.011412262	-0.010384115	0.012322414	0.008793678	0.013891353	0.014666371	-0.022190487	
-0.0014020741	-0.0046529025	0.00013537084	0.00028914958	-0.02682548	-0.014540455	0.004427708	0.00031652162	-0.012676309	0.0022398175	
-0.016924027	0.0034263423	-0.013922011	0.011470114	-0.002088712	-0.0055143572	-6.190367e-05	0.00046879562	-0.0069061616	-0.018289417	
-0.0035290907	-0.0049143946	0.00033598384	0.0090212235	-0.0034575285	-0.0014086138	0.001199418	-0.014556199	-0.00093015307	-0.009267706	
-0.011554425	0.014677515	-0.012295713	-0.004201224	-0.01279321	-0.011614403	0.0044348957	0.007185921	0.0045012864	0.0023473413	
-0.015722537	0.0046544396	0.012639676	0.007514432	0.0007508134	0.0021209188	0.007162239	0.012954524	-0.0013541371	-0.001190838	
-0.012072384	-0.00017972643	0.0076629864	-0.0037830411	-0.0032769148	0.013092162	-0.01575962	-0.010731056	0.011321562	-0.011200932	
0.0032790953	-0.017432181	-0.0006358569	0.012231939	0.0090254005	0.002566445	-0.026502632	-0.008392531	-0.005597796	-0.009620276	
0.010249868	-0.026616776	0.023242861	0.0013596808	0.013455603	-0.017678948	-0.0028657352	-0.0055169165	-0.004769871	0.009134545	
0.031084377	-0.039800763	0.024071725	-0.012501161	-0.020767126	-0.020521035	0.013671097	-0.04011964	0.022486199	0.0117130205	
0.02758639	-0.032920513	0.031618442	-0.019059582	-0.016416712	-0.015137232	0.03381378	-0.029000057	0.013771339	0.027446877	
0.0027905363	-0.018985204	0.0022072296	-0.003129742	-0.022926062	-0.053937864	0.039036937	-0.032514334	0.031194841	0.013469208	
-0.018624661	-0.046579726	0.039520036	-0.0026429817	0.011740274	-0.06614162	0.050015423	-0.039000094	0.057593796	0.009001938	
-0.04213181	-0.0123847835	0.050366152	-0.04236799	-0.011862412	-0.06232333	0.06310265	-0.052065257	0.058034267	0.032917853	
-0.057215113	0.023389135	0.052305207	-0.03181001	-0.013091753	-0.05766984	0.018459495	-0.039518896	0.051757745	0.043755993	
-0.07176377	0.032842062	0.04137512	-0.040324297	0.0096241	-0.05233939	0.00824264	-0.008006001	0.008410963	0.05818177	
-0.07066942	0.012535254	0.041942842	-0.05158178	0.028700337	-0.014608214	-0.012231884	0.011923348	-0.024988731	0.082600884	
-0.047864594	-0.0135533	0.018459016	-0.05399098	0.024610866	-0.017404608	-0.016148264	0.018967805	-0.04075253	0.11355489	
-0.01437559	-0.029036177	0.0034800798	-0.03393594	-0.005197012	-0.0016506648	-0.0030992986	0.009561631	-0.015622509	0.090020046	
0.005998275	-0.043507844	0.0028223968	-0.014549397	-0.00041120505	-0.008180255	0.0017050015	-0.00092105987	0.0030369177	0.06670687	
0.023624634	-0.052416977	-0.02326131	0.0011937635	-0.037747897	-0.013677751	0.028326076	-0.012457875	0.010278269	0.03674429	
0.013186116	-0.02928911	-0.028372053	0.028124366	-0.036476426	-0.009854912	0.0333754	0.001255301	0.006136294	0.024148848	
-0.0007435044	-0.04916554	-0.025228107	0.026023291	-0.026572682	-0.009467735	0.058178198	-0.005946927	0.004539291	0.011417806	
0.02703343	-0.020075604	0.00792963	0.008109445	-0.022594102	0.017122509	0.025991557	-0.0179133	-0.005101532	-0.008290467	
0.012995028	-0.02882847	0.015675034	0.006044926	-0.014535383	0.004601882	0.01300123	-0.026681347	-0.0020072786	-0.005538894	
-0.004838159	-0.0067817047	0.008640116	-0.01802565	-0.0036256195	-0.015818682	0.0036629343	-0.002372646	0.0019023243	-0.013516649	
-0.0045419275	-0.0153342765	0.008814999	-0.0037690657	0.01942429	-0.0026070937	-0.0004582726	-0.01873429	0.0038206729	-0.004764795	
0.0005526288	-0.0006405119	0.0043187835	0.020747032	-0.0048579955	-0.013107467	-0.012294701	1.1301962e-05	0.0036662612	0.015976267	
-0.0038761664	-0.008988607	-0.005627137	0.0018537537	-0.0012143402	-0.01776058	0.013284531	0.008774295	4.6677676e-05	0.0033642126	
-0.024647184	0.0011780955	0.0030388287	0.0023730302	-0.013943797	0.00644251	-0.025281915	-0.010914899	0.0040461235	-0.0071771783	
-0.014500089	0.006070637	-0.00049303134	-0.0027505944	0.015661255	-0.002337642	0.0042124926	-0.0016194372	-0.011595333	0.0011110762	
0.006008083	-0.00074796815	0.006225409	-0.0021475707	0.014981281	0.015030881	-0.01679209	-0.0069262343	-0.0073182606	-0.014502199	
-0.004884716	-0.010618095	0.011777771	0.013963458	-0.007429251	-0.015160041	0.0006095019	-0.0015254883	0.014739598	0.015903518	
0.0075800833	-0.020827934	0.006177127	4.4206317e-05	-0.008110385	-0.016508186	-0.003644007	0.002304509	0.0012424038	0.010457553	
0.00372698	0.00717946	-0.0044073276	0.0038712283	-0.00887281	0.00094922475	-0.0013955033	-0.005032732	-0.00045097334	0.004124579	
0.008074529	-0.009313568	0.027964188	0.013887887	-0.0073703	0.02261089	-0.005695942	-0.014432574	-0.0020057189	-0.0055833366	
0.010195718	-0.026587058	0.015201611	0.0057146978	-0.010806393	0.024855793	-0.014674626	-0.019333377	-6.866702e-05	-0.008710141	
0.01311427	-0.035621706	0.025876475	0.0013733056	-0.015328187	0.0063167033	0.0031118195	-0.042401437	0.023219895	0.00965279	
0.012050722	-0.038693096	0.020713853	0.021446245	-0.047793467	-0.022916086	0.017104294	-0.03805732	0.055818148	-0.0039820108	
0.011128857	-0.03910916	0.044052675	0.013873644	-0.013321914	-0.04363257	0.04575402	-0.037821	0.05466004	-0.011462959	
-0.00988104	-0.0078878235	0.022813465	-0.0014673257	-0.023714662	-0.06853376	0.06668168	-0.054309547	0.048417937	0.014076956	
-0.037720025	-0.017649435	0.053138193	-0.016971594	-0.020072887	-0.06162803	0.079033114	-0.041240916	0.057260484	0.011579839	
-0.041762713	0.020929245	0.043978143	-0.031904068	-0.022720885	-0.048637908	0.0414709	-0.026663085	0.024203047	0.0240846	
-0.041221708	0.018476712	0.047398195	-0.05397193	-0.012054006	-0.047512546	0.03785419	0.006938114	-0.018723	0.047218625	
-0.0502553	0.0036115954	0.0093269935	-0.02976457	-0.017200556	-0.041665103	0.024326095	0.028523654	-0.038486496	0.07315207	
-0.012883508	-0.0043071075	-0.008301547	-0.06062354	-0.0014762984	-0.024816206	0.0071867383	0.03171066	-0.022926532	0.082476795	
-0.004820004	-0.02368287	-0.018671583	-0.0077724536	-0.009307048	-0.035822794	0.023064356	0.009337971	-0.019072248	0.08718534	
0.009203995	-0.029369814	-0.0049611772	-0.0064914227	-0.026958136	-0.027678333	0.058922924	0.005266369	0.0030132714	0.04193	
-0.006550195	-0.067621395	-0.018389378	-0.008460468	-0.04019336	-0.019703636	0.03193924	-0.013805201	-0.00016168808	0.030173063	
0.003878748	-0.03944102	0.0033601404	0.034769952	-0.046914846	-0.016546458	0.03754232	0.012097208	0.007797463	0.02550009	
0.0060368967	-0.046261124	0.005585992	0.029281251	-0.0219995	0.005088446	0.042749207	-0.025116561	0.013336293	0.018893294	
-0.0039566774	-0.01665803	0.017165909	0.018452257	-0.0032468326	0.012185447	0.012489728	-0.0061844857	0.0044399756	0.0019135685	
-0.020250589	-0.016218973	0.01021804	0.01494414	0.008640573	-0.012861541	0.026232341	-0.00018095122	0.0040702885	0.0022275718	
-0.014367372	-0.010114252	0.011428441	0.006778803	-0.009544268	-0.00041353784	-0.0038562324	0.018728465	0.01354313	-0.004521997	
0.01194215	-0.004204635	0.0057612713	-0.0028878783	-0.0008391852	-0.0052453354	0.00061855593	0.0052324547	-0.00045544194	0.010651589	
-0.00047126526	0.0040200925	0.028969148	0.0022021874	-0.0043173665	-0.0025976454	-0.0021444443	0.0010493381	0.01209949	-0.0038956287	
0.012478145	0.0039628823	-0.00447399	0.010148474	0.0020810096	-0.018336553	0.009684019	0.007498748	0.0023099245	0.0015547728	
-0.002792532	-0.018733833	-0.010027758	-0.019831149	-0.0017418625	0.009976198	0.009840765	-0.009843153	-0.0053061335	0.0035467222	
0.0067510316	0.0022572607	0.00086859934	-0.0026099973	-0.0015844243	-0.00017821816	0.0041271457	0.002515233	-0.007081098	0.0021970617	
0.002147634	0.007082862	-0.0024721299	-0.009129223	0.00010228059	0.009588812	-0.015526338	0.01865428	0.005528336	0.0019144092	
-0.009749868	0.0009881809	-0.004579548	-0.0020681783	-0.007017458	-0.007878886	-0.015868519	-0.0031218072	-0.0057068323	-0.013583803	
-0.009601555	0.0027116819	0.004698341	0.015007247	0.010890397	-0.020046014	-0.0024142866	-0.011529435	-0.005153579	-0.014930811	
-0.0012774394	0.01640516	0.0038344916	0.011732995	-0.0014101639	0.020405184	-0.0036817512	0.0039328174	-0.003503078	0.0030519187	
0.020560136	-0.0060468162	0.00025563853	0.0083230315	-0.024750685	0.012695535	0.00058803824	-0.016208466	0.015689855	-0.014327487	
0.02333749	-0.01783854	0.011857943	0.0054869624	-0.032238882	0.019797845	-0.013452743	-0.022018837	0.026996778	-0.008170296	
0.010276258	-0.022935038	0.004841618	0.019529143	-0.034463227	0.03240476	-0.027079908	-0.027613204	0.0496713	-0.011821915	
0.02124484	-0.03345346	0.021995679	0.023429235	-0.05048738	0.01227494	0.016169783	-0.038375206	0.055093005	-0.012112747	
-0.0008398445	-0.0295292	0.026442215	0.02523108	-0.042641863	0.00986555	0.01604467	-0.045115728	0.049543034	-0.0040152217	
-0.005279505	-0.020739784	0.034945168	0.004455886	-0.04081497	-0.01469419	0.054990645	-0.04863071	0.07061635	-0.0031596804	
-0.02395757	-0.0077775023	0.043075714	-0.021900441	-0.022527939	-0.027811894	0.068236604	-0.054791484	0.04295945	0.013910205	
-0.026905628	0.0038099429	0.005722954	-0.0011380864	-0.041340873	-0.05084854	0.052734155	0.010990111	0.021466931	0.042929504	
-0.031524397	0.012869014	0.0025919834	-0.013723908	-0.03041946	-0.043418262	0.04617019	0.00909418	-0.024673337	0.038732145	
-0.0026511035	-0.01678413	-0.0071357056	-0.01583255	-0.029213943	-0.039884992	0.047115568	0.023933986	-0.011634426	0.061742056	
0.007110649	-0.015037472	-0.026849018	-0.021787755	-0.018837912	-0.03899008	0.043780576	-0.0025448124	0.00107363	0.06371866	
0.02420336	-0.027234068	-0.022569276	-0.008441479	-0.030477433	-0.033169463	0.04722643	-0.0021238853	-0.0012865282	0.059709605	
0.011724829	-0.048635636	-0.0073210895	0.022366004	-0.028999705	-0.010401824	0.041825287	-0.021844659	-0.0072641936	0.055016603	
0.007515052	-0.027552737	0.0093098525	0.015305615	-0.03173426	-0.014273563	0.03390501	-0.013800398	0.0015760292	0.04256306	
-0.0018487336	-0.040314022	0.007579701	0.01328681	-0.0037989866	-0.008106609	0.026855737	-0.016676432	-0.0040319897	0.008774649	
-0.0027430614	-0.024658605	0.01472173	0.021459669	-0.023707835	0.019608593	0.01104283	-0.0057401033	-0.0067336853	0.008411098	
0.005884421	-0.026118137	0.010745644	0.008225196	-0.011731112	0.008781174	-0.00805932	-0.021735605	0.0013342763	-0.0005825975	
0.00030547602	-0.021329533	0.019657938	-0.0018198037	-0.011526526	0.004818712	0.0056845066	-0.015168626	-0.007720895	-0.0023329682	
-0.0073600244	-0.011922356	0.00342155	-0.0034789739	-0.0118131805	-0.009605529	0.008183684	0.0047251284	-0.014723346	-0.0066696936	
0.0024492245	-0.0037410404	0.022362696	9.271005e-05	-0.0015479829	0.009326551	0.010655559	-0.0020066474	0.0033590905	-0.015542778	
-0.0046402975	-0.0019937654	0.00914916	-0.0107027525	0.021009427	0.0049754963	-0.012038908	-0.007797888	0.0020485134	-0.0072433315	
-0.0022041043	0.0037896887	-0.016266948	0.021026945	0.009344011	-0.013701593	-0.0006012959	-0.0015927912	0.01599363	-0.00066590885	
0.014072416	-0.0017697293	-0.008698725	0.0034689158	-0.011893324	0.006315166	-0.0006323197	0.013716219	0.013712236	0.0023794218	
0.009107419	0.0029037711	-0.001166601	0.0035311587	-0.0017395507	-0.005177578	0.014589567	-0.003403096	-0.004681372	-0.01921574	
-0.0017759203	0.002878689	-0.0066011623	-0.0065835617	-0.0066929082	0.015898963	-0.00027681273	-0.009202737	0.0020761122	-0.008316983	
-0.0054244907	0.017419735	0.0017268172	-0.016713243	-0.008905735	-0.0065461937	-0.00874594	0.0004988455	-0.00022858416	-0.005274254	
-0.025055822	0.0034278384	-0.011079305	0.0021179065	-0.00905871	0.00074192695	-0.003857003	-0.007931179	-0.0090933805	-0.0059739305	
-0.0033669674	0.01320437	0.011399516	0.013707252	-0.0016859215	-0.00093513634	-0.008306265	-0.0071718087	0.0018783842	-0.010552515	
-0.007054587	0.0028620218	-0.010373752	0.00733243	-0.024196023	0.03241453	-0.0115348445	0.0059539056	-0.011543111	0.016720908	
-0.008804508	-0.017053606	0.001024767	0.015763234	-0.025193427	0.02491748	-0.009745609	-0.023318961	0.023163037	-0.0048909136	
0.013016213	-0.025305804	0.001873367	0.023005439	-0.0425109	0.020957792	-0.006939403	-0.012492988	0.032421295	-0.010517673	
0.019358518	-0.037016883	0.00016774231	0.026042566	-0.07099991	0.046960823	-0.03604708	-0.048582055	0.04937535	-0.024016075	
0.010021944	-0.031328417	0.0077482755	0.0011701324	-0.06992306	0.046408843	-0.0042492254	-0.054878987	0.045341857	0.009765828	
0.023986816	-0.0057918895	0.015104886	0.014318782	-0.037394386	0.053622223	0.0014063558	-0.048059825	0.05886281	0.0073252576	
0.0010444215	-0.018890884	-0.013789389	0.0074896775	-0.052318607	-0.008231009	0.036630597	-0.029870871	0.044476908	0.019343479	
0.008150785	-0.002324982	0.0033435295	-0.010737855	-0.04106029	-0.00827842	0.043538064	-0.011685178	0.018735163	0.031158725	
0.003491065	0.01581153	-0.023924138	-0.0007317288	-0.028646251	-0.009336735	0.02760733	-0.0016161687	0.016269134	0.055282	
0.0067280857	0.016798938	-0.035624117	-0.011389759	-0.02971977	-0.03213742	0.029780883	0.008369999	0.0077622556	0.05572332	
0.009483946	-0.01956562	-0.034332234	-0.011130941	-0.0132858595	-0.019907365	0.016566064	-0.0048869313	-0.00019535975	0.069444105	
0.012151737	-0.02299937	-0.038102075	0.017265912	0.0060525844	-0.023172176	0.0075729135	0.0027423182	0.026832331	0.061467573	
-0.0012517178	-0.033177286	-0.03406092	0.015641218	-0.010759431	0.013355924	0.03723395	-0.0313823	0.017702987	0.044818517	
-0.0032925964	-0.025486154	-0.011140247	0.02930961	-0.019483136	0.010611952	-0.008918035	-0.009594828	0.010723163	0.03859922	
-0.014430521	-0.03975727	0.004650746	0.030104635	-0.019056585	0.008190838	-0.016071577	-0.031124262	0.01799352	0.01658639	
0.0031760645	-0.0011328228	0.011700694	0.011204319	-0.017163282	0.004518102	-0.014973085	-0.011775069	0.021755092	0.03087102	
-0.015574937	-0.017779995	0.02784966	-0.013348288	-0.020097375	0.01297398	0.018150782	-0.008084385	-0.0020212398	0.008398924	
-0.017254705	-0.009638589	0.014916726	-0.010908144	-0.002430154	0.0016422821	-0.0025081497	-0.013055513	0.00054940843	-0.008657108	
-0.003624843	-0.013613855	0.015851289	-0.009829712	0.0037575397	0.012647925	-0.0025738375	-0.011516037	0.002121442	-0.0040522697	
-0.00014786565	-0.01454412	-0.004259516	-0.0020124323	-0.009407274	0.001928021	-0.012380912	-0.014574598	0.011187256	-0.009510784	
-0.01508031	-0.00520714	0.009433288	-0.00427994	0.012842537	0.00071410707	-0.0031457508	0.010860397	-0.007915376	-0.015393464	
-0.00049220654	0.0018196695	-0.005286268	0.0075585414	-0.0002413658	0.012975694	-0.02018263	-0.0053113108	0.006125795	-0.0058906428	
-0.010339932	0.0028045678	0.012720597	0.0069079744	-0.0051226187	-0.000676554	-0.010327825	0.0038041747	-0.0032891089	0.010622948	
0.00076705223	0.010824267	-0.0064791087	-0.0029510304	0.006114236	-0.0006608911	0.009992325	-0.0030912347	0.014065265	0.0036264516	
-0.0095959045	0.006849467	0.01478255	-0.006792497	-0.0040233107	0.009294715	0.017024484	0.011133836	-0.0029414063	0.023052467	
-0.0013692471	0.004849149	0.0020265281	0.0047183973	-0.010186225	0.010288865	-0.025582809	0.0029045688	0.008015852	-0.0061349194	
0.0052669975	-0.0021237328	0.008944017	-0.0049746283	0.0046922606	0.0032623785	0.009167965	0.012181645	-0.0017138183	0.010770699	
0.0133132385	-0.016158085	0.008995778	0.00786584	-0.008982696	-0.0048300643	-0.0046504573	-0.00357441	0.001146361	0.004894551	
0.017545572	-0.0056310073	0.017097637	0.0067414264	-0.0035676677	0.014305502	-0.010950226	-0.022963189	0.00048685877	-0.01008238	
-0.014492075	-0.010252783	-0.018141126	0.018210182	-0.012669578	0.0039749388	-0.008447198	-0.032740857	0.021773282	0.0030867157	
0.0029809696	-0.00012095721	-0.01526278	0.015428018	-0.031752847	0.046074834	-0.00743043	-0.026592158	0.037829127	-0.0044304994	
-0.0046987566	-0.019159777	-0.020057656	0.009086849	-0.04281322	0.034985196	-0.013716454	-0.029324891	0.048060667	0.009504751	
0.010095152	-0.006219275	-0.013550683	0.021779316	-0.059959874	0.0434167	-0.024238849	-0.04439347	0.04257004	-0.01629784	
0.01598498	-0.019050257	-0.032672904	0.032675013	-0.050324455	0.038869232	-0.026108412	-0.07188871	0.05493096	0.030583713	
0.017214518	-0.023500353	-0.0404184	0.034323473	-0.04925954	0.030673118	-0.029102258	-0.0480203	0.07470125	0.03547866	
0.033115294	-0.013038895	-0.04281209	0.020024361	-0.04004999	0.02272453	-0.0477812	-0.013964942	0.07669191	0.039913815	
0.019400444	-0.005110711	-0.05383692	0.013696863	-0.048045292	0.021250656	-0.044757698	-0.019018026	0.059883993	0.04699197	
0.0022121111	0.023733715	-0.05266489	0.018662151	-0.026939983	0.011214243	-0.039845455	-0.00023303661	0.048365068	0.04622585	
-0.0011274116	0.011893705	-0.044883404	0.011251275	-0.008153965	0.0076043936	-0.03319688	-0.015652973	0.05285209	0.05172601	
-0.006257531	-0.024027996	-0.028655108	0.015874755	-0.0033958773	0.027722323	-0.013134241	-0.012313289	0.028947305	0.067086205	
-0.009088872	-0.021795118	-0.019481463	-0.0018603677	0.0019709694	0.018959375	-0.020087983	-0.014142605	0.010054426	0.044307455	
-0.009449229	-0.016157415	0.0015640677	0.0048620473	-0.013015405	0.03628394	-0.011431194	-0.0058419276	0.038058292	0.037742257	
-0.012990176	-0.025711404	-0.016621161	0.014416465	-0.008754063	0.032989595	-0.013371972	0.0021266488	0.016415482	0.032904334	
0.0066622025	-0.021444894	0.0070735607	0.0053981845	0.0008335002	-0.0032933513	-0.018664062	-0.023319015	0.011614272	0.023496496	
-0.028379543	-0.0087562585	0.02748648	-0.017439304	0.0088399155	0.018213702	0.0034830892	-0.018864362	-0.013113527	0.024951959	
-0.006410851	-0.019693922	0.004536272	0.0057410607	-0.027709788	-0.008753271	-0.0026180437	-0.010212962	0.0056516635	0.0047036614	
-0.0097982595	-0.0074560097	0.007987096	-0.00018160477	-0.014013916	-0.033147577	0.0050753173	-0.009986454	0.003570907	0.0064408295	
-0.005117061	-0.008300625	0.012214448	-0.0071709864	0.012663322	0.00032408038	0.0064463303	-0.006629898	0.020074427	0.011205869	
0.0031384144	-0.0022892228	-0.011937998	-0.010746404	-0.016692545	0.0045687114	-3.298487e-05	-0.011142881	-0.008399941	-0.01355427	
-0.013354998	-0.006664728	0.026517916	-0.02153533	-0.0111430455	-0.0023137766	-0.0013691541	0.0010074029	-0.02259153	0.006484431	
-0.00302286	0.0027191252	-0.025819238	-0.004297145	-0.007674919	0.0038357505	0.011273369	-0.0019077037	-0.0021066542	-0.001805492	
-0.00641811	-0.01318094	8.816441e-05	0.001085257	-0.00724475	0.0072076744	-0.0015618211	-0.017043225	0.008045759	-0.0031344756	
0.009307847	0.006246286	0.0010074413	0.015753796	0.004862255	-0.008232937	-0.013815407	0.0022591448	0.001858814	0.0090891	
0.0029225668	-0.0014202341	0.010650936	-0.009677555	-0.022602757	0.014779682	-0.018521525	0.00060732686	-0.009019473	-0.0039616604	
0.019017592	-0.008146837	0.0159773	0.0019166489	-0.008665174	-0.005156467	-0.010878129	-0.012711783	-0.002805109	-0.0063080485	
0.0050203726	0.008504774	-0.0077388906	0.011650858	-0.0042430228	0.0047193067	0.01604356	0.0074626287	-0.008585956	0.004273161	
-0.0013068531	-0.0022846234	0.00018346391	0.014156662	0.011741001	0.017118137	-0.00540259	0.005377439	0.010213415	-0.00227174	
0.01793824	-0.007371786	-0.0026893117	-0.003974094	-0.005599913	0.006120786	-0.012905477	0.0052668443	0.008077719	-0.019396318	
0.0024114891	-0.005255563	-0.013505042	0.0101173	-0.00092559983	0.0062478157	0.0025151568	-0.010109577	0.03112646	-0.003940317	
-0.0022861355	-0.008845356	-0.014402008	0.014292753	-0.041709214	0.023083031	-0.026782	-0.034690708	0.015908377	0.01998414	
0.0056962864	-0.0011223814	-0.034833904	0.03128821	-0.0414364	0.031034818	-0.0298367	-0.03322167	0.05516877	0.008407128	
0.02412739	-0.0013325586	-0.049923398	0.017977867	-0.01682561	0.04227871	-0.04210263	-0.039530877	0.032362465	0.02827768	
0.02554267	-0.0010694226	-0.05634027	0.03321935	-0.017753875	0.030672567	-0.046266764	0.0006037123	0.06658193	0.01574026	
0.015819373	-0.015159709	-0.076040655	0.025410501	-0.023536345	0.03100168	-0.058747333	-0.017081998	0.055788543	0.059850544	
0.010407623	0.014307496	-0.06747798	0.014083462	-0.04183824	0.016258867	-0.062442638	-0.02620028	0.051584356	0.037736505	
-0.01594255	0.027150424	-0.049360678	0.012359172	-0.013607117	0.012474531	-0.07157943	-0.0008245522	0.051448327	0.04999223	
-0.027311753	0.0012915574	-0.06192555	0.01018114	-0.018587096	0.0072258115	-0.044714555	-0.000925551	0.048585452	0.048521444	
-0.0006060392	0.0025212101	-0.041959487	0.008086377	-0.028796421	0.009721287	-0.019395703	-0.004830255	0.028656667	0.041881137	
-0.0007634236	-0.008397873	-0.033915803	0.007047528	0.0049793147	0.012509146	-0.020690981	0.0081958	-0.0017665953	0.036204718	
-0.00053066685	-0.0018348845	-0.00699379	-0.0051299343	-0.004821026	-0.00049166544	-0.0345758	-0.03821552	0.026557792	0.03401418	
0.0012406626	0.0059858044	-0.0063959886	0.011556964	0.004945929	-0.010951278	-0.009348687	-0.005655411	-0.004889345	0.027260369	
-0.010334491	-0.018070461	0.0115030445	-0.024614042	0.0025668722	-0.0079312995	-0.014167002	-0.003393483	-0.010655609	0.024059856	
7.409006e-05	-0.0053862543	0.006032185	0.00975077	-0.0040731314	-0.024946587	-0.015404434	0.004890335	-0.0011607725	0.00085227564	
0.0042140484	0.012807301	0.009871652	-0.004939792	-0.0015442815	-0.00035987614	-0.006110063	-0.0095281275	-0.020208342	0.017153013	
-0.009004162	0.00067706674	0.0053136954	-0.009138707	0.019185286	0.013159143	-0.016372494	-0.0023773466	0.002420819	0.00793733	
-0.013932013	-0.02422237	-0.0124646	-0.00044849896	0.005591564	-0.009121206	-0.0021061273	0.0074942615	0.008563194	-0.0031370916	
0.0015854405	-0.01475553	0.01506293	0.008307686	0.016018098	0.013779086	-0.008006513	-0.0065543368	-0.007736125	0.00044095903	
-0.015950216	0.0074116965	0.010822083	-0.0099120885	-0.010310746	0.011389614	-0.005001286	0.0031934262	-0.0037472127	0.00014631354	
-0.010800419	0.0076675266	0.002818519	0.006137432	-0.0019529383	-0.007468442	0.013983145	-0.009171322	0.0024535386	0.0065594567	
-0.012516155	0.013459844	0.010181004	-0.008476435	-0.021721352	-0.005692568	0.0055268602	0.0014931508	-0.004991102	0.0030121836	
-0.012297624	-0.008270451	-9.8050856e-05	-0.002255374	0.005141609	0.0018322737	-0.012298191	-0.00959388	-0.008470389	-0.0006361223	
-0.015899962	0.0047277394	-0.009033571	0.0033120061	-0.015247761	-0.005351495	0.0015297629	-0.0055672564	0.010214251	0.0053665023	
-0.0027124342	-0.010189659	0.0025927091	0.00255795	0.022730665	-0.006702422	-0.003165674	-0.0057407008	0.0021219137	-0.0032344693	
0.012662321	-0.0014271514	0.0016196647	0.014798678	0.0025145395	-0.010195148	0.0038851525	0.0070867916	-0.011120302	0.002619994	
-0.008897537	-0.0062362584	5.7016092e-05	-0.0103165535	-0.0022675034	0.0022730299	-0.012371441	-0.01454699	0.005684991	-0.0046976106	
0.0031374018	0.015329537	-0.019302761	-0.004522929	0.0020778514	0.0110568935	-0.0043968847	0.0006548947	0.006250433	-0.00813244	
-0.005383151	0.017814005	-0.01149448	0.0070271706	0.014018683	0.004968552	-0.0016455307	-0.0031846717	0.005115078	0.0057318094	
-0.008521772	0.0049738297	-0.00852571	0.0076775597	-0.018365568	0.0042631687	-0.0058415006	-0.02605439	0.01202723	0.020067733	
-0.0048963944	-0.014864784	-0.019214349	0.013642918	-0.0126603795	0.0074695437	-0.0060705706	-0.007248509	0.03139675	0.027742382	
-0.010764305	-0.027561655	-0.01718357	0.003985709	-0.0407473	0.010565399	-0.022090957	-0.0060749026	0.0043907505	0.040415727	
0.001044034	-0.01633027	-0.017961858	0.006281074	-0.01077027	0.010983797	-0.028145216	0.012578684	0.002933757	0.04665779	
-0.0033013022	-0.013124036	-0.03256968	0.022623926	-0.010696412	0.027071653	-0.02647734	0.021229623	0.012387055	0.049007617	
-0.01619192	-0.012652226	-0.03499171	0.008023196	-0.020560762	0.008316328	-0.028912298	0.010510014	0.011001386	0.060506232	
0.0044676806	-0.004164334	-0.03062308	0.008425644	0.00060720084	-0.020278195	-0.048414443	0.008219112	0.017394431	0.021205638	
-0.013199277	-0.014114956	-0.021488246	0.005210026	0.015414888	0.00082275085	-0.02152722	0.02206334	-0.0019469544	0.05621317	
-0.0062220213	0.0013774205	-0.0061888024	-0.0013042823	0.008662245	-0.006892564	-0.021181254	0.007023279	-0.010167473	0.028452951	
0.0020493364	0.010012723	-0.031023758	-0.020154942	-0.008891962	0.0074180258	-0.034017365	0.010904495	-0.013530761	0.03180501	
-0.009499339	-0.005782272	-0.023787815	-0.006453361	0.0035305307	-2.8221846e-05	-0.013286677	0.00074176706	-0.010972303	0.04025981	
0.003372616	-0.0150613105	-0.0015585802	0.011755621	-0.0071635814	-0.006495654	0.0127152335	0.025243284	0.0164689	0.029949978	
-0.009326005	0.009609035	0.0018811874	0.00688522	-0.0026987519	0.009242353	-0.01766521	-0.009918663	-0.02398752	0.024800502	
-0.0054473598	0.0077328878	-0.008440092	0.0061113234	-0.0061877687	0.0063630748	0.0008586668	0.010352455	-0.0055601494	0.01166696	
-0.020562008	-0.0025946952	0.0080635585	0.018676823	0.004809185	0.0074289492	0.009176283	0.005909978	-0.0047242525	0.023119645	
-0.019968169	-0.008263639	-0.0024755956	0.012289081	-0.011108501	0.011764736	-0.0018798596	0.006869694	-0.008638003	-0.0071586785	
-0.007510685	0.0042404192	-0.0071419235	-0.016018549	0.018913733	-0.010942159	-0.016701736	-0.008662536	-0.003272901	-0.008319016	
-0.0042392365	-0.0005915303	-0.0122089	-0.007369678	-0.00021491491	0.007930499	-0.0028822534	-0.0036321532	-0.011219157	-0.0010143815	
-0.009266498	0.012883277	-0.0032457884	0.019505866	-0.01062722	0.008147818	0.0056529352	0.0026278421	0.009185532	0.010696433	
-0.0036007245	-0.007918537	-0.019676281	-0.0012413965	-0.00029012805	-0.021050664	-0.0009849387	0.0018504678	0.0017031486	-0.00034741824	
0.021781573	0.0009985844	0.011608809	0.009935003	-0.01196042	-0.0068317344	0.0089698415	-0.005481516	-0.0017833035	-0.0006947184	
-0.011538203	0.0067607006	0.00067292276	0.0028612553	-0.0001168748	-0.002876367	-0.01089826	-0.01852021	0.010841049	0.017030751	
0.003582128	-0.011239251	0.0019528726	0.019373957	0.015795106	-0.0018281108	-0.013906586	0.0076598134	-0.0069216834	-0.0021675013	
-0.0075558033	-0.028237877	-0.013750451	0.0022062839	0.002350424	0.010706834	-0.025519643	-0.015155813	-0.011707032	0.0038614091	
-0.0049618273	-0.0033383598	-0.002484659	-0.00793613	0.008905988	-0.012109481	0.0061499937	0.0095920805	-0.016166694	-0.009039593	
-0.0024822897	-0.013000646	0.015208215	-0.004420788	-0.008647667	0.0023740306	-0.004701727	0.004767674	0.0060160914	0.008573307	
0.005254063	-0.001910256	0.0056049037	-0.004982765	-0.0056778523	-0.0021084736	-0.016905114	-0.0015451403	0.0009995191	0.005589064	
0.007141732	-0.0006787894	0.009766561	-0.00016458747	-0.00026220587	0.007056001	-0.00724672	-0.011388678	0.005140743	0.0040215696	
-0.0066128825	0.002683415	-0.0127659915	0.007916072	0.002883127	0.0078663975	-0.012518803	0.024075344	0.0042749583	0.0020020795	
0.010264361	-0.009546955	-0.0061462414	0.0015549607	-0.012735234	0.01734725	-0.014631901	0.016568016	-0.0045047696	0.0017896208	
-0.012755678	0.010216885	-0.005707046	0.005080861	-0.004537183	-0.007938198	-0.0013328213	0.019464256	-0.01146324	0.024939422	
0.003932803	-0.00094016123	-0.012869021	0.017891176	-0.014891552	0.0018313855	-0.024479922	0.03425042	-0.011366484	0.03149193	
0.015684232	-0.006126671	-0.00675128	-0.011531102	-0.021346329	-0.0077954507	-0.030352363	0.032194816	-0.022683712	0.052595977	
-0.0006305793	0.008117378	-0.011330695	-0.010270471	-0.01070047	-0.01026996	-0.02271462	0.026006462	-0.01672634	0.04643136	
0.0036928041	-0.01865291	-0.00012087568	-0.013387669	-0.0056366255	-0.003436583	-0.03277945	0.0470016	-0.022864653	0.028657416	
-0.010226027	-0.0060617505	-0.00016745058	-0.013185429	0.002408459	-0.009667895	-0.01431689	0.024687374	-0.01241296	0.045270648	
-0.0028204825	-0.0060844803	-0.019603882	-0.013150201	0.008123071	0.0014010983	-0.033216592	0.027405	-0.010635309	0.03443405	
0.0059770346	-0.002440853	0.019967893	-0.00984432	-0.017301293	-0.010880069	-0.006360855	0.009355326	-0.017796103	0.011896472	
-0.0112987645	0.017546244	-0.0044260817	0.00047156672	-0.0169463	-0.0001644473	-0.0214585	0.015599632	-0.011900075	0.02758252	
0.011283606	0.008063475	0.00087906525	0.010016696	-0.0025820176	-0.0174096	-0.007666275	-0.008158991	-0.009052287	0.01714832	
0.018624498	0.001675674	-0.006612936	0.0060034953	0.0042361086	0.0008622232	0.0045471597	-0.012124335	-0.0011224749	0.0233978	
-0.011113735	-0.00037743154	-0.0063384487	0.0033997584	-0.017683089	-0.0027702742	-0.0061041643	0.0018689163	-0.0059242374	0.016528662	
-0.024532527	0.010504876	0.0068092495	-0.008573612	-0.010824364	-0.02156139	0.0011619739	-0.004221233	0.0059507233	0.003917611	
0.0029334046	-0.0015742297	-0.0051516853	0.0042276327	0.003978735	-0.0051675206	-0.0050476906	-0.010854656	0.005002008	0.002727258	
-0.006297677	-0.012139664	0.005590803	-0.0042782445	-0.0176823	0.011434859	0.0001862677	0.0029639704	0.0056726825	0.0048553958	
0.011964279	0.008396066	-1.1176264e-05	-0.02586486	-0.0050288504	0.009477391	0.017000282	-0.016926171	0.0016350547	0.01605798	
0.019369796	0.00058956747	-0.00257174	0.0070882062	-0.010466115	0.007631948	0.0014862634	0.018903332	-0.0019656366	-0.0014828558	
-0.002572488	0.03736521	-0.004071985	-0.011997596	-0.0048709745	-0.011533054	0.0010337776	0.011184332	-0.024106184	-0.004165425	
0.003746399	0.008934339	0.019219505	0.023902195	-0.0033515873	-0.012706285	-0.014364055	0.005812278	-0.010215658	0.004159549	
-0.001565396	-0.006531092	0.0020739343	0.009776422	0.008577683	0.017341292	-0.01686792	0.0052104127	0.004801958	-0.0080789	
-0.022005128	0.014391731	0.007955713	-0.00820154	0.0004456611	-0.0005755989	0.005095395	-0.021627298	0.0064459043	0.0027234226	
0.0011652285	-0.005346084	-0.0031383738	-0.0027321465	0.013554241	0.008160909	-0.013662187	0.025593488	-0.009483675	0.0039037522	
-0.0031090751	-0.004325713	0.0055415505	0.01648973	0.010512575	-0.0018085267	-0.003800005	-0.009314215	0.01428721	0.0027405585	
0.006556419	0.0045162765	0.0036649704	0.00449478	-0.0070292987	5.2753072e-05	0.015262875	-0.01589902	0.00086922996	-0.018723033	
-0.0073757586	0.001458101	-0.003990075	-0.004395493	0.023445208	0.013508928	0.0015450645	-0.020103391	-0.0007174474	0.012184675	
-0.0030657153	-0.0010528427	-0.008118248	0.015296454	0.004515439	0.00048805051	0.0041022687	0.012247718	0.005231048	0.001652145	
0.005372194	-0.004637737	-0.0034393342	-0.0021435448	0.004521154	-0.012663269	-0.010133168	0.012579814	0.013662497	0.005133501	
0.009822289	-0.002050921	-0.00061355816	0.00774462	0.0010566707	-0.008952539	-0.004367044	0.0009956724	-0.009685078	-0.0047132284	
0.001546511	-0.010249931	-0.009401323	0.0072799474	-0.0016451536	-0.005526013	-0.027685601	0.020355806	-0.012838488	0.019194359	
-0.00851113	-0.008283565	-2.5395748e-05	-0.0005946983	-0.024135433	-0.01964549	-0.019354306	0.02261083	-0.005903337	0.022738827	
-0.007409995	-0.014367078	0.005259598	0.0050880616	-0.025175074	0.003031464	0.009570094	0.012932622	0.0038031086	0.0085184	
0.005043287	0.010384104	0.01490573	-0.004890207	0.009882958	-0.0050276387	-0.006352403	0.019210732	0.0011016174	0.006113591	
-0.0059622014	-0.016289866	-0.0019441302	-0.00045702973	-0.013825969	-0.005262001	-0.021403335	0.016002236	0.011143871	0.01934263	
-0.012081089	0.009710476	-0.015416498	-0.006870043	0.008154222	-0.013317248	0.011542294	0.017532159	0.0074872854	0.024539143	
0.0119560165	-0.0094473995	0.0044928626	0.00016324938	0.0018599352	-0.010996792	-0.0070479345	0.0014893967	-0.005239158	0.008100897	
0.00054030865	-0.010424161	0.004888992	-0.006181704	0.01274931	-0.00805685	-0.009376592	0.019973066	0.003531631	5.289704e-05	
0.00015277058	-0.015816068	-0.010226175	-0.03270694	0.004189701	-0.0018451574	-0.0074535166	-0.017384317	0.008351649	0.01674063	
-0.0006606468	0.010572847	-0.0017383638	-0.0142545905	-0.01421653	0.0056707887	-0.00853927	-0.0035043382	0.020154953	0.009554669	
-0.011838597	-0.004918495	0.009585864	0.00025607063	0.006324919	6.9480855e-05	0.0011216401	0.0016559028	0.0031718004	0.022926603	
0.0011203786	0.00413324	0.0050568604	-0.004890082	0.0020075722	0.0044951546	-0.0057793627	0.016428603	0.004681745	-0.009385224	
0.0023122674	-0.0005515921	0.001963356	0.012336958	0.021055454	0.0042622215	-0.0050607575	-0.004691532	0.0067309407	0.012371098	
-0.0043074447	-0.01556278	-0.006468137	0.0028985455	0.009455788	-0.0019120257	0.0020025223	0.00922916	-0.00024727336	-0.0033726098	
-0.0035801535	0.008377295	0.022380618	0.0080541475	0.01623905	-0.013456071	0.017661327	0.012673388	0.008126674	0.00772824	
-0.012928081	0.005931471	0.0025695257	-0.015270922	0.005177394	-0.0046872017	-0.012384463	0.0013771666	0.008350829	0.004337336	
0.004762189	0.016565053	0.0009134962	0.003605781	-0.0058601457	0.002051824	0.019896576	0.0120164575	0.012908542	-0.01301923	
0.0037867865	0.017416487	-0.0122010745	0.0033730182	0.0050651473	0.025080603	0.0022620503	0.0114679085	0.020990243	-0.009897627	
-0.0015112942	0.0063108676	0.014607993	-0.0062278016	0.00653301	-0.0038897959	-0.0045050774	0.0024344625	0.019861376	0.007380607	
0.0036472941	-0.0038500251	-0.013126405	0.0019723545	-0.007057344	-0.01429499	0.007847482	-0.004580323	-0.007999291	-0.001085854	
-0.011103346	-0.00136404	-0.008987219	0.0047002444	-0.0060891653	0.0040300204	0.012970432	0.00085046934	-0.010994859	-0.010350317	
-0.006201597	-0.006226608	0.002316939	0.004389253	-0.0135770645	0.009221692	0.00032154875	0.0039199875	-0.012221257	-0.002501485	
0.004978326	0.012132509	-0.015094661	-0.008229025	-0.013029295	-0.010655283	0.009962368	0.0037497778	0.0090024145	0.008250592	
0.007919157	-0.008425163	-0.011297061	0.01723096	-0.015631974	0.0024855547	0.008257685	0.002559215	-0.00038922668	-0.0006690858	
0.015796728	-0.0015233256	-0.0026724848	0.013175608	0.020829963	-0.008933888	0.0042737382	-0.0044645076	-0.011223851	-0.0053177276	
2.3417013e-05	0.0155742215	0.0043120338	0.0053733615	0.016021524	0.0021342197	0.007941392	0.003276316	-0.006763591	0.0023502181	
0.001201825	-0.014335028	-0.00841774	0.0023497364	0.016656416	-0.009455222	0.006220988	0.0029509114	0.003522856	-1.2733741e-05	
-0.011828434	0.017247455	0.0023986911	-0.011663286	0.01069463	0.034696653	-0.0044677593	0.0033384755	-0.02100764	0.0012730255	
-0.0026645279	0.009361271	-0.016745148	0.00865075	-0.0026576458	0.003956286	0.00354876	-0.0110505065	0.0061329664	-0.0033340314	
-0.020312896	0.025682742	-0.0019213224	-0.0016673865	-0.013102112	-0.015388129	0.008303144	0.012928843	0.0066560437	0.004484978	
0.012229052	-0.016337998	-0.009044268	-0.01813024	0.003977291	-0.0014135828	-0.0033751316	0.032937154	-0.023918752	0.011109221	
0.009114276	0.004294379	0.007213746	0.020805629	0.019067006	-0.0091726305	0.00034078068	0.0037788197	0.009309594	-0.0025075246	
-0.009253415	-0.006599808	-0.008266277	-0.0034377358	0.0037062801	0.004524754	-0.0049659177	0.022683984	0.009122296	0.00897007	
0.0070669493	0.01101219	0.006092985	-0.011197919	-0.011471865	-0.009075353	0.003731775	0.0010363192	-0.021820603	-0.004435381	
-0.00843728	0.0068890573	0.009504081	0.011342017	-0.0005942521	0.00019417885	-0.003417769	0.013189241	-0.009953359	0.0054482813	
0.025546143	-0.0011947176	-0.0005606272	-8.320434e-05	0.0076306006	0.011933864	0.0018736229	0.009606453	0.005776832	0.0054266662	
-0.001228655	0.008780635	-0.019261222	0.0065346765	0.0142692495	0.011446244	0.007048017	-0.012211247	-0.0065874965	0.007654922	
