0.01192386	0.016292568	-0.00041309503	0.02204115	0.0013959024	0.0034464158	0.020786058	0.0043005445	0.014372327	0.0020801604	
0.005295185	-0.0077295853	-0.005812468	-0.013280921	-0.0006331048	0.008261801	-0.008896788	-0.0054348563	-0.018247746	-0.0021832676	
-0.00193725	0.0042630676	0.0020041817	-0.00635911	0.007942029	-8.619227e-05	0.008799273	0.001708486	0.0039980975	-0.012038251	
0.014806914	0.005802973	0.0057152463	0.014889993	-0.003475285	0.0024208752	-0.0010690084	0.0013625831	0.0014517641	0.004614159	
0.014767194	-0.00866946	0.020141782	-0.00069587934	0.0011009321	0.00025964162	-0.007181828	0.009652284	0.0020845742	0.012766213	
-0.0077707455	0.021457188	-0.0019500982	0.0016726963	-0.00065899116	0.0042649535	-0.00013412263	0.013718448	-0.0063012308	-0.002450589	
-0.014696692	-0.008729859	-0.018015504	-0.006387176	0.014377832	-0.006389377	0.0022184793	-0.009066927	-0.01168807	-0.0051544793	
-0.015242942	-0.013923148	0.0044891243	0.013709231	-0.0041238847	0.0060516587	0.01183949	0.0020966812	0.0038528724	0.001414963	
-0.011496312	0.002410788	0.0026890887	0.005340742	-0.0033746045	-0.005082034	0.008722387	0.0067258105	-0.012136316	0.0016528658	
0.0043145977	0.0008285603	0.011985348	0.009100496	0.012393113	0.0024263326	-0.0019212237	0.0019143516	0.015619119	0.011829034	
0.002033972	-0.0016720229	0.005433028	0.0021799938	0.010467392	0.0014692977	-0.016683264	0.0038247153	-0.005415245	-0.01155514	
-0.00016424144	0.0028837011	-0.0115362555	0.0032840073	0.011720186	0.00089046784	0.0047731707	-3.8838316e-05	-0.01646306	0.00049728446	
0.004037064	-0.008913565	-0.002947418	-2.9965136e-05	0.0092325965	-0.002220837	-0.0015739473	0.0016077841	0.0047067073	0.0022152788	
-0.003639134	0.0146538615	-0.0048985477	-0.008228381	0.0138673335	0.011620252	-0.0075519066	-0.0046511875	-0.010159328	-0.0018856656	
-0.008325754	0.002621509	-0.010306918	0.0034722409	-0.008237206	0.014837386	-0.03191856	0.013507454	0.009608497	0.01441288	
0.016416844	0.008888629	0.012840224	0.008298311	0.00086028426	-0.0010156094	0.010948892	-0.0037150844	0.0061190915	0.004833487	
-0.002679572	0.012381327	-0.003032808	-0.001781297	0.00067790726	0.006130456	0.008912063	-0.0027170416	0.01394102	-0.0048309006	
0.001739922	0.01333106	-0.0036964258	0.0070365835	-0.0013531405	0.0048580095	-0.004467359	0.012166761	-0.0037673132	0.00545857	
-0.012703753	0.013958981	-0.00578597	0.002654479	-0.010319026	0.0072178124	0.018834842	-0.010267155	-0.0013546532	-0.0006630163	
0.011324426	-0.0041644843	-0.0020274837	-0.002492409	0.007003013	-0.018694602	0.024451843	-0.03381757	-0.018086804	-0.0022358533	
-0.014902532	-0.011454978	0.01186492	0.018733243	-0.0019539301	0.013872016	-0.0006920322	0.002039763	-0.017146314	0.0037608608	
-0.01671882	0.008813621	0.0013060517	0.008987124	0.003633806	-0.023319582	0.017484538	0.003922286	-0.010689455	0.005373577	
-0.0044910708	0.0063250326	-0.0060182745	-0.0016863343	0.016865984	-0.0042540394	0.0068988157	-0.010931219	-0.0037918289	-0.0059072906	
0.0019574957	-0.0058820625	0.0047410233	0.008449131	-0.015955351	-0.0031481292	-0.014739714	-0.0062200315	-0.0019791794	-0.0053767506	
0.008921887	0.0011257371	-0.0058991318	-0.004703796	-0.0038181022	0.011576557	-0.0062710564	-0.002960524	0.0062938724	0.0011619591	
0.0065047448	-0.00853134	0.0064464575	0.015649835	-0.009673756	0.022528766	0.009553511	0.008684934	0.001736182	-0.0007710545	
-0.00762782	-0.0028834967	-0.008886077	-0.00027269823	0.01668186	-0.013936497	-0.0024509535	-0.008724541	-0.008571699	0.015670866	
0.002179818	-0.0053487127	0.02539716	0.0020053454	0.01758212	-0.002233503	0.001131251	0.017548842	-0.018762179	0.009262869	
-0.0076093236	0.010761035	-0.009384314	0.0018980476	-0.010125463	-0.0050354856	-0.012350725	-0.013415471	0.022268903	-0.0041170274	
-0.0062852157	0.015755696	0.00076822925	0.009033579	0.0054052416	-0.0019797157	-0.0021633585	-0.0048889443	-0.020619681	-0.013214255	
0.024213033	-0.005449884	-0.0002584704	-0.006307236	0.013438254	-0.02045839	-0.006532547	0.0005083779	0.004253764	-0.0018920425	
0.015676152	0.0075856587	-0.004030241	-0.022220915	0.011761124	0.0005150466	0.0069868993	0.026687978	0.00088854594	-0.009357987	
-0.0044229934	-0.02305566	0.021971751	0.014967101	0.020012565	-0.013200634	-0.0061462866	-0.014541234	6.0798135e-05	-0.000732462	
-0.008007445	-0.0026789526	-0.0048766746	0.02093403	0.005536501	0.006733557	-0.0024741804	0.0072402544	-0.019239945	-0.010524067	
-0.006365494	0.0031144405	0.008648916	-0.01199888	0.017124886	0.005630555	0.0031843977	0.0060429284	-0.002355039	0.0062697646	
0.010345888	0.0028466284	-0.0033840253	-0.00470931	0.004332764	0.011987177	-0.0088235	-0.001953539	0.0033492025	0.00264629	
0.020196252	0.013388363	0.014901609	0.0014870246	0.003832576	0.0037075323	-0.0046752305	0.0026919472	0.008778309	0.01298152	
0.013456702	-0.011559564	0.0012425203	-0.009098145	0.008427934	-0.0016610966	-0.0020486056	0.013679413	0.0010476161	-0.0016945414	
0.0072018947	0.0029633113	-0.011220115	0.01445077	0.021274604	0.032129813	-0.01555033	-0.0020069245	0.012713186	-0.013028353	
0.0107224975	0.0073867226	-0.0063463524	0.0077839606	0.0072380323	0.005096936	-0.0064924452	0.01611781	-0.00067099795	-0.009978709	
-0.01150601	0.0063989996	0.011942385	-0.003462749	-0.004339461	-0.009989246	-0.0029267045	-0.003544031	-0.006449357	-0.010936054	
-0.0140588805	0.010293075	0.004398182	-0.009907568	-0.0051843883	0.0034254773	0.00589704	0.015309901	0.016274985	0.007987471	
0.008377777	-0.0130131645	-0.008282428	-0.0027772803	-0.006176741	-0.0027095892	-0.020338863	0.0028156869	-0.013549633	-0.0056535583	
-0.0011627781	0.00660432	-0.007510183	-0.0006692216	-0.0013736488	-0.005995543	0.008060175	0.00078188087	-0.0021582681	0.009130012	
-0.0059269844	-0.01649159	-0.001576514	0.004162554	0.0046677343	-0.0041608815	0.0070182723	-0.0036766496	0.013683607	-0.00025165037	
-0.028669057	0.014516716	-0.00968752	0.00048163222	-0.0042293137	-0.00030120314	0.006400987	-0.024375005	0.0130252	0.009667344	
-0.011882096	-0.0009142566	-0.018838732	0.013694805	-0.0027254196	-0.0099896	0.0041148206	-0.005151855	0.0040661134	-0.0025733665	
0.00572708	-0.004620802	-0.006259855	0.008390697	-0.009732937	-0.009315937	0.001223456	-0.013177959	0.006329125	-0.012508224	
0.006294019	0.008571156	0.011977099	-0.012902818	0.010266451	-0.0028259847	0.0074885017	-0.013315008	-0.005169431	-0.002233097	
0.0027146544	0.0038171466	0.007891602	-0.0010631196	0.006761222	-0.01166206	0.0024754456	0.0065265386	0.013867849	0.006706849	
-0.0013672617	-0.00086865405	-0.0003743129	0.021191198	0.007211212	-0.0038482454	-0.015652109	0.0036419109	0.014675256	-0.021589993	
0.013148733	-0.00019728368	-0.017657368	0.014252993	-0.0034082907	0.007355751	0.0003363497	-0.016896361	-0.02857123	0.0040718783	
-0.012018127	0.0021378358	0.007892919	0.009960859	0.015396785	0.006889801	-0.01472624	-0.0056044254	0.01883812	0.015266303	
-0.011604359	-0.0029021055	0.004534709	-0.009314674	-0.0257202	0.015909502	-0.00420098	-0.011304847	0.00900612	-0.01623395	
0.0075931237	-0.016946217	0.0048385356	-0.015466622	-0.019719658	-0.0031522783	-0.023313688	-0.015269536	0.006370604	0.0023189534	
0.017846273	0.0063424017	0.005453058	-0.0093647465	0.005778637	-0.0073199845	-0.0029424655	-0.0041855685	0.013949162	-0.0016919824	
0.009761309	-0.003542188	0.009909982	0.0058314465	0.0085057495	-0.01312028	-0.0035558187	-0.0022856037	-0.008171664	0.001826701	
0.0105501665	0.0031928918	-0.007738532	0.009348585	0.0050674244	-0.0068165106	0.008444539	0.005956726	-0.0012708415	0.016660435	
0.008920017	0.0054618595	0.0017921694	-0.009379788	-0.0074548167	-0.006311098	0.01780476	-0.0052611264	0.0039630667	0.007065258	
0.0024003494	0.0023425734	0.012076654	-0.020489484	-0.0009351365	-0.0010267944	-0.0134657975	0.007736512	-0.01734683	-0.008465493	
0.0038096688	0.0019725543	-0.0009368864	0.0070908098	0.009968728	-0.0009024516	-0.004295285	0.006030046	0.012812604	0.006274192	
-0.0004990635	0.015069857	0.0107294	-0.0007162942	0.0010235964	-0.0035940595	-0.001350722	0.0012117253	-0.0053100917	0.00061543024	
-0.0020266217	0.020344606	0.0037417335	0.003955252	-0.0018035773	0.00847168	0.00717154	-0.008238831	-0.0071060243	-0.010807223	
-0.0072602415	0.00025965815	0.014787966	0.0051970156	0.014898921	0.0012847356	-0.016580757	0.0050486634	-0.0042009237	-0.010590315	
-0.0126425	0.0001606926	-0.010465939	0.019087227	-0.02338078	-0.0051821247	-0.0025461465	-0.01029197	0.002612406	-0.0052738436	
0.0030735012	0.010714941	-0.0003034943	-0.009749027	-0.0030085156	-0.00030938725	0.006811708	0.016800407	-0.001807258	0.0039997506	
-0.004706527	-0.0013789454	0.0023985833	-0.009936843	-0.016021915	-0.006939623	-0.0022637388	-0.0064293095	-0.0071253795	-0.0057699666	
0.019826062	0.0019620548	0.0013193811	-0.009156457	0.0056064925	-0.0048593176	0.0022817492	0.006181951	-0.00035353063	0.009841162	
0.018644758	0.0046625733	0.00069834327	-0.014924053	0.004189585	-0.0018679794	0.0073777027	0.008699907	-0.013960088	0.0017739775	
0.0034107184	0.00035310152	0.0104545485	0.0034843055	0.0028630286	-0.0058359597	0.005277113	0.01004402	-0.0031812717	0.0096865995	
-0.006264009	0.002861646	-0.013588083	-0.013497129	0.011006072	-0.011376168	0.0030830353	-0.0129236085	-0.0009917007	0.0024198303	
-0.006873741	0.00032765657	0.005028769	-0.0033286721	-0.0100078015	-0.013482447	0.014649792	0.0074349563	-0.0050333827	-0.0023829541	
-0.002580402	-0.01733663	-0.006793566	0.0064746425	-0.0049236766	-0.0069254194	0.027642047	0.003619337	0.0074196965	0.001746812	
-0.01605943	-0.0053352006	-0.00642067	0.0058234427	0.00370835	-0.0068769306	0.021868754	0.005888052	0.0012676485	-0.014126573	
-0.005602897	0.010433802	-0.01833707	0.011128359	-0.011713865	-0.027961733	0.016361346	0.0031341165	-0.01386024	0.012639365	
-0.0048694694	0.0016142242	0.005977488	0.012876766	-0.024548132	-0.013035636	0.021665297	0.009227084	-0.0030554503	0.003058925	
-0.011498661	0.0035953869	-0.009085989	0.00021062318	-0.023583787	0.013182064	0.011455375	0.0019627705	-0.0071209683	-0.011214873	
0.00036146378	-0.004111857	0.0030497229	-0.0066853473	0.0011402258	-0.005160523	-0.007480009	-0.019922951	-0.015120015	-0.0041530184	
0.0035598122	0.0034154367	-0.0057256813	-0.019258646	0.0027045908	-0.0007513908	0.018286629	-0.016188787	-0.004945526	0.0009938143	
0.01130196	0.0029811896	0.0062515154	0.0077675334	0.0024980588	0.010957924	0.010795411	0.019360986	0.016268326	-0.0020361596	
0.008121064	0.0038249786	0.0016662946	-0.004336824	-0.0030955456	-0.0010551403	-0.00094689755	0.0057000783	-0.0013262315	-0.009082737	
0.0011069734	-0.013724052	-0.014949925	-0.0035646355	0.00090471853	-0.010009679	0.0014931335	-0.002538846	-0.0017665211	0.013524799	
0.0053663775	0.0106229065	-0.006120663	0.00060899515	-0.011891305	-0.010268235	0.012858906	0.0077454112	-0.0037672222	0.0039201463	
-0.020851493	-0.012905488	0.02353019	-0.014300957	0.0012084638	0.00031940424	0.00088375475	0.01532217	0.008091049	0.014568095	
-0.007822594	-0.004678331	-0.00852805	0.008739905	-0.0037779987	0.0066157817	0.0040905834	0.01481702	-0.008953465	-0.011342717	
0.010443536	0.002455724	-0.0099993	0.00034010527	0.0035072784	-0.0063568233	0.0051473514	0.019699063	0.013231519	0.019093987	
-0.013898818	0.006162706	0.006234653	-0.0133273145	0.0028401748	-0.013346147	-0.018625569	-0.0093548065	0.0013553066	0.0072330204	
0.004143196	0.002046848	-0.0100252265	0.003129887	-0.0005071409	-0.007757151	-0.0006185632	-0.010482602	0.00467414	-0.0015984479	
-0.0017802983	0.0037362939	0.023068644	-0.01805417	-0.0022023525	0.014784249	0.0053172833	0.008976962	-0.001905522	0.0031993196	
0.01792556	0.0007848783	0.0027637074	-0.00034683073	-0.010718042	0.004567433	0.013857158	-0.012457273	-0.0016938604	-0.023905365	
0.01217127	0.0048552323	-0.016462589	0.003369798	-0.008592967	0.00018430086	0.0015039059	-0.014027129	-0.007341372	-0.007768782	
0.0026546684	-0.004439418	-0.018519798	-0.00087755086	0.004242624	-0.007547187	-0.018242085	0.011920112	0.015257003	0.0012810628	
-0.0071507962	-0.002735322	0.0077688866	0.0013042632	-0.009610339	-7.3756266e-05	-0.0004988067	-0.0024892795	0.0072774123	0.006764945	
-0.0016222785	0.0115893455	0.0039185896	0.006086525	0.00045620475	0.01173537	-0.0064761643	-3.4658406e-05	0.00047813167	0.0080077965	
-0.010111904	-0.0013747922	0.004256056	-0.004659737	0.006148534	-0.0028966053	0.03197111	-0.0039127367	0.00017705123	0.004599849	
0.0037537853	-0.015030792	-0.0096708145	-0.018023763	-0.009172281	-0.0061004846	0.001676437	-0.00041716752	0.011629295	0.011541383	
-0.0049326983	-0.007008172	0.024166929	-0.011623386	-0.020447908	-0.015653946	-0.0052661784	-0.01005967	-0.005279357	-0.0016981288	
0.0031621319	-0.018494887	0.009638369	0.019828895	-0.0019358427	0.016450249	0.013969364	0.0031883367	-0.012309614	-0.0074025914	
-0.0022518404	-0.003018983	0.011533959	-0.0003145294	0.008701554	-0.024649333	0.027434712	-0.009261867	0.0147105055	0.014509808	
-0.0074556707	-0.021086229	0.024953756	-0.006402635	0.0050747846	-0.03303263	0.03340578	-0.00045755887	0.0060139927	-0.0050198846	
-0.011351175	-0.029325143	-0.0048695337	-0.0028019173	-0.0070674894	-0.030353835	0.044733357	-0.007308236	0.0028666453	0.008494197	
-0.0066615315	-0.009566388	-0.00042127148	0.010065698	0.004855135	-0.04094376	0.063995674	-0.0019319092	-0.012693687	0.0050580082	
-0.0023861865	-0.018817538	0.011325062	0.006016332	-0.01424425	-0.047637094	0.036891587	0.004181735	0.002944078	-0.014217455	
0.016092323	-0.003931298	0.0005768607	-0.019843232	-0.0038864359	-0.032042906	0.04531596	0.0009269172	-0.012320477	0.004678436	
-0.0075141024	-0.007920229	0.00414096	-0.018231468	-0.0030088937	-0.03207312	0.019350182	0.00835802	0.0265855	0.011192385	
-0.0039852746	-0.011658637	-0.0047289114	0.017818676	0.0005847059	-0.00045615959	0.0057705017	0.003436328	0.002275117	0.0119779045	
0.009396382	-0.007317424	-0.018445328	-0.009859034	0.009029755	-0.005300772	-0.0030877357	0.0029367732	0.0045108995	-0.0011358988	
-0.017113276	0.011478512	-0.008101176	-0.011561745	-0.02243237	0.0062354505	-0.0012171133	-0.00231309	-0.002053556	0.0062822853	
-0.009818867	-0.016994225	0.006940524	-0.008765221	-0.0062389667	0.0022021905	0.015908824	-0.0126995575	0.008796235	0.0038772894	
0.009135231	0.007177575	0.0026514712	-0.0018330086	-0.006226577	0.0005022103	-0.0056123813	-0.008534737	-0.0029943604	0.0064246776	
0.005247828	0.004478268	0.005194594	0.016263086	-0.007647202	0.004632185	0.005312148	0.01346226	-0.011134713	-0.016085656	
0.0046083047	-0.002549882	-0.0034406274	-0.0017254379	0.0012893269	0.0016546492	0.0016506094	-0.024837313	-0.00053883175	0.013436651	
-0.008458358	-0.010125769	0.0022673798	-0.015004367	-0.02229385	0.0036834017	0.0041685523	-0.000984872	-0.0040707137	-0.0044790083	
0.015551402	-0.0062240018	0.013521406	0.029137803	-0.004405187	-0.0055636326	-0.01150956	0.011705404	0.010868988	-0.0053222063	
-0.01636881	-0.008106679	0.0067427284	-0.0040767267	-0.0011189402	0.00039899978	-0.0041991915	-0.0060769343	-0.0027680916	-0.0012020989	
-0.005355733	-0.008677672	-0.015257722	0.0049484875	0.00431166	-0.0060805627	-0.005524967	0.0017223407	-0.00095903064	-0.0033704902	
-0.0015396142	0.012581615	0.011428616	-0.0032226376	-0.00990227	-0.008349514	-0.008323273	-0.01049218	0.012349781	0.013455316	
0.007769939	-0.0153905945	-0.0032785044	-0.010409349	-0.025113711	0.0065854653	-0.005121565	0.011844169	-0.0018325967	0.0018001904	
0.0053866743	-0.006067676	-0.0044782115	0.003515339	-0.004604646	0.007856956	-0.0011662063	0.003979911	0.017288042	-0.0017554353	
-0.009586207	0.021464039	0.0038335458	0.008135005	0.014533549	-0.0016391771	0.006815484	-0.012974498	0.009639073	0.0010186556	
0.00015659003	0.015391254	-0.011667805	-0.003304401	0.0013882056	0.011787359	0.005790753	0.003192361	-0.0030381244	0.007507669	
0.0048082834	0.0072599365	0.010315354	0.0019469082	-0.0062905955	-0.0047757193	-0.0050046695	-0.000980468	0.004060254	0.0057343277	
-0.005116111	-0.014546661	0.008860871	0.006633172	-0.00487471	0.018398391	0.016267326	-0.012083241	-0.006228968	-0.016669944	
-0.016498424	-0.01336175	0.007999217	0.00764035	-0.012731062	0.02515152	0.0085977465	-0.009892342	-0.012078932	0.018766226	
-0.0009340315	-0.029475436	0.0235914	0.012062736	0.0123361	-0.007816047	-0.00400297	0.0022511217	0.0059722248	-0.0077477098	
-0.0048001246	-0.008447894	0.02376265	0.007956269	-0.034320053	-0.012428806	0.009973985	-0.016139742	-0.0066485596	-0.010186959	
-0.01519838	-0.013055081	0.020284118	0.0007011473	-0.016092831	-0.0230982	0.023523822	-0.0022797717	-0.013525322	-0.0022939795	
-0.0012406035	-0.00585352	0.039665658	0.027035765	-0.013033072	-0.03052942	0.03923474	-0.020657685	0.007831007	-0.021896869	
0.0013399341	-0.024812538	0.024344796	0.030892314	-0.022902347	-0.04513366	0.04478477	-0.013794246	0.017528433	0.00046994473	
-0.012745291	-0.03206748	0.0064091743	0.028035756	-0.02586175	-0.04276104	0.066507265	-0.014578047	0.011873914	0.010854738	
-0.008949118	-0.009349711	0.0055455663	-6.358322e-05	-0.012068672	-0.011774868	0.045101076	-0.007566983	-0.006679549	-0.017598737	
-0.0012967404	0.021910561	0.010166129	0.0048216544	-0.013477705	-0.008529889	0.03886551	-0.014837604	0.014334958	-0.002464859	
-0.016903225	-0.0038353896	-0.012827439	-0.0053038527	-0.0024622474	-0.0041285213	0.017845431	-0.0064686914	0.019748135	-0.014327852	
-0.010710368	0.0005412443	0.012395859	-0.009871446	0.0006019695	0.0057061887	-0.004874553	-0.0070840176	-0.0042481464	-0.011256272	
-0.003697266	-0.011741169	-0.0009010373	-0.009640339	0.00036014558	0.028055795	0.010526706	-0.018256156	-0.006290554	0.015204022	
-0.02825613	-0.005548568	0.012700269	0.00013267894	-0.021888265	-0.0049727852	0.00857712	-0.011566649	-0.011103016	0.0020548587	
0.006907231	0.0027986031	0.004335943	0.0069717825	-0.0038888734	0.0031327899	-0.01638409	0.01011283	0.027133523	-0.0159189	
0.0017945888	-0.019996108	-0.0031616471	-0.005340743	0.0005700758	-0.0062161773	0.00763931	0.009153917	-0.0066910405	-0.017889857	
0.008537346	-0.011270805	-0.0021993853	-0.01435	0.012101262	0.006527444	-0.0017307816	0.004966699	0.0074555273	-0.00986772	
-0.012340834	0.0010505059	0.0096872635	0.014934081	0.01861784	0.0023871218	0.01395557	0.0024258045	-0.007327631	0.0033373707	
6.8911986e-06	0.0060445485	0.016964553	0.00746014	0.012366555	-0.0027416719	0.00088104577	-0.007515427	0.010684063	0.006819388	
-0.00975531	-0.0011218719	0.0011734794	0.005120528	-0.009744391	-0.0031484696	-0.014794207	0.020870538	0.023044543	0.022712773	
-0.0020582504	-0.0050530215	0.015296333	-0.00953435	0.0028070135	-0.0065761446	0.00047744802	0.0019054182	-0.008186105	-0.0060316003	
0.0017584498	0.01167036	-0.008429186	0.0025924619	-0.01576426	0.0118873045	0.0074820914	0.01623944	0.010272673	-0.018739205	
-0.0025009252	-0.017790899	0.0041467436	0.015163188	-0.008362942	-0.011751028	0.0024914274	-0.015468458	0.00808955	-0.01343513	
-0.004096045	0.007471882	-0.00685997	-0.002376861	-0.004728668	0.0065770536	-0.0008744297	0.013392384	0.0029967814	-0.0012056708	
0.004258307	-0.0050923545	0.02313675	0.0069669588	0.0076250774	0.015935106	0.0072570606	0.0022478092	-0.0031520945	0.0027698355	
-0.0153249055	-0.0005257676	-0.0026743014	-0.017090151	0.013186196	0.0056647817	-0.015843894	-0.0052705286	0.005720218	-0.015954768	
0.0028670044	-0.023043819	0.020751167	0.0006449386	-0.0037177552	-0.010223777	0.008656224	0.0023541152	-0.001090329	-0.007875266	
-0.011972092	-0.014819318	0.020215847	0.0030709407	-0.0032701192	0.012289483	0.0071758926	-0.0053853444	0.005721706	0.012378043	
-0.027896399	-0.026708547	0.024683299	0.0319876	0.010597357	0.025447888	0.017347824	-0.0020234147	0.0032391094	-0.009240713	
0.008498142	-0.0398897	0.024556406	0.014131006	-0.010071396	0.006546986	0.021826217	-0.0145161925	0.002128168	-0.024513435	
-0.013909662	-0.03224819	0.01412578	0.020147806	0.0006440808	0.02645575	0.015442144	-0.01369615	0.01750192	0.008282045	
0.00086097204	-0.024119135	0.0059844214	0.020905022	-0.0190571	-0.0066927834	0.0151250055	-0.003580797	0.01587298	-0.012935612	
-0.0065878937	-0.014976847	0.008729496	0.044953424	-0.038208112	-0.030061018	0.05210762	-0.043238748	0.028380908	-0.0027424144	
0.0064290385	-0.015117241	-0.00062834227	0.03940605	-0.03646582	-0.009462767	0.03446288	-0.034147616	0.046142515	-0.019945445	
-0.002017	-0.029947998	0.020273644	0.032325428	-0.02281395	-0.015620691	0.05556488	-0.057105877	0.031681783	-0.016391741	
0.013498568	-0.018248944	0.0040474473	0.0068845837	-0.0250758	-0.0241492	0.040281896	-0.067693666	0.046539742	-0.014035004	
-0.008922134	-0.00013158456	0.003560196	0.00903931	-0.04634052	0.005627043	0.029152488	-0.056442704	0.04433788	-0.0037912952	
0.0042439993	0.007259339	0.011077766	-0.0010615352	-0.0047886926	0.0026743838	-0.010576783	-0.039840084	0.040833883	0.0009838598	
0.022401582	-0.00022039663	0.012242555	0.010009547	0.009524902	0.044765577	-0.026723247	-0.017279116	0.025400752	-0.026370445	
0.0032688137	0.002738955	-0.0036974563	-0.024513176	-0.008871359	0.054460183	-0.006356123	-0.013366061	-0.00021835911	0.0005553642	
-0.008384461	0.00040015508	-0.021780882	-0.0016009262	-0.0037059248	0.027490936	0.0058435127	-0.004053712	0.01233238	-0.019390916	
0.0047759824	0.021158654	-0.009910242	-0.01377755	0.0014007223	0.024887905	8.162788e-05	0.009900893	-0.0058459737	-0.0021418496	
0.0018925774	-0.0011567313	-0.001583142	-0.027540393	-0.0025863606	0.029084729	-0.009089821	-0.017877858	0.0086987605	-0.006431202	
0.006670679	-0.005733933	-0.0005206679	-0.0018947254	0.010985109	0.0066966857	-0.014339509	0.018757291	0.004068217	0.006588465	
-0.009324015	-0.0026990657	-0.008963832	-0.024460975	0.013655315	0.000951253	0.0039401385	-0.010402199	0.02115688	-0.0027369284	
-0.0077747595	0.008442532	0.004152797	-0.011277161	-0.017755792	0.024403907	-0.0049052676	-0.0037526116	-0.013489487	0.0083376095	
-0.0013666451	0.001991263	-0.004490486	0.0028686353	0.012248069	-0.0075635235	-0.0038345875	-0.0064373137	-0.004102796	-0.025061583	
0.010290813	0.010279082	0.010714411	-0.0072059366	-0.002863548	-0.009700096	0.0072922246	-0.0007191302	0.0021104428	0.0082761645	
-0.003125104	0.0050080228	0.01363173	0.0035698302	0.0068456396	-0.023896344	-0.015307522	-0.00397987	-0.0011128269	0.006660747	
-0.0012190468	0.009891145	-0.014694748	-0.001836078	0.0025533112	-0.0108586	0.0015583162	-0.012543394	0.012062832	0.003923058	
-0.01074911	-1.665233e-06	0.013515652	-0.0015448944	0.007900944	-0.012938644	-0.0023471348	0.008831904	-0.006414106	0.0012904201	
-0.0036193228	-0.006617395	0.0073121465	0.0037233569	0.0040043946	-0.016632501	0.0021405837	0.0010859238	0.0067849457	0.004990691	
-0.002200781	-0.027116053	-0.00728663	0.014581291	-0.0029502627	-0.013253577	-0.026649117	0.0053222845	-0.008071482	-0.0075171734	
0.0038059908	-0.028630964	-0.004890614	0.035004232	-0.0037354797	-0.004280782	0.008410478	0.016924862	0.009135207	-0.0032926933	
0.018881079	-0.021495856	0.0015706416	0.012164664	0.0021402643	-0.017749595	-0.002113684	0.015006359	-0.0003029773	-0.005260346	
0.001396873	-0.02980002	-0.025160763	0.027265616	0.0031623165	0.011251199	-0.027199948	0.0014387085	0.008600693	0.012374908	
-0.011712629	-0.041712426	0.0040033776	0.04182642	0.021543758	0.009322781	0.008031641	0.003059215	0.028269831	0.004699048	
-0.00479666	-0.043817632	-0.0014353908	0.03234091	-0.011602615	0.017193958	0.0069122757	-0.03471131	0.028572757	-0.0034075452	
0.0015668878	-0.035062045	-0.015998466	0.029666452	-0.03206168	0.003668828	0.0027492342	-0.021912146	0.041716482	0.020426415	
-0.015578977	-0.02736186	-0.0088	0.02095807	-0.020141242	0.0044019152	0.022691226	-0.05264182	0.037652858	0.02586427	
-0.009339289	-0.015947616	0.0063541033	0.06124468	-0.042935595	-0.016456991	0.05593462	-0.047316886	0.027985943	0.026138121	
-0.0033249971	-0.004210781	-0.012981855	0.034776706	-0.06466593	-0.0074287984	0.040734332	-0.058321014	0.036952265	0.043214448	
0.0056967903	-0.03050866	0.005515182	0.04002331	-0.05182306	0.023353202	0.011115748	-0.060242157	0.028437907	0.04701922	
0.00050755363	-0.023081591	0.011793981	0.014653006	-0.037175324	0.0015315705	-0.005370186	-0.071491644	0.028723452	0.033150725	
-0.0039397683	-0.01622938	-0.016468097	0.020371044	-0.018094387	0.018629994	-0.0071809813	-0.064591415	0.025231136	0.0092042	
0.007501382	-0.013476561	-0.026108697	0.014657685	-0.026948612	0.042183295	-0.018738909	-0.052708477	0.03186466	0.0053517716	
0.018244447	-0.02443767	-0.012649824	-0.00421779	-0.007162264	0.032483812	-0.0105743	-0.027525997	0.03692416	0.005932289	
0.00036713947	-0.027304137	0.0013787171	0.009797498	-0.005372576	0.03455269	-0.01738285	-0.038717058	0.02926975	0.0026458376	
-0.0072493795	-0.030316317	0.001298493	-0.024834815	0.0016678033	0.03103285	-0.0064613405	-0.025399478	0.019936427	0.00069467846	
0.00710768	0.0045063104	-0.008203296	-0.016361563	0.007269936	0.035654448	0.0031135054	-0.020504532	0.0002791216	0.00086528226	
0.016715467	0.0019425197	-0.0009512122	-0.015457859	-0.009673785	0.007941322	0.012011355	0.0026469573	0.008164024	-0.0025312107	
0.0006800936	0.0011712745	0.017420184	-0.0056278417	0.0019259767	-0.0016346427	-0.009370355	-7.4711133e-06	-0.0040620384	-0.0049424465	
-0.004921017	-0.0040519927	-0.0022331546	-2.758755e-05	0.005233541	0.012912755	0.0002135958	0.010996876	-0.010456182	0.0014206654	
-0.0010259672	0.0028218573	-0.019324757	-0.011047586	0.005355455	-0.022437742	-0.0029102596	0.0065166345	-0.0131944455	0.0018918153	
-0.016532548	0.005656469	0.019845191	-0.0030843047	-0.0013442513	-0.006887769	0.007888155	0.00697962	0.016474444	-0.008777012	
0.012182955	0.023182003	0.009786993	0.0108173145	-0.014957409	0.00310523	-0.009639526	-0.015313997	0.010220192	-0.0007138524	
-0.005667262	-0.003712049	-0.008921852	-0.017997064	-0.011559999	-0.008102266	-0.0009825809	0.0007310596	0.017586675	-0.0039220112	
0.010063203	0.0027792712	-0.010013912	-0.011220916	-0.005512813	0.005441905	-0.0047262013	0.0043586255	0.00076725025	-0.003107519	
-0.003555748	-0.00019862862	-0.002523642	-0.0033827643	0.011141635	0.0057844957	-0.0004191826	0.011755815	-0.002667838	0.011677755	
-0.010569533	-0.010082096	-0.012544904	0.015252123	0.014666048	-0.009487937	0.0064549115	-0.0005171147	0.005576678	-0.0021648586	
-0.01819768	-0.013474652	0.004293234	0.014317323	0.0233559	-0.009393549	-0.0022985595	0.009844838	0.0123676825	-0.013548454	
-0.00918809	-0.035304714	-0.0049250945	0.009481522	0.009980222	-0.0063454104	-0.019996246	0.01809127	-0.0025814506	0.012107633	
0.0029391537	-0.019839229	-0.006046371	0.028869303	0.011798028	0.008691599	-0.015291043	0.009080706	-0.019372419	0.0059067546	
0.009423143	-0.03682782	-0.0058676274	0.02280249	0.0013405036	0.006475648	-0.012628166	0.026214004	0.021133907	0.016737133	
0.003787957	-0.040014748	-0.0119820135	0.0049987016	-0.0029859007	0.014004092	-0.022586035	0.006836984	-0.00041337113	0.015264226	
-0.009400415	-0.051347543	-0.022592077	0.026179118	-0.020253316	0.021236857	-0.019407624	0.002864617	0.023362515	0.045013566	
0.010887079	-0.046854444	-0.015045267	0.019958097	-0.025263837	0.0070904265	-0.020325586	-0.00025896746	0.007926827	0.042596128	
0.011198759	-0.03262418	-0.013723466	0.017174155	-0.054820273	-0.005465797	0.0027548121	-0.010211919	0.028033381	0.074241936	
-0.010453138	0.005460101	-0.009265115	0.021739658	-0.070728675	-0.004125951	0.020863872	-0.014706485	-0.027398976	0.09262062	
0.016642889	0.015191318	-0.016063144	0.029418318	-0.058847357	0.0112350695	0.0024209316	-0.028470892	-0.0032081928	0.0706373	
0.014840575	-0.021801498	-0.020002244	0.02782282	-0.060189188	0.0029093318	0.0044247922	-0.021634744	-0.027755685	0.083930254	
0.028933756	-0.028877553	-0.013132751	0.032602135	-0.037313953	0.014208561	-0.046363063	-0.023971938	-0.010053887	0.06127178	
-0.0021672049	-0.013044004	-0.011807221	-0.000662849	-0.021716435	0.022551171	-0.063165456	-0.025231013	-0.014614948	0.055709984	
0.0072834273	-0.016897105	0.006407034	-0.0056857397	-0.009572239	0.051545948	-0.0420173	-0.012522717	-0.0005252758	0.039665967	
0.020466542	-0.024501419	-0.017770408	0.009106515	-0.005958427	0.05195486	-0.025621656	-0.0143599175	0.028036557	0.047032136	
0.015106396	-0.024733206	-0.0074740495	-6.207617e-05	-0.00033010953	0.04100932	-0.0074090865	-0.03126965	0.028418504	0.0043181786	
0.013220214	-0.022060642	-0.016920313	-0.004025042	-0.004109931	0.043986265	-0.014845231	-0.014268425	0.008274802	0.017773261	
0.0034560307	-0.012912645	0.0093738595	-0.011703578	0.006760917	0.03254539	-0.0121283	-0.024172852	0.010332507	-0.004132559	
-0.0020548983	0.0010492824	0.004345037	-0.015047202	-0.01841627	0.025731342	0.00042074625	0.0061153974	0.011363271	-0.013627606	
0.0032617336	0.014915755	-0.002270612	-0.005392971	-0.0039984	0.007785012	-0.0044875895	0.016621068	-0.0034425736	-0.0011471472	
0.004322031	-0.005326374	-0.006992513	0.0033254186	-0.021002041	-0.007735819	-0.0001643082	-0.013924389	0.0015347926	0.017325522	
-0.0015764092	0.0054173386	-0.0030361398	0.0061747003	0.0033448683	0.016619788	0.0054863645	-0.018174669	0.002521995	-5.642801e-05	
-0.0057433294	0.0036097774	-0.005150389	0.0064658322	0.0050042896	0.0151007995	-0.0036891492	0.009720558	-0.0010482281	-0.009410802	
0.0015120404	0.0047420985	-0.01124204	-0.01764953	0.0033874377	0.0038026907	-0.00044599615	-0.0030921735	-0.0070326026	-0.021547597	
-0.011119434	-0.0031879612	0.014111741	0.011139879	0.013984712	-0.0015783458	-0.019210916	0.007024175	-0.0006135083	-0.0013364297	
-0.012670903	-0.0018816879	-0.004172053	-0.004004291	0.017918948	-0.008086864	0.0010940862	-0.002489404	-0.003738323	0.0118666645	
-0.025902595	0.005286879	-0.023753745	0.00604696	0.0006242959	8.370117e-05	-0.0059201117	-0.003955078	0.00020814236	0.007338052	
0.009576468	-0.014561796	0.006161552	0.017170494	0.002499039	0.011715398	0.023786081	0.0020986747	-0.01795387	-0.028240649	
-0.01867448	-0.022842392	-0.011097704	0.017989798	-0.0011426256	-0.011376073	-0.023616554	0.026270919	0.008466575	0.0018925399	
0.005949775	-0.012359306	-0.018772531	0.0187806	0.0016812407	-0.011896499	-0.026397085	0.009551108	0.0144215	-0.014515544	
0.0011569937	-0.027887728	-0.003942601	0.0028944896	-0.0010052507	0.0076661934	-0.029204348	0.017935986	-0.0032938935	0.006832604	
0.0014807369	-0.041175727	-0.009794316	-0.025261614	-7.11171e-06	0.024756772	-0.04003464	0.035339933	0.016887326	0.012374397	
0.03712136	-0.049746014	-0.009984885	-0.007711518	-0.00479596	0.0009582698	-0.025824945	0.047186837	0.008865482	0.039143436	
0.031756446	-0.06647799	-0.009824408	0.008038242	-0.012812603	0.006922731	-0.0058036475	0.033783276	-0.0054916795	0.07175414	
0.015770866	-0.03816323	-0.029837579	-0.001214403	-0.028962389	-0.009371452	-0.010420757	0.034877736	-0.005593966	0.08202396	
0.019443424	-0.0048783813	-0.014647635	0.002883197	-0.054442868	-0.021687407	0.00898035	0.026929373	-0.015804548	0.076183096	
-0.013422974	0.05280679	-0.03064897	-0.017179359	-0.07046256	-0.012958453	-0.011627572	0.029264193	-0.02613283	0.080849305	
-0.004196183	0.034113105	-0.026578823	0.01745205	-0.062295858	-0.013171269	-0.030201001	0.03824206	-0.0328719	0.052662514	
-0.017451277	0.03268467	-0.01580287	0.020246338	-0.035963614	0.017414937	-0.05254521	0.05490979	-0.053353515	0.07550243	
-0.011848562	-0.01760257	-0.010987393	0.018722622	-0.019645432	0.03054666	-0.042074125	0.053495113	-0.025143404	0.06158152	
-0.009810254	-0.027530564	-0.0041180886	0.03723401	0.0018081171	0.022875445	-0.056791384	0.039481804	-0.029027672	0.049883895	
0.024201585	-0.037220314	-0.024253685	-0.012129862	0.011072821	0.030159945	-0.06559161	0.016439578	-0.01039817	0.060919315	
0.010016975	-0.033848546	0.0059101023	-0.01591959	0.0026304799	0.033332877	-0.06143804	0.01216366	0.013359372	0.043366708	
0.029587764	-0.040717307	-0.011124946	0.014357224	0.001684874	0.057296574	-0.039599378	-0.016384436	0.040804163	0.0070461156	
0.015078008	-0.021267341	-0.0052439123	-0.007855817	-0.010647325	0.03780786	-0.022100568	-0.023240706	0.014139511	-0.0028693422	
0.0023607728	-0.016658004	-0.0075202473	0.007391836	-0.0044729896	0.01645271	-0.006573684	-0.023037015	0.00357258	-0.012205357	
-0.016772002	0.00684756	0.0034852521	-0.0006193721	-0.0020560569	0.01508538	0.0034852664	-0.005253992	0.017639628	0.0142789455	
-0.0063534766	-0.013676131	0.0073953224	-0.0077326894	-0.0044300463	0.009820226	0.002451102	0.0053878855	0.01309166	0.015374676	
0.021050721	-0.008820514	-0.011641933	-0.009936976	9.935098e-05	0.016789243	0.0113903815	-0.022984745	-0.0031439885	-0.0047380766	
-0.0061092027	0.0031649785	-0.025166757	-0.0173938	-0.006196338	0.013343274	-0.0047405283	0.005811479	0.014120955	0.0070081563	
0.005441487	-0.01096763	-0.0020552187	-0.0086408155	0.0020264958	0.012523653	-0.00457106	-0.021158636	0.0068340977	0.009294011	
-0.012328725	-0.0067267595	-0.008499921	0.0022523094	0.00852973	0.007890345	-0.013614463	0.017043483	-0.0144202225	-0.0028842408	
0.00045584436	-0.008907364	-0.0016441346	-0.0110704135	-0.0048615127	0.0017873815	-0.008730081	-0.017701225	-0.013904738	-0.0018230098	
-0.0062411316	0.012543079	0.0038278806	0.019848833	-0.01058718	-0.007991846	0.02750874	0.004096788	0.016893674	-0.020030724	
0.007625724	-0.022786073	-0.0029447903	0.005623269	0.019309856	0.0073186555	-0.0049940175	-0.0066504357	-0.002474398	0.001803449	
0.006612149	-0.0039256	0.019384459	0.0045073763	-0.005211451	-0.00870344	-0.0006666254	0.015511255	0.0047412473	0.00022408279	
-0.0124813495	-0.026979454	0.002495669	0.006985767	0.01878183	0.004615501	-0.011068994	0.019074073	0.0056804246	0.0026385835	
0.019109135	-0.013011085	-7.701752e-05	-0.012395428	-0.003050961	0.004907683	-0.034204688	0.034141924	-0.0051157926	0.020007111	
0.03172075	-0.0337878	-0.0067657125	-0.0237441	-0.009109333	0.026258381	-0.03298545	0.05010882	0.0010552322	0.03738484	
0.03170454	-0.03685663	-0.010440909	-0.019029986	-0.0043221354	0.009823924	-0.02023797	0.061306067	-0.0015139999	0.03959673	
0.023649752	-0.0382967	0.010496306	-0.045843054	-0.017328054	-0.012273667	-0.030407269	0.053577997	0.01272146	0.0777304	
0.02954733	-0.04968739	0.0065924353	-0.029360216	-0.029399393	0.005351888	-0.055922545	0.041303173	-0.0154005475	0.08488704	
0.048046287	-0.017616693	-0.018281743	-0.041111827	-0.037523888	-0.018712355	0.016237242	0.023399489	-0.015182466	0.07832267	
0.007595882	0.045110755	-0.02565495	-0.025789985	-0.039644666	-0.0100849345	0.023838613	0.043093022	-0.020460576	0.05607868	
-0.0052355463	0.061841894	-0.0148187205	-0.015150504	-0.06520805	0.0064191557	-0.008295589	0.056522354	-0.027178073	0.042121258	
-0.019706346	0.076091334	-0.015825802	0.012312179	-0.048483092	0.008358527	-0.04431816	0.048916437	-0.02042928	0.031242166	
-0.03530223	0.03584908	-0.019720715	0.009851999	-0.046327755	0.008182002	-0.060108185	0.051107947	-0.020413132	0.008412344	
-0.02365977	-0.013483717	-0.01317546	0.030059647	-0.0052833846	0.0033216649	-0.08502359	0.08289755	-0.039020937	0.071614236	
-0.012097522	-0.02106064	-0.010065019	0.005344415	-0.00766953	0.00662154	-0.08545356	0.056050133	-0.0031076686	0.06374785	
0.04091742	-0.04035552	-0.011577004	-0.015891649	0.0039296537	0.017259104	-0.078747906	0.03396076	0.008003312	0.028407728	
0.056790568	-0.05291841	-0.01456568	-0.0043678093	0.017660333	0.037768785	-0.0454721	0.00601963	0.024334513	0.033247158	
0.04626459	-0.052253667	-0.013989305	-0.015591026	-0.003529412	0.02028563	-0.06444784	-0.032571144	0.031156396	0.004138512	
0.024607297	-0.011722651	-0.0039107213	-0.012253898	0.0024163048	0.017279504	-0.020461349	0.003275308	0.029473415	-0.007304154	
0.018274046	-0.020723648	-0.013187592	-0.015383454	-0.014667311	0.023571398	-0.018962212	-0.021352082	0.008892665	0.0034823162	
0.0038136852	-0.011429368	-0.0011338387	-0.0027641638	-0.009306378	0.030459872	-0.00520656	-0.009136004	0.02143323	0.0025540583	
-0.011520787	-0.012537993	0.01891012	-0.008965441	-0.025105486	-0.00031443598	-0.016285283	0.009463586	0.007586321	-0.0016907755	
-0.005379888	0.004680926	-0.0043909648	0.011653695	-0.0069796233	0.017246354	0.006031174	0.008718089	-0.012356835	0.017384484	
0.029861191	0.0040276735	0.004995509	0.0023838107	0.005901179	0.006639741	-0.020118628	0.005250575	0.010209362	0.0026679302	
-0.01646936	-0.009867721	-0.01313698	0.0005287661	0.010727714	-0.014325405	0.0026436495	-0.004443411	0.0034351568	-0.009129824	
0.016426427	-0.023756506	0.009920418	0.009042706	0.0027788188	0.0039667324	-0.011376268	0.007510026	-0.015670773	0.0028664556	
-0.0121788895	-0.017285973	0.008035186	0.014580393	0.0019383	-0.0048033423	0.006987467	-0.0028366426	-0.015036034	-0.010403434	
0.0031991466	0.022101112	0.008634111	-0.0022877469	0.0009086068	-0.014212531	0.0036525778	0.007988876	-0.002745028	0.0011992313	
-0.0099054305	0.013628432	0.002569529	0.012424934	-0.015544658	0.0011468651	0.012334172	0.030836493	0.0047313315	0.014169813	
-0.018438803	-0.006529631	0.0055573294	-0.009212397	0.012787394	0.00039192213	-0.0066395006	0.02433984	0.0027477772	0.008659017	
0.016844554	-0.00637727	-0.004298455	-0.014004324	0.005183729	0.0106361685	-0.031340905	0.011202652	-0.017914088	0.0045525786	
0.008755344	-0.04444402	0.015194546	-0.013901956	0.010618968	-0.011740544	-0.019963289	0.03027114	-0.0010110422	0.016816009	
0.0044512977	-0.024724873	0.0064714663	-0.012944256	0.007647847	0.013010116	-0.02062055	0.048197556	-0.013836764	0.023785654	
0.035274025	-0.021315828	-0.019204952	-0.039371233	0.005078588	0.006984885	-0.026475359	0.026638104	-0.01321048	0.05334329	
0.017640237	-0.026303506	-0.004421657	-0.057358827	-0.0026417868	-0.006032055	-0.005875684	0.021187214	-0.021782795	0.07633811	
0.014458269	-0.03286378	-0.016990852	-0.06488695	-0.017108452	0.008809509	0.0077446476	0.013002726	0.006207587	0.062478617	
0.026786981	-0.0082031535	-0.020132877	-0.03877315	-0.03215447	-0.015672246	0.026419275	-0.00089346	0.003356895	0.04315701	
-0.007065947	0.05472945	-0.04397409	-0.0131014455	-0.057493687	0.010005232	0.005235118	0.015042991	0.008449733	0.018390134	
-0.03722802	0.10012333	-0.041118708	0.022588655	-0.058954515	0.009708859	-0.0140475035	0.014521817	-0.005875592	-0.022671545	
-0.0606925	0.09513059	-0.023782883	0.01559769	-0.03329419	-0.005764567	-0.02264838	0.016697073	-0.0093417745	-0.021209955	
-0.07133222	0.040152825	-0.025322016	0.03129512	-0.0049437275	0.0151388645	-0.083007924	0.03575741	0.011121084	0.014441239	
-0.032374397	-0.008099305	-0.02664514	0.042217977	0.018116979	-0.0014583014	-0.06964772	0.049374394	-0.007353382	0.0409502	
0.0030522794	-0.05205206	-0.015822522	-0.004974863	0.03306707	-0.006956219	-0.07862084	0.046849728	-0.0068135676	0.07520066	
0.024754556	-0.06743222	-0.00597252	-0.00898483	0.033379715	-0.022624986	-0.06440672	0.011521113	0.01985474	0.06232252	
0.042496905	-0.07025151	0.008981772	-0.0065890243	0.015297804	-0.016082158	-0.06069737	0.008949742	0.014413429	0.04022852	
0.045470808	-0.033764914	0.008334889	-0.016248096	0.00935348	-0.01867845	-0.04651243	0.018553553	0.018248133	0.016996888	
0.03271766	-0.04072655	-0.0216337	-0.0071670865	-0.009273134	0.011647218	-0.032871176	-0.0047738	0.03392217	0.013756936	
0.0256988	0.009506538	0.0064076465	0.0034377652	0.00036605386	0.0139093045	0.0011837472	-0.0012056065	-0.0056623993	0.009855161	
-0.016214924	0.003814105	-0.007332389	-0.014956128	0.0007876636	0.007910993	0.00017207437	0.005884354	0.00052777136	0.004302863	
0.00610844	-0.00018036831	-0.000108606924	-0.0007891835	0.010226753	0.008261073	-0.008080953	0.008439567	0.0076052197	-7.008489e-05	
-0.007419334	-0.010367298	0.008748947	0.004228921	-0.0010633167	-0.0036003646	0.0039706645	-0.00510822	-0.0023075526	0.0059854393	
0.018656494	-0.0041711866	0.004163819	-0.019647745	0.01160663	0.0057921894	0.0132962065	0.02318844	0.0009710528	-0.0008049177	
0.0027264373	0.026932541	-0.0032167286	0.018825462	-0.0075884196	-0.0071318094	0.0061572315	-0.006815288	-0.011187454	0.00021115298	
-0.013417104	-0.010079696	-0.008366328	-0.00056185457	0.00047375564	-0.0083753085	0.006894445	-0.0012220349	-0.00072723697	-0.006684745	
-0.0068926476	0.0033674897	0.00649531	0.0081806835	0.021534119	0.0025736275	0.011397791	0.018549915	-0.004213533	0.0016916075	
0.0027163597	0.0026650035	-0.0026504365	-0.010045582	0.017780636	0.0048068697	0.0021840304	0.0067249904	0.0068544378	-0.006463104	
0.004160067	0.009243449	0.005738579	-0.020861734	-0.0150478035	-0.00036454806	-0.01642893	0.029539108	0.009095661	0.0048886477	
0.0051636174	0.0047755875	0.016608093	-0.007014579	0.029734531	-0.00720492	-0.0007686667	0.0083685815	0.0016198735	0.013636779	
0.0062499847	-0.0065586814	0.0074356906	-0.016676486	0.017743105	-0.012998548	-0.0079084765	0.0062508774	0.0017901001	0.01753202	
0.0185306	-0.002549996	-0.008071306	-0.024368135	0.00846132	-0.02076593	-0.0040163235	0.028907383	-0.020458883	0.022674546	
0.049564045	0.0064054816	-0.019720837	-0.048474096	-0.002776426	-0.0055853636	-0.018985884	0.023146916	-0.028907536	0.03939846	
0.024163593	-0.04029551	-0.011117303	-0.062447336	0.017590499	0.009310851	-0.007652683	0.007781527	-0.045295484	0.085647516	
0.033175927	-0.02082796	-0.029513266	-0.057163995	0.0010470088	-0.0023554494	0.03714589	0.029406613	-0.022432357	0.070354626	
0.015732853	-0.032303035	-0.029918151	-0.06770784	-0.009489484	0.01164076	0.040101357	-0.012480634	-0.0014280147	0.06976329	
0.0119884135	-0.014505732	-0.037002597	-0.034580965	-0.019232411	0.020516615	0.059714403	-0.04140933	0.050427243	0.024389928	
-0.012141295	0.053586453	-0.067630775	-0.001919197	-0.022053074	0.008154762	0.018123506	-0.026035327	0.021670723	-0.015681988	
-0.07274956	0.123902336	-0.048509434	0.049352843	-0.052092943	0.0056998786	-0.005509165	-0.010952387	-0.006239668	0.0015309101	
-0.10228727	0.122232765	-0.034143128	0.059618272	-0.014332475	0.0116927195	-0.025835415	-0.011936777	0.012794117	0.005824173	
-0.06293271	0.05905593	-0.00021045753	0.0437807	-0.0027625829	0.019062253	-0.059214722	0.014769956	0.022117304	0.03885809	
-0.05608321	-0.0054301363	-0.019562775	0.00714721	0.025291737	-0.0009202516	-0.05376305	0.034226548	0.018141896	0.084014826	
-0.019607384	-0.043631427	0.010057435	0.001062422	0.028829116	-0.022614148	-0.04629513	0.013865087	0.019029818	0.07131191	
0.0027089347	-0.05479823	0.0046682227	-0.0040430273	0.030782856	-0.053344555	-0.03813763	0.037467204	0.004964599	0.07990399	
0.03360752	-0.06134534	-0.011111457	-0.03534966	0.025783962	-0.022648407	-0.02774379	0.024829786	0.010413328	0.03476839	
0.04281035	-0.041473817	0.010133633	-0.00665474	0.0034697896	-0.020219166	-0.033530276	0.01029535	0.0031990642	0.00704269	
0.04846025	1.7049424e-06	-0.0018531696	-0.0056535886	0.006341222	-0.0072712554	-0.016251232	-0.013356007	-0.0017929198	0.00030522543	
0.027726209	0.0063149263	-0.005408293	-0.0061453367	0.0012222981	-0.0024631773	-0.016106687	0.00014893287	0.0022422336	-0.0051730685	
0.0027082257	-0.008022001	0.013963433	0.00072989037	-0.0059301765	-0.0037475114	0.011696792	0.015155401	0.008426923	-0.0036248586	
0.0171043	0.019917995	0.0073566446	0.0045021237	-0.0020072844	-0.0040236735	0.01831867	-0.008729089	0.0041199485	-0.013920302	
-0.015615752	-0.0058621457	-0.0011481685	0.01591656	-0.020732805	-0.0005485876	0.021953773	-0.007678666	0.0064180424	0.01656604	
-0.017087435	-0.0056116604	0.011602068	0.0009117376	0.005691253	-0.015984388	-0.0031130798	0.0030223865	0.015995076	-0.015625779	
-0.010553192	-0.01148182	0.0013951637	-1.0806558e-05	-0.0056151687	0.0022254505	-0.013802745	-0.02165133	0.009775236	-0.004631647	
0.0015786623	-0.005165604	-0.0062216003	0.009322193	-0.00432109	-0.018661242	-0.01688845	-0.0020359354	0.002705675	-0.010019823	
0.022018334	0.002682821	0.009786693	-0.009928542	-0.00942115	-0.0106673855	0.010978201	-0.016943168	0.009645218	-0.011631088	
-0.0033573664	-0.008089101	0.0062517026	-0.002306906	0.0020443955	0.017162789	-0.020533914	-0.015066191	-0.0035512452	0.015972987	
-0.018782595	0.01403674	-0.008001533	0.00012383136	0.0060754917	0.01106615	0.0064629703	0.0012344731	-0.01663746	0.0008193982	
0.0053971387	0.010223687	-0.017522024	-0.0069237505	0.0038445166	0.005318319	0.0055067744	0.0063212817	-0.015841939	0.013510402	
0.008162275	-0.0071864272	0.00059884565	-0.038531467	0.009619168	0.009973113	-0.0021875121	0.011675749	-0.01236996	0.038325943	
0.015055455	-0.025543045	-0.016281238	-0.04570892	0.028791359	0.0017712745	-0.033984076	0.008772259	-0.034584668	0.035007883	
0.031529527	-0.03918673	-0.017053774	-0.04597449	0.045050696	0.011000289	-0.01236697	0.020560091	-0.025484765	0.043725453	
0.03697736	-0.010068616	-0.021735132	-0.044557653	0.015163697	0.009559575	0.0034817522	0.0098675415	-0.026229443	0.07349262	
0.05014965	-0.026247855	-0.042378202	-0.062007308	0.0129545955	0.023914058	0.0319712	-0.0022715954	-0.03516142	0.0687577	
0.018651186	-0.038894895	-0.04829367	-0.028345434	-0.030446615	0.0019312134	0.03303732	-0.032931257	0.009345412	0.041971423	
-0.0077863922	-0.015300751	-0.04063999	-0.008319642	-0.042393263	0.019836137	0.03827889	-0.04132864	0.038287498	0.018603344	
-0.053240698	0.061999824	-0.04755938	0.034084857	-0.025740488	0.039393425	0.01596271	-0.030740835	0.04223437	0.004279888	
-0.12470411	0.140201	-0.037320696	0.05381868	-0.02041604	0.004891771	-0.021401623	-0.047143806	0.0442772	0.00697682	
-0.104971066	0.11937859	-0.057911407	0.039389744	-0.026980966	0.0047576325	-0.015976967	-0.03244501	0.00883251	0.03273142	
-0.10781905	0.02338297	-0.025918178	0.027401786	0.0016967518	0.011960489	-0.035271004	-0.018096454	0.016491977	0.05542387	
-0.059794605	-0.050990306	-0.01114005	-0.0058413963	0.030875733	-0.013094704	-0.009690955	0.020020135	0.015177471	0.11500989	
-0.025933012	-0.0698337	-0.020313963	-0.008470139	0.039425913	-0.040347416	-0.032204404	0.019634016	-0.006318102	0.09043769	
0.014208597	-0.06941146	0.019221628	-0.031007912	0.033257395	-0.018979196	-0.024667636	0.043328803	-0.010928311	0.044720013	
0.029928673	-0.04193729	0.0049949777	-0.006216307	0.012018843	-0.025597107	0.01345565	0.047340065	-0.0027858813	0.03631906	
0.057436306	-0.012545045	-0.008367591	-0.002847271	-0.0122247	-0.035095293	0.0057771546	0.023855017	0.0010617316	-0.010013153	
0.03965445	-0.013940919	-0.01594964	-0.010659567	0.00013061048	-0.003192646	0.0028927298	0.0057931766	-0.0004205152	0.0079348525	
0.0443215	-0.019092977	-0.03777158	0.012288559	-0.019176463	-0.011352036	-0.009951653	-0.00189016	0.00073858927	-0.0015230974	
0.031633046	0.007800392	-0.017481647	0.0012501036	0.0020683892	0.016902106	0.019821135	0.018662633	0.009191869	0.0074120364	
-0.011746284	0.002446127	0.006752129	-0.008760676	-0.0063574277	0.009165176	0.0066842726	0.0128887715	-0.0004611401	-0.010229171	
-0.008288294	0.008704258	0.014643423	0.00798222	-0.023852665	-0.014002369	0.0039962744	0.019126005	0.0053880434	-0.006066194	
-0.0069102654	0.021766398	-0.009494827	-0.0016021446	0.017199865	0.004772018	-0.009992237	0.00643552	-0.003799605	0.004565874	
-0.01738213	0.009126857	-0.008065363	0.009038193	0.0046927994	-0.008525963	0.0009936532	-0.0014731358	-0.0023899986	-0.0074965106	
-0.016232107	-0.0006245396	-0.006046587	-0.007673013	-0.008974276	-0.014451744	-0.014315523	0.0031726544	-0.0030846277	0.0012759265	
0.0017993948	0.011961897	0.00095151376	0.0017581582	0.0057815267	-0.007711046	0.00649353	0.0036249799	-0.021234332	0.0013998382	
-0.0025659113	-0.0065620714	-0.013389033	0.0012359679	0.017995313	-0.0014807625	0.008517202	0.0055329446	0.004998618	-0.007609668	
-0.008536415	0.0007301399	0.008568319	0.00565842	0.00819764	5.172407e-05	-0.018655848	0.004624425	-0.013994017	0.0038781764	
-0.003797604	-0.00074584	-0.009514719	-0.008605122	0.006519737	-0.0038384558	-0.015365749	0.0025766618	0.015233789	-0.023681892	
0.020877916	-0.011766666	0.004657106	-0.02757999	0.0041360552	-0.009979622	-0.0026873436	0.013245936	-0.01630565	0.018248484	
0.014866187	-0.0046560415	-0.01441741	-0.022523878	0.026555229	0.021968624	-0.015148926	0.011480457	-0.021933991	0.03096618	
0.03911802	-0.006175786	-0.055112157	-0.063656986	0.021786677	0.027055165	0.006217683	0.0045686383	-0.029465638	0.053576514	
0.048840713	-0.03413576	-0.0350215	-0.04983294	0.011347041	0.0025684854	0.054582447	-0.01606481	-0.043791596	0.06137647	
0.047039554	-0.045307547	-0.04316277	-0.039245483	0.00019314449	0.015077807	0.05936844	-0.0025105635	-0.039932642	0.059538856	
0.025442004	-0.053404726	-0.05671391	-0.0004483945	-0.03461414	0.00491644	0.06268906	-0.019941468	0.0046278127	0.027572531	
-0.015357029	-0.022132916	-0.051188137	0.034926385	-0.015246016	0.034552068	0.028259104	-0.080467865	0.050956424	0.02778763	
-0.08657306	0.09224834	-0.032698747	0.034146212	-0.052514244	0.02642925	0.018498627	-0.06569685	0.043288924	0.050859857	
-0.12908557	0.14443463	-0.0308496	0.04210481	-0.017970223	0.027938481	-0.008544947	-0.061593883	0.017260626	0.027021522	
-0.113092944	0.0909395	-0.0273908	0.03756988	-0.018190652	0.0025896546	0.010997975	-0.054065958	0.02552516	0.06621427	
-0.096735775	-0.0012277318	-0.03716499	0.011021154	0.019113503	0.011577138	0.006232463	-0.016346058	0.011595786	0.097460076	
-0.052015796	-0.06884508	-0.032664113	-0.013896168	0.01588026	-0.007004559	-0.0015106479	0.017823307	-0.03932622	0.11186438	
-0.029624771	-0.079185836	0.00019370919	-0.031498216	0.03860327	-0.04049828	-0.0044031017	0.06836827	-0.02256846	0.08166655	
-0.017737247	-0.046527736	0.013469553	-0.02492843	0.00947297	-0.045372188	0.030772565	0.05096396	-0.032076914	0.0495318	
0.029110374	-0.0312492	-0.0005529724	-0.024870245	0.0068612327	-0.03478596	0.03926103	0.0171698	-0.005057244	0.011340873	
0.0589621	-0.033338465	-0.0038143343	-0.016722934	0.021512182	-0.027760405	0.023307212	0.0018731363	-0.0019246929	0.01491338	
0.06329151	-0.0070040617	-0.014776456	-0.0036552418	-0.010255702	-0.020296233	0.00847391	0.0022591338	-0.01029307	-0.011265411	
0.036004722	0.0082241865	-0.009575371	-0.005103759	-0.0057016294	-0.005395031	0.009229539	0.00197407	0.0066895634	0.004899713	
0.016137194	-0.009364586	-0.009581541	-0.00907374	-0.014403004	-0.0069563463	0.00037589244	-0.008398505	-0.0190635	-0.0066061206	
0.008256245	0.004415718	0.0040117656	0.019859804	-0.011352771	0.00069561135	0.014693181	-0.0109876115	0.002712723	0.006131552	
0.0053435136	-0.0014984966	0.021131696	0.006509239	-0.011854938	0.0022086925	0.021213235	0.010344705	-0.0034141203	-0.012824666	
0.006775636	-0.0117707	-0.0068508643	-0.0045285183	0.0006625309	0.0030296391	-0.0064135306	0.0052596075	0.012622871	-0.022115178	
0.031146975	0.016102586	0.014311775	-0.007925269	-0.00038431791	-0.014093573	-0.009051585	0.008951606	0.0075402306	-0.02059149	
-0.0047289208	0.015557806	0.004265959	0.008875495	-0.015829632	-0.008193235	0.017947363	0.01448242	-0.011099064	-0.0061355424	
0.0098865	-0.0011215617	-0.012506138	-0.009521503	-0.008190081	0.0083165495	0.016987754	0.0032713127	-0.0085211275	-0.0061812797	
-0.0022963295	0.0028893733	-0.012950366	-0.0058284057	0.011845422	-0.0031607288	-0.006734574	0.0069483556	0.010782517	0.0126389675	
0.008911453	0.0014244703	-0.011353253	0.0038442519	0.006937848	0.0024424538	-0.008691566	-0.0055235494	-0.025389422	0.002412384	
0.018615441	0.00095489394	-0.0020904958	-0.021060303	0.017282786	0.0073628463	-0.0019064196	0.0076526986	-0.0033461195	-0.010392952	
0.04408694	-0.010873626	-0.019180426	-0.011743195	0.016635511	-0.0012133276	0.023152042	0.004557296	-0.02242648	0.007815277	
0.03697382	-0.018715566	-0.023327878	-0.039029665	0.022910314	-0.0031368379	-0.013859386	-0.00685356	-0.022523385	0.03464804	
0.06411275	-0.025149612	-0.039598055	-0.05855959	0.055593546	-0.019833308	0.029521083	0.001368276	-0.04034366	0.051790856	
0.040988646	-0.042462613	-0.031927004	-0.050586224	0.038907807	-0.024573686	0.07113508	-0.003475506	-0.037728336	0.055627953	
0.029605424	-0.03871823	-0.034072362	-0.03541655	0.011142751	0.008474087	0.06859978	-0.049554326	-0.023543324	0.07438922	
-0.013335564	-0.04384232	-0.010727575	-0.018958822	-0.018014923	0.014535782	0.050381783	-0.040805534	0.0029585506	0.051307946	
-0.03934013	-0.013268726	0.00090347003	0.017333131	-0.0046957573	0.019797845	0.016463064	-0.057743315	0.029877678	0.06716348	
-0.12444079	0.09178587	-0.0064994083	0.021272844	-0.008607155	0.0041434513	0.0015754134	-0.06266457	0.036916204	0.04998902	
-0.124269105	0.15133518	-0.040628437	-0.0037021693	-0.03848818	-0.0019983612	0.015997397	-0.083040155	0.034832146	0.06804732	
-0.099429294	0.06354129	-0.03014108	-0.0037493305	0.010552887	-0.028661944	0.013109614	-0.042885408	0.03887517	0.09805453	
-0.06374164	-0.044287413	-0.025427006	-0.013384675	0.04953442	-0.025959864	0.036642026	0.031940475	-0.016874954	0.10248071	
-0.050966844	-0.083413444	-0.022803197	-0.02451194	0.056999948	-0.006493323	-0.014339147	0.044743296	-0.046233922	0.1097299	
-0.019584168	-0.06927981	-0.03503061	-0.020866653	0.023146354	-0.023216771	0.021441111	0.061894264	-0.034638546	0.08215566	
0.008775419	-0.050922174	-0.016190661	-0.03482196	0.022167176	-0.0064191506	0.03399891	0.02972328	-0.02186874	0.017390031	
0.016717736	-0.04223789	0.014873665	-0.009863244	0.014605232	-0.03959303	0.03290029	0.017705318	0.0015292	0.012466288	
0.037323825	-0.016608926	-0.0092428755	-0.020014608	0.028189918	-0.035413764	0.063444406	-0.0070789	-0.005157524	-0.0056450814	
0.044607405	-0.0018221467	-0.020900808	-0.0076008406	-0.020894844	-0.0101948	0.018280862	-0.008884892	-0.020117145	-0.0062422995	
0.031077879	0.004896606	-0.0058595547	-0.0016804127	0.0057825693	-0.0028136095	-0.0010939243	-0.031075276	-0.009186515	-0.008237848	
0.025050452	-0.0086017335	-0.0029841755	-0.007627829	-0.006667898	0.007070603	0.016602512	-0.0025987448	0.001318559	-0.009642126	
-0.024907729	-0.0018163036	0.009192218	-0.017942527	0.00083694496	0.0055598626	-0.009924443	0.0032107376	0.0010087566	-0.020042926	
0.006473685	-0.015413322	-0.009925221	-0.0067832717	-0.007518062	-0.02236748	-0.0061536096	-0.001080387	-0.008843143	0.020285979	
-0.012219865	-0.009802772	-0.021267753	0.010273808	0.010172433	0.036618553	-0.007179819	0.011605008	0.008423647	-0.00709365	
-0.0043662786	-0.004198115	-0.017374989	0.012291771	-0.0014090074	0.009227312	0.022484299	-0.0058047813	0.0010158172	-0.0023616932	
-0.013552851	-0.01046691	0.00816246	0.0063793724	0.011540778	0.0020796123	0.013099983	-0.015342254	-0.00466141	-0.0037404688	
0.010038678	-0.01075241	-0.0067373086	-0.008558734	0.0047412775	9.071553e-06	0.014542357	0.00432731	0.017083174	-0.012133904	
-0.0046752044	-0.0058137146	0.013915551	0.018384261	0.017659858	-0.0012578719	-0.010615082	-0.009382284	-0.0016389682	-0.010110472	
0.017681483	-0.01383515	-0.0032099814	-0.0019471169	0.004304806	-0.0046953317	0.012067221	0.0010024003	-0.0065246923	0.01944936	
0.029834082	-0.009574294	-0.0015467039	-0.011909308	0.035353728	0.004265097	0.0046107084	0.019526253	0.019589122	-0.0062626055	
0.032286555	-0.02329104	-0.018665446	-0.030108815	0.0412808	-0.019812938	-0.0005958021	0.0015344917	-0.012401323	0.01756295	
0.051196422	-0.03147707	-0.0009994702	-0.05714339	0.028423084	-0.014792259	0.016088901	-0.012498751	-0.03213763	0.02401513	
0.042909686	-0.032524135	-0.010084362	-0.05984819	0.06332794	-0.015911808	0.029222028	-0.015117639	-0.038867187	0.040342785	
0.03477949	-0.06269158	0.0066853645	-0.04612627	0.041688357	-0.03334138	0.066074826	-0.021401174	-0.04334217	0.05101354	
0.004339588	-0.08188167	0.010748288	-0.040074304	0.03744779	-0.030908762	0.06638469	-0.04042265	-0.029430602	0.07072847	
-0.023690192	-0.061906867	0.008718172	-0.02558533	0.04436556	-0.022201072	0.030836536	-0.0494992	-0.012163805	0.091674134	
-0.08842034	-0.030731862	0.006447433	-0.021039156	0.042951737	-0.008457514	0.023263365	-0.057878256	0.03546717	0.061507348	
-0.13463901	0.093050964	0.023650084	-0.027196132	0.017435463	-0.0129559925	0.012289174	-0.066392854	0.03384839	0.04821981	
-0.11049487	0.14179224	0.026902413	-0.03327915	0.005896474	-0.031171544	0.017925244	-0.050614737	0.03436469	0.05545476	
-0.11907422	0.045298632	-0.023601705	-0.040775783	0.031312924	-0.03281843	0.01916034	-0.0006964317	0.026431186	0.092601225	
-0.07973923	-0.08133404	0.008585711	-0.029000297	0.054410525	-0.013560854	-0.003640785	0.02566873	-0.012166118	0.121438675	
-0.04738991	-0.08410868	-0.019948618	-0.015633788	0.041637305	-0.002799495	-0.007503759	0.07076028	-0.034635454	0.09969534	
-0.024158673	-0.06946323	-0.023822898	-0.016175147	0.02569896	-0.0033998005	0.0049618725	0.0642209	-0.05379498	0.06450006	
0.022805966	-0.051841646	-0.008788895	-0.027142096	0.01801001	-0.01895392	0.0366585	0.024585614	-0.009549416	0.019070663	
0.048720866	-0.029971873	-0.02055332	-0.0127650425	-0.0018929726	-0.026724849	0.034292586	0.020967798	-0.011936548	0.0139937475	
0.044653542	-0.016159467	-0.012434742	-0.012283164	0.005135076	-0.022483341	0.039743066	-0.0084617995	-0.0004797945	-0.017456988	
0.03161993	-0.017050024	-0.011910045	-0.002228133	0.0042100432	-0.018961422	0.030195583	-0.0043222867	-0.0002556401	-0.009543027	
0.032708332	-0.011790369	0.011220713	-0.00034554023	-0.010508293	-0.020031948	-0.0024612441	0.0036439786	0.0077860537	-0.004723092	
0.005850031	0.008229828	0.00076927186	-0.008559053	-0.012652144	0.011269174	0.00096361345	-0.0047956086	-0.025551558	0.011016831	
-0.01319207	0.0056876205	-0.0043174564	-0.017047256	-0.010773972	0.007689817	0.015112436	0.0017332117	-0.00446935	-0.0026987426	
-0.012619691	-0.008814334	-0.00850344	0.006417838	-0.0017927373	-0.0029740063	-0.012881851	0.014837639	-0.020107804	0.008770332	
0.0051207882	0.0208329	-0.000477824	0.0020225358	-0.001587351	0.021496844	-0.004667479	-0.0071716686	-0.011799617	0.006890887	
-0.015507969	-0.011422292	0.010856367	-0.0019020052	3.5131066e-05	0.0029426438	-0.0076700076	0.006936534	-0.017596321	-0.0012980173	
-0.0012970333	0.0020652635	0.0064476808	0.0019686772	-0.009083644	0.0054700444	0.00014206373	0.0068597877	0.004251813	-0.011763489	
-0.0027475022	-0.019345263	0.011091974	0.011595059	-0.0046131215	0.008854815	0.0002156355	-0.0019886177	-0.004709841	0.011090428	
-0.013760584	0.026902407	0.014017608	-0.005527798	0.007457397	-0.0027477618	-0.021725448	0.003489731	0.0027446565	8.554739e-05	
0.012854322	-0.012849862	-0.00059357897	0.01081845	0.009560332	0.014076426	-0.0006188439	0.011204452	0.011219938	0.0010035898	
0.020948457	-0.018669467	0.010097785	-0.013539215	0.0072215865	-0.00042130685	-0.0002431125	-0.0023123848	0.009013671	-0.00533552	
0.036003035	-0.040076435	0.029793581	-0.017317919	0.017844252	-0.0095048705	0.0010454088	0.008262466	-0.0041455226	-0.0012501171	
0.067258604	-0.061113607	0.008886611	-0.037164707	0.03238334	-0.02499517	0.0034691163	-0.0054158955	-0.009146182	-0.014783994	
0.046073295	-0.06577479	0.02683094	-0.04311208	0.03554073	-0.028446777	0.05313337	-0.014288614	-0.013695423	0.0011953781	
0.027648164	-0.068192564	0.039061703	-0.056842055	0.043100294	-0.041745856	0.06252421	-0.01865694	-0.02035357	0.033019207	
0.014489706	-0.05967262	0.04022086	-0.066110715	0.062291134	-0.047792625	0.05824424	-0.047121685	0.004171624	0.07137469	
-0.026297968	-0.035806973	0.058834508	-0.048938688	0.05545928	-0.018066453	0.054669008	-0.039900336	0.046134286	0.04942835	
-0.08277017	0.012236552	0.046205714	-0.056527562	0.04228494	-0.032678105	0.005329481	-0.06396149	0.047287703	0.05145511	
-0.11766133	0.09855302	0.033662852	-0.050842993	0.040454958	-0.0449735	0.013861036	-0.029491276	0.041035008	0.056569982	
-0.118390776	0.108697325	0.020880928	-0.06471016	0.03782092	-0.03497771	0.014349554	-0.019534519	0.016971797	0.058513828	
-0.08036838	0.026230223	-0.0040701674	-0.038571678	0.04761881	-0.03941187	0.01856156	0.0058740643	0.0014019173	0.09542537	
-0.06623488	-0.0640497	0.007491938	-0.030976962	0.062700965	-0.024511244	-0.009420741	0.046072766	-0.030012337	0.10932298	
-0.03440659	-0.087111145	-0.0030121969	-0.019765517	0.036708053	0.012286865	-0.011584984	0.06415972	-0.018564068	0.08158116	
-0.0009781858	-0.07967265	-0.03380838	-0.01940419	0.03702309	-0.0019352294	0.04429875	0.037886128	-0.0136174485	0.043019053	
0.020807482	-0.054429386	-0.0122577045	0.0057093115	0.014050135	-0.019863926	0.03958134	0.019922832	-0.0097489655	-0.01352126	
0.04860752	-0.04613188	-0.015204936	-0.009718546	0.0025473556	-0.013814507	0.058327228	0.0027847053	-0.014326478	0.0041166674	
0.026486015	-0.03173264	0.008954232	-0.004939556	0.018383278	-0.010480563	0.020301446	-0.009217634	-0.014113263	0.008486886	
0.03165858	-0.042041432	0.004984094	-0.0071827313	-0.0039066076	-0.0066714548	0.010461267	-0.005855842	-0.014086656	-0.008541878	
0.021579405	-0.009513967	0.006294108	0.0057280133	-0.002290739	-0.015885225	0.011771727	0.020525346	0.0072891996	-0.012112513	
0.0034340257	-0.015288505	-0.0060521364	-0.013925077	0.007412536	-0.0053808433	0.0026659353	-0.00460616	-0.006839212	0.017320927	
-0.009938292	-0.014074692	0.01068738	0.004647031	0.006380505	0.008877503	-0.0024061333	0.012298844	0.011104202	-0.009308899	
0.002399488	-0.0013654022	0.0006381672	-0.014693676	-0.0051404764	0.007739982	0.007816812	-0.008040234	-0.00096886227	-0.0159718	
0.0064223045	-0.0036497407	-0.006087053	0.010785667	-0.007329569	0.003321963	0.010725266	-0.013542408	0.001701802	0.006445638	
-0.0054067452	0.00013782112	0.008444759	0.012157502	0.004780357	-0.008125178	-0.0025619112	0.013952794	-0.0007733632	0.00208084	
0.012262663	-0.015711762	0.004888588	-0.0033846595	0.0027493574	-0.008285908	-0.005474192	0.0062584067	0.012901526	-0.012840344	
0.0025304856	-0.0013238507	0.0033638172	0.020203536	0.015633445	0.009279629	0.00041665067	-0.013373139	-0.0014891895	-0.0110386815	
0.00848488	0.003249875	0.0057155583	0.0046799113	0.0106112985	0.0024472477	-0.017699298	0.012240089	-0.012752288	-0.00782635	
-0.0162714	-0.015001293	0.0026230225	0.013200761	0.014353745	-0.012388361	-0.006495142	-0.006069269	0.013842096	-0.01078905	
0.016660428	-0.032746676	0.0069728084	-0.001202131	-0.019296592	-0.005883407	-0.00095478847	-0.002109488	-0.015188613	0.0045805164	
0.038254328	-0.03837217	0.027898448	-0.020209586	0.019885208	0.0027287405	0.017443694	0.009450997	-0.016309781	0.0055455165	
0.05263098	-0.06859034	0.025990391	-0.027199252	0.027620506	-0.010172482	0.020858428	0.0021933785	-0.0009464616	-0.0025123174	
0.04448261	-0.073657416	0.036291286	-0.02805838	0.030197304	-0.037275724	0.03822101	-0.017512096	-0.009199635	0.008229407	
0.018472522	-0.07920929	0.03952761	-0.026537003	0.017003348	-0.062942274	0.06051136	-0.035612304	0.018430274	0.029475447	
-0.004830559	-0.05095123	0.036015105	-0.025438534	0.026595043	-0.059230465	0.056643292	-0.06057182	0.055408992	0.031074049	
-0.06026523	-0.011967451	0.048686713	-0.06473566	0.023279313	-0.049389087	0.047393467	-0.046280377	0.06444366	0.024600826	
-0.08196906	0.041382566	0.054834343	-0.04506578	0.019753406	-0.045957454	0.026108284	-0.03704939	0.04041196	0.027755156	
-0.09149982	0.08171532	0.02429969	-0.06011774	0.016025053	-0.06155985	0.012989628	-0.002566738	0.0076704924	0.032776695	
-0.09739067	0.09686387	0.013618162	-0.056313988	0.01822383	-0.048879363	0.004076569	0.009210143	-0.014271845	0.05936421	
-0.05958562	0.005267743	0.029227905	-0.054940224	0.028192384	-0.031016747	-0.025107296	0.040993053	-0.032461543	0.08542808	
-0.024872767	-0.04527703	0.010397016	-0.041140057	0.023769438	0.01588759	-0.0023210933	0.04356449	-0.02370625	0.09053555	
-0.017338144	-0.06820516	-0.0018073311	-0.017831987	0.017357059	0.01584367	0.014770988	0.012466536	-0.018377876	0.067365415	
0.004088133	-0.07264519	-0.009023	0.0076602455	0.007948273	0.012483893	0.03756723	0.019489637	-0.0026183592	0.023785116	
0.02149543	-0.04411067	-0.031453174	0.018228982	-0.0006594005	-0.035346296	0.063627824	-0.013973087	0.0044817626	0.018678728	
0.042462174	-0.046046093	0.012703216	0.0104433745	-0.0054029915	-0.023322223	0.051034134	-0.010711742	-0.01151117	-0.01432202	
0.027454827	-0.04157804	-0.014101742	-0.005917009	-0.010894514	-0.024260402	0.019939559	0.013626932	0.01852251	-0.010183409	
0.01273696	-0.019200724	0.02689378	-0.000773183	-0.002109515	0.014849096	0.009630628	-0.010527297	-0.02194322	-0.015161309	
0.0003367241	-0.017231958	0.025443446	0.0022506467	-0.00032286037	-0.008183676	0.009751247	-0.005991255	-0.004144631	-0.018316505	
0.024077032	-0.0071049035	0.006689556	0.0035443455	-0.01761636	-0.0064851074	0.0009245381	-0.00030893547	-0.0073202862	-0.020348733	
0.0030091316	0.0004368461	-0.023945983	0.0069164857	-0.0065585873	-0.020219468	-0.00020806363	0.00255013	-0.011208038	-0.004152389	
-0.0114795	-0.00785468	0.008070991	0.011418161	-0.010427915	0.012039291	0.009193634	0.013904073	0.014676119	-0.022178972	
-0.0013779667	-0.004737448	0.00033348176	0.0002690562	-0.0268447	-0.014560542	0.004409521	0.00029621724	-0.0126958145	0.002219544	
-0.01692399	0.0034265302	-0.013921941	0.011470274	-0.0020885502	-0.005514062	-6.174525e-05	0.00046909606	-0.0067075933	-0.018489357	
-0.003529144	-0.0049141343	0.00033595768	0.009021197	-0.0034575537	-0.0014086397	0.0011993935	-0.014556224	-0.0009301787	-0.009267733	
-0.011515145	0.014667608	-0.012263567	-0.0040989667	-0.013172995	-0.011651229	0.004294489	0.007373781	0.004227136	0.0028268753	
-0.015136618	0.0030051265	0.01227688	0.0105151255	-0.0014030593	0.0021567473	0.007106473	0.013107462	-0.0019649449	-0.00013366644	
-0.011289831	-0.008205656	0.006236383	0.006265329	-0.005843468	0.012162501	-0.016313512	-0.007747458	0.0097896205	-0.009980877	
0.010473955	-0.04251884	0.0071196617	0.023198768	0.0017735072	0.011840578	-0.027301226	-0.0038409778	-0.010141467	-0.01168235	
0.027198277	-0.06180946	0.03993864	-0.0038738523	0.00072913576	0.012469414	-0.003684787	-0.0010134197	-0.012254232	0.002294585	
0.059249736	-0.07844812	0.034424677	-0.020448465	-0.027044846	0.0008335695	0.020008473	-0.03507633	0.01746717	-0.0016491631	
0.057439845	-0.065047294	0.03794657	-0.028353542	-0.011640086	-0.01977173	0.057246283	-0.02440467	0.010571037	0.0077163917	
0.021960756	-0.04051172	0.011345005	-0.0074697896	-0.015464792	-0.06115894	0.057461273	-0.039002463	0.038433924	-0.008387778	
-0.015816001	-0.042390384	0.046346616	-0.0010299408	0.019048968	-0.06504466	0.052084543	-0.0475827	0.061846256	-0.012580397	
-0.04846741	0.005165364	0.052785747	-0.039582446	-0.0041015646	-0.05776558	0.06503577	-0.045922488	0.043735165	0.010402793	
-0.067476526	0.039002113	0.06311799	-0.029620161	-0.01438845	-0.053806726	0.028748034	-0.024624016	0.03272059	0.016689124	
-0.08285114	0.06430942	0.046258114	-0.043591164	0.0022366757	-0.05147506	0.013947911	0.009819495	0.0035891905	0.023999818	
-0.078381404	0.041749757	0.04234111	-0.053865794	0.020906935	-0.025778303	0.001714801	0.028718576	-0.020339796	0.0465568	
-0.04961949	-0.010297867	0.015210493	-0.048566982	0.013825717	-0.025016997	0.00861296	0.03086091	-0.030987296	0.081856824	
-0.015973289	-0.047148507	0.0006351342	-0.02074934	-0.0115753235	0.0011757729	0.025387302	0.012454305	-0.0077317543	0.06367029	
0.009671001	-0.07222209	-0.0028501027	0.006253296	0.002441054	-0.0019402612	0.030785467	-0.001784118	0.0081967125	0.034148686	
0.027541282	-0.08136053	-0.022702612	0.013460856	-0.031753328	-0.006171772	0.050242353	-0.013586908	0.016671097	0.008264694	
0.022645827	-0.056048762	-0.012084688	0.023459706	-0.02597031	-0.0062044826	0.043036733	-0.0018861525	0.013503548	0.0017823819	
0.008274905	-0.073823325	0.0018759286	0.013878849	-0.015510937	-0.003146702	0.05009552	-0.00039204943	0.0046002036	-0.0028183248	
0.034167007	-0.04229868	0.030383522	-0.00016956718	-0.018597933	0.02699907	0.015032809	-0.01294418	-0.0063442625	-0.014016269	
0.019720726	-0.047787964	0.026515236	0.008658802	-0.013091355	0.014853255	0.0024538476	-0.02460243	-0.003660664	-0.0083327275	
0.005664953	-0.019146333	0.0154524585	-0.018151958	-0.00469572	-0.01156076	-0.0010745487	-0.0019031492	0.0002511198	-0.015609807	
0.0015964287	-0.023545252	0.01330528	-0.0036387716	0.019698335	-0.0021078505	-0.0019354841	-0.01818028	0.0023296175	-0.005671776	
0.00057108194	-0.0020321899	0.005506407	0.020851215	-0.0045857765	-0.0129323695	-0.012769682	9.791829e-05	0.0036197475	0.016045257	
-0.0039446703	-0.009007628	-0.0054078037	0.0018526986	-0.0011772773	-0.017851124	0.013229211	0.008766412	3.992324e-05	0.003356899	
-0.02485994	0.0014846448	0.0031056236	0.0023495774	-0.013967508	0.006419807	-0.025304046	-0.010938591	0.004024651	-0.007200605	
-0.014500089	0.006070637	-0.00049303134	-0.0027505944	0.015661255	-0.002337642	0.0042124926	-0.0016194372	-0.011595333	0.0011110762	
0.006008083	-0.00074796815	0.006225409	-0.0021475707	0.014981281	0.015030881	-0.01679209	-0.0069262343	-0.0073182606	-0.014502199	
-0.00531362	-0.011124519	0.0114582805	0.014525783	-0.0076598777	-0.014330976	0.00041379427	-0.0011441531	0.014695185	0.015856361	
0.0065840837	-0.025287185	0.0064050187	0.0057729436	-0.009402966	-0.015949732	-0.0035406908	0.002542876	0.00013444689	0.011456579	
0.0013544786	-0.0064768232	-0.0033489538	0.022262974	-0.004842491	-0.0079620015	-0.0005298782	-0.0036288903	-0.0027254282	0.005589142	
0.014158485	-0.03891846	0.034587998	0.03311596	-0.004714432	0.019514086	-0.005048755	-0.010780024	-0.008757877	-0.005020936	
0.026885608	-0.069666855	0.032188028	0.0071106707	-0.02097159	0.047777884	-0.011947273	-0.0159312	-0.009645581	-0.010012195	
0.038600422	-0.07667113	0.044007998	-0.01176107	-0.029062686	0.033412993	0.012745309	-0.039551165	0.0120079545	0.005585267	
0.03503803	-0.07123957	0.038274262	0.0076963184	-0.060124695	-0.010117359	0.03789559	-0.04038589	0.049290445	-0.010635792	
0.027917316	-0.05383807	0.059397943	0.00264541	-0.021758378	-0.036601543	0.06165139	-0.04652518	0.05283259	-0.021599915	
-0.0016040199	0.0016910199	0.02788794	-0.00943022	-0.02922487	-0.055965032	0.06986926	-0.05466836	0.035216913	0.0024232198	
-0.03532762	-0.0068800375	0.05574589	-0.01807248	-0.029732462	-0.047320127	0.08106048	-0.02458816	0.031733327	-0.00089016964	
-0.04892816	0.031036595	0.05177025	-0.030848043	-0.03402171	-0.04067605	0.047303267	-0.0028875559	0.0053696334	0.0048589865	
-0.051459465	0.032478925	0.048163336	-0.051758457	-0.01975065	-0.04647135	0.03934336	0.02761342	-0.019212587	0.025456116	
-0.06481989	0.02284303	0.00935299	-0.025380066	-0.017888362	-0.048365954	0.030282497	0.037955806	-0.031803444	0.049391683	
-0.028069982	0.004283663	-0.006421249	-0.045807857	-0.0056473822	-0.025081202	0.016909376	0.037707537	-0.025444778	0.06361145	
-0.013842641	-0.0399737	-0.015765378	0.014864685	-0.010988968	-0.025475606	0.03937244	0.007256632	-0.01687681	0.06186799	
0.007743086	-0.053472	-0.0033354126	0.013128577	-0.024664454	-0.010968046	0.07283878	0.004937812	0.0039586476	0.012710602	
-0.0007526437	-0.09265235	-0.011214366	-0.002750845	-0.032587495	-0.000496845	0.037316434	-0.016634531	0.003613862	0.0033857252	
0.014741822	-0.06283043	0.01875366	0.030829888	-0.037963275	-0.003646386	0.033084106	0.0092348475	0.013311926	0.006527409	
0.018694013	-0.064426325	0.021737972	0.019344404	-0.012028361	0.011355265	0.031837374	-0.017549308	0.011970858	0.0066582304	
0.010031665	-0.0342735	0.03000545	0.011431583	-0.0014330889	0.019828709	0.0047030775	-0.003394586	0.0038339333	-0.0041323826	
-0.008033102	-0.02917121	0.012602868	0.015895585	0.008453678	-0.006376643	0.02138483	0.00024924826	0.0024362304	-0.00062058563	
-0.0027365058	-0.017340247	0.0109692365	0.0065070875	-0.010056446	0.0016758044	-0.0050330013	0.018675825	0.012091838	-0.0070923967	
0.015900798	-0.007524661	0.0052089295	-0.002105392	0.0002023096	-0.005054012	-2.9557908e-05	0.005683674	-0.0015877672	0.009879226	
0.0003241828	0.004341518	0.027457584	0.0022955737	-0.004143109	-0.0025037294	-0.002280053	0.001148412	0.012118008	-0.0038444744	
0.012628496	0.0041652326	-0.0049390155	0.010168184	0.0020924557	-0.018321872	0.009702506	0.0075153424	0.0023249832	0.0015711222	
-0.0028841568	-0.018560998	-0.010037507	-0.019841582	-0.0017525743	0.00996607	0.009830847	-0.009853597	-0.005315615	0.0035363757	
0.0067510316	0.0022572607	0.00086859934	-0.0026099973	-0.0015844243	-0.00017821816	0.0041271457	0.002515233	-0.007081098	0.0021970617	
0.002147634	0.007082862	-0.0024721299	-0.009129223	0.00010228059	0.009588812	-0.015526338	0.01865428	0.005528336	0.0019144092	
-0.010457116	-0.00021307418	-0.0042722803	-0.0008925996	-0.0071627186	-0.0071371878	-0.015908655	-0.0031653955	-0.005749285	-0.013628404	
-0.012743968	-0.003462635	0.006189559	0.022304831	0.010062871	-0.018547412	-0.0023249611	-0.011400625	-0.0062301075	-0.014215567	
-0.0033110487	0.00039571032	0.004241949	0.031253953	0.0011550792	0.015747203	-0.0029136818	0.004740188	-0.0059658033	0.00414658	
0.025534129	-0.036482055	0.0030134125	0.03474951	-0.020462088	0.006096173	0.0018716187	-0.013979472	0.010107122	-0.013669543	
0.03494759	-0.05862719	0.026073663	0.019610865	-0.031962037	0.023071744	-0.00953633	-0.016338201	0.013397662	-0.0068800705	
0.02554687	-0.05928183	0.01834517	0.018242378	-0.037317414	0.040638555	-0.015423921	-0.02550561	0.03804451	-0.010478986	
0.03370609	-0.05758764	0.03644117	0.010061786	-0.055445515	0.020454422	0.03548426	-0.04336256	0.049019262	-0.01299262	
0.013171646	-0.03224799	0.03682039	0.010297901	-0.04646184	0.009972903	0.029313246	-0.051874604	0.041576542	-0.00558356	
0.008635742	-0.01139851	0.041841745	-0.012581318	-0.049808435	-0.009919299	0.0611418	-0.036748905	0.04595536	-0.005428996	
-0.016575448	0.004471654	0.05408018	-0.0315594	-0.035592295	-0.02223486	0.066058025	-0.026531	0.010888866	0.006409372	
-0.026181186	0.016117638	0.008109172	-0.0011852211	-0.04967573	-0.052989602	0.04816125	0.039052658	0.0036261831	0.03238525	
-0.03462091	0.023086915	0.0015370033	-0.008958049	-0.03251339	-0.045669794	0.038532313	0.024390016	-0.027228158	0.027142221	
-0.016274896	0.0037333888	-0.011668826	-0.00340351	-0.023002176	-0.044787783	0.047351215	0.024126654	-0.01488073	0.04846145	
-0.006066953	-0.0054503162	-0.030497171	0.001212501	-0.017135136	-0.033507485	0.04900703	-0.006065744	-0.007712398	0.047852196	
0.017326951	-0.035022944	-0.020468507	0.017792618	-0.032876793	-0.013698168	0.053025123	-0.010671014	-0.0052669332	0.0356969	
0.015545332	-0.06198634	-0.0026073742	0.032732625	-0.02748293	0.012099333	0.046252977	-0.023979677	-0.009182899	0.025074573	
0.018324139	-0.043262713	0.015794877	0.012836054	-0.020317491	-0.00056204724	0.035874497	-0.020235064	0.008530069	0.015831346	
0.013877872	-0.06062647	0.021964185	0.005763062	0.008794972	-0.0031262957	0.022554412	-0.016828727	-0.00057770533	-0.01007518	
0.016428644	-0.041289315	0.026583368	0.012021267	-0.016724816	0.020909978	0.006022522	0.00040832203	-0.008645027	-0.0040543093	
0.023710107	-0.03366392	0.0071259937	0.005072767	-0.010583359	0.010449481	-0.00886262	-0.019221915	-0.00048433972	-0.006798278	
0.014877903	-0.02912191	0.015708853	-0.0010614843	-0.010537913	0.005733056	0.005358418	-0.01488724	-0.009552709	-0.005948683	
0.0017823017	-0.015818702	-0.0010539922	-0.0030266608	-0.011473847	-0.008058607	0.008497439	0.005032729	-0.016070968	-0.009052447	
0.004958861	-0.0031219574	0.017108845	0.0007773378	-0.0008402712	0.009980356	0.011329996	-0.0015122428	0.0032816636	-0.016555212	
-0.0035600255	-0.0013962033	0.007281021	-0.010643506	0.02111666	0.0050107823	-0.011902768	-0.0076907263	0.0021242856	-0.0075738668	
-0.0014953824	0.0044165044	-0.017469328	0.021011773	0.009337059	-0.013732728	-0.0006101546	-0.0016257543	0.015970252	-0.0006806122	
0.014072416	-0.0017697293	-0.008698725	0.0034689158	-0.011893324	0.006315166	-0.0006323197	0.013716219	0.013712236	0.0023794218	
0.009107388	0.0029039707	-0.001166621	0.0035311366	-0.0017395729	-0.0051776	0.014589546	-0.0034031165	-0.0046813916	-0.019215763	
-0.00177593	0.0028787514	-0.0066011683	-0.0065835686	-0.006692915	0.015898956	-0.00027681908	-0.009202744	0.002076106	-0.008316989	
-0.005716383	0.016595969	0.0025859368	-0.016404783	-0.008919949	-0.0065356563	-0.008756798	0.0004869802	-0.00024121859	-0.00528714	
-0.027652444	-0.001043243	-0.009842806	0.007812747	-0.00935218	0.0013001951	-0.0038497283	-0.007908523	-0.009123921	-0.0061017475	
-0.0045116926	0.0005446622	0.008082064	0.033119176	-0.00071874826	-0.0027220882	-0.008123309	-0.006788908	6.0007995e-05	-0.010770251	
-0.0011889195	-0.023276009	-0.012632409	0.035268676	-0.02231099	0.0288638	-0.010714139	0.008448698	-0.017859738	0.0159825	
0.00041856442	-0.044877518	-0.000715005	0.04094537	-0.0223272	0.022949208	-0.006661039	-0.016808117	0.007852587	-0.004915362	
0.023514744	-0.048438303	0.0040727966	0.037342865	-0.036965847	0.016417606	-0.00028976824	-0.012805519	0.022104498	-0.011445684	
0.028365927	-0.048444152	-0.00057734933	0.02881813	-0.06619972	0.044129204	-0.025606275	-0.054916956	0.04589869	-0.026224526	
0.0153088365	-0.023631195	0.0011976416	0.0065397467	-0.069568165	0.038400255	0.002698185	-0.051407278	0.031882603	0.0086565465	
0.03310153	0.0059507317	0.006719713	0.019574855	-0.040777937	0.046706263	0.006785915	-0.023884354	0.024342213	0.004862084	
0.005316422	-0.0022992943	-0.016750613	0.0136176925	-0.056332767	-0.015833315	0.031495906	0.01193468	0.0040223906	0.010713199	
0.0071222126	0.0071211825	-0.0015448363	-0.001768136	-0.038314044	-0.018222047	0.040045142	0.015846316	-0.005301642	0.025855387	
-0.003892241	0.030369036	-0.031556	0.0091142645	-0.019065496	-0.012362983	0.026240526	0.0056281844	-0.0009548392	0.050685573	
-0.0050770105	0.03598565	-0.041728377	0.0027724113	-0.022521904	-0.022564134	0.03237609	0.00256228	-0.005983187	0.040470544	
0.00368717	-0.003563187	-0.03966361	0.010029267	-0.015923943	-0.003979182	0.022513038	-0.013685665	-0.01646864	0.04924459	
0.017636148	-0.017300261	-0.0408816	0.03319096	-0.0023440733	-0.0016893082	0.016439702	-0.0005135185	0.011208966	0.03406468	
0.011483973	-0.035659265	-0.028266974	0.017358266	-0.009394706	0.023847353	0.039713252	-0.03232826	0.015540519	0.01582675	
0.014227794	-0.033354316	-0.0014154031	0.017572308	-0.005601729	0.012771458	-0.003332426	-0.015952425	0.013966083	0.012447585	
0.0031242901	-0.046759874	0.009917419	0.019879611	-0.009010984	0.0069700736	-0.013036655	-0.030507293	0.017831184	-0.0013218817	
0.020717029	-0.0072314315	0.013822201	0.0011082381	-0.013054877	0.006001595	-0.013729699	-0.006619433	0.01909778	0.018069644	
-0.0006369252	-0.018496707	0.017565304	-0.014523912	-0.018036032	0.014459497	0.017114408	-0.005453627	-0.0036464392	0.002121588	
-0.006122153	-0.012697147	0.007216939	-0.008575949	-0.00081121334	0.0025363544	-0.002905009	-0.012662629	-0.00019389417	-0.013129234	
0.00041180622	-0.015588455	0.01232714	-0.009646797	0.0041673393	0.014686651	-0.0023020566	-0.0112870755	0.0027457166	-0.0063466285	
0.0010736373	-0.014481001	-0.0065013673	-0.0020986057	-0.008902342	0.0027498882	-0.012020486	-0.014359202	0.011597852	-0.010780599	
-0.0140473135	-0.0033002014	0.006275839	-0.0042485697	0.012890612	0.00074431003	-0.003101624	0.0108919935	-0.007874474	-0.015402226	
-1.0968387e-05	0.002966627	-0.0062945173	0.0074754735	-0.00031460624	0.012871287	-0.02025732	-0.005423641	0.006034056	-0.005971119	
-0.010339784	0.002804553	0.012720579	0.0069079576	-0.005122636	-0.0006765692	-0.010327842	0.003804158	-0.0032891254	0.010622933	
0.00076702185	0.010824461	-0.0064791283	-0.0029510518	0.0061142147	-0.00066091213	0.009992305	-0.0030912545	0.014065245	0.0036264306	
-0.009595915	0.006849529	0.014782543	-0.006792504	-0.0040233177	0.009294708	0.017024478	0.011133829	-0.0029414126	0.02305246	
-0.0014915783	0.004750675	0.0018913647	0.005093	-0.010189289	0.010285623	-0.025585888	0.0029012258	0.008012901	-0.006137877	
0.00413638	-0.0031440195	0.006918162	-0.000712902	0.004702007	0.0032528471	0.009196197	0.012230263	-0.00138751	0.010282357	
0.01430223	-0.022347018	0.004755328	0.020197697	-0.009077418	-0.005775664	-0.0050863805	-0.0034077694	0.00069925416	0.0037597984	
0.022094406	-0.01934802	0.011627319	0.027977483	-0.0016774182	0.011190347	-0.010934299	-0.020557042	-0.005615183	-0.011775073	
-0.006503371	-0.022639794	-0.026276616	0.03907182	-0.011374668	0.0040883897	-0.0074911835	-0.027074382	0.008768734	-0.00026744892	
0.0052378722	-0.012109058	-0.017292602	0.031291902	-0.023685513	0.041260082	-0.0026606505	-0.027238462	0.029434942	-0.007515259	
-0.006865945	-0.018034367	-0.023474311	0.02133166	-0.031444654	0.023476265	-0.012605924	-0.02934028	0.04226084	0.006563388	
0.0042764144	0.007550299	-0.021770371	0.035746273	-0.055780515	0.035908278	-0.032387998	-0.031163817	0.029168503	-0.018345924	
0.013634143	-0.0006070413	-0.04108411	0.04305646	-0.049190905	0.03857159	-0.040555783	-0.044524513	0.033466596	0.02023265	
0.015018664	-0.0058334516	-0.045008406	0.04126634	-0.04778568	0.036496587	-0.045216855	-0.013155073	0.039759308	0.02654871	
0.03364964	-0.0044779475	-0.04556921	0.029549655	-0.034599725	0.031289242	-0.05780733	0.003419842	0.047669202	0.031699345	
0.02065463	0.0070109307	-0.05648926	0.018940873	-0.036474764	0.029588453	-0.0418219	-0.016289933	0.030702405	0.0346339	
0.003016245	0.043369975	-0.05199539	0.023840955	-0.021437215	0.02285962	-0.023785112	-0.008241375	0.017784337	0.025317702	
0.012924902	0.028071241	-0.042216647	0.019594772	-0.015815899	0.017485006	-0.015026809	-0.019657062	0.019120812	0.027832547	
0.011795534	-0.012026895	-0.021438815	0.016599378	-0.010388134	0.032986473	0.0021846213	-0.013662083	0.005882828	0.03991364	
0.009653317	-0.015482724	-0.007068591	-0.009927935	0.0028203398	0.01618013	-0.008815154	-0.016352061	0.0014425508	0.016385972	
0.0070868284	-0.012033387	0.008810509	-0.010112958	-0.0029006316	0.035851825	-0.0021706177	-0.011346599	0.03676943	0.012661042	
0.003767174	-0.022115665	-0.015697284	0.00033817874	-0.003855839	0.03679958	-0.010557302	0.0029301292	0.014218301	0.015576475	
0.017375236	-0.018848874	0.0034595674	-0.00045514732	0.003199716	-9.199809e-05	-0.018227892	-0.017877039	0.0091085415	0.010714742	
-0.021013828	-0.009395767	0.022197591	-0.01653458	0.009984702	0.019876217	0.00385965	-0.0154238315	-0.015867852	0.018739834	
-0.0021852362	-0.022502705	0.0023834587	0.0057804347	-0.026714297	-0.0064355424	-0.0018458504	-0.009250548	0.00611051	-0.000106416526	
-0.008269929	-0.008940809	0.006784012	-0.00019738435	-0.013218852	-0.031839974	0.0055429554	-0.009725421	0.0051343357	0.0032213824	
-0.004847346	-0.008400279	0.011426863	-0.007181394	0.013296463	0.00075199665	0.006802167	-0.0064621544	0.020528147	0.009795453	
0.0033655309	-0.0014614874	-0.013017878	-0.010727039	-0.016661325	0.0045619477	8.139638e-06	-0.011131551	-0.008373062	-0.013652399	
-0.012849393	-0.006525236	0.02624377	-0.021584513	-0.011187743	-0.002375142	-0.0014153324	0.00094166916	-0.022646688	0.006435797	
-0.0030225876	0.0027190975	-0.025819272	-0.0042971764	-0.0076749506	0.0038357226	0.011273339	-0.0019077348	-0.0021066847	-0.0018055212	
-0.00641811	-0.01318094	8.816441e-05	0.001085257	-0.00724475	0.0072076744	-0.0015618211	-0.017043225	0.008045759	-0.0031344756	
0.009307847	0.006246286	0.0010074413	0.015753796	0.004862255	-0.008232937	-0.013815407	0.0022591448	0.001858814	0.0090891	
0.0028844825	-0.0014463246	0.010623995	-0.009580617	-0.022603717	0.01477868	-0.018522495	0.0006062864	-0.009020414	-0.0039625703	
0.018513346	-0.00902919	0.015584497	0.0038155566	-0.008665011	-0.0051499787	-0.010871614	-0.012690017	-0.00255854	-0.0067090546	
0.004557434	0.006348578	-0.011071999	0.01838967	-0.004056677	0.0044802725	0.01583772	0.0075895847	-0.008245841	0.0032780387	
0.0005796057	-0.006450149	-0.005045376	0.025394501	0.013020861	0.01589613	-0.005617001	0.007327777	0.006874685	-0.0044567105	
0.019310711	-0.010470294	-0.010050328	0.010397464	-0.004122129	0.0071385447	-0.0127337435	0.010915247	-0.0018151094	-0.023103688	
0.0018070253	-0.0055705844	-0.022376196	0.023599938	0.0030824442	0.006601408	0.0014944604	-0.0046065743	0.021047495	-0.006397305	
-0.0070480043	0.0008547925	-0.02799664	0.029059147	-0.036280245	0.017508363	-0.03363331	-0.025283325	0.008493453	0.018878639	
-0.005071794	0.015330944	-0.05213658	0.048934706	-0.033919513	0.023249192	-0.042354077	-0.019215273	0.053290695	0.0030358545	
0.009942256	0.015368106	-0.05870443	0.031258047	-0.010906358	0.0382778	-0.05635056	-0.01960123	0.027943501	0.018081894	
0.019366918	0.009109679	-0.05437005	0.035675243	-0.011549338	0.038397476	-0.05764726	0.015002037	0.051291864	0.0056536216	
0.016634038	-0.014121315	-0.06590625	0.025959812	-0.0148804225	0.04102381	-0.06378249	-0.009910159	0.030710457	0.05157718	
0.019299505	0.016374374	-0.054039918	0.013006795	-0.02911948	0.022707874	-0.054352388	-0.02752987	0.022777831	0.017294465	
-0.002003489	0.03842975	-0.030675853	0.006746684	-0.012232345	0.023048403	-0.056401335	-0.009591261	0.020780489	0.024009269	
-0.008690715	0.016402632	-0.039451953	-0.00010328683	-0.027036078	0.015615254	-0.035144284	-0.0066745477	0.02578432	0.02163959	
0.012052152	0.016445976	-0.019974949	-0.0019544046	-0.03473752	0.011788221	-0.014701508	-0.0116748195	0.020496592	0.017538952	
0.010287115	-0.0010842187	-0.014593768	-0.0053699315	0.003451173	0.014785476	-0.014717191	0.0020737944	-0.0018926328	0.010462018	
0.009302004	0.002649338	0.0023840228	-0.020335127	0.0026906948	0.003259445	-0.027726626	-0.04279613	0.027367886	0.011183196	
0.007265078	0.009078483	-0.003549485	0.0039407113	0.009502032	-0.007384112	-0.0051639797	-0.0051816767	-0.002465461	0.007707436	
-0.0072183073	-0.017328748	0.010767736	-0.025115384	0.0031433238	-0.005827273	-0.0126188705	0.00075244077	-0.0088050235	0.011213506	
0.0015183584	-0.0067574806	0.0051299	0.011377024	-0.0042354716	-0.023514846	-0.0149715375	0.0079734335	7.8918645e-05	-0.005969836	
0.0059717507	0.011339967	0.009328538	-0.004218933	-0.0015929821	0.00078792276	-0.005672185	-0.008823802	-0.018460263	0.012695518	
-0.008231338	-0.0007629397	0.005708741	-0.009672151	0.02068359	0.01357082	-0.016122136	-0.0022593413	0.0037521445	0.0051332517	
-0.013605723	-0.024288993	-0.012653524	-0.0003959097	0.005927405	-0.009081515	-0.0018811886	0.007528549	0.008778483	-0.0041104765	
0.0015840625	-0.014745809	0.015057028	0.008309563	0.016024087	0.013782089	-0.007995634	-0.006550924	-0.007729846	0.00040708075	
-0.015982507	0.007410254	0.010859191	-0.009912554	-0.010311241	0.011389127	-0.0050017443	0.0031928956	-0.0037476684	0.0001458311	
-0.010800419	0.0076675266	0.002818519	0.006137432	-0.0019529383	-0.007468442	0.013983145	-0.009171322	0.0024535386	0.0065594567	
-0.012516155	0.013459844	0.010181004	-0.008476435	-0.021721352	-0.005692568	0.0055268602	0.0014931508	-0.004991102	0.0030121836	
-0.012297624	-0.008270451	-9.8050856e-05	-0.002255374	0.005141609	0.0018322737	-0.012298191	-0.00959388	-0.008470389	-0.0006361223	
-0.015899962	0.0047277394	-0.009033571	0.0033120061	-0.015247761	-0.005351495	0.0015297629	-0.0055672564	0.010214251	0.0053665023	
-0.002965291	-0.010736866	0.0025232583	0.00349298	0.022721143	-0.0067150113	-0.0031748363	-0.005751491	0.0021106855	-0.0032466943	
0.011925295	-0.0028589533	-0.00041643734	0.019178959	0.0026080064	-0.009849056	0.003823494	0.0066945353	-0.010619004	0.001957705	
-0.010308731	-0.00711739	-0.0038168647	-0.0031810198	-0.0024135124	0.002426968	-0.013297222	-0.013606874	0.0050663194	-0.0050705355	
0.00090957613	0.015169043	-0.02460682	0.0030807022	0.0037079295	0.011051682	-0.006424856	0.006401987	0.0015538651	-0.008691112	
-0.008257189	0.0171766	-0.016345896	0.014147181	0.015824378	0.0041114506	-0.008043915	0.011799909	-0.0035821663	0.0061371187	
-0.014635049	0.0052137403	-0.010411479	0.013878112	-0.017429348	0.0019484375	-0.016391242	-0.0041398033	0.004832603	0.018834624	
-0.015394989	-0.007170427	-0.021464584	0.016301773	-0.006137899	0.0029743013	-0.019274127	0.012889493	0.031139666	0.021433407	
-0.024936069	-0.017895833	-0.017981589	0.006551901	-0.033776104	0.008322543	-0.034016214	0.012524272	0.0005122035	0.035629805	
-0.009323796	-0.01179874	-0.0127315875	0.0023973582	-0.0010247285	0.017124064	-0.031586133	0.021162853	-0.008335384	0.04138761	
-0.0066771256	-0.0061549493	-0.021811973	0.016384574	-0.0062012253	0.035549693	-0.025452008	0.024802493	-0.0046615764	0.04037322	
-0.011771831	-0.008128235	-0.019297304	0.0019622643	-0.02061936	0.016987339	-0.022360021	0.007129431	0.0035350213	0.037610933	
0.013197198	0.003339769	-0.015498846	0.0030215143	-0.005085577	-0.010922401	-0.04069242	-0.00014407386	0.01144529	-0.0018207855	
-0.00407125	-0.0068814144	-0.006371427	0.0047112084	0.00506292	0.0045750467	-0.014566169	0.009293499	0.00019215635	0.03550293	
-0.0007204713	0.0054548346	0.005834747	-0.0053729317	0.00378286	-0.004645719	-0.01875111	0.0013777334	-0.003957798	0.010557354	
0.006923714	0.010593013	-0.020815894	-0.024499288	-0.011259357	0.011254561	-0.031242045	0.007927686	-0.0030804097	0.008768855	
-0.007310531	-0.0064898483	-0.018486785	-0.012316113	0.010090134	0.0041934093	-0.008131367	-0.0030615572	-0.003564558	0.019799322	
0.0040804804	-0.015901607	0.0011515155	0.010418935	-0.0027660576	-0.0041053635	0.015469902	0.024592638	0.02460521	0.011680868	
-0.009217479	0.008144693	0.0026510695	0.009398152	-0.0031286739	0.010469665	-0.017360745	-0.007588788	-0.016342018	0.011796291	
-0.005132239	0.0065791463	-0.008700689	0.008897164	-0.0071570217	0.0066337795	0.00066165027	0.012683819	-0.0019679642	0.004952359	
-0.02062828	-0.003339656	0.00856149	0.01941462	0.0052090273	0.0076557877	0.009401917	0.0063840663	-0.0035313827	0.02017587	
-0.019954283	-0.008613493	-0.002357164	0.011802407	-0.009822412	0.01182297	-0.0017667739	0.0068808403	-0.007961154	-0.008599869	
-0.0075100213	0.0042563058	-0.0071504298	-0.016012335	0.018989151	-0.010930087	-0.016675163	-0.0086891055	-0.0034206212	-0.008273052	
-0.0042401142	-0.00058732944	-0.012209254	-0.0073700533	-0.00021515288	0.007930194	-0.00288253	-0.0036324176	-0.011219394	-0.0010156546	
-0.009266665	0.012884001	-0.0032458599	0.019505797	-0.010627292	0.008147757	0.005652863	0.0026277676	0.009185466	0.010696363	
-0.0036007245	-0.007918537	-0.019676281	-0.0012413965	-0.00029012805	-0.021050664	-0.0009849387	0.0018504678	0.0017031486	-0.00034741824	
0.021781573	0.0009985844	0.011608809	0.009935003	-0.01196042	-0.0068317344	0.0089698415	-0.005481516	-0.0017833035	-0.0006947184	
-0.011538203	0.0067607006	0.00067292276	0.0028612553	-0.0001168748	-0.002876367	-0.01089826	-0.01852021	0.010841049	0.017030751	
0.003582152	-0.011239245	0.0019529025	0.019373965	0.015795153	-0.001828095	-0.013906564	0.0076598665	-0.0069216294	-0.00216776	
-0.007588191	-0.02826211	-0.0137968995	0.0023191166	0.002348891	0.010705125	-0.025521163	-0.015157478	-0.011708764	0.0038598054	
-0.0051607983	-0.0035239614	-0.0032501419	-0.0065346756	0.008951239	-0.01200742	0.00602617	0.009398751	-0.015481255	-0.009806589	
-0.002893487	-0.01352058	0.014221187	-0.002588843	-0.008719158	0.0022730196	-0.006127953	0.006015314	0.0051870495	0.009839657	
0.0045164153	-0.002819358	0.0042111147	-0.0026615094	-0.0060115266	-0.0028556786	-0.022068137	0.0058392095	0.0007790571	0.005388358	
0.0061985785	-0.002219357	0.007936835	0.0023162903	-0.00066696346	0.0045301327	-0.016664239	0.003229532	0.0034778262	0.0052469894	
-0.0076577384	0.0007779256	-0.01486464	0.009765001	0.0043326668	0.0034102397	-0.02497874	0.04309036	0.0022323257	0.0036963169	
0.008932516	-0.012349361	-0.0081360955	0.0024805283	-0.0075869	0.012291482	-0.027640546	0.036200605	-0.007653427	0.0034202877	
-0.013831785	0.008068862	-0.0068061016	0.006512599	0.0005582476	-0.013307645	-0.012976481	0.037422244	-0.014327305	0.024654625	
0.00429989	-0.0016649411	-0.012973848	0.020295784	-0.009580297	9.33659e-05	-0.026868884	0.036277764	-0.014513329	0.02948504	
0.016702695	-0.005690641	-0.0061141658	-0.008332129	-0.016453229	-0.008304155	-0.027492031	0.027147412	-0.019794164	0.04221853	
0.0012835041	0.00784072	-0.009721982	-0.004915877	-0.010012407	-0.008902711	-0.017061975	0.017319573	-0.008826569	0.03090979	
0.004916547	-0.017389864	0.0020537914	-0.011319519	-0.00452785	-0.00082396466	-0.027752634	0.037536595	-0.011502591	0.011282536	
-0.008930619	-0.0047921035	0.0025200408	-0.0126562	0.0037981782	-0.0084771	-0.00878128	0.01447868	-0.0058621154	0.035030603	
-0.0022734224	-0.005179894	-0.017730044	-0.01298513	0.006952449	0.0023859811	-0.031787638	0.026684493	-0.0038150458	0.023600522	
0.0067743855	-0.001439447	0.021976447	-0.010765797	-0.016322315	-0.008615892	-0.0025371572	0.005556667	-0.007378046	-0.0046756035	
-0.011218966	0.017499445	-0.0038533492	0.0008833214	-0.01440551	0.0017765528	-0.017457321	0.011134436	-0.00094728137	0.011594453	
0.011257541	0.0077790725	0.0015787965	0.010892134	-0.0002929771	-0.016873742	-0.0056263576	-0.010139406	-0.00026168668	0.004208613	
0.018424785	0.0014426053	-0.006338231	0.006959939	0.0051116236	0.0005663887	0.0047285534	-0.011641399	0.0039701895	0.01626275	
-0.011247535	-0.00041756488	-0.0064465734	0.0048008393	-0.018033221	-0.0030871346	-0.0062843226	0.0034514987	-0.0026426534	0.011392635	
-0.024615511	0.0104746185	0.0067282664	-0.00789013	-0.010730973	-0.021866793	0.0012220587	-0.0037774288	0.0073017366	0.0017854632	
0.0028927354	-0.0015563191	-0.005153548	0.0042422717	0.003963358	-0.0051928614	-0.0050475653	-0.010816291	0.0047245035	0.0030169722	
-0.0063093426	-0.012135879	0.005592258	-0.0042770086	-0.017693603	0.011441141	0.00019231185	0.0028798666	0.005417173	0.005199176	
0.011964293	0.008396075	-1.1163086e-05	-0.025864845	-0.0050287726	0.009477418	0.017000305	-0.016926091	0.0016351112	0.016057665	
0.019369796	0.00058956747	-0.00257174	0.0070882062	-0.010466115	0.007631948	0.0014862634	0.018903332	-0.0019656366	-0.0014828558	
-0.002572488	0.03736521	-0.004071985	-0.011997596	-0.0048709745	-0.011533054	0.0010337776	0.011184332	-0.024106184	-0.004165425	
0.003746399	0.008934339	0.019219505	0.023902195	-0.0033515873	-0.012706285	-0.014364055	0.005812278	-0.010215658	0.004159549	
-0.001565396	-0.006531092	0.0020739343	0.009776422	0.008577683	0.017341292	-0.01686792	0.0052104127	0.004801958	-0.0080789	
-0.022005128	0.014391731	0.007955713	-0.00820154	0.0004456611	-0.0005755989	0.005095395	-0.021627298	0.0064459043	0.0027234226	
0.001163673	-0.0053546503	-0.0031427927	-0.0027360593	0.013549909	0.008154763	-0.013671907	0.025585871	-0.009581732	0.0040480765	
-0.0031225062	-0.0044213375	0.00549582	0.01644728	0.010462853	-0.0018777339	-0.0040465435	-0.009100478	0.013481892	0.003894844	
0.006524776	0.0043151826	0.0036085767	0.004410602	-0.0071281483	-0.00010716712	0.014170754	-0.014399708	3.8866652e-05	-0.017667778	
-0.0075477757	0.0011267387	-0.004065044	-0.004617744	0.023087606	0.0129681565	-0.003675669	-0.013384146	-0.0010457407	0.012713419	
-0.003385936	-0.0016162165	-0.008321685	0.014926494	0.0037024536	-0.00041724308	-0.0033509235	0.02256008	0.0042406055	0.0029586907	
0.0048730006	-0.005523122	-0.0036970642	-0.003061925	0.0040475177	-0.013524384	-0.017434055	0.022835182	0.011422897	0.008314058	
0.009232659	-0.002642891	-0.0007463493	0.007045923	0.00032329216	-0.0092827445	-0.012747388	0.011578664	-0.012130528	-0.0013937494	
0.0011333455	-0.010372626	-0.009259547	0.0069791838	-0.0019716509	-0.005034722	-0.034667484	0.028862137	-0.012854624	0.018216092	
-0.00835441	-0.008308559	0.00054762134	-0.00065298553	-0.022710364	-0.017987534	-0.020297073	0.02295936	-0.004078907	0.017779162	
-0.007040108	-0.0143025005	0.0058773947	0.0051615834	-0.023385944	0.0057173925	0.012102376	0.008555166	0.010003984	-0.0014381451	
0.0052883197	0.010723626	0.015574325	-0.004870669	0.0118974615	-0.0011116794	-0.0031292723	0.012500531	0.0065402817	-0.0030411617	
-0.005417816	-0.015809987	-0.0012524391	-0.0002253743	-0.011866131	-0.0019529025	-0.017796036	0.008444217	0.015580234	0.011640447	
-0.0114763	0.009851348	-0.014810547	-0.006707011	0.009254001	-0.010044501	0.0152581185	0.008755362	0.009707908	0.02149232	
0.012300175	-0.009800706	0.0047716536	0.00014813364	0.0018006526	-0.008969624	-0.0050013377	-0.0018891562	-0.0031923435	0.0051636263	
0.0009541591	-0.010469531	0.0050507216	-0.005758523	0.013206418	-0.006916962	-0.0071006035	0.017397786	0.004498795	-0.0031653666	
0.00032937643	-0.015725775	-0.010272364	-0.031997245	0.0050159404	-0.000852964	-0.004796591	-0.020676265	0.009997762	0.012980699	
-0.0005969025	0.010604389	-0.0018590911	-0.013213909	-0.013890357	0.0063062077	-0.007385934	-0.0052045556	0.021115769	0.007163913	
-0.0118934475	-0.004992579	0.00940622	0.0011588266	0.0064068944	0.00017988747	0.0012315555	0.0018260571	0.0042263516	0.020805418	
0.00085654855	0.0041004657	0.004979714	-0.004713313	0.0019072689	0.0044256845	-0.006113746	0.017930405	0.005971661	-0.011475807	
0.0021195516	-0.00056430226	0.0019303748	0.012308831	0.020984648	0.0041967737	-0.005205235	-0.0038722088	0.0069017084	0.011928275	
-0.004386394	-0.0155683	-0.006482715	0.0028850473	0.009432608	-0.0019379298	0.001980718	0.009491591	-0.0002526887	-0.0034461904	
-0.0035801027	0.008377308	0.022380644	0.008054178	0.016239138	-0.013456033	0.017661411	0.012673453	0.008126757	0.0077277604	
-0.012928081	0.005931471	0.0025695257	-0.015270922	0.005177394	-0.0046872017	-0.012384463	0.0013771666	0.008350829	0.004337336	
0.004762189	0.016565053	0.0009134962	0.003605781	-0.0058601457	0.002051824	0.019896576	0.0120164575	0.012908542	-0.01301923	
0.0037867865	0.017416487	-0.0122010745	0.0033730182	0.0050651473	0.025080603	0.0022620503	0.0114679085	0.020990243	-0.009897627	
-0.0015112942	0.0063108676	0.014607993	-0.0062278016	0.00653301	-0.0038897959	-0.0045050774	0.0024344625	0.019861376	0.007380607	
0.0036472941	-0.0038500251	-0.013126405	0.0019723545	-0.007057344	-0.01429499	0.007847482	-0.004580323	-0.007999291	-0.001085854	
-0.011103346	-0.00136404	-0.008987219	0.0047002444	-0.0060891653	0.0040300204	0.012970432	0.00085046934	-0.010994859	-0.010350317	
-0.006201597	-0.006226608	0.002316939	0.004389253	-0.0135770645	0.009221692	0.00032154875	0.0039199875	-0.012221257	-0.002501485	
0.004978326	0.012132509	-0.015094661	-0.008229025	-0.013029295	-0.010655283	0.009962368	0.0037497778	0.0090024145	0.008250592	
0.007902528	-0.008440446	-0.011303459	0.017219104	-0.015678812	0.0024343228	0.0077264546	0.003248238	-0.0003940495	-0.00067381834	
0.015757095	-0.0015766042	-0.0026970792	0.0131417485	0.020709047	-0.00905963	0.0030976217	-0.0028512874	-0.011238188	-0.005342469	
-7.519617e-05	0.015444258	0.004260765	0.0052910578	0.015762167	0.0018684568	0.006332305	0.005889986	-0.0067930175	0.0022623274	
0.0010929697	-0.014413961	-0.008449873	0.0022785445	0.016470462	-0.009642026	0.0050941715	0.0048270416	0.0035072626	-8.258381e-05	
-0.0119036315	0.017175827	0.0023430295	-0.011738831	0.010560905	0.034602337	-0.0045174425	0.0039504697	-0.021029107	0.0012382565	
-0.0026596223	0.009311445	-0.016793882	0.008588585	-0.0027635605	0.004059389	0.004058613	-0.01131193	0.0061244606	-0.0034153266	
-0.02040766	0.025740629	-0.0018695701	-0.0016682007	-0.013058171	-0.014983115	0.008952788	0.01183853	0.0066821603	0.004436513	
0.012051087	-0.016371407	-0.009012437	-0.018184584	0.003977419	-0.0011100438	-0.0031331042	0.032684084	-0.023911608	0.01104334	
0.009129756	0.0041994085	0.007258906	0.020768126	0.019202156	-0.008688664	0.0008385869	0.0027554706	0.009362465	-0.0025821344	
-0.009131601	-0.0065348074	-0.00812691	-0.00337566	0.0041596093	0.005225746	-0.003861077	0.020253718	0.010268394	0.007606822	
0.007133913	0.011113493	0.0062111276	-0.0111205345	-0.011200292	-0.008674885	0.0042771217	-0.00068479154	-0.02138618	-0.0047298768	
-0.008556309	0.0069313548	0.009548354	0.011381706	-0.0005672808	0.00034335826	-0.0040028915	0.013494116	-0.0099099595	0.0055017476	
0.025358437	-0.0011923296	-0.0005822784	-9.4035415e-05	0.0075510284	0.011956378	0.0011748356	0.010608747	0.005758401	0.00541645	
-0.0012317983	0.008789343	-0.019280132	0.0065499423	0.01424109	0.011593931	0.007106399	-0.012925939	-0.006827258	0.008429543	
0.010049008	6.650072e-05	-0.004954058	-0.007852055	-0.0013192872	0.0036921469	0.0040160366	0.014319295	-0.0025161717	0.0050025196	
