0.01192386	0.016292568	-0.00041309503	0.02204115	0.0013959024	0.0034464158	0.020786058	0.0043005445	0.014372327	0.0020801604	
0.005295185	-0.0077295853	-0.005812468	-0.013280921	-0.0006331048	0.008261801	-0.008896788	-0.0054348563	-0.018247746	-0.0021832676	
-0.00193725	0.0042630676	0.0020041817	-0.00635911	0.007942029	-8.619227e-05	0.008799273	0.001708486	0.0039980975	-0.012038251	
0.014806914	0.005802973	0.0057152463	0.014889993	-0.003475285	0.0024208752	-0.0010690084	0.0013625831	0.0014517641	0.004614159	
0.014767194	-0.00866946	0.020141782	-0.00069587934	0.0011009321	0.00025964162	-0.007181828	0.009652284	0.0020845742	0.012766213	
-0.0077707455	0.021457188	-0.0019500982	0.0016726963	-0.00065899116	0.0042649535	-0.00013412263	0.013718448	-0.0063012308	-0.002450589	
-0.014696692	-0.008729859	-0.018015504	-0.006387176	0.014377832	-0.006389377	0.0022184793	-0.009066927	-0.01168807	-0.0051544793	
-0.015242942	-0.013923148	0.0044891243	0.013709231	-0.0041238847	0.0060516587	0.01183949	0.0020966812	0.0038528724	0.001414963	
-0.011496312	0.002410788	0.0026890887	0.005340742	-0.0033746045	-0.005082034	0.008722387	0.0067258105	-0.012136316	0.0016528658	
0.0043145977	0.0008285603	0.011985348	0.009100496	0.012393113	0.0024263326	-0.0019212237	0.0019143516	0.015619119	0.011829034	
0.002033972	-0.0016720229	0.005433028	0.0021799938	0.010467392	0.0014692977	-0.016683264	0.0038247153	-0.005415245	-0.01155514	
-0.00016424144	0.0028837011	-0.0115362555	0.0032840073	0.011720186	0.00089046784	0.0047731707	-3.8838316e-05	-0.01646306	0.00049728446	
0.004033542	-0.008918015	-0.0029565901	-3.425019e-05	0.009211745	-0.0022286144	-0.001512503	0.0016039839	0.004703032	0.002211368	
-0.0036468464	0.014644118	-0.0049186316	-0.008237764	0.013821677	0.011603222	-0.007417365	-0.0046595084	-0.010167376	-0.0018942291	
-0.008325754	0.002621509	-0.010306918	0.0034722409	-0.008237206	0.014837386	-0.03191856	0.013507454	0.009608497	0.01441288	
0.016416844	0.008888629	0.012840224	0.008298311	0.00086028426	-0.0010156094	0.010948892	-0.0037150844	0.0061190915	0.004833487	
-0.002679572	0.012381327	-0.003032808	-0.001781297	0.00067790726	0.006130456	0.008912063	-0.0027170416	0.01394102	-0.0048309006	
0.001739922	0.01333106	-0.0036964258	0.0070365835	-0.0013531405	0.0048580095	-0.004467359	0.012166761	-0.0037673132	0.00545857	
-0.012703753	0.013958981	-0.00578597	0.002654479	-0.010319026	0.0072178124	0.018834842	-0.010267155	-0.0013546532	-0.0006630163	
0.011324426	-0.0041644843	-0.0020274837	-0.002492409	0.007003013	-0.018694602	0.024451843	-0.03381757	-0.018086804	-0.0022358533	
-0.014902532	-0.011454978	0.01186492	0.018733243	-0.0019539301	0.013872016	-0.0006920322	0.002039763	-0.017146314	0.0037608608	
-0.01671882	0.008813621	0.0013060517	0.008987124	0.003633806	-0.023319582	0.017484538	0.003922286	-0.010689455	0.005373577	
-0.0044910708	0.0063250326	-0.0060182745	-0.0016863343	0.016865984	-0.0042540394	0.0068988157	-0.010931219	-0.0037918289	-0.0059072906	
0.0019574957	-0.0058820625	0.0047410233	0.008449131	-0.015955351	-0.0031481292	-0.014739714	-0.0062200315	-0.0019791794	-0.0053767506	
0.008921887	0.0011257371	-0.0058991318	-0.004703796	-0.0038181022	0.011576557	-0.0062710564	-0.002960524	0.0062938724	0.0011619591	
0.0065047448	-0.00853134	0.0064464575	0.015649835	-0.009673756	0.022528766	0.009553511	0.008684934	0.001736182	-0.0007710545	
-0.00762782	-0.0028834967	-0.008886077	-0.00027269823	0.01668186	-0.013936497	-0.0024509535	-0.008724541	-0.008571699	0.015670866	
0.002179818	-0.0053487127	0.02539716	0.0020053454	0.01758212	-0.002233503	0.001131251	0.017548842	-0.018762179	0.009262869	
-0.0076093236	0.010761035	-0.009384314	0.0018980476	-0.010125463	-0.0050354856	-0.012350725	-0.013415471	0.022268903	-0.0041170274	
-0.0062852157	0.015755696	0.00076822925	0.009033579	0.0054052416	-0.0019797157	-0.0021633585	-0.0048889443	-0.020619681	-0.013214255	
0.024213033	-0.005449884	-0.0002584704	-0.006307236	0.013438254	-0.02045839	-0.006532547	0.0005083779	0.004253764	-0.0018920425	
0.015676152	0.0075856587	-0.004030241	-0.022220915	0.011761124	0.0005150466	0.0069868993	0.026687978	0.00088854594	-0.009357987	
-0.0044230046	-0.023055667	0.021971729	0.014967095	0.020012526	-0.013200646	-0.006146167	-0.014541242	6.0791284e-05	-0.00073246896	
-0.008007621	-0.0026790008	-0.004876945	0.02093397	0.0055354545	0.006733453	-0.0024722381	0.007240171	-0.019240024	-0.010524143	
-0.0063795154	0.003111359	0.008629887	-0.012004054	0.017052425	0.0056207753	0.0033271792	0.0060364683	-0.002361429	0.0062633795	
0.010317705	0.0028405942	-0.0034207248	-0.0047194227	0.0041914	0.011967751	-0.008544693	-0.0019659451	0.0033369758	0.002633937	
0.020161446	0.0133789005	0.0148616675	0.0014723589	0.0037113286	0.0036782792	-0.004377628	0.0026753424	0.008762928	0.012965281	
0.013426635	-0.011572135	0.0011987267	-0.009114154	0.008329952	-0.0016824472	-0.0017826988	0.0136640975	0.0010336204	-0.0017093599	
0.0071680765	0.0029302703	-0.011274069	0.014424517	0.021159254	0.032112204	-0.015199458	-0.0020322127	0.012690725	-0.013051449	
0.010679135	0.007355817	-0.006368742	0.007767135	0.0071203834	0.005150752	-0.006259188	0.016098507	-0.0006888001	-0.009997547	
-0.011598754	0.0063524586	0.011783571	-0.0035066165	-0.004857619	-0.010139232	-0.0017743912	-0.0035919633	-0.0064940094	-0.010985674	
-0.014068751	0.01025905	0.0042679156	-0.009941098	-0.00551668	0.0028194326	0.00715704	0.015270234	0.016239174	0.007948969	
0.008502866	-0.013067162	-0.008291182	-0.00278204	-0.006050786	-0.00310027	-0.020102601	0.00280537	-0.01355938	-0.005662609	
-0.0010496572	0.006553527	-0.007403612	-0.00065009604	-0.0009702706	-0.005613939	0.007047021	0.0007963349	-0.0021469698	0.009144406	
-0.005867904	-0.016511519	-0.0014503389	0.004165329	0.0051092505	-0.0032279282	0.0054860455	-0.0036800185	0.01367943	-0.00025445598	
-0.028697265	0.014498847	-0.009664144	0.00047353533	-0.003634298	2.999465e-05	0.005537533	-0.024385972	0.013014175	0.009657381	
-0.01189433	-0.0009420766	-0.018861022	0.013680705	-0.0024662837	-0.009916169	0.0039032344	-0.005166805	0.004051425	-0.0025882623	
0.0057124663	-0.0046579596	-0.0062755663	0.008388162	-0.009747538	-0.008865126	0.0009278317	-0.013202182	0.0063067772	-0.012532225	
0.006324449	0.0085769715	0.012092409	-0.012861856	0.01041016	-0.0019325856	0.00625561	-0.013314534	-0.0051670466	-0.0022326878	
0.0027449923	0.0038460174	0.0080070095	-0.0010310619	0.0068887183	-0.011216381	0.0016545755	0.0065401956	0.013882612	0.006719449	
-0.0013632644	-0.0008524682	-0.00033743485	0.021203969	0.0071363165	-0.0036452326	-0.01585244	0.0036427	0.014677193	-0.021590337	
0.013129201	-0.00020860009	-0.017709386	0.014243252	-0.0036306963	0.007324302	0.0007226616	-0.016909624	-0.028583983	0.004058044	
-0.012018127	0.0021378358	0.007892919	0.009960859	0.015396785	0.006889801	-0.01472624	-0.0056044254	0.01883812	0.015266303	
-0.011604359	-0.0029021055	0.004534709	-0.009314674	-0.0257202	0.015909502	-0.00420098	-0.011304847	0.00900612	-0.01623395	
0.0075931237	-0.016946217	0.0048385356	-0.015466622	-0.019719658	-0.0031522783	-0.023313688	-0.015269536	0.006370604	0.0023189534	
0.017846273	0.0063424017	0.005453058	-0.0093647465	0.005778637	-0.0073199845	-0.0029424655	-0.0041855685	0.013949162	-0.0016919824	
0.009761309	-0.003542188	0.009909982	0.0058314465	0.0085057495	-0.01312028	-0.0035558187	-0.0022856037	-0.008171664	0.001826701	
0.0105501665	0.0031928918	-0.007738532	0.009348585	0.0050674244	-0.0068165106	0.008444539	0.005956726	-0.0012708415	0.016660435	
0.00892001	0.0054618567	0.001792163	-0.009379793	-0.007454829	-0.006311107	0.01780481	-0.0052611297	0.0039630644	0.007065255	
0.0023999512	0.0023426178	0.0120766945	-0.020489443	-0.00093509245	-0.001026748	-0.013465757	0.007736559	-0.017346783	-0.0084654465	
0.0038083757	0.0019716995	-0.00093915255	0.007089676	0.009964719	-0.0009037356	-0.004281743	0.0060291383	0.012811741	0.006273261	
-0.0004998779	0.015069565	0.01072816	-0.0007167147	0.0010192972	-0.0035946232	-0.0013418561	0.0012113039	-0.0053104954	0.0006150207	
-0.002058152	0.020339975	0.003714821	0.003946667	-0.0018995384	0.008458859	0.0073765935	-0.0082471715	-0.0071142353	-0.010815282	
-0.007357699	0.00022498559	0.014687254	0.005143265	0.014564257	0.0012154228	-0.015761359	0.005005242	-0.0042430614	-0.010633586	
-0.012944155	1.6057096e-05	-0.010710279	0.018887293	-0.024213936	-0.005576474	-4.0829713e-05	-0.010424752	0.0024886832	-0.0054045725	
0.0025126403	0.010296758	-0.00010485292	-0.010094919	-0.0035831023	-0.00075479184	0.009592581	0.016580459	-0.0020061093	0.0037839636	
-0.0052096234	-0.0018124575	0.0023495704	-0.010296873	-0.016091961	-0.007252743	0.00017902197	-0.006673552	-0.007349147	-0.0060159047	
0.019048372	0.0013001922	0.0017314985	-0.009533315	0.0049807183	-0.0074034845	0.0077753	0.0058665513	-0.0006397543	0.009523471	
0.017902121	0.004998804	-0.00035501708	-0.015373312	0.0022932054	-0.0077245478	0.01825487	0.008276564	-0.014336462	0.0013584879	
0.0029362573	0.00084060687	0.008763164	0.0030110015	0.00055821537	-0.01392406	0.018991383	0.009630535	-0.003543232	0.009292337	
-0.006825143	0.0034509294	-0.015103354	-0.014030633	0.009386359	-0.015427569	0.012118182	-0.013401168	-0.0014099829	0.001972265	
-0.00797481	0.0005669797	0.003601934	-0.004158825	-0.012066832	-0.012900661	0.0212772	0.006713834	-0.005673045	-0.0030536025	
-0.0032511088	-0.016311258	-0.008042971	0.0058833943	-0.0055180234	0.00019101854	0.024179166	0.0030614682	0.0069223936	0.0012287702	
-0.015913684	-0.0057307375	-0.0064042103	0.005382497	0.00493467	0.0021906828	0.013284201	0.005287423	0.0011798282	-0.014473228	
-0.005361942	0.010025789	-0.017632065	0.010872149	-0.010099412	-0.018777808	0.0061153257	0.0020132996	-0.01328059	0.012346439	
-0.004614614	0.001634478	0.0065621263	0.012783683	-0.02326088	-0.0038866792	0.010998844	0.008997422	-0.003180868	0.00287759	
-0.011316991	0.00345106	-0.008676172	0.00016333887	-0.022905119	0.01623939	0.007540406	0.0018842483	-0.007187176	-0.011291032	
0.00043289954	-0.004133275	0.0032682684	-0.0066564493	0.0015471634	-0.0048368066	-0.0084329285	-0.0199493	-0.015141616	-0.0041802707	
0.0035504194	0.0033760637	-0.0057287887	-0.01926195	0.0026083551	-0.0011399877	0.0189108	-0.016217012	-0.004972223	0.0009645826	
0.011318275	0.0036346198	0.005351517	0.007741004	0.0022492234	0.010129119	0.012199496	0.01933736	0.016245253	-0.002059126	
0.008139797	0.00413041	0.0012893681	-0.004341341	-0.0031175185	-0.0012182771	-0.000696592	0.00569724	-0.0013289762	-0.009085073	
0.0011067418	-0.013724466	-0.014950553	-0.003564819	0.00090407603	-0.010010372	0.0014964169	-0.0025390098	-0.0017666902	0.013524639	
0.0053663775	0.0106229065	-0.006120663	0.00060899515	-0.011891305	-0.010268235	0.012858906	0.0077454112	-0.0037672222	0.0039201463	
-0.020851493	-0.012905488	0.02353019	-0.014300957	0.0012084638	0.00031940424	0.00088375475	0.01532217	0.008091049	0.014568095	
-0.007822594	-0.004678331	-0.00852805	0.008739905	-0.0037779987	0.0066157817	0.0040905834	0.01481702	-0.008953465	-0.011342717	
0.010443536	0.002455724	-0.0099993	0.00034010527	0.0035072784	-0.0063568233	0.0051473514	0.019699063	0.013231519	0.019093987	
-0.013898833	0.0061626993	0.006234639	-0.013327326	0.0028401483	-0.013346166	-0.018625459	-0.009354813	0.0013553011	0.007233015	
0.0041416036	0.0020467169	-0.010025869	0.0031298215	-0.00050777907	-0.007758347	-0.0006142777	-0.010482612	0.004674131	-0.0015984504	
-0.0017916813	0.0037325306	0.023058664	-0.018062	-0.0022151289	0.014772347	0.0053882967	0.008972452	-0.0019097726	0.0031947037	
0.017903883	0.0007794936	0.0024865842	-7.0338574e-05	-0.010747917	0.0045541595	0.013948709	-0.012464217	-0.0017006565	-0.023912335	
0.0122026205	0.0050654765	-0.017917333	0.0043706186	-0.0088074785	0.00014250955	0.0020504633	-0.014053181	-0.0073676025	-0.007794428	
0.0028543589	-0.003626634	-0.021505373	0.0002904196	0.0034121142	-0.0077295024	-0.016232425	0.011854982	0.015195439	0.001216052	
-0.0068317805	-0.00064933964	0.004058755	0.0016171236	-0.010950569	-0.0007737754	0.003376929	-0.0027788335	0.007007189	0.0064815073	
-0.0025655928	0.013055181	0.0034094239	0.0049104975	-0.001306107	0.010702771	-0.0008095744	-0.0006174957	-6.184682e-05	0.007421612	
-0.011503583	0.00018433247	0.004490649	-0.006083985	0.004648245	-0.004211408	0.038236346	-0.0045775697	-0.00082341785	0.0038372006	
0.0011319588	-0.011175227	-0.011100229	-0.018516215	-0.011673063	-0.011272071	0.013341894	-0.0011946249	0.010083132	0.010560044	
-0.008955237	-0.0038751035	0.022985332	-0.010588174	-0.02370822	-0.026141817	0.012811035	-0.010885266	-0.0067552705	-0.0026898002	
-0.00028005074	-0.014459022	0.0066297874	0.020286875	-0.005778464	0.0016946995	0.038453214	0.0019361662	-0.013711388	-0.008677399	
-0.005596074	-0.0016420482	0.011116781	0.00081250677	0.0038807844	-0.034965888	0.048758518	-0.011511211	0.0136828385	0.012857788	
-0.011417001	-0.019274732	0.023250429	-0.006042812	0.0010639081	-0.033260364	0.04562206	-0.003673628	0.0063023856	-0.0065765413	
-0.012398158	-0.026375724	-0.0072219106	-0.0040036286	-0.0086470125	-0.019221008	0.041100416	-0.010282079	0.003054552	0.0070114164	
-0.006771582	-0.008912594	-0.0015977542	0.007570631	0.0055340556	-0.02603381	0.055706646	-0.0046524233	-0.012662447	0.0035752465	
-0.0037231103	-0.019568237	0.009311564	0.0059492444	-0.013906351	-0.036274448	0.032635212	-0.0004834945	0.0056278533	-0.015511978	
0.013948583	-0.0062759263	0.00047166017	-0.01943232	-0.0029646724	-0.022775628	0.041135993	-0.0034276159	-0.00900271	0.0038887959	
-0.008106649	-0.009777327	0.0045569944	-0.019432042	-0.0018842866	-0.030074868	0.020270582	0.0060406793	0.02854964	0.010736518	
-0.0033082208	-0.012366092	-0.0055752746	0.018071923	-0.00019442193	-0.002633568	0.00966811	0.0023835928	0.0032955874	0.011692612	
0.009469792	-0.0068482906	-0.019739283	-0.009051125	0.0079294965	-0.00743062	0.00014961869	0.002340295	0.0052130236	-0.0013052917	
-0.017107034	0.012091867	-0.009201771	-0.011471013	-0.022089534	0.004730996	0.00039412867	-0.0026140385	-0.001744716	0.0062150373	
-0.00980335	-0.016946768	0.006768259	-0.008644623	-0.005980203	0.001256866	0.01663267	-0.012714523	0.008779565	0.0038603344	
0.009125937	0.0071655144	0.002639862	-0.0018396968	-0.0062357835	0.00046981152	-0.0055212867	-0.008537956	-0.002997577	0.006421277	
0.0052472674	0.0044733966	0.0051915236	0.016261205	-0.007650191	0.004624815	0.0053356434	0.013461354	-0.011135563	-0.016086653	
0.0046083047	-0.002549882	-0.0034406274	-0.0017254379	0.0012893269	0.0016546492	0.0016506094	-0.024837313	-0.00053883175	0.013436651	
-0.008458358	-0.010125769	0.0022673798	-0.015004367	-0.02229385	0.0036834017	0.0041685523	-0.000984872	-0.0040707137	-0.0044790083	
0.015551402	-0.0062240018	0.013521406	0.029137803	-0.004405187	-0.0055636326	-0.01150956	0.011705404	0.010868988	-0.0053222063	
-0.01636881	-0.008106679	0.0067427284	-0.0040767267	-0.0011189402	0.00039899978	-0.0041991915	-0.0060769343	-0.0027680916	-0.0012020989	
-0.0053569605	-0.008678065	-0.015258514	0.004948117	0.0043108836	-0.0060824156	-0.005518954	0.0017221387	-0.0009592331	-0.003370685	
-0.0015363375	0.012527031	0.011372845	-0.003076148	-0.010115105	-0.008369564	-0.0081159985	-0.010495997	0.012345035	0.013450084	
0.008092684	-0.014902258	-0.0047332942	-0.008971352	-0.025567276	0.006445216	-0.004990543	0.011730628	-0.0019510546	0.0017006977	
0.005290943	-0.005316792	-0.0078935	0.006668085	-0.0049324217	0.007616729	-0.00036235165	0.0037626857	0.017076993	-0.0019556216	
-0.009522904	0.02216931	-0.00020914468	0.01124645	0.013215717	-0.0021190166	0.0101654865	-0.01338377	0.0090663815	0.0006109537	
-0.0009141436	0.014979221	-0.012382888	-3.4478595e-05	-0.0006435982	0.01015913	0.0117490105	0.0023124742	-0.0045843604	0.0065634954	
0.0018959609	0.0049094968	0.01244736	0.0075713913	-0.010723309	-0.006180371	0.003683297	-0.002357583	0.0015948927	0.004232473	
-0.0100600915	-0.015687624	0.009969266	0.014897385	-0.010551863	0.016126467	0.026197055	-0.013441051	-0.008601879	-0.018207537	
-0.024749864	-0.011517648	0.0060004164	0.016789695	-0.018099314	0.01622659	0.027631896	-0.011623043	-0.014052081	0.016985891	
-0.008454293	-0.031862553	0.022781597	0.020290319	0.007998628	-0.022805104	0.02281811	-0.00059903006	0.005774991	-0.009705305	
-0.012975251	-0.012855428	0.022738935	0.013875565	-0.04026623	-0.023817247	0.040839348	-0.020386627	-0.006441771	-0.01199048	
-0.01981424	-0.020785633	0.023665639	0.0019972513	-0.023530576	-0.022268195	0.04570566	-0.004998352	-0.016665429	-0.00434063	
-0.0026428439	-0.011134207	0.042666443	0.022618638	-0.018300347	-0.018228075	0.049442217	-0.022867853	0.0028668533	-0.023864878	
0.0013781954	-0.022257986	0.031139502	0.017949881	-0.026299901	-0.023622455	0.041840777	-0.015153972	0.009540332	-0.0017969988	
-0.010104782	-0.03248059	0.013748465	0.010445371	-0.02696396	-0.020297164	0.06163751	-0.016555803	0.006693927	0.009544262	
-0.012209637	-0.0042658146	0.011660705	-0.016769106	-0.013675232	0.0029219827	0.04651105	-0.012725927	-0.0064983903	-0.018354218	
-0.010056243	0.030321978	0.013036158	-0.0075200414	-0.016090807	-0.0014434785	0.045880184	-0.021096416	0.019061798	-0.0026011155	
-0.02558753	-0.0048254053	-0.009827685	-0.0068597645	-0.004445269	-0.005695489	0.027613116	-0.0073782033	0.021601725	-0.01325915	
-0.015643777	-0.0026431002	0.011018628	-0.00916757	0.0023985892	-0.000764878	0.0065295906	-0.0056348057	-0.0044398834	-0.010452338	
-0.0064458954	-0.0133493785	-0.004059783	-0.009203155	0.004410561	0.023625059	0.01667321	-0.01753397	-0.0059706145	0.015474104	
-0.030348677	-0.0056397007	0.0113631105	0.00042795303	-0.020628635	-0.00538125	0.010402007	-0.011869899	-0.010334757	0.0021393471	
0.0068044495	0.0025661609	0.003739632	0.0068200836	-0.0039057161	0.003496343	-0.015461952	0.009907552	0.027185695	-0.015951404	
0.0017207628	-0.019872991	-0.0035109664	-0.0055682394	0.0007185128	-0.0059780255	0.007842498	0.009132372	-0.0067119864	-0.017909618	
0.008534422	-0.011283313	-0.0022114643	-0.014356278	0.012093295	0.006514274	-0.0016638623	0.0049629603	0.007451729	-0.0098721795	
-0.012343679	0.0010386828	0.0096756155	0.014928067	0.018610295	0.0023749876	0.0140191885	0.002422193	-0.00733131	0.0033330512	
6.8911986e-06	0.0060445485	0.016964553	0.00746014	0.012366555	-0.0027416719	0.00088104577	-0.007515427	0.010684063	0.006819388	
-0.00975531	-0.0011218719	0.0011734794	0.005120528	-0.009744391	-0.0031484696	-0.014794207	0.020870538	0.023044543	0.022712773	
-0.0020553104	-0.005072084	0.015297845	-0.009532492	0.002808614	-0.0065743797	0.00048111798	0.0019072538	-0.0081842495	-0.006029574	
0.0018618213	0.011933927	-0.008528622	0.0023998115	-0.015820377	0.011882232	0.007484986	0.0162333	0.0102664055	-0.018743359	
-0.002340901	-0.016850106	0.0023077335	0.016801588	-0.009368275	-0.011882437	0.0029366934	-0.015484224	0.007993171	-0.01353171	
-0.0047070566	0.010295441	-0.0125915455	0.0021708382	-0.0053625633	0.0063172025	-0.0007967318	0.0133896405	0.0029611543	-0.0013799213	
0.0033853597	-0.0027024979	0.015489863	0.013900818	0.008354671	0.014092506	0.007626727	0.002707686	-0.0032664875	0.002363812	
-0.0147776725	0.0010945464	-0.010911773	-0.009679971	0.012606186	0.0037776406	-0.01312362	-0.006546239	0.005979503	-0.01653173	
-0.0012382919	-0.022350663	0.012599021	0.014705008	-0.0069937604	-0.013630864	0.017953241	-0.0017967671	-0.0013673801	-0.008557046	
-0.017386004	-0.014371968	0.015089031	0.017870566	-0.009805564	0.010097566	0.016822536	-0.010782117	0.006699274	0.011171716	
-0.035630103	-0.022943756	0.017056879	0.048924692	-0.0013078966	0.024001736	0.030457342	-0.011709803	0.008557421	-0.009972462	
-0.0029149055	-0.035972424	0.018306864	0.029815651	-0.020938724	-0.0009634056	0.04426832	-0.027519519	0.009468849	-0.024854496	
-0.024356833	-0.035380766	0.012062021	0.028442238	-0.007831364	0.01852955	0.04742807	-0.028795343	0.025347251	0.007300698	
-0.0077299587	-0.032853983	0.008103073	0.022399368	-0.02524243	-0.0093418	0.045351386	-0.01977767	0.022611173	-0.011156171	
-0.01349141	-0.020208968	0.013817673	0.042401336	-0.042854574	-0.023141682	0.07312623	-0.058640163	0.027876245	-0.0005282791	
-0.0004231083	-0.016918726	0.004470315	0.02840533	-0.030741267	0.0039545796	0.044481374	-0.050750855	0.045473866	-0.01727828	
-0.010390775	-0.020034822	0.025964577	0.012928943	-0.014371029	0.0031661764	0.056276318	-0.069046125	0.026010776	-0.014555572	
0.010094738	-0.012559623	0.011635397	-0.010613983	-0.022108058	-0.0056993263	0.041825425	-0.07484186	0.0376782	-0.013361281	
-0.016340306	0.005439622	0.018508768	-0.011575118	-0.051071525	0.01989469	0.038950697	-0.059403557	0.033615906	-0.00193045	
-0.0081262225	0.008291947	0.023782095	-0.021620726	-0.010883496	0.015217962	0.0064473106	-0.044054165	0.038012892	0.0037385656	
0.01105709	-4.104291e-05	0.018027363	-0.0040210057	0.0050486648	0.052554265	-0.010165455	-0.01925418	0.023885582	-0.023339555	
-0.0058530835	0.0036056808	-0.0036812176	-0.030788079	-0.014073828	0.060346898	0.006774624	-0.013867508	-0.0014199638	0.002957264	
-0.01150089	0.00247559	-0.026415832	-0.00033152942	-0.007119147	0.027682452	0.012875259	-0.0042683915	0.012347618	-0.018594978	
0.0017729227	0.02257643	-0.010058096	-0.011620318	-0.00041032868	0.022421407	0.0033998603	0.012059836	-0.007855705	-0.001755837	
0.0013844267	-0.00040886897	-0.0024333561	-0.024129946	-0.0049470216	0.026931755	-0.007275352	-0.017468426	0.008116369	-0.006359029	
0.0065592844	-0.005043004	-0.0013756723	-0.00090155005	0.009213595	0.0074898666	-0.013923359	0.018534929	0.004180482	0.0065430426	
-0.009326378	-0.0028939252	-0.009013299	-0.024500152	0.013512271	0.0012283124	0.0041636834	-0.010687885	0.021385571	-0.0027516237	
-0.007777885	0.008425311	0.00413587	-0.01128533	-0.017765127	0.024381246	-0.0048111966	-0.003757767	-0.013494744	0.008331388	
-0.0013666451	0.001991263	-0.004490486	0.0028686353	0.012248069	-0.0075635235	-0.0038345875	-0.0064373137	-0.004102796	-0.025061583	
0.010290813	0.010279082	0.010714411	-0.0072059366	-0.002863548	-0.009700096	0.0072922246	-0.0007191302	0.0021104428	0.0082761645	
-0.0031309617	0.004995123	0.013616275	0.0035513707	0.006824637	-0.0239209	-0.015341058	-0.0038290422	-0.0011230962	0.006651953	
-0.001255776	0.009902925	-0.014602537	-0.0010063023	0.0017712306	-0.010979461	0.0015126396	-0.012361857	0.011995862	0.0038600694	
-0.010803209	0.0009355446	0.011331052	0.0016187719	0.0062162355	-0.013246076	-0.0021949382	0.0095151365	-0.0068731694	0.001044018	
-0.0041419226	-0.0027506007	-0.00030124583	0.010393513	0.001378742	-0.016864555	0.002392036	0.0017211005	0.0067388252	0.004606933	
-0.0031846636	-0.024249028	-0.014542207	0.02001397	-0.0021676228	-0.0144959865	-0.025874173	0.004780822	-0.0075255004	-0.007897107	
0.0024311987	-0.025834326	-0.013748809	0.042769503	-0.005033366	-0.0074808337	0.012980888	0.014295592	0.012006046	-0.0039356444	
0.012277151	-0.015854483	-0.0074840924	0.023800747	-0.0021136375	-0.022869846	0.0053477157	0.011043485	0.0032638567	-0.0045703333	
-0.009226485	-0.024831928	-0.028493734	0.037081093	-0.005786405	0.009088154	-0.020342428	-0.0028487751	0.014680958	0.014009171	
-0.02430667	-0.03467048	0.005096316	0.051270384	0.0032303075	0.0052986983	0.0217077	-0.00091682794	0.035343908	0.0052776732	
-0.012778993	-0.037248313	0.0004209003	0.03699732	-0.027433794	0.007108708	0.025370723	-0.043138947	0.0381699	-0.0022187317	
-0.004064844	-0.034245897	-0.017454287	0.029374914	-0.044315197	-0.0020297384	0.02322799	-0.031510055	0.047437146	0.028339893	
-0.017731447	-0.036580216	-0.008987177	0.021323485	-0.030430019	0.010927598	0.03614711	-0.058501843	0.034986958	0.035890024	
-0.009891662	-0.025858302	0.008684562	0.057009038	-0.042859662	0.0020101226	0.051057316	-0.04894068	0.022794226	0.0316562	
-0.01085435	-0.000100435806	-0.014490843	0.022119127	-0.05560893	0.016095651	0.027575599	-0.06416455	0.038793582	0.045379527	
-0.0066820965	-0.014913499	0.0051327343	0.019784313	-0.047841456	0.046840623	0.00014519495	-0.06387647	0.03651919	0.043479003	
-0.0079669915	-0.0135091785	0.017106064	-0.008281802	-0.03331872	0.019119374	-0.010262698	-0.07052804	0.036911324	0.023972169	
-0.010059918	-0.008390864	-0.003268456	-0.009011318	-0.01751887	0.027478803	-0.0039592925	-0.056925908	0.030251201	-0.0016630595	
-0.0011111464	-0.013439649	-0.004871375	-0.014407383	-0.028376123	0.04644606	-0.01357686	-0.039354376	0.033846527	-0.0015781345	
0.008047386	-0.017288523	0.0021008202	-0.031103281	-0.011813707	0.04109308	-0.0041716974	-0.016679559	0.033900324	0.0029319683	
-0.007109611	-0.016845811	0.0037201822	-0.0031851819	-0.016544841	0.044641096	-0.009875595	-0.031019075	0.022198604	0.0032551885	
-0.009859282	-0.019628715	0.00108947	-0.028063582	-0.013248208	0.036794893	-0.00072137	-0.024026781	0.016426506	0.0016059818	
0.0037792905	0.009264643	-0.007533619	-0.014393909	-0.00086509733	0.036494907	0.00650113	-0.018108813	-0.0024683564	0.0010567312	
0.01615798	0.0034818286	-0.001107289	-0.011566086	-0.015116026	0.0074581704	0.01346106	0.0030124465	0.007508698	-0.0024831987	
0.000596454	0.0014166638	0.01743552	-0.0049743573	-0.0010106481	0.00017900056	-0.009094385	-0.00036696036	-0.003673954	-0.0049545965	
-0.00479862	-0.0039738044	-0.0020399764	0.00013320292	0.0048612645	0.012694313	0.00038102074	0.011229991	-0.010853025	0.0014531324	
-0.0010207756	0.002835764	-0.019301832	-0.011036321	0.005284051	-0.022290342	-0.002658494	0.00731616	-0.0143824145	0.0018992054	
-0.016526524	0.005660328	0.019850371	-0.003073776	-0.0013173815	-0.006863151	0.007916521	0.006867145	0.016478159	-0.008773697	
0.012241633	0.023286847	0.010087355	0.010413406	-0.014851701	0.0031974334	-0.009659454	-0.015584554	0.010237073	-0.0006981327	
-0.0055233175	-0.00373001	-0.009104375	-0.017859774	-0.011532735	-0.008074675	-0.0006688961	0.0003179579	0.017567946	-0.0039394647	
0.010385354	0.0028315387	-0.009319854	-0.011742853	-0.0061922767	0.0052475506	-0.0044991956	0.004640108	0.00067014515	-0.0031916194	
-0.0031844173	0.0005408934	-0.0048454483	-0.0011668905	0.009603392	0.005342295	-0.0002512183	0.012956512	-0.0027943896	0.01141118	
-0.00958259	-0.0060995733	-0.018283444	0.018374326	0.008575922	-0.0093005495	0.0056151943	0.002335073	0.0070963893	-0.0021474264	
-0.019648215	-0.007874592	-0.0036720568	0.01579533	0.022087045	-0.010777365	-0.0019677123	0.011427483	0.014089468	-0.012193316	
-0.012174759	-0.030572042	-0.0127377305	0.011751878	0.009351319	-0.012636905	-0.012872612	0.018145297	-0.000750199	0.013815386	
-0.005448585	-0.01210482	-0.010165828	0.030020172	0.009104216	-0.0020159916	-0.008320738	0.010367023	-0.01581323	0.011114247	
-0.00089988386	-0.027244866	-0.006723228	0.024588794	-0.012492809	0.0012111192	-0.0045770705	0.02626203	0.025002362	0.023676744	
0.0003886684	-0.029852545	-0.0076347585	-0.0010954009	-0.021431636	0.007583186	-0.01003686	0.0032775644	0.00035350583	0.025358187	
-0.015080515	-0.041647345	-0.017973697	0.012194797	-0.034463562	0.013365277	-0.00439662	-0.0010706843	0.02153947	0.063188575	
0.0074040503	-0.041529592	-0.017845474	0.00354872	-0.03238566	0.007970509	-0.014074753	0.005010349	0.0023815609	0.060230806	
0.00881057	-0.03900565	-0.024507469	0.009916139	-0.051593736	0.005905433	-0.0041057393	-0.0020623428	0.027747983	0.08545221	
-0.012668534	-0.008485399	-0.019691542	0.016878124	-0.06243885	0.021986369	-0.0063596102	-0.0016749775	-0.021865418	0.098325826	
0.0057506794	0.013935305	-0.031258438	0.025010364	-0.04912408	0.031972103	-0.026031543	-0.013719534	0.009442333	0.07297903	
0.0031916688	-0.008829207	-0.03545101	0.020912115	-0.05252237	0.012678274	-0.020917844	-0.0063200966	-0.011991095	0.08179397	
0.01601094	-0.016051956	-0.012876576	0.008658769	-0.02689601	0.018851897	-0.06668397	-0.01192247	0.01222948	0.05598296	
-0.0063782036	-0.01306247	0.0013008256	-0.02178975	-0.02158391	0.02483554	-0.07677766	-0.018620992	0.010142637	0.047785953	
0.0049273693	-0.014000884	0.022156512	-0.029804073	-0.007911683	0.051070895	-0.055404995	-0.0006566858	0.022290148	0.025015399	
0.01385683	-0.010446929	-0.0010839105	-0.015975313	-0.007389314	0.049200006	-0.031524878	0.0017106758	0.029296054	0.040741574	
0.011674361	-0.006020046	0.00021447544	-0.013526093	-0.008816991	0.03787761	-0.006008477	-0.024571633	0.023334274	0.0034167292	
0.011532058	-0.006257893	-0.012225194	-0.011545632	-0.013030378	0.03966035	-0.014334554	-0.012570871	0.008903895	0.01689321	
6.3042906e-05	-0.0067248237	0.0117072305	-0.00955885	-0.0007402805	0.028776051	-0.013074352	-0.020727018	0.011213741	-0.0035159583	
-0.0027992139	0.0028187414	0.004653878	-0.010675583	-0.025072476	0.025409348	-0.00038827746	0.0034254794	0.016486496	-0.013979294	
0.003214273	0.015466217	-0.0015500967	-0.004007157	-0.0065642633	0.0070324386	-0.004123119	0.016223969	-0.0028255396	-0.0010224516	
0.004420414	-0.0051710964	-0.006728543	0.0036918705	-0.02243041	-0.0070948834	0.00025559496	-0.012396771	-0.00054758484	0.017363733	
-0.0016351101	0.0053929817	-0.0030451997	0.0061466275	0.0026724478	0.017546305	0.005641533	-0.017522013	0.0015852088	-6.13735e-05	
-0.005718851	0.0036254595	-0.0051293373	0.0065086195	0.005113484	0.015200841	-0.0035738754	0.009263479	-0.0010331325	-0.009397328	
0.0015137944	0.0047468073	-0.0112283025	-0.01761689	0.003481589	0.0038777264	-0.00044471916	-0.0033233538	-0.007028529	-0.021543793	
-0.011253657	-0.0032797165	0.013940598	0.011178059	0.013861961	-0.0017377285	-0.019420216	0.008084066	-0.0007242601	-0.001435205	
-0.012513959	-0.0017506359	-0.0034878228	-0.005368689	0.01716979	-0.008407266	0.0014914721	-0.0010268557	-0.0039488375	0.011678979	
-0.024761122	0.008536998	-0.025367862	0.0043657287	-0.0029432888	-0.00065944635	-0.0071965004	0.00040786757	0.00058560283	0.007088526	
0.009990986	-0.007943662	-0.0024167122	0.01996189	-0.0026883385	0.011260366	0.02367891	0.004658592	-0.01691329	-0.02733736	
-0.022432594	-0.014846268	-0.023262808	0.022594837	-0.0048276847	-0.01311095	-0.02108765	0.030478835	0.00861053	0.0037537464	
-0.00075735647	-0.0042419974	-0.02638604	0.020159151	-0.0007037139	-0.019917458	-0.022742804	0.017160986	0.013531388	-0.009658896	
-0.010080945	-0.021018464	-0.004997722	0.0031725653	-0.0014889889	-0.003904136	-0.026144814	0.021747032	-0.0037798556	0.01764777	
-0.0036431865	-0.029091967	-0.013345846	-0.026735421	-0.012398142	0.020006198	-0.036872234	0.033005364	0.016448084	0.027192874	
0.03247604	-0.037379775	-0.007380039	-0.021321075	-0.0175731	-0.00093756	-0.023938112	0.052311152	0.006900208	0.052054383	
0.021614159	-0.05132039	-0.010827875	-0.01325306	-0.0150701525	0.0031317612	-0.0008239963	0.04422824	-0.011194954	0.08536079	
0.010191816	-0.030012583	-0.037343305	-0.021275977	-0.022706363	-0.0012530372	-0.02146117	0.047732025	-0.0064626196	0.091700114	
0.014548024	-0.017503956	-0.024961289	-0.0026477478	-0.042376332	-0.0033786902	-0.021479927	0.048664123	-0.012464163	0.08455851	
-0.0129934065	0.021314519	-0.04362475	-0.008889437	-0.06028658	0.0036627685	-0.045298703	0.056849737	-0.020440446	0.09019385	
-0.009191986	0.016475886	-0.043056224	0.022870874	-0.047922216	-0.0073858863	-0.05932506	0.058129784	-0.027653925	0.07021352	
-0.020358197	0.03074576	-0.022797208	0.007596395	-0.02505305	0.0181915	-0.0805949	0.06909072	-0.038710933	0.08753167	
-0.0126190735	-0.015462741	-0.008557177	-0.002953321	-0.0066994973	0.026601885	-0.06401888	0.061330184	-0.006183788	0.065606855	
-0.0077004824	-0.032471206	0.010288079	0.018098794	0.013270663	0.013921256	-0.07498431	0.038480982	-0.0055541936	0.05065584	
0.018206354	-0.027158584	-0.006076448	-0.029693292	0.020880561	0.017158052	-0.08405834	0.017547648	0.016561083	0.049832616	
0.0042340173	-0.008014645	0.016779587	-0.029468972	0.0057650306	0.016164202	-0.06896389	0.016647939	0.024790514	0.031640247	
0.020831529	-0.014881655	-0.001753851	0.00642725	-0.0032493083	0.04494061	-0.03698233	-0.014209076	0.03792132	0.0039061601	
0.011845452	-0.0053028534	0.0019183088	-0.010483314	-0.014844999	0.027300615	-0.020946268	-0.022047862	0.010529949	-0.004168638	
-0.00071400515	-0.010311139	-0.002220503	0.009921196	-0.008039468	0.0081036305	-0.007539775	-0.024499357	0.0064761303	-0.011866099	
-0.01848263	0.008038513	0.00454422	0.002185335	-0.0017517362	0.011184365	0.0039215367	-0.0076789265	0.019732682	0.014427234	
-0.0055448115	-0.013248896	0.008404221	-0.0059119076	-0.004056486	0.005539551	0.0029633804	0.006045131	0.011689671	0.015448671	
0.021046678	-0.008757078	-0.011541953	-0.0097427415	-0.000589411	0.017182967	0.011532435	-0.022148073	-0.0041915136	-0.0047278474	
-0.006144946	0.0031430658	-0.025181595	-0.01741605	-0.006575429	0.013840693	-0.0047467705	0.0058055334	0.014115529	0.0070021856	
0.0054450086	-0.010965234	-0.0020520657	-0.008634185	0.0020436589	0.012539326	-0.00455267	-0.021229707	0.0068362863	0.009295966	
-0.012381243	-0.006762776	-0.0085098855	0.002226737	0.008492794	0.007836139	-0.013437956	0.017124398	-0.014443056	-0.0029036163	
0.00014499149	-0.009025829	-0.0014337897	-0.011722608	-0.0051915552	0.0013832764	-0.009525902	-0.014975799	-0.014076164	-0.0019758693	
-0.0065923	0.012461124	0.0047199996	0.018960107	-0.012090132	-0.008648463	0.02589724	0.008871342	0.016599752	-0.020310553	
0.008211362	-0.020563683	-0.0032806096	0.0038234463	0.015539713	0.0060800053	-0.008524366	0.0013313906	-0.0024331484	0.0016471561	
0.00517325	0.001214711	0.015519678	0.005386755	-0.00989468	-0.010282397	-0.0031160899	0.022866137	0.0034928522	0.0021132198	
-0.018369626	-0.019123064	-0.0068786377	0.010306575	0.012499636	0.001402376	-0.012322798	0.031006606	0.0061845994	0.005036395	
0.009645496	-0.0069944975	-0.0020140053	-0.013303061	-0.004498454	-0.0016182351	-0.035938315	0.04193288	-0.004685347	0.027784435	
0.023686659	-0.02873816	-0.0055732154	-0.022875413	-0.009764522	0.016519288	-0.037495635	0.0467422	0.004460622	0.053173773	
0.031860914	-0.02971459	-0.013630037	-0.01983295	-0.013918264	0.0018353247	-0.022583077	0.05880841	0.0028599203	0.054344047	
0.018760959	-0.029077873	0.0059382585	-0.0556799	-0.020096958	-0.014075211	-0.028702777	0.059696876	0.009975547	0.087288216	
0.008817059	-0.037220314	0.001106597	-0.039453216	-0.021968221	0.009138866	-0.062080845	0.056242544	-0.016055964	0.08938534	
0.035451733	-0.016944109	-0.026503263	-0.04765139	-0.026759962	-9.214872e-05	-0.007305364	0.04717422	-0.014369186	0.07457623	
-0.0024137879	0.019991694	-0.029000638	-0.018839063	-0.029821316	0.0028465367	-0.0034084804	0.06800761	-0.013479375	0.060198676	
-0.0041083307	0.011845818	-0.017526004	-0.0016358144	-0.053176064	0.008640661	-0.028296283	0.079577334	-0.022765893	0.058462784	
-0.014436163	0.04700846	-0.024901096	0.008673991	-0.032019265	0.006267321	-0.06647596	0.06452755	-0.017067144	0.056580335	
-0.022574665	0.027722131	-0.024184786	-0.010362823	-0.035102803	0.0024769194	-0.08484874	0.06245053	-0.023232488	0.039188124	
-0.011139133	-0.015232459	-0.009091405	0.0023775185	0.016584177	-0.008690681	-0.1079897	0.09712565	-0.03948856	0.08379085	
-0.008166454	-0.022386177	0.00012465377	-0.011579259	0.006855208	-0.0050124363	-0.10725693	0.065229	0.007944332	0.066558056	
0.029911736	-0.02279278	0.0020197562	-0.03124632	0.006782175	0.0090345815	-0.09155401	0.040777408	0.019758154	0.023215268	
0.043170106	-0.019751342	-0.009695383	-0.0126894675	0.009404504	0.033282336	-0.045756552	0.0044500954	0.03082355	0.025259182	
0.031604867	-0.026201474	-0.007848844	-0.01906089	-0.014814659	0.016954875	-0.05609244	-0.033543643	0.028910646	-0.00044570497	
0.01664052	0.00074390805	0.003989545	-0.012669407	-0.007846428	0.015439986	-0.014854766	0.005849013	0.022663927	-0.008557249	
0.0153351985	-0.017706884	-0.00878515	-0.014983421	-0.018124007	0.023096958	-0.01504345	-0.023410162	0.0056979014	0.003867139	
0.0005714265	-0.010968461	0.00014833815	-0.0014854552	-0.008856691	0.030601133	-0.0029249638	-0.01002429	0.019393587	0.0028299175	
-0.010580913	-0.0126072075	0.019077357	-0.008401524	-0.0253044	-0.00097529526	-0.015880082	0.010191827	0.0058133453	-0.0017932784	
-0.005346232	0.0047555896	-0.00425097	0.01172585	-0.006853768	0.016604874	0.005926638	0.009024181	-0.012381376	0.017402627	
0.029853841	0.0039896	0.00497891	0.0023702148	0.005878743	0.0066192644	-0.020303227	0.0055763074	0.010198404	0.0026562868	
-0.016470555	-0.009868142	-0.0131376805	0.0005279267	0.010726217	-0.014326933	0.0026427784	-0.0044350405	0.003434462	-0.009130446	
0.016360376	-0.023849959	0.009896187	0.00899732	0.0026864072	0.0038600578	-0.011420288	0.008037224	-0.015700355	0.0028410738	
-0.012410707	-0.017318362	0.008257115	0.014114273	0.0017522295	-0.005146725	0.005630514	-0.00024562047	-0.015142135	-0.0104935635	
0.0027111417	0.022114795	0.009725211	-0.0031603628	-0.00049772026	-0.014930008	0.0017441924	0.012757488	-0.003311397	0.0012850158	
-0.009161658	0.014173387	0.002747775	0.012105506	-0.018108146	0.0001916986	0.010109854	0.036499076	0.003654787	0.014179206	
-0.021440405	-0.0041034245	0.0029170294	-0.0065913876	0.008896275	-0.0020443236	-0.01089482	0.035028037	0.00041319407	0.011482772	
0.010226768	-0.0014350686	-0.009750645	-0.012602337	-0.0024421844	0.00845923	-0.033213068	0.024517354	-0.017664885	0.008389465	
-0.0015388451	-0.040076867	0.011376478	-0.014782831	0.0077040396	-0.014647598	-0.024697691	0.03865347	0.00027346556	0.028331544	
0.00038646907	-0.02063079	0.0031019046	-0.010985716	0.0021363916	0.0069008945	-0.022343908	0.036973726	-0.0041665654	0.04006508	
0.03412338	-0.018810341	-0.024310801	-0.037567668	-0.0052219317	0.0020221772	-0.02814745	0.018824937	0.0003340681	0.06649468	
0.0014418819	-0.022213027	-0.0068604522	-0.053172626	-0.0043629617	-0.00748857	-0.010643467	0.027325725	-0.010921474	0.07764422	
-0.011505824	-0.03094978	-0.018116754	-0.054594874	-0.011670503	0.019819437	-0.00986982	0.03672442	0.014063603	0.04695148	
0.008037567	-0.019289024	-0.021962052	-0.02696501	-0.025240766	-0.008297148	0.005528738	0.028687302	0.007366332	0.03602479	
-0.012834175	0.018299317	-0.04432284	0.0041164034	-0.049746715	0.003321979	-0.013729526	0.043867998	0.015932778	0.025312256	
-0.021980014	0.034708627	-0.044710983	0.033041526	-0.044700935	0.00029591387	-0.027551942	0.03577974	9.235725e-05	0.0020725643	
-0.03403678	0.060565423	-0.03553393	0.00080646365	-0.016517207	-0.017326204	-0.034694966	0.026858304	-0.0056200814	0.006190082	
-0.04471269	0.032307245	-0.033065934	-0.0006635608	0.0076591223	0.004694606	-0.09972805	0.05519028	-0.00845525	0.050074883	
-0.013161049	-0.011722877	-0.023868471	0.008236316	0.034600433	-0.00634733	-0.09469154	0.07020448	-0.017647529	0.059478775	
0.0018646067	-0.0441657	-0.008382693	-0.022771534	0.039419513	-0.011106397	-0.09919377	0.062062543	-0.0026496924	0.07785281	
0.010359396	-0.038852658	-0.0024660155	-0.01635481	0.022241252	-0.021205083	-0.07520183	0.020595443	0.02913743	0.054158315	
0.022252833	-0.035331458	0.0034584634	-0.003532882	-0.0019698099	-0.0115439445	-0.05419117	0.008914444	0.016792169	0.03189944	
0.025535226	-0.011282384	0.006309228	-0.01416065	-0.0047182636	-0.013541231	-0.035178896	0.017554179	0.018144643	0.013092027	
0.018770244	-0.03211816	-0.01746516	-0.0075098355	-0.020382624	0.015131626	-0.022884391	-0.0037922347	0.03330619	0.012542872	
0.021305954	0.009774518	0.01009584	0.0015546615	-0.004285467	0.017857043	0.008379897	-0.0058989916	-0.005457809	0.010171386	
-0.01901697	0.0035175036	-0.007008177	-0.014790942	-0.002303358	0.012285099	0.0035557628	0.0033334836	0.00068772264	0.004636261	
0.0069041797	-0.0004248605	-0.0006878843	-0.00077449257	0.0089644715	0.009639277	-0.007158202	0.008566301	0.006650584	-0.000267518	
-0.0074181724	-0.010363791	0.008756727	0.0042398116	-0.0010524994	-0.003668752	0.003971758	-0.00462739	-0.0027528543	0.00598305	
0.018654516	-0.004181468	0.0041593453	-0.01965141	0.011600583	0.0057866704	0.0132464385	0.023276262	0.0009680998	-0.0008080552	
0.0027116148	0.026924174	-0.0032256674	0.01881444	-0.0076087937	-0.0071548386	0.0061434587	-0.006697386	-0.01119636	0.00020248134	
-0.01336776	-0.010075718	-0.008335825	-0.00054714934	0.00049678533	-0.008378263	0.006972083	-0.0014422172	-0.0007155824	-0.006672458	
-0.006993174	0.0033803775	0.0065281903	0.008119825	0.021487247	0.0023715307	0.010412612	0.019964725	-0.004251228	0.0016642666	
0.0026455869	0.00261539	-0.0021045369	-0.009876633	0.016387	0.004322134	9.564344e-05	0.010163184	0.0061815856	-0.005856149	
0.0046101054	0.008606046	0.0068016434	-0.02044168	-0.01790326	-0.0014601366	-0.018410498	0.03424245	0.006070502	0.0078473035	
-0.0011115904	0.0058239256	0.0160128	-0.004831133	0.025197888	-0.009385625	-0.0050115855	0.023138812	-0.002708687	0.017794093	
-0.0051794257	-0.0054125725	0.005764483	-0.014977794	0.01212473	-0.015058518	-0.010660417	0.022941962	0.00037067098	0.022946464	
0.009171175	-0.0022612002	-0.009842577	-0.020841442	0.0013276964	-0.024696238	-0.006688152	0.03442482	-0.0164389	0.034188103	
0.046291076	0.004870006	-0.023048788	-0.04290588	-0.009464208	-0.0126711	-0.020198433	0.014964912	-0.01415987	0.05038708	
0.015357632	-0.040261135	-0.015945515	-0.054500215	0.007990366	0.0033282274	-0.007927058	0.0034742034	-0.02515457	0.09132372	
0.0116671445	-0.01951092	-0.033607922	-0.042761568	-0.0043219505	0.0037279509	0.024662724	0.033138845	0.0034312012	0.06241153	
-0.006807262	-0.031100806	-0.031743616	-0.053325504	-0.012863779	0.019988542	0.02989218	0.0042113517	0.012279715	0.053380303	
0.00042069925	-0.022472482	-0.042522546	-0.018764263	-0.01812999	0.021667054	0.057134178	-0.02491209	0.048121184	0.01976379	
0.0011284825	0.011767044	-0.07285543	0.009215657	-0.015139384	-0.00059031387	0.024595097	-0.011885204	0.020311458	-0.010473644	
-0.03822885	0.060831815	-0.05401501	0.0452518	-0.04453172	0.0005898049	0.004482441	-0.007425453	0.0005704276	0.016907461	
-0.06436648	0.087507784	-0.043015577	0.036239993	-0.0038593446	0.0013825328	-0.02597661	-0.00068743865	0.007974756	0.028427232	
-0.033857055	0.048771508	-0.0064078085	0.014311343	0.009471648	0.005147084	-0.069583915	0.03181757	0.008221656	0.06463183	
-0.03735717	-0.0097938925	-0.01614146	-0.017775321	0.033532593	-0.0078107063	-0.07808679	0.060454987	0.012666946	0.09337358	
-0.022713946	-0.030598767	0.016187007	-0.009092528	0.023038758	-0.021350686	-0.06690475	0.03476419	0.021454995	0.067223474	
-0.0115749445	-0.022476867	-0.0024568387	-0.0006835649	0.011565865	-0.04506233	-0.048105363	0.04578488	0.015484159	0.06769739	
0.015183334	-0.031115076	-0.023552721	-0.026424024	0.0044214614	-0.012767961	-0.019015547	0.019899309	0.01671939	0.027856134	
0.02361271	-0.026451046	0.006047773	-0.0020716502	-0.008826577	-0.01643375	-0.01760241	0.004960276	0.010060637	0.001776898	
0.030592224	0.0037118066	0.0031620339	-0.006750852	-0.0051641795	-0.0064573376	0.0010866576	-0.014120026	0.0006108289	0.0022590682	
0.017970117	0.00569848	-0.0027910424	-0.0076216725	-0.0046700644	-4.3107262e-05	-0.001425885	-0.004878291	0.005057098	-0.004937591	
-0.0009744094	-0.008135146	0.013994873	0.0007341067	-0.009214416	-0.0007329436	0.017524047	0.011125509	0.010737628	-0.0037031265	
0.017592002	0.019574132	0.0065505384	0.0042685913	-0.003426166	-0.0027570226	0.020467672	-0.009423786	0.003957838	-0.014164457	
-0.016392266	-0.0057811188	-0.0010777196	0.015993025	-0.020668682	-0.00045507116	0.022056922	-0.007556609	0.006505754	0.016644055	
-0.017097123	-0.0055980147	0.011595495	0.00090737623	0.0056832274	-0.015989551	-0.0031145362	0.0030529995	0.015990615	-0.01563031	
-0.010553612	-0.011482007	0.001394886	-1.1084965e-05	-0.0056158854	0.002224707	-0.013802985	-0.021647973	0.009774989	-0.004631893	
0.0016480241	-0.0051566167	-0.0061765746	0.00934247	-0.0042959466	-0.01864804	-0.016855098	-0.002287706	0.0027230643	-0.010000783	
0.021978157	0.0027266974	0.009850098	-0.009941085	-0.009420769	-0.010753628	0.010594743	-0.016516259	0.00963451	-0.01163254	
-0.003413671	-0.008113509	0.0066203116	-0.0020269577	0.00083268946	0.016845075	-0.021583434	-0.013023141	-0.0047510024	0.017140776	
-0.019459397	0.012487324	-0.0059363903	0.0013279053	0.0014779549	0.01019782	0.004898706	0.007498098	-0.020809075	0.0047145113	
-0.0041115386	0.01050117	-0.01679862	-0.0043264315	-0.0014176572	0.004046159	0.0023366038	0.020571582	-0.019517187	0.018550333	
-0.0023173913	-0.00790728	-0.00082623604	-0.035535663	0.0059266854	0.006086344	-0.00018611352	0.02242879	-0.01380481	0.044215396	
0.008078063	-0.028094653	-0.016408438	-0.03720817	0.01778515	-0.005250676	-0.030627461	0.015796866	-0.029982515	0.039208155	
0.021957738	-0.040390622	-0.018421886	-0.039368916	0.039054736	0.0011589255	-0.0067777345	0.013028627	-0.009306984	0.05086539	
0.023208281	-0.007117814	-0.026089596	-0.035190348	0.0049982113	0.011681545	0.0038950117	-0.004658492	-0.0055947765	0.08081963	
0.031676993	-0.017007219	-0.047507055	-0.050387327	0.0025176897	0.034458768	0.0256985	-0.014547755	-0.00919063	0.06396894	
0.002923148	-0.025680304	-0.05358717	-0.017401041	-0.039512858	0.0070582014	0.035896633	-0.041372526	0.023145897	0.03455472	
-0.007581135	-0.013379403	-0.051026165	-0.00035952244	-0.044614837	0.018199578	0.0563616	-0.04904718	0.03550861	0.015175684	
-0.026233384	0.025686944	-0.05610792	0.03329228	-0.022065328	0.03697978	0.040715262	-0.03657417	0.033722267	0.011257923	
-0.08048217	0.082545355	-0.04886483	0.045933872	-0.015494128	0.0031164663	0.001162221	-0.04976616	0.033977825	0.027050793	
-0.064175166	0.08077428	-0.06900503	0.018358327	-0.013652533	0.00065244833	-0.010887778	-0.025376284	-0.004712195	0.054828387	
-0.080700755	0.01186944	-0.030045802	0.010908338	0.015412255	-0.0011930456	-0.04787685	0.0013779184	0.0033086292	0.06619301	
-0.044703797	-0.050895777	-0.0103241075	-0.016138345	0.0374671	-0.024377305	-0.034962516	0.0481925	0.010701884	0.11557166	
-0.031088606	-0.05005059	-0.023086796	-0.0063996804	0.03453577	-0.043682847	-0.053402126	0.035505623	0.00031425193	0.08343187	
0.0020109024	-0.036578115	0.0024047839	-0.016957005	0.021573085	-0.016404038	-0.034900032	0.04199815	0.0007759514	0.035818294	
0.00958125	-0.017122438	-0.0076355017	0.0024016495	0.0059354557	-0.018338164	0.012433919	0.03811996	0.0061645485	0.035979982	
0.04141209	-0.0031723883	-0.009550526	-0.0009090365	-0.016810533	-0.03472879	0.015590415	0.016538575	0.004977488	-0.00631013	
0.022635099	-0.013566911	-0.009391948	-0.011440154	-0.004048402	-0.008803905	0.021557886	0.0029143097	0.0011545023	0.011232057	
0.030850675	-0.019121248	-0.037273373	0.012230288	-0.021946235	-0.016815042	0.009345906	-0.0025491808	0.0030057079	-0.0011368187	
0.028170226	0.007846234	-0.017253371	0.0011071952	-7.318647e-05	0.015534219	0.027076412	0.01749263	0.009679775	0.0076799504	
-0.01119355	0.0021180308	0.00637161	-0.008976442	-0.0071928017	0.008699481	0.008629312	0.012587729	-0.00017989607	-0.010481697	
-0.008920893	0.008729569	0.0146774985	0.008028454	-0.02383856	-0.013949429	0.0039781523	0.01950477	0.0054417234	-0.0060205855	
-0.0069251484	0.021774288	-0.0095080035	-0.0016112839	0.017180558	0.004760273	-0.010033517	0.0065569873	-0.003809456	0.0045558983	
-0.01738213	0.009126857	-0.008065363	0.009038193	0.0046927994	-0.008525963	0.0009936532	-0.0014731358	-0.0023899986	-0.0074965106	
-0.016246263	-0.0006322858	-0.0060465164	-0.007686619	-0.009001789	-0.014479956	-0.01436202	0.0033255285	-0.003092844	0.0012689279	
0.0015744575	0.012057419	0.0009923553	0.0017945693	0.0058150617	-0.007716463	0.0059493533	0.0041522365	-0.021216707	0.0014231867	
-0.0028332812	-0.0066801556	-0.013229378	0.0012265284	0.017279876	-0.0018548564	0.006463631	0.008978304	0.0038276222	-0.0065056994	
-0.0106364405	-0.0002180845	0.010739027	0.007462601	0.0018632093	0.00018878587	-0.022992037	0.013821957	-0.01724454	0.0075380825	
-0.011817876	-0.0011037751	-0.0084302295	-0.0057143215	0.0015815037	-0.00534774	-0.01998403	0.01505426	0.013208893	-0.018665876	
0.012108859	-0.0129706	0.004122408	-0.023873555	-0.0027345507	-0.014845878	0.0031435355	0.020070456	-0.017699733	0.025525296	
0.0059058974	-0.0040285895	-0.012236838	-0.017645821	0.018141495	0.0115702255	-0.009597542	0.017634824	-0.018985702	0.036398496	
0.027505385	-0.0014807777	-0.05509719	-0.05904383	0.014339187	0.018155146	0.010245723	0.005101783	-0.019447453	0.05763412	
0.03355875	-0.021822697	-0.042629894	-0.040359728	-0.00050110254	0.012481706	0.04400302	-0.029116932	-0.023108775	0.06736421	
0.027159708	-0.02730274	-0.049499255	-0.033367395	-0.011567812	0.029144274	0.05050288	-0.019043861	-0.017242827	0.06227587	
0.014736102	-0.03167429	-0.06751443	0.0056822477	-0.04589089	0.005651094	0.07547963	-0.04221801	0.015757488	0.030116303	
-0.008408655	-0.016314877	-0.066581614	0.038988397	-0.021234654	0.029525902	0.05617183	-0.100997396	0.043689013	0.037251763	
-0.04984535	0.05676489	-0.04981223	0.032301553	-0.05348635	0.028407915	0.052129168	-0.08302074	0.03063575	0.06391373	
-0.08387891	0.08350514	-0.048156682	0.039470676	-0.013407451	0.038913492	0.014561737	-0.065365	0.005334949	0.03973777	
-0.074057564	0.055400033	-0.04087749	0.022967655	-0.0061106957	0.0064727482	0.012898981	-0.047602057	0.01983651	0.07216812	
-0.06882548	-0.00052867236	-0.0421717	-0.0052902917	0.026057644	0.0043983604	-0.010331488	-0.0014715015	0.009353476	0.09433519	
-0.04060665	-0.053046633	-0.036327623	-0.017343095	0.01371303	-0.015298093	-0.025431136	0.033256933	-0.038047127	0.109435685	
-0.037910193	-0.049812946	-0.010846155	-0.027008986	0.034692593	-0.038976494	-0.028508196	0.07149934	-0.0061090174	0.074033216	
-0.028090324	-0.017555073	-0.004378682	-0.019083478	0.008664256	-0.037399545	0.009953402	0.045328923	-0.015901169	0.046030056	
0.011587379	-0.014235084	-0.005407172	-0.02401198	0.007648256	-0.025119908	0.024849016	0.01535107	0.000130825	0.016435247	
0.04209969	-0.027600465	-0.003608229	-0.013321432	0.01923153	-0.025288919	0.02901202	0.00019140891	-0.0023030606	0.018594697	
0.049131937	-0.0052783755	-0.013370036	-0.005289683	-0.011141587	-0.025327388	0.025248468	0.0018543153	-0.010251231	-0.009098065	
0.022330932	0.008383297	-0.010535715	-0.0070415097	-0.0069855885	-0.013495037	0.029691642	0.005774545	0.0072628516	0.0058606183	
0.012564859	-0.009739033	-0.010424044	-0.010834872	-0.016651392	-0.00986507	0.011696443	-0.007220319	-0.019519135	-0.006941691	
0.009477411	0.0036884197	0.0041151037	0.019289475	-0.011410717	0.000174488	0.015606313	-0.010919219	0.002595641	0.0058193025	
0.0052340687	-0.0015511477	0.021126436	0.006485522	-0.0119326105	0.0021660668	0.021381157	0.01051242	-0.003424596	-0.012838455	
0.0067196903	-0.011925115	-0.006585363	-0.004536379	0.0006522327	0.0030218044	-0.0064174104	0.005250838	0.012614913	-0.022123719	
0.031146975	0.016102586	0.014311775	-0.007925269	-0.00038431791	-0.014093573	-0.009051585	0.008951606	0.0075402306	-0.02059149	
-0.004738007	0.015553884	0.0042625912	0.008867996	-0.015841642	-0.0082059605	0.017927943	0.0145597635	-0.011103838	-0.006140084	
0.009842752	-0.0011208089	-0.012516864	-0.009538789	-0.008222781	0.008268284	0.016950807	0.0034891833	-0.0085366545	-0.0061946986	
-0.0027226277	0.0027264177	-0.012023224	-0.005624273	0.010899737	-0.003350664	-0.008312461	0.009264475	0.0100741945	0.013202662	
0.0075378898	0.0012313464	-0.0095758345	0.0053444556	0.0020169884	0.0024130829	-0.014127851	0.0023998825	-0.027797189	0.005572305	
0.011685916	-2.9707498e-06	-0.00011011284	-0.016534861	0.008759937	0.005424765	-0.003760696	0.019175539	-0.003608025	-0.007957122	
0.032820076	-0.012158783	-0.016623504	-0.00860064	0.008268229	-0.0075454633	0.028750299	0.015447186	-0.025263596	0.015716244	
0.022385743	-0.012397444	-0.021827007	-0.033391427	0.010996193	-0.012784693	-0.009914944	0.0026009001	-0.023374764	0.044793375	
0.049614664	-0.009633581	-0.042039976	-0.055519752	0.041852616	-0.021411316	0.027109053	0.0024958733	-0.036397047	0.06283176	
0.025640849	-0.019708537	-0.042707033	-0.049270175	0.026336845	-0.009366704	0.060844813	-0.014175962	-0.022527218	0.060839247	
0.015073357	-0.0143613955	-0.046689633	-0.029189993	-0.0076814126	0.019514095	0.072588	-0.073331065	0.0005711172	0.07441344	
-0.018870562	-0.016452776	-0.027888948	-0.018193409	-0.041096248	0.01860122	0.0784019	-0.07435207	0.023026736	0.050323397	
-0.023987433	0.004429828	-0.022415543	0.01927254	-0.024366388	0.015714357	0.055609975	-0.084343456	0.031627025	0.06494976	
-0.08472727	0.063999906	-0.027584448	0.01782647	-0.02430868	0.019765861	0.03687705	-0.08310753	0.03721438	0.0475152	
-0.07821275	0.09315084	-0.061287425	-0.008862074	-0.049018785	0.027074693	0.03384505	-0.08560112	0.03967616	0.06732097	
-0.06013125	0.031675752	-0.036170274	-0.025633244	0.004828415	-0.008834011	0.012408143	-0.037509385	0.04447129	0.094161026	
-0.042473696	-0.032475073	-0.024147473	-0.033659603	0.0453267	-0.028536858	0.01881507	0.043316666	-0.010868312	0.09562474	
-0.042548437	-0.05911225	-0.023873912	-0.029603763	0.050682735	-0.019756574	-0.033679146	0.04648706	-0.034419153	0.10853481	
-0.028143408	-0.03979133	-0.040671844	-0.025437675	0.021139473	-0.025788974	0.006076083	0.060251642	-0.019209323	0.077596225	
-0.0055879015	-0.027625842	-0.025170842	-0.03393096	0.021153176	-0.0019590447	0.015633374	0.035853244	-0.01346531	0.016932229	
0.0013801672	-0.030407414	0.013068583	-0.009735497	0.016617086	-0.03430903	0.018399883	0.025735728	-0.0007494025	0.019103475	
0.024645314	-0.011816144	-0.011959617	-0.015574278	0.025593955	-0.033147838	0.066241294	-0.003443929	-0.0066809244	-0.0040613725	
0.033158273	-0.0013264379	-0.022975896	-0.0076674935	-0.02191208	-0.018393436	0.036239777	-0.0049314927	-0.021206304	-0.0047544055	
0.017154418	0.0043313615	-0.006789487	-0.0048282878	0.00549449	-0.011501184	0.02067719	-0.025081884	-0.009852287	-0.0077944184	
0.020436361	-0.008836397	-0.0048833773	-0.010739383	-0.005408877	0.0033957637	0.028842714	-0.0021543074	0.001236736	-0.009969613	
-0.02397854	-0.0027417687	0.009538817	-0.018998342	0.0010754555	0.0048404033	-0.008543888	0.0035699054	0.00076865766	-0.0203561	
0.0063564237	-0.015887357	-0.009296457	-0.006835772	-0.0076380516	-0.02244439	-0.0058392864	-0.0011160464	-0.008874575	0.020250684	
-0.012260724	-0.009917314	-0.021069841	0.010268259	0.010165358	0.036613103	-0.0071863215	0.011598785	0.008418006	-0.0070997206	
-0.0043665315	-0.0041982094	-0.017375056	0.012291648	-0.0014092893	0.009226935	0.02248402	-0.0058031105	0.0010157134	-0.0023617852	
-0.013552851	-0.01046691	0.00816246	0.0063793724	0.011540778	0.0020796123	0.013099983	-0.015342254	-0.00466141	-0.0037404688	
0.010023197	-0.010758123	-0.0067681107	-0.008537251	0.004748891	-4.794489e-06	0.014531079	0.0043855035	0.017077893	-0.012138775	
-0.005291458	-0.005885078	0.014921819	0.019106686	0.017483957	-0.002354672	-0.0121684335	-0.0073199775	-0.0021019503	-0.009924819	
0.016395446	-0.01435644	-0.00060763786	-0.00065369654	0.0020639796	-0.005510011	0.009534012	0.004039849	-0.00842337	0.02181086	
0.020074625	-0.009151657	0.0010037498	-0.008212433	0.031714056	0.00076237397	0.006310199	0.026330182	0.020725003	-0.0056699724	
0.0178819	-0.01839478	-0.020297887	-0.026481986	0.032741655	-0.025550388	0.004781491	0.01397355	-0.0130405435	0.022176454	
0.03484373	-0.01415723	-0.011058266	-0.049964193	0.012862118	-0.01777834	0.015019224	-0.0009052754	-0.03525804	0.037071306	
0.02240312	-0.0074267494	-0.021539083	-0.053969514	0.049132746	-0.011986119	0.021114185	-0.012411884	-0.038309626	0.05644207	
0.017728694	-0.035831656	-0.00973235	-0.04398863	0.03305148	-0.02003662	0.062238712	-0.03733465	-0.032223295	0.05946734	
-0.012362437	-0.05286445	-0.007604413	-0.035552647	0.019764766	-0.022824334	0.08891536	-0.07261749	-0.0046892264	0.06676575	
-0.020865047	-0.032461874	-0.017021671	-0.02593451	0.020910982	-0.022452634	0.07464861	-0.08436491	0.005433905	0.08265508	
-0.069143385	-0.013400555	-0.019754112	-0.022646125	0.021887125	-0.0021259938	0.058376744	-0.09166957	0.047133844	0.054452028	
-0.10054636	0.057951353	0.007373332	-0.026469601	0.004736983	0.004890973	0.034647714	-0.09252382	0.051537022	0.045712378	
-0.070921645	0.07527929	0.01619524	-0.033981364	-0.0034637875	-0.006742868	0.029526733	-0.05401665	0.04803404	0.05686663	
-0.08933161	0.0120145045	-0.02682313	-0.048425008	0.01948822	-0.014662821	0.011024615	0.010747453	0.03239819	0.09140733	
-0.06761595	-0.06299736	0.012795338	-0.046505176	0.040343855	-0.009114339	-0.025728388	0.037280254	-0.0047161803	0.1169203	
-0.04591704	-0.05436474	-0.013037752	-0.031272136	0.033801474	-0.017224839	-0.015928904	0.06741002	-0.026402095	0.103009194	
-0.035555035	-0.038985673	-0.027524034	-0.023089232	0.01877524	-0.008460556	-0.0048697926	0.06920674	-0.042653643	0.061722986	
0.008301049	-0.030901978	-0.016777886	-0.029788356	0.017504962	-0.017165063	0.025119243	0.03317796	-0.005731565	0.021116357	
0.035331924	-0.017958105	-0.0285298	-0.010503088	-0.00034736586	-0.024954973	0.03311355	0.024266468	-0.016975269	0.020687114	
0.037113626	-0.0106327925	-0.02004357	-0.010114856	0.005261117	-0.027726535	0.051295787	-0.0042694276	-0.0050149113	-0.01609603	
0.023500167	-0.0121130515	-0.022632482	-0.00351199	0.0047183014	-0.03025993	0.05308622	0.0007709416	-0.002958709	-0.0088444855	
0.019756332	-0.008334862	0.0039503835	-0.0021373518	-0.007203393	-0.028955402	0.01926395	0.004260057	0.008354314	-0.0034554065	
0.0004990145	0.009054403	-0.0013296789	-0.012434782	-0.0101181455	0.007960797	0.012181552	-0.0054877084	-0.024735285	0.010950207	
-0.012881514	0.00537611	-0.0047182287	-0.018290468	-0.010357613	0.007181186	0.017469052	0.001582468	-0.0046457886	-0.002990966	
-0.012669144	-0.008406491	-0.008825463	0.006367027	-0.0019059343	-0.003047334	-0.012562668	0.014809281	-0.020006822	0.008579498	
0.005095852	0.020820055	-0.00037896752	0.0020138065	-0.0015963573	0.02148794	-0.004676101	-0.007180565	-0.011808289	0.0068826415	
-0.0155094145	-0.0114228325	0.010855988	-0.0019027089	3.3519664e-05	0.0029404864	-0.0076716	0.006946082	-0.017596914	-0.001298543	
-0.0012970022	0.0020651117	0.006447696	0.0019686925	-0.009083629	0.00547006	0.00014207797	0.0068598026	0.004251828	-0.011763473	
-0.0027718684	-0.01936467	0.010455199	0.012266821	-0.0045492924	0.008850447	0.00022289017	-0.0020326395	-0.0047168215	0.011083493	
-0.014397963	0.026259681	0.014258958	-0.004336032	0.008503119	-0.004156154	-0.02354235	0.0056126523	0.0023137603	0.0004200813	
0.012396104	-0.012627364	0.0014408169	0.013571507	0.00980452	0.009976428	-0.000950373	0.010848219	0.010010606	0.0022047688	
0.011945415	-0.011284946	0.007687867	-0.011405767	0.005487777	-0.0053098113	0.0043733446	-0.0012765549	0.009239698	-0.0026965053	
0.021088626	-0.02393269	0.021733312	-0.019922093	0.010977691	-0.013023109	0.011527024	0.0145996995	-0.003961973	0.0015674139	
0.04290821	-0.036626786	0.00094901695	-0.035379265	0.020866076	-0.024446882	0.0052133147	0.003920446	-0.00972426	-0.00830171	
0.019859958	-0.037096377	0.017701602	-0.037576396	0.021802448	-0.01784248	0.047740776	-0.018633943	-0.01474142	0.016241943	
0.0039875335	-0.03953892	0.026781352	-0.05147646	0.035203423	-0.033351436	0.068142585	-0.035126243	-0.019852456	0.044793196	
-0.003130325	-0.03488041	0.025137318	-0.0617046	0.05421657	-0.05240644	0.096308276	-0.070002966	0.0016181071	0.07493905	
-0.024957553	-0.020760449	0.03513486	-0.04640974	0.05156061	-0.027741091	0.10131606	-0.068498984	0.04463382	0.051237468	
-0.07032653	0.013053513	0.024192156	-0.05291387	0.041705906	-0.032309897	0.030847777	-0.09650732	0.057713438	0.053406984	
-0.09394369	0.055651166	0.023620283	-0.04709499	0.040802	-0.032733694	0.026260367	-0.05216447	0.061375793	0.059395064	
-0.091043495	0.03729681	0.024556777	-0.059002943	0.037523318	-0.02011044	0.019211091	-0.022432487	0.032831382	0.060791194	
-0.060444266	-0.0063957972	-0.0017999996	-0.03847564	0.03986324	-0.028156482	0.009659879	0.019161342	0.0057797823	0.093497954	
-0.06390571	-0.041685753	0.012992218	-0.046365872	0.05270501	-0.024902208	-0.019943397	0.05731978	-0.036510594	0.11067933	
-0.036646508	-0.050672263	0.005399351	-0.041354395	0.02885849	-0.002734114	-0.014970144	0.06522205	-0.017126262	0.08431512	
-0.008525307	-0.045128867	-0.036397245	-0.029346727	0.024639294	-0.0065432983	0.034211665	0.0469112	-0.009369233	0.04235944	
0.0072469804	-0.030561773	-0.028913831	0.0067588845	0.012824462	-0.013923644	0.03494156	0.020131089	-0.0090172235	-0.009236634	
0.03719714	-0.030921629	-0.032351576	-0.0059382515	0.0010261066	-0.0072878613	0.060366545	0.005021037	-0.020205388	0.010280979	
0.019889958	-0.020973597	-0.007301311	-0.0019966871	0.018029429	-0.019451173	0.037007827	-0.0037025183	-0.019201428	0.009827676	
0.025587635	-0.03153679	-0.011038144	-0.007411782	-0.003913822	-0.020345643	0.036400378	-0.0043484345	-0.017106274	-0.0074697486	
0.01062202	-0.0013931132	-0.0057909484	0.003659723	0.0005821021	-0.023331482	0.03261729	0.019274693	0.0080134785	-0.01086839	
-0.0017129756	-0.01009595	-0.011307363	-0.017193194	0.008267365	-0.0074558035	0.01246012	-0.0064381636	-0.005093371	0.017310847	
-0.010253982	-0.013471817	0.0100919185	0.0037247483	0.006422807	0.008503173	-0.0002369227	0.0119884275	0.011017896	-0.009518808	
0.0018594853	-0.0005014603	0.0006644417	-0.014764407	-0.0052364026	0.007662889	0.007894903	-0.008104752	-0.0010292891	-0.016031405	
0.006350071	-0.0036835119	-0.00582155	0.0107628405	-0.0073531014	0.0032987236	0.010702678	-0.013565609	0.001679183	0.006424145	
-0.0054067452	0.00013782112	0.008444759	0.012157502	0.004780357	-0.008125178	-0.0025619112	0.013952794	-0.0007733632	0.00208084	
0.012263118	-0.015714066	0.004888811	-0.003384435	0.0027495509	-0.00828571	-0.0054739844	0.006258754	0.012901745	-0.012840109	
0.0025053702	-0.001347778	0.002211336	0.021469388	0.01563432	0.009278065	0.00042850306	-0.013343552	-0.0013779734	-0.011254974	
0.007987478	0.003376545	0.0055068987	0.0060646962	0.0110786045	0.0014688907	-0.018640907	0.013242824	-0.012712925	-0.008221185	
-0.018391123	-0.011486352	0.003381493	0.014628369	0.01579276	-0.018044604	-0.0058896383	-0.0065558604	0.013323108	-0.009753037	
0.0053655044	-0.015500502	0.0022830528	-0.005705638	-0.022244243	-0.008035693	0.004208694	-0.0020998376	-0.014355161	0.006915884	
0.017791338	-0.013741707	0.019867113	-0.025568595	0.014784689	0.0014795519	0.027983218	0.011552204	-0.016919589	0.009087143	
0.025869552	-0.039297327	0.018948274	-0.030034857	0.022468321	-0.010528073	0.027382528	0.0032703308	-0.00081856054	0.0026126574	
0.012197938	-0.044495527	0.03001187	-0.03233806	0.031418942	-0.02608144	0.036883943	-0.019642275	-0.0118257785	0.015588768	
-0.01111749	-0.054558877	0.034010667	-0.032323625	0.024140326	-0.0567595	0.07395752	-0.042801823	0.0071099414	0.03746253	
-0.021562396	-0.040675387	0.026671138	-0.03140282	0.034319423	-0.07244324	0.104873456	-0.07263883	0.03728212	0.040290434	
-0.06210106	-0.01526711	0.040976264	-0.06709012	0.0249082	-0.062327404	0.096238576	-0.07393613	0.061323088	0.03304191	
-0.07288255	0.027882688	0.049045004	-0.044639472	0.019974908	-0.046082314	0.045615375	-0.070326075	0.057973213	0.03364334	
-0.07161817	0.03472582	0.025969813	-0.05812967	0.014740765	-0.055935763	0.022548322	-0.022555893	0.033564795	0.036422655	
-0.07455666	0.03490737	0.020476539	-0.050600257	0.018693825	-0.03950789	-0.00038119013	0.017107729	-0.0008723172	0.05923377	
-0.047642007	-0.016757496	0.032847513	-0.0528031	0.024523946	-0.029234402	-0.032450568	0.054892052	-0.028741011	0.081362784	
-0.026984954	-0.024586935	0.016115602	-0.051422864	0.022481145	0.0056251874	-0.013817872	0.057471506	-0.030552529	0.09250867	
-0.020287218	-0.03363518	0.0010308019	-0.034703445	0.014589891	-0.0006460772	0.00067177485	0.028944228	-0.02354643	0.0718248	
-0.008511757	-0.04225561	-0.005897651	-0.009335736	-0.0007400716	0.011844388	0.03062865	0.030716468	-0.004016916	0.026304193	
0.0067455247	-0.020210888	-0.04625006	0.019542353	-0.011356313	-0.025080586	0.06354701	-0.016752925	0.006152984	0.024632998	
0.031323735	-0.024638258	-0.015206175	0.020116055	-0.011914299	-0.021292254	0.061437685	-0.011151137	-0.015475888	-0.007872778	
0.023994867	-0.020854227	-0.042674605	0.0009180387	-0.014387821	-0.0384251	0.042496126	0.015886696	0.014904195	-0.009249493	
0.007288057	0.0015266899	0.0026804595	-0.0010199241	-0.003787342	0.00026093074	0.03649625	-0.0120634725	-0.022397412	-0.01458903	
-0.0077212155	0.0004441267	0.0057980753	0.002779067	-0.0019292058	-0.015756598	0.029397614	-0.009272636	-0.0023946783	-0.017753363	
0.018713398	0.00398715	-0.0035471458	0.0027059508	-0.018505724	-0.006628861	0.006767207	-0.0018156167	-0.005608484	-0.020016711	
0.0031462086	0.004393331	-0.028109407	0.006774149	-0.006912604	-0.020318218	0.00052456226	0.0024755134	-0.011147162	-0.0042063063	
-0.011796477	-0.006647601	0.0071992544	0.011413652	-0.010381272	0.012329821	0.008807508	0.013943958	0.0146731	-0.022180745	
-0.0014020741	-0.0046529025	0.00013537084	0.00028914958	-0.02682548	-0.014540455	0.004427708	0.00031652162	-0.012676309	0.0022398175	
-0.01692399	0.0034265302	-0.013921941	0.011470274	-0.0020885502	-0.005514062	-6.174525e-05	0.00046909606	-0.0067075933	-0.018489357	
-0.0035291004	-0.004914398	0.00033597831	0.009021218	-0.0034575476	-0.0014086342	0.0011994127	-0.01455612	-0.0009301581	-0.009267711	
-0.011508482	0.014692046	-0.0134191	-0.0028443409	-0.013098137	-0.011591694	0.0044488776	0.0071454444	0.0045091864	0.0023541865	
-0.014835836	0.0041693295	0.012272724	0.010041059	-0.0014590839	0.0019742185	0.006395334	0.013760108	-0.0015032775	-0.0012850461	
-0.014787095	-0.0012667303	0.008124856	0.0019636443	-0.004082955	0.008879767	-0.015509076	-0.008243565	0.009462435	-0.009468246	
-0.0025220672	-0.020695966	0.0076107513	0.014033731	0.002056728	0.0073723444	-0.02396177	-0.005869732	-0.01028322	-0.008819196	
0.0054995096	-0.031907387	0.035487603	-0.0071061137	0.0041788043	-0.0033647558	0.0052221026	-0.0027773508	-0.010243266	0.0050051743	
0.033863015	-0.043832377	0.025318893	-0.02349369	-0.02069426	-0.007927616	0.025706477	-0.03715704	0.016252793	0.0012805025	
0.028679468	-0.039158862	0.031966735	-0.024591725	-0.00810624	-0.014899588	0.059739582	-0.03076514	0.006611209	0.012227359	
0.0017462304	-0.024553552	0.0015098297	-0.004769697	-0.010733538	-0.06182862	0.07781441	-0.041098054	0.024472617	-0.0053541157	
-0.026911994	-0.043287672	0.035804644	-0.0063130083	0.022740036	-0.075244196	0.10195944	-0.05604702	0.052763093	-0.010580916	
-0.046589624	-0.0039080055	0.04198077	-0.044480555	-0.0076548625	-0.06457701	0.1084197	-0.07154229	0.058797732	0.010839505	
-0.0580595	0.034204636	0.046309847	-0.033155788	-0.01560581	-0.054714948	0.047682527	-0.04706094	0.056442797	0.0143191675	
-0.067280404	0.03107784	0.042943098	-0.045865085	0.005237897	-0.05171983	0.01671328	0.009997365	0.02075586	0.024383174	
-0.06051463	-0.0044763433	0.048175365	-0.0562112	0.029513512	-0.022274086	-0.012424318	0.045466222	-0.0063109426	0.042679027	
-0.043026075	-0.026376506	0.023048988	-0.051265992	0.0198772	-0.028022883	-0.00863417	0.048383586	-0.022065762	0.07395994	
-0.018281208	-0.03400956	0.007435185	-0.034720767	-0.008347474	-0.0065020365	0.012042314	0.030557707	-0.013037946	0.06500841	
-0.0029592656	-0.04778465	0.0046216897	-0.013218818	0.0010603499	-0.0109327845	0.024301277	0.013072382	0.0006785566	0.043860894	
0.01054868	-0.06097354	-0.0168614	0.0023015416	-0.041217696	-0.009056297	0.05756952	-0.010100571	0.012355362	0.016039507	
0.003954206	-0.037814632	-0.016973998	0.024547627	-0.040973566	-0.00096599164	0.05652416	-0.005420344	0.010641442	0.008714905	
-0.0020738386	-0.05770864	-0.018194236	0.026585655	-0.028235152	-0.008349004	0.070481956	-0.0035170193	0.0013707252	0.0026736173	
0.029371893	-0.02188062	0.0038738102	0.01433977	-0.028756753	0.010404497	0.040661097	-0.013047943	-0.010070879	-0.012683362	
0.012832697	-0.026395531	0.0052940478	0.012684787	-0.017637748	0.00096538785	0.02429621	-0.02628455	-0.003220813	-0.007807752	
-0.002172438	-0.003970601	0.0015636237	-0.016495194	-0.0061747427	-0.016211582	0.010192261	-0.003674817	0.001540211	-0.015370449	
-0.0031996851	-0.012693011	0.0034743838	-0.0037346168	0.019609228	-0.0013245178	0.00101298	-0.018870853	0.0030001027	-0.005423764	
-0.00031593305	-0.000989195	0.005490025	0.020747447	-0.0046393652	-0.013025684	-0.012495336	2.7583854e-05	0.0036202196	0.015951853	
-0.004628534	-0.008490754	-0.005128588	0.0018248176	-0.0011819015	-0.01777705	0.013032823	0.008848332	2.0233476e-05	0.00333726	
-0.024792062	0.00080193894	0.0036283717	0.0023626916	-0.013954538	0.006433796	-0.02529224	-0.010924938	0.004037529	-0.0071869344	
-0.014500089	0.006070637	-0.00049303134	-0.0027505944	0.015661255	-0.002337642	0.0042124926	-0.0016194372	-0.011595333	0.0011110762	
0.0060078325	-0.0007483605	0.006225178	-0.002147844	0.0149807725	0.015030058	-0.016792357	-0.0069231368	-0.007318431	-0.014502382	
-0.0049229804	-0.01066543	0.010274492	0.015625367	-0.00743693	-0.015151465	0.0006027359	-0.0015724377	0.014729453	0.015893452	
0.007876411	-0.021668209	0.007215296	0.0017395407	-0.009354192	-0.016951967	-0.003612509	0.002520339	0.0005893683	0.010361289	
-0.004076456	0.004104548	0.0045147375	0.0066271643	-0.005155321	-0.007429741	0.0003710944	-0.002530917	-0.0025721653	0.005839185	
0.00262927	-0.013542743	0.039937887	0.011691224	-0.0032367818	0.016004492	-0.0024835782	-0.010460925	-0.008778579	-0.0036242264	
0.009408794	-0.03084299	0.027383124	-0.0022557203	-0.010405594	0.026345233	-0.008359465	-0.017681986	-0.010000852	-0.0078030005	
0.019633532	-0.037390664	0.03355201	-0.013416635	-0.01799705	0.01625209	0.015116045	-0.043568462	0.010134884	0.006998181	
0.014433082	-0.043841314	0.028558567	0.009330489	-0.047220767	-0.016475808	0.040799636	-0.042888504	0.041978143	-0.008982169	
0.008721311	-0.044432074	0.049298447	0.009535184	-0.007432885	-0.043365095	0.07839349	-0.053819705	0.0466895	-0.0194666	
-0.011097058	-0.004932035	0.01616911	-0.005138904	-0.02448823	-0.0716705	0.11587782	-0.0745096	0.045197878	0.000787377	
-0.04066156	-0.005623673	0.035899058	-0.01405024	-0.028976435	-0.06027895	0.12412477	-0.05133156	0.053014275	-0.006386997	
-0.047340285	0.034323197	0.03337166	-0.025472842	-0.034021515	-0.052625895	0.06922322	-0.012434884	0.02104635	-0.0030917865	
-0.04058124	0.0067701237	0.04683242	-0.04858652	-0.0148636345	-0.0556033	0.042504866	0.03357372	-0.0058154566	0.020171614	
-0.048117213	-0.017645493	0.019698288	-0.029451191	-0.011052591	-0.051705208	0.020712363	0.060117863	-0.02032832	0.03933985	
-0.014571701	-0.018190961	0.0038040902	-0.05612327	-0.0057026446	-0.027884271	0.014567187	0.05189836	-0.0155929625	0.053835727	
-0.014966678	-0.03500392	-0.00880784	-0.007159448	-0.01674533	-0.025416102	0.042332727	0.01789286	-0.015923945	0.06423629	
-0.0045308615	-0.034470893	-0.009264482	0.0006217854	-0.033463072	-0.015002966	0.08605588	0.011815514	-0.0024232985	0.02354002	
-0.014939555	-0.07437571	-0.01643741	-0.0015412982	-0.04994066	-0.009150898	0.058553245	-0.017717337	-0.0023932226	0.0151697965	
-0.0017676686	-0.048065085	0.0123612005	0.037693147	-0.05506544	-0.005805781	0.057112366	0.0036425786	0.00680639	0.015131957	
0.0072084903	-0.055262033	0.015839498	0.030108439	-0.026289249	0.00262638	0.058059093	-0.027135655	0.010137823	0.012301382	
-0.0021757751	-0.019909231	0.019329207	0.025314353	-0.013167904	0.0068950895	0.028398378	-0.006262337	-0.00018308248	-0.0016378529	
-0.019727373	-0.018379204	0.010940974	0.01882606	0.004131493	-0.0148746045	0.036393087	-0.0019368912	0.0012138145	0.00023355939	
-0.012496194	-0.010299363	0.0105612	0.0069647348	-0.0113548655	0.00096014584	5.5110784e-05	0.018043814	0.012209015	-0.0069824145	
0.011218076	-0.0052265693	0.0070756264	-0.002856421	-0.00055880385	-0.00405013	0.0011606602	0.0056382655	-0.0016095177	0.009782367	
-0.0011214545	0.0026519136	0.031438284	0.0021526387	-0.0042741825	-0.0026555806	-0.0022763202	0.0010216936	0.0119721275	-0.0039952095	
0.011775789	0.0044154464	-0.004062588	0.01012687	0.0020503737	-0.018357225	0.009663638	0.007473445	0.0022888994	0.0015327847	
-0.00290711	-0.019031316	-0.009561518	-0.019839326	-0.0017503572	0.009969306	0.0098326	-0.0098510925	-0.0053129303	0.0035390065	
0.0067510316	0.0022572607	0.00086859934	-0.0026099973	-0.0015844243	-0.00017821816	0.0041271457	0.002515233	-0.007081098	0.0021970617	
0.0021367914	0.007075341	-0.002962166	-0.008612818	0.000100662764	0.009587181	-0.015527774	0.01865385	0.0055268565	0.0019129979	
-0.009853743	0.00088707835	-0.0062521514	-5.2017112e-05	-0.0070420364	-0.007902638	-0.015891884	-0.0031419268	-0.0057298387	-0.01360756	
-0.010616404	0.0014525865	0.006186835	0.016824145	0.01034067	-0.020036241	-0.0023226799	-0.011347669	-0.0058322614	-0.015017001	
-0.0077969055	0.011668658	0.014979847	0.011472317	0.0010941317	0.01579196	-0.0020415322	0.0055360137	-0.005488327	0.0042739734	
0.016864035	-0.011661511	0.013559484	0.006012311	-0.019785319	0.00469411	0.0038862193	-0.014832381	0.010937653	-0.012895805	
0.024420721	-0.020789765	0.029366335	-0.005058237	-0.026800573	0.009620373	-0.005633574	-0.019806053	0.014083672	-0.005645192	
0.0148773	-0.024895128	0.017760111	0.009025479	-0.029896522	0.023906521	-0.013188937	-0.027578382	0.032570172	-0.009770859	
0.0191584	-0.03923673	0.038094014	0.013633709	-0.04572969	0.010080866	0.037996717	-0.040546227	0.033602886	-0.011275266	
-0.0037715642	-0.028589644	0.032819293	0.02167503	-0.03297995	-0.001236643	0.042220805	-0.059769575	0.039589517	-0.0049726036	
-0.008817609	-0.014784819	0.032234438	0.0011957289	-0.04023756	-0.023721864	0.09114023	-0.059764434	0.062051363	-0.0076063555	
-0.028737163	0.0050374568	0.035744205	-0.01997322	-0.02840089	-0.040501136	0.10477589	-0.050523624	0.03430471	-0.0023111233	
-0.039662056	0.016383689	0.00032087273	0.0053645265	-0.045555025	-0.0698308	0.07744534	0.035113014	0.017435644	0.020405224	
-0.0374095	0.0007554622	0.0032488336	-0.008505303	-0.028927693	-0.060154792	0.061725993	0.038391806	-0.01806603	0.014639318	
-0.005852032	-0.036757845	-0.00161743	-0.0126415845	-0.026447032	-0.050086398	0.0656837	0.05028566	-0.007224204	0.034311928	
-0.0055924105	-0.031327255	-0.020874094	-0.015877163	-0.025051834	-0.031007241	0.07252841	0.007427252	0.0033747733	0.038036108	
0.008884324	-0.03805506	-0.022313993	-0.0020992449	-0.03840699	-0.018836716	0.078203425	-0.0057083666	0.0005117552	0.043658044	
-0.00112502	-0.052887287	-0.011783513	0.027730472	-0.038562663	0.00088168273	0.0762861	-0.023960434	-0.00917001	0.039056294	
0.0059281564	-0.030440751	0.00031395606	0.023730962	-0.04116355	-0.009434591	0.06811445	-0.021836016	-0.0018321223	0.029433228	
0.0026849923	-0.04731688	0.0066826674	0.019206898	-0.008839549	-0.008292955	0.053141482	-0.025214147	-0.009505611	-0.0008267775	
-0.00020832973	-0.030538239	0.023663305	0.022527564	-0.0281388	0.01579982	0.027022742	-0.010807898	-0.010578636	0.0029191254	
0.009660397	-0.029335905	0.015799798	0.013036254	-0.019239238	0.0036578204	0.0029754958	-0.024377683	-0.0024061103	-0.0030268843	
0.0019086794	-0.022033434	0.021371992	-0.00030453148	-0.015118624	0.0055461465	0.010469041	-0.016322697	-0.010240862	-0.0047074175	
-0.0056110825	-0.010534685	0.0010451399	-0.0032206245	-0.013231565	-0.0076950877	0.010244425	0.004124445	-0.015375791	-0.0089879185	
0.0027414167	-0.0032641985	0.021270845	0.00031444055	-0.001054406	0.009700885	0.01114772	-0.0016002414	0.0031873402	-0.01703645	
-0.004441321	-0.0034932254	0.010823531	-0.0107162995	0.0210302	0.004961595	-0.012039242	-0.007752729	0.0020519611	-0.007658814	
-0.0027132714	0.0046968376	-0.016558787	0.021010315	0.009329767	-0.013717262	-0.0006106714	-0.0016111322	0.015980324	-0.00068448734	
0.014072416	-0.0017697293	-0.008698725	0.0034689158	-0.011893324	0.006315166	-0.0006323197	0.013716219	0.013712236	0.0023794218	
0.009107419	0.0029037711	-0.001166601	0.0035311587	-0.0017395507	-0.005177578	0.014589567	-0.003403096	-0.004681372	-0.01921574	
-0.0017816906	0.0028747006	-0.006864698	-0.006305749	-0.0066936775	0.015898235	-0.00027754178	-0.009203546	0.0020753506	-0.008317705	
-0.0055251224	0.01746365	0.0018056185	-0.01653984	-0.008937724	-0.006579546	-0.008775079	0.0004635237	-0.00026089582	-0.0053076297	
-0.025889896	0.0028537335	-0.010073777	0.0028891463	-0.00948552	0.0011758235	-0.00389622	-0.007964706	-0.009142059	-0.0062281853	
-0.006391434	0.009699247	0.01898534	0.013484443	-0.0008581188	-0.002262952	-0.007794334	-0.006244642	0.0006508572	-0.011097488	
-0.011158369	-0.0022642382	0.0014539753	0.006218429	-0.022165922	0.029413704	-0.009312669	0.005517327	-0.013877829	0.016757049	
-0.0053703673	-0.018509252	0.012917365	0.008299168	-0.021792304	0.018596068	-0.0031564387	-0.021008926	0.009445775	-0.0035595887	
0.01436005	-0.025634306	0.018951628	0.011623377	-0.03668565	0.010800082	0.006409638	-0.01069796	0.013799453	-0.009418921	
0.019306753	-0.03836217	0.013027131	0.019140547	-0.06421789	0.035061967	-0.016642459	-0.04224473	0.02508324	-0.024909459	
0.008468734	-0.025676137	0.010046112	0.0019896473	-0.06251878	0.032741077	0.010281019	-0.05337934	0.030299239	0.007825575	
0.021498503	0.0038542508	0.0112226	0.01803918	-0.034060985	0.03937365	0.02370141	-0.04539993	0.04483818	0.0003141309	
-0.0065232166	-0.0023048755	-0.014085711	0.012626747	-0.050643194	-0.030565854	0.061778445	-0.008921923	0.02419551	0.00032834656	
-0.0010042554	0.0055112024	0.0019818416	-0.0039839586	-0.037568137	-0.030803582	0.068702765	0.0149355335	0.0027822375	0.0102858255	
-0.004034931	0.0046161097	-0.025632855	0.0058470736	-0.024491869	-0.020085208	0.056008838	0.02238043	0.0024817558	0.03711672	
3.150491e-05	-0.0030805212	-0.036808666	-0.006339519	-0.03004823	-0.025212398	0.06674061	0.017301805	0.005714039	0.027993837	
0.0011930764	-0.033368807	-0.03762366	-0.0016283726	-0.020901395	-0.0070397304	0.04988997	-0.0020228592	-0.00054497184	0.044236537	
0.001771789	-0.028675327	-0.047042612	0.025405856	0.0016407856	-0.0072088754	0.03640333	-0.0028075501	0.023372892	0.046951402	
-0.0018413988	-0.034978118	-0.04444627	0.025655804	-0.02033515	0.018998725	0.06440921	-0.035330635	0.01565809	0.03033066	
0.0045195157	-0.024984775	-0.024461113	0.036879785	-0.022838354	0.0126469275	0.015099664	-0.019789284	0.004785276	0.029471276	
-0.005430606	-0.0381095	-0.0012220638	0.031604428	-0.017184496	0.007850863	-0.0017792323	-0.039699312	0.01202157	0.009034253	
0.009942969	-0.0011333491	0.013298964	0.010854939	-0.018148936	0.0027166065	-0.00542023	-0.016652154	0.018627089	0.024095127	
-0.013597183	-0.016298786	0.027848335	-0.010221319	-0.02469468	0.010504372	0.023583762	-0.0116119385	-0.0015138742	0.006468434	
-0.014515559	-0.0077766315	0.012232168	-0.0094630355	-0.0043839677	0.0023358227	3.6219226e-05	-0.01437793	-0.00015660649	-0.011274427	
-0.0029699486	-0.01215018	0.014540782	-0.01025421	0.0025005157	0.014803988	-0.0018960247	-0.012210152	0.002520432	-0.0057175606	
0.0002470724	-0.012937849	-0.0067857173	-0.0018691267	-0.008839884	0.0021275028	-0.011952095	-0.014906656	0.012140646	-0.010946121	
-0.014051001	-0.004270644	0.0070793824	-0.0042281984	0.0129024545	0.0007700858	-0.003079336	0.010876594	-0.007786619	-0.015384376	
-0.0005195933	0.0025972857	-0.006171718	0.0075764405	-0.0002197767	0.012994625	-0.020162867	-0.0052923453	0.0061444333	-0.0058712084	
-0.010339932	0.0028045678	0.012720597	0.0069079744	-0.0051226187	-0.000676554	-0.010327825	0.0038041747	-0.0032891089	0.010622948	
0.00076705223	0.010824267	-0.0064791087	-0.0029510304	0.006114236	-0.0006608911	0.009992325	-0.0030912347	0.014065265	0.0036264516	
-0.0095959045	0.006849467	0.01478255	-0.006792497	-0.0040233107	0.009294715	0.017024484	0.011133836	-0.0029414063	0.023052467	
-0.0014993304	0.0048615336	0.0018827403	0.0052354787	-0.010228555	0.0102460915	-0.025623623	0.0028594125	0.007974779	-0.0061783693	
0.0047970093	-0.0021979182	0.0076053226	-0.0027661286	0.0038974613	0.0041962084	0.009108467	0.012129185	-0.0014803389	0.010184513	
0.0124308355	-0.017827053	0.0095337555	0.010061447	-0.010822079	-0.0023655335	-0.0048003616	-0.003364172	0.0011729948	0.0040002265	
0.013499154	-0.006861065	0.022826696	0.007254903	-0.0048737107	0.016985115	-0.010392592	-0.023345973	-0.0010539077	-0.011056098	
-0.015090331	-0.01270102	-0.0057425834	0.013685037	-0.015275401	0.009408679	-0.005268808	-0.031001784	0.011702667	0.0005850508	
0.003933605	-0.0036282025	0.002907443	0.00559053	-0.033396162	0.049770463	-0.00021962705	-0.02074319	0.020491915	-0.007983495	
-0.0058268188	-0.02232315	-0.0045824815	0.0012169977	-0.044337187	0.03723259	-0.008718417	-0.008870678	0.023761248	0.0043145884	
0.008488777	-0.0022581352	-0.008880088	0.019063039	-0.06533645	0.05089901	-0.023018548	-0.025140766	0.020303847	-0.02091947	
0.016178975	-0.004801079	-0.035203718	0.0334012	-0.0585732	0.05180603	-0.027694535	-0.05290276	0.0345629	0.016225303	
0.009385064	-0.0021660074	-0.043319367	0.042455334	-0.054277938	0.039975952	-0.029420348	-0.018030697	0.040436067	0.017052084	
0.027389837	-0.0051371874	-0.04692812	0.030519398	-0.036141314	0.031433627	-0.046258584	0.008991474	0.050744664	0.020208925	
0.02006706	-0.016802352	-0.05507501	0.021447359	-0.043636795	0.03849041	-0.03334692	-0.0076150694	0.040351897	0.02657476	
0.0048469016	0.007911007	-0.052268937	0.025527475	-0.02712486	0.03228963	-0.01790117	-0.0018643514	0.03802854	0.02128548	
0.0037869592	0.0007844439	-0.05021182	0.019852264	-0.013232189	0.029595632	-0.019807212	-0.012223666	0.04268163	0.03108681	
0.0017520236	-0.025596213	-0.041089177	0.02203279	-0.0011363291	0.042827763	-0.003487002	-0.020317035	0.024732763	0.052126925	
0.0053636986	-0.018821387	-0.025276195	0.0007539714	-0.0016906813	0.020336568	-0.008950292	-0.021789232	0.005563976	0.03334544	
0.0030215778	-0.014581256	-3.1144213e-05	0.0015571014	-0.010262937	0.036405165	0.0011914284	-0.017900985	0.030746523	0.032469977	
-0.0023296648	-0.023010895	-0.018626671	0.010475437	-0.0057595093	0.034608055	-0.0062017697	-0.0059695067	0.009843558	0.028374696	
0.009164284	-0.018271478	0.00574399	0.004065454	0.0024397848	-0.0032709388	-0.013450424	-0.027488856	0.011539646	0.017885404	
-0.026516482	-0.007130718	0.025944207	-0.015586701	0.0068356907	0.017431563	0.005840568	-0.021702465	-0.012092578	0.023399051	
-0.0037913634	-0.018474564	0.0027218768	0.0058999243	-0.030281348	-0.006541179	-0.0016334084	-0.011191579	0.006528141	0.0019972995	
-0.008248365	-0.0068550846	0.0067479373	-0.0004471732	-0.0151333045	-0.031609796	0.005434233	-0.010521914	0.005136976	0.0039868252	
-0.004881288	-0.0083632395	0.011865164	-0.0070842993	0.01320632	0.00041544222	0.006765974	-0.007489649	0.021495888	0.009779603	
0.003413656	-0.0017126395	-0.013007684	-0.010702491	-0.016638886	0.0045915567	3.1799686e-05	-0.011201162	-0.008235755	-0.013627517	
-0.013346832	-0.0064683966	0.026284358	-0.021531632	-0.011138444	-0.0023094069	-0.0013653128	0.0010118072	-0.022587622	0.006488671	
-0.00302286	0.0027191252	-0.025819238	-0.004297145	-0.007674919	0.0038357505	0.011273369	-0.0019077037	-0.0021066542	-0.001805492	
-0.00641811	-0.01318094	8.816441e-05	0.001085257	-0.00724475	0.0072076744	-0.0015618211	-0.017043225	0.008045759	-0.0031344756	
0.009307847	0.006246286	0.0010074413	0.015753796	0.004862255	-0.008232937	-0.013815407	0.0022591448	0.001858814	0.0090891	
0.0028433956	-0.0014731453	0.010567496	-0.009342287	-0.022622457	0.014758236	-0.018541917	0.0005881356	-0.009038501	-0.003981649	
0.01854902	-0.008404271	0.015765274	0.0032214734	-0.009162934	-0.0046363426	-0.010941635	-0.012814157	-0.0025567657	-0.0067796693	
0.0040890286	0.008768701	-0.0075197774	0.012650798	-0.005858421	0.0066724513	0.015351958	0.0072297784	-0.0076526497	0.0033749202	
-0.002982461	-0.0020950611	0.0019317823	0.015035936	0.008987247	0.021197872	-0.005518188	0.006469802	0.008128375	-0.003630991	
0.014620011	-0.009491003	0.0039402433	-0.004665676	-0.011284831	0.016311342	-0.011575627	0.011553002	-0.0004827704	-0.023458	
0.002782608	-0.012692972	-0.002482145	0.007826027	-0.0072576143	0.01756073	0.0010761777	0.005952826	0.014988464	-0.00907198	
-0.00031274382	-0.014873592	-0.0042450014	0.012328929	-0.04710134	0.031330533	-0.034634415	-0.0055748313	-0.006900791	0.014536137	
0.0009936289	0.0030746863	-0.030890644	0.031097667	-0.04716917	0.04224399	-0.042703677	-0.0018374629	0.036565036	-0.00022991022	
0.015912246	0.016232923	-0.04795307	0.015130576	-0.0271191	0.061314814	-0.057579212	-0.012343336	0.017695343	0.014017841	
0.019889746	0.016944293	-0.052693225	0.028573865	-0.02682337	0.059735283	-0.06268916	0.022350073	0.048081964	-0.0024392665	
0.012786175	-0.009423005	-0.06990381	0.024776975	-0.023375677	0.058926508	-0.07060433	-0.007527442	0.032965187	0.048684057	
0.01919458	0.0044480585	-0.060944512	0.016915161	-0.03564647	0.04014834	-0.063913934	-0.027014913	0.037039064	0.016193802	
-0.0013252546	0.01615042	-0.03951128	0.012682188	-0.011051989	0.032364495	-0.07067134	-0.0067179548	0.043708067	0.02648302	
-0.011508546	-0.0051078815	-0.049682103	0.0038974178	-0.013266499	0.018096333	-0.05187718	-0.007929403	0.053827938	0.025890835	
0.011915398	-0.00060408196	-0.028458254	-0.0042901193	-0.016751999	0.011804258	-0.025274744	-0.018943142	0.041341886	0.0245395	
0.008406482	-0.009236528	-0.020766834	0.0014007359	0.0052042473	0.012671313	-0.021666817	-9.77899e-05	0.00090354437	0.02658349	
0.0058110054	-0.0012703208	-0.0018780631	-0.011961916	0.00088514853	0.0014650571	-0.030032445	-0.05101544	0.022834525	0.033141118	
0.0038559076	0.008638252	-0.00691061	0.007611696	0.010479497	-0.008864748	-0.0055289674	-0.016730364	-0.0034595865	0.024657931	
-0.008929894	-0.0163314	0.01109935	-0.025166905	0.004030478	-0.0076179183	-0.012142512	-0.008487546	-0.0066116503	0.0191214	
0.0010524142	-0.0057744463	0.0075790817	0.009517288	-0.0053617507	-0.02417765	-0.015047656	0.002696384	0.00093860034	-0.0007938119	
0.006121202	0.012852751	0.009643439	-0.0046180775	-0.003620613	0.0008850839	-0.0059981234	-0.009943766	-0.01876883	0.014802457	
-0.006839911	0.0008948413	0.0042691617	-0.009413269	0.01870018	0.0135227945	-0.016244518	-0.003194362	0.0035086137	0.006597108	
-0.013551096	-0.02423834	-0.012669295	-0.00041060752	0.005946563	-0.009083473	-0.0019075264	0.007001533	0.009476762	-0.0043474133	
0.0015913864	-0.014745499	0.015046599	0.008309778	0.016024154	0.013782055	-0.007995507	-0.006623442	-0.007655123	0.0004072924	
-0.015958833	0.007444371	0.01081901	-0.009915127	-0.010313897	0.011386992	-0.0050045312	0.0031902173	-0.0037500279	0.00014341016	
-0.010800419	0.0076675266	0.002818519	0.006137432	-0.0019529383	-0.007468442	0.013983145	-0.009171322	0.0024535386	0.0065594567	
-0.012516155	0.013459844	0.010181004	-0.008476435	-0.021721352	-0.005692568	0.0055268602	0.0014931508	-0.004991102	0.0030121836	
-0.012297624	-0.008270451	-9.8050856e-05	-0.002255374	0.005141609	0.0018322737	-0.012298191	-0.00959388	-0.008470389	-0.0006361223	
-0.016021634	0.0046671834	-0.009140335	0.00374011	-0.01528	-0.0053921775	0.001481314	-0.005522515	0.010183051	0.005335217	
-0.002857801	-0.01029055	0.0028997527	0.0026794448	0.02267067	-0.0067709833	-0.003245595	-0.005617373	0.002072633	-0.0032823172	
0.011949044	-0.0009239284	0.0026344596	0.014645259	0.0026591406	-0.01061861	0.0032484306	0.0077214986	-0.010841212	0.0019704588	
-0.009550367	-0.005766896	0.0010513217	-0.010359377	-0.0029992412	0.0024282506	-0.013017613	-0.012648754	0.0053082723	-0.005764457	
0.001946898	0.015693031	-0.01971653	-0.0027175	-0.0010717922	0.014640667	-0.007975083	0.01008837	0.0026730765	-0.011409134	
-0.005754552	0.01784666	-0.009728651	0.0066092093	0.0099189775	0.010192829	-0.010066421	0.017086146	-0.0042293603	0.0010926158	
-0.00783979	0.0042005368	-0.0033550863	0.0047567445	-0.023083072	0.009206622	-0.02136382	0.005631436	-0.0019639747	0.015510993	
-0.006961258	-0.009966196	-0.015405485	0.008533693	-0.01596874	0.015362152	-0.025745086	0.025311176	0.020974169	0.0191622	
-0.016310185	-0.018106388	-0.016020192	0.00090408145	-0.043546505	0.021607582	-0.04695203	0.023340072	0.0010510754	0.028967418	
-0.0048168264	-0.009333542	-0.013550399	0.00048575137	-0.010482765	0.030600758	-0.049444284	0.024395674	0.0071443818	0.032272752	
-0.006893564	-0.005763463	-0.024170676	0.015565305	-0.008961886	0.0454835	-0.043351218	0.019810282	0.017151225	0.037281577	
-0.013669038	-0.010906855	-0.025222585	0.005410111	-0.020095194	0.02059159	-0.041566372	0.006020817	0.023794604	0.04069115	
0.009995224	-0.0019911588	-0.01965053	-0.0004598755	0.004553603	-0.010728592	-0.05932144	0.00086283224	0.032324076	0.0012555204	
-0.0066143763	-0.0102987075	-0.011859239	-0.0015095347	0.017345928	0.004874409	-0.032202728	0.01533898	0.016163839	0.036208935	
-0.0021472818	0.0018713447	0.0012718083	-0.0045795767	0.006716326	-0.004259339	-0.02841891	0.0049393373	0.006268965	0.011896815	
0.0046468726	0.009462561	-0.024560697	-0.019538047	-0.013942989	0.00891923	-0.03658978	0.009531768	-0.0063824058	0.023024334	
-0.00869309	-0.0069581973	-0.018418232	-0.010182339	0.0072845696	0.0015933074	-0.010741276	-0.0074733775	-0.011128253	0.039438996	
0.0037982555	-0.015809983	0.0015188432	0.009196406	-0.0023720788	-0.0050170464	0.014548864	0.016574612	0.01948833	0.02730029	
-0.009003553	0.008923876	0.0031452973	0.0063369083	-0.00030932605	0.009746466	-0.017761357	-0.012734397	-0.018654084	0.01913234	
-0.0051097726	0.007085247	-0.0075093755	0.006540217	-0.0068209856	0.0069138594	0.0006330103	0.010150119	-0.0030650499	0.008632728	
-0.020324768	-0.0030318594	0.009298745	0.018881597	0.003838131	0.0077299955	0.009117872	0.006092759	-0.0043356894	0.02203668	
-0.019890156	-0.008653111	-0.0013424435	0.012012987	-0.010960719	0.011824962	-0.0018797471	0.0057866927	-0.008897479	-0.006569917	
-0.0077227177	0.0038736968	-0.0062579038	-0.016039753	0.018942064	-0.010955147	-0.016716227	-0.008707565	-0.0033209296	-0.008510876	
-0.0044240947	-0.00087789964	-0.011564894	-0.0073953434	-0.00024025002	0.007907935	-0.0029059714	-0.0036594388	-0.011243771	-0.0010379801	
-0.009266498	0.012883277	-0.0032457884	0.019505866	-0.01062722	0.008147818	0.0056529352	0.0026278421	0.009185532	0.010696433	
-0.0036007245	-0.007918537	-0.019676281	-0.0012413965	-0.00029012805	-0.021050664	-0.0009849387	0.0018504678	0.0017031486	-0.00034741824	
0.021781573	0.0009985844	0.011608809	0.009935003	-0.01196042	-0.0068317344	0.0089698415	-0.005481516	-0.0017833035	-0.0006947184	
-0.011538203	0.0067607006	0.00067292276	0.0028612553	-0.0001168748	-0.002876367	-0.01089826	-0.01852021	0.010841049	0.017030751	
0.0035645384	-0.011247522	0.0019373618	0.01944099	0.015791053	-0.0018327808	-0.0139110405	0.0076559475	-0.006925801	-0.002172001	
-0.0075719375	-0.028250657	-0.013775482	0.0022449451	0.0023355598	0.010687197	-0.025536723	-0.01507452	-0.011714376	0.003854322	
-0.0050226534	-0.003389801	-0.0025484534	-0.007914257	0.008878039	-0.012194569	0.0057029724	0.010610805	-0.015516567	-0.009994198	
-0.0025443577	-0.013130093	0.015198966	-0.004131697	-0.008610075	0.0022718075	-0.005949259	0.0062439586	0.006254534	0.008082413	
0.005181707	-0.0020778636	0.005628986	-0.0047435663	-0.0055435854	-0.002522674	-0.022555484	0.005903697	0.0029476571	0.0020990674	
0.007136003	-0.0009127619	0.009733651	-0.00044632083	-0.00026416246	0.006494313	-0.017362773	0.002903522	0.0058667283	0.00023741875	
-0.0061222226	0.0024570618	-0.012678659	0.006873223	0.004258921	0.004829347	-0.030323308	0.048044983	0.002801185	-0.00033682713	
0.010829858	-0.009543018	-0.0056919362	0.00056030427	-0.009784275	0.013976139	-0.034182515	0.0386304	-0.0046069412	-0.00022890964	
-0.012061834	0.010157507	-0.0047151176	0.0040177605	-0.0002452528	-0.010913827	-0.026465701	0.045172393	-0.0060139154	0.017035253	
0.005363446	0.00044667677	-0.011354421	0.016541926	-0.008222731	0.00431849	-0.04065432	0.040078416	-0.0063719987	0.024705065	
0.017645989	-0.0046293978	-0.005657759	-0.013387659	-0.014566724	-0.004975899	-0.043879475	0.03594888	-0.015655383	0.043045525	
0.0009623192	0.009064421	-0.010653332	-0.009511079	-0.009316315	-0.006184656	-0.03582295	0.034240317	-0.0073651974	0.032498527	
0.0038904508	-0.01716679	-0.0002129323	-0.012808331	-0.00422575	-9.840635e-05	-0.045784272	0.059954338	-0.014860202	0.013784909	
-0.010512763	-0.0044143805	-0.0005017391	-0.0126988655	0.0054049753	-0.008402552	-0.023847446	0.035345614	-0.007942749	0.033897974	
-0.0036786774	-0.0052639935	-0.020179821	-0.011007276	0.0069460245	0.0013509067	-0.040028468	0.038052928	-0.006156615	0.025817271	
0.0056085996	-0.0020045675	0.020611938	-0.009128396	-0.017706307	-0.011992283	-0.0068601086	0.011136065	-0.014287848	0.0071961526	
-0.011390488	0.017643398	-0.0038865113	-0.00033812446	-0.015686126	-9.7673284e-05	-0.020686591	0.011829381	-0.011006324	0.028624851	
0.011678563	0.008259531	0.0014426078	0.010106997	-0.0017517821	-0.016993366	-0.006763647	-0.013095694	-0.007902191	0.017540978	
0.018723583	0.0017639699	-0.006320228	0.005947185	0.0052236626	0.00044947705	0.0044524367	-0.0139926085	0.0010726674	0.022167062	
-0.011156296	-0.00034810064	-0.006187827	0.0036074747	-0.017451983	-0.0031810305	-0.0062131323	0.0015375486	-0.0038996881	0.014779011	
-0.024569478	0.010518984	0.00692652	-0.008540599	-0.01078299	-0.021947706	0.0010947624	-0.0041073584	0.006423088	0.0036160857	
0.0029653416	-0.0015581558	-0.0050938847	0.0042462475	0.004012408	-0.0051795007	-0.0050278655	-0.011344957	0.0043606777	0.003692944	
-0.0062872753	-0.0121360775	0.005608949	-0.0042754267	-0.017674765	0.011446127	0.00020368017	0.0027690867	0.005541314	0.005110484	
0.011964293	0.008396075	-1.1163086e-05	-0.025864845	-0.0050287726	0.009477418	0.017000305	-0.016926091	0.0016351112	0.016057665	
0.019369796	0.00058956747	-0.00257174	0.0070882062	-0.010466115	0.007631948	0.0014862634	0.018903332	-0.0019656366	-0.0014828558	
-0.002572488	0.03736521	-0.004071985	-0.011997596	-0.0048709745	-0.011533054	0.0010337776	0.011184332	-0.024106184	-0.004165425	
0.003746399	0.008934339	0.019219505	0.023902195	-0.0033515873	-0.012706285	-0.014364055	0.005812278	-0.010215658	0.004159549	
-0.001565396	-0.006531092	0.0020739343	0.009776422	0.008577683	0.017341292	-0.01686792	0.0052104127	0.004801958	-0.0080789	
-0.022005128	0.014391731	0.007955713	-0.00820154	0.0004456611	-0.0005755989	0.005095395	-0.021627298	0.0064459043	0.0027234226	
0.0011652285	-0.005346084	-0.0031383738	-0.0027321465	0.013554241	0.008160909	-0.013662187	0.025593488	-0.009483675	0.0039037522	
-0.0031101871	-0.004323521	0.0055405847	0.016490422	0.010513838	-0.00180541	-0.0037963504	-0.009263958	0.014363884	0.0026047847	
0.0065719765	0.0045207883	0.0036758948	0.004501347	-0.007008949	7.617883e-05	0.014860887	-0.015332502	0.0010222017	-0.019121865	
-0.007388924	0.0014667799	-0.0039361194	-0.0043940786	0.023503603	0.013514714	-0.0009033513	-0.01713683	0.00039658893	0.010437433	
-0.0030668634	-0.0010948218	-0.008091204	0.015282632	0.004532589	0.000496132	0.00032015768	0.016755488	0.0059765307	0.00018568794	
0.0053403834	-0.004766346	-0.003469608	-0.002179522	0.0044761393	-0.01248931	-0.015100991	0.018032318	0.013341401	0.00506764	
0.009650614	-0.002301021	-0.000623717	0.0076644663	0.0010232935	-0.008270425	-0.010687602	0.0066877273	-0.010604982	-0.0033014698	
0.0014091044	-0.010575096	-0.009380449	0.0070399125	-0.001517496	-0.0039262394	-0.035243195	0.026951274	-0.012135472	0.018407773	
-0.008215717	-0.008045572	0.00035316363	-0.0005065119	-0.022827517	-0.017176459	-0.024923777	0.02634574	-0.0028552169	0.016748196	
-0.006880967	-0.013948766	0.0056853783	0.005385417	-0.023708355	0.0064119184	0.0057596033	0.0139217805	0.010109647	-0.0014844711	
0.0050406824	0.01069517	0.0151997665	-0.0047455644	0.010737506	-0.0012632733	-0.009429721	0.021661948	0.00592936	-0.0034541185	
-0.0061928728	-0.016323531	-0.0017078267	-0.0004671549	-0.012911385	-0.0030347186	-0.025338044	0.021178957	0.015382906	0.010757864	
-0.012219542	0.00953807	-0.015091768	-0.006785569	0.00926831	-0.011786408	0.009168912	0.018684909	0.008697248	0.021806525	
0.011469253	-0.009630186	0.004560555	5.348714e-05	0.0018878181	-0.010761036	-0.009873655	0.005654188	-0.003415803	0.0053864494	
0.0001970076	-0.010597473	0.004931341	-0.0064110924	0.0127567835	-0.008659619	-0.007834406	0.018851437	0.0011644062	0.0032985054	
-8.311637e-05	-0.015935056	-0.010221239	-0.032896552	0.0040344293	-0.0013959119	-0.0053585446	-0.02046014	0.0061119753	0.020206727	
-0.00064237433	0.010606114	-0.0016367259	-0.014237766	-0.014194554	0.005988183	-0.007537069	-0.0064936564	0.018619888	0.012567494	
-0.011848208	-0.0049149147	0.009644705	0.00025457345	0.0062977527	1.29788805e-05	0.0010652398	8.778184e-05	0.0022849783	0.025470298	
0.0009697149	0.004091331	0.005023898	-0.004946624	0.0019050103	0.0043686493	-0.006000477	0.016189255	0.0049926294	-0.008724508	
0.0021418966	-0.000598394	0.0019118848	0.012274469	0.020949025	0.004158489	-0.005187915	-0.003895385	0.006722395	0.012251951	
-0.004325473	-0.015565903	-0.0064691487	0.0028926267	0.009451235	-0.0019184551	0.0019926706	0.009349205	-0.0002488083	-0.0034422022	
-0.0035801027	0.008377308	0.022380644	0.008054178	0.016239138	-0.013456033	0.017661411	0.012673453	0.008126757	0.0077277604	
-0.01292812	0.005931418	0.0025694447	-0.015270953	0.0051773256	-0.004687308	-0.012384513	0.0013776564	0.0083508	0.0043373043	
0.004762189	0.016565053	0.0009134962	0.003605781	-0.0058601457	0.002051824	0.019896576	0.0120164575	0.012908542	-0.01301923	
0.0037867865	0.017416487	-0.0122010745	0.0033730182	0.0050651473	0.025080603	0.0022620503	0.0114679085	0.020990243	-0.009897627	
-0.0015112942	0.0063108676	0.014607993	-0.0062278016	0.00653301	-0.0038897959	-0.0045050774	0.0024344625	0.019861376	0.007380607	
0.0036472941	-0.0038500251	-0.013126405	0.0019723545	-0.007057344	-0.01429499	0.007847482	-0.004580323	-0.007999291	-0.001085854	
-0.011103346	-0.00136404	-0.008987219	0.0047002444	-0.0060891653	0.0040300204	0.012970432	0.00085046934	-0.010994859	-0.010350317	
-0.006201597	-0.006226608	0.002316939	0.004389253	-0.0135770645	0.009221692	0.00032154875	0.0039199875	-0.012221257	-0.002501485	
0.0049779387	0.012131959	-0.015095197	-0.008229269	-0.013029987	-0.01065611	0.0099618025	0.00375403	0.009002191	0.008250363	
0.0079142945	-0.008428739	-0.011301183	0.017228995	-0.015636902	0.0024786498	0.008253147	0.0025940847	-0.00039111185	-0.00067116856	
0.015789451	-0.0015286134	-0.0026784483	0.013172146	0.020823143	-0.0089437915	0.004268766	-0.004405727	-0.011226272	-0.0053304015	
2.8138355e-05	0.015575528	0.0043143537	0.0053756093	0.016031887	0.0021619666	0.007965566	0.003251048	-0.0067586997	0.002297716	
0.0012216171	-0.0143250255	-0.008403122	0.0023618205	0.016685251	-0.009369685	0.0062831906	0.0027505083	0.0035327636	-5.5312856e-05	
-0.011809372	0.017248219	0.0023950494	-0.011662369	0.010711812	0.03479005	-0.004298092	0.0030560666	-0.02100955	0.0012600049	
-0.0026532628	0.009317554	-0.01679379	0.008632329	-0.0029363115	0.0045730225	0.0038935298	-0.011512878	0.006109464	-0.003431485	
-0.020282917	0.025684174	-0.0019083628	-0.0016436497	-0.013524733	-0.013902097	0.009362801	0.010813561	0.0066568404	0.0044082906	
0.012171074	-0.016380867	-0.009062506	-0.01814674	0.0034764572	-2.4611269e-05	-0.0021098019	0.031065902	-0.023954181	0.010998017	
0.009068894	0.0042780214	0.0072152372	0.020801423	0.018976746	-0.008409251	0.0013197465	0.0023434362	0.009295613	-0.0026457987	
-0.009436794	-0.0066782343	-0.008272815	-0.0034791909	0.0036730717	0.0046743485	-0.005609181	0.023947565	0.010071693	0.007593766	
0.0068300413	0.010950148	0.0060676835	-0.011236862	-0.011565427	-0.009073338	0.0025321934	0.0031194093	-0.021556925	-0.0051278262	
-0.008608395	0.006842407	0.009467	0.0112967	-0.0006692266	0.00024130047	-0.0032435008	0.013530389	-0.010022953	0.0053304723	
0.025238166	-0.0013086266	-0.0006756494	-0.00023089515	0.0073401253	0.011706359	0.00169087	0.0111103505	0.0054012914	0.0056836414	
-0.0014355282	0.008703444	-0.019348074	0.0064355587	0.014009878	0.011319527	0.0069443323	-0.011203978	-0.006956622	0.007976583	
