0.01192386	0.016292568	-0.00041309503	0.02204115	0.0013959024	0.0034464158	0.020786058	0.0043005445	0.014372327	0.0020801604	
0.005295185	-0.0077295853	-0.005812468	-0.013280921	-0.0006331048	0.008261801	-0.008896788	-0.0054348563	-0.018247746	-0.0021832676	
-0.00193725	0.0042630676	0.0020041817	-0.00635911	0.007942029	-8.619227e-05	0.008799273	0.001708486	0.0039980975	-0.012038251	
0.014806914	0.005802973	0.0057152463	0.014889993	-0.003475285	0.0024208752	-0.0010690084	0.0013625831	0.0014517641	0.004614159	
0.014767194	-0.00866946	0.020141782	-0.00069587934	0.0011009321	0.00025964162	-0.007181828	0.009652284	0.0020845742	0.012766213	
-0.0077707455	0.021457188	-0.0019500982	0.0016726963	-0.00065899116	0.0042649535	-0.00013412263	0.013718448	-0.0063012308	-0.002450589	
-0.014696692	-0.008729859	-0.018015504	-0.006387176	0.014377832	-0.006389377	0.0022184793	-0.009066927	-0.01168807	-0.0051544793	
-0.015242942	-0.013923148	0.0044891243	0.013709231	-0.0041238847	0.0060516587	0.01183949	0.0020966812	0.0038528724	0.001414963	
-0.011496312	0.002410788	0.0026890887	0.005340742	-0.0033746045	-0.005082034	0.008722387	0.0067258105	-0.012136316	0.0016528658	
0.0043145977	0.0008285603	0.011985348	0.009100496	0.012393113	0.0024263326	-0.0019212237	0.0019143516	0.015619119	0.011829034	
0.002033972	-0.0016720229	0.005433028	0.0021799938	0.010467392	0.0014692977	-0.016683264	0.0038247153	-0.005415245	-0.01155514	
-0.00016424144	0.0028837011	-0.0115362555	0.0032840073	0.011720186	0.00089046784	0.0047731707	-3.8838316e-05	-0.01646306	0.00049728446	
0.004036904	-0.0089137	-0.0029462848	-3.0089865e-05	0.009232467	-0.0022209613	-0.0015740383	0.0016076607	0.0047065853	0.0022151545	
-0.0036425896	0.014650965	-0.0048740725	-0.0082310755	0.013864535	0.011617566	-0.0075538727	-0.004653852	-0.010161958	-0.001888349	
-0.008329209	0.0026186123	-0.010282443	0.0034695468	-0.008240005	0.0148347	-0.031920526	0.013504789	0.009605867	0.014410197	
0.0164167	0.008888508	0.012841244	0.008298199	0.0008601676	-0.0010157212	0.01094881	-0.0037151955	0.006118982	0.004833375	
-0.002679572	0.012381327	-0.003032808	-0.001781297	0.00067790726	0.006130456	0.008912063	-0.0027170416	0.01394102	-0.0048309006	
0.001739922	0.01333106	-0.0036964258	0.0070365835	-0.0013531405	0.0048580095	-0.004467359	0.012166761	-0.0037673132	0.00545857	
-0.012703753	0.013958981	-0.00578597	0.002654479	-0.010319026	0.0072178124	0.018834842	-0.010267155	-0.0013546532	-0.0006630163	
0.011324426	-0.0041644843	-0.0020274837	-0.002492409	0.007003013	-0.018694602	0.024451843	-0.03381757	-0.018086804	-0.0022358533	
-0.014902532	-0.011454978	0.01186492	0.018733243	-0.0019539301	0.013872016	-0.0006920322	0.002039763	-0.017146314	0.0037608608	
-0.01671882	0.008813621	0.0013060517	0.008987124	0.003633806	-0.023319582	0.017484538	0.003922286	-0.010689455	0.005373577	
-0.0044910708	0.0063250326	-0.0060182745	-0.0016863343	0.016865984	-0.0042540394	0.0068988157	-0.010931219	-0.0037918289	-0.0059072906	
0.0019574957	-0.0058820625	0.0047410233	0.008449131	-0.015955351	-0.0031481292	-0.014739714	-0.0062200315	-0.0019791794	-0.0053767506	
0.008921887	0.0011257371	-0.0058991318	-0.004703796	-0.0038181022	0.011576557	-0.0062710564	-0.002960524	0.0062938724	0.0011619591	
0.0065047448	-0.00853134	0.0064464575	0.015649835	-0.009673756	0.022528766	0.009553511	0.008684934	0.001736182	-0.0007710545	
-0.00762782	-0.0028834967	-0.008886077	-0.00027269823	0.01668186	-0.013936497	-0.0024509535	-0.008724541	-0.008571699	0.015670866	
0.002179818	-0.0053487127	0.02539716	0.0020053454	0.01758212	-0.002233503	0.001131251	0.017548842	-0.018762179	0.009262869	
-0.0076093236	0.010761035	-0.009384314	0.0018980476	-0.010125463	-0.0050354856	-0.012350725	-0.013415471	0.022268903	-0.0041170274	
-0.0062852157	0.015755696	0.00076822925	0.009033579	0.0054052416	-0.0019797157	-0.0021633585	-0.0048889443	-0.020619681	-0.013214255	
0.024213033	-0.005449884	-0.0002584704	-0.006307236	0.013438254	-0.02045839	-0.006532547	0.0005083779	0.004253764	-0.0018920425	
0.015676152	0.0075856587	-0.004030241	-0.022220915	0.011761124	0.0005150466	0.0069868993	0.026687978	0.00088854594	-0.009357987	
-0.0044229934	-0.02305566	0.021971751	0.014967101	0.020012565	-0.013200634	-0.0061462866	-0.014541234	6.0798135e-05	-0.000732462	
-0.008007445	-0.0026789526	-0.0048766746	0.02093403	0.005536501	0.006733557	-0.0024741804	0.0072402544	-0.019239945	-0.010524067	
-0.006365494	0.0031144405	0.008648916	-0.01199888	0.017124886	0.005630555	0.0031843977	0.0060429284	-0.002355039	0.0062697646	
0.010344009	0.00284573	-0.0033918454	-0.0047103106	0.004322119	0.011984594	-0.00879641	-0.0019543422	0.0033485098	0.002645522	
0.02018307	0.013366854	0.014945248	0.0014776873	0.0037835967	0.003689618	-0.0045793094	0.0026824148	0.008768941	0.01297178	
0.013438945	-0.0115861725	0.0012786412	-0.009108279	0.008357919	-0.001684588	-0.001906127	0.013668951	0.0010377945	-0.0017048493	
0.0071925516	0.002939751	-0.011167243	0.014446422	0.021258416	0.032131877	-0.015538105	-0.0020117916	0.012708798	-0.01303282	
0.01072701	0.0073758787	-0.0062457784	0.0077959783	0.0073855114	0.0051947655	-0.0068786107	0.01612917	-0.0006599741	-0.0099664945	
-0.01152547	0.006376728	0.011999642	-0.0034637493	-0.004345115	-0.0099915415	-0.0029299601	-0.0035453036	-0.0064503085	-0.0109371515	
-0.014007625	0.010282904	0.0044853264	-0.00990269	-0.005078475	0.0035931966	0.005479553	0.015313714	0.016278367	0.007991023	
0.00855862	-0.013053255	-0.008095467	-0.0027553814	-0.0058046053	-0.0022008691	-0.021629333	0.00283728	-0.013531711	-0.005633069	
-0.0010275011	0.006513224	-0.0071159727	-0.0006387163	-0.00081580266	-0.0051811743	0.0061374013	0.0008121196	-0.0021342565	0.009157422	
-0.0059549664	-0.017010804	-0.0001957448	0.00411309	0.005139819	-0.003263016	0.0050197714	-0.0037246027	0.013631938	-0.00030759117	
-0.028686125	0.014445046	-0.009393537	0.00047826202	-0.0035518599	4.820477e-05	0.0051878467	-0.02437897	0.013019437	0.00966148	
-0.011873893	-0.0009124865	-0.01879459	0.013698668	-0.0023758241	-0.009879021	0.0035887074	-0.0051489626	0.004068591	-0.0025707742	
0.005750988	-0.0045963456	-0.006158306	0.008426954	-0.009606488	-0.008778093	0.00033956327	-0.013166992	0.0063408283	-0.012497466	
0.006353143	0.00861243	0.012164531	-0.0128374025	0.010495058	-0.0018744168	0.0058883894	-0.013292928	-0.00514601	-0.0022119049	
0.0027527774	0.0038587777	0.00802896	-0.0010244303	0.0069219987	-0.011196153	0.0015357725	0.006545591	0.013888216	0.0067246174	
-0.0013488864	-0.0008433349	-0.00029834177	0.021211326	0.007299642	-0.0036215042	-0.016139356	0.0036526558	0.014686793	-0.021579992	
0.013148733	-0.00019728368	-0.017657368	0.014252993	-0.0034082907	0.007355751	0.0003363497	-0.016896361	-0.02857123	0.0040718783	
-0.012018127	0.0021378358	0.007892919	0.009960859	0.015396785	0.006889801	-0.01472624	-0.0056044254	0.01883812	0.015266303	
-0.011604359	-0.0029021055	0.004534709	-0.009314674	-0.0257202	0.015909502	-0.00420098	-0.011304847	0.00900612	-0.01623395	
0.0075931237	-0.016946217	0.0048385356	-0.015466622	-0.019719658	-0.0031522783	-0.023313688	-0.015269536	0.006370604	0.0023189534	
0.017846273	0.0063424017	0.005453058	-0.0093647465	0.005778637	-0.0073199845	-0.0029424655	-0.0041855685	0.013949162	-0.0016919824	
0.009761309	-0.003542188	0.009909982	0.0058314465	0.0085057495	-0.01312028	-0.0035558187	-0.0022856037	-0.008171664	0.001826701	
0.0105501665	0.0031928918	-0.007738532	0.009348585	0.0050674244	-0.0068165106	0.008444539	0.005956726	-0.0012708415	0.016660435	
0.008920017	0.0054618595	0.0017921694	-0.009379788	-0.0074548167	-0.006311098	0.01780476	-0.0052611264	0.0039630667	0.007065258	
0.0023999512	0.0023426178	0.0120766945	-0.020489443	-0.00093509245	-0.001026748	-0.013465757	0.007736559	-0.017346783	-0.0084654465	
0.003809362	0.0019724888	-0.00093739905	0.0070906873	0.0099683385	-0.0009028006	-0.0042934213	0.0060300017	0.012812569	0.0062741544	
-0.000499229	0.015069757	0.0107289925	-0.0007164	0.0010229733	-0.0035944036	-0.0013487656	0.0012116452	-0.005310156	0.0006153648	
-0.0020392719	0.02034422	0.0037533478	0.003954652	-0.0018065722	0.008470175	0.0071796426	-0.00823951	-0.0071064876	-0.010807661	
-0.0072778002	0.0002507319	0.014852737	0.0051895203	0.0148990415	0.0012789533	-0.016582757	0.005040677	-0.0042084646	-0.010597914	
-0.012668699	0.00010351489	-0.010277435	0.019060943	-0.023117179	-0.005181136	-0.0028141823	-0.010317821	0.0025880907	-0.005299072	
0.0030002852	0.010592798	-3.8841117e-05	-0.009845025	-0.0025076307	-0.00027206948	0.006477535	0.016740508	-0.0018630087	0.003938083	
-0.004804351	-0.0016987666	0.0035032416	-0.009921165	-0.01469112	-0.0064839954	-0.0045744185	-0.006489496	-0.007181164	-0.0058324235	
0.019653339	0.0016664909	0.0028370752	-0.009011921	0.0074026217	-0.004001061	-0.0013624186	0.0061129406	-0.00041729555	0.009769764	
0.018788237	0.005700661	0.00027160134	-0.014798609	0.004739146	-0.0018597107	0.0061825044	0.008617095	-0.014038264	0.0016920555	
0.0032427663	0.0010763825	0.010571101	0.0034233588	0.0021232308	-0.007045323	0.0069563584	0.0099309385	-0.0032925762	0.0095699625	
-0.0069869026	0.0034668548	-0.013671348	-0.013661473	0.009290161	-0.014225066	0.008664169	-0.013144812	-0.0012018296	0.002200142	
-0.007967316	5.0697203e-05	0.0043649753	-0.003666036	-0.012363127	-0.015752858	0.022789381	0.007043064	-0.005400082	-0.0027665251	
-0.0034750234	-0.017344587	-0.007601765	0.0062583783	-0.007180991	-0.0056288717	0.0316652	0.0032324365	0.0070537333	0.0013643384	
-0.016276257	-0.0054813805	-0.0074360534	0.005787595	0.002224439	-0.0034014315	0.022106936	0.0056038927	0.0010093893	-0.014399686	
-0.0054710065	0.01044431	-0.01808122	0.011386864	-0.011563148	-0.022770861	0.010552308	0.003064772	-0.013916711	0.0125758825	
-0.0043968256	0.0021364833	0.006765809	0.013292856	-0.023065684	-0.00679998	0.011445594	0.0093311975	-0.0029560744	0.0031577297	
-0.011083442	0.0038216412	-0.008594336	0.00040514182	-0.022694634	0.015559031	0.006640763	0.00203624	-0.007045304	-0.011143165	
0.00057039695	-0.003891545	0.0036044389	-0.0065124924	0.0019189647	-0.002046449	-0.012744385	-0.019852027	-0.015046884	-0.0040823263	
0.003644162	0.003513673	-0.005450628	-0.019173954	0.0030338985	0.0008301046	0.01573012	-0.016154755	-0.0049103894	0.001028021	
0.01136809	0.003680665	0.005476423	0.0077755414	0.0025211575	0.011075668	0.010637677	0.01936669	0.016274238	-0.0020294106	
0.00814876	0.0041389274	0.0013118623	-0.004335	-0.0030935989	-0.0010530384	-0.0009461153	0.005701912	-0.0013242482	-0.009080421	
0.0011065769	-0.013724373	-0.01494817	-0.0035647785	0.0009045767	-0.010009813	0.0014929924	-0.0025390128	-0.0017666785	0.013524645	
0.0053663775	0.0106229065	-0.006120663	0.00060899515	-0.011891305	-0.010268235	0.012858906	0.0077454112	-0.0037672222	0.0039201463	
-0.020851493	-0.012905488	0.02353019	-0.014300957	0.0012084638	0.00031940424	0.00088375475	0.01532217	0.008091049	0.014568095	
-0.007822594	-0.004678331	-0.00852805	0.008739905	-0.0037779987	0.0066157817	0.0040905834	0.01481702	-0.008953465	-0.011342717	
0.010443536	0.002455724	-0.0099993	0.00034010527	0.0035072784	-0.0063568233	0.0051473514	0.019699063	0.013231519	0.019093987	
-0.0138988225	0.006162703	0.006234675	-0.013327316	0.0028401727	-0.013346149	-0.01862557	-0.009354808	0.0013553043	0.007233018	
0.004142043	0.0020469765	-0.010025107	0.0031300064	-0.00050701323	-0.0077570165	-0.0006184455	-0.010482466	0.004674273	-0.0015983118	
-0.0017821919	0.0037355535	0.023068994	-0.018049961	-0.0022028077	0.014783824	0.005317332	0.008976591	-0.0019058986	0.0031989706	
0.017883793	0.0007549653	0.0026228474	-5.6495533e-05	-0.010742727	0.0045475475	0.013871496	-0.012473504	-0.0017100736	-0.023920482	
0.012175908	0.00500487	-0.017577795	0.0043654405	-0.008739144	-0.000294527	0.002206089	-0.01406547	-0.007379017	-0.007804674	
0.0027935894	-0.0039462596	-0.0197014	0.00017017954	0.00422874	-0.007630951	-0.018448923	0.011856301	0.0151925385	0.0012156197	
-0.0077650095	-0.001593842	0.0077592344	0.001863356	-0.009290122	-0.00019763464	-0.0011093004	-0.0027092148	0.0070625152	0.0065372186	
-0.0033005737	0.012002597	0.0071817124	0.0061522173	0.0007733575	0.011398558	-0.007253969	-0.00045852573	7.12628e-05	0.0075722225	
-0.013044152	-0.0024066137	0.012524917	-0.0050237817	0.007114567	-0.0034578673	0.02963166	-0.0044324505	-0.00070000946	0.0039905454	
-0.0004104726	-0.013304139	-0.0014440037	-0.017406847	-0.008468968	-0.0075250356	-0.0010849873	-0.0010598025	0.010185788	0.010704055	
-0.010695628	-0.006160483	0.034796346	-0.010034391	-0.020530885	-0.018841935	-0.0065774173	-0.010715742	-0.0064998483	-0.0025425723	
-0.00112912	-0.018460514	0.01936358	0.022260152	-0.0042576697	0.011790294	0.016791679	0.0018446874	-0.013301071	-0.008807588	
-0.0051627303	-0.0054693874	0.019702826	0.003848049	0.0029060186	-0.028928049	0.0353815	-0.011184014	0.013670961	0.01262883	
-0.01069324	-0.024224013	0.029130504	-0.00023849911	-0.0011719278	-0.032440566	0.039290115	-0.002610251	0.005765419	-0.0068138274	
-0.014368385	-0.030128349	-0.002390196	0.0016828566	-0.011664581	-0.025152212	0.044011794	-0.009398144	0.0032522609	0.0071718204	
-0.006470241	-0.0075930087	-0.0025409278	0.012164365	0.0021785267	-0.035964552	0.061324023	-0.0042038104	-0.011234383	0.0040959874	
-5.7175355e-05	-0.0137803145	0.0063390606	0.0078113885	-0.015029645	-0.044503815	0.031786673	0.0023138458	0.004081865	-0.0149056325	
0.021413187	0.00069219817	-0.0035558466	-0.022008715	-0.0013521804	-0.0243594	0.03218822	-0.00066023273	-0.011057637	0.004266558	
-0.0038498316	-0.005071103	0.0009130365	-0.020342752	-0.0011508445	-0.027785877	0.012083158	0.008085398	0.026849262	0.011148804	
-0.0019649577	-0.010356178	-0.0060525956	0.017768966	0.00020845253	0.0014814902	0.002135482	0.0034759657	0.0023172966	0.012020332	
0.010580402	-0.00649979	-0.01932123	-0.009815929	0.0074858344	-0.006081843	-0.0016644312	0.0028408659	0.0044270577	-0.0012233362	
-0.016492037	0.012193052	-0.0090877665	-0.011830575	-0.022602327	0.00521281	7.42313e-05	-0.002376862	-0.0021108123	0.006224203	
-0.009778092	-0.016869677	0.006853913	-0.008711105	-0.006139549	0.0019434053	0.015912022	-0.012691115	0.008803122	0.0038853001	
0.009131351	0.007177664	0.002653573	-0.001832799	-0.0062263627	0.0005024976	-0.0056121247	-0.008534484	-0.0029941178	0.0064249043	
0.005247828	0.004478268	0.005194594	0.016263086	-0.007647202	0.004632185	0.005312148	0.01346226	-0.011134713	-0.016085656	
0.0046083047	-0.002549882	-0.0034406274	-0.0017254379	0.0012893269	0.0016546492	0.0016506094	-0.024837313	-0.00053883175	0.013436651	
-0.008458358	-0.010125769	0.0022673798	-0.015004367	-0.02229385	0.0036834017	0.0041685523	-0.000984872	-0.0040707137	-0.0044790083	
0.015551376	-0.006224029	0.013521364	0.029137976	-0.0044051996	-0.0055636447	-0.011509571	0.01170539	0.010868975	-0.00532222	
-0.016368827	-0.00810669	0.0067428146	-0.0040767347	-0.001118948	0.0003989913	-0.0041991984	-0.006076943	-0.0027681007	-0.0012021085	
-0.0053666523	-0.008694212	-0.015512613	0.0052721854	0.004305351	-0.0060876464	-0.0055313264	0.0017157549	-0.00096678955	-0.0033777403	
-0.0015716049	0.012468464	0.009905028	-0.001353684	-0.009998541	-0.00837144	-0.0083421925	-0.0105100665	0.012326234	0.013433645	
0.0075666066	-0.015214527	-0.005729841	-0.007451082	-0.025481075	0.006162809	-0.0044884128	0.011743336	-0.001953138	0.0016987819	
0.005033074	-0.005265773	-0.0079552485	0.007294762	-0.004912824	0.0074988063	-0.0007234113	0.0038043195	0.017109867	-0.0019288313	
-0.010547738	0.021160528	0.001509391	0.014317218	0.014052883	-0.0016749724	0.006030768	-0.01334649	0.009105117	0.00063276064	
-0.001419168	0.013541957	-0.013753085	0.007004725	0.0005863881	0.011339413	0.0053945696	0.0024187048	-0.004537311	0.0066276737	
-5.5234477e-06	0.0025745332	0.0138747	0.01727926	-0.007765226	-0.00572961	-0.0072639706	-0.0019536626	0.0015718332	0.0044912924	
-0.011937747	-0.019617654	0.012371465	0.026719393	-0.0032320614	0.013989274	0.012086476	-0.013056909	-0.008672114	-0.018009998	
-0.025735943	-0.020738166	0.01215375	0.031081581	-0.011432504	0.018314023	0.006743524	-0.011292481	-0.012860235	0.017359007	
-0.012851445	-0.03886668	0.02897079	0.035795882	0.013612052	-0.016189858	-0.0027279367	0.0005705454	0.0073155607	-0.00939155	
-0.018587297	-0.019410016	0.026668146	0.031529535	-0.035421815	-0.02160635	0.0195485	-0.018233383	-0.00407231	-0.011694247	
-0.026467707	-0.02290368	0.018396826	0.023554824	-0.023262648	-0.025374858	0.035068944	-0.0034698849	-0.012279897	-0.0042964113	
-0.006074279	-0.0117110815	0.040963538	0.041911256	-0.01862583	-0.026284656	0.039232656	-0.025205227	0.011304489	-0.024954945	
-0.0011951579	-0.019702459	0.027364485	0.03646215	-0.024682678	-0.03683517	0.032320566	-0.021468839	0.023673845	-0.0032193556	
-0.016179686	-0.023923565	0.013984896	0.019840622	-0.025194118	-0.032082275	0.051605232	-0.023159334	0.022121197	0.008654283	
-0.008913276	-0.0017910415	0.010472932	-0.009866287	-0.012128978	-0.0047416817	0.033044215	-0.015741367	0.0045742476	-0.018313333	
-0.0008613856	0.029373977	0.008576162	-0.0081182495	-0.009417699	-0.0059807603	0.034084998	-0.018794334	0.02236318	-0.0017339046	
-0.017686933	-0.0014395752	-0.01400946	-0.011673048	-0.000369108	-0.0065114996	0.019640904	-0.0043366738	0.020450013	-0.01272827	
-0.008764935	-0.0012615127	0.007632903	-0.008133666	-0.0009814482	0.002366578	0.00031088226	-0.004840233	-0.0050232126	-0.010104899	
-0.003218138	-0.014580782	-0.002979328	-0.010280456	-0.0029092045	0.028235236	0.017245322	-0.01645763	-0.007313323	0.015878446	
-0.02938419	-0.006004935	0.012494279	-0.00093889865	-0.026437528	-0.0011354099	0.011442351	-0.0103612635	-0.011947392	0.0024024907	
0.0068690586	0.002871851	0.0042044097	0.006209178	-0.0057680868	0.005643973	-0.016240979	0.010613897	0.026631057	-0.015833516	
0.0018037388	-0.019779613	-0.003324515	-0.005368145	0.00039971972	-0.006105442	0.0076439455	0.009159921	-0.0066848183	-0.01788247	
0.008537346	-0.011270805	-0.0021993853	-0.01435	0.012101262	0.006527444	-0.0017307816	0.004966699	0.0074555273	-0.00986772	
-0.012340834	0.0010505059	0.0096872635	0.014934081	0.01861784	0.0023871218	0.01395557	0.0024258045	-0.007327631	0.0033373707	
6.8911986e-06	0.0060445485	0.016964553	0.00746014	0.012366555	-0.0027416719	0.00088104577	-0.007515427	0.010684063	0.006819388	
-0.00975531	-0.0011218719	0.0011734794	0.005120528	-0.009744391	-0.0031484696	-0.014794207	0.020870538	0.023044543	0.022712773	
-0.002059868	-0.005074998	0.015296799	-0.009513742	0.002807612	-0.006575553	0.00047789124	0.0019056274	-0.008185885	-0.006031141	
0.0018618546	0.011942565	-0.008718635	0.0026003285	-0.015822254	0.011881009	0.0074751214	0.016231416	0.010264959	-0.018746223	
-0.0022047453	-0.016981266	0.0023005567	0.01680362	-0.009061291	-0.011789154	0.002451718	-0.015510402	0.008046722	-0.0134742325	
-0.0038862955	0.009484229	-0.012238807	0.0016054614	-0.0052445885	0.005833741	-0.0002716217	0.013721446	0.002739175	-0.0014462817	
0.004833859	-0.0037315215	0.016628452	0.01383539	0.008765865	0.013744158	0.0068972893	0.0023336103	-0.0036821614	0.0023275209	
-0.015243748	-0.0014076364	-0.009795379	-0.0047066775	0.015121935	0.0035815388	-0.016762225	-0.0064849462	0.0043752934	-0.016791303	
0.0021517281	-0.024525186	0.0117374025	0.019431498	-0.0036473158	-0.010976746	0.008161442	-7.603952e-05	-0.0035522236	-0.009382047	
-0.015162766	-0.016473902	0.013603923	0.024558611	-0.0016139743	0.00949585	0.0030890265	-0.009314678	0.0068674427	0.010355505	
-0.037161265	-0.02530653	0.011499574	0.061325427	0.0115265995	0.022318788	0.012286259	-0.006736461	0.008843672	-0.011162064	
-0.003099396	-0.03842903	0.008609622	0.04963487	-0.009662152	-0.0031196119	0.02134535	-0.019688383	0.010218149	-0.027113246	
-0.025473502	-0.03756633	0.0027454216	0.052849136	-0.00025916906	0.015722023	0.022605006	-0.022419646	0.030169763	0.0043728407	
-0.0091264555	-0.034277085	-0.0039761327	0.047911044	-0.018080277	-0.016876375	0.02499674	-0.014268533	0.03215152	-0.016091473	
-0.018861132	-0.020869618	-0.0037638869	0.07185798	-0.037537757	-0.03400496	0.054415867	-0.04964503	0.040824104	-0.0040591974	
-0.007611635	-0.012653221	-0.011492042	0.06320871	-0.03192991	-0.01115142	0.02410111	-0.04094364	0.059444554	-0.020299273	
-0.014424054	-0.01550693	0.010049663	0.047217358	-0.014201793	-0.016246215	0.039992325	-0.06486247	0.042377315	-0.018446751	
0.0066965204	-0.0040755463	-0.00054925075	0.00962103	-0.01241997	-0.026199285	0.02487832	-0.07361496	0.054852378	-0.017139604	
-0.012507616	0.006416457	0.0071673086	0.0031711813	-0.038409114	0.001516493	0.020561207	-0.05714981	0.049083732	-0.0037611611	
0.007929825	-0.00016934104	0.012224539	-0.012444546	0.0008036777	0.00046685137	-0.009612353	-0.03867847	0.046511088	0.0037748762	
0.025700528	-0.0012212408	0.011236009	-0.005189384	0.011583206	0.04330128	-0.021609358	-0.012060455	0.02549688	-0.023485746	
0.008145802	0.0038970252	-0.009841197	-0.029808823	-0.012339838	0.048479218	0.0028025024	-0.009603286	-0.000114286515	0.002383653	
-0.0030784253	0.0015047847	-0.027981753	-0.00331695	-0.0059429654	0.022216715	0.012030977	-2.3350058e-05	0.010258933	-0.018517798	
0.004550043	0.021295825	-0.008768668	-0.015576347	-0.003146478	0.024239834	0.0031222138	0.012443765	-0.006410772	-0.0012192347	
0.002297748	-0.00012325136	-0.0018114711	-0.027482541	-0.0073526497	0.030947266	-0.008343074	-0.017428886	0.008838851	-0.006131429	
0.006946107	-0.0048792143	-0.0010354936	-0.0006356111	0.008169647	0.006864841	-0.013913493	0.0187028	0.0044309273	0.0066270996	
-0.009259907	-0.0028731383	-0.008982884	-0.024530062	0.013591293	0.0009268182	0.00407899	-0.010388191	0.021285912	-0.0027322613	
-0.0077736867	0.008442764	0.004153064	-0.011276454	-0.017753987	0.02439916	-0.0049051093	-0.0037524356	-0.013489313	0.008337765	
-0.0013666451	0.001991263	-0.004490486	0.0028686353	0.012248069	-0.0075635235	-0.0038345875	-0.0064373137	-0.004102796	-0.025061583	
0.010290768	0.010278991	0.010714306	-0.007205521	-0.002863574	-0.009700127	0.0072921948	-0.0007191612	0.0021104156	0.008276135	
-0.0031444922	0.0049064984	0.013484828	0.004018845	0.0068165925	-0.023926677	-0.015335265	-0.0040114378	-0.0011435361	0.00662895	
-0.0011956992	0.009816376	-0.014813907	-0.00032882314	0.0015739771	-0.010929418	0.0014664625	-0.012589857	0.011987093	0.0038505953	
-0.01019605	0.0009503311	0.011590911	0.0011465776	0.0063207694	-0.013096887	-0.0026570107	0.009090136	-0.006763942	0.0011585399	
-0.0030541108	-0.003745763	0.0027905426	0.0069372063	0.0026911423	-0.017083421	0.0018778901	0.0019775277	0.0062567713	0.0045250324	
-0.0012097528	-0.025366433	-0.013269265	0.021236913	-0.0016031747	-0.015738672	-0.02751821	0.0054350463	-0.009074065	-0.008033899	
0.0036805265	-0.027785076	-0.014405224	0.046910543	6.713486e-06	-0.0066705504	0.006934333	0.016776638	0.0074642017	-0.004461865	
0.017267225	-0.017699199	-0.0123838885	0.027852805	0.007284073	-0.019877834	-0.005036463	0.011483018	0.0011623495	-0.0072115436	
-0.0059450953	-0.023266815	-0.040618494	0.045265336	0.008975195	0.008692517	-0.03227786	-0.008926112	0.02172966	0.009701287	
-0.023378072	-0.03168831	-0.011750999	0.06492227	0.019721232	0.006185115	0.0060453326	-0.0057032914	0.03944216	0.003535577	
-0.014560855	-0.034161475	-0.012572739	0.053597465	-0.016384378	0.0079663545	0.0098897675	-0.047952693	0.040092573	-0.00066522416	
-0.007768048	-0.032654025	-0.027279783	0.045741457	-0.029937955	-0.005766978	0.010701984	-0.03770197	0.04945096	0.029974297	
-0.024398629	-0.03579365	-0.019812597	0.04227919	-0.015609351	0.0017291242	0.027134199	-0.06544916	0.038906246	0.038059086	
-0.016029477	-0.024189418	-0.0065844264	0.08747041	-0.03821706	-0.011987423	0.04497425	-0.057418942	0.030545585	0.037097637	
-0.021104591	0.006156721	-0.030999947	0.057014618	-0.060071714	0.0025274039	0.02012025	-0.06734106	0.047738537	0.050704185	
-0.015939103	-0.012032791	-0.011964398	0.055841986	-0.045167226	0.028622415	-0.0038732449	-0.063133635	0.03713597	0.04909751	
-0.0112219965	-0.0076724123	-0.006886304	0.0290742	-0.02792716	0.0014189829	-0.01374049	-0.0704263	0.02945335	0.031169664	
-0.004354745	-0.010330222	-0.024029423	0.022499066	-0.013150028	0.0115600005	-0.003728149	-0.057710785	0.019468179	0.006708425	
0.013886012	-0.022826476	-0.020701237	0.006269892	-0.025134996	0.033168077	-0.012397381	-0.04113778	0.025550157	0.0069012498	
0.025341317	-0.022506515	-0.010905634	-0.026544202	-0.003645733	0.027518453	-0.00585687	-0.0121413395	0.025226584	0.010530788	
0.008357718	-0.018611249	-0.0026242014	-0.0077490844	-0.008949497	0.03308534	-0.01318419	-0.026040321	0.019706462	0.0052440134	
-0.00061176013	-0.021647912	-0.0017485362	-0.03908166	-0.0035955722	0.033003923	-0.0028595072	-0.018546486	0.014571472	0.0008849486	
0.0078623565	0.0077942475	-0.008800403	-0.026192991	0.00113566	0.04311461	0.0061679566	-0.019826634	0.0011080158	0.0013640772	
0.01700774	0.0036187838	-0.0014386006	-0.019550232	-0.015157685	0.013458921	0.012976145	0.002489888	0.009644577	-0.0022419698	
0.0010209538	0.0015351139	0.017480167	-0.007110846	-0.0013644686	0.0011585818	-0.008559097	-0.00077477796	-0.0028839707	-0.004948917	
-0.004878903	-0.0040893415	-0.0021784983	-0.00012222254	0.0044353935	0.012961573	0.0012638862	0.011775273	-0.011492148	0.001412488	
-0.0010598524	0.002782872	-0.01938059	-0.0110908095	0.005272999	-0.022575183	-0.002074183	0.0072956225	-0.014403485	0.0018776138	
-0.016526524	0.005660328	0.019850371	-0.003073776	-0.0013173815	-0.006863151	0.007916521	0.006867145	0.016478159	-0.008773697	
0.012242238	0.023290463	0.010087081	0.010433584	-0.014844857	0.0032088505	-0.009520883	-0.015767679	0.010238182	-0.0006970774	
-0.0054805623	-0.0037666904	-0.009123617	-0.017609417	-0.011484779	-0.00801645	-0.00060502574	-0.00011508278	0.017583126	-0.003928852	
0.010658504	0.0028738566	-0.008780147	-0.011837776	-0.006450994	0.005500601	-0.0049101682	0.0041326582	0.00075571303	-0.0031133518	
-0.0029960596	0.00051459897	-0.0011634494	-0.0033455866	0.0086353505	0.0053417995	-0.0015587526	0.013577234	-0.0029663702	0.011573133	
-0.010044235	-0.0072032404	-0.01225402	0.015733832	0.008997729	-0.009785002	0.0039458894	0.0035716007	0.0056736195	-0.002052851	
-0.01748618	-0.009506214	0.000734581	0.016066113	0.022984467	-0.012329606	-0.004791209	0.013250409	0.011416312	-0.013072596	
-0.009069011	-0.032327827	-0.01245544	0.015435863	0.016603682	-0.013070914	-0.022835104	0.019570582	-0.0036200453	0.013087858	
-0.0003190395	-0.013511079	-0.015260618	0.033303533	0.020704767	-0.00026635293	-0.021970151	0.008692204	-0.0133263245	0.008689537	
-0.001482613	-0.023776239	-0.016643556	0.03102349	0.006284929	-0.0022357185	-0.017944738	0.018678516	0.032279186	0.022619976	
-0.005949684	-0.024583686	-0.015762977	0.0069844415	-0.007877811	0.006358794	-0.018442135	-0.006993245	0.0074546705	0.02572155	
-0.017794322	-0.037657052	-0.018228168	0.017690696	-0.02543353	0.011988066	-0.004073891	-0.017857958	0.024265384	0.06275648	
0.0044753016	-0.039673317	-0.01217528	0.0013580102	-0.014903254	0.0016848298	-0.00438787	-0.015987046	-0.00045161124	0.06077071	
0.0048786798	-0.039008792	-0.011072726	0.004340036	-0.034809906	-0.0021198327	0.0031510347	-0.021951064	0.024825914	0.088324174	
-0.017955972	-0.004295305	-0.008539944	0.02415248	-0.060672056	0.008850304	0.007088286	-0.019397957	-0.026423294	0.101199485	
-0.0006763027	0.021830646	-0.028598081	0.045695234	-0.05559621	0.02226512	-0.013064168	-0.022228757	-0.0032010823	0.072529815	
0.0022909485	-0.0043347413	-0.036574766	0.039684445	-0.061170753	0.0041772393	-0.005859978	-0.008301773	-0.031022426	0.08365623	
0.015485293	-0.017184608	-0.034375742	0.046501666	-0.037994504	0.013034507	-0.045109868	-0.010848613	-0.014520037	0.062314972	
-0.0039712186	-0.014167226	-0.028159317	0.012001752	-0.026735976	0.017694296	-0.05447807	-0.018484227	-0.015866194	0.05801815	
0.007203247	-0.022609359	0.0015133241	-0.005061846	-0.016144028	0.051237933	-0.033666454	-0.000626956	-3.2869284e-05	0.03586903	
0.01877726	-0.014788703	-0.01777326	-0.00998554	-0.011908341	0.056743857	-0.021038655	0.0045162747	0.01861551	0.04522643	
0.016874472	-0.008339091	-0.006224941	-0.027333496	-0.0062922803	0.04732961	-0.0029243783	-0.014473794	0.011489176	0.007468948	
0.017253734	-0.008315088	-0.017999317	-0.025405392	-0.011498376	0.05171396	-0.011754101	-0.0043168	-0.00027447817	0.017620848	
0.0048010973	-0.0073367395	0.009511453	-0.023172129	-0.0022896754	0.042320594	-0.009544795	-0.021260861	0.008637769	-0.004247941	
-0.0028631985	0.0027948697	0.003995868	-0.022834577	-0.025974289	0.038095072	0.001126191	0.0046973014	0.0146110905	-0.013769224	
0.003368727	0.015532816	-0.0017733601	-0.010264873	-0.0064809844	0.013136184	-0.00358148	0.017076444	-0.004075766	-0.0010934339	
0.004519578	-0.005254484	-0.007100203	0.002537245	-0.021310274	-0.0074629425	0.0010369158	-0.012625027	-0.00031919387	0.01734071	
-0.0015810836	0.005406228	-0.003065538	0.0061635454	0.0032987345	0.016440181	0.006032052	-0.017521637	0.001607193	-5.8267837e-05	
-0.005718851	0.0036254595	-0.0051293373	0.0065086195	0.005113484	0.015200841	-0.0035738754	0.009263479	-0.0010331325	-0.009397328	
0.0015365351	0.004758825	-0.011218384	-0.017586822	0.0035161152	0.00392228	-0.0003024851	-0.0036418673	-0.007016588	-0.021533279	
-0.011054837	-0.0032137374	0.014023009	0.011304209	0.013989529	-0.0015569443	-0.019085268	0.0067897057	-0.0006300041	-0.0013517502	
-0.01215248	-0.0016574376	-0.0025344354	-0.0047891033	0.01687824	-0.008010321	0.0014083658	-0.0033876945	-0.003765509	0.011846557	
-0.025311038	0.007971597	-0.021636987	0.0046256348	-0.0035225274	-0.0004370536	-0.006841714	-0.002686209	-0.00014840603	0.008043209	
0.0096023	-0.010169874	0.006504929	0.017270518	-0.003987048	0.009871068	0.023142517	0.0047509256	-0.0176854	-0.02704857	
-0.019942747	-0.01638331	-0.013525476	0.017670956	-0.0030757776	-0.015274688	-0.026507953	0.03299107	0.006082139	0.0038357824	
0.0042556096	-0.004359432	-0.027766643	0.019823035	0.007050128	-0.020608105	-0.03244223	0.018281035	0.010791959	-0.008582138	
-0.004876375	-0.020697344	-0.0076630088	-0.001170725	0.008264583	-0.005905873	-0.036040846	0.022539759	1.7306651e-05	0.016684933	
-0.0023949968	-0.027045842	-0.0150923375	-0.028548986	0.0018249191	0.010281412	-0.04306176	0.032131054	0.022197856	0.024274437	
0.031147938	-0.03485022	-0.00250083	-0.021841973	-0.012668598	-0.010551585	-0.0200959	0.03740974	0.01401495	0.055148546	
0.023787834	-0.049728416	-0.0031610318	-0.017466469	-0.011917813	-0.001040492	0.00872221	0.028002439	-0.011826987	0.08647317	
0.011465116	-0.03080927	-0.026277231	-0.035167146	-0.016858278	0.0016234042	-0.0073178494	0.03320478	-0.013721408	0.0929667	
0.01734669	-0.016477529	-0.0070176916	-0.022044217	-0.04143045	-0.0009681057	-0.0028336502	0.036040958	-0.022360213	0.08270277	
-0.014856943	0.031393133	-0.02452253	-0.017630823	-0.068669096	0.004924922	-0.024015462	0.043895826	-0.030809253	0.08077783	
-0.0077573867	0.0288411	-0.03723451	0.029335473	-0.06448114	-8.97194e-05	-0.036229063	0.04795564	-0.04063455	0.05344883	
-0.020362318	0.03601923	-0.023568384	0.025969326	-0.047315285	0.025311496	-0.051757533	0.056955434	-0.049134817	0.073524565	
-0.013330223	-0.019075813	-0.020798663	0.024508704	-0.031046068	0.03640117	-0.032105535	0.051335514	-0.019677075	0.06083236	
-0.0072030206	-0.035556592	-0.01842613	0.04872647	-0.008987353	0.029461749	-0.042676207	0.02400137	-0.018622575	0.0532877	
0.015501986	-0.03338555	-0.03154148	-0.00644142	-0.0012618673	0.03682154	-0.050661262	0.009059795	-0.0016923379	0.056800254	
0.00011103079	-0.011157675	0.004028327	-0.025948549	-0.007838134	0.036020286	-0.04859223	0.01712296	0.008604845	0.03722315	
0.020770023	-0.016459234	-0.011191702	-0.009613235	-0.0028049145	0.062406	-0.030429525	-0.006383505	0.028499248	0.008157494	
0.01000765	-0.005076094	-0.005152465	-0.022899857	-0.014674372	0.044236366	-0.016825821	-0.016630905	0.0022183126	-0.0014024435	
0.0008498312	-0.010095128	-0.0068035466	-0.0020635114	-0.007827974	0.023787962	-0.0029057052	-0.019622864	-0.004648832	-0.011359626	
-0.018443886	0.008401206	0.0032762396	-0.007412123	-0.0023632592	0.023634775	0.0051825424	-0.0010100076	0.010174766	0.014680347	
-0.0058883624	-0.012891764	0.0079095345	-0.010547405	-0.003085805	0.009727835	0.0028508904	0.0063090594	0.01150545	0.015439097	
0.021044675	-0.0088403765	-0.011930654	-0.010518539	0.000564473	0.017144192	0.011474097	-0.022450991	-0.003648162	-0.004775258	
-0.0061705247	0.0031067466	-0.025234941	-0.017455913	-0.0065739816	0.013916864	-0.004875279	0.005722156	0.014428957	0.006978131	
0.00544546	-0.010965085	-0.002051802	-0.008633871	0.0020442184	0.012539891	-0.004552351	-0.021232821	0.0068365475	0.009296197	
-0.012363966	-0.0067542586	-0.008496335	0.0022429358	0.008519936	0.007871327	-0.013475026	0.017019156	-0.014430861	-0.002891371	
0.00022444833	-0.00903315	-0.0012936336	-0.011481369	-0.0052400255	0.0014251962	-0.0093699545	-0.015709529	-0.014007172	-0.0019140635	
-0.0063088993	0.012559018	0.005093243	0.019675225	-0.012267331	-0.008573844	0.026389373	0.0066283494	0.016798124	-0.020125147	
0.00771269	-0.020464014	-0.0008455488	0.0044024126	0.015019698	0.006063121	-0.0063844738	-0.003054437	-0.0030851357	0.0024669555	
0.005872722	-0.00049232517	0.020504052	0.005302236	-0.011266251	-0.0120217325	-0.0017596844	0.021797372	0.003018275	0.001518783	
-0.015229137	-0.020271467	-0.0015928525	0.0074084825	0.014425843	-0.0012570076	-0.014089236	0.030139074	0.0028988249	0.0073095276	
0.017999288	-0.0070405747	-0.0042117853	-0.016859034	0.0009380402	-0.0060987007	-0.037829265	0.040360197	-0.006555571	0.02960827	
0.031100878	-0.02645805	-0.011901148	-0.03131583	-0.0024701855	0.012483041	-0.03935835	0.054695453	0.0030652299	0.050294563	
0.033930257	-0.027569067	-0.011610903	-0.029842235	-0.010208814	-0.0064961277	-0.017158967	0.0648231	-0.0023243665	0.056486834	
0.019710204	-0.027232239	0.0169556	-0.069661096	-0.020326793	-0.021318896	-0.019267017	0.055505116	0.008613107	0.091049165	
0.017401315	-0.03758445	0.010187163	-0.05567592	-0.021957306	0.00782123	-0.04728025	0.050647713	-0.02683989	0.09119217	
0.04515025	-0.017440336	-0.016393911	-0.06652513	-0.03010435	0.007308362	0.00884593	0.034842055	-0.02288682	0.07478072	
0.005548218	0.022779932	-0.016714258	-0.0376066	-0.037030917	0.013308593	0.013734473	0.059212398	-0.02108536	0.051935382	
0.002142446	0.024457142	-0.006565412	-0.004352211	-0.06960864	0.023566952	-0.015865387	0.067787506	-0.030594738	0.04005052	
-0.01201277	0.05401786	-0.017858617	0.02057558	-0.05544573	0.022578763	-0.04565516	0.05201076	-0.024654044	0.034601353	
-0.025655374	0.025493205	-0.023854105	0.014104579	-0.061768606	0.01790952	-0.057412427	0.04514857	-0.01922658	0.016792642	
-0.014470919	-0.022222057	-0.023670452	0.034708235	-0.012648145	0.0075291027	-0.07699398	0.07301121	-0.03254265	0.07554592	
-0.0068131723	-0.027686335	-0.0236036	0.016975386	-0.013773793	0.007868369	-0.072991155	0.04284428	0.0047203177	0.0647697	
0.02912546	-0.025957035	-0.018369503	-0.0109508345	-0.0059695467	0.017338917	-0.061794195	0.0311413	0.0044741295	0.026867293	
0.03913915	-0.022635773	-0.017581604	-0.013143398	0.010095174	0.037172697	-0.03235509	0.006923423	0.02003943	0.030842982	
0.034085706	-0.02617619	-0.015318444	-0.031178702	-0.0049296254	0.019902272	-0.053650104	-0.030984284	0.023556367	0.004155792	
0.015244383	0.0021368768	-0.0029544758	-0.01954847	0.0021882453	0.01841393	-0.013025611	0.010328603	0.014684795	-0.006069224	
0.013879272	-0.015934153	-0.012801104	-0.020868503	-0.011369067	0.026015885	-0.014468137	-0.0155394105	-0.0035652837	0.004594618	
0.0019689777	-0.010073253	-0.0005620036	-0.0055840258	-0.006686028	0.03206589	-0.0038255996	-0.0057406044	0.013957752	0.003763436	
-0.011289781	-0.012174469	0.018853951	-0.010157588	-0.02400422	-0.00022516558	-0.015978822	0.010839207	0.0053446586	-0.0016679488	
-0.005364218	0.004769884	-0.0042316923	0.011617112	-0.006571952	0.016532173	0.0059934133	0.008761886	-0.012284957	0.01738576	
0.029818656	0.003985095	0.0049487245	0.0023410793	0.0056584994	0.0071327193	-0.020139491	0.0052305516	0.010194448	0.002648064	
-0.01646936	-0.009867721	-0.01313698	0.0005287661	0.010727714	-0.014325405	0.0026436495	-0.004443411	0.0034351568	-0.009129824	
0.016310649	-0.023866093	0.0098827835	0.008940654	0.0026241015	0.003800218	-0.011637813	0.008549673	-0.015721558	0.002825422	
-0.012282926	-0.01725927	0.008313024	0.014152877	0.001861943	-0.005132691	0.005797497	-0.00096292025	-0.015067026	-0.010423479	
0.002894523	0.022136081	0.0099102035	-0.0030366043	-8.685919e-05	-0.015190516	0.0018798563	0.0117158145	-0.0028321396	0.0010479961	
-0.008815793	0.014963014	0.002928857	0.011625964	-0.01866267	-4.242414e-05	0.010403739	0.0351471	0.00443692	0.014406786	
-0.019130675	-0.00416445	0.005748378	-0.007821159	0.007935846	-0.0033317967	-0.007058721	0.029179674	0.0015988203	0.010707025	
0.013731173	-0.0014830003	-0.007531595	-0.012938076	0.00021234123	0.00432401	-0.030244753	0.016663428	-0.020064099	0.011815188	
0.007704674	-0.03920744	0.012287609	-0.018818071	0.010639254	-0.01904338	-0.022002507	0.033158213	-0.0024693275	0.028346123	
0.0057132035	-0.019349173	0.004218073	-0.025010372	0.008636742	0.0072661247	-0.016570764	0.04107225	-0.0121202115	0.037581626	
0.03505434	-0.01671674	-0.01907308	-0.056594484	0.0018787477	0.001252248	-0.01588951	0.0214962	-0.014477265	0.070810564	
0.011839123	-0.020638406	0.0023809075	-0.08354444	0.001632645	-0.0029943755	0.0026232905	0.020638019	-0.021203788	0.08001621	
0.00967054	-0.028315859	-0.012740447	-0.08083663	-0.007435191	0.023898996	0.004407096	0.027763497	-0.0036031713	0.048042476	
0.02242295	-0.014964429	-0.017471759	-0.04593646	-0.024199115	0.0015781244	0.015722904	0.018664056	0.0008156385	0.02725885	
-0.0048751077	0.02250284	-0.039582532	0.00073166494	-0.05356999	0.014229732	-0.0073449574	0.03396807	0.011561607	0.012596119	
-0.022224713	0.048175734	-0.042511616	0.044845715	-0.057256233	0.013114629	-0.018933829	0.023781806	-0.0037304116	-0.018214302	
-0.035245124	0.060715426	-0.035321042	0.029918808	-0.03364262	-0.005990309	-0.023993252	0.01762383	-0.0075802077	-0.015794277	
-0.04904655	0.021041369	-0.04107517	0.041062117	-0.010187618	0.013750622	-0.0847279	0.036874566	0.010308627	0.025300572	
-0.019219683	-0.021989323	-0.03635733	0.04427988	0.020638984	-0.0050173206	-0.068338335	0.05095562	-0.0063172746	0.046446063	
0.0028503903	-0.047626108	-0.024183929	-0.0060854973	0.03506016	-0.012102052	-0.06786009	0.04210625	-0.006907087	0.07767768	
0.010977639	-0.041242752	-0.0118984645	-0.010134873	0.025530366	-0.026074613	-0.04865483	0.010332988	0.018588945	0.054986965	
0.02081213	-0.038484316	0.004859636	-0.012582342	0.011417759	-0.018604496	-0.047024593	0.006589157	0.011607665	0.038157515	
0.025258884	-0.01105638	0.0053857006	-0.023807842	0.01346986	-0.020504232	-0.03661684	0.019623535	0.012364877	0.017636314	
0.01624841	-0.030741071	-0.018980945	-0.009343101	-0.006002595	0.0081484	-0.026404543	0.0022760034	0.026321031	0.014076982	
0.020817587	0.011221114	0.009948587	-0.000957776	0.006770128	0.010982674	0.005585755	-0.00028250302	-0.011042626	0.010454084	
-0.017098311	0.004661796	-0.00756104	-0.01592502	0.0039670714	0.0063965283	0.0008777557	0.005620195	-0.0014955328	0.005452939	
0.0062589073	5.3322117e-05	-0.00026026877	-0.00075528194	0.010610724	0.007906802	-0.00770218	0.009074159	0.006221212	4.4586704e-06	
-0.0074785403	-0.010470872	0.00893691	0.0041090865	-0.0018028026	-0.0025076887	0.004041709	-0.0049007107	-0.00279683	0.0059376257	
0.018648578	-0.0041809683	0.0041519618	-0.019653393	0.011575413	0.005876671	0.013291721	0.023183927	0.0009667339	-0.0008096604	
0.0027264373	0.026932541	-0.0032167286	0.018825462	-0.0075884196	-0.0071318094	0.0061572315	-0.006815288	-0.011187454	0.00021115298	
-0.013333763	-0.010061551	-0.0083192	-0.00057851884	0.0005801041	-0.00833284	0.0069597317	-0.0016238726	-0.0006994569	-0.0066567394	
-0.0069419798	0.003423621	0.00655466	0.0074881474	0.022221196	0.0022394743	0.009635119	0.020547789	-0.004196908	0.0017132412	
0.0028082205	0.0026590768	-0.0021375027	-0.010075359	0.017251728	0.0040881024	0.0005917024	0.008962391	0.0068723327	-0.006447486	
0.005525602	0.009304144	0.006996859	-0.020491304	-0.017731415	-0.001239814	-0.016702775	0.029358849	0.008893611	0.0060487273	
0.002116995	0.006446893	0.01786884	-0.006307378	0.025585216	-0.011361872	-0.0008136116	0.012647465	-0.00029183936	0.019028181	
0.0034338415	-0.0054201055	0.008125993	-0.017696325	0.012559395	-0.018784158	-0.0041169096	0.008718318	-0.00079154107	0.026831057	
0.020109372	-0.0005522176	-0.011347587	-0.027978403	0.004706102	-0.024152232	0.00278437	0.02253286	-0.019324811	0.031565815	
0.051087383	0.008698852	-0.025741292	-0.0625216	-0.0016947626	-0.006253822	-0.003353838	0.007991796	-0.025504008	0.05135604	
0.022064563	-0.03636237	-0.015213834	-0.08226085	0.018316383	0.014841028	0.0096108345	-0.0054067587	-0.040839452	0.092936136	
0.030606642	-0.016525352	-0.032509368	-0.07264361	0.0068449774	0.013970856	0.037612025	0.019417496	-0.009641041	0.061704356	
0.012676144	-0.026128562	-0.03427367	-0.07189255	-0.005158368	0.030296626	0.036256254	-0.0026876542	0.0025222083	0.042300668	
0.006747018	-0.01610146	-0.044729896	-0.023916518	-0.008372609	0.024471639	0.050742235	-0.02662056	0.048093777	0.009991863	
-0.001401253	0.019283118	-0.07991999	0.021262193	-0.012952155	0.005531557	0.013427047	-0.017396186	0.023670437	-0.015430994	
-0.043021753	0.06799199	-0.06303909	0.07250336	-0.0454958	0.001384688	-0.0018688159	-0.011195407	-0.0003148464	0.0074884538	
-0.06583999	0.08064068	-0.049919125	0.07825799	-0.0137984855	0.0024574674	-0.024878295	-0.012153601	0.015700174	0.013160052	
-0.035735156	0.034642674	-0.01419784	0.058955684	-0.0026088543	0.0052058552	-0.06024363	0.017288899	0.025257915	0.043958157	
-0.041772585	-0.017333146	-0.022566117	0.005558729	0.030656198	-0.008764358	-0.05586927	0.040776163	0.019189736	0.08318742	
-0.021030592	-0.033024896	0.011355986	-0.012586417	0.03232848	-0.026116125	-0.043702025	0.024240378	0.016013216	0.0645297	
-0.01173563	-0.022207556	-0.0050945207	-0.010692038	0.025037572	-0.051735952	-0.029189425	0.03518379	0.010977161	0.06962896	
0.012706308	-0.031153714	-0.020420589	-0.03995126	0.022486312	-0.018784236	-0.01643203	0.019228322	0.015094148	0.028431054	
0.020854995	-0.025126789	0.0066537	-0.010004825	0.0074007185	-0.019500058	-0.022361524	0.007947911	0.0049409475	0.0042677904	
0.026659878	0.00432179	0.008013959	-0.0084526455	0.007033013	-0.009876079	-0.007738105	-0.010673359	-0.002563644	0.0022054333	
0.02236015	0.006379694	-0.0016887422	-0.008392923	0.003184534	-0.0036384307	-0.010096931	-0.0026565976	0.0025884584	-0.0056811636	
0.0023927316	-0.0077689015	0.01422977	0.0006843813	-0.0055366405	-0.0041014175	0.0129413605	0.013517192	0.008517767	-0.0035201195	
0.0169802	0.019475732	0.008474341	0.004406752	-0.0022357956	-0.003710038	0.018252727	-0.008736854	0.0035961338	-0.013863865	
-0.016474795	-0.005918302	-0.0009293846	0.015881276	-0.021082532	0.00041040528	0.021949904	-0.007645832	0.006495425	0.01658212	
-0.017087836	-0.00561212	0.0116014015	0.0009099154	0.0056893555	-0.015986566	-0.003118582	0.0030192959	0.01601145	-0.015626138	
-0.010553192	-0.01148182	0.0013951637	-1.0806558e-05	-0.0056151687	0.0022254505	-0.013802745	-0.02165133	0.009775236	-0.004631647	
0.0016921278	-0.0051358696	-0.006167482	0.008902693	-0.003719889	-0.018576121	-0.016746579	-0.0027232724	0.0027468472	-0.009979668	
0.022067374	0.002781044	0.009879325	-0.010809586	-0.008394022	-0.010823403	0.0099289585	-0.016224936	0.009695427	-0.011580251	
-0.003207182	-0.007999647	0.006868141	-0.002018017	0.0012902456	0.016988281	-0.021189531	-0.014525263	-0.003425204	0.015745323	
-0.018154262	0.013477157	-0.0055294265	0.0015505323	0.0019320403	0.010126376	0.005775231	0.0016097067	-0.01677657	0.0023866834	
0.003036734	0.011266763	-0.016710646	-0.0063137077	-0.0014569124	0.0012313104	0.008156308	0.0071544084	-0.017659444	0.0211296	
0.0072080055	-0.0068388856	-0.0017873842	-0.03952664	0.0044868225	0.005938044	0.005674896	0.0098735	-0.014105309	0.04715667	
0.018327849	-0.02608913	-0.020831307	-0.049170937	0.021764183	0.0009645998	-0.019074729	-0.0006841556	-0.032394666	0.040484592	
0.028544623	-0.036483172	-0.023681208	-0.0623688	0.043151654	0.01969049	0.008888879	0.0041129855	-0.021793801	0.05173769	
0.029100657	-0.001895717	-0.029929211	-0.06658112	0.018806184	0.03131773	0.014112409	-0.0075465683	-0.019598108	0.07816541	
0.04676705	-0.012499552	-0.05195338	-0.0745786	0.013755757	0.04835529	0.02756251	-0.016613573	-0.014124826	0.053010244	
0.011986474	-0.021510607	-0.061573368	-0.030440781	-0.026383238	0.020494232	0.024550349	-0.035756335	0.023054626	0.021603364	
-0.006992287	-0.008115364	-0.06207217	0.0027027596	-0.03769115	0.022189252	0.036388885	-0.035647456	0.036162034	0.012312716	
-0.03010054	0.030338569	-0.07433684	0.05475835	-0.018092947	0.033585757	0.02205519	-0.025485612	0.035504602	0.012447082	
-0.083394654	0.07860119	-0.06227638	0.07841293	-0.013386675	-0.003312495	-0.014249062	-0.04299972	0.041826405	0.019957738	
-0.06483148	0.071175374	-0.07288787	0.061313458	-0.021682186	-0.009901698	-0.015480267	-0.028568879	0.0060545076	0.04161342	
-0.07854367	-0.00097374816	-0.029707242	0.041322485	0.0092391	-0.007884401	-0.041092753	-0.0055469396	0.012389103	0.050051183	
-0.04570768	-0.052598704	-0.0074090934	-0.0155470995	0.04449713	-0.026670715	-0.01265425	0.035140835	0.0066959457	0.1047849	
-0.027578333	-0.050121978	-0.018758947	-0.0257096	0.04589753	-0.042072043	-0.03289661	0.025598023	-0.0070821573	0.07880094	
0.0009305971	-0.03579165	0.005065659	-0.034311406	0.03351776	-0.013468561	-0.021315768	0.03149558	-0.0029802362	0.03660002	
0.006173566	-0.016903073	-0.005521579	-0.011058718	0.016795382	-0.015091533	0.016910914	0.036105644	0.0050337506	0.03507637	
0.032162804	-0.0023834934	-0.0045164376	-0.007266866	-0.010768486	-0.029367808	0.009458351	0.023543984	0.0037361912	-0.007561098	
0.01773367	-0.01324303	-0.003373644	-0.013053567	-0.0004944007	-0.0020229288	0.011121562	0.0052441563	0.00040988773	0.009920844	
0.03596052	-0.019290514	-0.033854377	0.011781626	-0.019114807	-0.012674323	-0.0016336932	-0.0041346	0.0018489399	-0.00229807	
0.032664716	0.007727015	-0.016556902	0.0012279898	0.0006988249	0.0154997185	0.021727355	0.018214837	0.00898352	0.0070729954	
-0.012045294	0.0012885572	0.009502991	-0.008882764	-0.0066306046	0.008799378	0.0064975214	0.012635449	-0.00035849353	-0.01042496	
-0.008981617	0.00846767	0.0154727055	0.007975885	-0.023860263	-0.013994176	0.003967133	0.01913234	0.00551407	-0.0060630455	
-0.0069189486	0.02175662	-0.009445448	-0.0016134725	0.017188057	0.004759745	-0.010016049	0.0064196624	-0.003748641	0.0045590703	
-0.017416244	0.009242602	-0.008074886	0.009027681	0.004682046	-0.008536072	0.000983078	-0.0014836383	-0.0023992497	-0.007506915	
-0.016227223	-0.0006225513	-0.0060520493	-0.008609284	-0.007970566	-0.014442366	-0.014297892	0.0030716548	-0.003082409	0.0012788491	
0.001678212	0.012099396	0.0010181649	0.00092366245	0.006917843	-0.0076027606	0.006603653	0.0028902602	-0.021169165	0.0014661964	
-0.0029232549	-0.006750403	-0.012403337	0.0012599541	0.017652448	-0.0017120454	0.007281059	0.007365974	0.0048587504	-0.007956556	
-0.008297228	0.00035884348	0.009912083	0.008352701	0.002207287	-0.00065840996	-0.0207245	0.0073774913	-0.014760225	0.006754526	
-0.003507791	0.00012237075	-0.011318789	-0.007670518	0.0011406958	-0.0078204	-0.0137121	0.001891366	0.01385417	-0.014198192	
0.023133947	-0.011650736	0.002471309	-0.030858127	-0.0034082595	-0.011569848	0.0039577195	0.010801043	-0.016225846	0.026195018	
0.017745495	-0.003185163	-0.017734801	-0.03267639	0.019401573	0.022297565	-0.0013731336	0.0052623814	-0.019174045	0.03659299	
0.031209523	0.0010825484	-0.06161749	-0.08500644	0.016359596	0.048565757	0.018609455	-0.004771916	-0.022573931	0.056055024	
0.034379236	-0.016384332	-0.04890918	-0.0730105	0.01131144	0.044326868	0.04955295	-0.029158227	-0.03340108	0.06116133	
0.034876306	-0.020696973	-0.058639385	-0.05217069	0.000153803	0.049758207	0.044068683	-0.013228465	-0.022416398	0.04935366	
0.013958849	-0.02625785	-0.07955682	-0.0032051126	-0.03172199	0.024123417	0.053304862	-0.027542425	0.019934464	0.017087791	
-0.010902569	-0.011903946	-0.07900374	0.042456813	-0.011508157	0.033958293	0.029084075	-0.08266773	0.049553365	0.03302326	
-0.049505603	0.05152908	-0.058162417	0.046313304	-0.043742325	0.02116691	0.024737598	-0.06461767	0.03900619	0.06126323	
-0.08201875	0.07308465	-0.052168198	0.06541326	-0.006570666	0.020959832	-0.00209723	-0.053134345	0.015915595	0.031331714	
-0.07170367	0.048426997	-0.042093653	0.0555082	-0.00977549	-0.011053756	0.008006917	-0.035987403	0.019129263	0.060638726	
-0.068574004	-0.009042612	-0.038071	0.011554914	0.030847369	-0.009367141	0.00018774159	-0.0038505844	0.007530031	0.08431084	
-0.04126877	-0.05454762	-0.026648818	-0.031045027	0.030414093	-0.028613932	0.00032791164	0.018072264	-0.0388998	0.10251497	
-0.035111457	-0.05024688	-0.00023305458	-0.05362518	0.051888797	-0.051451594	-0.0012776374	0.053985566	-0.009818525	0.07694313	
-0.028940707	-0.015405643	0.0012417764	-0.038819984	0.019716084	-0.039735153	0.028952802	0.030089632	-0.019691532	0.050161052	
0.008807283	-0.012769142	-0.0033462085	-0.036325067	0.017846001	-0.024858564	0.033813395	0.008726009	-0.0011084251	0.016442398	
0.02883225	-0.027330581	0.00659959	-0.021655858	0.023501758	-0.019745009	0.02164016	0.005382795	-0.0028826604	0.022664841	
0.044290725	-0.0053880075	-0.0042858585	-0.0061291247	-0.011751706	-0.01557461	0.013157779	0.001390178	-0.010234607	-0.008996425	
0.029571967	0.008049389	-0.0058574798	-0.006176376	-0.008165055	-0.0056896317	0.0167157	0.0021139923	0.0065435683	0.0041399538	
0.016506027	-0.010477116	-0.007500313	-0.009916896	-0.017565407	-0.008735267	0.006351274	-0.008100695	-0.020309675	-0.007186185	
0.0080831405	0.0033794227	0.0059188884	0.01974535	-0.012113584	1.08146805e-05	0.016258204	-0.011019064	0.0021821903	0.0059908596	
0.005170858	-0.0017203433	0.021963641	0.006445229	-0.011923755	0.0021464892	0.021148307	0.010278415	-0.0034770074	-0.0128729725	
0.0067450074	-0.01180512	-0.006634408	-0.004549797	0.0006403318	0.0030095046	-0.006434249	0.0052375705	0.012601172	-0.022138517	
0.031146975	0.016102586	0.014311775	-0.007925269	-0.00038431791	-0.014093573	-0.009051585	0.008951606	0.0075402306	-0.02059149	
-0.004737447	0.015554821	0.0042489134	0.008449608	-0.015358165	-0.008196448	0.017944321	0.014478746	-0.011102861	-0.006138841	
0.009881398	-0.0011058482	-0.012520369	-0.010432604	-0.0071801674	0.008330097	0.017022362	0.0031244	-0.0085199755	-0.006178868	
-0.002700308	0.0026366273	-0.011818701	-0.006720099	0.012204205	-0.003378643	-0.007644999	0.008331574	0.010384088	0.012840494	
0.009550938	0.0009911992	-0.0099408785	0.0044792998	0.0027225942	0.0017300696	-0.010790596	-0.0019934752	-0.02701348	0.0052793985	
0.018136743	0.00045345238	-0.0022226712	-0.02009037	0.010843368	0.0053670364	-0.00062750746	0.008255629	-0.004966719	-0.0020765774	
0.046105698	-0.010973114	-0.017488413	-0.017570144	0.009012117	-0.0040875836	0.030860305	0.0015231615	-0.023626702	0.017054677	
0.034370363	-0.010680145	-0.022267068	-0.053793445	0.014171358	-0.0032875868	-0.0018766397	-0.0086544575	-0.02063113	0.03973467	
0.051689446	-0.0060205	-0.048802696	-0.08098292	0.0467845	0.0063923965	0.03154822	-0.0038401636	-0.032860644	0.054994732	
0.026580779	-0.0147161875	-0.052741587	-0.0704886	0.036304474	0.019948132	0.056287654	-0.0106485775	-0.02724503	0.05262509	
0.016964044	-0.008337964	-0.05794101	-0.048732895	0.012990277	0.045585	0.051041204	-0.05410224	-0.007408196	0.060848277	
-0.019850345	-0.011836713	-0.035717543	-0.03679896	-0.01478689	0.03627574	0.044545162	-0.048986085	0.026409108	0.03424583	
-0.026663654	-0.0012503206	-0.022420553	0.0070381532	-0.0036425195	0.02493427	0.021997014	-0.0564465	0.03763638	0.055308413	
-0.08552208	0.047142804	-0.021571012	0.020777484	-0.0071059903	0.0071773487	0.015572328	-0.057888243	0.04836084	0.03652742	
-0.0783723	0.07837409	-0.054621294	0.012559025	-0.037519168	0.0031209628	0.0251584	-0.07132784	0.041108254	0.059605464	
-0.061306283	0.02643543	-0.037283994	0.001221999	0.017269934	-0.03391909	0.006297552	-0.026348991	0.035423756	0.09147606	
-0.04393899	-0.03152045	-0.024621312	-0.022722188	0.061658546	-0.046820167	0.029923832	0.029899528	-0.010062218	0.08912551	
-0.043742184	-0.057633393	-0.023137612	-0.036898833	0.06567411	-0.03281329	-0.011228378	0.02166486	-0.022891523	0.10371764	
-0.022823285	-0.038417187	-0.035864133	-0.041341588	0.037713867	-0.043909244	0.027749712	0.040792715	-0.020741407	0.08286142	
-0.0013999667	-0.02532378	-0.018493125	-0.046353865	0.029887903	-0.0035921608	0.025675243	0.015746804	-0.019652167	0.025337238	
-0.00041877292	-0.028343616	0.018943893	-0.017814474	0.018809082	-0.030714722	0.0180628	0.019485567	-0.002275811	0.0233696	
0.013607597	-0.012356872	0.0023715098	-0.02469379	0.031892657	-0.031430643	0.05743813	-0.000875777	-0.0085611865	0.0024048183	
0.03298298	4.644709e-05	-0.015165988	-0.0108404085	-0.02150552	-0.0073916116	0.0205272	-0.007888938	-0.021736477	-0.0027971955	
0.025744693	0.0046928283	-0.002043052	-0.0040603154	0.0033392278	-0.0035242888	0.0047489842	-0.028493894	-0.010018687	-0.008575574	
0.02363009	-0.008441589	-0.002741083	-0.009370534	-0.008101876	0.0057685403	0.023425896	-0.002353526	5.2936142e-05	-0.009949227	
-0.02514432	-0.0022238796	0.009849111	-0.01834442	6.551214e-05	0.0047152624	-0.007142485	0.002804049	0.00074662856	-0.020150859	
0.006373844	-0.015675249	-0.008970428	-0.0068658143	-0.007610908	-0.022453194	-0.006238829	-0.0011729918	-0.008931984	0.020220723	
-0.012223357	-0.00980695	-0.021242665	0.010271369	0.010169878	0.036616217	-0.007182197	0.01160247	0.008421153	-0.0070963283	
-0.0043662786	-0.004198115	-0.017374989	0.012291771	-0.0014090074	0.009227312	0.022484299	-0.0058047813	0.0010158172	-0.0023616932	
-0.013563934	-0.010470346	0.008141015	0.006413262	0.011561012	0.002076154	0.013096674	-0.015346205	-0.0046651918	-0.0037441284	
0.010000644	-0.010767173	-0.006793599	-0.00909125	0.0054501495	-4.155577e-06	0.014530096	0.0043135025	0.017068498	-0.0121472	
-0.0053767525	-0.006221426	0.015269948	0.01836281	0.018318204	-0.0024033338	-0.011082785	-0.008274253	-0.001823361	-0.010302974	
0.017874224	-0.014836268	-0.0005674673	-0.00078432285	0.0024781707	-0.0059578703	0.010926039	0.0024011524	-0.008083899	0.020843245	
0.02709789	-0.008814819	-0.000887083	-0.0104835825	0.03126691	0.002994857	0.0077591124	0.01900759	0.018021636	-0.0020764018	
0.029066117	-0.017316971	-0.019900478	-0.034379512	0.033341337	-0.023497308	0.009424398	-0.0004219625	-0.013837512	0.02531136	
0.042787235	-0.012605617	-0.0049657924	-0.06654563	0.015570139	-0.014577394	0.02393475	-0.014938069	-0.030415315	0.032430675	
0.02365736	-0.0040961755	-0.016805207	-0.070249304	0.046880692	-0.0004987118	0.027404297	-0.01682136	-0.030780092	0.044757593	
0.018073836	-0.029273815	-0.008045128	-0.056595847	0.031017903	0.0011073216	0.04612646	-0.02462877	-0.034694992	0.050252054	
-0.0071183364	-0.04384515	-0.015164163	-0.046679053	0.029278873	-0.009024647	0.057574213	-0.04443807	-0.013743553	0.06009078	
-0.022732992	-0.031647578	-0.014791871	-0.035940196	0.038721684	-0.013368416	0.03239745	-0.045868147	0.00079120655	0.07298678	
-0.07084337	-0.03084362	-0.0026694962	-0.033920377	0.03276612	-0.0015763057	0.032387868	-0.050305672	0.040996328	0.047118433	
-0.10254992	0.041151773	0.0313059	-0.03366678	0.007154413	0.0065402803	0.017232334	-0.060018815	0.036883794	0.043276917	
-0.07249565	0.06564029	0.039189935	-0.03501035	0.0015967109	-0.0070055546	0.010004915	-0.039988838	0.03535924	0.059484858	
-0.09425094	0.016971689	-0.011240566	-0.048821278	0.03162819	-0.021621924	-0.00047919294	0.00150103	0.03429226	0.08985853	
-0.07149171	-0.06033516	0.017781883	-0.04172243	0.05480811	-0.020587727	-0.01296792	0.008783929	0.006546484	0.10984694	
-0.046650484	-0.051664807	-0.02285634	-0.02479554	0.047464497	-0.024769869	-0.0034386853	0.04485908	-0.011035952	0.09296124	
-0.029658798	-0.036289863	-0.033560097	-0.010532375	0.022548687	-0.020878993	0.0067311153	0.04255364	-0.041961353	0.069614984	
0.010335182	-0.028465584	-0.01330162	-0.019168315	0.012107139	-0.012977965	0.015587463	0.01756204	-0.010492576	0.033668965	
0.03207214	-0.016778322	-0.020360684	-0.0065702824	-0.006263861	-0.016341005	0.014590901	0.024254687	-0.016721768	0.026248656	
0.029642614	-0.010059295	-0.008496933	-0.008862713	0.003786695	-0.024619343	0.039880387	-0.006878383	-0.0038208717	-0.010799807	
0.028484082	-0.011159894	-0.012487683	-0.0008614184	5.3440774e-05	-0.024295678	0.03500553	-0.004195025	-0.0026063295	-0.006182037	
0.027981691	-0.008707465	0.011578634	-0.0007807443	-0.015089902	-0.023175504	0.0065507903	0.0035860247	0.008209621	-0.0046545584	
0.001258667	0.008757297	0.004350664	-0.011007158	-0.013971792	0.009920483	0.0075877057	-0.0050890525	-0.025929237	0.010662802	
-0.0136813065	0.0058670454	-0.002195145	-0.01818332	-0.011125412	0.0071434346	0.017000536	0.0007126976	-0.0047955997	-0.0030186814	
-0.012877798	-0.008586691	-0.007540886	0.006060883	-0.0016820919	-0.0031097727	-0.01300744	0.014693095	-0.02011101	0.008493661	
0.005099541	0.020787591	-0.00031363592	0.001985787	-0.0015785384	0.021482265	-0.0046804384	-0.0071859173	-0.011811974	0.0068753352	
-0.015507969	-0.011422292	0.010856367	-0.0019020052	3.5131066e-05	0.0029426438	-0.0076700076	0.006936534	-0.017596321	-0.0012980173	
-0.0013613666	0.0021776266	0.0063987286	0.002034034	-0.009095041	0.0054603927	0.00013110081	0.006848077	0.004242099	-0.011774486	
-0.0028389692	-0.019389326	0.010285079	0.0126884915	-0.0045924224	0.008828393	0.00020151283	-0.0020594324	-0.004741125	0.0110613555	
-0.014710448	0.02653537	0.01220666	-0.0015348342	0.00788489	-0.004192243	-0.022138992	0.0043325387	0.0024052085	0.0001476047	
0.011710939	-0.012873716	0.0033150408	0.014033728	0.009861185	0.008688207	0.00030859528	0.01025024	0.010310175	0.0010708608	
0.014721078	-0.012673767	0.013845936	-0.012860211	0.0037443445	-0.0048183585	0.0038390285	-0.0041759154	0.007428954	-0.002290581	
0.027315669	-0.02459924	0.029723603	-0.021297527	0.011047478	-0.012312271	0.007275451	0.004806471	-0.006176714	0.0048709805	
0.048306093	-0.034666613	0.01061471	-0.04162132	0.01657081	-0.023681596	0.008762075	-0.010885136	-0.008841706	-0.0051792236	
0.01840695	-0.03238776	0.030342354	-0.044938855	0.01513663	-0.018072845	0.04861235	-0.019062772	-0.006884784	0.006304805	
0.0017992301	-0.031152368	0.040725976	-0.05779224	0.024808932	-0.025509354	0.0482208	-0.024324441	-0.012590241	0.035376314	
-0.003927079	-0.029673368	0.041942168	-0.0661636	0.04560181	-0.042365845	0.060277782	-0.04801738	-0.00016677062	0.072586894	
-0.030028967	-0.026515309	0.062134735	-0.04828334	0.04126297	-0.01503978	0.06003058	-0.036121648	0.03915069	0.04892505	
-0.07226225	-0.006797665	0.05963873	-0.05569184	0.025463715	-0.019468887	0.007637275	-0.05948201	0.038822692	0.05100249	
-0.09507123	0.04122261	0.05846094	-0.04732312	0.02498897	-0.020395294	0.009294199	-0.026501251	0.038608037	0.05788395	
-0.09532509	0.037496366	0.057196133	-0.06350773	0.029167246	-0.010663038	-0.0025033539	-0.009173342	0.01810685	0.058827125	
-0.07147362	0.0039770454	0.025481315	-0.046593588	0.046926104	-0.025632488	0.0013082379	0.00014803582	0.0099888	0.08856011	
-0.070752636	-0.039303597	0.026816815	-0.04723209	0.065758936	-0.02877001	-0.0186163	0.029740391	-0.01428605	0.09702728	
-0.04098607	-0.05074498	0.0110562015	-0.033618167	0.035177078	-0.0017920162	-0.015043616	0.043190207	-0.0025495251	0.07560221	
-0.010114102	-0.046384994	-0.03359981	-0.007917652	0.024277005	-0.007631031	0.028435953	0.023113512	-0.010186639	0.052818667	
0.0065000453	-0.033786125	-0.013730954	0.020373525	0.0036427455	-0.005873463	0.011595726	0.012830397	-0.011614073	0.00031203823	
0.034971878	-0.032488104	-0.019112349	0.0017997075	-0.005877578	-0.0036864937	0.042859063	0.0025998843	-0.015803836	0.011924952	
0.017508013	-0.020245796	-0.00010886433	0.0065417853	0.011212685	-0.013121899	0.023556257	-0.009891698	-0.016643904	0.013321642	
0.03166691	-0.032889057	0.0026076566	-0.0029337574	-0.011849411	-0.01659432	0.018361999	-0.0072722677	-0.016326668	-0.0059537096	
0.015316611	-0.003482845	0.0076936716	0.005643674	-0.008322133	-0.022350727	0.023048718	0.020779643	0.0075329645	-0.012474205	
-0.0031210633	-0.011269753	-0.003454068	-0.015483594	0.0036435593	-0.00717599	0.009419877	-0.0039939554	-0.0067634555	0.016939934	
-0.01085667	-0.014317656	0.015617915	0.0039207293	0.0051613236	0.0085336175	-0.0024042376	0.011884675	0.0105951475	-0.009867408	
0.0018389486	-0.001784871	0.0032127986	-0.015777895	-0.004482435	0.0075076134	0.007593486	-0.008295231	-0.001202752	-0.016195659	
0.006412596	-0.0036589592	-0.0060507776	0.010741888	-0.0072893626	0.003319177	0.010722646	-0.013545287	0.0016991484	0.0064428	
-0.0054067452	0.00013782112	0.008444759	0.012157502	0.004780357	-0.008125178	-0.0025619112	0.013952794	-0.0007733632	0.00208084	
0.012223273	-0.015637811	0.0048733307	-0.003369433	0.0027431801	-0.008290894	-0.0054802056	0.006252071	0.012896432	-0.012846266	
0.0023911023	-0.0014013555	0.0015008327	0.022586264	0.015596025	0.009238898	0.0003920804	-0.013387863	-0.001419773	-0.011293506	
0.007148457	0.0035509518	0.0027808321	0.010115356	0.010886553	0.001428583	-0.017862014	0.012262061	-0.012692218	-0.008467641	
-0.022980964	-0.012614181	0.009544561	0.01637115	0.016274845	-0.018307488	-0.005863444	-0.007491905	0.01365774	-0.011585206	
0.0064583654	-0.017260678	0.010856195	-0.0049082963	-0.02315113	-0.00933482	0.0030365207	-0.0041793743	-0.015381161	0.0046964465	
0.0251533	-0.013325756	0.024750128	-0.023852842	0.015145571	-0.0013239548	0.022108564	0.005504017	-0.0185742	0.010730597	
0.029474447	-0.036574468	0.027354248	-0.027879803	0.018632872	-0.015424857	0.022963038	-0.0052573998	0.00043686043	0.0061479313	
0.009824406	-0.04146402	0.046379134	-0.030908734	0.022155283	-0.031914067	0.028237185	-0.021609126	-0.006924842	0.017943166	
-0.01419395	-0.050614487	0.055576615	-0.033597186	0.013759489	-0.062133044	0.054172426	-0.034237593	0.017481532	0.03290584	
-0.025129534	-0.039610554	0.054843724	-0.02923236	0.020013839	-0.065589406	0.06238642	-0.050428167	0.04300984	0.03445011	
-0.06505904	-0.023664502	0.07240808	-0.059629653	0.011669999	-0.056879397	0.055392273	-0.037185702	0.050537936	0.028176213	
-0.07558166	0.009352307	0.08359307	-0.035498593	0.0039954	-0.037951197	0.021449521	-0.032814488	0.03460881	0.029050877	
-0.077248	0.023833431	0.058439482	-0.054538056	0.004458147	-0.044601597	0.004773487	0.0042099175	0.00661935	0.033786517	
-0.0869763	0.04451086	0.050134666	-0.05643322	0.01332228	-0.031752713	-0.00883677	0.017155306	-0.015957054	0.059333887	
-0.062141296	-0.006122467	0.05309503	-0.056857698	0.02730793	-0.023232318	-0.031955574	0.0347407	-0.026354797	0.07751827	
-0.035254054	-0.022574447	0.028999416	-0.046504807	0.028732335	0.009137761	-0.014063636	0.033759825	-0.011277284	0.07588187	
-0.02603109	-0.03513845	0.0185142	-0.03144348	0.018597217	0.009038009	-0.0050708624	6.5963424e-05	-0.008030519	0.06374221	
-0.0071218805	-0.04300649	0.001993713	0.0038177422	0.004599982	0.01780707	0.006271702	0.016050119	-0.006907682	0.03523173	
0.008152522	-0.023605688	-0.030344505	0.02414114	-0.008620697	-0.022116702	0.037847824	-0.015872134	0.001092716	0.030295685	
0.029938687	-0.029847516	0.00073597184	0.024502652	-0.014651776	-0.018737368	0.047973685	-0.011937035	-0.013172515	-0.009478094	
0.022231609	-0.024839846	-0.03344755	0.009537237	-0.018970985	-0.03352068	0.03340627	0.008122202	0.017593354	-0.007502916	
0.010827592	-0.0032947692	0.015983831	0.00559334	-0.009369211	0.0029900365	0.022590216	-0.015099124	-0.0225889	-0.013237822	
-0.009104576	-0.0031355207	0.021601116	0.0025836788	-0.0053416914	-0.015886273	0.022275178	-0.006816542	-0.0046364386	-0.017947763	
0.017929524	0.0005915623	0.0067703673	0.0023266738	-0.022068465	-0.007549876	0.0060959016	2.5429194e-06	-0.0073582144	-0.020688854	
0.0026726986	0.0016979442	-0.02203684	0.006332779	-0.007705168	-0.020259779	-0.00028812437	0.0024236068	-0.011626402	-0.0045906543	
-0.011640347	-0.008347439	0.0097362045	0.01042048	-0.009623881	0.01219354	0.008668928	0.013745148	0.014532076	-0.0223235	
-0.0014208544	-0.0046681594	0.00022999634	0.00023903065	-0.026791133	-0.01454947	0.004418916	0.0003070386	-0.012685145	0.0022311276	
-0.01692399	0.0034265302	-0.013921941	0.011470274	-0.0020885502	-0.005514062	-6.174525e-05	0.00046909606	-0.0067075933	-0.018489357	
-0.0035293878	-0.004914644	0.0003345421	0.00902382	-0.003457626	-0.0014087147	0.0011993168	-0.0145563055	-0.0009302566	-0.009267805	
-0.011634728	0.014605718	-0.014459595	-0.0013838304	-0.013149083	-0.011554544	0.004405223	0.007091952	0.0044600703	0.0023068031	
-0.01777409	0.003739425	0.009048867	0.017138753	-0.0015794485	0.0021857182	0.0070127244	0.012785284	-0.0016223132	-0.0014053846	
-0.018561888	-0.0015049507	0.007864864	0.009201215	-0.0041662175	0.010035517	-0.015780315	-0.010214589	0.009736922	-0.011537517	
0.00034321693	-0.018252283	0.004994606	0.016326798	0.004902684	0.005545716	-0.025557552	-0.0065756887	-0.011331736	-0.011474146	
0.009461617	-0.027252449	0.031172646	-0.0055481265	0.0070179864	-0.0010071732	-0.0018318954	-0.0028374156	-0.013004249	0.0038233914	
0.031067114	-0.042465933	0.033498056	-0.017279852	-0.02364569	-0.0071958816	0.014342587	-0.04066958	0.018398225	0.003267653	
0.027193515	-0.03879776	0.05079683	-0.022851417	-0.015970517	-0.01757124	0.043270886	-0.025548745	0.006469255	0.01471198	
-0.0023729557	-0.025428526	0.030020997	-0.006701057	-0.019592162	-0.06421246	0.051012527	-0.027246142	0.024316393	-0.0025911143	
-0.030818993	-0.048130475	0.070526056	-0.0036032994	0.015170455	-0.071137615	0.056074437	-0.031633608	0.047943953	-0.009508531	
-0.04834357	-0.014163745	0.07762087	-0.039061993	-0.01476755	-0.06331444	0.073256806	-0.038917027	0.036580756	0.012395299	
-0.059512984	0.014892126	0.08460693	-0.029546056	-0.020992737	-0.056975584	0.02886961	-0.023202714	0.03503618	0.01718727	
-0.07232695	0.027586443	0.0703781	-0.051924605	0.0055852565	-0.04668506	0.010064606	0.014766379	0.00092393294	0.027875077	
-0.069609575	0.011225403	0.064864315	-0.063785955	0.026161991	-0.015890842	-0.0027713582	0.031182699	-0.025416829	0.047662772	
-0.049588487	-0.011899175	0.028837712	-0.05272776	0.022194054	-0.01995504	-0.0062991115	0.03206222	-0.028295333	0.071549214	
-0.020730525	-0.030271012	0.01463915	-0.031339936	-0.0022155093	0.0001875473	0.009471655	0.007400935	0.00048686692	0.05251539	
-0.0013683509	-0.047446355	0.009868989	-0.0060445387	0.0062888116	-0.0029190476	0.008667448	-0.006645963	0.017501934	0.034796678	
0.015692882	-0.055659026	-0.022076597	0.009735092	-0.03357559	0.0001504196	0.027403688	-0.0136956405	0.013092021	0.019537967	
0.013841427	-0.03506841	-0.021808483	0.027552579	-0.030883403	0.0007213964	0.030662933	-0.0011203894	0.0073822965	0.010953851	
0.005818581	-0.055173066	-0.024852494	0.028659815	-0.022377225	-0.007251543	0.05942439	-0.0037167429	0.0017712588	0.0007311146	
0.032535635	-0.02557992	0.006637274	0.02162473	-0.025523495	0.013892099	0.027373843	-0.017682914	-0.007846296	-0.013219408	
0.014247516	-0.032634933	0.015325662	0.01817588	-0.018489802	0.005545811	0.011407123	-0.027852576	-0.0037940734	-0.007203878	
-0.001466213	-0.008160496	0.0136392005	-0.018262304	-0.00882303	-0.017469095	0.008154252	-0.0026944282	-0.00042953997	-0.015262086	
-0.0024148584	-0.015389951	0.011589149	-0.0054503297	0.01730375	-0.0026185287	0.0007269648	-0.01802296	0.0020914949	-0.005964482	
7.172623e-05	-0.0023004261	0.00811589	0.02037044	-0.005057589	-0.012932198	-0.012747873	-0.00021556106	0.00332625	0.015740946	
-0.0040357434	-0.009234768	-0.004642937	0.0015060571	-0.000927902	-0.017813515	0.013038633	0.008696859	-2.3989489e-05	0.0032939478	
-0.024688862	0.001161258	0.0032004775	0.0023429221	-0.01394268	0.0064283926	-0.025297211	-0.010930953	0.0040314286	-0.0071911598	
-0.014500089	0.006070637	-0.00049303134	-0.0027505944	0.015661255	-0.002337642	0.0042124926	-0.0016194372	-0.011595333	0.0011110762	
0.006071085	-0.0007556182	0.0062172133	-0.0021500187	0.014973286	0.015023253	-0.016799117	-0.0069335727	-0.007325818	-0.014509361	
-0.004989855	-0.010731528	0.010441367	0.015440187	-0.007510154	-0.014707259	0.0005668585	-0.0016612505	0.014681227	0.015846668	
0.0053166035	-0.021848544	0.0019954494	0.009820812	-0.009495542	-0.016482977	-0.0036628714	0.002347346	0.00048209488	0.0102430275	
-0.0014788439	0.006294413	-0.010256527	0.02021483	-0.004669362	-0.0062289895	-0.0011229024	-0.004305554	-0.0026005004	0.0038455697	
0.0044238847	-0.008297987	0.022210488	0.026978496	-0.002711229	0.016554905	-0.0045130337	-0.010889178	-0.009682797	-0.0059374995	
0.009449898	-0.026368756	0.012607639	0.009995363	-0.013496527	0.034530777	-0.013099033	-0.016281335	-0.011017729	-0.010532778	
0.0155388815	-0.038365938	0.035108358	-0.003261764	-0.020178653	0.021883097	0.0017491563	-0.039645992	0.01008709	0.006399677	
0.015452386	-0.047710773	0.047986515	0.008598322	-0.050445117	-0.016582122	0.02184488	-0.03365485	0.037759755	-0.007557643	
0.010742777	-0.04690373	0.07943613	0.00041292282	-0.010914412	-0.046595957	0.051625874	-0.03506024	0.038901355	-0.01752314	
-0.011680158	-0.010688365	0.049948476	-0.007198078	-0.024754092	-0.0644929	0.06886834	-0.047137823	0.027306762	0.0060236934	
-0.037991315	-0.021194778	0.080556154	-0.016336119	-0.03144645	-0.05492939	0.08310298	-0.026498608	0.031159047	-0.00069280656	
-0.044373315	0.017522955	0.075560935	-0.039055903	-0.029694377	-0.05065563	0.045571	-0.003063025	0.0063947714	0.004769923	
-0.043723226	0.011092982	0.075016566	-0.07119121	-0.0076352037	-0.048206538	0.04087814	0.025994549	-0.026564425	0.028740976	
-0.055298798	-0.0009413782	0.031794265	-0.038475882	-0.014700586	-0.043054193	0.03086317	0.045227654	-0.037721913	0.043876	
-0.022190856	-0.0031465692	0.010456884	-0.058312528	-0.00019691783	-0.026699282	0.019395322	0.040716827	-0.022931332	0.04894795	
-0.013297032	-0.026783707	-0.0064067384	-0.0020862715	-0.0067059537	-0.02672521	0.026444297	0.013787818	-0.011399759	0.053611238	
0.0053611337	-0.031745527	-0.013062837	0.0084323725	-0.020893974	-0.013426747	0.05716971	0.00438837	0.009711457	0.016943734	
-0.0011900408	-0.06892283	-0.027812792	-0.001936859	-0.034869872	-0.0030097691	0.02599035	-0.016981607	0.0012308678	0.014729533	
0.015912555	-0.04149775	-0.00479764	0.03556004	-0.043783274	-0.0054313224	0.037094913	0.004466076	0.0086935805	0.015826419	
0.019183803	-0.052256655	-0.0012871497	0.037240174	-0.020911897	0.0037995004	0.045111924	-0.02434597	0.010472118	0.010588251	
0.006056283	-0.022084821	0.011456539	0.034098018	-0.006571082	0.007573649	0.013819753	-0.006487163	0.0030214663	-0.004281796	
-0.014913596	-0.022222135	0.008858994	0.025196228	0.0034792353	-0.011895566	0.028295834	-0.0014833226	0.0008963756	0.0006088431	
-0.0096521	-0.013348661	0.015712462	0.006408805	-0.013801378	-0.00012594493	-0.000768865	0.01807342	0.011994718	-0.006831267	
0.01308034	-0.0069836075	0.0108509185	-0.0041477783	-0.0019096365	-0.004512344	0.00025705254	0.0053481925	-0.0011456648	0.0097360695	
-0.0002537924	0.003106831	0.031106597	0.001978418	-0.0044818553	-0.0027000546	-0.00241176	0.0008538417	0.011842088	-0.0041264044	
0.012505149	0.003950548	-0.0041365633	0.010102652	0.0020243102	-0.018386224	0.009638018	0.0074459217	0.0022586605	0.0015049605	
-0.002799709	-0.018735988	-0.01000758	-0.019832853	-0.0017435246	0.009974903	0.009839119	-0.009844832	-0.0053075314	0.0035452584	
0.0067510316	0.0022572607	0.00086859934	-0.0026099973	-0.0015844243	-0.00017821816	0.0041271457	0.002515233	-0.007081098	0.0021970617	
0.0023062453	0.0070636235	-0.0024946365	-0.009133436	8.213811e-05	0.009569622	-0.015544049	0.018635783	0.0055093043	0.0018963256	
-0.009750645	0.0008939985	-0.0051666456	-0.001207462	-0.0070719235	-0.007814315	-0.015913505	-0.0031699112	-0.00575502	-0.013631285	
-0.010644786	0.002018578	-0.0001887565	0.023306863	0.010299809	-0.020097485	-0.002450024	-0.011496322	-0.0059603937	-0.015155508	
-0.005970635	0.015569646	-0.0043354705	0.027949492	0.0018609524	0.014940254	-0.0031532047	0.004844973	-0.0052254107	0.003009532	
0.018726813	-0.007076919	-0.007074452	0.023281494	-0.020563364	0.0077371085	0.0019231199	-0.0131052295	0.008160323	-0.01523011	
0.01794367	-0.018327948	0.009050037	0.015124941	-0.031580992	0.022822069	-0.00922858	-0.014166269	0.011104766	-0.0089839725	
0.01219018	-0.026176248	0.0052782125	0.023286927	-0.033072792	0.035617925	-0.022939501	-0.019219603	0.030188771	-0.01234413	
0.027767058	-0.04033033	0.034831494	0.01904665	-0.047131814	0.014661389	0.01869257	-0.03272774	0.035240043	-0.014270652	
0.008313253	-0.034036484	0.049301267	0.01885565	-0.03596851	0.00089593703	0.016568393	-0.044921264	0.03310603	-0.007129627	
0.0017544525	-0.023578545	0.061774872	0.0002913549	-0.04121354	-0.021823673	0.05433224	-0.039386358	0.048166424	-0.008628057	
-0.021801433	-0.010561268	0.07912357	-0.026903719	-0.025389034	-0.034929942	0.0636429	-0.03177252	0.015990114	0.0020164377	
-0.032400616	0.005662352	0.03312979	-0.012771083	-0.032654822	-0.063903175	0.052642453	0.03731222	4.679797e-05	0.030356523	
-0.03704923	0.008417403	0.025242086	-0.026335344	-0.020238772	-0.048900362	0.05033514	0.02421166	-0.032789264	0.022804812	
-0.01041422	-0.018415295	0.004993373	-0.012601106	-0.02566034	-0.04497331	0.06209636	0.03596142	-0.016756352	0.035424247	
-0.0025822604	-0.013232669	-0.025319014	-0.005322279	-0.021633483	-0.035182524	0.06023984	0.003877856	-0.0030359377	0.033826973	
0.016406715	-0.025580658	-0.029738896	0.007806941	-0.033304296	-0.019767154	0.056206513	-0.00051507505	0.0016923313	0.03263086	
0.014838265	-0.050766524	-0.021714535	0.036000326	-0.02612501	0.0050248452	0.044087324	-0.023721974	-0.0031348171	0.031977758	
0.021419447	-0.030336788	-0.008333979	0.025127111	-0.022522178	-0.008696106	0.03892428	-0.024716381	0.0057657035	0.02618252	
0.014144606	-0.046883993	-0.0011936178	0.020617839	-0.00022985096	-0.008876238	0.035938043	-0.027790708	-0.0024938835	-0.001512079	
0.009919254	-0.032669246	0.012555021	0.03279674	-0.021139272	0.0116613535	0.015369952	-0.0073987823	-0.009978827	0.00054439524	
0.014041217	-0.032504242	0.0052203396	0.024447365	-0.014723618	0.0038463348	-0.0050665615	-0.022694716	-0.00013579291	-0.0056863837	
0.0060899	-0.024364613	0.017662236	0.0029994359	-0.015530383	0.005936747	0.008681258	-0.015998008	-0.01136703	-0.0035412628	
-0.0037939076	-0.011665605	0.001689991	-0.0029273718	-0.014482528	-0.00798513	0.009942985	0.0040827533	-0.015374342	-0.008729581	
0.0048650354	-0.0032098	0.020581676	-0.00051584287	-0.0021026027	0.010210538	0.010804554	-0.0026434774	0.0042017996	-0.0167845	
-0.0036816692	-0.001804182	0.008425662	-0.010821202	0.021142721	0.0049539823	-0.012053209	-0.0077757	0.0020399925	-0.007660741	
-0.0021184545	0.0039655035	-0.016589774	0.02103607	0.009355007	-0.013694501	-0.0005901424	-0.0015861337	0.016000526	-0.0006564645	
0.014072416	-0.0017697293	-0.008698725	0.0034689158	-0.011893324	0.006315166	-0.0006323197	0.013716219	0.013712236	0.0023794218	
0.009107419	0.0029037711	-0.001166601	0.0035311587	-0.0017395507	-0.005177578	0.014589567	-0.003403096	-0.004681372	-0.01921574	
-0.0017803826	0.0028763555	-0.0066025862	-0.006566525	-0.0066943946	0.015897553	-0.0002781924	-0.009204289	0.0020746002	-0.00831846	
-0.005477739	0.017378122	0.0022917402	-0.01708167	-0.008921616	-0.006564592	-0.008761546	0.0004815993	-0.00024599466	-0.00529134	
-0.025114365	0.0032732885	-0.015161088	0.0074560074	-0.009157325	0.00040052095	-0.003951534	-0.008021157	-0.009201496	-0.006284519	
-0.0029833023	0.013484473	-0.0011192587	0.029021138	-7.131656e-05	-0.0045708013	-0.008117585	-0.0066609327	0.0005871501	-0.011398664	
-0.007572221	0.001241574	-0.026447006	0.028981252	-0.023623817	0.031784926	-0.010459415	0.008732901	-0.017517006	0.015460277	
-0.009379694	-0.01919103	-0.013673757	0.03702824	-0.025187314	0.02744323	-0.0057227556	-0.01312093	0.0036982463	-0.006032717	
0.01207168	-0.027597984	-0.0056357607	0.036807846	-0.040085964	0.021575587	0.0012246236	-0.002277297	0.010131976	-0.012707284	
0.022917584	-0.040037792	-0.00033230835	0.030650731	-0.06415346	0.043906312	-0.029894982	-0.04046511	0.03105988	-0.028407862	
0.012471014	-0.032911412	0.0147132	0.0065874415	-0.063383214	0.038687244	-0.0060224663	-0.047488317	0.03313692	0.004286764	
0.022669325	-0.0072965287	0.027090626	0.019198071	-0.03551717	0.04615679	0.0014834796	-0.030506328	0.03843857	0.0016641652	
-0.0062851943	-0.014830142	0.0046658595	0.0069133574	-0.05046646	-0.014503155	0.03620943	0.0019052032	0.013318189	0.008957167	
-0.002078005	0.0022692285	0.015276348	-0.015325029	-0.03056376	-0.014434899	0.04986988	0.008519002	-0.003365224	0.02067203	
-0.0048488774	0.018222468	-0.024170384	0.0024441723	-0.018128242	-0.011473936	0.041703258	0.0056543564	0.004906851	0.03989635	
0.0029753288	0.013110311	-0.044896353	0.010039921	-0.03428423	-0.025587572	0.05055878	0.010456725	0.0056869537	0.028232578	
0.0062789926	-0.017166756	-0.053947095	0.02216646	-0.020947823	-0.014910853	0.03744979	-0.0005909781	-0.004734224	0.038592335	
0.017374333	-0.01897268	-0.06488241	0.042287786	0.0019365575	-0.01172473	0.022729589	0.006836104	0.020290766	0.033936374	
0.013629647	-0.03219557	-0.057400726	0.031369533	-0.0066090687	0.015304772	0.046480294	-0.036790323	0.023870181	0.020462202	
0.016626103	-0.026889732	-0.0322864	0.03828192	-0.007256329	0.008161798	0.002586094	-0.026900603	0.016009817	0.022996277	
-0.0033124096	-0.043600317	-0.0036676321	0.041544273	-0.010559879	0.0054123173	-0.011930511	-0.04233791	0.01782178	0.0077161537	
0.008324665	-0.006799718	0.010325889	0.021053065	-0.014385226	0.0024018802	-0.0119393105	-0.01246977	0.019385269	0.022284294	
-0.012160376	-0.019977596	0.024070146	-0.0038208857	-0.023505004	0.01392312	0.018850248	-0.008270448	-0.0030152933	0.004373234	
-0.012396524	-0.0086409105	0.008759032	-0.0072551677	-0.005065	0.0043497602	-0.0017890271	-0.014159122	-7.12804e-05	-0.011075709	
-0.000994447	-0.01040887	0.011001072	-0.009752017	0.0021406126	0.014718596	-0.0023763175	-0.012413698	0.0032472166	-0.0059945043	
0.0010882432	-0.013104201	-0.0059192157	-0.0024861752	-0.009360284	0.0023073503	-0.0124226175	-0.015324744	0.012383123	-0.010883713	
-0.014209662	-0.0040080813	0.007364292	-0.0044473354	0.013145859	0.00068676297	-0.0031571607	0.0108461	-0.007929733	-0.015462696	
-0.00048244052	0.0024598637	-0.005977721	0.0075636012	-0.00023351595	0.012981191	-0.020175977	-0.005305633	0.006130823	-0.005884919	
-0.010339932	0.0028045678	0.012720597	0.0069079744	-0.0051226187	-0.000676554	-0.010327825	0.0038041747	-0.0032891089	0.010622948	
0.00076705223	0.010824267	-0.0064791087	-0.0029510304	0.006114236	-0.0006608911	0.009992325	-0.0030912347	0.014065265	0.0036264516	
-0.009596098	0.0068493066	0.014782459	-0.0067915353	-0.004023396	0.009294627	0.017024403	0.011133744	-0.002941495	0.023052383	
-0.0014162682	0.004803753	0.0019046479	0.005025178	-0.010201296	0.010272811	-0.025597293	0.002888884	0.008000004	-0.0061502606	
0.0055215596	-0.0019526588	0.006067246	-0.0020857728	0.0046693296	0.003148241	0.009146707	0.01217507	-0.0014433159	0.0102273775	
0.01404152	-0.01623157	0.0015838284	0.016978554	-0.008441926	-0.006586376	-0.0047202613	-0.0035850236	0.0009346504	0.0040466604	
0.016977193	-0.0057022534	0.0025966463	0.023810364	-0.004617082	0.01598455	-0.01019854	-0.020451272	-0.0047396705	-0.010677418	
-0.014877197	-0.012866224	-0.035017375	0.041986123	-0.014008062	0.0077008395	-0.0050718794	-0.023729369	0.005982148	0.00020251759	
-0.0009350775	-0.007239927	-0.024154276	0.037100367	-0.029876119	0.04885101	-0.00035233403	-0.013751768	0.016236424	-0.009155042	
-0.006003817	-0.023589015	-0.027956229	0.024179522	-0.038952317	0.034327056	-0.0070395023	-0.013192585	0.02806803	0.0020255214	
0.012162748	-0.012083894	-0.016489055	0.03365823	-0.05718376	0.040777702	-0.027811728	-0.023705367	0.025454331	-0.021577986	
0.012011264	-0.016372744	-0.036299694	0.040488444	-0.050949898	0.041272406	-0.031143174	-0.044533946	0.034318987	0.024207475	
0.008194378	-0.012649563	-0.04820287	0.039507437	-0.041265752	0.033791024	-0.026414488	-0.020286653	0.04189436	0.027522251	
0.026434949	-0.0020505104	-0.058143236	0.027700476	-0.025992656	0.026163643	-0.036098298	-0.008191918	0.058901884	0.026098453	
0.02078706	-0.005836811	-0.07318504	0.03113818	-0.03817104	0.031846948	-0.031731408	-0.02311218	0.05298888	0.025730746	
0.0099613555	0.01709643	-0.07106795	0.047877323	-0.029903738	0.028034983	-0.021708596	-0.0065352675	0.03855487	0.018420372	
0.010646373	0.011674326	-0.067627765	0.04094261	-0.016086284	0.02208194	-0.019096019	-0.010069851	0.03776677	0.022080738	
0.0094355205	-0.020130897	-0.054083664	0.037817232	-0.0017803927	0.035881914	-0.006684153	-0.013127575	0.02391187	0.04060666	
0.008871775	-0.018387085	-0.03460025	0.008470089	0.0100793475	0.019017236	-0.015243512	-0.02626418	0.014794525	0.0220979	
0.0032605121	-0.015360034	-0.011013875	0.01009519	0.00092305325	0.036960933	-0.007174505	-0.020749854	0.042652387	0.023021633	
-0.00469519	-0.025284145	-0.025499547	0.020329617	-0.0028307464	0.035083666	-0.012116271	-0.0055341762	0.015995707	0.025954848	
0.008787079	-0.021695208	0.005572117	0.008210717	0.0016816166	-0.0009656001	-0.018626649	-0.022403637	0.011164567	0.016631858	
-0.025193145	-0.0080316765	0.023311302	-0.013988165	0.0057226527	0.02190325	0.0029354987	-0.01882022	-0.012675985	0.021258604	
-0.0034647612	-0.018747594	0.001274241	0.0059691286	-0.030002087	-0.004765416	-0.0028437525	-0.011270084	0.0070730397	0.0020110959	
-0.007672592	-0.0064167655	0.0059185107	-0.00050211523	-0.014586028	-0.032030594	0.0050107767	-0.010823004	0.006080816	0.0035113245	
-0.0045326264	-0.007897651	0.011684765	-0.007375495	0.013107242	0.00040216552	0.006498857	-0.0069439155	0.020839186	0.009927399	
0.0032268888	-0.0020133164	-0.012445474	-0.0108590005	-0.016222185	0.004523236	-3.0352765e-05	-0.0111621255	-0.008412894	-0.013693896	
-0.013348644	-0.006469123	0.026290178	-0.021531934	-0.011138951	-0.0023098742	-0.0013658132	0.0010113111	-0.0225881	0.006488139	
-0.00302286	0.0027191252	-0.025819238	-0.004297145	-0.007674919	0.0038357505	0.011273369	-0.0019077037	-0.0021066542	-0.001805492	
-0.00641811	-0.01318094	8.816441e-05	0.001085257	-0.00724475	0.0072076744	-0.0015618211	-0.017043225	0.008045759	-0.0031344756	
0.009307847	0.006246286	0.0010074413	0.015753796	0.004862255	-0.008232937	-0.013815407	0.0022591448	0.001858814	0.0090891	
0.0029060086	-0.0014298437	0.010627581	-0.009598486	-0.022607597	0.014774536	-0.01852619	0.0006023559	-0.009024695	-0.0039663617	
0.01896953	-0.008203968	0.015762312	0.0024921256	-0.008687129	-0.005173313	-0.01089399	-0.012713154	-0.0025816073	-0.0067308173	
0.00481037	0.0086865695	-0.010244358	0.015457652	-0.0038228857	0.0040233694	0.016014522	0.0070397886	-0.00829517	0.003436926	
-0.00137351	-0.0036339664	-0.0044801026	0.022751328	0.012789994	0.016043302	-0.004779261	0.00600901	0.007486013	-0.0032884763	
0.014150809	-0.01243236	-0.006291371	0.010473379	-0.0075475965	0.010886522	-0.010074303	0.011268447	-0.0017667767	-0.023200052	
-0.0016021467	-0.015987948	-0.02027113	0.029853703	-0.0028084782	0.0135241235	0.0060292077	0.005458272	0.014722741	-0.010236231	
-0.006856345	-0.017037079	-0.025205098	0.031335678	-0.040320892	0.026526466	-0.02816967	-0.006380727	-0.0038749913	0.0145355	
-0.00068535627	-0.0027435536	-0.05410499	0.048972666	-0.037491582	0.029739594	-0.035920683	-1.2899385e-05	0.035785414	0.007605482	
0.013405488	0.009429768	-0.07227752	0.029452568	-0.0130491275	0.045742005	-0.051125765	-0.012013138	0.023884427	0.021860275	
0.017976992	0.009594451	-0.07919122	0.040175825	-0.007024855	0.044740237	-0.048100144	0.008870152	0.05812624	0.0057624658	
0.009741929	-0.007460703	-0.09664609	0.03589667	-0.0077593657	0.047406726	-0.05160451	-0.026655171	0.046902798	0.047482338	
0.015276565	0.011354208	-0.08652352	0.03670671	-0.034799147	0.03344232	-0.048608482	-0.0360721	0.04337652	0.0122660585	
-0.004884983	0.023481254	-0.057808574	0.034065794	-0.017387733	0.030161884	-0.057706624	-0.011037314	0.042569097	0.020657575	
-0.014479707	0.0033463761	-0.06666609	0.022041067	-0.021442803	0.01950281	-0.039998334	-0.0052128257	0.044769246	0.020481158	
0.011782125	0.004841647	-0.042876113	0.011183453	-0.024930023	0.015042192	-0.019372536	-0.013117419	0.035222333	0.017503027	
0.007690935	-0.005062362	-0.034433667	0.009189453	0.008502052	0.015551254	-0.017310236	-0.0038299265	0.005903538	0.017200781	
0.003888818	0.000509224	-0.010056628	-0.010212283	0.0059292647	0.004339574	-0.03082923	-0.0503338	0.032407213	0.022336544	
0.0024551072	0.008399924	-0.009712837	0.00652547	0.011984503	-0.0065434296	-0.0076419874	-0.010672677	-0.0006703786	0.019625321	
-0.00937965	-0.017110014	0.009147485	-0.025554216	0.001999068	-0.003919857	-0.014728889	-0.0028593924	-0.006904837	0.018273687	
0.0021434934	-0.0046165143	0.004240488	0.00807308	-0.0060540903	-0.021276008	-0.01598075	0.004327619	0.0026324603	-0.002861314	
0.006746761	0.013005792	0.008929093	-0.006283185	-0.0026716357	0.0015922427	-0.0065254853	-0.010330001	-0.018333286	0.0152252475	
-0.006779143	0.0005850907	0.0052203806	-0.010272757	0.018947972	0.0134505015	-0.016330896	-0.0026235331	0.0042766836	0.0053263404	
-0.013469751	-0.02407412	-0.01225141	-0.0005241906	0.005725866	-0.009127301	-0.0019430567	0.0075192424	0.008934434	-0.0045726006	
0.0015604536	-0.014789045	0.015198492	0.008293422	0.01603162	0.013768871	-0.008007989	-0.0065633277	-0.0077432757	0.0003924761	
-0.015950613	0.007411259	0.010821704	-0.009909666	-0.010310943	0.0113894	-0.0050014686	0.0031932262	-0.0037474334	0.00014611919	
-0.010800419	0.0076675266	0.002818519	0.006137432	-0.0019529383	-0.007468442	0.013983145	-0.009171322	0.0024535386	0.0065594567	
-0.012516155	0.013459844	0.010181004	-0.008476435	-0.021721352	-0.005692568	0.0055268602	0.0014931508	-0.004991102	0.0030121836	
-0.012297624	-0.008270451	-9.8050856e-05	-0.002255374	0.005141609	0.0018322737	-0.012298191	-0.00959388	-0.008470389	-0.0006361223	
-0.015902283	0.004726442	-0.0090353135	0.0033204206	-0.015248273	-0.0053520515	0.0015292949	-0.0055677663	0.010213733	0.0053660064	
-0.002669529	-0.0101813525	0.002759105	0.002361019	0.02272789	-0.0067065903	-0.0031682507	-0.0057440316	0.0021183717	-0.0032387548	
0.012359091	-0.0013071758	0.0016548368	0.015683347	0.0027997843	-0.010388853	0.003981704	0.0063051092	-0.0106397895	0.0019964934	
-0.009093624	-0.0057027373	-0.0013009242	-0.007318119	-0.0020703617	0.0018626174	-0.011630185	-0.016026303	0.0055686506	-0.005607889	
0.0013644975	0.014769973	-0.021914396	0.0024326693	7.198425e-05	0.01346971	-0.0042089364	0.0032573785	0.005089021	-0.012179896	
-0.0077945725	0.014861807	-0.015499936	0.01648849	0.010216907	0.008246924	-0.005070641	0.011312335	-0.00027426865	0.00048042883	
-0.0107288705	0.0018420096	-0.018397141	0.016263565	-0.021035112	0.006918859	-0.013690246	0.0034164824	-0.001052474	0.018163515	
-0.006072482	-0.015402611	-0.0335338	0.019218093	-0.011456692	0.009875803	-0.015854511	0.024679512	0.017408682	0.026434626	
-0.0148587255	-0.022117004	-0.030316928	0.00287235	-0.032966502	0.014212903	-0.029732294	0.01763097	-0.008202791	0.03841292	
-0.004044539	-0.007978936	-0.02618363	0.00067990384	0.0011141466	0.022970451	-0.025627863	0.013131479	-0.0042309086	0.03744142	
-0.0077464054	-0.00010446168	-0.035790257	0.020867448	-0.003951893	0.039195713	-0.01811479	0.011474862	0.006006188	0.03431477	
-0.015204461	-0.0052784043	-0.035216898	0.020497294	-0.024665961	0.01536256	-0.018147307	0.0007219524	0.012267089	0.03471236	
0.009928638	0.0008470832	-0.026975656	0.01919012	-0.008238056	-0.01322046	-0.03892173	-0.0047807964	0.022046467	-0.003035947	
-0.008396619	-0.009075427	-0.015731316	0.008502499	0.010311013	0.0050151097	-0.018998777	0.014657173	0.0077611497	0.03340268	
-0.0022759177	0.0033082853	-0.0013254407	-0.0026071095	0.007916457	-0.004167317	-0.022346778	0.005893322	0.0017288339	0.0074351565	
0.0050687296	0.010415849	-0.02491256	-0.019675177	-0.014939367	0.011092192	-0.032432575	0.006777393	-0.003321577	0.016497914	
-0.008324296	-0.0062248074	-0.020473018	-0.014160822	0.0084764315	0.0053256825	-0.009065704	-0.006041299	-0.0060561397	0.031266075	
0.004187118	-0.01533007	-0.0006334239	0.0050107846	-0.0019013446	-0.0014358402	0.0146418065	0.02242155	0.022774404	0.019491507	
-0.008855001	0.009074715	0.0020308383	0.0055941585	-0.0039410307	0.012336721	-0.018326396	-0.009431111	-0.017623182	0.017962448	
-0.0048543336	0.0074600806	-0.008602037	0.004727756	-0.006851537	0.008264999	0.00015329735	0.010644179	-0.0034478682	0.009955462	
-0.020231258	-0.0026568144	0.008393114	0.016753502	0.0057379855	0.008065274	0.008779533	0.0058479207	-0.004564718	0.023178905	
-0.019739382	-0.008263129	-0.0022190097	0.010592019	-0.009581223	0.011792307	-0.0019546815	0.0066851513	-0.008325911	-0.007555076	
-0.007518181	0.004163847	-0.006829597	-0.016408272	0.019353285	-0.010937898	-0.01666227	-0.008618204	-0.0032243496	-0.00873372	
-0.004249321	-0.0006109679	-0.012148078	-0.0073740766	-0.00021948066	0.007926197	-0.0028862609	-0.0036364691	-0.011223095	-0.0010201554	
-0.0092678955	0.01288104	-0.0032361858	0.019504996	-0.010627976	0.008146909	0.00565216	0.0026269201	0.009184686	0.010695542	
-0.0036007245	-0.007918537	-0.019676281	-0.0012413965	-0.00029012805	-0.021050664	-0.0009849387	0.0018504678	0.0017031486	-0.00034741824	
0.021781573	0.0009985844	0.011608809	0.009935003	-0.01196042	-0.0068317344	0.0089698415	-0.005481516	-0.0017833035	-0.0006947184	
-0.011538203	0.0067607006	0.00067292276	0.0028612553	-0.0001168748	-0.002876367	-0.01089826	-0.01852021	0.010841049	0.017030751	
0.0035820233	-0.011239307	0.0019528335	0.019374365	0.015795128	-0.001828121	-0.013906585	0.007659843	-0.0069216536	-0.0021677823	
-0.0075568873	-0.028238446	-0.013751048	0.0022098483	0.0023502016	0.0107065905	-0.025519842	-0.015156029	-0.011707256	0.0038611996	
-0.0049655503	-0.003280435	-0.0023920701	-0.007711277	0.0089856135	-0.011952098	0.0062767663	0.00903142	-0.015227524	-0.01015353	
-0.0025209023	-0.012986469	0.015167873	-0.003569071	-0.008510667	0.0025806634	-0.00437464	0.0038457962	0.0076604853	0.0063931416	
0.005096301	-0.002067796	0.0040504457	-0.0024259833	-0.0064026504	-0.0009764206	-0.017737443	0.00015667189	0.004045646	0.0005791772	
0.006673693	-0.0011390246	0.005174025	0.0036984822	-0.0017762308	0.006292425	-0.014115114	0.0017324287	0.005863363	0.0009815745	
-0.007482127	0.0019611456	-0.018480025	0.0101111075	0.0021535538	0.0049573705	-0.023530029	0.046198618	6.1337676e-05	0.0038527614	
0.0096569685	-0.010185012	-0.011378112	0.0035147858	-0.011686566	0.012881877	-0.023367355	0.03458833	-0.010333445	0.0062676277	
-0.013070024	0.010240255	-0.010818519	0.0075132307	-0.0015010893	-0.011204858	-0.008563602	0.032548964	-0.014694582	0.025517495	
0.0042847246	0.0012225643	-0.016914545	0.022743043	-0.009121315	0.0020622397	-0.021137204	0.027791077	-0.013089314	0.027009273	
0.016240863	-0.004304799	-0.009601654	-0.0043951184	-0.017611708	-0.0066011725	-0.021453943	0.02015586	-0.015501104	0.036960896	
-0.000138701	0.010332881	-0.013156654	0.0015243664	-0.013679265	-0.0076161744	-0.014055976	0.013291947	-0.0041847974	0.025594428	
0.0039155358	-0.016317032	-0.0007461014	-0.0061314567	-0.0061370116	-0.0014291934	-0.025189254	0.03621325	-0.010667734	0.0089620445	
-0.009291224	-0.005254417	0.00046551382	-0.014206483	0.007798853	-0.008060702	-0.0113217505	0.021353269	-0.0047507384	0.029595762	
-0.0028170133	-0.0048605986	-0.018624619	-0.014618686	0.009762759	0.0014905953	-0.033449635	0.03232672	-0.0046634725	0.02130622	
0.0062878146	-0.0018968848	0.021466693	-0.009781934	-0.017966028	-0.01137592	-0.004736251	0.009501816	-0.013372278	0.004446215	
-0.011075737	0.017650677	-0.0042136237	0.00043583018	-0.01534251	0.0010052186	-0.017680516	0.009841108	-0.0058259936	0.02021134	
0.011263109	0.008021537	0.0004758677	0.009999115	-5.0809802e-05	-0.016874513	-0.0062524374	-0.0103418855	-0.0026761254	0.008958133	
0.018201409	0.0015835228	-0.007162434	0.0049772663	0.006538717	0.00022182168	0.0039076232	-0.0116198	0.0012227753	0.02161631	
-0.011262257	-0.00037789842	-0.006435397	0.003474491	-0.017851194	-0.0032925017	-0.0066091563	0.0019599483	-0.0048023164	0.01668225	
-0.024556033	0.010521954	0.0067501497	-0.009419913	-0.009688692	-0.021944951	0.0010427273	-0.0045159534	0.0065106014	0.0039314153	
0.0029320952	-0.0016242353	-0.0051768282	0.003631353	0.004799771	-0.0052288384	-0.0050754664	-0.011087329	0.004818686	0.0030840484	
-0.006289475	-0.012146876	0.005600647	-0.0043401076	-0.017546868	0.011444896	0.00021287632	0.0029328833	0.0056910566	0.00474706	
0.011963052	0.008394089	-2.6383086e-06	-0.025865616	-0.0050294427	0.009476611	0.016999617	-0.016926909	0.0016343597	0.016056875	
0.019368311	0.00058719324	-0.0025615494	0.007087284	-0.010466916	0.007630984	0.0014854406	0.018902354	-0.0019665349	-0.0014838006	
-0.002572488	0.03736521	-0.004071985	-0.011997596	-0.0048709745	-0.011533054	0.0010337776	0.011184332	-0.024106184	-0.004165425	
0.003746399	0.008934339	0.019219505	0.023902195	-0.0033515873	-0.012706285	-0.014364055	0.005812278	-0.010215658	0.004159549	
-0.001565396	-0.006531092	0.0020739343	0.009776422	0.008577683	0.017341292	-0.01686792	0.0052104127	0.004801958	-0.0080789	
-0.022005128	0.014391731	0.007955713	-0.00820154	0.0004456611	-0.0005755989	0.005095395	-0.021627298	0.0064459043	0.0027234226	
0.0011652285	-0.005346084	-0.0031383738	-0.0027321465	0.013554241	0.008160909	-0.013662187	0.025593488	-0.009483675	0.0039037522	
-0.003104244	-0.0043168226	0.005551116	0.016495707	0.010523191	-0.001789567	-0.003785114	-0.009337273	0.014368138	0.0026089577	
0.0065962174	0.0045542317	0.0036876528	0.0045872694	-0.006966786	0.0001564314	0.015346376	-0.016136887	0.0010427895	-0.01910134	
-0.007422104	0.001439661	-0.0040720836	-0.004400474	0.022863083	0.013834203	0.00093698234	-0.018862544	-0.00013344889	0.011376532	
-0.00322092	-0.0012410885	-0.008518095	0.015077068	0.0032601277	-0.00021023165	-0.00015856685	0.019566165	0.005396954	0.0013449092	
0.0050618513	-0.0050799283	-0.0042133513	-0.0026305811	0.002245564	-0.014842317	-0.018346021	0.02705871	0.012192534	0.006805643	
0.009609419	-0.0024457867	-0.0012524379	0.0072681834	-0.001273158	-0.010607483	-0.010272435	0.012490218	-0.011384578	-0.002895056	
0.0012950526	-0.010629058	-0.010018471	0.007177771	-0.0039656167	-0.0065248464	-0.032121796	0.02962687	-0.013434171	0.019624377	
-0.008470492	-0.008074349	-0.00014145978	-1.3438721e-06	-0.024371771	-0.019037109	-0.019847468	0.02494691	-0.004276593	0.018169992	
-0.0074498383	-0.014087277	0.0052052517	0.005853346	-0.024605343	0.004208253	0.012883655	0.009937423	0.009656627	-0.00035089627	
0.0050605377	0.011169111	0.015141029	-0.0035043142	0.01117615	-0.0028484971	-0.0006745285	0.011203377	0.0063432558	-0.0026943593	
-0.005673914	-0.015931988	-0.001770516	0.0004433762	-0.012595966	-0.004081689	-0.017733436	0.010527328	0.014845012	0.013316001	
-0.011408767	0.009825415	-0.015190639	-0.006480474	0.009936653	-0.011781563	0.015291092	0.011469524	0.011045443	0.01857402	
0.012185049	-0.009438058	0.004602927	0.0003855494	0.0020768568	-0.010829967	-0.0055321557	0.0022740152	-0.00082445826	0.00043131714	
0.0008061534	-0.010215492	0.004988767	-0.005658214	0.012904641	-0.00860842	-0.0070795477	0.019519765	0.0047839796	-0.0037447333	
0.00023209122	-0.015631111	-0.010113603	-0.03236973	0.0044081905	-0.0012792617	-0.004578494	-0.020712601	0.00886003	0.015187049	
-0.00086879614	0.010658026	-0.0017124867	-0.014152783	-0.014356047	0.005886171	-0.0077792183	-0.0036933739	0.020261407	0.008796627	
-0.012111572	-0.0049251546	0.00949963	0.00029288008	0.0060295486	-9.1618196e-05	0.0007126613	0.0025584484	0.0027278038	0.023662554	
0.0009314659	0.0040871715	0.004939072	-0.0048824796	0.001660688	0.004315685	-0.0062429006	0.016827157	0.0047966093	-0.008563587	
0.0022593595	-0.0005812121	0.0018904941	0.012308561	0.020858686	0.004191707	-0.0052596955	-0.0051097367	0.0060848026	0.014085449	
-0.0043160804	-0.015569716	-0.006479367	0.0028859281	0.00938266	-0.0019309785	0.0019616082	0.009008265	-0.0003011651	-0.0029254067	
-0.0035801027	0.008377308	0.022380644	0.008054178	0.016239138	-0.013456033	0.017661411	0.012673453	0.008126757	0.0077277604	
-0.012928081	0.005931471	0.0025695257	-0.015270922	0.005177394	-0.0046872017	-0.012384463	0.0013771666	0.008350829	0.004337336	
0.004762189	0.016565053	0.0009134962	0.003605781	-0.0058601457	0.002051824	0.019896576	0.0120164575	0.012908542	-0.01301923	
0.0037867865	0.017416487	-0.0122010745	0.0033730182	0.0050651473	0.025080603	0.0022620503	0.0114679085	0.020990243	-0.009897627	
-0.0015112942	0.0063108676	0.014607993	-0.0062278016	0.00653301	-0.0038897959	-0.0045050774	0.0024344625	0.019861376	0.007380607	
0.0036472941	-0.0038500251	-0.013126405	0.0019723545	-0.007057344	-0.01429499	0.007847482	-0.004580323	-0.007999291	-0.001085854	
-0.011103346	-0.00136404	-0.008987219	0.0047002444	-0.0060891653	0.0040300204	0.012970432	0.00085046934	-0.010994859	-0.010350317	
-0.006201597	-0.006226608	0.002316939	0.004389253	-0.0135770645	0.009221692	0.00032154875	0.0039199875	-0.012221257	-0.002501485	
0.004978326	0.012132509	-0.015094661	-0.008229025	-0.013029295	-0.010655283	0.009962368	0.0037497778	0.0090024145	0.008250592	
0.007919157	-0.008425163	-0.011297061	0.01723096	-0.015631974	0.0024855547	0.008257685	0.002559215	-0.00038922668	-0.0006690858	
0.015797405	-0.0015227721	-0.002671769	0.013175931	0.020831807	-0.008932824	0.0042749345	-0.0044632154	-0.011222659	-0.0053265826	
3.835438e-05	0.015583817	0.004324089	0.005381249	0.016047785	0.0021771071	0.007973371	0.003166529	-0.00675293	0.0023037395	
0.0012208637	-0.014325267	-0.008398078	0.0023603842	0.016668951	-0.009414324	0.006262212	0.0028258236	0.0035348034	-5.3363194e-05	
-0.011838512	0.017218957	0.0023839541	-0.011684615	0.01056821	0.034550972	-0.0043548113	0.003603754	-0.021017415	0.0012513186	
-0.0026232647	0.009332939	-0.01675523	0.008630553	-0.0028639003	0.0038275642	0.003444319	-0.010521338	0.0061331997	-0.003406673	
-0.020211631	0.025757706	-0.0018207921	-0.0016259855	-0.013114953	-0.015122335	0.008353458	0.012286338	0.0067041013	0.0044579967	
0.011907975	-0.016350154	-0.008992042	-0.018238062	0.0036844763	-0.0016947883	-0.0036978156	0.03429427	-0.023941213	0.011060097	
0.008694046	0.004281481	0.007267974	0.020686667	0.018783385	-0.00952666	0.00021636573	0.0051232576	0.009297627	-0.0025800639	
-0.0093485825	-0.006516752	-0.008111515	-0.0034023174	0.003848396	0.004607121	-0.005028224	0.022313233	0.010108069	0.008014803	
0.007163662	0.011089588	0.0062103984	-0.011147141	-0.011329723	-0.008853165	0.003883695	0.00028884286	-0.021397332	-0.0049697333	
-0.00856987	0.0068412353	0.00948565	0.011273053	-0.0009635232	-4.847358e-05	-0.0037989728	0.0145548815	-0.009976968	0.005367184	
0.02538653	-0.0012346457	-0.00061211485	-0.00015237839	0.0073700654	0.011762216	0.001813306	0.0105762165	0.0057288455	0.0053175883	
-0.0012957916	0.008768335	-0.019283753	0.00650294	0.01418966	0.011514633	0.007275805	-0.01216365	-0.0065991115	0.007536053	
0.009969715	5.844035e-05	-0.004954775	-0.007873369	-0.0013326765	0.003651268	0.003994578	0.014907063	-0.0023980595	0.0044817496	
