0.01192386	0.016292568	-0.00041309503	0.02204115	0.0013959024	0.0034464158	0.020786058	0.0043005445	0.014372327	0.0020801604	
0.005295185	-0.0077295853	-0.005812468	-0.013280921	-0.0006331048	0.008261801	-0.008896788	-0.0054348563	-0.018247746	-0.0021832676	
-0.00193725	0.0042630676	0.0020041817	-0.00635911	0.007942029	-8.619227e-05	0.008799273	0.001708486	0.0039980975	-0.012038251	
0.014806914	0.005802973	0.0057152463	0.014889993	-0.003475285	0.0024208752	-0.0010690084	0.0013625831	0.0014517641	0.004614159	
0.014767194	-0.00866946	0.020141782	-0.00069587934	0.0011009321	0.00025964162	-0.007181828	0.009652284	0.0020845742	0.012766213	
-0.0077707455	0.021457188	-0.0019500982	0.0016726963	-0.00065899116	0.0042649535	-0.00013412263	0.013718448	-0.0063012308	-0.002450589	
-0.014696692	-0.008729859	-0.018015504	-0.006387176	0.014377832	-0.006389377	0.0022184793	-0.009066927	-0.01168807	-0.0051544793	
-0.015242942	-0.013923148	0.0044891243	0.013709231	-0.0041238847	0.0060516587	0.01183949	0.0020966812	0.0038528724	0.001414963	
-0.011496312	0.002410788	0.0026890887	0.005340742	-0.0033746045	-0.005082034	0.008722387	0.0067258105	-0.012136316	0.0016528658	
0.0043145977	0.0008285603	0.011985348	0.009100496	0.012393113	0.0024263326	-0.0019212237	0.0019143516	0.015619119	0.011829034	
0.002033972	-0.0016720229	0.005433028	0.0021799938	0.010467392	0.0014692977	-0.016683264	0.0038247153	-0.005415245	-0.01155514	
-0.00016424144	0.0028837011	-0.0115362555	0.0032840073	0.011720186	0.00089046784	0.0047731707	-3.8838316e-05	-0.01646306	0.00049728446	
0.004037064	-0.008913565	-0.002947418	-2.9965136e-05	0.0092325965	-0.002220837	-0.0015739473	0.0016077841	0.0047067073	0.0022152788	
-0.003639134	0.0146538615	-0.0048985477	-0.008228381	0.0138673335	0.011620252	-0.0075519066	-0.0046511875	-0.010159328	-0.0018856656	
-0.008325754	0.002621509	-0.010306918	0.0034722409	-0.008237206	0.014837386	-0.03191856	0.013507454	0.009608497	0.01441288	
0.016416844	0.008888629	0.012840224	0.008298311	0.00086028426	-0.0010156094	0.010948892	-0.0037150844	0.0061190915	0.004833487	
-0.002679572	0.012381327	-0.003032808	-0.001781297	0.00067790726	0.006130456	0.008912063	-0.0027170416	0.01394102	-0.0048309006	
0.001739922	0.01333106	-0.0036964258	0.0070365835	-0.0013531405	0.0048580095	-0.004467359	0.012166761	-0.0037673132	0.00545857	
-0.012703753	0.013958981	-0.00578597	0.002654479	-0.010319026	0.0072178124	0.018834842	-0.010267155	-0.0013546532	-0.0006630163	
0.011324426	-0.0041644843	-0.0020274837	-0.002492409	0.007003013	-0.018694602	0.024451843	-0.03381757	-0.018086804	-0.0022358533	
-0.014902532	-0.011454978	0.01186492	0.018733243	-0.0019539301	0.013872016	-0.0006920322	0.002039763	-0.017146314	0.0037608608	
-0.01671882	0.008813621	0.0013060517	0.008987124	0.003633806	-0.023319582	0.017484538	0.003922286	-0.010689455	0.005373577	
-0.0044910708	0.0063250326	-0.0060182745	-0.0016863343	0.016865984	-0.0042540394	0.0068988157	-0.010931219	-0.0037918289	-0.0059072906	
0.0019574957	-0.0058820625	0.0047410233	0.008449131	-0.015955351	-0.0031481292	-0.014739714	-0.0062200315	-0.0019791794	-0.0053767506	
0.008921887	0.0011257371	-0.0058991318	-0.004703796	-0.0038181022	0.011576557	-0.0062710564	-0.002960524	0.0062938724	0.0011619591	
0.0065047448	-0.00853134	0.0064464575	0.015649835	-0.009673756	0.022528766	0.009553511	0.008684934	0.001736182	-0.0007710545	
-0.00762782	-0.0028834967	-0.008886077	-0.00027269823	0.01668186	-0.013936497	-0.0024509535	-0.008724541	-0.008571699	0.015670866	
0.002179818	-0.0053487127	0.02539716	0.0020053454	0.01758212	-0.002233503	0.001131251	0.017548842	-0.018762179	0.009262869	
-0.0076093236	0.010761035	-0.009384314	0.0018980476	-0.010125463	-0.0050354856	-0.012350725	-0.013415471	0.022268903	-0.0041170274	
-0.0062852157	0.015755696	0.00076822925	0.009033579	0.0054052416	-0.0019797157	-0.0021633585	-0.0048889443	-0.020619681	-0.013214255	
0.024213033	-0.005449884	-0.0002584704	-0.006307236	0.013438254	-0.02045839	-0.006532547	0.0005083779	0.004253764	-0.0018920425	
0.015676152	0.0075856587	-0.004030241	-0.022220915	0.011761124	0.0005150466	0.0069868993	0.026687978	0.00088854594	-0.009357987	
-0.0044229934	-0.02305566	0.021971751	0.014967101	0.020012565	-0.013200634	-0.0061462866	-0.014541234	6.0798135e-05	-0.000732462	
-0.008007445	-0.0026789526	-0.0048766746	0.02093403	0.005536501	0.006733557	-0.0024741804	0.0072402544	-0.019239945	-0.010524067	
-0.006365494	0.0031144405	0.008648916	-0.01199888	0.017124886	0.005630555	0.0031843977	0.0060429284	-0.002355039	0.0062697646	
0.010345888	0.0028466284	-0.0033840253	-0.00470931	0.004332764	0.011987177	-0.0088235	-0.001953539	0.0033492025	0.00264629	
0.020196252	0.013388363	0.014901609	0.0014870246	0.003832576	0.0037075323	-0.0046752305	0.0026919472	0.008778309	0.01298152	
0.013456702	-0.011559564	0.0012425203	-0.009098145	0.008427934	-0.0016610966	-0.0020486056	0.013679413	0.0010476161	-0.0016945414	
0.007204537	0.002965264	-0.0112130055	0.014453122	0.021275833	0.03198347	-0.015425674	-0.0020047638	0.012715211	-0.01302614	
0.010732146	0.007399967	-0.006299534	0.007799543	0.0072798477	0.0044028033	-0.0059686853	0.016132465	-0.000657281	-0.009963815	
-0.011519744	0.0064011314	0.011948495	-0.0034597635	-0.004384011	-0.010328084	-0.0025481328	-0.0035413608	-0.006446981	-0.010933778	
-0.014003974	0.010290642	0.004458626	-0.00989995	-0.0050739166	0.0035963135	0.0054766317	0.015316536	0.016280884	0.007993501	
0.008397962	-0.012667652	-0.008170475	-0.0027771867	-0.0058267815	-0.0022227997	-0.021649064	0.0028154296	-0.013553101	-0.005654123	
-0.0014231063	0.007518926	-0.007367991	-0.000690905	-0.0008690648	-0.005233836	0.0060910033	0.0007596243	-0.002185589	0.009107684	
-0.0058837985	-0.016362464	-0.0013807085	0.0041813636	0.0052074334	-0.0032333224	0.005118172	-0.0036600213	0.013697622	-0.00023638236	
-0.028670752	0.014522841	-0.0096013285	0.00049233786	-0.003562781	-0.0007523627	0.0060580457	-0.02436569	0.013033207	0.009676265	
-0.011877141	-0.0009126944	-0.018804066	0.013697267	-0.0024059105	-0.010820048	0.0045773056	-0.005150096	0.0040674517	-0.0025716538	
0.005749953	-0.004596721	-0.0061601116	0.008426452	-0.009615418	-0.009054947	0.00063024834	-0.013167412	0.006340409	-0.01249781	
0.006353143	0.00861243	0.012164531	-0.0128374025	0.010495058	-0.0018744168	0.0058883894	-0.013292928	-0.00514601	-0.0022119049	
0.0027527774	0.0038587777	0.00802896	-0.0010244303	0.0069219987	-0.011196153	0.0015357725	0.006545591	0.013888216	0.0067246174	
-0.0013488864	-0.0008433349	-0.00029834177	0.021211326	0.007299642	-0.0036215042	-0.016139356	0.0036526558	0.014686793	-0.021579992	
0.013148733	-0.00019728368	-0.017657368	0.014252993	-0.0034082907	0.007355751	0.0003363497	-0.016896361	-0.02857123	0.0040718783	
-0.012018127	0.0021378358	0.007892919	0.009960859	0.015396785	0.006889801	-0.01472624	-0.0056044254	0.01883812	0.015266303	
-0.011604359	-0.0029021055	0.004534709	-0.009314674	-0.0257202	0.015909502	-0.00420098	-0.011304847	0.00900612	-0.01623395	
0.0075931237	-0.016946217	0.0048385356	-0.015466622	-0.019719658	-0.0031522783	-0.023313688	-0.015269536	0.006370604	0.0023189534	
0.017846273	0.0063424017	0.005453058	-0.0093647465	0.005778637	-0.0073199845	-0.0029424655	-0.0041855685	0.013949162	-0.0016919824	
0.009761309	-0.003542188	0.009909982	0.0058314465	0.0085057495	-0.01312028	-0.0035558187	-0.0022856037	-0.008171664	0.001826701	
0.0105501665	0.0031928918	-0.007738532	0.009348585	0.0050674244	-0.0068165106	0.008444539	0.005956726	-0.0012708415	0.016660435	
0.008920017	0.0054618595	0.0017921694	-0.009379788	-0.0074548167	-0.006311098	0.01780476	-0.0052611264	0.0039630667	0.007065258	
0.0023999512	0.0023426178	0.0120766945	-0.020489443	-0.00093509245	-0.001026748	-0.013465757	0.007736559	-0.017346783	-0.0084654465	
0.0038095317	0.0019725696	-0.00093687215	0.007090824	0.009968743	-0.00090243557	-0.004295271	0.006030062	0.01281262	0.0062742084	
-0.0004990635	0.015069857	0.0107294	-0.0007162942	0.0010235964	-0.0035940595	-0.001350722	0.0012117253	-0.0053100917	0.00061543024	
-0.0020361086	0.020345785	0.0037426786	0.0039563314	-0.0018025959	0.008472822	0.007172587	-0.008237815	-0.0071049854	-0.010806163	
-0.0072635277	0.0002634015	0.014784309	0.00519755	0.014917551	0.0012771304	-0.016590802	0.0050492366	-0.004200377	-0.010589748	
-0.012627009	0.00016878737	-0.010468765	0.019085731	-0.023022495	-0.0052133906	-0.0028902318	-0.010292688	0.002611606	-0.005274523	
0.0030833345	0.01071315	-0.00041091006	-0.009782176	-0.0025746045	-0.00043754795	0.006697318	0.01678031	-0.0018261569	0.0039799125	
-0.0046462286	-0.0013427495	0.0024764584	-0.009927237	-0.0148841515	-0.0075135296	-0.0030500165	-0.006415949	-0.0071140686	-0.00575619	
0.019947093	0.0021599699	0.0015350329	-0.009071499	0.007218964	-0.006936131	0.0019653721	0.006238017	-0.00030383328	0.00989656	
0.019080652	0.00613908	-0.0008908446	-0.01483217	0.004920143	-0.0066232253	0.010826612	0.008757274	-0.013912446	0.0018296441	
0.004113879	0.0017235307	0.00908923	0.0036159572	0.003933081	-0.010233168	0.007531041	0.010129293	-0.0031126558	0.009766016	
-0.005606846	0.004445248	-0.014231667	-0.013337495	0.012766979	-0.017684508	0.0056238556	-0.012830702	-0.0009181273	0.0025031518	
-0.0066666496	0.0017905416	0.005430331	-0.0032650088	-0.008650655	-0.028368142	0.026126869	0.0074143526	-0.005066446	-0.0024130165	
-0.002314677	-0.015272395	-0.0059207524	0.0067566102	-0.0028874665	-0.021922655	0.036965806	0.003682199	0.007465011	0.0017911682	
-0.0155315865	-0.003723491	-0.0058645685	0.006063798	0.0066495216	-0.017154196	0.026052497	0.005970431	0.0013346758	-0.014059636	
-0.0043838853	0.01113747	-0.016649844	0.0116191115	-0.008620803	-0.02936691	0.010110683	0.0032951133	-0.013714324	0.012794573	
-0.0035537456	0.0024045731	0.0075660357	0.013397372	-0.021959933	-0.009755702	0.011150014	0.009371632	-0.0029140038	0.003204855	
-0.011024266	0.0038992155	-0.008054781	0.0004986833	-0.02217091	0.01638616	0.0044151377	0.0020724004	-0.0070115183	-0.011108182	
0.0005640542	-0.0038743597	0.003675037	-0.006499567	0.0021228318	-0.0015660619	-0.013522484	-0.019852225	-0.015046345	-0.004083187	
0.0036132042	0.0035025028	-0.0055226665	-0.019195916	0.0031116642	-2.1393143e-05	0.016682472	-0.01616923	-0.0049233073	0.0010129198	
0.011364294	0.003679225	0.0054711592	0.007770947	0.0025123083	0.010953582	0.010788768	0.019364933	0.016272731	-0.0020312045	
0.008149372	0.004139423	0.0013091495	-0.0043347795	-0.0030933798	-0.001052831	-0.0009458972	0.0057021696	-0.001324005	-0.009080183	
0.0011069734	-0.013724052	-0.014949925	-0.0035646355	0.00090471853	-0.010009679	0.0014931335	-0.002538846	-0.0017665211	0.013524799	
0.0053663775	0.0106229065	-0.006120663	0.00060899515	-0.011891305	-0.010268235	0.012858906	0.0077454112	-0.0037672222	0.0039201463	
-0.020851493	-0.012905488	0.02353019	-0.014300957	0.0012084638	0.00031940424	0.00088375475	0.01532217	0.008091049	0.014568095	
-0.007822594	-0.004678331	-0.00852805	0.008739905	-0.0037779987	0.0066157817	0.0040905834	0.01481702	-0.008953465	-0.011342717	
0.010443536	0.002455724	-0.0099993	0.00034010527	0.0035072784	-0.0063568233	0.0051473514	0.019699063	0.013231519	0.019093987	
-0.013898818	0.006162706	0.006234653	-0.0133273145	0.0028401748	-0.013346147	-0.018625569	-0.0093548065	0.0013553066	0.0072330204	
0.004142043	0.0020469765	-0.010025107	0.0031300064	-0.00050701323	-0.0077570165	-0.0006184455	-0.010482466	0.004674273	-0.0015983118	
-0.0017813065	0.0037364024	0.023068752	-0.018054064	-0.0022022394	0.014784364	0.0053173965	0.008977076	-0.0019054048	0.003199431	
0.017742006	0.00068987656	0.0031142232	-0.00035639413	-0.010765517	0.0041066725	0.014334748	-0.012468046	-0.0017045088	-0.023915697	
0.011515314	0.0045108134	-0.015175283	0.0033248244	-0.008599971	0.00013788014	0.0014570059	-0.014074687	-0.007389611	-0.007814617	
0.0023705927	-0.0045887535	-0.01825782	-0.00083883025	0.0046023	-0.007976028	-0.017976731	0.011900043	0.015235171	0.0012594875	
-0.0073526176	-0.0025889	0.007464411	0.0016528534	-0.008969884	-0.0011168733	0.0002415362	-0.002599004	0.0071708453	0.006654842	
-0.0023696797	0.00985026	0.006337038	0.00673811	0.001013004	0.011165525	-0.0065765833	-0.00019493964	0.00032999544	0.007846127	
-0.012132857	-0.004910749	0.011655805	-0.004610811	0.0074129626	-0.004692725	0.03144035	-0.0040398277	-0.0003220911	0.004396769	
0.0017262946	-0.017421141	-0.0023044657	-0.017290978	-0.0075784414	-0.010753119	0.0023210768	-0.00051702175	0.010716124	0.01128727	
-0.0065910188	-0.0075878585	0.029724162	-0.010607731	-0.018363122	-0.025876623	-0.00044165086	-0.010111832	-0.006052565	-0.0018942828	
0.003582714	-0.016393872	0.010911792	0.020238439	0.0010590181	0.002747372	0.021455556	0.002972107	-0.012813953	-0.0076647606	
-0.0006800892	0.0002984538	0.011205919	-0.0005034635	0.013225852	-0.043558244	0.038012624	-0.009395203	0.014435606	0.014352546	
-0.006488486	-0.015468911	0.02496837	-0.0056794644	0.009344361	-0.05464772	0.04335419	-0.00047072183	0.0061388263	-0.0050567426	
-0.009419932	-0.02308568	-0.002779789	-0.0029224188	-0.0014088079	-0.050766703	0.04857349	-0.0073090987	0.003651615	0.008484202	
-0.003768895	-0.0032981746	0.00070670445	0.008653859	0.010695019	-0.05847639	0.065942414	-0.001895127	-0.011900649	0.0050972286	
-0.0010197704	-0.0127989855	0.012084149	0.006037538	-0.009736057	-0.056512076	0.032454927	0.00424997	0.0034235711	-0.01412701	
0.017505068	-0.0008274175	0.0026522896	-0.019660503	0.00010402335	-0.029383773	0.03161131	0.0010081244	-0.012222186	0.0047792136	
-0.004671281	-0.0060306666	0.0030226007	-0.018293953	-0.00084877026	-0.027593628	0.009377452	0.008272307	0.02650619	0.011138989	
-0.0012709799	-0.010963189	-0.0057846797	0.018917497	0.0007780947	-0.001223137	0.0034888845	0.0032206848	0.0020725904	0.011798476	
0.010257755	-0.00681798	-0.018571815	-0.009010325	0.008024709	-0.0071418015	-0.0019256019	0.0027949833	0.0043741125	-0.0012564264	
-0.016961958	0.012197014	-0.008865709	-0.011381958	-0.021952948	0.0049474593	-0.00065138214	-0.0023271937	-0.0020694793	0.006270077	
-0.009769477	-0.016879564	0.0068322965	-0.008608925	-0.0059153307	0.0015936281	0.015967565	-0.0126939155	0.008800094	0.0038818517	
0.009131347	0.0071773375	0.0026505254	-0.0018329864	-0.0062239403	0.00050413515	-0.0056122523	-0.00853458	-0.002994237	0.0064247535	
0.0052477918	0.0044782306	0.0051945434	0.016263053	-0.0076472415	0.0046324353	0.005312134	0.013462248	-0.011134725	-0.01608567	
0.0046083047	-0.002549882	-0.0034406274	-0.0017254379	0.0012893269	0.0016546492	0.0016506094	-0.024837313	-0.00053883175	0.013436651	
-0.008458358	-0.010125769	0.0022673798	-0.015004367	-0.02229385	0.0036834017	0.0041685523	-0.000984872	-0.0040707137	-0.0044790083	
0.015551402	-0.0062240018	0.013521406	0.029137803	-0.004405187	-0.0055636326	-0.01150956	0.011705404	0.010868988	-0.0053222063	
-0.016385932	-0.008122384	0.0067149494	-0.00398312	-0.0011243691	0.00039384392	-0.0042045773	-0.0060824184	-0.0027736875	-0.0012080494	
-0.0053650155	-0.008685616	-0.015271828	0.0049962676	0.0043089543	-0.0060831243	-0.0055276523	0.0017196102	-0.0009618206	-0.0033734653	
-0.0015095451	0.012539543	0.0113551095	-0.0030901015	-0.009992877	-0.008353008	-0.008303568	-0.0104824295	0.012358734	0.013463983	
0.007457506	-0.01479817	-0.0037876726	-0.010326079	-0.024758138	0.0060308524	-0.004600248	0.011789474	-0.0019010704	0.0017469873	
0.004240021	-0.0056407717	-0.0056441873	0.0054508345	-0.0040669274	0.007418004	-0.00095015013	0.0033986494	0.017655434	-0.0019061506	
-0.011301273	0.020064726	0.002857262	0.013395749	0.014639579	-0.0026549785	0.0073198657	-0.014584737	0.0107983295	0.0007049507	
-0.0023498149	0.011632523	-0.01128939	0.005583618	0.0008804236	0.009507573	0.0072021796	0.0018563446	-0.0028843046	0.0070647104	
0.000852185	0.00237068	0.010348143	0.015538069	-0.008244273	-0.006023478	-0.0044868127	-0.0019766234	0.0033851997	0.0053105317	
-0.010597279	-0.017188365	0.011535459	0.017681515	-0.006790449	0.018676702	0.014204423	-0.013274111	-0.006421241	-0.017186511	
-0.023561679	-0.015265665	0.013024629	0.01773725	-0.018575035	0.024669588	0.010585461	-0.011410387	-0.011414652	0.017803043	
-0.010979651	-0.033592243	0.032247778	0.018285766	0.009272672	-0.013242224	0.003538321	0.0010868445	0.008265694	-0.008645574	
-0.012446615	-0.01227174	0.03030267	0.010594994	-0.035453144	-0.021873852	0.021850672	-0.016178703	-0.0051400024	-0.010663482	
-0.026557732	-0.011991809	0.027622597	-0.0011491727	-0.018601919	-0.030623095	0.03667562	0.00076888525	-0.014922918	-0.0022549306	
-0.008454913	0.0014607201	0.05031369	0.016750626	-0.016292386	-0.03520974	0.046837423	-0.017509114	0.0047110687	-0.022051444	
-0.00059948757	-0.015946995	0.040171515	0.0144521305	-0.024252025	-0.05308142	0.04971531	-0.0099992575	0.012075332	0.00018228668	
-0.0134325875	-0.028189866	0.023554325	0.00797606	-0.023690216	-0.04264598	0.062133137	-0.0110395355	0.009009742	0.011992191	
-0.0072647706	-0.00944318	0.015639815	-0.01655861	-0.008314845	-0.009473359	0.03976018	-0.005200492	-0.0068415347	-0.015707776	
-0.007555843	0.026955439	0.013821602	-0.0043249	-0.008613427	-0.0048938133	0.03115577	-0.013921062	0.01741306	-0.0005448018	
-0.02748043	-0.00011652215	-0.012878521	-0.005090691	0.0028412417	-0.003477231	0.013696165	-0.0050065974	0.021610776	-0.012761858	
-0.01677043	0.0006744217	0.0091334665	-0.005242047	0.002589166	0.0028001533	-0.0024862513	-0.0070561687	-0.0019501735	-0.010491672	
-0.006656389	-0.013708206	-0.0031487916	-0.0055131367	0.0027532117	0.02239406	0.015501971	-0.018179491	-0.005328182	0.015505112	
-0.030184792	-0.0057935435	0.011997107	0.0016133212	-0.023436412	-0.005788286	0.011516605	-0.011481318	-0.01048213	0.002168949	
0.0067749415	0.0026899758	0.0038213455	0.0071576494	-0.0055409595	0.0050939545	-0.016339958	0.009838845	0.027634272	-0.015929222	
0.0017338787	-0.019852983	-0.0034329048	-0.0054357233	-0.0005221052	-0.004710531	0.0075923386	0.0090405615	-0.006627513	-0.017922707	
0.008528492	-0.011280463	-0.0022143808	-0.014355796	0.012114032	0.0065743164	-0.0017356755	0.0049616676	0.007450304	-0.009872913	
-0.012340834	0.0010505059	0.0096872635	0.014934081	0.01861784	0.0023871218	0.01395557	0.0024258045	-0.007327631	0.0033373707	
6.8911986e-06	0.0060445485	0.016964553	0.00746014	0.012366555	-0.0027416719	0.00088104577	-0.007515427	0.010684063	0.006819388	
-0.00975531	-0.0011218719	0.0011734794	0.005120528	-0.009744391	-0.0031484696	-0.014794207	0.020870538	0.023044543	0.022712773	
-0.0020608522	-0.005077153	0.015288942	-0.009501197	0.0028071625	-0.006575712	0.0004775437	0.0019055133	-0.00818603	-0.006031474	
0.0018868747	0.011955221	-0.008133187	0.0019132813	-0.01579754	0.011888138	0.007482784	0.016240204	0.010273525	-0.018739171	
-0.0021447742	-0.016997468	0.0038149785	0.01485209	-0.008888195	-0.012237016	0.003030058	-0.015479764	0.00807873	-0.013447113	
-0.0041745394	0.01051791	-0.0105832815	-0.00218463	-0.0035846324	0.00554866	0.00012490145	0.013222291	0.0028026649	-0.0013928888	
0.0032318747	-0.0018197364	0.0178929	0.010340735	0.009463812	0.014499342	0.007314051	0.0013237286	-0.0026145491	0.0023202926	
-0.017883513	-0.00030541164	-0.0062744133	-0.009045287	0.014436617	0.004284635	-0.015942192	-0.0070051006	0.0063510803	-0.01672954	
-0.0017686018	-0.022743128	0.017209163	0.011714616	-0.005068259	-0.010041286	0.00971299	-0.0009343679	-0.00023246488	-0.008526141	
-0.018496031	-0.011811449	0.011210308	0.017517362	-0.005293246	0.015484308	0.0072932024	-0.010900916	0.00874261	0.011658899	
-0.038571957	-0.018432485	0.013533651	0.046401374	0.003944839	0.033024136	0.018292088	-0.008310656	0.007320954	-0.009767916	
-0.0052443403	-0.03047435	0.017673545	0.0295398	-0.02091991	0.013405199	0.025691474	-0.020352004	0.0063137547	-0.026936963	
-0.025817815	-0.029743575	0.0123521425	0.029145563	-0.008619008	0.03466501	0.022527244	-0.02167068	0.025069427	0.004837196	
-0.013158468	-0.025975164	0.010971374	0.021945886	-0.02685571	-0.0024985105	0.027960522	-0.013053283	0.02726633	-0.014239997	
-0.019724548	-0.011887257	0.015890045	0.04214668	-0.047169294	-0.02296836	0.060257647	-0.053903874	0.038025394	-0.002309988	
-0.0062292693	-0.0031096519	0.005962849	0.032039583	-0.043811236	-0.009286646	0.044236556	-0.04868002	0.058317594	-0.018766446	
-0.013044141	-0.015552795	0.029998794	0.018191382	-0.02997713	-0.011822322	0.062564105	-0.070996135	0.043177903	-0.016591167	
0.011244968	-0.013892352	0.013750849	-0.013533508	-0.024982667	-0.0149895875	0.040946677	-0.07539922	0.052578293	-0.01367385	
-0.0138004	0.003039808	0.014130893	-0.013871745	-0.04010347	0.014625483	0.02734344	-0.055547867	0.04113042	-0.00085784646	
-0.004507581	0.009871029	0.014421967	-0.017818343	0.003220165	0.009695071	-0.008767097	-0.03567521	0.036667284	0.0036988924	
0.008906043	0.010381079	0.009384389	-0.0012548561	0.019148968	0.046287935	-0.022713164	-0.0131546445	0.021358397	-0.024592428	
-0.008244285	0.010517487	-0.011516	-0.02835843	0.002527389	0.05222041	-0.0014388753	-0.0149194375	0.0020425287	0.0011700062	
-0.014335892	0.004198403	-0.03162845	0.004854142	-0.00038802475	0.02504205	0.010434571	-0.006550866	0.015051254	-0.019527022	
0.0006217593	0.023250062	-0.011021641	-0.009787542	-0.005881654	0.026951708	0.0037736264	0.010674924	-0.006017444	-0.0020336197	
0.0017127619	-0.0006811776	-0.0026358145	-0.023457399	-0.012558018	0.035067625	-0.007994443	-0.017931297	0.008437477	-0.0065491498	
0.0067219054	-0.0051670913	-0.001387515	-0.00083844026	0.0064041857	0.010889265	-0.014495063	0.018397061	0.0042729215	0.006480386	
-0.009291843	-0.0028772266	-0.008979615	-0.024481762	0.01303498	0.0017975351	0.0039339336	-0.010363339	0.021088503	-0.0027445965	
-0.00777709	0.008439483	0.0041512935	-0.011278846	-0.017758423	0.024420328	-0.0049066534	-0.003753919	-0.0134907095	0.008336307	
-0.0013666451	0.001991263	-0.004490486	0.0028686353	0.012248069	-0.0075635235	-0.0038345875	-0.0064373137	-0.004102796	-0.025061583	
0.010290813	0.010279082	0.010714411	-0.0072059366	-0.002863548	-0.009700096	0.0072922246	-0.0007191302	0.0021104428	0.0082761645	
-0.0031163977	0.0050037387	0.013623168	0.0035704884	0.0068466817	-0.023895402	-0.015308147	-0.003979177	-0.0011121253	0.0066614747	
-0.0010679364	0.010028159	-0.014134061	-0.0018748862	0.0017227107	-0.010855409	0.0015627029	-0.012538245	0.012066114	0.003927645	
-0.010674575	0.00079062884	0.013315628	-0.0016957116	0.006921531	-0.013087055	-0.0018831322	0.009415451	-0.006738386	0.0011789855	
-0.0035281307	-0.002421647	0.0029394117	0.0035829127	0.004005995	-0.01667542	0.0028242338	0.0013502452	0.0064236345	0.004671586	
-0.00337983	-0.022126548	-0.011348878	0.0156198265	-0.00072824606	-0.014264557	-0.02629321	0.0027499592	-0.007324353	-0.008045668	
-0.0005062149	-0.023016445	-0.012398714	0.040606853	0.0004514578	-0.0037812449	0.009367697	0.011991911	0.0101539735	-0.004419047	
0.00980176	-0.014242633	-0.0023442372	0.020711772	0.002848538	-0.015304074	-0.003972287	0.010069317	0.0022609683	-0.006988582	
-0.009994637	-0.020053249	-0.03167967	0.039055545	0.00018860886	0.016102476	-0.030754441	-0.001906452	0.011912033	0.0104594	
-0.028306337	-0.02814125	-0.000804151	0.051639598	0.011844868	0.020633232	0.008352662	-6.3107334e-05	0.0288317	0.0033438595	
-0.017610868	-0.030560547	0.0008938738	0.037109755	-0.027034493	0.02926695	0.008168373	-0.049302746	0.036424845	-0.002106404	
-0.009526089	-0.025097929	-0.008568534	0.027105669	-0.04862094	0.017257527	0.008109221	-0.0429408	0.051414885	0.02562692	
-0.026668748	-0.025417622	0.0023149361	0.018909682	-0.03682482	0.018605852	0.02964112	-0.07032772	0.03954521	0.03726658	
-0.016911095	-0.01849689	0.01534109	0.06475041	-0.0531944	-0.01266081	0.06387735	-0.06178224	0.028374007	0.036363736	
-0.017812297	0.01093125	-0.010260571	0.038589455	-0.075887576	-0.008245084	0.049260333	-0.070618264	0.035014354	0.053772774	
-0.007530372	-0.017716506	0.005818467	0.042084783	-0.06128095	0.026531937	0.016169721	-0.07188376	0.028828278	0.057565957	
-0.010374278	-0.018411506	0.014546721	0.00747738	-0.037838124	0.013387109	-0.0074428786	-0.07431459	0.028019996	0.03819166	
-0.014701121	-0.010124987	-0.008079548	0.0007839943	-0.01590435	0.02884294	-0.0071352078	-0.061711647	0.02514432	0.0098179225	
-0.0010942201	-0.0076811966	-0.01522434	-0.011585411	-0.0243959	0.04705375	-0.014813086	-0.041761246	0.028335635	0.0047435234	
0.0070657716	-0.0063720294	-0.010677048	-0.028053138	-0.002683417	0.038547453	-0.009748397	-0.018270193	0.030577896	0.0066299215	
-0.010107676	-0.011212517	-0.007693686	-0.00026579233	-0.004189927	0.045185484	-0.014836338	-0.036045894	0.025581595	0.002819733	
-0.01196253	-0.02070144	-0.008257078	-0.024400245	-0.0060234806	0.04341502	-0.0034314403	-0.030856818	0.022783894	-0.00019697941	
0.0040954417	0.0069119837	-0.011620306	-0.013170697	-0.005109748	0.04757252	0.0046268706	-0.024968477	0.005114678	0.00027463093	
0.01631553	0.0023204596	-0.001708122	-0.011525083	-0.024068903	0.020033881	0.011936593	0.0029094266	0.0074690576	-0.002875262	
0.00081462547	0.0011694632	0.01745711	-0.0044837086	-0.0057093087	0.0054240515	-0.009590547	2.3178813e-05	-0.004420168	-0.0051319567	
-0.0049249283	-0.0041165072	-0.0021711949	3.7894923e-05	0.0019108434	0.016416322	0.0002960638	0.01126435	-0.011009039	0.0013837082	
-0.0010315061	0.0028267603	-0.019309046	-0.0110440245	0.005350746	-0.022299377	-0.0026646554	0.0073104086	-0.014387711	0.0018934167	
-0.016526524	0.005660328	0.019850371	-0.003073776	-0.0013173815	-0.006863151	0.007916521	0.006867145	0.016478159	-0.008773697	
0.01223178	0.02329068	0.01008386	0.010401184	-0.014867062	0.0031830326	-0.0096418895	-0.015544331	0.010233698	-0.00070105115	
-0.0055367956	-0.0037152315	-0.009285532	-0.017836817	-0.01159825	-0.00814192	-0.0011883767	0.0011216005	0.017570198	-0.0039362283	
0.01066124	0.003023748	-0.009552089	-0.011980056	-0.0064389785	0.005327776	-0.0049451445	0.0050141523	0.0007898294	-0.0030715843	
-0.003337569	0.00070040184	-0.0034656194	-0.0028358563	0.009493825	0.005734047	-0.0010013828	0.013456054	-0.0026969276	0.01156494	
-0.01031697	-0.0057126344	-0.01611265	0.016353197	0.012645289	-0.010223645	0.005050195	0.00054340786	0.0068166815	-0.0024595486	
-0.020254735	-0.0061217975	-0.000709288	0.01552564	0.024484849	-0.012188349	-0.0035552052	0.008885977	0.015034461	-0.013835484	
-0.016204985	-0.028304892	-0.012408524	0.016982682	0.013883096	-0.008292616	-0.020906849	0.01618805	-0.00045945725	0.010843126	
-0.00757158	-0.010382304	-0.007597618	0.03367459	0.014636548	0.0066789896	-0.019375093	0.0055973157	-0.016206201	0.0072818245	
-0.0045044576	-0.023575502	-0.0025415784	0.026044883	-0.0044316803	0.010245957	-0.015117365	0.018565906	0.02133725	0.022779776	
-0.0070983632	-0.02489703	-0.0033404895	0.0021452187	-0.018138707	0.027253874	-0.02361916	-0.011032055	0.0019968222	0.023639789	
-0.017602239	-0.03692641	-0.009061494	0.018928686	-0.040245924	0.034952015	-0.014484843	-0.025379682	0.030190011	0.055285573	
0.008740292	-0.03535933	-0.0030807063	0.0058684223	-0.03994095	0.013238417	-0.012053772	-0.019262446	0.007641178	0.054919377	
0.008935658	-0.03090702	-0.0027021824	0.013898952	-0.0637359	-0.013361656	0.013119739	-0.017771328	0.024892673	0.08418855	
-0.009235314	-0.004296628	0.00046034745	0.027051441	-0.086154565	-0.010827862	0.028276732	-0.008884161	-0.030298423	0.097914435	
0.011626155	0.020939123	-0.01840123	0.040933248	-0.07686568	0.0035412728	0.007908486	-0.01596853	-0.008236455	0.073479846	
0.011010648	-0.017361276	-0.02678565	0.03920613	-0.0704252	0.0040442776	0.0032515726	-0.012964795	-0.032589372	0.08515806	
0.016209118	-0.02364518	-0.011677259	0.028046897	-0.040930107	0.023852317	-0.05117593	-0.017023956	-0.011839375	0.06548652	
-0.0140323965	-0.009492898	-0.0012219534	-0.020274678	-0.027917124	0.032416947	-0.064647816	-0.019122437	-0.0052396515	0.055383977	
-0.0035002735	-0.0046272185	0.014666854	-0.0323563	-0.018321577	0.062302683	-0.043807954	0.00062697474	0.007906954	0.03479185	
0.009346673	0.00043720822	-0.01341351	-0.019011278	-0.016089786	0.065103866	-0.03091351	-0.0017586462	0.026976008	0.04770779	
0.007304635	-0.003641183	-0.014176961	-0.015109287	-0.011010873	0.058388013	-0.012194787	-0.019186545	0.019905804	0.007295365	
0.010675844	-0.009295037	-0.023824355	-0.009269843	-0.019079324	0.0631705	-0.016013127	-0.013111193	0.0071846005	0.016586918	
0.0023166707	-0.008999142	0.006813815	-0.010530833	-0.012001082	0.05205636	-0.011841287	-0.025686005	0.010671988	-0.005381713	
-0.003099479	0.0016432453	0.0037104476	-0.012570397	-0.03601237	0.043133423	0.00088899146	0.0059373267	0.01082536	-0.0145774465	
0.0031651203	0.015157885	-0.0018048693	-0.0035494608	-0.013761599	0.015934873	-0.0044148257	0.018009191	-0.005561921	-0.0013301299	
0.004451209	-0.005196499	-0.006802429	0.0037460176	-0.023844488	-0.005443173	0.0002173288	-0.012331854	-0.00074548164	0.017311687	
-0.0016013443	0.005409551	-0.0030374583	0.006164758	0.003274483	0.01687592	0.005639708	-0.017523613	0.0015829047	-6.3501604e-05	
-0.005718851	0.0036254595	-0.0051293373	0.0065086195	0.005113484	0.015200841	-0.0035738754	0.009263479	-0.0010331325	-0.009397328	
0.0015013575	0.004753493	-0.01123549	-0.01764569	0.0034546799	0.003845264	-0.0006967982	-0.0029639076	-0.0070316633	-0.021546915	
-0.011145341	-0.0032330777	0.013115976	0.012032831	0.013914788	-0.0016783186	-0.019821389	0.008068632	-0.00066238287	-0.0013778065	
-0.01206932	-0.0015293433	-0.0037236842	-0.004686388	0.016952014	-0.008658347	0.00048740965	-0.0011375637	-0.003707307	0.011908693	
-0.024824781	0.009371311	-0.0264589	0.0052753105	-0.0022403852	-0.0012109528	-0.008809768	0.00046479754	0.0011276854	0.007362175	
0.009203198	-0.007983025	0.00061480515	0.01910459	0.00016797324	0.008551038	0.02255809	0.0048466967	-0.016736189	-0.028075794	
-0.023691664	-0.015663834	-0.01641455	0.023577714	-0.0032079346	-0.016349783	-0.026423564	0.029723933	0.011914324	0.0024053697	
-0.00020638999	-0.0038027123	-0.02546994	0.026439052	0.00065499474	-0.017088585	-0.03137068	0.012498029	0.016029522	-0.01124005	
-0.009179317	-0.01947601	-0.0036756378	0.009982877	-0.0027565644	0.0014852722	-0.034208257	0.017442672	-0.005379839	0.01691721	
-0.006584429	-0.029970452	-0.0056496793	-0.019074332	-0.011362222	0.02889017	-0.047537986	0.023638558	0.017279323	0.024936773	
0.029729636	-0.035028562	-0.0023145396	-0.008859656	-0.021179592	0.010291768	-0.031098723	0.026171314	0.01656837	0.05093208	
0.029912155	-0.052301235	-0.0023782295	0.0011201405	-0.027075663	0.012778374	-0.007099492	0.01836067	-0.0003064327	0.07883421	
0.017869089	-0.02909483	-0.02527371	-0.009131636	-0.034930747	-0.017808393	-0.0078063873	0.035382643	-0.006655902	0.08655873	
0.02107745	-0.010233834	-0.009758689	0.004662512	-0.061907176	-0.04093023	0.012246085	0.048194665	-0.023417898	0.0830257	
-0.007817989	0.031669952	-0.030978832	-0.0030043374	-0.085269704	-0.03134388	-0.0061133616	0.054260448	-0.029330026	0.08841526	
0.0008220276	0.01976043	-0.028773602	0.026128871	-0.07454927	-0.018936414	-0.028971475	0.05618263	-0.041340005	0.06283153	
-0.013186335	0.024041748	-0.015621152	0.018901197	-0.048043925	0.028427653	-0.059806872	0.062627375	-0.05380806	0.08211014	
-0.013823944	-0.021197269	-0.011221961	0.0072987266	-0.027654983	0.04730223	-0.042745486	0.052949812	-0.022788765	0.06892604	
-0.016237915	-0.026739964	0.0031509048	0.018796707	-0.005627251	0.035812832	-0.052363466	0.029602455	-0.015948804	0.053559866	
0.0077070994	-0.016782079	-0.015007802	-0.032394886	0.0005489221	0.04196572	-0.060981087	0.007819702	0.005122357	0.055201683	
-0.0044174157	3.5652392e-05	0.0050634732	-0.035963524	-0.01006512	0.048259817	-0.059018057	0.008656103	0.01937076	0.037652303	
0.021091279	-0.016633468	-0.016311467	0.0014451076	-0.014755989	0.07981508	-0.043230865	-0.008600581	0.030309932	0.00982165	
0.012209224	-0.00803578	-0.0133946305	-0.012257425	-0.02492195	0.06283178	-0.024978375	-0.018507127	0.0036463176	-0.002791665	
0.0003861502	-0.0123384725	-0.010865746	0.007676107	-0.02206562	0.04182269	-0.0061409166	-0.022197193	-0.0034743617	-0.0134920385	
-0.018413592	0.006370692	0.0022542088	0.000105839186	-0.01469358	0.034795955	0.0048672613	-0.0026309942	0.010144101	0.0133207105	
-0.006466063	-0.013782473	0.0074623716	-0.0066063027	-0.00963577	0.016262794	0.0024924004	0.007651859	0.008986829	0.014962897	
0.021012811	-0.008835999	-0.011657946	-0.009781732	-0.00087650766	0.018045135	0.011446748	-0.022134747	-0.0043481216	-0.004806188	
-0.006114961	0.0031559854	-0.025173996	-0.017397547	-0.006225167	0.013412556	-0.0047442345	0.0058078784	0.014117452	0.0070042512	
0.00544546	-0.010965085	-0.002051802	-0.008633871	0.0020442184	0.012539891	-0.004552351	-0.021232821	0.0068365475	0.009296197	
-0.012381218	-0.0067499173	-0.008502121	0.0022122178	0.0085059805	0.007791733	-0.013633458	0.017319473	-0.014429908	-0.002891242	
0.0003286994	-0.008923016	-0.0013468323	-0.011619746	-0.005047692	0.0014533495	-0.009750094	-0.015672289	-0.013955725	-0.0018659035	
-0.0059353965	0.012748467	0.0053783585	0.018771775	-0.011916699	-0.008888086	0.02637862	0.0064059836	0.01692753	-0.020002432	
0.008725919	-0.019441357	-0.0045953365	0.004801237	0.015706567	0.0041929884	-0.0077521964	-0.00022224624	-0.0011983354	0.0016140114	
0.00538798	0.0004535888	0.015893973	0.008578057	-0.009358672	-0.014242678	-0.0047574015	0.024620786	0.004585654	0.0013121514	
-0.01894885	-0.020517493	-0.0020660516	0.014721345	0.014488747	-0.0029862006	-0.018131336	0.030122751	0.005441825	0.007617313	
0.012874374	-0.006993475	-0.00094992894	-0.006071033	-0.0022810246	-0.0040207272	-0.04033876	0.033154797	-0.0044360063	0.029372675	
0.02795409	-0.026894543	-0.004693528	-0.015611641	-0.013625966	0.020814003	-0.03937614	0.041914165	-0.003222989	0.052878182	
0.033245564	-0.02955392	-0.008394352	-0.014456706	-0.015752088	0.013361638	-0.022882933	0.041234165	-0.00136724	0.054595537	
0.0193787	-0.029012244	0.0129528055	-0.051184125	-0.021560835	0.0014383644	-0.03322842	0.0318543	0.019836804	0.08355181	
0.01681656	-0.041089926	0.007585991	-0.027875278	-0.03171583	0.0076124156	-0.05796404	0.042249594	-0.013893853	0.08618615	
0.043563478	-0.018623041	-0.017498605	-0.036738407	-0.03826992	-0.029025579	0.018147556	0.041875213	-0.024963845	0.07910995	
0.0021905997	0.024943465	-0.022539023	-0.01169691	-0.0460557	-0.022675358	0.028899455	0.071360536	-0.027539477	0.057194244	
-0.00031516078	0.024586536	-0.01353231	-0.0030653258	-0.076859765	0.006067196	-0.00071145094	0.0832257	-0.03290093	0.044523705	
-0.012076058	0.046094943	-0.015103873	0.00689875	-0.057863798	0.032936245	-0.049267966	0.060066357	-0.024081087	0.040554482	
-0.021456812	0.017836705	-0.019934935	-0.00560846	-0.054709103	0.035651974	-0.0646904	0.047526877	-0.021813817	0.018729357	
-0.01415239	-0.02138316	-0.013935644	0.008804299	-0.0054482818	0.025769264	-0.084918424	0.07552906	-0.04432558	0.08230711	
-0.015461503	-0.01895176	-0.0039877533	-0.012784731	-0.01149106	0.023664469	-0.08313057	0.044781752	-0.0007257751	0.07039688	
0.018672284	-0.014438593	-0.0071550123	-0.033532273	-0.003806266	0.036462024	-0.070757225	0.026406763	0.0052010505	0.028853148	
0.03303418	-0.018605735	-0.016486943	-0.017109623	0.0019473475	0.062697314	-0.039371125	0.002670017	0.012113244	0.03760833	
0.031720545	-0.028509557	-0.02064368	-0.024118956	-0.019516015	0.048400342	-0.06152746	-0.029525977	0.015178379	0.008005142	
0.017315643	0.00043763753	-0.013113023	-0.015825024	-0.011547942	0.05072627	-0.020505872	0.011200651	0.010641121	-0.00793041	
0.018134365	-0.018679108	-0.019286674	-0.016220586	-0.029944694	0.05556384	-0.019115528	-0.01857082	-0.0033570584	0.0014204206	
0.000944183	-0.012220791	-0.003472991	-0.0027969799	-0.01969804	0.053380635	-0.0051305047	-0.007897707	0.014556215	0.0016205423	
-0.012077542	-0.01325431	0.01831911	-0.009134516	-0.030068267	0.0096074985	-0.016698621	0.009612135	0.0055095055	-0.0022751612	
-0.005537546	0.0045916103	-0.004455455	0.0116076125	-0.008100897	0.019181373	0.005901964	0.008677732	-0.012524081	0.017265098	
0.029842436	0.0039990805	0.004968691	0.0023677067	0.005829739	0.006867283	-0.020134572	0.0052339546	0.0101928385	0.0026511834	
-0.01646936	-0.009867721	-0.01313698	0.0005287661	0.010727714	-0.014325405	0.0026436495	-0.004443411	0.0034351568	-0.009129824	
0.016379388	-0.023833556	0.009910918	0.008995344	0.0027192696	0.0038270466	-0.0114757735	0.008006192	-0.015680542	0.0028597547	
-0.012208621	-0.017216193	0.008345411	0.014206307	0.0018789399	-0.0051126345	0.005968538	-0.0014560932	-0.015023483	-0.010385141	
0.003342938	0.02232326	0.010091097	-0.0028275528	-0.00029787002	-0.015318308	0.0031901281	0.009292376	-0.0026964394	0.0013387302	
-0.008173877	0.015329123	0.0019282203	0.012912599	-0.018673722	-0.0020674886	0.010608711	0.034476656	0.006552696	0.013498555	
-0.019521495	-0.0042474344	0.0043547167	-0.003502853	0.008430392	-0.0048768357	-0.011478478	0.031891517	0.0014541078	0.011159311	
0.011364245	-0.0030120278	-0.005717225	-0.005440714	0.0012985572	0.0041612005	-0.034082174	0.016005697	-0.023579556	0.013486639	
0.005648545	-0.04001228	0.01342204	-0.0062571866	0.010279792	-0.015795272	-0.025011566	0.024364656	-0.006431505	0.03038794	
0.00759904	-0.021228565	0.004495218	-0.0051298654	0.0024903102	0.016088855	-0.022488443	0.025466299	-0.018212048	0.042356677	
0.03396824	-0.019678844	-0.02267005	-0.03238883	-0.0008753587	0.020057993	-0.027799776	0.00040813637	-0.0120884525	0.06880797	
0.0069758836	-0.024150029	-0.0077886065	-0.04729999	-0.0048122937	0.0099250395	-0.00758407	0.005001324	-0.011381909	0.07186395	
0.0020498973	-0.033889577	-0.020597756	-0.045587435	-0.019590737	0.013778283	0.007999881	0.017858716	0.007839628	0.05099051	
0.017268922	-0.021472828	-0.025013674	-0.01956118	-0.030067932	-0.021293592	0.033669777	0.02060818	-0.004706095	0.03445924	
-0.01243576	0.019624885	-0.044200502	0.0069368193	-0.059291653	0.006956498	0.016702317	0.043008074	-0.0028531682	0.015769951	
-0.022354532	0.04101612	-0.041804053	0.028661707	-0.06716886	0.036860555	-0.010887299	0.029772654	-0.010496648	-0.016552826	
-0.034576427	0.05372931	-0.030275	0.00027778244	-0.040168587	0.03537853	-0.026581824	0.014795158	-0.00772311	-0.014164659	
-0.044183828	0.017016053	-0.030112512	0.0045985603	-0.002884103	0.049728442	-0.0836777	0.024552252	0.0052627716	0.023000713	
-0.016002871	-0.018601287	-0.025521237	0.016175298	0.02628361	0.019655632	-0.06956655	0.03462837	-0.013838191	0.05186849	
-0.002029511	-0.04106535	-0.014987915	-0.025551876	0.03754718	0.0057564112	-0.075046115	0.03787413	-0.0135211805	0.08395391	
0.0028596502	-0.036799744	-0.00841619	-0.020370502	0.02447233	-0.006819942	-0.055054996	0.012686842	0.003613794	0.06624022	
0.013521473	-0.03961487	0.004768107	-0.010080626	0.0010875688	0.008201354	-0.051685065	0.011515857	-0.0051914863	0.04422576	
0.027080491	-0.0126579655	-0.0032473244	-0.020216687	-0.000295697	0.0087747015	-0.04010033	0.025528435	0.0017235085	0.0151647525	
0.02201648	-0.031455513	-0.028897898	-0.008872427	-0.020975277	0.038972177	-0.02736234	-0.00076678407	0.02178333	0.011156811	
0.025223633	0.009437365	0.002983366	0.0008984971	-0.010597855	0.0406547	0.00099338	-0.0011468154	-0.012126556	0.0071773073	
-0.018857615	0.002712006	-0.009564037	-0.01605156	-0.008829274	0.029570652	-0.0015508117	0.0045332117	-0.000524166	0.003457979	
0.005367737	-0.0013553224	-0.00059741986	-0.001291983	0.0050277696	0.019023497	-0.00883564	0.007911393	0.006850598	-0.00068876724	
-0.0076470417	-0.010609514	0.008495869	0.004054888	-0.0025606737	-0.0006219749	0.00384648	-0.00499602	-0.0027377487	0.00584362	
0.018648637	-0.0041755885	0.0041582356	-0.019651799	0.011577463	0.0058539086	0.013293419	0.023185778	0.0009685371	-0.0008076081	
0.0027264373	0.026932541	-0.0032167286	0.018825462	-0.0075884196	-0.0071318094	0.0061572315	-0.006815288	-0.011187454	0.00021115298	
-0.013315965	-0.010053242	-0.008311671	-0.0005167169	0.00055694266	-0.008318045	0.0070077004	-0.0017776251	-0.00068945315	-0.0066480306	
-0.0068439743	0.0034453995	0.006578483	0.008184764	0.02146161	0.0022273406	0.010717138	0.01935486	-0.0041741403	0.001732888	
0.0030694187	0.0028474797	-0.002063489	-0.009322639	0.016742863	0.0037743356	0.002140339	0.0065438203	0.0069370065	-0.00609593	
0.0061827716	0.009795368	0.0060010543	-0.019271025	-0.017528247	-0.003662907	-0.016260847	0.029718783	0.009125014	0.0058625294	
0.002602559	0.006865307	0.015703319	-0.0015601761	0.026071468	-0.01220372	-0.0037317777	0.013423918	-0.00125274	0.019000731	
7.474032e-05	-0.0044560703	0.0059339446	-0.00849361	0.015389591	-0.018189572	-0.011351602	0.011322464	-0.006235356	0.028865049	
0.01859674	-0.0017519245	-0.010904525	-0.013573729	0.0048768236	-0.022286616	-0.0027075633	0.01986441	-0.033594888	0.039824527	
0.053479098	0.004301412	-0.024330711	-0.038839538	-0.00712334	0.0017532867	-0.013354218	-0.0025712254	-0.034647763	0.055397753	
0.020587066	-0.042901788	-0.017677212	-0.051845726	0.011661897	0.02870811	-0.0024176026	-0.019525371	-0.036164016	0.0872603	
0.023492716	-0.024349602	-0.037222985	-0.039633185	-0.0060771257	0.016468702	0.03876927	0.009675496	-0.0031558422	0.06086959	
0.0036941573	-0.03768952	-0.039756987	-0.048518393	-0.015905775	0.024285499	0.0452716	-0.01057583	0.008868459	0.05423792	
0.0043404563	-0.027751347	-0.047813784	-0.019049287	-0.015220088	0.020709733	0.07726376	-0.02915008	0.04594634	0.011029914	
-0.004196726	0.014690188	-0.074150324	0.007456241	-0.029601177	0.028885711	0.031413063	-0.011846879	0.012183385	-0.01875973	
-0.042969782	0.06229324	-0.050398044	0.041569956	-0.058228634	0.045616694	-0.0033329006	-0.009384989	-0.005562993	0.004830182	
-0.06654998	0.0809225	-0.039841287	0.03916743	-0.012054678	0.042735603	-0.024779951	-0.022499995	0.012812889	0.01371439	
-0.035193864	0.035501797	-0.003098288	0.018524365	0.016068911	0.031136954	-0.05421114	-0.0011989776	0.016656645	0.048337437	
-0.04396077	-0.011823223	-0.018662635	-0.01349929	0.048223913	-0.0016155592	-0.052045185	0.030134238	0.0051388573	0.09117243	
-0.029532887	-0.027076477	0.017064275	-0.018079419	0.04353636	-0.029068487	-0.04773453	0.025160823	0.0009363737	0.07680164	
-0.013006921	-0.023480404	5.2713003e-06	-0.006458001	0.03126762	-0.056253668	-0.034125302	0.045557566	-0.015592298	0.082258515	
0.011684734	-0.03223786	-0.021067314	-0.03620579	0.027475927	-0.017673275	-0.019631034	0.03199246	-0.009372868	0.03623935	
0.025508804	-0.02415754	0.000973859	-0.0073197135	0.006623396	-0.011013267	-0.026926618	0.011095576	-0.0015052486	0.0017936347	
0.03675527	0.005320165	-0.0013943539	-0.0066457577	0.0024243179	0.0009869903	-0.009608389	-0.01430831	-0.003711451	-0.0008882625	
0.02464295	0.0059681083	-0.0048801764	-0.008090437	-0.0021276185	0.009324362	-0.016036699	-0.0038871982	0.0045130146	-0.007068251	
0.0010500315	-0.008272933	0.012766654	0.00042927338	-0.010345143	0.0073828446	0.009118654	0.013251377	0.010097909	-0.0041225473	
0.01642741	0.019351024	0.0068059093	0.0041645286	-0.004873858	0.0019640955	0.016732087	-0.009217905	0.0054873214	-0.014201284	
-0.016535513	-0.0059369737	-0.0011984727	0.015860748	-0.022129366	0.0018199042	0.02152905	-0.007661866	0.0069537624	0.016567018	
-0.01709486	-0.0056155473	0.011598063	0.00090909266	0.0056619463	-0.015928585	-0.0031153513	0.00302026	0.01599305	-0.015627889	
-0.010553192	-0.01148182	0.0013951637	-1.0806558e-05	-0.0056151687	0.0022254505	-0.013802745	-0.02165133	0.009775236	-0.004631647	
0.0016961001	-0.0051342514	-0.0061599487	0.009379992	-0.0042201295	-0.01857428	-0.016744848	-0.002721176	0.0027491676	-0.00997784	
0.022316493	0.0027540785	0.009860752	-0.009898635	-0.009503252	-0.010957398	0.010317553	-0.016434796	0.009669588	-0.011604453	
-0.0030308694	-0.007928445	0.0066621564	-0.001682733	0.0010278536	0.016497336	-0.020893997	-0.014920051	-0.0036400259	0.016435916	
-0.01711785	0.01389829	-0.0070598866	0.002402711	0.0029316763	0.008471275	0.0062181423	0.0027198475	-0.01837956	0.0023128253	
0.0012902383	0.011686062	-0.017800007	-0.0014082537	0.0005499562	0.001031845	0.003322324	0.010805612	-0.019346954	0.019703582	
0.0030579455	-0.0065624104	-0.000823978	-0.030497491	0.007991148	0.0045894566	-0.0021422948	0.0125482585	-0.018915642	0.048834734	
0.017947216	-0.027602026	-0.019418325	-0.03309912	0.021137113	-0.00378905	-0.025403177	0.0018622878	-0.051294677	0.052956045	
0.033422247	-0.042038377	-0.023474004	-0.03797834	0.04330031	0.01717525	-0.0028217633	0.004292314	-0.036305875	0.056227528	
0.029371768	-0.011249238	-0.031059835	-0.033552937	0.009038727	0.030904975	0.0104995975	-0.013430016	-0.01958112	0.07500977	
0.03622899	-0.025614493	-0.05444225	-0.051778287	0.009243083	0.04472158	0.037051644	-0.023456926	-0.011876404	0.059603937	
0.0065501416	-0.036929954	-0.06184623	-0.02291704	-0.03592673	0.0250402	0.038247094	-0.041996155	0.029363474	0.02643997	
-0.010800791	-0.01957313	-0.054486975	-0.0068396237	-0.053673565	0.04352346	0.054014653	-0.044859484	0.042530257	0.00940245	
-0.032559663	0.02654275	-0.054248825	0.030245334	-0.044651464	0.08456953	0.02188295	-0.034582756	0.03864648	0.0048292447	
-0.083420806	0.078578494	-0.044334047	0.04650602	-0.036018454	0.049119595	-0.019074112	-0.049553316	0.040772278	0.01660363	
-0.06584994	0.077238105	-0.06587525	0.02493072	-0.01911461	0.025932018	-0.011443113	-0.044662092	0.0010014841	0.044647228	
-0.081048764	-0.000114814946	-0.031488076	0.0159122	0.035823036	0.006663125	-0.03645075	-0.021146642	0.0017378249	0.059366	
-0.0523134	-0.04756214	-0.01018651	-0.015406505	0.063940905	-0.031352956	-0.016081354	0.030124208	-0.005459406	0.11482842	
-0.033938274	-0.049688622	-0.022700947	-0.008270011	0.059099387	-0.060863037	-0.03951232	0.03935521	-0.02665916	0.08925462	
0.0010061045	-0.03833876	0.008906791	-0.024808725	0.04547046	-0.034611493	-0.02330449	0.0502916	-0.029154854	0.044285357	
0.0113876425	-0.01709305	-0.0063128867	-0.004970441	0.028401492	-0.038624775	0.019592088	0.0458802	-0.0112035945	0.04046403	
0.045309402	-0.00047082503	-0.010655665	-0.001591869	-0.0039376016	-0.043184567	0.012063627	0.018679284	0.0013104158	-0.010485046	
0.030135166	-0.01151668	-0.009669648	-0.011302545	0.0029679118	-0.008619622	0.008763048	0.0002565524	0.0030450237	0.008183329	
0.042798124	-0.018642558	-0.03612675	0.012448516	-0.018988185	-0.014015256	-0.008052666	-0.004484095	0.0036326703	-0.0019791257	
0.030500246	0.008625526	-0.017398681	0.0019657628	0.0018668001	0.016822081	0.016970841	0.018993536	0.011469868	0.007444093	
-0.012025379	0.0020525795	0.0071479958	-0.008771475	-0.0067873374	0.010208939	0.0047722063	0.012596119	0.0014805223	-0.010292397	
-0.00901077	0.008681452	0.014774929	0.007978832	-0.024404094	-0.013058535	0.0034723275	0.01915321	0.006088887	-0.0060455333	
-0.0069197416	0.021756444	-0.0094482675	-0.0016059472	0.017195785	0.004768161	-0.009996246	0.006431788	-0.0038032192	0.0045618378	
-0.01738213	0.009126857	-0.008065363	0.009038193	0.0046927994	-0.008525963	0.0009936532	-0.0014731358	-0.0023899986	-0.0074965106	
-0.016219696	-0.0006195833	-0.0060373396	-0.0076643256	-0.008959441	-0.01443887	-0.014294621	0.0030756711	-0.0030779706	0.0012823398	
0.0020766924	0.012030108	0.0009618855	0.0017858207	0.0057465024	-0.007834746	0.006230757	0.0036692736	-0.021239743	0.0013989102	
-0.0024771034	-0.00655571	-0.013225585	0.0015104653	0.017250907	-0.0015913347	0.007652026	0.006950935	0.0050312825	-0.007873283	
-0.007670171	0.0007183206	0.009209234	0.008112361	0.0038779872	-0.00090631377	-0.019847697	0.0069607142	-0.014523749	0.0045918757	
-0.008662315	0.0005325825	-0.009991568	-0.0031607316	0.004105824	-0.0054447954	-0.017904937	0.005168951	0.011111434	-0.016973626	
0.017825115	-0.0121500315	0.0023941966	-0.02092316	0.0031175623	-0.016769426	-0.0006842831	0.015702762	-0.025193479	0.02952697	
0.020398213	-0.0066121616	-0.01873385	-0.017460374	0.0300424	0.013612769	-0.009569378	0.008178549	-0.040158354	0.04745858	
0.037242897	-0.006162796	-0.063472025	-0.060308877	0.031051336	0.032279078	0.010554046	-0.0025153065	-0.04465875	0.06390252	
0.03176836	-0.02878762	-0.05128295	-0.041698236	0.013579229	0.023527566	0.05837709	-0.02436512	-0.044267412	0.06301766	
0.024748905	-0.037311014	-0.058800597	-0.04200785	0.007962751	0.042731576	0.056578718	-0.007881256	-0.024759784	0.049797393	
0.010363115	-0.043524146	-0.07040563	-0.010492634	-0.031458147	0.032794405	0.063583545	-0.029096626	0.023503358	0.014858009	
-0.014115135	-0.022354962	-0.058674935	0.0228824	-0.028390754	0.07058949	0.03195493	-0.089122355	0.052182313	0.027138587	
-0.05290819	0.04988568	-0.032953285	0.0178741	-0.06758251	0.06890518	0.022131862	-0.07262747	0.037801106	0.057461843	
-0.082498305	0.07811604	-0.03106546	0.028316563	-0.024187999	0.060309343	0.00043945396	-0.06425343	0.010613971	0.03492561	
-0.07255756	0.052610014	-0.030118162	0.017692327	0.005510827	0.0075109876	0.013451807	-0.059350435	0.015799168	0.07054722	
-0.07145788	-0.0052469675	-0.04044316	-0.004702968	0.056629915	-0.009798136	0.0022098655	-0.010583819	-0.0040563634	0.09297511	
-0.046010952	-0.053633254	-0.032345723	-0.016051263	0.045116883	-0.049096875	-0.0018574945	0.03489889	-0.05603231	0.105317436	
-0.036862865	-0.05246592	-0.008341377	-0.026325388	0.061467998	-0.07718658	-0.007906288	0.07768659	-0.028461643	0.07944862	
-0.030176349	-0.017758986	-0.002828114	-0.025166158	0.037401844	-0.06645636	0.027690947	0.044099875	-0.031632453	0.052394096	
0.009833539	-0.012423522	-0.0056318953	-0.026128722	0.026434388	-0.04930029	0.0396233	0.011207055	-0.006471648	0.020085473	
0.046569724	-0.026284428	-0.0007838238	-0.014283874	0.031486385	-0.0400412	0.024829218	-0.0017524109	0.00041260337	0.016855067	
0.05904728	-0.004269653	-0.01015358	-0.003287642	-0.008621468	-0.030651417	0.0151538225	-0.00293037	-0.007742157	-0.010066442	
0.034359846	0.009523384	-0.008302283	-0.005048763	-0.0052246843	-0.011666047	0.011148328	0.00095132913	0.008847063	0.006657846	
0.017100437	-0.009514123	-0.008726845	-0.008979741	-0.014735604	-0.009238394	-0.0017539463	-0.0073985714	-0.016919298	-0.0067681824	
0.008171946	0.0033663667	0.005301999	0.019590683	-0.010320702	0.00078246486	0.012857158	-0.011012599	0.0036124364	0.006086472	
0.005175433	-0.0015846577	0.021516165	0.0064718346	-0.011871279	0.0022327541	0.021051828	0.010312652	-0.0032873924	-0.012858479	
0.0066889473	-0.011861761	-0.0064249313	-0.004563305	0.00062521454	0.0029943534	-0.0064501967	0.005225468	0.012589808	-0.022152103	
0.031145196	0.016101707	0.014311196	-0.007928573	-0.00038647515	-0.014081936	-0.009052318	0.008950813	0.0075395424	-0.020592215	
-0.0047289208	0.015557806	0.004265959	0.008875495	-0.015829632	-0.008193235	0.017947363	0.01448242	-0.011099064	-0.0061355424	
0.00988811	-0.0011036927	-0.012500941	-0.0095115	-0.00817489	0.008320543	0.01699793	0.0031978737	-0.008516465	-0.006176542	
-0.00225196	0.0028433402	-0.01282947	-0.005556774	0.011095825	-0.002494894	-0.0064833327	0.006540824	0.010782655	0.012488019	
0.00868554	0.0011173835	-0.01048094	0.0039013745	0.005735819	0.0028698137	-0.008813112	-0.00500317	-0.026023163	0.0030255178	
0.012062062	0.00058371644	-0.001894056	-0.018629612	0.01851024	0.007740706	-0.0027679852	0.009623308	-0.006315138	-0.0058408803	
0.040839616	-0.012438112	-0.018707499	-0.008144266	0.019014481	-0.009407356	0.02502457	0.008804289	-0.03229254	0.018116845	
0.03493011	-0.01572508	-0.027799694	-0.03827351	0.03402089	-0.012083775	-0.010882183	-0.0055922708	-0.03997175	0.04846319	
0.051301166	-0.015334919	-0.052158065	-0.059171338	0.07255842	-0.02144086	0.031346902	0.003892897	-0.056088697	0.0639968	
0.0154364165	-0.028651759	-0.05126352	-0.05294295	0.06177805	-0.015071202	0.07014092	0.002433199	-0.044848423	0.058895376	
0.004646682	-0.024962332	-0.0504639	-0.045656234	0.031053264	0.028633103	0.065758884	-0.046037704	-0.019736376	0.06767114	
-0.028849754	-0.023695871	-0.025886666	-0.040070284	-0.005256902	0.038390923	0.052031845	-0.050449256	0.015767494	0.04151777	
-0.031423576	-0.006466601	-0.010195353	-0.006348395	-0.0014794978	0.04617847	0.024024164	-0.063975625	0.024041377	0.062135685	
-0.08635311	0.050662942	-0.014763988	-0.00077970984	-0.004557433	0.028544065	0.019462913	-0.068440795	0.033115	0.046580978	
-0.07926134	0.08763727	-0.0436873	-0.022268584	-0.023579517	0.012295087	0.03359888	-0.087979525	0.030283406	0.07104725	
-0.062178824	0.029245777	-0.030154515	-0.026132265	0.046334688	-0.038603295	0.022673694	-0.04516704	0.02933014	0.09391811	
-0.047147	-0.030978551	-0.025418337	-0.029042715	0.08746981	-0.067082636	0.04038536	0.037018698	-0.027212277	0.092929795	
-0.04454923	-0.063097484	-0.022152623	-0.028206794	0.08617204	-0.059592005	-0.011678424	0.050993826	-0.046983086	0.10180514	
-0.024924925	-0.04131156	-0.04530023	-0.023342097	0.054866053	-0.06710545	0.02631429	0.06114978	-0.03588789	0.08156287	
-0.0016193731	-0.026741534	-0.03447154	-0.03176457	0.052320156	-0.039150886	0.040286094	0.023683803	-0.026631018	0.025921036	
0.0010877254	-0.027993955	0.010761054	-0.010147662	0.034367483	-0.06137086	0.03676749	0.012890175	0.0019226	0.020819532	
0.02762772	-0.011447006	-0.0058697215	-0.019882267	0.038961202	-0.047693316	0.06407136	-0.009208599	-0.003051313	-0.003711621	
0.045001406	-0.0010195626	-0.019720854	-0.009126821	-0.014408689	-0.020094225	0.021347836	-0.010144324	-0.02109994	-0.004504338	
0.029019767	0.0045989607	-0.0034182407	-0.004101151	0.00924389	-0.011774751	0.0042192265	-0.028524732	-0.011057053	-0.0063960035	
0.02529832	-0.0088580055	-0.0025745202	-0.008514105	-0.004449298	0.0025781514	0.017504005	-0.0013148286	0.0019951088	-0.009745211	
-0.024873145	-0.0024678968	0.009708649	-0.018899724	0.0027936483	0.004882885	-0.01099603	0.0031179448	0.002030239	-0.02012198	
0.00648006	-0.0154953245	-0.009738362	-0.006801962	-0.0075233956	-0.022384321	-0.0061716656	-0.0010981667	-0.008859512	0.020267822	
-0.012220918	-0.009803878	-0.02126258	0.010273385	0.01017198	0.036618125	-0.007180264	0.011604593	0.0084232455	-0.0070940983	
-0.004366861	-0.0041984026	-0.017375179	0.01229069	-0.0014097138	0.009231122	0.022484059	-0.005805041	0.0010155918	-0.0023619307	
-0.013552851	-0.01046691	0.00816246	0.0063793724	0.011540778	0.0020796123	0.013099983	-0.015342254	-0.00466141	-0.0037404688	
0.010034425	-0.010753793	-0.0067413584	-0.008561985	0.004762115	7.387987e-06	0.014540915	0.0043257205	0.017081529	-0.012135448	
-0.004848851	-0.0059508043	0.013342064	0.018428016	0.019004902	-0.0015746048	-0.010733447	-0.009260856	-0.0017008564	-0.0102394875	
0.015196268	-0.014491422	-0.002206298	-0.0027945514	0.007534487	-0.0049300753	0.01234146	0.001064384	-0.0069055366	0.019484265	
0.018374458	-0.009296666	0.0007485837	-0.011922725	0.042810548	0.00384537	0.0067172716	0.019457525	0.01749415	-0.004342423	
0.02350182	-0.01940454	-0.020911142	-0.030989012	0.049485937	-0.024827335	0.002235579	0.0039586495	-0.022021547	0.026761025	
0.039604962	-0.01715287	-0.014574257	-0.058117967	0.042114165	-0.021561868	0.016919129	-0.01048398	-0.045640726	0.039568394	
0.018800389	-0.011956839	-0.030051665	-0.058122847	0.087402284	-0.0285956	0.032708686	-0.011716001	-0.05005788	0.055038646	
0.0031388607	-0.04059105	-0.014725368	-0.04267177	0.06990309	-0.039075784	0.066213876	-0.013291025	-0.051439445	0.055877652	
-0.023530131	-0.056795545	-0.0087803565	-0.03968411	0.05798198	-0.034168936	0.073734894	-0.03447329	-0.034199722	0.06684609	
-0.031614672	-0.036307227	-0.015482442	-0.02903456	0.05400028	-0.014933791	0.03845869	-0.054961473	-0.01672751	0.087150596	
-0.07282057	-0.03019732	-0.013859384	-0.027380673	0.048902668	0.0070633967	0.032039434	-0.06540438	0.025496537	0.059270307	
-0.10053241	0.046128664	0.012396365	-0.031865053	0.03430485	-0.0051078433	0.029199133	-0.074420616	0.024338774	0.05286805	
-0.07469535	0.0749322	0.024583	-0.03979059	0.03598189	-0.029567786	0.03362657	-0.051174816	0.021016624	0.06186381	
-0.09549389	0.019889027	-0.024531795	-0.055583723	0.06610595	-0.039790075	0.021646515	-2.8620416e-05	0.015005066	0.09061926	
-0.07021848	-0.0616214	0.011601092	-0.04582262	0.08079006	-0.04170113	-0.00953077	0.025247814	-0.010253261	0.11217116	
-0.042678364	-0.05428999	-0.020949699	-0.025472604	0.07006284	-0.04121847	-0.011701148	0.066588506	-0.035918087	0.09565019	
-0.024520574	-0.036454313	-0.040153943	-0.01227126	0.04882806	-0.04528378	0.011335381	0.055963147	-0.057367835	0.06849216	
0.01171358	-0.029072998	-0.022797676	-0.016704122	0.033643574	-0.04957907	0.046283238	0.015414258	-0.015478984	0.03143296	
0.035898894	-0.016789416	-0.028689085	-0.004874015	0.012142686	-0.051538594	0.045723807	0.01598223	-0.013607184	0.019881185	
0.039905835	-0.009608417	-0.015778081	-0.010180995	0.016067056	-0.043184333	0.051147554	-0.012040567	-0.0005578783	-0.015997801	
0.034668256	-0.011836556	-0.017021956	-0.005614313	0.014529914	-0.029069025	0.033343174	-0.0054768575	-0.0026880114	-0.00907962	
0.031124685	-0.009058773	0.008098552	-0.003195984	-0.0031170899	-0.029259603	0.004741698	0.0035961608	0.0063454784	-0.003776522	
0.0027407815	0.008986673	0.0005216715	-0.010909443	-0.00707742	0.006116466	0.0057220683	-0.0060227853	-0.024798032	0.011260401	
-0.012820274	0.005479093	-0.0042189662	-0.017792404	-0.009014936	0.0067184134	0.0152131105	0.0004261281	-0.003464859	-0.0028010698	
-0.012587342	-0.008381245	-0.008898989	0.00640247	-0.001780777	-0.0029805084	-0.012887951	0.014830577	-0.019986017	0.00860173	
0.0051207882	0.0208329	-0.000477824	0.0020225358	-0.001587351	0.021496844	-0.004667479	-0.0071716686	-0.011799617	0.006890887	
-0.015507969	-0.011422292	0.010856367	-0.0019020052	3.5131066e-05	0.0029426438	-0.0076700076	0.006936534	-0.017596321	-0.0012980173	
-0.0012970022	0.0020651117	0.006447696	0.0019686925	-0.009083629	0.00547006	0.00014207797	0.0068598026	0.004251828	-0.011763473	
-0.0027551847	-0.019368982	0.011068027	0.0116894785	-0.0046092584	0.008853923	0.0002254239	-0.0020330872	-0.004713661	0.011086885	
-0.014453628	0.026573377	0.0121878255	-0.005079901	0.010459575	-0.0029469458	-0.021864438	0.0033742215	0.0026501825	3.549266e-05	
0.008998652	-0.013021717	0.0011665603	0.009153151	0.017970743	0.011184538	3.096986e-05	0.0096239345	0.010643723	0.0009246746	
0.0114842905	-0.013330954	0.010362768	-0.01984477	0.01932913	-0.0034545131	0.0031022676	-0.0040022787	0.006582726	-0.0034681752	
0.025341734	-0.026160015	0.021755423	-0.029527692	0.03445273	-0.011892671	0.00667032	0.005191088	-0.009662766	0.0044857804	
0.048166905	-0.038170006	-0.007292328	-0.046223395	0.055313703	-0.033915784	0.0093740225	-0.00953778	-0.01849171	0.00015448307	
0.017997114	-0.037659448	0.009232241	-0.044595677	0.06332219	-0.04483641	0.059479635	-0.018179553	-0.020830506	0.0135265365	
-0.008044279	-0.039136168	0.02590175	-0.04771039	0.06601452	-0.06243764	0.07216998	-0.014504806	-0.03392476	0.041234452	
-0.013384906	-0.031332675	0.026876137	-0.05102835	0.07591322	-0.06979136	0.07670221	-0.045494135	-0.012831354	0.07446579	
-0.03170858	-0.019836724	0.039220713	-0.033384975	0.065726474	-0.02886798	0.06810314	-0.047571953	0.031690083	0.05214486	
-0.06970769	-0.0017203795	0.028234182	-0.045751233	0.054115433	-0.02550678	0.012215076	-0.07664027	0.037448388	0.056175403	
-0.095114745	0.04535977	0.029909275	-0.0446159	0.061250053	-0.037232216	0.027800748	-0.043931372	0.035739556	0.062002674	
-0.09533586	0.04149969	0.026152771	-0.063050814	0.06686092	-0.026751725	0.02145393	-0.020837232	0.008664997	0.060964584	
-0.07038003	0.00555137	0.00014287824	-0.045438025	0.067222126	-0.03307641	0.015921995	0.0034433168	-0.002401181	0.09170387	
-0.06349757	-0.04318696	0.011906372	-0.04657465	0.07733605	-0.026567915	-0.027186124	0.043485314	-0.03160234	0.106270574	
-0.032715373	-0.04933039	-0.0029253259	-0.033403378	0.05434865	-0.006854556	-0.026339868	0.053534955	-0.013543567	0.07752016	
-0.00082152494	-0.0429886	-0.042506643	-0.01671876	0.04694463	-0.029230982	0.0425589	0.022887954	-0.02042581	0.0531118	
0.009208015	-0.030866075	-0.025953423	0.022584654	0.01750004	-0.044118308	0.050346598	0.005677697	-0.011273548	-0.0028557964	
0.045195002	-0.030403718	-0.029771721	0.0011205547	0.0063373353	-0.03443123	0.068009675	0.00044558564	-0.018082708	0.008768348	
0.022870468	-0.020794353	-0.0025823633	0.0006854085	0.024551228	-0.029463554	0.03426417	-0.0123495925	-0.015816908	0.010763693	
0.033646103	-0.033645898	0.00013345893	-0.007299607	-0.0001886643	-0.021116426	0.019970324	-0.0091711	-0.015759775	-0.0077510653	
0.019744027	-0.0043549556	0.0026145214	0.0043407734	0.0013917981	-0.024955394	0.02026314	0.019500919	0.0068036956	-0.011963155	
-0.00062945485	-0.011957108	-0.0077649266	-0.015730051	0.01010042	-0.011231717	0.0092192115	-0.004969884	-0.0058909887	0.017595993	
-0.009945455	-0.014549207	0.012079012	0.004633006	0.0062893513	0.0072736396	-0.0016936772	0.011884431	0.01167574	-0.009379398	
0.002373392	-0.0017886445	0.0011390548	-0.014712014	-0.005110196	0.007728702	0.0078037865	-0.008054442	-0.0009812686	-0.01598437	
0.0064093377	-0.0037103924	-0.006009122	0.010785079	-0.00733035	0.0033214325	0.010724555	-0.013543059	0.0017013657	0.006445023	
-0.0054067452	0.00013782112	0.008444759	0.012157502	0.004780357	-0.008125178	-0.0025619112	0.013952794	-0.0007733632	0.00208084	
0.012246636	-0.015740804	0.004820087	-0.0032350072	0.0027434104	-0.008291416	-0.0054799947	0.0062518753	0.012895473	-0.012846584	
0.0024427667	-0.0014234213	0.0033241098	0.02062435	0.015614574	0.0092570465	0.00040880693	-0.013369394	-0.0014003353	-0.0112758	
0.0068258187	0.0034201336	0.004337346	0.0054456214	0.013860652	0.002080513	-0.017784461	0.012097595	-0.012586922	-0.0085453745	
-0.020492971	-0.012259239	0.004147929	0.008733846	0.023847695	-0.015000133	-0.0061687105	-0.0076621487	0.013163832	-0.011304992	
0.0091856755	-0.018036118	0.0034674292	-0.01692562	-0.009441282	-0.0044043083	0.0028923147	-0.0043475972	-0.016492836	0.0049344073	
0.023534078	-0.014898206	0.013440009	-0.035520013	0.029417226	0.011878336	0.021468947	0.005664064	-0.018652814	0.009983795	
0.031286106	-0.03927185	0.00808514	-0.034786392	0.041930284	-0.014497602	0.028351579	-0.001998658	-0.0078946715	0.008668872	
0.011757255	-0.043929756	0.023578178	-0.027793717	0.048978712	-0.048923783	0.04333994	-0.0164638	-0.02207785	0.023253214	
-0.016306242	-0.049359214	0.033176158	-0.0223975	0.037969332	-0.08802555	0.07563552	-0.029759144	0.0007229021	0.037463423	
-0.027501648	-0.031725816	0.030682912	-0.013534136	0.04377627	-0.0881524	0.07569163	-0.0561148	0.032211363	0.03938053	
-0.062954634	-0.013047569	0.043602787	-0.051433254	0.038333975	-0.068767354	0.058964916	-0.055100627	0.054083433	0.032084644	
-0.070073165	0.01597037	0.04983226	-0.033806536	0.036495216	-0.04874632	0.026760738	-0.056126248	0.049633123	0.03026464	
-0.070138805	0.030057866	0.021138214	-0.053153895	0.03887709	-0.056182005	0.016811643	-0.016549703	0.0191998	0.029672552	
-0.080989465	0.04036745	0.019360384	-0.055057194	0.04048271	-0.029774504	0.001589102	0.0053781644	-0.012749725	0.05589398	
-0.05250575	-0.014322686	0.03667118	-0.059389398	0.03885893	-0.011654442	-0.037760533	0.038420927	-0.033542104	0.081221566	
-0.026806759	-0.025481105	0.017008035	-0.052662693	0.032154795	0.024303326	-0.028204517	0.043118414	-0.024306424	0.0877139	
-0.019721642	-0.034284864	0.0040391395	-0.027117573	0.02994	0.0017635112	-0.008237887	0.005557224	-0.015482779	0.06778809	
-0.003753868	-0.04121161	-0.0041451184	0.0060187625	0.015883753	-0.009076227	0.027551955	0.009726086	-0.008842029	0.036584303	
0.011811437	-0.021561	-0.0404936	0.03294723	-0.0039191754	-0.05407065	0.064353645	-0.020488499	0.0034366003	0.028954158	
0.036581255	-0.026009625	-0.0034575632	0.025176076	-0.011344558	-0.038364958	0.05874838	-0.00946834	-0.015214073	-0.011319893	
0.02629732	-0.02299898	-0.029237472	0.0032870213	-0.014802704	-0.04413185	0.034517057	0.012691653	0.015390114	-0.008403446	
0.01368866	-0.0041330783	0.017035488	0.0020005824	-0.0039955806	-0.0053394516	0.025868325	-0.012377644	-0.022802856	-0.015549242	
-0.0035373226	-0.004247374	0.01691177	0.0023703952	-0.0018552049	-0.01704084	0.018739598	-0.0064744237	-0.002816467	-0.018458944	
0.01862619	-0.0008557785	0.0035427874	0.0035005722	-0.018760698	-0.009251313	0.0048391004	0.0005686243	-0.0062514986	-0.019906836	
0.0033193105	0.0008718203	-0.023818616	0.0068971594	-0.0070567117	-0.021104893	-0.00024230934	0.0031426095	-0.011139176	-0.004249121	
-0.0114972005	-0.008903214	0.009257533	0.011368138	-0.010409184	0.012264331	0.008644553	0.014196979	0.014648155	-0.022208886	
-0.0014183639	-0.004744751	0.00025877485	0.00028702233	-0.026827926	-0.014542504	0.0044255015	0.0003142118	-0.0126782525	0.0022376336	
-0.01692399	0.0034265302	-0.013921941	0.011470274	-0.0020885502	-0.005514062	-6.174525e-05	0.00046909606	-0.0067075933	-0.018489357	
-0.0035535265	-0.0049540065	0.00023417678	0.009242543	-0.003466667	-0.0014171123	0.0011905037	-0.014566209	-0.00093945366	-0.009277309	
-0.01163063	0.014547411	-0.012337759	-0.0034118106	-0.013158678	-0.01166515	0.0043285997	0.007240467	0.004464073	0.0023114644	
-0.017253786	0.0038136502	0.012512163	0.010841943	-0.0008380667	0.003168224	0.007121066	0.012927177	-0.0014868242	-0.0012760214	
-0.015384113	-0.0011184983	0.00682475	-0.0008491753	-0.00017221118	0.01217285	-0.015729288	-0.0092613315	0.00938775	-0.0107976915	
0.007042641	-0.019760035	-0.0010243303	0.008039834	0.0023138595	0.016314242	-0.024625001	-0.005782452	-0.012171133	-0.011425999	
0.010356969	-0.029867629	0.021799484	-0.014615087	-0.0035035424	0.027767537	-0.0009857368	-0.0017768246	-0.014410546	0.0052297036	
0.033677205	-0.04361466	0.020743828	-0.027728988	-0.025079645	0.010202439	0.021653421	-0.0340189	0.009157829	0.0043241763	
0.024090054	-0.03775934	0.037552737	-0.02639158	-0.0031629638	-0.025701717	0.061653208	-0.019510794	-0.005121543	0.01605472	
-0.0050646616	-0.019110907	0.01799706	-0.0017892668	-0.0047970875	-0.08450533	0.0699282	-0.031901833	0.01806909	-0.0016196962	
-0.029454608	-0.037911177	0.05648643	0.0028233086	0.027770903	-0.089796886	0.07053809	-0.044773456	0.04995385	-0.010754105	
-0.039950486	-0.0072045345	0.05547713	-0.036272805	0.005463096	-0.07560651	0.073558226	-0.062346596	0.059475064	0.008692778	
-0.04756055	0.021747889	0.05273096	-0.028145786	0.00012249313	-0.059029084	0.02763026	-0.039581623	0.053554934	0.00889253	
-0.060751837	0.024895145	0.044002518	-0.04445018	0.022834303	-0.048182357	0.0126929805	0.0057561705	0.009863841	0.019582571	
-0.062700205	0.00048601994	0.05241562	-0.059745297	0.038558036	-0.008874343	-0.007987771	0.033507388	-0.024271144	0.04223437	
-0.047763348	-0.022365695	0.03183562	-0.059689924	0.023949547	-0.011409865	-0.013845469	0.039182667	-0.033422668	0.079407424	
-0.024318827	-0.03318935	0.02157011	-0.03874166	-0.0028864762	-0.002308895	0.0067410143	0.014794839	-0.009283702	0.06776754	
-0.0013498577	-0.048189197	0.016779525	-0.0055473093	0.013083523	-0.021086188	0.018179547	-0.015360462	0.011073886	0.04511621	
0.0130608585	-0.056381457	-0.0125014745	0.018065525	-0.025788167	-0.033367574	0.049700502	-0.030092306	0.01887517	0.019034116	
0.0044376594	-0.037793767	-0.0102737155	0.037551716	-0.031028945	-0.0270746	0.05097061	-0.0043616565	0.008931494	0.010875069	
0.0006328777	-0.05690306	-0.0056855525	0.025592057	-0.028166955	-0.01724564	0.06580256	-0.0010063272	-0.00035792738	0.00037201896	
0.033244815	-0.024520706	0.020738268	0.009276973	-0.026963715	0.0085451575	0.032667402	-0.015414026	-0.011576415	-0.013786186	
0.016356371	-0.03188859	0.01979846	0.01090387	-0.016171003	4.111121e-05	0.016085427	-0.026581058	-0.004048852	-0.009769007	
-0.0024740952	-0.009101085	0.011839771	-0.016918322	-0.006114167	-0.015840603	0.005563593	-0.0029373253	0.0008337389	-0.015625225	
-0.0038823772	-0.016761921	0.011227682	-0.004636279	0.018793324	-0.0016010127	-0.00013562414	-0.017991507	0.0023815003	-0.005543531	
0.000297169	-0.0022493924	0.00681573	0.020703355	-0.004805469	-0.013063507	-0.012947648	0.00021512406	0.0034959093	0.015910324	
-0.003968157	-0.009397328	-0.0049235304	0.0018320809	-0.001183284	-0.017771443	0.013044248	0.008858088	2.5511334e-05	0.0033404527	
-0.024647184	0.0011780955	0.0030388287	0.0023730302	-0.013943797	0.00644251	-0.025281915	-0.010914899	0.0040461235	-0.0071771783	
-0.014500089	0.006070637	-0.00049303134	-0.0027505944	0.015661255	-0.002337642	0.0042124926	-0.0016194372	-0.011595333	0.0011110762	
0.0059874924	-0.00078134664	0.0061396225	-0.001961078	0.014973581	0.01502372	-0.016799603	-0.006934669	-0.0073260977	-0.014510292	
-0.0050312034	-0.010814308	0.011403513	0.014999528	-0.0074645267	-0.015178429	0.00057370035	-0.0016550998	0.014688286	0.0158548	
0.005259464	-0.022175072	0.007726579	0.003292689	-0.009470012	-0.01594446	-0.0035229719	0.002510022	0.0006381638	0.010400958	
0.00081579713	0.0050512836	-6.0383067e-05	0.007742976	-0.0061365194	-0.0061669927	0.0004933488	-0.003758118	-0.002571351	0.0042820894	
0.010646464	-0.012005197	0.031130679	0.011427524	-0.014283152	0.030579725	-0.0023684527	-0.0102478145	-0.011137031	-0.005606685	
0.012762387	-0.030310111	0.0181325	-0.0061211223	-0.033285316	0.06615977	-0.013308491	-0.0137564065	-0.0149709415	-0.009514702	
0.012994714	-0.03916779	0.039850432	-0.0174628	-0.04216791	0.051209196	0.00998727	-0.036387857	0.0033420168	0.0071166293	
0.0075162207	-0.04126212	0.044610493	0.008429903	-0.06979438	-0.0061281305	0.04101419	-0.035759334	0.03570426	-0.008639715	
0.0076968577	-0.03852646	0.0711556	0.010064897	-0.027025323	-0.04870652	0.074159965	-0.045893	0.041114636	-0.019919058	
-0.007398801	-0.0015314759	0.0389704	-0.0049729045	-0.031560842	-0.07495664	0.0891442	-0.064425856	0.040812135	0.0021156094	
-0.030201932	-0.014538574	0.059475616	-0.01731354	-0.028156716	-0.05915433	0.0905307	-0.044313315	0.055681046	-0.0062802783	
-0.032441057	0.021406723	0.048941415	-0.03333227	-0.019861879	-0.052764203	0.04604235	-0.015063806	0.022185992	-0.0021359893	
-0.033941172	0.008835923	0.054271214	-0.06158967	0.0029480185	-0.05426522	0.036341764	0.02834014	-0.018949674	0.022411255	
-0.05279223	-0.004686108	0.026399711	-0.03836802	-0.0033019243	-0.051214553	0.021590399	0.060881108	-0.04674219	0.049802184	
-0.02615197	-0.006183508	0.017192774	-0.063786805	0.0001526089	-0.03471855	0.012180247	0.05321436	-0.03187187	0.066012226	
-0.017859686	-0.029035494	0.01161272	-0.004853947	-0.014711946	-0.03844901	0.034546077	0.005566857	-0.019154815	0.07277789	
-0.0042860107	-0.032664753	0.01478819	0.009258829	-0.023586707	-0.036822375	0.07551615	-0.014892064	0.0108914105	0.024674961	
-0.016169326	-0.07147778	-0.0026948059	0.0099409735	-0.038894303	-0.03044431	0.047644127	-0.032138556	0.0066190492	0.01484197	
-0.00072427886	-0.042806998	0.0149983885	0.04257665	-0.048412587	-0.017487485	0.046123892	0.004009768	0.008615924	0.015150347	
0.01053879	-0.05181361	0.020945473	0.028199377	-0.026267977	0.003454449	0.047499582	-0.022116002	0.0070369598	0.010117145	
0.0015993103	-0.020663427	0.028331168	0.019888109	-0.010025783	0.012290449	0.016177421	-0.0051880446	-0.00017738038	-0.005630977	
-0.019284904	-0.020032441	0.017447436	0.017733919	0.003986259	-0.010083026	0.028129106	-0.0008809199	0.00213808	-0.002332614	
-0.014913821	-0.013136795	0.01626424	0.0077510434	-0.0115899155	0.003078669	-0.003370945	0.018294727	0.0119651705	-0.0066812024	
0.012575654	-0.00533715	0.007431581	-0.00334448	-0.0009463567	-0.003344778	-0.00029081176	0.005825925	-0.0016708531	0.009674808	
-0.00027552256	0.003921592	0.029108798	0.0021817512	-0.004369236	-0.0023894263	-0.0023742686	0.0010406009	0.01201863	-0.00394901	
0.012448057	0.0037126786	-0.0041661635	0.0101467995	0.0020672926	-0.018329695	0.009683172	0.007494083	0.00230391	0.0015472973	
-0.002792532	-0.018733833	-0.010027758	-0.019831149	-0.0017418625	0.009976198	0.009840765	-0.009843153	-0.0053061335	0.0035467222	
0.0067510316	0.0022572607	0.00086859934	-0.0026099973	-0.0015844243	-0.00017821816	0.0041271457	0.002515233	-0.007081098	0.0021970617	
0.0021223014	0.007040849	-0.0031242634	-0.008372015	9.61544e-05	0.009582222	-0.015532511	0.018647559	0.005522333	0.0019082925	
-0.0098415455	0.0008398582	-0.0043057227	-0.0019110185	-0.007049103	-0.0079002045	-0.01590131	-0.0031578057	-0.00574221	-0.013617655	
-0.012782278	0.000121367295	0.009404265	0.017130695	0.010203785	-0.019834856	-0.0023399768	-0.0113743525	-0.0058572264	-0.015039443	
-0.004984555	0.01203318	0.011817152	0.013588622	0.000692691	0.014893971	-0.0018176174	0.00505867	-0.0050769113	0.0032849181	
0.023150153	-0.010962759	0.0070895753	0.008533371	-0.027732754	0.012902086	0.0038776402	-0.011808543	0.0062441407	-0.014514114	
0.021969689	-0.02194974	0.02702511	-0.0032060924	-0.049962513	0.042274024	-0.0083498685	-0.0135426605	0.0070639965	-0.007564245	
0.009860324	-0.02405625	0.023577154	0.006699847	-0.06333658	0.06711503	-0.019969147	-0.021967966	0.02750104	-0.012613676	
0.013983448	-0.031461447	0.047797937	0.010234379	-0.082362756	0.041466568	0.035457645	-0.03968435	0.0348064	-0.014459151	
-6.396633e-05	-0.022596586	0.043770194	0.019420702	-0.06766135	0.018395351	0.03896129	-0.055027917	0.03882759	-0.009040653	
0.003447236	-0.01598406	0.050521705	-0.006142112	-0.05893194	-0.021480292	0.08054251	-0.051940538	0.06334635	-0.011689683	
-0.013335037	-0.0062189153	0.05914665	-0.029668443	-0.03390945	-0.04190955	0.08268172	-0.043782987	0.037238516	-0.00082739023	
-0.024307588	0.0042136917	0.01917521	-0.008382317	-0.032108553	-0.077510424	0.058547985	0.030663023	0.020302752	0.026826644	
-0.03400236	0.014972728	0.015924966	-0.026573755	-0.01102254	-0.077667885	0.05080696	0.03793962	-0.033763953	0.029084416	
-0.012361764	-0.013448555	0.013421322	-0.023177141	-0.016098164	-0.07302321	0.05811792	0.0545039	-0.030095512	0.05181598	
-0.008185629	-0.0094519155	-0.005999965	-0.019715972	-0.018433638	-0.06042051	0.06414892	0.007328467	-0.012957383	0.055324182	
0.0109467795	-0.025385834	-0.0035899065	0.0034185918	-0.032721557	-0.042355806	0.06881709	-0.019150175	5.126564e-05	0.045806754	
0.0038549616	-0.04861852	0.008992283	0.035701655	-0.034846675	-0.0065082037	0.057056192	-0.046693936	0.0029342764	0.03459361	
0.008436509	-0.030853942	0.017480709	0.025575113	-0.036921237	-0.0054552406	0.04366135	-0.034831215	0.009152092	0.026569538	
0.0061788205	-0.04460362	0.013111369	0.014930711	-0.0056708097	-0.00042752514	0.03226563	-0.02584479	-0.0057800454	-0.0024396228	
0.0042586387	-0.028599964	0.023162993	0.020015014	-0.026210872	0.026295591	0.010485393	-0.003508675	-0.013819983	-0.0004174906	
0.00677141	-0.028414128	0.014486247	0.013136612	-0.018415948	0.019577464	-0.008961319	-0.020195419	-0.0032633904	-0.007977596	
0.0016987433	-0.022286287	0.021226676	-0.000563074	-0.016709844	0.013509717	0.0056445915	-0.01530586	-0.0096058985	-0.007040466	
-0.0069429534	-0.011305936	0.0026034229	-0.003341903	-0.01331864	-0.0042997906	0.006899952	0.005161792	-0.016040193	-0.008658489	
0.002112333	-0.0021925436	0.020777935	0.00019528263	-0.001355658	0.010352131	0.010302966	-0.0009387766	0.0032237223	-0.01707001	
-0.0047890684	-0.002091989	0.00953537	-0.0107029285	0.02090602	0.005223961	-0.012022021	-0.007741075	0.002075117	-0.00762773	
-0.0021541042	0.004271015	-0.016913526	0.021040058	0.009296198	-0.013609088	-0.0005812403	-0.0015787238	0.016005348	-0.0006543006	
0.014071109	-0.0017712874	-0.008699121	0.0034667621	-0.012081683	0.0065107876	-0.00063284516	0.013715772	0.013711814	0.002378968	
0.009107419	0.0029037711	-0.001166601	0.0035311587	-0.0017395507	-0.005177578	0.014589567	-0.003403096	-0.004681372	-0.01921574	
-0.0017916252	0.002852534	-0.0070684114	-0.0060533397	-0.0066963206	0.015895134	-0.00028028653	-0.009206483	0.0020728097	-0.0083203325	
-0.005478439	0.017318362	0.002109456	-0.01681485	-0.008925874	-0.0065663187	-0.008765835	0.00047664568	-0.0002508458	-0.0052953446	
-0.027709194	0.0009024595	-0.0071161296	0.004057839	-0.009145416	0.000584219	-0.0039173462	-0.0079871435	-0.009175156	-0.006255793	
-0.00782839	0.009948295	0.01666678	0.016729387	5.5074226e-05	-0.0036944358	-0.0074779443	-0.0062549477	0.0010284588	-0.011001373	
-0.0063652997	-0.002036231	-0.006695612	0.013268812	-0.022987276	0.027448019	-0.008387705	0.010567316	-0.020123808	0.015893254	
-0.008425549	-0.01730461	0.008675041	0.014817716	-0.031885307	0.031442825	-0.004471837	-0.013596799	0.001901658	-0.0052916347	
0.011769748	-0.018840412	0.01651373	0.014327033	-0.05777887	0.03619899	0.0015685472	-0.009210395	0.011836628	-0.012877608	
0.017410902	-0.026499908	0.012203479	0.018243471	-0.091075145	0.06537413	-0.024904067	-0.048376452	0.032229517	-0.029362945	
0.0116443215	-0.018373292	0.0116364835	-0.0016553716	-0.09243918	0.058801834	0.005686159	-0.056145232	0.039007165	0.0019143026	
0.031277124	-0.0013888498	0.020080328	0.0120668905	-0.054217394	0.052803572	0.014376113	-0.037592296	0.047728863	-0.0017533556	
0.0076750745	-0.013346187	-0.0068718987	0.0053085615	-0.058475696	-0.032507136	0.05332517	-0.004911332	0.031222185	0.0044656005	
0.009752897	-0.0004495424	0.011428661	-0.0144146355	-0.031172143	-0.045128655	0.060745783	0.01502209	0.004323323	0.020731753	
-0.0015224929	0.023743562	-0.01628288	-0.006496582	-0.011201032	-0.044118088	0.042393174	0.025465123	-0.010941337	0.053166598	
-0.001898809	0.02182134	-0.024882054	-0.006938948	-0.02540622	-0.04982223	0.0510197	0.019209215	-0.013971697	0.047162235	
0.0011107106	-0.0161404	-0.027815495	0.005516483	-0.01858927	-0.020255065	0.03488615	-0.011928224	-0.013057398	0.05846233	
0.0057499497	-0.01635237	-0.03329329	0.0335876	-0.010791413	0.0009958498	0.022475969	-0.021367403	0.025569273	0.043237515	
-0.0004372839	-0.031902637	-0.028411275	0.030130127	-0.027009465	0.039006267	0.04135751	-0.053668708	0.025583506	0.023472968	
0.0033058967	-0.02698426	-0.007993102	0.033465687	-0.024988199	0.033493176	-0.006041944	-0.028164687	0.012851885	0.022384452	
-0.010385074	-0.041579586	0.009148166	0.028619355	-0.016039392	0.023333246	-0.0161127	-0.036000952	0.010740704	0.0053621703	
0.004960926	-0.0025936558	0.012548876	0.0118291	-0.016839396	0.01775216	-0.016008317	-0.008289213	0.013012539	0.021808028	
-0.01538061	-0.01809147	0.026183292	-0.0095995525	-0.025970714	0.024656905	0.018529058	-0.007027736	-0.0060704653	0.0032384153	
-0.016600883	-0.008298979	0.011695885	-0.008465261	-0.0058952994	0.00917735	-0.0022206944	-0.013450326	0.0006846411	-0.013970375	
-0.0033412906	-0.012324187	0.015134944	-0.010640717	0.0024872944	0.016064312	-0.0027166752	-0.01175381	0.0029789894	-0.0067212204	
-0.0021242835	-0.015198014	-0.0014293736	-0.0019489581	-0.009295007	0.0023825348	-0.012051883	-0.014428379	0.011533926	-0.011162788	
-0.0161096	-0.005679213	0.010789581	-0.00426493	0.012705548	0.0009363743	-0.0031198808	0.010882872	-0.007887662	-0.01542474	
-0.00070646266	0.0021884919	-0.0055193906	0.007566624	-0.00023259979	0.012998558	-0.020171443	-0.005301903	0.0061347834	-0.0058813835	
-0.010339932	0.0028045678	0.012720597	0.0069079744	-0.0051226187	-0.000676554	-0.010327825	0.0038041747	-0.0032891089	0.010622948	
0.00076705223	0.010824267	-0.0064791087	-0.0029510304	0.006114236	-0.0006608911	0.009992325	-0.0030912347	0.014065265	0.0036264516	
-0.009596713	0.0068481206	0.0147585	-0.006765206	-0.0040234863	0.009294517	0.017024305	0.011133643	-0.0029415763	0.023052294	
-0.001430464	0.0047592088	0.0015691755	0.005471791	-0.010210228	0.010263517	-0.025605658	0.002879652	0.007991073	-0.0061579105	
0.0039455416	-0.0036212339	0.00818842	-0.000843288	0.0046340325	0.0031662679	0.009126265	0.012149857	-0.0014726376	0.01020056	
0.011294039	-0.019570615	0.01042097	0.013547263	-0.008461265	-0.00616592	-0.0047247545	-0.0035173753	0.0011614575	0.004036247	
0.013415932	-0.0073465956	0.017809702	0.014231875	-0.0006184947	0.010509947	-0.009256512	-0.01887394	-0.0061428356	-0.010746561	
-0.019397767	-0.004617959	-0.017453855	0.02324652	-0.010772185	0.0024441453	-0.004206295	-0.023864644	0.004656016	0.00026752666	
-0.005277734	0.009900228	-0.0061741807	0.013123144	-0.031461336	0.0450902	0.00039679106	-0.019402517	0.019821083	-0.009292404	
-0.012289897	-0.006759091	-0.014900085	0.0089834165	-0.050132446	0.042018335	-0.007671732	-0.018441007	0.030912224	0.00014697645	
0.009245206	0.0042985594	-0.016656728	0.024755191	-0.07685489	0.059128374	-0.023501433	-0.031181406	0.030222472	-0.026254127	
0.019855252	-0.013604861	-0.035093665	0.03200525	-0.07060531	0.059136093	-0.030474236	-0.05040781	0.0443061	0.017882336	
0.01796943	-0.019112034	-0.038701992	0.0313894	-0.06401641	0.049630873	-0.031881783	-0.018284906	0.052973647	0.022123955	
0.031257574	-0.011216088	-0.041643728	0.018996784	-0.043529864	0.036625456	-0.046404637	0.0123148495	0.047927074	0.030495364	
0.016285373	-0.002449307	-0.055389494	0.017018601	-0.05029933	0.038622294	-0.03642727	-0.007969142	0.029015483	0.042048167	
-0.00076267065	0.026938371	-0.052599892	0.030048143	-0.04168344	0.045197457	-0.02554687	-0.011596575	0.022800243	0.03793487	
0.0025930365	0.013765282	-0.047037642	0.02589969	-0.032490116	0.053303506	-0.022058602	-0.03507884	0.038357902	0.035058595	
0.0030565334	-0.020480778	-0.033474896	0.030817654	-0.02746067	0.072895944	-0.0052622138	-0.040800408	0.028325366	0.04423004	
0.005263165	-0.019882496	-0.020362837	0.006558526	-0.014610845	0.047843426	-0.01643354	-0.032105636	0.009302502	0.023263589	
-0.00076875155	-0.014246607	-0.00082803477	0.006487406	-0.013929443	0.05743659	-0.0056218975	-0.015065909	0.027205227	0.021946885	
-0.008317954	-0.024280863	-0.022036668	0.012781525	-0.0037524714	0.048518233	-0.011194184	0.0020225935	0.00378817	0.023875382	
0.007907695	-0.020087905	0.00019150105	0.005968833	0.0033211145	0.0080395	-0.018061627	-0.020085491	0.0050224294	0.016140798	
-0.028385572	-0.0092335045	0.025111815	-0.015772173	0.0065054107	0.026643299	0.004104659	-0.018658731	-0.015355674	0.021462617	
-0.006698938	-0.020322293	0.004591068	0.0058703353	-0.029723104	-0.0025322943	-0.0021775824	-0.01028336	0.006744812	-0.00023482583	
-0.010817466	-0.008904333	0.011288552	-0.00074356975	-0.013869926	-0.03186145	0.005112953	-0.010234804	0.006145486	0.002374883	
-0.0069845687	-0.009345206	0.015225831	-0.007120744	0.012879123	0.00067692134	0.006748872	-0.006504005	0.020519054	0.009614642	
0.0023682965	-0.0027726872	-0.010771446	-0.010724014	-0.01676016	0.004703012	9.113605e-06	-0.011123214	-0.0083671855	-0.013650834	
-0.013558072	-0.0067523695	0.02681454	-0.021537138	-0.011148169	-0.002306767	-0.0013705118	0.0010057013	-0.022593021	0.0064829974	
-0.00302286	0.0027191252	-0.025819238	-0.004297145	-0.007674919	0.0038357505	0.011273369	-0.0019077037	-0.0021066542	-0.001805492	
-0.00641811	-0.01318094	8.816441e-05	0.001085257	-0.00724475	0.0072076744	-0.0015618211	-0.017043225	0.008045759	-0.0031344756	
0.009307847	0.006246286	0.0010074413	0.015753796	0.004862255	-0.008232937	-0.013815407	0.0022591448	0.001858814	0.0090891	
0.0028727988	-0.0014712837	0.010603548	-0.009405298	-0.022623988	0.014757763	-0.018541533	0.00058599404	-0.00904028	-0.0039804117	
0.018591197	-0.008651353	0.015710777	0.003434363	-0.008734433	-0.005092448	-0.010916422	-0.012738686	-0.0026093482	-0.0067536538	
0.0047012544	0.0075512305	-0.009983548	0.016651053	-0.0038730197	0.004124461	0.016044838	0.006846351	-0.00822702	0.0032711918	
-0.0032712035	-0.0019649682	-0.0019295999	0.020528296	0.013481	0.015410204	-0.004373533	0.0069295685	0.0068971477	-0.004182587	
0.012365218	-0.0029347439	-0.0055306107	0.0032862665	-0.0045725335	0.007401678	-0.0111640245	0.012943328	-0.001927771	-0.024400117	
-0.0067552985	0.0035021577	-0.014747267	0.015287721	0.0016527616	0.008249542	0.0048348107	0.0018669168	0.016898662	-0.012107896	
-0.014330371	0.005316832	-0.018532205	0.020112168	-0.0396083	0.025411218	-0.0265623	-0.017650671	-7.992643e-05	0.0104764085	
-0.0069873543	0.0045713116	-0.04385042	0.04538189	-0.04746618	0.042229537	-0.03537571	-0.01067328	0.045061056	-0.0017467405	
0.011783251	0.0002731051	-0.053691987	0.026512953	-0.030737948	0.063313834	-0.051654335	-0.015729126	0.027584638	0.01765457	
0.015689967	-0.0012229434	-0.056854904	0.032955777	-0.028412884	0.06601998	-0.05727754	0.023869567	0.05310013	0.003062998	
0.008364498	-0.01432618	-0.07708595	0.02811744	-0.034703743	0.071340166	-0.067387395	-0.006274236	0.030760879	0.05849914	
0.0112543395	0.014802383	-0.07201467	0.02275677	-0.056798626	0.059214722	-0.059972115	-0.030168777	0.02833568	0.029009478	
-0.010326077	0.029486548	-0.048535	0.019575246	-0.03666837	0.059276756	-0.05954252	-0.022394653	0.033346508	0.037891902	
-0.01484619	0.0032439628	-0.057644967	0.016854687	-0.04362623	0.049123913	-0.034275457	-0.027574617	0.045813788	0.025272012	
0.011539363	0.003396068	-0.035268877	0.011416931	-0.04188352	0.03918929	-0.011194021	-0.03306512	0.031657882	0.0194907	
0.009368709	-0.009639367	-0.028926652	0.014936159	-0.008618158	0.03095218	-0.014387588	-0.002104111	-0.007485076	0.01930572	
0.0039231633	-0.0022530118	-0.008838294	-0.003530055	-0.0009829545	0.013362989	-0.029022897	-0.040878244	0.01623044	0.019967578	
0.0020985636	0.005831624	-0.010837187	0.009965227	0.011311777	0.0008844937	-0.007433484	-0.0058589466	-0.009305482	0.01709243	
-0.01003746	-0.019367103	0.008459723	-0.025806885	0.005869774	-0.0002634758	-0.014669767	-0.0023963547	-0.01064856	0.017823508	
0.00014999657	-0.0076070633	0.006709931	0.009558888	-0.0029855738	-0.021083988	-0.015672823	0.0052574836	4.973974e-05	-0.0037481189	
0.004676587	0.010335427	0.012741538	-0.0043343096	-0.0022522665	0.0011956325	-0.00613459	-0.00897651	-0.018780584	0.012884611	
-0.008451948	-0.0006239773	0.0074578556	-0.009552351	0.019152014	0.013593432	-0.01634781	-0.0021557729	0.0042397645	0.0044894316	
-0.014102717	-0.024473354	-0.011854486	-0.0004275781	0.0058664447	-0.008910571	-0.0018714566	0.0075955666	0.008967965	-0.0045727054	
0.0015730116	-0.014753812	0.015057837	0.008306295	0.016010417	0.013825754	-0.007997608	-0.006553018	-0.00773207	0.00040488943	
-0.015950458	0.007411602	0.010821098	-0.009912254	-0.010313202	0.011394081	-0.0050014094	0.0031932937	-0.003747346	0.00014617816	
-0.010800419	0.0076675266	0.002818519	0.006137432	-0.0019529383	-0.007468442	0.013983145	-0.009171322	0.0024535386	0.0065594567	
-0.012516155	0.013459844	0.010181004	-0.008476435	-0.021721352	-0.005692568	0.0055268602	0.0014931508	-0.004991102	0.0030121836	
-0.012297624	-0.008270451	-9.8050856e-05	-0.002255374	0.005141609	0.0018322737	-0.012298191	-0.00959388	-0.008470389	-0.0006361223	
-0.015899962	0.0047277394	-0.009033571	0.0033120061	-0.015247761	-0.005351495	0.0015297629	-0.0055672564	0.010214251	0.0053665023	
-0.0026831008	-0.010146909	0.0030673153	0.0019250213	0.022725133	-0.006633453	-0.0031592848	-0.0057346304	0.0021270118	-0.0032292265	
0.012451693	-0.0008825172	0.0012934863	0.015480209	0.0027171513	-0.010272917	0.0039852555	0.006422931	-0.01058457	0.0018338278	
-0.0096458355	-0.0033975525	-0.0025895822	-0.006923848	-0.0022261618	0.0015483937	-0.012117854	-0.015479832	0.0063491235	-0.0068357065	
0.0011702401	0.020712424	-0.024140256	0.00088710495	0.0015690939	0.011297234	-0.005431011	0.0045104646	0.0051492765	-0.013572582	
-0.008766109	0.024365034	-0.017452557	0.014439194	0.013348717	0.006953465	-0.004699762	0.006817597	0.0005197444	-0.002557874	
-0.01208394	0.013236392	-0.014957774	0.014833429	-0.018986799	0.0059924237	-0.012544503	-0.0072045056	0.003628339	0.009787522	
-0.0065326416	-0.008907577	-0.02990005	0.02378993	-0.015959952	0.012081844	-0.016879342	0.015012948	0.02594992	0.01664154	
-0.014446246	-0.021663938	-0.030902086	0.01622038	-0.047692638	0.020050725	-0.03704682	0.01753857	0.0035628097	0.029314136	
-0.0069158874	-0.009847248	-0.028588185	0.011569696	-0.013295777	0.029498847	-0.037608366	0.024366591	0.00029439453	0.037797473	
-0.0076297238	-0.004367448	-0.03656761	0.020419763	-0.016161	0.049272485	-0.029837357	0.019529702	0.00010380011	0.051388524	
-0.013953798	-0.004379501	-0.032160003	0.008987314	-0.04069517	0.032447033	-0.027987676	0.0025586295	0.005398634	0.054832745	
0.010563877	0.0010396795	-0.026226778	0.014475451	-0.021454046	0.0031114286	-0.04093736	-0.009878277	0.017993528	0.008152145	
-0.0057152235	-0.013222012	-0.016099432	0.009119622	0.007512405	0.01757633	-0.015157469	0.004914111	0.0033231725	0.035195965	
-0.00034713218	0.00032252824	-0.0023784402	0.0047359024	0.003763499	0.00796207	-0.016967373	-0.0021367217	-0.0069928668	0.0055980324	
0.0054025147	0.007320298	-0.029865481	-0.010702935	-0.016322521	0.01939769	-0.032946076	0.009264437	-0.011777387	0.0148003055	
-0.0086048385	-0.008853824	-0.023369668	-0.0042864056	0.0062400857	0.009434882	-0.010184186	-0.0016450195	-0.012716127	0.028707193	
0.0042871083	-0.016497158	-0.00234	0.009507074	-0.0010755259	-0.00030670513	0.013236901	0.025059136	0.019000415	0.01835527	
-0.008705883	0.008046862	0.0013834065	0.005198176	0.0008400399	0.01176681	-0.018788014	-0.008032358	-0.020678785	0.017791899	
-0.0057825544	0.0052890214	-0.0068754666	0.0067052837	-0.005037764	0.00718545	0.00013903048	0.0111242635	-0.0044601667	0.009162899	
-0.021211883	-0.0045225685	0.011346185	0.01904608	0.004579138	0.007946967	0.0091333855	0.0063596526	-0.0042884485	0.020914951	
-0.02031094	-0.0089947395	-0.0009961086	0.011970987	-0.010685883	0.012068284	-0.0017753678	0.007004465	-0.008278739	-0.008570886	
-0.0074947523	0.0042501525	-0.0071387244	-0.016013967	0.018963726	-0.0107802395	-0.016653484	-0.008608946	-0.0032169872	-0.008722135	
-0.004240642	-0.0005923399	-0.012210119	-0.007370819	-0.00020627865	0.007929823	-0.0028827917	-0.003632717	-0.011219796	-0.0010160267	
-0.009266498	0.012883277	-0.0032457884	0.019505866	-0.01062722	0.008147818	0.0056529352	0.0026278421	0.009185532	0.010696433	
-0.0036007245	-0.007918537	-0.019676281	-0.0012413965	-0.00029012805	-0.021050664	-0.0009849387	0.0018504678	0.0017031486	-0.00034741824	
0.021781573	0.0009985844	0.011608809	0.009935003	-0.01196042	-0.0068317344	0.0089698415	-0.005481516	-0.0017833035	-0.0006947184	
-0.011538203	0.0067607006	0.00067292276	0.0028612553	-0.0001168748	-0.002876367	-0.01089826	-0.01852021	0.010841049	0.017030751	
0.003582152	-0.011239245	0.0019529025	0.019373965	0.015795153	-0.001828095	-0.013906564	0.0076598665	-0.0069216294	-0.00216776	
-0.0075671636	-0.028252307	-0.0137702925	0.0021902604	0.0023299116	0.010701245	-0.025550663	-0.015016924	-0.011717257	0.0038515218	
-0.005031569	-0.003339768	-0.00248776	-0.007859097	0.008882034	-0.012058646	0.00607104	0.009906577	-0.01527389	-0.010197599	
-0.002512538	-0.01297475	0.015325644	-0.0041952482	-0.008595209	0.002405368	-0.0050967513	0.005147984	0.007667849	0.0065138577	
0.005259901	-0.0018820496	0.0057196114	-0.0044405633	-0.0057582175	-0.0019188719	-0.01863293	0.0007900139	0.004845444	0.00033561466	
0.007267893	-0.000381552	0.008222749	0.0023632783	-0.00027347836	0.006906127	-0.011105511	-0.006768003	0.009561491	-0.0024073771	
-0.006716738	0.003878008	-0.015200616	0.010522474	0.0039413134	0.004797972	-0.021816105	0.03748023	0.006956608	-0.0040394445	
0.010068894	-0.008631642	-0.009386104	0.0044715814	-0.010575848	0.010962687	-0.028402418	0.037859462	-0.0035311913	-0.0028763309	
-0.012443973	0.010404687	-0.008856271	0.00866131	-0.0023872945	-0.015870495	-0.016103633	0.04548147	-0.011111216	0.018192677	
0.0045724898	0.00070572103	-0.016238388	0.023550132	-0.01474158	-0.0029495058	-0.031793114	0.0510594	-0.018415367	0.029100776	
0.016830796	-0.005189513	-0.011783978	-0.0044692056	-0.022076814	-0.008894848	-0.030897887	0.03892061	-0.033459738	0.0549087	
0.0013520733	0.008719655	-0.014074452	0.00038883887	-0.021514809	-0.007751261	-0.01917495	0.027228264	-0.021945357	0.044684067	
0.0053529693	-0.017177925	-0.0012514219	-0.004408996	-0.015076355	0.0029030717	-0.024625568	0.038412686	-0.015366616	0.013711199	
-0.008512566	-0.004722893	-0.00020984522	-0.009026767	0.0014251712	-0.0011017652	-0.007439773	0.01127196	-0.0067848917	0.031429444	
-0.0018955127	-0.004989866	-0.019667856	-0.009941202	0.0064201206	0.008836259	-0.029336901	0.020201448	-0.004307241	0.020533033	
0.006823389	-0.0017967433	0.020590505	-0.007832014	-0.01986724	-0.0055060782	-0.0030338387	0.0060966336	-0.010456763	-0.0024446053	
-0.010890008	0.017575894	-0.0046341023	6.0151484e-05	-0.015876474	0.0037465394	-0.018843278	0.01187363	-0.006684659	0.018678095	
0.011530552	0.008232161	0.0009335426	0.009329303	-0.0019887364	-0.015365357	-0.007227452	-0.008707148	-0.005522236	0.011307356	
0.018672967	0.0017798513	-0.0064759017	0.0060173203	0.0032726098	0.0012497272	0.004024811	-0.010222119	0.0014028377	0.019765103	
-0.011051284	-0.00033053587	-0.0063413465	0.0038154437	-0.018622145	-0.0027509115	-0.0064337417	0.0022627725	-0.0046971603	0.015634881	
-0.024443286	0.010546136	0.006900522	-0.008570109	-0.01080371	-0.021579767	0.0011092091	-0.004181293	0.0066365628	0.0030170386	
0.0029448722	-0.0015763056	-0.005136458	0.004206347	0.003827567	-0.0050159064	-0.005105886	-0.010922063	0.0040756157	0.0037754714	
-0.006298766	-0.0121392645	0.005596733	-0.004281248	-0.017762734	0.011544008	0.00018732593	0.0028973445	0.0055776527	0.004985042	
0.011964293	0.008396075	-1.1163086e-05	-0.025864845	-0.0050287726	0.009477418	0.017000305	-0.016926091	0.0016351112	0.016057665	
0.019369796	0.00058956747	-0.00257174	0.0070882062	-0.010466115	0.007631948	0.0014862634	0.018903332	-0.0019656366	-0.0014828558	
-0.002572488	0.03736521	-0.004071985	-0.011997596	-0.0048709745	-0.011533054	0.0010337776	0.011184332	-0.024106184	-0.004165425	
0.003746399	0.008934339	0.019219505	0.023902195	-0.0033515873	-0.012706285	-0.014364055	0.005812278	-0.010215658	0.004159549	
-0.001565396	-0.006531092	0.0020739343	0.009776422	0.008577683	0.017341292	-0.01686792	0.0052104127	0.004801958	-0.0080789	
-0.022005128	0.014391731	0.007955713	-0.00820154	0.0004456611	-0.0005755989	0.005095395	-0.021627298	0.0064459043	0.0027234226	
0.0011652285	-0.005346084	-0.0031383738	-0.0027321465	0.013554241	0.008160909	-0.013662187	0.025593488	-0.009483675	0.0039037522	
-0.0031046194	-0.0043172953	0.0055501685	0.016495	0.010520164	-0.0017978618	-0.0038136346	-0.009294381	0.014367879	0.0026086685	
0.006592493	0.004545243	0.003704793	0.0045151967	-0.007023252	-3.4548193e-06	0.014800396	-0.015293333	0.0010362213	-0.01910835	
-0.007302764	0.0015390548	-0.003849822	-0.004337863	0.023535868	0.013497002	0.0006691671	-0.019133482	0.00043788055	0.010504764	
-0.0029396734	-0.0009845857	-0.007992725	0.015348171	0.004456787	0.00017491513	0.00192355	0.014891196	0.006404048	1.4636098e-05	
0.0053996826	-0.0046363277	-0.0036666973	-0.001779628	0.0037038252	-0.014090054	-0.015535376	0.02052914	0.0138553055	0.004472235	
0.0098171905	-0.0019187194	-0.0012765743	0.008902779	-0.00035858568	-0.011339654	-0.0126187	0.012506621	-0.012212555	-0.002264917	
0.0016406788	-0.00997489	-0.009724168	0.008373977	-0.0035887822	-0.008815356	-0.035380036	0.033437982	-0.014398426	0.019459136	
-0.008228203	-0.0078428015	-8.0557926e-05	0.0002712837	-0.026269002	-0.022808155	-0.023688173	0.03460982	-0.0052511985	0.018183298	
-0.0068229726	-0.01380021	0.005412972	0.005495994	-0.026588684	0.0026998748	0.011162314	0.015750142	0.00837838	-0.0004366189	
0.0056742774	0.011200002	0.015171522	-0.0042515732	0.008578542	-0.0033341933	-0.00083114824	0.015855663	0.0059266533	-0.0036179912	
-0.0047849906	-0.015595551	-0.0013539522	0.0008080632	-0.013766896	-0.0021977269	-0.01611979	0.008145658	0.016757416	0.009451978	
-0.010619214	0.0102433665	-0.014718263	-0.005400453	0.010014493	-0.009779241	0.016493939	0.004659815	0.010176568	0.02020969	
0.01299763	-0.009088345	0.0049562682	0.0011648351	0.0032331368	-0.008806125	-0.0029613003	-0.007004496	-0.0022583976	0.0030978709	
0.0014857955	-0.010022242	0.0053969095	-0.0056621726	0.013954221	-0.007257808	-0.0060661114	0.015275452	0.0053065415	-0.0047136857	
0.0007229182	-0.015535897	-0.00990031	-0.03248564	0.004433421	-0.00058208866	-0.00521909	-0.020809082	0.00923012	0.014148221	
-0.00054667395	0.010686179	-0.0016562528	-0.014214747	-0.0149628315	0.006441811	-0.008317802	-0.0035920884	0.020567676	0.008634261	
-0.011901171	-0.0049011474	0.009601196	0.00024451868	0.005536254	0.00043278874	0.000903876	0.0026787333	0.0036620945	0.022098042	
0.0011158966	0.004139711	0.005074037	-0.0048861876	0.0018712161	0.0047305063	-0.005799093	0.016610783	0.0058839424	-0.010871929	
0.0023072977	-0.0005549483	0.0019627393	0.012326681	0.021038363	0.0043309233	-0.005070345	-0.004714688	0.006912934	0.012189462	
-0.0043037273	-0.015561269	-0.006462033	0.0028992426	0.009466951	-0.0019087375	0.0020045717	0.009243895	-0.00024303391	-0.0034201131	
-0.0035801216	0.0083773015	0.022380622	0.008054172	0.01623923	-0.01345604	0.017661404	0.012673446	0.00812675	0.0077277524	
-0.012928081	0.005931471	0.0025695257	-0.015270922	0.005177394	-0.0046872017	-0.012384463	0.0013771666	0.008350829	0.004337336	
0.004762189	0.016565053	0.0009134962	0.003605781	-0.0058601457	0.002051824	0.019896576	0.0120164575	0.012908542	-0.01301923	
0.0037867865	0.017416487	-0.0122010745	0.0033730182	0.0050651473	0.025080603	0.0022620503	0.0114679085	0.020990243	-0.009897627	
-0.0015112942	0.0063108676	0.014607993	-0.0062278016	0.00653301	-0.0038897959	-0.0045050774	0.0024344625	0.019861376	0.007380607	
0.0036472941	-0.0038500251	-0.013126405	0.0019723545	-0.007057344	-0.01429499	0.007847482	-0.004580323	-0.007999291	-0.001085854	
-0.011103346	-0.00136404	-0.008987219	0.0047002444	-0.0060891653	0.0040300204	0.012970432	0.00085046934	-0.010994859	-0.010350317	
-0.006201597	-0.006226608	0.002316939	0.004389253	-0.0135770645	0.009221692	0.00032154875	0.0039199875	-0.012221257	-0.002501485	
0.004978326	0.012132509	-0.015094661	-0.008229025	-0.013029295	-0.010655283	0.009962368	0.0037497778	0.0090024145	0.008250592	
0.007919157	-0.008425163	-0.011297061	0.01723096	-0.015631974	0.0024855547	0.008257685	0.002559215	-0.00038922668	-0.0006690858	
0.015797405	-0.0015227721	-0.002671769	0.013175931	0.020831807	-0.008932824	0.0042749345	-0.0044632154	-0.011222659	-0.0053265826	
7.487128e-06	0.015573713	0.0043143244	0.0053676968	0.016012548	0.002115548	0.0076746265	0.0036422675	-0.006760934	0.0022958345	
0.0011621506	-0.01433753	-0.008414376	0.002336553	0.01662592	-0.009493944	0.0055818735	0.003765735	0.003521586	-6.596314e-05	
-0.011802088	0.017260458	0.002408963	-0.011655413	0.010727774	0.034788936	-0.0044087404	0.0030922524	-0.021000411	0.0012700801	
-0.0025299687	0.009416242	-0.016698973	0.008698426	-0.0025127279	0.0042877444	0.004439361	-0.012705605	0.0061699944	-0.0033663253	
-0.020138731	0.025813198	-0.0017965995	-0.0015886934	-0.012799386	-0.014829973	0.009725913	0.010069844	0.00672526	0.004483072	
0.012270336	-0.01625219	-0.008949749	-0.018120525	0.0041107377	-0.0010646083	-0.0022517438	0.031097779	-0.0238857	0.011078409	
0.009297181	0.004423321	0.0073501547	0.02091358	0.01938764	-0.008503575	0.0018908015	0.0005940383	0.009415405	-0.0025244718	
-0.008819457	-0.0063691344	-0.008004514	-0.0031502207	0.0044747135	0.0055989632	-0.0031479911	0.0177207	0.010367541	0.007813633	
0.007454705	0.011190808	0.0062966933	-0.010943949	-0.010952075	-0.0084091425	0.0049610683	-0.0025268823	-0.021303214	-0.004828915	
-0.008215494	0.006976824	0.009604304	0.01149339	-0.00037372892	0.0005389794	-0.0029041546	0.01142169	-0.009857838	0.0054802247	
0.02557799	-0.0011760131	-0.0005509352	-6.121342e-05	0.0076340595	0.011983942	0.0018743621	0.009492308	0.005799582	0.00538155	
-0.001184452	0.008812667	-0.019245667	0.0065623857	0.014273749	0.011545246	0.00719218	-0.01254621	-0.006548348	0.0075835725	
0.010016854	6.652486e-05	-0.0049533993	-0.007862154	-0.0013464686	0.0036102445	0.0038088378	0.015063093	-0.00238907	0.0044894735	
